<?xml version="1.0"?>
<opencv_storage>
<my_svm type_id="opencv-ml-svm">
  <svm_type>C_SVC</svm_type>
  <kernel><type>RBF</type>
    <gamma>2.2500000000000003e-003</gamma></kernel>
  <C>6.2500000000000000e+001</C>
  <term_criteria><epsilon>4.9999998882412910e-003</epsilon>
    <iterations>2147483647</iterations></term_criteria>
  <var_all>300</var_all>
  <var_count>300</var_count>
  <class_count>2</class_count>
  <class_labels type_id="opencv-matrix">
    <rows>1</rows>
    <cols>2</cols>
    <dt>i</dt>
    <data>
      0 1</data></class_labels>
  <sv_total>567</sv_total>
  <support_vectors>
    <_>
      2.09239811e-001 4.12708968e-002 1.35610759e-001 3.66103023e-001
      7.23821402e-001 3.15449655e-001 8.51258934e-001 1.20391393e+000
      1.29646854e-002 4.97107655e-001 4.04356003e-001 9.82706845e-001
      1.77774981e-001 1.02421321e-001 3.94431382e-001 1.44532844e-001
      1.26646727e-001 4.78949308e-001 1.37854768e-002 1.26456428e+000
      1.18330312e+000 2.31344417e-001 1.41405582e-001 3.31738479e-002
      4.88615409e-002 1.66924790e-001 7.06828356e-001 4.05238092e-001
      3.62687409e-001 5.17242670e-001 3.53207253e-002 4.31762099e-001
      2.72489097e-002 1.26247734e-001 1.23153403e-001 4.28140014e-002
      3.61906439e-001 5.76411448e-002 2.79483169e-001 2.06579138e-002
      5.30802310e-001 2.22966656e-001 2.69645274e-001 9.83399451e-002
      7.04592228e-001 3.47365975e-001 1.00595033e+000 7.13370070e-002
      2.85181671e-001 4.37458642e-002 2.23930642e-001 1.51495084e-001
      3.64713296e-002 1.83211826e-002 1.15820669e-001 3.25939387e-001
      1.42075866e-001 4.82283443e-001 3.07738245e-001 4.71438497e-001
      9.43011284e-001 6.27469003e-001 1.02717996e+000 1.93886951e-001
      4.27156985e-001 5.85543513e-001 4.79524285e-002 3.37428510e-001
      4.15660948e-001 1.32648394e-001 1.36138678e-001 3.89990479e-001
      3.78401190e-001 1.64268650e-002 4.10517484e-001 4.05879170e-001
      9.28915069e-002 3.63514200e-002 2.23324150e-001 2.38817438e-001
      8.10366273e-001 1.98967800e-001 3.67687531e-002 1.52537644e-001
      4.71302599e-001 3.38535070e-001 3.16206738e-002 6.34327605e-002
      7.83459619e-002 1.88390896e-001 7.12276638e-001 8.18396986e-001
      4.69204411e-002 3.27784151e-001 1.39201647e-002 2.96835989e-001
      4.60006036e-002 1.24848232e-001 7.17682466e-002 4.32590619e-002
      4.39617373e-002 3.00064266e-001 3.34785014e-001 9.89092886e-002
      8.46703947e-001 3.26470882e-001 3.97854904e-003 4.19065326e-001
      2.92526633e-001 7.67897010e-001 4.70736176e-002 2.18195334e-001
      1.32979322e-002 2.89118230e-001 2.76276976e-001 3.78773212e-001
      2.07464680e-001 1.78699687e-001 2.17867434e-001 2.10491017e-001
      2.71289736e-001 5.75030521e-002 7.63148606e-001 5.18977284e-001
      8.00363481e-001 3.61326039e-002 5.26897795e-003 5.28186738e-001
      9.53650251e-002 1.18355429e+000 4.83260423e-001 3.20370883e-001
      6.18524194e-001 5.29901087e-001 5.91135286e-002 2.34330133e-001
      1.44730061e-002 3.17295611e-001 1.99633434e-001 1.27370536e-001
      2.10081507e-002 7.82783031e-002 2.67261416e-001 3.09606761e-001
      7.29300737e-001 3.35692436e-001 8.08446825e-001 2.34084934e-001
      7.56002069e-001 5.53999782e-001 4.59347188e-001 2.25625500e-001
      1.36888742e-001 6.99527085e-001 9.43108425e-002 1.18267285e-002
      3.05723846e-001 4.04678285e-001 1.43383875e-001 1.01829119e-001
      4.32350516e-001 1.12108156e-001 1.72898993e-001 8.25567022e-002
      1.44083753e-001 3.36468555e-002 4.55075473e-001 9.83889759e-001
      6.31815661e-003 4.59694415e-001 1.13346353e-001 6.79370284e-001
      2.55019575e-001 6.08417273e-001 3.00215125e-001 2.83505172e-001
      7.21018851e-001 2.59103596e-001 5.66183686e-001 4.36835110e-001
      1.87955022e-001 1.23959146e-002 9.71107185e-002 1.18706651e-001
      2.21248537e-001 7.63806939e-001 4.58673596e-001 1.56548843e-001
      3.31412166e-001 4.79592800e-001 2.55539149e-001 1.47248032e-002
      1.03468932e-001 7.59192050e-001 5.93581498e-001 4.05579329e-001
      9.96085480e-002 6.01114213e-001 4.22978699e-001 3.38285297e-001
      7.74123132e-001 5.52594841e-001 3.18886429e-001 3.46111655e-001
      9.19679821e-001 6.32998586e-001 2.69185573e-001 5.03598809e-001
      2.70773649e-001 1.85912266e-001 2.41540462e-001 1.04140036e-001
      4.66691345e-001 5.24519503e-001 1.83730170e-001 1.58002838e-001
      1.83373466e-001 1.87661380e-001 1.13785350e+000 1.96014270e-001
      5.64159214e-001 4.56002533e-001 7.22000152e-002 4.21996146e-001
      2.26440072e-001 2.02392384e-001 8.20824444e-001 2.47453690e-001
      6.72968179e-002 5.66137075e-001 1.04100384e-001 3.24669212e-001
      2.60684222e-001 5.46115994e-001 5.74023724e-001 4.37539488e-001
      2.74946317e-002 4.23541013e-003 2.29611203e-001 5.81478747e-003
      9.68490466e-002 9.47851464e-002 1.02535419e-001 2.91126609e-001
      4.30449098e-001 5.00873983e-001 1.75656810e-001 1.31202650e+000
      3.75114292e-001 4.21084017e-001 2.48725340e-001 7.27363944e-001
      5.22870243e-001 2.57283270e-001 1.04732978e+000 1.05404817e-001
      6.80241168e-001 1.08938277e+000 5.06821394e-001 1.83406726e-001
      2.16033474e-001 1.91723034e-002 7.60181308e-001 7.55539238e-002
      2.00751886e-001 5.82674026e-001 1.13119796e-001 5.79085574e-003
      2.14435965e-001 8.40209424e-001 4.11025912e-001 3.41148525e-001
      5.80855668e-001 1.10069491e-001 2.78774984e-002 8.39644611e-001
      4.51654226e-001 6.17566109e-002 9.85949993e-001 2.98648745e-001
      3.35405499e-001 1.40962288e-001 4.41182673e-001 8.55967868e-003
      1.03976123e-001 2.33673081e-002 5.50596535e-001 1.69593066e-001
      3.70858669e-001 7.62791336e-001 3.76195699e-001 4.44877222e-002
      3.28491539e-001 4.39055741e-001 1.34322926e-001 3.39916766e-001
      3.46854292e-002 8.70322287e-002 3.32976103e-001 6.54723719e-002</_>
    <_>
      3.39895219e-001 4.68486138e-002 2.77097464e-001 5.46758711e-001
      2.23272085e+000 1.55698776e+000 1.52030909e+000 5.16000807e-001
      1.71739198e-002 1.07103848e+000 2.69098699e-001 1.73627949e+000
      4.74459648e-001 1.98500171e-001 3.74846339e-001 2.53563792e-001
      4.52370465e-001 5.46887875e-001 1.90660171e-002 1.45066357e+000
      1.49147141e+000 4.06456262e-001 2.27178767e-001 1.16894081e-001
      1.39649794e-001 1.25435680e-001 1.27500105e+000 2.99011081e-001
      2.22431493e+000 9.65880811e-001 6.28804415e-002 1.73657322e+000
      5.17083183e-002 1.74530536e-001 1.35418639e-001 3.63233797e-002
      3.42594475e-001 2.85943866e-001 5.21030247e-001 2.06844229e-002
      6.76357687e-001 2.33186394e-001 1.52272797e+000 1.24636218e-001
      4.56730157e-001 1.08018243e+000 5.83845913e-001 1.22827664e-001
      5.15808344e-001 2.92773359e-002 2.36446962e-001 2.67127424e-001
      4.55189049e-002 1.29604517e-002 1.26360148e-001 3.21273804e-001
      7.94731915e-001 4.52440351e-001 2.15240169e+000 4.24930811e-001
      4.10933524e-001 5.53113043e-001 1.20638156e+000 4.12810922e-001
      8.02268565e-001 5.64243913e-001 6.61212876e-002 5.02473831e-001
      1.30037653e+000 2.67363429e-001 1.47712529e-001 2.20950678e-001
      1.04331326e+000 2.07411498e-002 4.99200732e-001 1.02181745e+000
      1.75165907e-001 4.30827104e-002 9.70417857e-001 2.57323533e-001
      1.63761497e+000 5.64826846e-001 9.50832069e-002 4.53164637e-001
      4.77403909e-001 1.43115675e+000 1.02977224e-001 6.13428205e-002
      2.76945174e-001 1.45384908e-001 1.52754307e+000 1.20455015e+000
      4.77614403e-002 5.62135339e-001 2.24262550e-002 3.60245377e-001
      3.99571843e-002 9.98700187e-002 1.31493270e-001 6.96840063e-002
      4.88440059e-002 3.03669721e-001 6.31949961e-001 9.83571783e-002
      2.43731499e+000 5.10565519e-001 7.60979066e-003 8.50967467e-001
      2.76925355e-001 7.20809340e-001 6.42489865e-002 1.17678249e+000
      2.08132509e-002 5.84290206e-001 6.77013874e-001 1.63206145e-001
      1.36189365e+000 3.20504010e-001 2.61767238e-001 6.08263493e-001
      1.54522979e+000 4.11270931e-002 8.82646441e-001 1.10831702e+000
      9.12973821e-001 4.88131866e-002 5.95446397e-003 1.38374031e+000
      1.82928488e-001 3.16441274e+000 1.15114498e+000 2.49457255e-001
      6.74441993e-001 5.37900567e-001 5.23043536e-002 1.60797322e+000
      1.53450510e-002 2.10146368e-001 4.12889391e-001 1.79645672e-001
      7.71484002e-002 3.85618746e-001 5.66797137e-001 2.76559949e-001
      8.91966999e-001 1.67341217e-001 1.27299309e+000 5.05137563e-001
      8.20349932e-001 8.58233511e-001 1.95039308e+000 3.88958126e-001
      3.21282148e-001 3.52036893e-001 2.19345167e-001 2.95803528e-002
      8.59400570e-001 7.46313095e-001 1.15286909e-001 9.76744145e-002
      7.62792349e-001 1.34513810e-001 3.18969995e-001 8.58560503e-002
      2.14975238e-001 4.38835584e-002 7.04544246e-001 3.59773934e-001
      7.87463039e-003 1.58602512e+000 2.43853778e-001 1.36908877e+000
      4.92698044e-001 1.00076354e+000 3.80078793e-001 4.06977713e-001
      1.01916349e+000 6.57385170e-001 9.00170565e-001 4.29312915e-001
      3.28034490e-001 1.59391463e-002 1.68406054e-001 1.22559696e-001
      5.50307274e-001 9.08991516e-001 4.25471485e-001 2.38689005e-001
      8.59121978e-001 6.22983694e-001 3.31734776e-001 6.44795829e-003
      4.48437184e-001 8.30496013e-001 1.68667090e+000 1.62739372e+000
      2.02812746e-001 1.39040124e+000 1.35955191e+000 2.44566751e+000
      8.73270094e-001 7.09996760e-001 5.01038611e-001 6.00037992e-001
      1.01469934e+000 7.63459444e-001 4.98882532e-001 1.88020217e+000
      6.37209296e-001 1.10648131e+000 5.31582296e-001 2.07312152e-001
      7.83889830e-001 9.75472391e-001 4.61451322e-001 1.35947183e-001
      4.01653439e-001 2.26423800e-001 1.46779418e+000 4.69042212e-001
      3.82621378e-001 1.25163746e+000 1.80649266e-001 2.00842714e+000
      6.23494864e-001 2.57509142e-001 1.15620923e+000 2.29518676e+000
      1.49572223e-001 7.19397783e-001 6.63605854e-002 3.94207478e-001
      3.83732527e-001 1.86924422e+000 1.52898324e+000 8.30936670e-001
      1.58476472e-001 3.61753232e-003 1.03240025e+000 5.73222013e-003
      1.49901614e-001 1.62903428e-001 2.65513599e-001 2.17021182e-001
      2.59600472e+000 4.38761741e-001 9.82433856e-001 5.23714125e-001
      1.85381866e+000 8.44918668e-001 3.36576015e-001 1.47621191e+000
      1.35213196e+000 6.87764227e-001 1.40966451e+000 1.93382770e-001
      1.89899611e+000 2.13709068e+000 3.99493843e-001 2.13897169e-001
      3.36633533e-001 1.33173103e-002 1.14531171e+000 2.01260269e-001
      1.00395548e+000 4.94956940e-001 1.97683871e-001 2.84886323e-002
      5.20063996e-001 6.59483790e-001 8.88375878e-001 4.94755536e-001
      1.01270890e+000 4.18585807e-001 9.27877724e-002 6.39492273e-001
      1.05220127e+000 1.17336616e-001 3.26598072e+000 4.54129785e-001
      4.17111546e-001 3.06368023e-001 1.75151455e+000 2.85688378e-002
      1.60033107e-001 3.55435967e-001 1.29363084e+000 3.81326288e-001
      1.12569308e+000 1.27193260e+000 4.47369546e-001 4.89408299e-002
      4.27272111e-001 2.19181442e+000 3.02782238e-001 1.80761173e-001
      3.69965211e-002 1.49704933e-001 4.08400536e-001 1.40469462e-001</_>
    <_>
      3.49337667e-001 6.43150732e-002 1.18540800e+000 2.48363033e-001
      7.59240448e-001 1.02648902e+000 9.62588131e-001 9.23646450e-001
      1.74244735e-002 1.55125463e+000 1.41994357e+000 1.88580346e+000
      6.95354760e-001 2.17489555e-001 3.01872164e-001 4.59769249e-001
      3.58170569e-001 7.99576879e-001 2.29702443e-002 9.92387772e-001
      2.57604408e+000 4.54012424e-001 2.09549680e-001 5.22396080e-002
      8.57909098e-002 6.67374134e-002 2.47188836e-001 4.23727572e-001
      4.54047948e-001 4.01604533e-001 6.93335384e-002 3.07537246e+000
      3.86790410e-002 1.77778929e-001 9.91631821e-002 3.14821973e-002
      2.23846763e-001 4.34946656e-001 1.39566171e+000 1.28504960e-002
      1.06877029e+000 3.36529911e-001 1.55150807e+000 1.58742964e-001
      2.81356782e-001 5.90663552e-001 6.63344264e-001 6.18265867e-002
      3.59591067e-001 2.17769723e-002 3.38731468e-001 3.32096428e-001
      4.85702716e-002 1.15486439e-002 1.59390196e-001 4.31758106e-001
      1.30236089e-001 7.96731830e-001 3.68700206e-001 6.71331525e-001
      9.97027874e-001 1.06416094e+000 8.25534105e-001 2.03977421e-001
      1.34003949e+000 2.15645686e-001 4.64954488e-002 4.12207335e-001
      1.55245531e+000 1.31515279e-001 1.61243707e-001 3.01235139e-001
      7.17280507e-001 1.78019963e-002 3.48833889e-001 3.69173378e-001
      1.37601957e-001 4.82160524e-002 5.35821736e-001 2.25282058e-001
      8.67303014e-001 5.43964148e-001 4.73197736e-002 7.31759012e-001
      1.43188667e+000 8.63792598e-001 2.20050186e-001 4.53944057e-002
      9.44008380e-002 2.21872658e-001 4.54932839e-001 8.46781492e-001
      8.48460197e-002 9.83493328e-001 4.74815331e-002 1.26289880e+000
      3.04377284e-002 2.46631399e-001 1.81010813e-001 5.38251661e-002
      3.58680114e-002 3.03359836e-001 3.13945627e+000 1.13596819e-001
      5.36329508e-001 3.58515292e-001 7.23788422e-003 3.03822964e-001
      3.02534282e-001 8.39345753e-001 6.22918159e-002 5.17659426e-001
      1.22062135e-002 5.26961088e-001 1.59973800e+000 3.65719825e-001
      3.14428091e-001 9.88023430e-002 4.68347788e-001 7.85845146e-002
      2.07949430e-001 2.51069963e-002 5.75159132e-001 2.87490726e-001
      5.27093709e-001 4.87861857e-002 5.88607183e-003 1.62429786e+000
      1.45186737e-001 2.12401533e+000 8.40162396e-001 3.11168373e-001
      1.03092682e+000 5.20451128e-001 5.84662445e-002 1.31133211e+000
      1.41644450e-002 1.34265855e-001 4.31539655e-001 2.16354534e-001
      2.68144757e-002 3.46819431e-001 4.96198505e-001 3.18663448e-001
      9.06772137e-001 3.76082748e-001 8.05152178e-001 3.63164157e-001
      2.08270997e-001 1.37100661e+000 8.05653334e-001 2.94499338e-001
      1.32361865e+000 3.18324655e-001 2.04584464e-001 1.65016521e-002
      2.98495710e-001 7.29057372e-001 7.56018087e-002 1.41832590e-001
      1.35269976e+000 2.09778756e-001 7.93073103e-002 2.39524230e-001
      3.55605096e-001 3.62745486e-002 1.10833144e+000 7.68160701e-001
      6.47838647e-003 1.48921490e+000 1.64953738e-001 1.79899478e+000
      1.20758462e+000 7.04530358e-001 1.06747258e+000 1.04594052e+000
      1.08102036e+000 3.53449255e-001 1.02869481e-001 1.15576804e-001
      6.56903148e-001 1.29412832e-002 1.65670857e-001 2.02671096e-001
      4.54273850e-001 6.54795170e-001 4.21281189e-001 1.69045135e-001
      1.70240927e+000 7.26895332e-001 3.77483279e-001 1.38906306e-002
      5.27240992e-001 6.80797517e-001 1.50540161e+000 8.87103081e-001
      1.61131650e-001 1.35730255e+000 6.73984408e-001 4.39644545e-001
      6.74451649e-001 6.07831240e-001 1.13770103e+000 9.71240222e-001
      4.07950640e-001 2.41272658e-001 1.95938215e-001 3.37545931e-001
      5.71348667e-001 1.61286458e-001 4.14846301e-001 2.05552533e-001
      8.42849493e-001 1.61157632e+000 5.59051394e-001 1.82444870e-001
      3.91102940e-001 4.51225340e-001 1.09390879e+000 3.74815404e-001
      8.10584724e-001 1.68965113e+000 4.97484021e-002 1.06747901e+000
      5.67650795e-001 6.62679732e-001 7.74596334e-001 9.59492564e-001
      1.44796878e-001 1.21287799e+000 1.29614890e-001 4.74863112e-001
      4.41840678e-001 5.87800860e-001 7.90357590e-001 2.26384237e-001
      1.71426069e-002 4.98570595e-003 6.60750747e-001 3.27705313e-003
      2.17201099e-001 1.24193080e-001 1.08275384e-001 6.01656318e-001
      8.65216911e-001 4.60350811e-001 1.39807963e+000 8.24416637e-001
      1.02099717e+000 8.84645879e-001 5.51934659e-001 1.52922237e+000
      6.94778085e-001 1.86380446e+000 1.29276979e+000 1.84635609e-001
      1.76581353e-001 2.21697092e+000 1.18042290e+000 1.81972519e-001
      2.36816660e-001 1.15380250e-002 1.05856085e+000 1.41585588e-001
      2.61397421e-001 7.80220747e-001 1.82444453e-001 1.37208942e-002
      5.60996294e-001 1.39078856e+000 5.56345642e-001 3.07841897e-001
      1.59068358e+000 1.99534908e-001 4.99959253e-002 7.68780291e-001
      4.31300759e-001 1.81858629e-001 1.23233306e+000 4.27157849e-001
      4.13322270e-001 1.36272013e-001 4.39818144e-001 1.70959141e-002
      1.68190926e-001 5.39292917e-002 1.16612327e+000 8.53281438e-001
      1.36853755e+000 1.54806340e+000 1.14232147e+000 6.00166656e-002
      3.51897329e-001 1.30637097e+000 1.30195296e+000 1.70649081e-001
      4.68531400e-002 2.22098812e-001 4.58503336e-001 5.52098043e-002</_>
    <_>
      2.76838511e-001 4.56829779e-002 1.54796883e-001 4.13622707e-001
      6.80064857e-001 8.66563380e-001 4.97073561e-001 1.80056885e-001
      1.06544243e-002 1.32041597e+000 1.56353191e-001 5.89135349e-001
      4.55312490e-001 1.42384365e-001 1.94290727e-001 2.61277735e-001
      3.98435265e-001 3.39607269e-001 1.46427294e-002 6.80619955e-001
      3.85408759e-001 4.43182796e-001 1.34869829e-001 6.89354017e-002
      1.10857621e-001 1.44814178e-001 5.59781134e-001 3.19802672e-001
      7.80117095e-001 3.03556561e-001 2.49510687e-002 1.32878506e+000
      2.74342913e-002 9.90911871e-002 1.07553646e-001 3.97938937e-002
      4.17236954e-001 3.15224588e-001 1.17516994e+000 1.25059765e-002
      5.29589057e-001 1.87751785e-001 3.37068439e-001 9.33462083e-002
      4.44231898e-001 2.58438051e-001 4.39521611e-001 1.04385912e-001
      4.45708990e-001 3.20846029e-002 2.63723969e-001 4.15277690e-001
      2.62919851e-002 1.40959658e-002 7.23041967e-002 2.06820577e-001
      3.18140864e-001 6.85535371e-001 8.44473660e-001 4.37592924e-001
      3.29598874e-001 1.10602152e+000 5.84645927e-001 4.27067161e-001
      1.87938437e-001 8.16954315e-001 2.92707011e-002 3.66531879e-001
      3.09640884e-001 6.05498664e-002 1.01071969e-001 2.23559320e-001
      6.44393206e-001 1.54094789e-002 2.77007073e-001 3.69916171e-001
      9.66940895e-002 2.92746145e-002 5.78092515e-001 1.85004964e-001
      8.13273668e-001 2.35570654e-001 4.55152504e-002 2.24771157e-001
      4.19265896e-001 3.83560359e-001 1.44668669e-001 7.32823536e-002
      1.95474893e-001 7.37648085e-002 9.52113986e-001 2.27244705e-001
      3.45674492e-002 4.28262979e-001 2.73965020e-002 2.82508969e-001
      2.97919046e-002 1.02215432e-001 7.27700144e-002 5.18027470e-002
      2.91451160e-002 3.54224712e-001 8.94800842e-001 4.86677885e-002
      3.87477398e-001 2.55468398e-001 3.88039183e-003 3.53461593e-001
      1.48234904e-001 1.86310083e-001 3.66046838e-002 6.28345609e-001
      1.30520938e-002 3.53597164e-001 5.56115389e-001 4.19427156e-001
      4.82956201e-001 2.55017936e-001 2.28949189e-001 3.51860851e-001
      1.84764281e-001 2.73480210e-002 4.58657682e-001 1.08931673e+000
      9.18593287e-001 4.11349237e-002 7.18461256e-003 8.48534405e-001
      1.05493456e-001 4.97552425e-001 5.86527824e-001 2.58944601e-001
      4.79967654e-001 1.93233833e-001 4.25000787e-002 1.12495565e+000
      2.18104925e-002 7.17769191e-002 2.35768437e-001 9.92381945e-002
      4.41012532e-002 2.84437716e-001 5.44882715e-001 2.19868332e-001
      2.03312546e-001 4.56371576e-001 4.46207076e-001 1.52076483e-001
      2.01397762e-001 1.88644245e-001 6.74932837e-001 6.72018677e-002
      3.90781164e-001 1.68133840e-001 1.34021029e-001 1.67453885e-002
      3.22179735e-001 5.58258593e-001 4.73939329e-002 3.82766128e-002
      3.20356011e-001 1.35657132e-001 2.98301369e-001 8.13447312e-002
      5.27296066e-001 4.44207527e-002 2.97172338e-001 7.82827973e-001
      3.96439014e-003 9.98449743e-001 2.05776617e-001 1.02584434e+000
      1.81009769e-001 3.22701484e-001 7.11141407e-001 9.33058560e-001
      4.09738600e-001 4.63327974e-001 3.64412874e-001 2.71167308e-001
      2.93902695e-001 9.50862467e-003 6.65126443e-002 1.07430637e-001
      4.23777699e-001 1.02599943e+000 3.98445696e-001 1.16605341e-001
      9.17229474e-001 7.00764120e-001 1.76244959e-001 1.68479625e-002
      4.03749108e-001 5.09663403e-001 3.64814222e-001 4.19962138e-001
      1.62393957e-001 7.26739824e-001 3.69618416e-001 8.49059939e-001
      5.31401634e-001 7.77297676e-001 2.49426290e-001 4.16669190e-001
      2.39887118e-001 2.23348260e-001 3.22324127e-001 2.20893717e+000
      4.68987644e-001 3.88165474e-001 1.53047010e-001 1.56724140e-001
      1.35409963e+000 8.18940401e-001 3.21562052e-001 9.50909108e-002
      9.43650454e-002 1.22572266e-001 6.17112637e-001 1.63529605e-001
      2.18472019e-001 1.39464188e+000 1.27816662e-001 2.10577989e+000
      7.40400434e-001 3.23866010e-001 1.88216180e-001 8.58077347e-001
      1.04177810e-001 1.52191257e+000 1.17352962e-001 2.02057257e-001
      2.40336299e-001 9.39210594e-001 1.06794965e+000 5.77030659e-001
      3.39771993e-002 3.63900373e-003 3.32970321e-001 4.44066804e-003
      1.00979820e-001 1.00637749e-001 1.32738784e-001 2.27769613e-001
      4.13415879e-001 1.39163598e-001 1.78288877e-001 1.79466650e-001
      6.63648129e-001 1.63819358e-001 6.96607053e-001 3.30184788e-001
      6.71874940e-001 9.26403522e-001 4.97583956e-001 1.05491653e-001
      4.52839404e-001 4.39544052e-001 6.38624430e-001 1.83510169e-001
      4.72965807e-001 1.32160885e-002 4.66387480e-001 1.20072708e-001
      2.86899507e-001 4.28221554e-001 8.42462853e-002 9.24586039e-003
      3.61745507e-001 2.30803788e-001 1.76338613e-001 4.30704921e-001
      3.84476215e-001 2.98150361e-001 5.95075935e-002 3.77745748e-001
      7.91575849e-001 7.37049505e-002 7.33791590e-001 2.72049069e-001
      3.61556739e-001 1.52525082e-001 6.95550561e-001 1.54896248e-002
      1.01002969e-001 8.23237300e-002 1.01654923e+000 2.78378993e-001
      8.94477129e-001 5.12936831e-001 3.81260723e-001 2.89014652e-002
      2.37959743e-001 6.31336451e-001 6.51539624e-001 1.89199567e-001
      2.57201996e-002 1.61353409e-001 7.57804886e-002 1.10203870e-001</_>
    <_>
      2.49069974e-001 4.96225767e-002 2.82665133e-001 4.34690833e-001
      9.03421998e-001 9.40824270e-001 4.11283404e-001 1.58357728e+000
      1.60912834e-002 8.17561746e-001 5.76096892e-001 9.78790700e-001
      2.23054722e-001 1.98842734e-001 3.61096203e-001 2.69983262e-001
      5.79774022e-001 5.52164257e-001 2.24449560e-002 1.21354902e+000
      4.70628411e-001 1.70129284e-001 1.61783308e-001 7.72089362e-002
      1.21339299e-001 3.31404090e-001 5.59511244e-001 3.86584818e-001
      7.08506286e-001 7.38229871e-001 4.25212309e-002 2.73284984e+000
      4.52466235e-002 1.80251390e-001 1.42535135e-001 6.60517067e-002
      3.45490009e-001 2.96637833e-001 4.45161998e-001 2.42404435e-002
      2.09943220e-001 3.34085524e-001 3.41254801e-001 1.03623562e-001
      4.20126766e-001 5.07697761e-001 3.56677443e-001 2.10074812e-001
      4.65935796e-001 6.36120737e-002 4.21502620e-001 1.85659289e-001
      4.27268706e-002 3.48555073e-002 1.14008762e-001 4.56643611e-001
      3.31993490e-001 6.55503690e-001 8.06157410e-001 1.05242336e+000
      6.71921909e-001 3.81220549e-001 1.11428022e+000 4.34890300e-001
      2.65863299e-001 6.37376368e-001 4.48154770e-002 6.05830967e-001
      1.04499507e+000 1.62594765e-001 2.69253641e-001 3.62325788e-001
      4.14352387e-001 2.10045204e-002 3.26534092e-001 6.43083632e-001
      1.22648723e-001 5.04385270e-002 5.47986746e-001 2.47404233e-001
      7.35121071e-001 2.76866704e-001 4.73089367e-002 1.91283181e-001
      6.07271016e-001 3.57712537e-001 1.07528865e-001 1.86487675e-001
      1.89817235e-001 2.47683063e-001 7.60231376e-001 1.81614971e+000
      7.93105885e-002 2.36343220e-001 2.25534681e-002 3.64340365e-001
      3.51924077e-002 1.84748784e-001 1.16548300e-001 1.41865194e-001
      1.40610203e-001 3.44408393e-001 1.99264908e+000 1.04074381e-001
      5.44828713e-001 2.95406818e-001 8.79840367e-003 3.24878544e-001
      2.68074363e-001 3.33839297e-001 5.91126680e-002 6.00197852e-001
      1.69650894e-002 5.15168309e-001 2.20302358e-001 7.03770518e-001
      6.00923777e-001 2.43708178e-001 2.81936228e-001 3.54199052e-001
      6.73162222e-001 5.85204251e-002 5.63667119e-001 1.17006314e+000
      1.04252768e+000 7.25281090e-002 9.29762982e-003 6.78936422e-001
      1.41743153e-001 2.16532898e+000 8.28272283e-001 2.10265547e-001
      2.19854921e-001 6.76544905e-001 4.83028591e-002 8.40340972e-001
      2.56864950e-002 3.73179168e-001 5.39018333e-001 1.73717856e-001
      8.21164995e-002 3.17959875e-001 3.76868755e-001 3.79253387e-001
      2.30651230e-001 6.12932444e-001 1.24502349e+000 3.09434026e-001
      1.42456675e+000 4.20629412e-001 7.34004080e-001 1.30613640e-001
      1.22249854e+000 4.31949496e-001 1.90271407e-001 2.20632013e-002
      3.40769768e-001 5.49374998e-001 6.22484758e-002 8.20303261e-002
      3.85302812e-001 8.94122347e-002 4.34918016e-001 2.17256799e-001
      2.58886039e-001 1.28416941e-001 1.65130305e+000 1.21221602e+000
      4.70891176e-003 1.70467699e+000 1.89943507e-001 9.25446630e-001
      1.56372279e-001 5.10414302e-001 8.56011450e-001 9.22878563e-001
      1.64839828e+000 3.85293096e-001 8.73760760e-001 7.09417045e-001
      6.01002872e-001 1.82170402e-002 1.06750704e-001 1.15591168e-001
      6.29054427e-001 8.63844514e-001 4.48325932e-001 2.11284712e-001
      1.66442549e+000 2.98678309e-001 4.42190826e-001 7.80168921e-003
      3.07194054e-001 5.31364799e-001 1.07141626e+000 8.07248473e-001
      1.10238358e-001 1.90765655e+000 7.35851288e-001 7.41302252e-001
      6.06314719e-001 4.85612929e-001 2.39927456e-001 2.63561785e-001
      8.93582880e-001 5.69489121e-001 3.32778394e-001 1.50339913e+000
      4.08243746e-001 3.08590949e-001 3.99626046e-001 1.99719995e-001
      1.05157781e+000 6.32205307e-001 2.34402061e-001 2.07087785e-001
      1.15670800e-001 1.60471752e-001 1.26284921e+000 2.57477194e-001
      5.18852770e-001 1.54431725e+000 2.28628382e-001 1.64901996e+000
      5.95065653e-001 3.46344620e-001 2.51589090e-001 7.66300678e-001
      2.72757411e-001 8.92287731e-001 9.65560451e-002 5.08390307e-001
      1.37783587e-001 7.87642181e-001 1.93538642e+000 4.56858695e-001
      9.60906371e-002 3.91176669e-003 4.51986402e-001 1.22914203e-002
      2.44439080e-001 1.32552907e-001 1.53319657e-001 2.42736578e-001
      1.22965086e+000 3.77648950e-001 1.71098694e-001 1.35496449e+000
      7.06414819e-001 2.90596962e-001 3.76462549e-001 3.38534415e-001
      4.67063695e-001 1.90998280e+000 4.03110355e-001 1.83262303e-001
      1.59685683e+000 1.29235172e+000 5.37437320e-001 1.29582942e-001
      3.35394084e-001 3.66993099e-002 6.72607422e-001 1.19827382e-001
      6.63369894e-001 5.46054244e-001 1.79088831e-001 1.33883338e-002
      3.91077518e-001 1.10538721e+000 3.38269264e-001 2.05827370e-001
      1.74100387e+000 3.93654048e-001 6.47884011e-002 2.01468444e+000
      5.54598868e-001 9.42404345e-002 2.07413936e+000 4.07084644e-001
      4.33762789e-001 1.84611440e-001 6.86754584e-001 2.34503020e-002
      1.73356310e-001 1.10370085e-001 1.31217110e+000 2.58527428e-001
      1.02228379e+000 3.23918283e-001 8.48968148e-001 4.64180410e-002
      3.79197329e-001 2.09080267e+000 2.68862635e-001 1.79368660e-001
      4.22349721e-002 1.47299469e-001 5.59345663e-001 2.23549217e-001</_>
    <_>
      3.25331122e-001 4.45319228e-002 3.22200328e-001 5.41318476e-001
      7.44319320e-001 1.47288787e+000 7.40455627e-001 2.10976392e-001
      1.95613019e-002 5.68401158e-001 6.78712964e-001 1.66745579e+000
      4.94280279e-001 1.91168815e-001 6.02407277e-001 5.86163104e-001
      3.39384347e-001 4.07695025e-001 1.87295508e-002 1.23610461e+000
      4.94044065e-001 1.40777156e-001 1.61017790e-001 3.61665152e-002
      9.53885689e-002 1.02217577e-001 8.54457438e-001 7.04151213e-001
      1.33438900e-001 3.83822590e-001 3.85391712e-002 1.62569058e+000
      4.87420931e-002 1.93436593e-001 1.47296995e-001 4.28785346e-002
      2.43395776e-001 7.27293566e-002 8.79135251e-001 2.57810652e-002
      8.82169008e-001 4.16094303e-001 1.16672017e-001 1.07270166e-001
      2.41125599e-001 2.20681667e-001 3.00547981e+000 6.41282797e-002
      4.04271662e-001 3.36579233e-002 3.79271865e-001 2.99630672e-001
      3.90995815e-002 1.27452873e-002 8.01100358e-002 6.20155334e-001
      1.23713657e-001 1.16141760e+000 2.53095776e-001 1.02271378e+000
      2.05586433e+000 1.01588285e+000 3.82597327e-001 2.50688225e-001
      5.25435627e-001 3.06899488e-001 6.58052117e-002 4.26140130e-001
      4.29506928e-001 1.72613963e-001 1.69680774e-001 3.67468029e-001
      6.07699037e-001 2.18257811e-002 3.85948658e-001 4.26086426e-001
      6.79146424e-002 4.56127077e-002 7.65018165e-001 2.12346837e-001
      3.46755594e-001 3.23265970e-001 5.52894250e-002 1.00643270e-001
      1.19895101e+000 7.03940615e-002 1.16952688e-001 5.70444278e-002
      1.72047228e-001 9.73690152e-002 2.81908065e-001 2.99749881e-001
      5.66932559e-002 5.95790923e-001 2.55635697e-002 7.52986073e-001
      4.58810106e-002 1.49675608e-001 1.41759977e-001 5.36356494e-002
      5.64962551e-002 6.78767800e-001 8.83837283e-001 1.35411307e-001
      6.63312674e-001 6.57484710e-001 3.63684748e-003 4.61558819e-001
      3.08730960e-001 4.45823669e-001 6.29263148e-002 3.13194543e-001
      1.61398295e-002 3.47988158e-001 5.76959193e-001 4.99446422e-001
      6.04779273e-002 1.65195152e-001 7.58651674e-001 1.42580301e-001
      5.07537127e-001 3.12354583e-002 8.32056284e-001 3.45795810e-001
      1.32931817e+000 4.62883860e-002 5.02410857e-003 1.78162479e+000
      1.55398324e-001 1.23001039e+000 4.92411822e-001 4.29039091e-001
      9.14304912e-001 3.99629563e-001 4.19498309e-002 1.97444037e-001
      1.21149197e-002 6.11569166e-001 4.53834951e-001 1.49061903e-001
      1.80593953e-002 1.14180408e-001 4.83833611e-001 4.60471511e-001
      4.92895752e-001 5.24322391e-001 1.21926451e+000 4.20398742e-001
      4.99821335e-001 3.26162905e-001 3.72871250e-001 2.94231564e-001
      4.27763492e-001 9.47828054e-001 1.67160198e-001 1.06276665e-002
      3.30083340e-001 8.91683996e-001 7.01821670e-002 1.50934532e-001
      9.55661297e-001 1.33868322e-001 2.13349700e-001 1.05841227e-001
      3.72377604e-001 5.24853021e-002 2.28102112e+000 1.42113984e+000
      6.86176261e-003 2.07840872e+000 1.69497788e-001 1.19775867e+000
      3.07394918e-002 1.39096320e-001 1.10702705e+000 6.66872680e-001
      1.09836948e+000 6.32098794e-001 4.17552829e-001 3.58577013e-001
      4.01462197e-001 1.42589686e-002 8.06565732e-002 2.06195638e-001
      5.15257597e-001 1.57578683e+000 2.93359101e-001 1.53017700e-001
      1.36416769e+000 1.77078998e+000 4.61438477e-001 2.19473522e-002
      1.25334874e-001 4.58376318e-001 2.89937168e-001 7.51274586e-001
      1.39333159e-001 8.35742772e-001 6.98571384e-001 1.38830051e-001
      4.68235642e-001 9.03202355e-001 7.18789697e-002 3.21181297e-001
      8.59166741e-001 5.45438945e-001 1.40267834e-001 2.37758064e+000
      6.33722484e-001 2.26226032e-001 3.03705633e-001 2.01619551e-001
      1.21076894e+000 1.67077804e+000 3.44253391e-001 1.69418737e-001
      2.34639466e-001 2.88320243e-001 1.11714244e+000 2.42282644e-001
      3.91343325e-001 1.50477123e+000 7.64777213e-002 2.46681881e+000
      7.90197492e-001 6.04754329e-001 6.65758371e-001 1.47420660e-001
      1.39687508e-001 6.35200858e-001 1.71311349e-001 4.17279571e-001
      3.60956937e-001 6.40974820e-001 9.15451586e-001 7.28116274e-001
      3.12664472e-002 4.56654932e-003 4.13249999e-001 4.83907247e-003
      1.27854541e-001 6.36940226e-002 1.65834814e-001 4.13577914e-001
      1.61310196e+000 5.75739086e-001 1.39767274e-001 2.19129145e-001
      6.71189606e-001 3.08525383e-001 6.25701427e-001 5.60091197e-001
      6.16697490e-001 1.12665617e+000 5.06651938e-001 1.95840746e-001
      2.03892446e+000 1.42848063e+000 8.15542877e-001 1.56781316e-001
      4.30334955e-001 1.27389720e-002 1.29196799e+000 1.54856548e-001
      4.56381202e-001 1.92951405e+000 2.02644706e-001 1.10921226e-002
      5.76994717e-001 1.23306572e+000 3.18855405e-001 3.60043138e-001
      7.56761074e-001 9.32941288e-002 3.03253699e-002 3.57089937e-001
      4.66705382e-001 1.60786718e-001 1.11955369e+000 2.72589862e-001
      3.64088655e-001 1.80725798e-001 1.09898472e+000 1.06287822e-002
      9.62671265e-002 1.29598245e-001 5.33486962e-001 3.79086405e-001
      5.19162595e-001 2.05250442e-001 1.09196436e+000 4.82067242e-002
      5.54458976e-001 5.39608419e-001 2.34986395e-001 2.77335405e-001
      3.74087654e-002 1.53829575e-001 2.00374648e-001 6.07860498e-002</_>
    <_>
      6.33733571e-001 4.76744846e-002 2.63967752e-001 4.26448613e-001
      1.23619854e+000 4.04878914e-001 1.37846160e+000 7.25218832e-001
      1.56654473e-002 1.67523837e+000 4.18689400e-001 1.04218388e+000
      3.73132646e-001 1.44380987e-001 2.21558526e-001 2.01871350e-001
      4.61215407e-001 4.04806495e-001 1.51848756e-002 1.32111216e+000
      1.16879249e+000 2.35241011e-001 1.50224939e-001 5.02233170e-002
      1.42615750e-001 1.60063088e-001 5.01350462e-001 2.68420130e-001
      1.15452600e+000 1.37263966e+000 3.45094465e-002 1.49335921e+000
      3.58641222e-002 9.39266756e-002 1.65230989e-001 6.47562519e-002
      5.77017665e-001 2.57984430e-001 5.13009846e-001 1.71268750e-002
      1.14413595e+000 3.33825678e-001 1.35116661e+000 1.77225143e-001
      8.22363853e-001 2.97824144e-001 1.18726957e+000 6.20430410e-002
      4.85475063e-001 5.52009232e-002 3.07897121e-001 2.20345065e-001
      3.48608382e-002 2.07790509e-002 1.33674026e-001 2.74497420e-001
      1.16541438e-001 5.83434582e-001 9.98584628e-001 2.98446983e-001
      7.44077682e-001 6.50701582e-001 1.67985415e+000 4.70625550e-001
      6.55951917e-001 6.32694840e-001 4.22874540e-002 3.85653883e-001
      9.28822815e-001 2.09811419e-001 1.78264827e-001 1.84596196e-001
      8.53597939e-001 2.06522178e-002 5.64453065e-001 4.19744819e-001
      1.10701919e-001 3.56028825e-002 2.93222815e-001 5.57575703e-001
      7.34491408e-001 2.59470701e-001 6.90055937e-002 4.76172090e-001
      1.01523197e+000 2.20254087e+000 1.43707305e-001 5.26006371e-002
      1.91676006e-001 1.69445857e-001 9.56750751e-001 9.14267659e-001
      5.03077880e-002 3.88691485e-001 3.28278728e-002 2.16417551e+000
      3.98695320e-002 9.09500420e-002 9.90092009e-002 8.32216814e-002
      4.59370613e-002 2.88591117e-001 2.40340844e-001 1.08996272e-001
      1.55586648e+000 5.40637851e-001 6.10283483e-003 5.66183269e-001
      5.47150791e-001 6.79585338e-001 5.34583889e-002 5.66928327e-001
      1.28218569e-002 3.64458025e-001 3.10565770e-001 1.08838880e+000
      5.11105478e-001 4.03938472e-001 1.68944746e-001 1.61320835e-001
      5.20747721e-001 6.32879809e-002 5.92093170e-001 1.12706685e+000
      8.41695189e-001 4.11406606e-002 7.86155369e-003 2.14111519e+000
      9.11222324e-002 1.41911161e+000 5.29118121e-001 3.97183418e-001
      1.03575850e+000 4.60147411e-001 5.69411702e-002 6.75715923e-001
      1.95201952e-002 2.62932599e-001 4.82058078e-001 9.89712775e-002
      2.49966681e-002 3.01818758e-001 4.73219216e-001 1.82916254e-001
      7.19015539e-001 1.05007589e+000 7.82670796e-001 3.98671567e-001
      1.48284471e+000 1.11421931e+000 2.92153418e-001 2.82159865e-001
      1.65511176e-001 5.88852167e-001 1.31102502e-001 1.64637640e-002
      6.86152875e-001 2.98534781e-001 1.19415522e-001 7.30959848e-002
      3.76413018e-001 8.86199996e-002 2.32293978e-001 9.66591388e-002
      1.32430911e-001 6.09184131e-002 1.72103655e+000 6.99639380e-001
      3.87386093e-003 1.79788375e+000 1.64193660e-001 5.92261910e-001
      9.73030150e-001 1.43437541e+000 7.43358850e-001 3.20128500e-001
      1.55623496e+000 3.17251801e-001 7.83583224e-001 4.86206293e-001
      2.32285053e-001 1.35585926e-002 1.27186075e-001 1.32051915e-001
      3.04262906e-001 9.57366407e-001 6.87099218e-001 1.89212829e-001
      7.42664576e-001 1.02583277e+000 4.75584328e-001 1.64843947e-002
      3.24520916e-001 1.29087520e+000 1.42238021e+000 8.48895609e-001
      1.29876390e-001 4.14683670e-001 1.23151135e+000 1.23362494e+000
      1.48183835e+000 5.39006889e-001 1.00323653e+000 1.47035277e+000
      1.72814083e+000 5.16614616e-001 4.31963444e-001 1.71551239e+000
      4.95757401e-001 4.24305826e-001 5.91035485e-001 1.46879151e-001
      4.57600594e-001 1.92604554e+000 2.34514281e-001 1.26286983e-001
      3.13228965e-001 2.38112375e-001 1.55636680e+000 4.09109026e-001
      3.29167277e-001 2.36223197e+000 9.38710272e-002 2.58311105e+000
      5.77210903e-001 3.56199354e-001 1.34468627e+000 1.55084038e+000
      8.77727196e-002 1.46204066e+000 8.93437788e-002 4.34005708e-001
      5.77256978e-001 8.22326422e-001 8.72558355e-001 1.56402671e+000
      3.10945828e-002 2.76392954e-003 2.92280257e-001 6.73055556e-003
      1.01997972e-001 1.25646919e-001 1.33787081e-001 2.53836691e-001
      9.89365220e-001 2.84528971e-001 1.48598766e+000 6.70700788e-001
      7.22751558e-001 3.97078604e-001 7.90728152e-001 1.11160648e+000
      2.09742570e+000 3.88626248e-001 1.88382566e+000 1.15940332e-001
      1.11447930e+000 1.24948609e+000 2.19464660e+000 1.13135435e-001
      3.51094127e-001 2.15677135e-002 8.70701730e-001 1.82795167e-001
      5.35274148e-001 1.05134988e+000 1.05908312e-001 7.95210898e-003
      6.41188443e-001 8.92777324e-001 3.97432953e-001 5.53821862e-001
      5.14613390e-001 1.24005929e-001 6.13141172e-002 8.21768403e-001
      1.24465501e+000 1.39831841e-001 1.27702320e+000 7.24299431e-001
      4.28941220e-001 1.81976065e-001 7.46422827e-001 1.24608204e-002
      1.42586187e-001 7.07837641e-002 2.62394524e+000 5.68999648e-001
      1.91163683e+000 1.06404126e+000 3.16410631e-001 3.90266553e-002
      2.67676324e-001 8.56299102e-001 3.94397825e-001 1.94823638e-001
      3.70078981e-002 1.51534662e-001 4.44340527e-001 5.80922626e-002</_>
    <_>
      2.98205882e-001 4.66520414e-002 2.29996741e-001 7.37679183e-001
      1.01209831e+000 3.69194657e-001 4.81887817e-001 3.05068791e-001
      1.29734380e-002 2.00956511e+000 3.09125483e-001 1.00743914e+000
      3.70559216e-001 1.88022897e-001 3.40021908e-001 4.59655970e-001
      3.17696959e-001 3.54402393e-001 1.84236970e-002 9.60915804e-001
      2.65217662e-001 1.20417416e-001 9.65607986e-002 5.93793914e-002
      1.06109992e-001 3.24374378e-001 1.23752284e+000 2.53986329e-001
      5.71826994e-001 2.43398488e-001 3.85991335e-002 2.30171537e+000
      4.12684418e-002 1.54953659e-001 9.72898379e-002 5.42216152e-002
      4.58385438e-001 3.65832627e-001 8.68134856e-001 1.96950231e-002
      5.81218064e-001 2.99778581e-001 3.40342104e-001 1.06325455e-001
      5.32940745e-001 3.60400468e-001 1.20090580e+000 2.31492564e-001
      6.79468930e-001 2.93945093e-002 4.65442955e-001 3.27635229e-001
      3.29050645e-002 1.64723508e-002 1.13042071e-001 3.47218841e-001
      3.56583893e-001 5.94296515e-001 6.42624140e-001 1.86623201e-001
      7.34892726e-001 8.99717569e-001 3.48891407e-001 3.65358055e-001
      2.63177305e-001 4.61148351e-001 6.70891181e-002 4.58188623e-001
      4.22928840e-001 3.19328398e-001 1.77354634e-001 2.82196701e-001
      6.86421514e-001 1.41122602e-002 3.14825594e-001 4.89167303e-001
      7.38577694e-002 4.45812009e-002 1.82377920e-001 1.94318682e-001
      1.15230942e+000 2.04417825e-001 3.62607352e-002 1.73307359e-001
      1.11806643e+000 3.58728766e-001 1.27297983e-001 1.67115927e-001
      1.21582396e-001 1.06392570e-001 1.19182038e+000 2.40050122e-001
      6.06191233e-002 5.75724423e-001 3.16825695e-002 2.83438712e-001
      4.14711945e-002 1.47389501e-001 1.43333852e-001 9.45641845e-002
      3.61106209e-002 6.57897711e-001 1.20113146e+000 1.19954400e-001
      8.55585337e-001 4.72487181e-001 8.51330068e-003 3.11022222e-001
      3.70545477e-001 2.68445998e-001 6.53964132e-002 4.56455201e-001
      1.54712107e-002 5.30304372e-001 2.85814732e-001 4.10784602e-001
      5.59219301e-001 2.38891706e-001 6.47733331e-001 3.43487501e-001
      9.84727442e-001 3.85477133e-002 7.25409150e-001 7.01955259e-001
      1.14474404e+000 4.65572774e-002 7.91190285e-003 2.62876225e+000
      9.41926241e-002 6.53196096e-001 8.91686916e-001 4.28793609e-001
      4.95389462e-001 6.22208595e-001 5.22775128e-002 9.44570899e-001
      1.79027542e-002 3.55507702e-001 3.94276768e-001 1.65989995e-001
      8.64716619e-002 3.78218472e-001 4.31414455e-001 2.55669713e-001
      2.88792670e-001 4.14175808e-001 8.63746881e-001 3.57054710e-001
      1.76050067e-001 5.70771873e-001 2.47920230e-001 1.14079200e-001
      5.41278541e-001 5.32550335e-001 1.40232220e-001 2.25258097e-002
      3.25880766e-001 1.60923660e-001 9.20196995e-002 7.96201602e-002
      2.36491546e-001 1.00913689e-001 3.49763125e-001 1.16012394e-001
      2.15244412e-001 4.88757715e-002 1.85068393e+000 6.80360138e-001
      4.60497150e-003 1.43052995e+000 1.53683513e-001 1.10697246e+000
      2.89099902e-001 3.18583667e-001 1.11283350e+000 4.99517113e-001
      1.71616530e+000 2.00169310e-001 1.08061564e+000 2.18648538e-001
      4.39404875e-001 1.66399144e-002 8.70131478e-002 1.92726791e-001
      5.97358406e-001 1.22226942e+000 4.06998605e-001 2.98646390e-001
      9.70122933e-001 1.49532139e+000 4.34420109e-001 1.51072657e-002
      2.99631685e-001 2.74631321e-001 3.49946618e-001 9.60808396e-001
      1.76824391e-001 8.36230159e-001 1.26452053e+000 5.68629205e-001
      2.85759419e-001 9.39368844e-001 3.67811233e-001 2.28614450e-001
      2.21093655e-001 5.74694574e-001 2.81269014e-001 4.33674276e-001
      5.24439514e-001 2.70784169e-001 3.51421297e-001 1.75047502e-001
      1.07017696e+000 2.18898773e+000 2.34695643e-001 1.73028052e-001
      1.36772364e-001 3.19908291e-001 1.21160078e+000 2.90152133e-001
      2.85837710e-001 2.33509302e+000 1.26398548e-001 2.45553780e+000
      7.53282428e-001 4.98777300e-001 3.70017201e-001 8.20632279e-001
      1.01922363e-001 1.10357690e+000 1.64468259e-001 1.66658849e-001
      3.30825657e-001 7.74050593e-001 1.64333940e+000 4.36731458e-001
      1.00821495e-001 3.92993446e-003 5.39039314e-001 7.27605447e-003
      1.03385836e-001 7.44976476e-002 1.36143655e-001 4.18292522e-001
      3.67692947e-001 4.98866469e-001 2.69534558e-001 3.14836293e-001
      1.05564511e+000 2.75417179e-001 4.63140130e-001 6.84692562e-001
      6.91636145e-001 1.02998519e+000 4.27006036e-001 7.57613257e-002
      1.43154943e+000 7.80186832e-001 4.85195905e-001 1.91991135e-001
      4.47178870e-001 1.76610928e-002 1.06330013e+000 1.30219072e-001
      5.29628575e-001 8.48884642e-001 1.12419359e-001 1.53252399e-002
      4.11633939e-001 4.48685050e-001 2.55924761e-001 5.22477150e-001
      4.71100152e-001 4.29086655e-001 4.34807949e-002 5.20067215e-001
      6.50775611e-001 1.16350383e-001 7.23825216e-001 4.13171321e-001
      5.17959535e-001 1.47775263e-001 9.00585473e-001 2.34675463e-002
      1.05600968e-001 1.31903052e-001 1.95546305e+000 2.98081607e-001
      1.85288167e+000 7.12055266e-001 2.19354197e-001 3.58724631e-002
      4.50142413e-001 9.16869998e-001 4.39089864e-001 2.52652764e-001
      3.55089158e-002 1.63323805e-001 1.65617049e-001 2.35129237e-001</_>
    <_>
      3.22840959e-001 3.73964608e-002 1.70751363e-001 8.50734234e-001
      1.72944593e+000 1.00507689e+000 2.48486593e-001 7.71706164e-001
      1.15098786e-002 9.03489470e-001 7.52602518e-001 1.03690457e+000
      3.20053935e-001 1.79513887e-001 2.52795041e-001 2.84353673e-001
      4.55380708e-001 4.57471609e-001 1.85726881e-002 1.15889895e+000
      4.25468624e-001 3.37989151e-001 9.49913189e-002 6.12878948e-002
      2.06649214e-001 2.72831291e-001 4.15171236e-001 4.04031992e-001
      3.90707999e-001 2.43672356e-001 4.45967242e-002 1.03926885e+000
      3.56677920e-002 1.50243789e-001 1.15200989e-001 4.05600704e-002
      2.85468221e-001 2.61321396e-001 5.49011648e-001 1.60157196e-002
      1.88263550e-001 2.55973518e-001 1.84366345e-001 9.03406516e-002
      2.91779757e-001 1.07801127e+000 2.57320344e-001 1.80609360e-001
      6.53106987e-001 3.44503000e-002 3.13943446e-001 1.70101777e-001
      2.96092872e-002 1.48831904e-002 1.40191808e-001 4.41441119e-001
      1.61039248e-001 8.75583112e-001 3.99242640e-001 7.30289876e-001
      3.38950574e-001 6.70971215e-001 2.12212831e-001 2.63307869e-001
      2.96029985e-001 4.47867036e-001 4.99685779e-002 1.68759033e-001
      4.82437789e-001 3.14581871e-001 1.47253707e-001 2.52173185e-001
      5.05464494e-001 1.68776475e-002 1.08505502e-001 5.28196394e-001
      1.15845434e-001 3.77951153e-002 6.92840338e-001 2.23916903e-001
      6.15569890e-001 2.66487807e-001 3.09965219e-002 1.11855678e-001
      6.72061503e-001 1.88188940e-001 9.33008566e-002 1.43720537e-001
      1.30189598e-001 1.71423122e-001 4.58563536e-001 1.52908635e+000
      5.68869747e-002 2.70103276e-001 3.66410725e-002 4.16552067e-001
      3.41364332e-002 1.67428210e-001 1.19486295e-001 5.82597218e-002
      5.72205335e-002 3.93360823e-001 1.77564406e+000 1.33777007e-001
      7.88317204e-001 5.91166735e-001 7.19183171e-003 1.46551237e-001
      2.09114015e-001 2.52923101e-001 5.98401800e-002 7.90465951e-001
      1.44331567e-002 5.18856764e-001 1.00640440e+000 4.73342001e-001
      2.28274420e-001 2.10244507e-001 2.07180366e-001 1.65248320e-001
      2.83442557e-001 6.18846938e-002 7.11436033e-001 9.87795353e-001
      1.18614089e+000 4.60925549e-002 4.52293130e-003 1.28136659e+000
      1.16310328e-001 1.79011846e+000 8.43393385e-001 2.34206080e-001
      1.12253122e-001 4.69591320e-001 4.48066145e-002 7.76675999e-001
      1.07558984e-002 9.39972028e-002 5.90109229e-001 1.21688530e-001
      6.63548335e-002 3.52211148e-001 3.77820671e-001 2.98987120e-001
      2.55528748e-001 4.56583589e-001 9.09982204e-001 1.01804458e-001
      5.55639565e-001 1.86316833e-001 1.47561920e+000 1.42396450e-001
      1.24282658e+000 3.90239626e-001 1.74727827e-001 1.31021738e-002
      1.76333010e-001 5.55409312e-001 6.49743304e-002 7.86171854e-002
      1.96383908e-001 1.34083003e-001 2.02841684e-001 1.62104860e-001
      2.57131994e-001 3.18191536e-002 1.65373886e+000 8.67633700e-001
      4.40349849e-003 1.82610929e+000 1.14312284e-001 7.19921947e-001
      3.63455504e-001 1.85880527e-001 2.93170661e-001 6.69346035e-001
      9.44974899e-001 6.96945727e-001 1.16932297e+000 2.17730120e-001
      4.08855200e-001 1.57226101e-002 8.25205669e-002 1.21142238e-001
      5.73399425e-001 1.20915759e+000 3.92894447e-001 1.58834979e-001
      1.75342393e+000 2.87288219e-001 2.50625908e-001 6.27273973e-003
      2.04592302e-001 8.82496059e-001 1.02787459e+000 1.04468298e+000
      1.23851709e-001 1.09760547e+000 1.16624856e+000 3.57852936e-001
      9.88513649e-001 5.74365735e-001 4.22727674e-001 2.60536492e-001
      5.35289586e-001 6.80062234e-001 5.18951178e-001 9.44206655e-001
      4.02352244e-001 5.75743556e-001 8.71059656e-001 1.78146750e-001
      6.04979038e-001 1.08522785e+000 3.20182085e-001 1.59797370e-001
      1.04042873e-001 1.96602270e-001 1.35355401e+000 9.53401774e-002
      2.51125157e-001 6.26947582e-001 9.29026753e-002 1.11836410e+000
      4.05770361e-001 2.95577675e-001 4.19421881e-001 5.32094240e-001
      9.16279778e-002 2.03857183e+000 1.18351050e-001 3.79774302e-001
      1.56915471e-001 1.05040932e+000 1.53224194e+000 5.95345080e-001
      2.97035649e-002 3.53483320e-003 5.01539409e-001 6.84954785e-003
      1.40657231e-001 1.10389374e-001 1.61347166e-001 2.30595738e-001
      5.36246300e-001 1.92692667e-001 2.69552678e-001 9.78535533e-001
      1.04494798e+000 2.32435122e-001 2.67999858e-001 2.42127016e-001
      6.94704950e-001 1.79189157e+000 3.80072445e-001 7.77254924e-002
      9.70865667e-001 6.80098414e-001 4.33519423e-001 1.00068934e-001
      3.33961040e-001 1.50700044e-002 3.35527420e-001 1.12740770e-001
      8.00817609e-001 8.48803222e-001 1.27304047e-001 6.48154458e-003
      4.62586910e-001 4.20101494e-001 1.98290035e-001 3.36528301e-001
      6.66077793e-001 2.69592702e-001 5.00074029e-002 5.17167866e-001
      9.48880255e-001 8.97406265e-002 1.45464599e+000 3.90554458e-001
      3.00144017e-001 1.21256337e-001 1.08493388e+000 1.80858187e-002
      9.01324376e-002 8.15750435e-002 7.75848627e-001 4.51133341e-001
      1.16283250e+000 2.78449625e-001 6.00910723e-001 4.75717783e-002
      3.30252707e-001 1.15936458e+000 3.40640962e-001 1.56013817e-001
      2.97337193e-002 1.20126761e-001 3.71668011e-001 1.92143440e-001</_>
    <_>
      2.28085980e-001 4.94863093e-002 6.90358698e-001 6.27988756e-001
      9.85505879e-001 5.16382754e-001 6.05611742e-001 4.28312272e-001
      1.11581534e-002 8.98190737e-001 7.27187395e-001 7.66308606e-001
      4.25593436e-001 1.10433213e-001 4.02283370e-001 3.56283218e-001
      2.79276490e-001 2.85291016e-001 1.60490293e-002 1.41862404e+000
      5.94334364e-001 4.12505388e-001 7.04120621e-002 4.76205647e-002
      1.19514219e-001 1.73133299e-001 6.34103656e-001 4.04674590e-001
      1.20858693e+000 2.88936138e-001 3.50707471e-002 1.50998163e+000
      2.92777829e-002 9.74658355e-002 1.24608107e-001 2.64731944e-002
      3.85453939e-001 2.38372147e-001 4.84705448e-001 3.09428424e-002
      1.68261424e-001 2.22132921e-001 3.04802030e-001 9.28044021e-002
      5.13992667e-001 5.85243285e-001 3.96609694e-001 1.54086396e-001
      2.44209051e-001 3.85967605e-002 6.55715287e-001 4.88132775e-001
      4.12800685e-002 1.96247287e-002 1.69465154e-001 2.53660083e-001
      5.07865429e-001 9.68594253e-001 1.20839238e+000 3.14581782e-001
      5.00852942e-001 6.47485316e-001 6.51078343e-001 2.44294479e-001
      6.23209476e-001 2.55805582e-001 3.45693268e-002 2.50644803e-001
      3.58387798e-001 1.88419327e-001 2.32670784e-001 3.18535507e-001
      7.15321898e-001 1.91405322e-002 3.04726541e-001 4.73630071e-001
      8.62570852e-002 2.73907688e-002 5.96255720e-001 2.15584874e-001
      9.61320996e-001 2.70551831e-001 3.20234857e-002 2.19555885e-001
      5.88715434e-001 3.29758078e-001 1.93700209e-001 1.16332665e-001
      1.02045193e-001 1.20417014e-001 1.26235831e+000 5.22678018e-001
      4.98004742e-002 8.90515924e-001 3.72738056e-002 1.25627816e+000
      4.42720093e-002 1.20749474e-001 1.10377997e-001 7.13685453e-002
      5.60549796e-002 2.71726221e-001 7.42008984e-001 1.41570508e-001
      7.79992521e-001 8.50493491e-001 1.72280036e-002 2.32952386e-001
      2.54760891e-001 7.39402831e-001 4.28913310e-002 7.96095371e-001
      1.27807744e-002 4.49085921e-001 5.29647470e-001 7.28535652e-001
      7.24245012e-001 2.15144143e-001 7.91258872e-001 4.41169232e-001
      1.09966636e+000 4.19999175e-002 8.39697540e-001 1.00694954e+000
      5.51246881e-001 2.81653944e-002 7.23321177e-003 1.96671605e+000
      1.10457085e-001 1.05368376e+000 1.08615530e+000 1.31027043e-001
      1.54564276e-001 1.37459409e+000 4.44700643e-002 1.25992084e+000
      1.62070058e-002 4.62892056e-001 3.43954325e-001 1.20003276e-001
      7.66842440e-002 1.84930950e-001 5.07701516e-001 2.38965601e-001
      7.78214216e-001 6.88769042e-001 1.20800817e+000 2.59671450e-001
      3.84517610e-001 5.50977647e-001 6.82312071e-001 4.27668601e-001
      4.88739908e-001 4.80666697e-001 1.07670292e-001 3.02696284e-002
      2.57522345e-001 5.06006718e-001 1.19761020e-001 1.41982600e-001
      1.34914473e-001 9.49902609e-002 3.01885515e-001 1.34660512e-001
      2.58838683e-001 5.19583784e-002 1.07600248e+000 8.53030801e-001
      4.43279650e-003 6.92073643e-001 8.00950304e-002 5.75448871e-001
      2.57617354e-001 6.37452304e-001 6.41542792e-001 7.08298564e-001
      6.92489028e-001 4.46077317e-001 9.44863796e-001 1.92165196e-001
      3.88096601e-001 1.15051754e-002 6.70483187e-002 1.26872003e-001
      2.26782188e-001 5.21130562e-001 5.09964228e-001 1.47424817e-001
      9.23628628e-001 5.35398066e-001 2.94784039e-001 1.29294209e-002
      3.47674996e-001 7.29062378e-001 4.23968911e-001 6.68581486e-001
      1.27095610e-001 5.58815181e-001 7.65430450e-001 1.28597581e+000
      6.98002815e-001 3.73115689e-001 3.70791256e-001 4.78735179e-001
      3.06793094e-001 9.76362169e-001 3.72793496e-001 6.13567352e-001
      5.19438326e-001 4.86195683e-001 4.70047921e-001 1.11186899e-001
      8.53561282e-001 1.99430501e+000 3.16416562e-001 1.41297996e-001
      6.31390095e-001 5.66907227e-001 1.31738067e+000 2.93167830e-001
      4.70924169e-001 1.29936838e+000 1.11115761e-001 1.56732619e+000
      5.54554999e-001 8.40044141e-001 9.05418098e-001 8.74451458e-001
      9.11759138e-002 7.75898933e-001 8.32669437e-002 3.62181604e-001
      9.24902633e-002 9.31656063e-001 6.78527057e-001 3.13533992e-001
      1.02587737e-001 3.18918144e-003 4.92236793e-001 8.88401456e-003
      1.35282204e-001 8.16841051e-002 1.25194624e-001 1.96784630e-001
      7.29727685e-001 3.66636485e-001 1.67568386e-001 5.02453029e-001
      6.62928939e-001 7.83087671e-001 8.43840897e-001 7.23998368e-001
      2.99709618e-001 8.49182725e-001 1.09033990e+000 9.73468795e-002
      7.99353123e-001 6.48611963e-001 9.97573555e-001 1.18909866e-001
      4.71665323e-001 1.99085865e-002 9.36463833e-001 9.19515118e-002
      4.34239417e-001 9.54727292e-001 1.41032547e-001 2.41488293e-002
      3.09987396e-001 8.78854752e-001 5.31132758e-001 3.99533898e-001
      6.47999942e-001 4.58158463e-001 3.60612273e-002 2.18824923e-001
      5.51955760e-001 1.11332819e-001 1.11212528e+000 1.52072713e-001
      4.28803772e-001 8.79091322e-002 1.04115033e+000 3.18223648e-002
      1.16489701e-001 1.93897262e-001 7.26598859e-001 2.68908978e-001
      1.10474217e+000 6.65917099e-001 3.62546206e-001 3.29887569e-002
      3.90401840e-001 4.36323941e-001 3.59634340e-001 2.43270472e-001
      4.44443636e-002 1.45991564e-001 2.99123108e-001 1.74961209e-001</_>
    <_>
      2.30721340e-001 5.45305982e-002 8.46175075e-001 1.24485350e+000
      2.85017395e+000 4.19638544e-001 3.83242518e-001 5.20605862e-001
      1.38136791e-002 4.17805344e-001 1.70941508e+000 5.99158764e-001
      5.13068378e-001 1.83425486e-001 4.23487097e-001 3.02009046e-001
      4.29555178e-001 5.66668391e-001 1.41207036e-002 1.25378764e+000
      7.87725508e-001 3.24330986e-001 9.21580568e-002 5.84049635e-002
      1.25928819e-001 8.69717598e-002 1.34305239e+000 3.31435293e-001
      5.40105104e-001 3.53812516e-001 3.35077830e-002 1.70494545e+000
      3.41549739e-002 1.00939222e-001 7.99476281e-002 4.34509031e-002
      1.81570843e-001 1.83192521e-001 8.65273893e-001 1.32254101e-002
      5.96186638e-001 3.75164658e-001 3.18276554e-001 1.04377992e-001
      2.36417338e-001 6.69212580e-001 2.52980590e-001 5.84916361e-002
      6.24405503e-001 4.24579121e-002 5.27747691e-001 5.16986549e-001
      4.88821715e-002 1.26673663e-002 9.10376012e-002 3.90241712e-001
      2.05137461e-001 2.17803931e+000 5.02571166e-001 2.99039751e-001
      3.56831729e-001 1.48474634e+000 4.76161122e-001 1.45485401e-001
      6.89612567e-001 4.59233314e-001 3.46239358e-002 3.25241745e-001
      5.43203175e-001 7.45844990e-002 3.62343132e-001 3.22496891e-001
      8.40976119e-001 1.48135442e-002 1.80753872e-001 4.44192290e-001
      1.38337567e-001 3.26026864e-002 2.71253884e-001 3.13948959e-001
      3.69314224e-001 4.33799088e-001 4.23739292e-002 1.18316345e-001
      6.83256805e-001 4.08535093e-001 9.26600397e-002 6.07621409e-002
      2.15859756e-001 8.37020874e-002 3.91108513e-001 4.87781107e-001
      4.73161303e-002 8.92560363e-001 2.55419072e-002 1.21183753e+000
      3.01607158e-002 1.38535127e-001 1.28215969e-001 5.85992262e-002
      6.95853606e-002 3.54833901e-001 6.88339293e-001 1.04406513e-001
      4.82675344e-001 5.95873058e-001 5.60543779e-003 1.39889792e-001
      2.46537566e-001 4.95720327e-001 5.05488887e-002 9.78026509e-001
      1.73878502e-002 5.21687329e-001 6.71596169e-001 8.41226816e-001
      3.23119432e-001 1.85294598e-001 7.45911121e-001 1.79459766e-001
      2.85687655e-001 3.16884927e-002 1.02187538e+000 1.34189677e+000
      8.77434373e-001 4.87977713e-002 4.21904307e-003 6.94976211e-001
      1.75930336e-001 1.41707647e+000 1.75042427e+000 2.50351638e-001
      4.79494959e-001 4.42806333e-001 5.82587421e-002 5.75763881e-001
      1.31429946e-002 6.31066784e-002 4.93888795e-001 1.03595957e-001
      2.28208229e-002 1.73736259e-001 7.10046113e-001 3.03431302e-001
      5.48616171e-001 8.16421092e-001 9.61698711e-001 1.79733127e-001
      5.57216704e-001 3.59914601e-001 1.28603089e+000 2.42243782e-001
      6.09715462e-001 2.90634185e-001 1.22028075e-001 1.60494167e-002
      1.75057143e-001 2.72057503e-001 8.06209147e-002 1.24534577e-001
      2.84013569e-001 1.10069618e-001 1.07857622e-001 8.73272195e-002
      7.13253617e-001 3.43486145e-002 1.30970025e+000 8.51770461e-001
      5.20969648e-003 1.75069523e+000 1.63313761e-001 7.16534019e-001
      2.28520513e-001 4.39672053e-001 9.18124735e-001 2.05023146e+000
      1.46188343e+000 2.18471140e-001 7.92697430e-001 1.44064873e-001
      3.48376155e-001 1.28920646e-002 7.98610449e-002 9.60252807e-002
      5.32810450e-001 9.20023441e-001 6.49280727e-001 2.09082097e-001
      1.87960017e+000 5.22549450e-001 3.56896043e-001 4.64247726e-003
      2.02358738e-001 8.83137107e-001 1.13486266e+000 1.27792430e+000
      8.52157921e-002 4.22160566e-001 1.77504158e+000 5.53867698e-001
      8.95011961e-001 7.68473804e-001 2.69956410e-001 6.90006196e-001
      8.06110203e-001 9.43726420e-001 1.77333981e-001 9.22749817e-001
      5.91424704e-001 1.17893445e+000 4.89117652e-001 1.27212003e-001
      6.72458887e-001 6.81560874e-001 3.91005427e-001 9.06401947e-002
      2.45627418e-001 2.96244413e-001 1.04474139e+000 1.79544047e-001
      3.68710130e-001 1.04596472e+000 3.22328173e-002 1.58256328e+000
      5.59006691e-001 7.72938907e-001 6.50739372e-001 3.79106015e-001
      1.43186852e-001 9.09501374e-001 1.14875019e-001 4.10216212e-001
      2.58145690e-001 1.13324249e+000 1.82333434e+000 8.38054895e-001
      1.69578493e-002 4.89580352e-003 4.83982623e-001 1.16953906e-002
      7.27580562e-002 1.41240701e-001 1.28526822e-001 3.77819806e-001
      2.03800291e-001 2.04088598e-001 1.92768767e-001 4.59807217e-001
      2.12273812e+000 4.67416763e-001 9.40205872e-001 4.59865808e-001
      6.72188640e-001 1.71108520e+000 4.36746359e-001 1.11798421e-001
      6.66880012e-001 7.97433257e-001 1.41375339e+000 1.14457950e-001
      7.52184272e-001 1.26914810e-002 6.30319834e-001 9.28296819e-002
      3.06848168e-001 6.16032720e-001 1.16150521e-001 7.65604107e-003
      3.85904640e-001 2.23588154e-001 4.95617837e-001 4.48021680e-001
      5.22156417e-001 1.77478299e-001 4.39999625e-002 6.80885375e-001
      6.75797820e-001 1.08524337e-001 1.10823262e+000 3.63666594e-001
      4.41661924e-001 1.26527533e-001 1.07066989e+000 1.51029471e-002
      1.29684076e-001 6.68174401e-002 5.70112228e-001 4.80890989e-001
      4.98041928e-001 4.61803496e-001 2.67652631e-001 3.41498852e-002
      4.72330630e-001 4.49337989e-001 4.86289829e-001 3.39892536e-001
      4.91496362e-002 2.03130022e-001 1.89478308e-001 6.19782843e-002</_>
    <_>
      3.26916695e-001 4.90760468e-002 5.82702994e-001 3.58728647e-001
      4.39959854e-001 7.36771166e-001 3.47173095e-001 1.39459491e+000
      1.70583259e-002 1.77264810e-001 6.55531287e-001 1.33338571e+000
      4.05279905e-001 1.15699612e-001 2.80326515e-001 4.07498002e-001
      4.71357197e-001 3.71409684e-001 1.64530408e-002 8.29512715e-001
      1.26239860e+000 3.05968195e-001 1.21676065e-001 4.72387671e-002
      1.64962828e-001 2.98879951e-001 2.44970649e-001 2.60665625e-001
      4.11224455e-001 7.54213929e-001 4.97752801e-002 1.62783504e+000
      3.22314128e-002 1.05446666e-001 1.05054855e-001 4.82245646e-002
      5.02479851e-001 6.86206669e-002 1.37963521e+000 2.51583643e-002
      7.25783527e-001 2.68771052e-001 2.30327189e-001 1.08627342e-001
      6.33311033e-001 6.27749503e-001 1.69457150e+000 6.83244988e-002
      4.62713838e-001 3.15982811e-002 2.61528879e-001 1.97780773e-001
      3.39551046e-002 1.70925241e-002 1.12183131e-001 2.07379341e-001
      2.10551441e-001 6.03897929e-001 4.24922913e-001 4.03181732e-001
      1.60789394e+000 1.50148284e+000 5.68782389e-001 5.23181021e-001
      4.55530584e-001 7.68169940e-001 7.03649521e-002 2.33961493e-001
      7.27298319e-001 3.22241217e-001 1.05332486e-001 1.99085295e-001
      4.45235282e-001 1.39552290e-002 3.00192982e-001 1.89140126e-001
      1.32438004e-001 3.48148048e-002 7.64236033e-001 2.24559963e-001
      3.29017252e-001 4.22934085e-001 3.84177826e-002 2.06231460e-001
      1.06975389e+000 2.03526720e-001 1.76470518e-001 5.20602949e-002
      4.20057684e-001 1.80979371e-001 4.07840431e-001 1.60319984e+000
      5.41564524e-002 3.60825747e-001 2.98543442e-002 1.01474500e+000
      3.35710384e-002 1.77390501e-001 1.31745711e-001 3.74628343e-002
      5.10298535e-002 3.95335823e-001 8.95954013e-001 1.54646575e-001
      3.74929816e-001 5.58027208e-001 5.44994278e-003 1.97525725e-001
      2.52189934e-001 2.02306658e-001 5.81024624e-002 1.00165272e+000
      1.45341968e-002 4.44414794e-001 6.50326014e-001 3.50457072e-001
      2.93178201e-001 3.52643073e-001 4.71762002e-001 2.12479711e-001
      9.05890882e-001 2.92848647e-002 7.23534822e-001 5.70262432e-001
      9.08019900e-001 4.68499400e-002 8.42965767e-003 1.18172467e+000
      1.26158327e-001 1.94767916e+000 4.92709249e-001 3.63578200e-001
      7.86568403e-001 8.14176500e-001 4.35747206e-002 5.95658183e-001
      2.82592438e-002 9.35586542e-002 2.97628164e-001 1.48674369e-001
      3.55366543e-002 5.83768524e-002 3.41249287e-001 2.58627176e-001
      2.17987850e-001 3.66454959e-001 5.06600142e-001 3.21570456e-001
      1.69459224e+000 5.97218871e-001 1.01398015e+000 1.71764761e-001
      5.23936808e-001 6.46924913e-001 1.19983971e-001 1.38365878e-002
      2.55318224e-001 7.28790760e-001 1.35892361e-001 1.02752306e-001
      5.70319414e-001 1.32305995e-001 1.33933976e-001 1.55829072e-001
      2.44904265e-001 7.14845285e-002 9.15906966e-001 8.11686456e-001
      5.00719156e-003 7.18136907e-001 1.12504221e-001 5.52009046e-001
      3.96503270e-001 2.05430046e-001 7.72488773e-001 4.53886479e-001
      1.03493285e+000 9.69439387e-001 9.54377651e-001 5.46873271e-001
      3.85788172e-001 1.60262231e-002 9.01830196e-002 1.69404656e-001
      4.95318472e-001 9.64728236e-001 1.24961980e-001 1.05692931e-001
      4.87340778e-001 1.39930701e+000 1.89195827e-001 1.13137625e-002
      1.30964413e-001 9.57593679e-001 1.73368847e+000 3.89469087e-001
      1.25637040e-001 8.78508866e-001 3.24915797e-001 4.17547762e-001
      1.03039360e+000 6.10742033e-001 5.86515844e-001 1.16529179e+000
      2.24903226e+000 2.21108720e-001 3.09304416e-001 2.20290709e+000
      3.69644940e-001 3.57961982e-001 6.82356179e-001 1.21721223e-001
      2.28385657e-001 1.12209356e+000 3.56536955e-001 1.82664633e-001
      2.17760980e-001 3.97863567e-001 1.02626455e+000 3.15687835e-001
      3.81643325e-001 9.33281898e-001 5.91741800e-002 9.03301179e-001
      3.40611994e-001 2.84412742e-001 1.98926821e-001 4.43806022e-001
      2.58262962e-001 2.14442754e+000 1.01559125e-001 2.02779055e-001
      3.03187340e-001 6.21631026e-001 6.38082623e-001 5.16214669e-001
      3.01497113e-002 3.90366884e-003 4.15115118e-001 3.89615609e-003
      1.67071819e-001 1.52725235e-001 1.09829582e-001 2.00459942e-001
      3.45150733e+000 6.52519166e-001 3.16727430e-001 1.51355314e+000
      3.65876138e-001 3.66167575e-001 2.25059524e-001 5.19392729e-001
      1.13839900e+000 7.12812304e-001 4.29864317e-001 9.81080309e-002
      4.82452124e-001 1.51804435e+000 5.31019211e-001 1.42991588e-001
      4.67596799e-001 1.68768987e-002 1.08234429e+000 1.08664900e-001
      1.47872820e-001 6.13690376e-001 1.28981531e-001 1.59744825e-002
      3.79864007e-001 1.39638424e+000 2.38834038e-001 1.81242421e-001
      9.87937391e-001 2.45833725e-001 3.75836454e-002 1.56127274e+000
      4.34265256e-001 1.43284813e-001 1.68368864e+000 2.32742667e-001
      4.24170524e-001 9.60685983e-002 8.20531249e-001 1.64472722e-002
      1.12192951e-001 2.16453284e-001 2.96641052e-001 6.46065891e-001
      2.00861350e-001 2.44945168e-001 4.36587453e-001 3.61726359e-002
      3.29953790e-001 1.53663707e+000 8.72349203e-001 3.27124268e-001
      3.21854129e-002 1.44988090e-001 7.71634221e-001 7.41173476e-002</_>
    <_>
      4.77163732e-001 8.07142928e-002 2.89256215e-001 4.96516079e-001
      5.64072549e-001 1.13582981e+000 2.72088140e-001 6.42476439e-001
      2.08339915e-002 1.17818797e+000 4.05125648e-001 1.40284336e+000
      1.80463746e-001 2.52556741e-001 4.82073009e-001 2.24984005e-001
      1.78777948e-001 3.37105572e-001 2.33994927e-002 1.26328933e+000
      3.66013378e-001 1.23012565e-001 1.84396133e-001 1.20686457e-001
      6.45328909e-002 1.35988742e-001 9.40367639e-001 2.91585326e-001
      1.47955394e+000 1.33412051e+000 4.62999493e-002 2.48249745e+000
      4.78965603e-002 1.89945415e-001 1.59750968e-001 5.69155477e-002
      8.07287931e-001 1.97533026e-001 8.08480144e-001 3.09594721e-002
      1.79975480e-001 2.00010359e-001 1.08568728e+000 2.38639012e-001
      7.06265628e-001 2.74381012e-001 3.27414006e-001 8.01437274e-002
      1.07864273e+000 3.20769139e-002 1.32392764e-001 1.55194268e-001
      5.79865798e-002 1.36583373e-002 2.13778868e-001 2.25394189e-001
      5.12616813e-001 5.18412411e-001 2.21175885e+000 3.62019360e-001
      3.81868243e-001 7.89605856e-001 1.70808196e+000 6.69160426e-001
      1.72217026e-001 3.60763550e-001 6.44533634e-002 2.24508882e-001
      9.61623907e-001 4.21920031e-001 1.55258596e-001 3.85495216e-001
      4.25034821e-001 1.59367844e-002 4.51374739e-001 4.10618693e-001
      1.27894804e-001 4.52482849e-002 6.41623497e-001 3.09866428e-001
      1.30459321e+000 2.87706703e-001 9.20273885e-002 3.45173448e-001
      7.78032720e-001 1.11850464e+000 1.28607288e-001 6.21217117e-002
      2.39191607e-001 2.23288268e-001 2.25922608e+000 8.41348171e-001
      7.65967146e-002 2.49086484e-001 2.87423413e-002 4.34629112e-001
      3.25802155e-002 1.25545010e-001 9.56449509e-002 7.42561817e-002
      5.86404055e-002 4.14665967e-001 1.58547640e+000 1.10304676e-001
      6.38848484e-001 3.91290426e-001 9.00557823e-003 3.68589699e-001
      3.19492549e-001 1.53569967e-001 7.61016458e-002 3.52349102e-001
      2.06911881e-002 2.78439939e-001 2.37788826e-001 2.77367443e-001
      7.04093456e-001 2.17497602e-001 4.99064565e-001 5.68270087e-001
      5.14464855e-001 5.13154268e-002 3.77547860e-001 9.27204370e-001
      9.41723287e-001 6.42686561e-002 7.93752354e-003 2.49720407e+000
      1.25810131e-001 1.11262810e+000 3.41113269e-001 4.04754192e-001
      1.35152638e-001 1.05202091e+000 4.11312021e-002 1.86146224e+000
      2.33538691e-002 4.76444632e-001 5.13833046e-001 1.54737473e-001
      2.37134416e-002 1.83092281e-001 2.61236876e-001 4.22487348e-001
      1.65377453e-001 2.78498262e-001 1.84966326e+000 2.83256412e-001
      1.08708203e+000 6.98895931e-001 3.48996997e-001 7.74226710e-002
      7.37318456e-001 3.03416729e-001 2.39583120e-001 2.06390526e-002
      4.21272278e-001 7.48184621e-001 7.21181557e-002 8.34961161e-002
      5.65378070e-001 1.27549022e-001 5.23700178e-001 1.31374672e-001
      1.30829662e-001 7.37904683e-002 8.29306781e-001 8.05174589e-001
      7.52882985e-003 9.29320812e-001 3.76393110e-001 1.19863296e+000
      9.99566436e-001 1.02278280e+000 4.70324218e-001 3.51532191e-001
      1.15099669e+000 6.28946960e-001 5.37193537e-001 5.53437948e-001
      3.29935730e-001 2.05749273e-002 2.48498902e-001 2.83272624e-001
      5.30102313e-001 1.01703167e+000 3.96527737e-001 2.11589038e-001
      8.01028788e-001 6.71298862e-001 4.77383107e-001 1.67797077e-002
      2.83633411e-001 3.10819179e-001 1.06344402e+000 5.14435947e-001
      1.91139579e-001 2.26416373e+000 4.56099153e-001 1.87448418e+000
      3.20150942e-001 7.20294535e-001 9.73214447e-001 4.12969470e-001
      9.93672669e-001 3.67727846e-001 2.81692296e-001 1.04865825e+000
      2.49206677e-001 2.60641724e-001 2.82955468e-001 2.57071465e-001
      2.03396487e+000 2.23288131e+000 2.43762657e-001 2.70482481e-001
      9.68847573e-002 2.25215808e-001 1.48011494e+000 3.74401718e-001
      5.18011391e-001 1.35621560e+000 2.33138725e-001 1.89437568e+000
      7.36312926e-001 2.05083802e-001 1.60504743e-001 1.31718504e+000
      2.01335609e-001 8.22193205e-001 1.34287059e-001 5.35532176e-001
      2.92541414e-001 1.33572936e+000 2.16296411e+000 8.59476745e-001
      6.59701601e-002 7.61729712e-003 3.80487859e-001 4.76513663e-003
      2.10458413e-001 1.29233003e-001 2.44087622e-001 3.50592673e-001
      1.33157766e+000 5.20882010e-001 7.44139671e-001 7.61973560e-001
      5.67020953e-001 1.56940311e-001 3.57448190e-001 6.98623776e-001
      5.38819432e-001 7.90691614e-001 1.79330960e-001 1.30282000e-001
      7.01531351e-001 1.74868822e+000 9.57446218e-001 1.64684102e-001
      3.59712929e-001 1.40153421e-002 5.43685019e-001 1.40585244e-001
      4.93882447e-001 7.81113446e-001 1.55899063e-001 1.26690594e-002
      7.63197005e-001 4.18941706e-001 1.43914267e-001 3.76641273e-001
      1.13133073e+000 2.07386300e-001 1.03695206e-001 4.54110950e-001
      1.42999291e+000 2.23088905e-001 1.22059000e+000 6.13730013e-001
      2.62411296e-001 1.42979398e-001 5.71285427e-001 2.08032634e-002
      1.58207387e-001 1.33020848e-001 1.19516492e+000 4.51649338e-001
      8.66065502e-001 8.83601487e-001 3.73804778e-001 5.02439253e-002
      4.79620576e-001 2.21690536e+000 3.93523872e-001 1.54245824e-001
      6.40765056e-002 1.42175436e-001 4.87524122e-001 8.80924687e-002</_>
    <_>
      3.27315629e-001 5.63931316e-002 1.34712517e+000 5.56918323e-001
      6.81037545e-001 1.66258359e+000 8.80307734e-001 7.59011149e-001
      2.24703364e-002 2.51328558e-001 1.38628507e+000 1.41465390e+000
      5.54335892e-001 1.20685756e-001 6.32596195e-001 4.02629584e-001
      1.37980312e-001 5.75079560e-001 1.78018063e-002 1.52119362e+000
      2.43075466e+000 1.69787258e-001 2.37304494e-001 4.25111614e-002
      1.39510572e-001 2.92844832e-001 7.23942757e-001 5.32009482e-001
      8.20762098e-001 6.87146127e-001 6.75957426e-002 2.37087440e+000
      5.42748496e-002 1.15004547e-001 1.43114179e-001 2.88260095e-002
      1.86136320e-001 1.74778253e-001 8.60923171e-001 2.13560071e-002
      9.05499697e-001 4.11168218e-001 4.80816603e-001 1.08260535e-001
      2.47694016e-001 3.24427724e-001 1.34195900e+000 5.28992377e-002
      5.31309068e-001 4.04966138e-002 6.95480466e-001 3.92972469e-001
      4.98063378e-002 1.44584207e-002 1.19902365e-001 3.40530515e-001
      2.18846276e-001 4.79245573e-001 7.67363608e-001 7.49337256e-001
      1.63431382e+000 1.06724477e+000 5.59408665e-001 1.81370988e-001
      6.70025885e-001 1.87702641e-001 9.98519287e-002 3.77983242e-001
      2.42211270e+000 1.02311008e-001 1.19708471e-001 3.64059865e-001
      1.02757335e+000 1.97393764e-002 3.27597827e-001 4.37355310e-001
      9.96742919e-002 6.48452491e-002 9.22797143e-001 2.06663519e-001
      6.06403410e-001 2.00432926e-001 6.21205568e-002 1.88656509e-001
      8.49570990e-001 4.64876562e-001 7.29482770e-002 6.48771077e-002
      5.38259186e-002 2.18352601e-001 8.31333816e-001 8.75804245e-001
      6.97348565e-002 1.13827670e+000 2.23060753e-002 7.71846771e-001
      4.67431620e-002 2.26364821e-001 1.14198245e-001 7.06028715e-002
      4.00739834e-002 4.52586174e-001 8.13735425e-001 1.58595875e-001
      6.97107732e-001 4.35346633e-001 8.82491935e-003 5.16355336e-001
      3.61129433e-001 5.33521950e-001 8.03986192e-002 4.12337512e-001
      1.94171164e-002 4.17779386e-001 5.18920958e-001 7.65009224e-001
      3.35256964e-001 2.74301320e-001 9.81538057e-001 2.42723137e-001
      2.61574030e-001 4.25787680e-002 1.42432153e+000 1.84585914e-001
      1.28968596e+000 6.67842403e-002 4.08074958e-003 1.71242392e+000
      1.52005151e-001 1.21942878e+000 7.85774887e-001 6.89903855e-001
      1.04445124e+000 1.09882224e+000 5.05474657e-002 8.46820891e-001
      1.01352707e-002 2.34771073e-001 4.10298765e-001 2.09298626e-001
      2.59956699e-002 2.13629246e-001 5.24719954e-001 4.04362082e-001
      5.33154249e-001 8.47157955e-001 1.65647697e+000 2.39506662e-001
      7.78441906e-001 4.83426243e-001 2.81168491e-001 2.48293847e-001
      7.37485349e-001 5.74650943e-001 1.08500265e-001 1.72870383e-002
      4.09931004e-001 1.07173359e+000 9.43456516e-002 1.30323276e-001
      9.02637839e-001 9.16589126e-002 2.47867584e-001 1.59832984e-001
      3.09765905e-001 4.62594628e-002 8.51777971e-001 1.88591290e+000
      5.68071567e-003 8.80767226e-001 1.51769921e-001 1.06701112e+000
      5.34025908e-001 4.39926714e-001 9.12877619e-001 8.65375817e-001
      1.05535996e+000 5.37183166e-001 2.42916775e+000 3.05270135e-001
      3.83840591e-001 1.82627086e-002 8.11749697e-002 1.52471140e-001
      4.97346997e-001 1.34046769e+000 4.79480147e-001 1.39815196e-001
      1.35379136e+000 1.70542109e+000 4.19191450e-001 5.12432866e-003
      2.53813356e-001 5.28198421e-001 1.87420988e+000 1.07032359e+000
      1.67055979e-001 1.63845670e+000 5.16886294e-001 8.79960299e-001
      6.15649223e-001 5.99237621e-001 4.73475486e-001 1.22784615e+000
      7.33110368e-001 7.03662574e-001 1.66290224e-001 3.57839227e-001
      5.60554862e-001 6.53070286e-002 2.88610071e-001 1.29581690e-001
      6.70996845e-001 1.65330768e+000 1.90398946e-001 1.93635851e-001
      3.32672268e-001 4.80113924e-001 1.77204156e+000 2.25193307e-001
      6.25403285e-001 1.81621361e+000 7.98846260e-002 2.30519795e+000
      4.39581931e-001 9.97954905e-001 5.35313010e-001 7.19047785e-001
      9.39895958e-002 1.59503296e-001 1.17981888e-001 4.46958601e-001
      3.64502609e-001 1.16505706e+000 9.70794320e-001 1.24266839e+000
      3.73281911e-002 5.76829864e-003 5.20503700e-001 4.52691130e-003
      2.32574478e-001 8.50374103e-002 1.43917277e-001 4.13860083e-001
      1.41180146e+000 1.07217705e+000 6.12355113e-001 7.71648407e-001
      1.03570139e+000 7.56043792e-001 7.95516849e-001 6.05204582e-001
      2.88255811e-001 9.57498729e-001 7.59395182e-001 1.48926631e-001
      2.44896674e+000 2.32155681e+000 6.97645128e-001 1.87732011e-001
      6.76034093e-001 1.50147816e-002 1.26365983e+000 9.10283327e-002
      5.77538013e-001 9.52083766e-001 1.64039329e-001 4.98776138e-003
      6.17986381e-001 2.27664757e+000 6.23186707e-001 4.19059336e-001
      2.18580484e+000 2.24897310e-001 3.05102412e-002 6.63047850e-001
      1.03323293e+000 1.39860094e-001 1.54079950e+000 2.99591362e-001
      4.58167225e-001 1.42517939e-001 1.07352841e+000 1.57513525e-002
      1.61366180e-001 4.54369076e-002 4.49166894e-001 5.80224991e-001
      2.62971610e-001 4.19546008e-001 7.06928611e-001 4.28914949e-002
      6.14944875e-001 2.44624209e+000 7.58318126e-001 3.46922696e-001
      4.79236990e-002 1.58770368e-001 1.11574543e+000 7.14181885e-002</_>
    <_>
      2.06514850e-001 3.86072360e-002 4.41962093e-001 4.07760739e-001
      7.99572885e-001 3.81220609e-001 1.42606840e-001 7.37105966e-001
      8.38723127e-003 6.36975586e-001 8.38420212e-001 8.61597359e-001
      2.78850794e-001 1.13416038e-001 2.21566334e-001 1.81481168e-001
      3.61374646e-001 2.92988926e-001 1.10763498e-002 5.30357003e-001
      4.58401054e-001 3.26951742e-001 6.52875230e-002 3.39603014e-002
      1.69142276e-001 2.18665689e-001 1.83225363e-001 2.91740835e-001
      5.45762479e-002 4.46343035e-001 2.98837740e-002 1.11734104e+000
      2.97607183e-002 1.27104267e-001 8.17623064e-002 3.05552240e-002
      2.22401798e-001 1.56823620e-001 4.05325443e-001 1.15891825e-002
      1.08261436e-001 1.17464341e-001 7.03421235e-002 6.80130497e-002
      2.61139184e-001 5.67502022e-001 3.79041553e-001 7.40569681e-002
      4.81005728e-001 3.57485302e-002 9.64600220e-002 1.41798764e-001
      2.36683320e-002 9.48801450e-003 1.23520859e-001 1.54527292e-001
      6.84105679e-002 4.94733006e-001 1.66439265e-001 9.47657377e-002
      4.67223316e-001 6.80454731e-001 6.24401033e-001 2.47842565e-001
      4.01341021e-001 3.12541664e-001 3.29669379e-002 1.71214655e-001
      8.53924155e-001 4.15090442e-001 1.02334052e-001 1.91598758e-001
      4.90381658e-001 1.09460065e-002 1.38911605e-001 2.67647862e-001
      7.24942014e-002 2.77261212e-002 2.34190568e-001 9.59319249e-002
      3.10123056e-001 2.53267825e-001 3.73374708e-002 5.90715818e-002
      3.88276249e-001 6.76727295e-002 8.15508962e-002 6.36335164e-002
      1.49759099e-001 8.74821395e-002 2.49096930e-001 7.91893840e-001
      3.92980948e-002 2.01282665e-001 2.18660980e-002 3.71929049e-001
      2.08489560e-002 1.40654370e-001 8.51430744e-002 4.71878797e-002
      1.15455039e-001 3.59534472e-001 3.15733403e-001 8.01916197e-002
      1.68775901e-001 2.09696710e-001 4.27670544e-003 2.17413470e-001
      1.90940261e-001 1.44031942e-001 4.05625664e-002 7.12544799e-001
      1.05466014e-002 2.27894902e-001 4.91199493e-001 5.03004014e-001
      7.47343004e-002 1.78166121e-001 3.65133375e-001 9.48334336e-002
      3.82514626e-001 3.54163982e-002 4.92128760e-001 4.75899041e-001
      6.33696616e-001 3.32515799e-002 3.33149219e-003 9.77211475e-001
      8.01974535e-002 1.10476065e+000 3.79637152e-001 1.14675172e-001
      1.03159040e-001 3.23695213e-001 3.18295844e-002 2.19508305e-001
      9.09017399e-003 7.79298469e-002 3.21580023e-001 6.96505308e-002
      2.48294361e-002 1.48672014e-001 2.97720045e-001 2.31221601e-001
      1.56915590e-001 5.18845260e-001 6.68975592e-001 1.27764598e-001
      9.96110260e-001 1.35377496e-001 7.06715226e-001 1.62870824e-001
      2.57299870e-001 1.65913984e-001 8.91442150e-002 8.88807327e-003
      1.57082587e-001 2.92780489e-001 8.13082159e-002 7.83190951e-002
      8.34789947e-002 7.11134300e-002 1.34935051e-001 1.12819128e-001
      1.70455188e-001 4.21648696e-002 8.15690279e-001 4.96071607e-001
      2.55837408e-003 1.00915658e+000 1.18014462e-001 4.02006626e-001
      1.05969109e-001 8.42878371e-002 6.64388835e-001 2.51565576e-001
      1.33856356e+000 3.19920391e-001 3.39223981e-001 2.63917923e-001
      2.53189057e-001 9.08847433e-003 5.88973649e-002 6.41653091e-002
      1.86803311e-001 5.94546080e-001 1.07419379e-001 1.02554910e-001
      4.67111468e-001 2.35030815e-001 1.65405169e-001 4.12723422e-003
      1.58557415e-001 3.31708372e-001 1.12083733e+000 2.10435927e-001
      1.15299478e-001 8.63593936e-001 8.04728210e-001 5.50249927e-002
      3.62399280e-001 5.57261646e-001 1.08442634e-001 7.47655749e-001
      7.54853308e-001 4.44721907e-001 1.48267940e-001 8.26073110e-001
      3.01810175e-001 2.32513607e-001 3.54851007e-001 9.87711847e-002
      3.63902122e-001 7.03378022e-001 2.80310392e-001 8.28497857e-002
      1.63776726e-001 2.03931227e-001 6.55579567e-001 1.37882248e-001
      2.72503406e-001 9.60754395e-001 4.16329801e-002 1.25928402e+000
      3.56197715e-001 1.23082496e-001 2.27184385e-001 1.65002763e-001
      1.14826716e-001 4.29245830e-001 9.66811925e-002 2.23390162e-001
      1.23781651e-001 6.42240167e-001 1.39323640e+000 2.15709284e-001
      1.94772594e-002 2.02923943e-003 2.62881398e-001 7.21348822e-003
      7.95307159e-002 6.79420531e-002 1.02482706e-001 1.88538775e-001
      9.41760063e-001 3.01343024e-001 9.35030952e-002 7.05274463e-001
      2.71492034e-001 2.62666076e-001 1.89283893e-001 1.83352605e-001
      6.73456609e-001 4.54990685e-001 2.37549499e-001 7.72253647e-002
      4.70894277e-001 1.18115807e+000 3.68019789e-001 1.01268388e-001
      2.34275669e-001 9.23930574e-003 4.38222915e-001 6.77605569e-002
      2.14189067e-001 5.70053875e-001 9.27748755e-002 7.06272433e-003
      3.74687970e-001 3.75660628e-001 1.25936493e-001 2.25889847e-001
      7.50543296e-001 9.06165317e-002 2.90800706e-002 8.00599575e-001
      4.91387248e-001 5.23781329e-002 7.80229151e-001 2.90129900e-001
      2.04215273e-001 8.21688548e-002 6.22090995e-001 7.11718760e-003
      8.31635222e-002 8.16031918e-002 5.27862608e-001 4.51391876e-001
      5.26950717e-001 2.43024468e-001 1.53543875e-001 2.90339962e-002
      1.97586805e-001 1.21192527e+000 2.80117273e-001 1.01374432e-001
      2.23346725e-002 1.01256222e-001 3.18837047e-001 7.51163960e-002</_>
    <_>
      2.98759907e-001 3.81663963e-002 1.60295993e-001 5.27887702e-001
      7.09157169e-001 4.23880696e-001 4.66458142e-001 5.61916888e-001
      1.20661808e-002 8.15783739e-001 2.14106917e-001 1.47693861e+000
      1.75936908e-001 2.21619785e-001 2.56806850e-001 2.83498466e-001
      4.70637113e-001 5.11259496e-001 2.17184257e-002 1.31145525e+000
      7.15942442e-001 4.11128521e-001 1.06213346e-001 6.00683056e-002
      1.43647641e-001 1.05733484e-001 1.70050156e+000 2.79445618e-001
      3.08924377e-001 2.40406647e-001 4.66113798e-002 1.92586422e+000
      3.06816604e-002 2.09337547e-001 1.78777337e-001 7.32471794e-002
      1.62749767e-001 1.65069908e-001 2.48020396e-001 2.87620723e-002
      2.12685198e-001 3.11599761e-001 5.06809771e-001 1.56662211e-001
      1.97947681e-001 6.52791142e-001 3.40315700e-001 9.33416560e-002
      6.46843493e-001 3.50109302e-002 1.94312379e-001 2.47344211e-001
      4.12562527e-002 2.69889235e-002 2.27498025e-001 3.81729156e-001
      2.02344418e-001 7.45452642e-001 1.65671334e-001 1.73417175e+000
      1.11921179e+000 1.35111526e-001 2.76865721e-001 1.94741771e-001
      4.14606869e-001 5.01076221e-001 4.81838398e-002 5.31138361e-001
      1.07520282e+000 1.91365764e-001 1.68007806e-001 3.89877617e-001
      3.78468364e-001 1.72260609e-002 2.03412846e-001 4.80985403e-001
      1.36906832e-001 3.14340778e-002 2.97280878e-001 3.71461153e-001
      3.13035607e-001 1.79122433e-001 3.83380465e-002 2.28512794e-001
      7.98786938e-001 3.35896254e-001 6.43435046e-002 1.01621300e-001
      1.19672112e-001 3.24019641e-001 1.76362678e-001 6.71803474e-001
      8.38952288e-002 2.77654976e-001 1.81535631e-002 5.12026131e-001
      3.87241282e-002 1.44208103e-001 1.43011704e-001 1.05585948e-001
      4.14993539e-002 2.59324551e-001 2.60010123e+000 1.68617100e-001
      4.09483194e-001 3.09914917e-001 8.74067564e-003 1.96996242e-001
      1.87652111e-001 3.49641532e-001 6.57534972e-002 6.27565026e-001
      1.67655610e-002 5.67707598e-001 5.38366675e-001 5.75907052e-001
      4.96115416e-001 6.90332472e-001 3.07001621e-001 7.48484507e-002
      2.86395788e-001 4.40544076e-002 5.43914914e-001 1.00166845e+000
      6.03807569e-001 3.81494090e-002 1.18595492e-002 1.29418540e+000
      1.58497453e-001 1.34461844e+000 6.71432137e-001 1.57729775e-001
      1.75737292e-001 1.00923562e+000 6.72885627e-002 1.14145350e+000
      2.89330557e-002 3.95779878e-001 7.97890723e-001 1.94926530e-001
      3.55099067e-002 1.73256025e-001 4.01668876e-001 3.70216757e-001
      3.76668781e-001 5.35713315e-001 7.02134728e-001 2.20280305e-001
      5.85152328e-001 1.72746062e-001 1.16323233e+000 1.94380462e-001
      7.28941739e-001 8.93188357e-001 1.96144968e-001 1.20153213e-002
      2.65200466e-001 3.77482980e-001 4.82710041e-002 8.79398957e-002
      5.21346509e-001 1.31742671e-001 1.09083354e-001 1.12505689e-001
      2.54358828e-001 9.08379778e-002 1.74161923e+000 6.22883320e-001
      3.03510716e-003 1.81358922e+000 1.48394957e-001 1.36702681e+000
      1.64715067e-001 1.43025666e-001 4.52901781e-001 7.32650638e-001
      8.56733739e-001 3.90242070e-001 1.69284344e+000 2.75049657e-001
      5.09907484e-001 2.04544198e-002 7.38878846e-002 2.24214435e-001
      6.70134008e-001 6.52590334e-001 4.37975526e-001 3.29743773e-001
      1.76471996e+000 3.02742153e-001 3.76563251e-001 1.96715482e-002
      1.48104876e-001 1.70746237e-001 9.86486793e-001 1.03278828e+000
      1.63838312e-001 1.82773435e+000 1.15223050e+000 3.48829478e-001
      1.77595302e-001 1.33598000e-001 1.33362859e-001 1.64066955e-001
      5.98676085e-001 1.22160923e+000 6.22615635e-001 1.21909404e+000
      4.15520340e-001 3.50802124e-001 5.78896821e-001 2.21328899e-001
      1.56394851e+000 1.19338799e+000 1.62863001e-001 2.87865907e-001
      1.60249725e-001 1.98839426e-001 1.53489006e+000 1.23918295e-001
      2.59325385e-001 8.00073206e-001 5.77638373e-002 1.38953245e+000
      6.29174471e-001 2.51426220e-001 3.92270863e-001 1.04872489e+000
      1.90606475e-001 1.16037655e+000 8.16901699e-002 4.16002542e-001
      1.37910753e-001 8.95461798e-001 1.21579814e+000 3.24596524e-001
      1.65352263e-002 3.24130664e-003 5.60900450e-001 5.90091012e-003
      2.13707268e-001 1.29738599e-001 1.39953882e-001 2.79880345e-001
      1.08347213e+000 4.87739116e-001 1.94447935e-001 5.22431493e-001
      7.43780911e-001 3.15093309e-001 4.65566427e-001 2.77621031e-001
      5.18901646e-001 1.79559398e+000 1.58854410e-001 1.41896933e-001
      1.44757748e+000 5.49609601e-001 7.84004033e-001 1.09310336e-001
      2.02491283e-001 2.77931709e-002 4.11319494e-001 1.38909221e-001
      5.01540661e-001 8.13900590e-001 1.44280210e-001 5.04713506e-003
      7.30342686e-001 2.27976727e+000 2.59210199e-001 4.67163235e-001
      1.23001397e+000 2.51137763e-001 5.11205345e-002 5.33724844e-001
      7.77518213e-001 1.28286034e-001 1.63602293e+000 3.85904849e-001
      5.22656143e-001 1.17102161e-001 6.18392646e-001 1.25531033e-002
      2.50154346e-001 4.65714335e-002 9.68762517e-001 3.37648064e-001
      1.01481211e+000 2.93636471e-001 8.16245973e-001 3.33178230e-002
      2.44480908e-001 1.94040322e+000 9.22246948e-002 1.43161297e-001
      3.11537627e-002 1.58459783e-001 7.16966510e-001 1.19144388e-001</_>
    <_>
      1.47558123e-001 3.49037498e-002 1.23291008e-001 5.90204120e-001
      3.92116696e-001 1.82888165e-001 1.87074572e-001 1.32507205e+000
      8.74489918e-003 9.65916455e-001 6.01564534e-002 1.40459895e+000
      2.88850695e-001 9.33737233e-002 1.38780624e-001 2.14090019e-001
      6.52010322e-001 2.79680580e-001 1.14822928e-002 4.05788153e-001
      5.15509963e-001 5.05545616e-001 1.07044473e-001 5.94545342e-002
      2.09643275e-001 1.66493028e-001 9.83749449e-001 2.95061409e-001
      6.63219512e-001 7.58206487e-001 3.65656167e-002 1.28631532e+000
      3.01135145e-002 1.27306789e-001 3.65932845e-002 5.47941960e-002
      4.23044801e-001 8.24711248e-002 6.44477844e-001 1.56590492e-002
      1.27604559e-001 2.12147936e-001 3.71202379e-001 8.62059072e-002
      5.16632676e-001 8.38196754e-001 6.74163580e-001 8.51372331e-002
      3.90834063e-001 1.31696789e-002 2.77634770e-001 1.57446668e-001
      2.81072892e-002 2.74085235e-002 1.12753779e-001 1.78000942e-001
      2.85065472e-001 5.86600959e-001 1.23625135e+000 5.85278630e-001
      7.61690021e-001 6.81065321e-001 2.64408737e-001 3.60368133e-001
      7.37006217e-002 6.64272130e-001 3.63511816e-002 1.92829117e-001
      1.23594117e+000 7.59288222e-002 6.33185059e-002 1.10818617e-001
      2.35038877e-001 8.70241039e-003 4.22941446e-001 4.58604187e-001
      9.73386541e-002 2.81005073e-002 1.95888162e-001 7.91336671e-002
      1.13647866e+000 3.37264389e-001 2.69231070e-002 1.24893799e-001
      6.73688829e-001 1.63770109e-001 4.64207157e-002 7.90842474e-002
      1.72678977e-001 1.14326894e-001 1.41955161e+000 7.95287967e-001
      3.47767137e-002 1.92529321e-001 1.00261103e-002 7.38251507e-002
      1.40051544e-002 1.73515350e-001 6.71766177e-002 7.62487948e-002
      5.22725843e-002 3.98648679e-001 6.01564050e-001 5.02124801e-002
      1.14243880e-001 8.31839666e-002 5.38354181e-003 1.95633367e-001
      2.30103925e-001 1.29174605e-001 3.48560028e-002 8.64459217e-001
      1.14736687e-002 3.94943416e-001 3.99473876e-001 1.77866668e-001
      2.03819141e-001 1.39386535e-001 1.36489689e-001 3.84006053e-001
      2.26991445e-001 1.91879664e-002 4.63238746e-001 8.26458812e-001
      5.04772365e-001 4.15676199e-002 8.73837434e-003 7.73638427e-001
      1.10289127e-001 7.76159942e-001 7.95927465e-001 2.13050336e-001
      1.29605666e-001 4.41969603e-001 1.83602367e-002 1.30410898e+000
      2.65089832e-002 1.51770607e-001 4.88939285e-001 7.69308582e-002
      3.07194591e-002 8.73450190e-002 2.29627535e-001 8.90209377e-002
      1.41752675e-001 1.71035826e-001 3.46068799e-001 3.57777923e-001
      1.45297277e+000 6.15636230e-001 1.49638712e+000 5.20918705e-002
      5.94642162e-001 2.60126770e-001 1.24503374e-001 1.78245176e-002
      2.60556191e-001 1.20537385e-001 2.57182606e-002 2.95691956e-002
      1.50978088e-001 1.30359396e-001 3.10366601e-001 1.41626120e-001
      3.57536733e-001 9.57932174e-002 1.78557849e+000 4.65259194e-001
      2.88900104e-003 1.46534085e+000 1.31728888e-001 1.06874585e+000
      3.80257785e-001 3.19025040e-001 5.33960104e-001 4.44372982e-001
      4.10962701e-001 1.27663925e-001 1.00306308e+000 3.30893755e-001
      2.93357909e-001 1.08749485e-002 5.45412712e-002 9.62923095e-002
      2.35181540e-001 6.69538617e-001 1.92871436e-001 7.48591721e-002
      5.27092278e-001 2.51635820e-001 1.21344231e-001 1.14461891e-002
      7.16998205e-002 2.74170488e-001 1.67695379e+000 3.35897833e-001
      1.03187382e-001 6.37835324e-001 2.88723409e-001 7.56479621e-001
      2.76407957e-001 8.69061530e-001 7.39179790e-001 3.97959948e-001
      9.19901311e-001 7.73762584e-001 1.80619374e-001 7.43223131e-001
      2.66168177e-001 4.16745096e-001 8.24220479e-001 1.02213793e-001
      4.21907902e-001 8.88273537e-001 3.73842597e-001 1.36836737e-001
      9.60755497e-002 9.32422206e-002 3.76000583e-001 2.68875390e-001
      3.77101272e-001 9.06190515e-001 1.39211506e-001 1.84534061e+000
      5.91749251e-001 2.72360176e-001 1.15455642e-001 7.21948385e-001
      2.10600063e-001 9.04699087e-001 8.94009992e-002 1.96218789e-001
      1.27505079e-001 6.38383567e-001 7.04288781e-001 3.04129422e-001
      5.20513877e-002 2.92987772e-003 2.83184946e-001 4.32106853e-003
      1.33450463e-001 9.67760310e-002 1.13318503e-001 3.70087653e-001
      6.73969924e-001 4.95066792e-001 1.24905072e-001 1.21266174e+000
      3.13101828e-001 1.26805723e-001 3.04842621e-001 8.42255056e-001
      2.85753518e-001 5.73857844e-001 1.11868396e-001 8.95916969e-002
      5.03186405e-001 8.26799214e-001 8.90706107e-002 1.50718808e-001
      3.82147372e-001 2.78566275e-002 1.00630522e+000 1.02074847e-001
      1.23534724e-001 1.21514225e+000 4.69357297e-002 6.49524014e-003
      1.97274640e-001 1.14627445e+000 1.12716421e-001 1.81100965e-001
      8.39386761e-001 1.55556008e-001 4.16593328e-002 1.57383275e+000
      3.41606557e-001 7.81391412e-002 5.68883300e-001 3.33666980e-001
      1.90767333e-001 1.10966928e-001 3.52439582e-001 1.59089155e-002
      5.87344877e-002 5.26313707e-002 7.20071018e-001 2.86052138e-001
      1.25490761e+000 3.62873346e-001 5.63695550e-001 3.59491706e-002
      1.35742083e-001 9.25944984e-001 5.39279997e-001 3.06046218e-001
      2.92760022e-002 7.79776350e-002 6.00384414e-001 9.39069390e-002</_>
    <_>
      2.33110994e-001 4.51173447e-002 1.03746198e-001 5.01856923e-001
      6.76352501e-001 2.90874630e-001 3.35708618e-001 6.21191382e-001
      1.07628079e-002 1.24525368e+000 2.12422818e-001 6.84458673e-001
      2.83345670e-001 1.31226376e-001 1.78770289e-001 4.18752849e-001
      2.92366117e-001 3.43015790e-001 1.34605309e-002 5.83587587e-001
      2.17383280e-001 1.23753116e-001 1.22537479e-001 4.38410640e-002
      1.04393139e-001 1.16928652e-001 5.05120337e-001 3.37974727e-001
      1.11529875e+000 8.65717947e-001 3.23465839e-002 1.35394824e+000
      2.49554534e-002 1.25955299e-001 1.00502223e-001 4.18569632e-002
      4.15301919e-001 1.70943692e-001 5.13033867e-001 1.48975179e-002
      7.74515331e-001 2.93039501e-001 1.46182406e+000 1.07052766e-001
      3.69608521e-001 3.12941641e-001 6.31773114e-001 7.88944215e-002
      3.14611405e-001 3.18219252e-002 4.36816454e-001 1.69051006e-001
      3.30474526e-002 1.14679709e-002 1.31701186e-001 4.22206461e-001
      3.01737517e-001 8.37287962e-001 1.17770660e+000 9.08956230e-001
      3.62360954e-001 4.42535400e-001 1.20627725e+000 4.44817573e-001
      2.25708246e-001 5.67729235e-001 2.43373755e-002 2.19010964e-001
      5.87778807e-001 7.08902180e-002 9.22948569e-002 2.11488172e-001
      4.95816261e-001 1.51395835e-002 3.01592767e-001 3.31285536e-001
      8.83891732e-002 2.03976110e-002 2.80730546e-001 1.78443447e-001
      1.37983704e+000 1.99902371e-001 3.86489630e-002 4.30552363e-001
      3.39816719e-001 1.00446427e+000 3.49607244e-002 8.16499963e-002
      8.63455236e-002 1.13389142e-001 9.19174254e-001 3.38420570e-001
      4.80227955e-002 2.68661529e-001 1.85200796e-002 2.87970245e-001
      3.64985615e-002 1.34950772e-001 1.25938103e-001 3.42468955e-002
      4.67480086e-002 3.51343006e-001 1.35050082e+000 1.17700711e-001
      1.89853877e-001 3.65188122e-001 5.09483693e-003 2.77621686e-001
      4.11536694e-001 2.40746126e-001 4.61715981e-002 6.68481827e-001
      1.03085777e-002 4.38993961e-001 1.31472811e-001 5.98789454e-001
      6.97480619e-001 1.78712726e-001 4.52673376e-001 2.20428094e-001
      2.69242853e-001 3.67308855e-002 6.98709190e-001 4.99193698e-001
      5.82300007e-001 3.22067067e-002 4.61433362e-003 6.59615099e-001
      8.75393599e-002 4.96403933e-001 6.45712495e-001 1.54629648e-001
      7.60786176e-001 3.99233580e-001 4.18468975e-002 1.46575999e+000
      1.23368669e-002 3.08796763e-001 3.43505740e-001 1.16329327e-001
      3.50328460e-002 1.78268522e-001 3.22462767e-001 2.16728464e-001
      2.70954520e-001 5.75695217e-001 4.60409611e-001 4.43682462e-001
      5.20176053e-001 1.19967926e+000 3.91593397e-001 8.39325488e-002
      9.86026883e-001 3.26861471e-001 1.11102395e-001 1.43573349e-002
      2.63001233e-001 1.32573560e-001 7.50983134e-002 6.14091717e-002
      1.29925823e+000 6.67916313e-002 1.54808283e-001 9.37409848e-002
      3.16050798e-001 4.15261164e-002 7.21455336e-001 8.46073449e-001
      3.62146692e-003 1.52825534e+000 1.20145373e-001 7.17044771e-001
      6.43228650e-001 1.16726816e+000 4.04469818e-001 1.08537197e+000
      4.08201307e-001 1.86650559e-001 6.63468897e-001 2.43861228e-001
      4.42775607e-001 9.59969312e-003 1.42918855e-001 1.06526665e-001
      4.16323781e-001 6.00921631e-001 4.10896689e-001 7.36552030e-002
      1.74202979e+000 2.20944718e-001 2.24967137e-001 1.19452402e-002
      1.03996828e-001 6.23807907e-001 3.82438809e-001 5.77153563e-001
      1.01138972e-001 1.18207502e+000 5.64273834e-001 1.24044561e+000
      8.04403841e-001 5.08788764e-001 6.45920157e-001 8.55191723e-002
      4.72428352e-001 3.78523022e-001 2.49282330e-001 8.16928983e-001
      3.70905161e-001 1.05040692e-001 3.44545513e-001 1.30135015e-001
      5.91740012e-001 6.27442658e-001 2.15591699e-001 1.30000576e-001
      7.82606229e-002 2.03446060e-001 6.60443485e-001 5.09262562e-001
      1.77986145e-001 7.74633110e-001 6.20673783e-002 1.75109971e+000
      5.51687419e-001 4.32988822e-001 2.45942757e-001 1.66506040e+000
      1.06516190e-001 6.29061997e-001 1.12006739e-001 2.40548640e-001
      5.01366973e-001 4.20943946e-001 7.10950315e-001 2.31686831e-001
      2.76001040e-002 4.71186917e-003 4.06536669e-001 2.76888697e-003
      1.39629409e-001 8.52722898e-002 6.44700453e-002 1.54925764e-001
      3.35281581e-001 1.48725241e-001 1.48597574e+000 5.69889963e-001
      6.46075130e-001 1.16189510e-001 4.51841295e-001 1.54597688e+000
      5.73951840e-001 1.50499105e+000 1.84931859e-001 6.86247423e-002
      8.63410771e-001 2.67763048e-001 5.81701815e-001 6.77650869e-002
      3.79744858e-001 1.11436713e-002 1.23917890e+000 9.77071449e-002
      2.55190402e-001 2.89469779e-001 9.72319022e-002 4.30452917e-003
      2.81006306e-001 1.86952904e-001 1.49083957e-001 3.23916703e-001
      5.96344471e-001 2.45035082e-001 4.06688042e-002 3.76996011e-001
      3.09620798e-001 1.38319463e-001 5.66571772e-001 2.65120268e-001
      4.04561579e-001 1.09494492e-001 3.04074705e-001 1.38504803e-002
      7.75968656e-002 2.92895641e-002 1.02562082e+000 1.86808810e-001
      9.68478501e-001 1.08153975e+000 4.89746392e-001 2.69943587e-002
      2.70179749e-001 1.28887928e+000 1.93910033e-001 2.34445035e-001
      3.95226367e-002 1.13145895e-001 2.39428490e-001 8.46043751e-002</_>
    <_>
      3.44077617e-001 3.71154733e-002 5.86190164e-001 3.44815403e-001
      5.12444317e-001 1.73623514e+000 1.12578619e+000 2.58997381e-001
      1.62007529e-002 1.22476065e+000 7.87374198e-001 6.56993151e-001
      2.39964426e-001 9.84221622e-002 2.42263585e-001 3.05257142e-001
      1.90390930e-001 3.22174191e-001 1.05145071e-002 6.24379337e-001
      9.10990477e-001 1.57541767e-001 1.97064623e-001 3.85702066e-002
      7.02579841e-002 9.42673162e-002 7.68390298e-001 2.57749200e-001
      2.77184188e-001 5.89552164e-001 3.52808796e-002 1.06670868e+000
      4.00323384e-002 9.51162726e-002 7.34882131e-002 2.67239306e-002
      2.34403536e-001 3.03571582e-001 4.47700083e-001 1.61435138e-002
      6.13873303e-001 2.90868223e-001 3.77641052e-001 1.34445682e-001
      2.68935055e-001 2.97085524e-001 1.32533193e+000 4.82263640e-002
      1.93361625e-001 3.23601775e-002 3.48273546e-001 2.20212668e-001
      4.37577590e-002 1.78208891e-002 8.96059126e-002 2.18630046e-001
      5.63677140e-002 5.98880708e-001 3.92331034e-001 5.63359320e-001
      1.06877553e+000 5.98954260e-001 3.45908523e-001 1.96564808e-001
      1.35790038e+000 2.16523200e-001 5.29054031e-002 4.01215613e-001
      3.97963673e-001 2.25602493e-001 1.41936615e-001 1.87970325e-001
      4.11436141e-001 1.56359728e-002 1.33900747e-001 2.72664934e-001
      5.92956953e-002 4.28951196e-002 1.34363472e+000 2.26495445e-001
      7.71406054e-001 1.76711127e-001 5.30622825e-002 1.91908970e-001
      4.41942871e-001 2.97963202e-001 3.50488693e-001 3.60033885e-002
      5.93654960e-002 1.17289633e-001 4.65007752e-001 3.37975293e-001
      3.10164448e-002 4.00372118e-001 6.19042180e-002 1.37572134e+000
      3.04778256e-002 5.99529259e-002 6.23261593e-002 6.39122725e-002
      1.05694279e-001 3.29906523e-001 2.38904968e-001 6.61651045e-002
      4.12082553e-001 2.67484248e-001 2.50977417e-003 2.86305577e-001
      3.01845402e-001 8.27833772e-001 3.92137840e-002 2.31612191e-001
      9.16871801e-003 4.44186658e-001 5.43103337e-001 9.52536225e-001
      8.97792652e-002 1.47788748e-001 4.75218087e-001 8.43851343e-002
      2.56535560e-001 2.39909682e-002 7.08667159e-001 3.73643994e-001
      9.19492126e-001 4.23222370e-002 6.65812846e-003 1.78196537e+000
      1.04573935e-001 9.66315806e-001 6.21648431e-001 5.68118632e-001
      6.22178912e-001 4.04766858e-001 3.32947150e-002 3.65559429e-001
      1.54109066e-002 1.33774385e-001 2.65119702e-001 1.05908632e-001
      1.10172434e-002 2.02765197e-001 2.01157302e-001 2.59276241e-001
      8.30368102e-001 1.16914165e+000 9.47330117e-001 1.26155496e-001
      2.21657485e-001 2.77859300e-001 2.97345549e-001 3.76389593e-001
      2.81995505e-001 6.14905894e-001 1.40749842e-001 9.99453384e-003
      3.26955527e-001 1.20098889e+000 5.95015660e-002 1.02475926e-001
      2.34329045e-001 5.85908554e-002 1.30126253e-001 6.30017072e-002
      1.47183359e-001 4.26199138e-002 1.61602843e+000 6.75386071e-001
      4.82267328e-003 9.90712881e-001 1.48705944e-001 3.67864609e-001
      2.21896097e-001 2.58352757e-001 7.07719088e-001 3.52765828e-001
      8.18073928e-001 1.26895130e+000 4.42238182e-001 1.96971208e-001
      1.30621299e-001 1.10424487e-002 1.34680718e-001 1.35337561e-001
