<?xml version="1.0"?>
<opencv_storage>
<my_svm type_id="opencv-ml-svm">
  <svm_type>EPS_SVR</svm_type>
  <kernel><type>RBF</type>
    <gamma>2.2500000000000003e-003</gamma></kernel>
  <C>6.2500000000000000e+001</C>
  <p>1.0000000000000001e-001</p>
  <term_criteria><epsilon>4.9999998882412910e-003</epsilon>
    <iterations>2147483647</iterations></term_criteria>
  <var_all>300</var_all>
  <var_count>300</var_count>
  <sv_total>409</sv_total>
  <support_vectors>
    <_>
      7.64639258e-001 8.15048367e-002 3.70625108e-001 8.86706412e-001
      9.47268188e-001 6.84788227e-001 6.16938949e-001 9.35467184e-001
      2.23999377e-002 1.63182199e-001 6.85394287e-001 1.21568441e+000
      6.67523861e-001 1.87442392e-001 4.68998641e-001 8.19474161e-001
      1.20515442e+000 5.69327116e-001 2.94251423e-002 6.88703418e-001
      1.01028621e+000 2.77438611e-001 1.67395741e-001 8.88510495e-002
      1.28835872e-001 2.06977770e-001 6.37302339e-001 5.49777806e-001
      1.93149972e+000 1.95317343e-001 6.76763952e-002 3.13191485e+000
      7.54935145e-002 2.21568108e-001 1.42218500e-001 6.64414763e-002
      2.27180064e-001 3.97571951e-001 5.35012960e-001 2.16980558e-002
      2.22641611e+000 4.00459856e-001 2.89833856e+000 2.33033255e-001
      2.85265237e-001 6.92637622e-001 2.73825979e+000 9.50144976e-002
      4.69287694e-001 3.98793556e-002 3.64333540e-001 4.67847884e-001
      9.22152027e-002 2.56206691e-002 1.38196781e-001 5.06378472e-001
      3.87298882e-001 1.31122005e+000 2.11932325e+000 1.66883481e+000
      2.73890233e+000 1.05856061e+000 6.50060117e-001 1.59775034e-001
      4.85831410e-001 5.73894680e-001 7.94361383e-002 5.30403554e-001
      1.18048084e+000 1.53410137e-001 1.96716979e-001 4.00064051e-001
      1.08239830e+000 2.11339314e-002 8.59488785e-001 9.53050554e-001
      1.96213707e-001 7.04582930e-002 5.55862010e-001 3.12515706e-001
      5.04485130e-001 4.77363765e-001 5.98464720e-002 8.88530791e-001
      1.38086736e+000 2.47974229e+000 1.88026249e-001 6.67584836e-002
      3.44167054e-001 1.22047320e-001 1.15701449e+000 5.41783452e-001
      7.42241815e-002 8.52643192e-001 3.27955224e-002 8.84288073e-001
      4.69355620e-002 1.68478101e-001 2.31744915e-001 1.21452801e-001
      1.69778064e-001 5.41140676e-001 1.21847832e+000 2.46421456e-001
      1.05916667e+000 4.97908682e-001 7.36576645e-003 3.86255503e-001
      9.34868157e-001 4.71604705e-001 7.05019012e-002 1.56288791e+000
      2.30322443e-002 9.81419742e-001 5.33724487e-001 8.39470983e-001
      8.74552608e-001 6.32087231e-001 4.44832087e-001 3.92079055e-001
      6.86056167e-002 4.55205105e-002 1.71997094e+000 3.31253618e-001
      1.69709325e+000 6.03062585e-002 1.17558539e-002 1.43558431e+000
      1.51372820e-001 1.99835563e+000 1.16911948e+000 5.95758736e-001
      1.87822354e+000 6.88462079e-001 5.95077649e-002 2.94528151e+000
      2.92572193e-002 2.40370005e-001 8.37577462e-001 1.83174640e-001
      3.57931033e-002 4.03393537e-001 6.97106123e-001 3.84016812e-001
      5.25397897e-001 8.38021815e-001 1.14416111e+000 9.64662373e-001 0.
      1.54425693e+000 1.18632674e+000 3.42957407e-001 5.58997810e-001
      9.66995358e-001 2.03684747e-001 2.80724242e-002 3.67584944e-001
      3.87326539e-001 9.71056893e-002 1.85887560e-001 2.45151234e+000
      1.20140553e-001 1.56191096e-001 1.30686134e-001 3.95319849e-001
      1.59231737e-001 2.40703321e+000 1.51782167e+000 7.49258883e-003
      2.68143582e+000 1.38009682e-001 1.17902625e+000 1.46983004e+000
      2.08979535e+000 9.66415107e-001 1.04733229e+000 1.62710595e+000
      3.25851649e-001 1.61110854e+000 1.00775406e-001 4.57020432e-001
      2.86330320e-002 3.08520347e-001 2.19177574e-001 7.06256092e-001
      1.71395123e+000 6.05826437e-001 1.84921205e-001 1.95337927e+000
      9.18354988e-001 3.16492617e-001 1.55279972e-002 4.31836486e-001
      2.55508947e+000 7.30495274e-001 1.39070630e+000 2.78455496e-001
      1.01644850e+000 1.30175352e+000 2.26911211e+000 2.78424978e+000
      8.51647556e-001 1.06767452e+000 4.17059034e-001 1.05565906e-001
      4.75300968e-001 4.77079004e-001 4.49864531e+000 8.15128982e-001
      3.00570726e-001 5.40566921e-001 2.20854178e-001 6.73170865e-001
      1.24074602e+000 3.33341658e-001 2.19413444e-001 2.83200175e-001
      4.96481687e-001 6.56928062e-001 8.76279712e-001 5.27421474e-001
      2.25426960e+000 4.59668376e-002 2.64043307e+000 8.45673919e-001
      5.06947756e-001 6.38091683e-001 3.39550757e+000 4.52539563e-001
      9.90799665e-001 1.49972081e-001 5.49395442e-001 7.93592751e-001
      1.45192420e+000 1.32852614e+000 7.95745730e-001 1.04263714e-002
      7.35233864e-003 9.30203438e-001 8.87270644e-003 2.36910775e-001
      1.85118809e-001 2.35614657e-001 3.71173054e-001 2.26302370e-001
      8.93105507e-001 3.88514495e+000 7.06436813e-001 1.23163986e+000
      5.26057720e-001 9.09881592e-001 1.92308354e+000 2.22693467e+000
      1.86513329e+000 5.62365770e-001 1.72911718e-001 1.78292298e+000
      2.11313391e+000 7.58211553e-001 2.24739328e-001 2.12819427e-001
      2.48272382e-002 1.63646245e+000 2.03444347e-001 5.07106960e-001
      1.91600382e+000 1.77849337e-001 1.22340778e-002 6.09535575e-001
      2.64791870e+000 4.76612002e-001 3.69196713e-001 6.35992050e-001
      2.30580658e-001 7.49189332e-002 1.32396424e+000 1.23454380e+000
      2.42171720e-001 1.81523681e+000 4.77250248e-001 9.18073416e-001
      1.72830939e-001 9.56059754e-001 3.34070884e-002 1.20815471e-001
      5.54909147e-002 1.02959418e+000 6.76014125e-001 1.86054081e-001
      1.68025458e+000 4.48362017e+000 5.19647337e-002 5.97656846e-001
      2.10089898e+000 1.60598189e-001 3.67760718e-001 8.88170004e-002
      2.37633273e-001 4.96087074e-001 1.08795829e-001</_>
    <_>
      2.56768823e-001 4.14884239e-002 3.24902892e-001 1.72321960e-001
      4.95310813e-001 1.07998431e+000 9.01419640e-001 1.10363221e+000
      1.31354891e-002 1.29344761e+000 5.94434798e-001 8.15821648e-001
      4.42130625e-001 1.08763322e-001 2.49360844e-001 4.12564903e-001
      3.90359163e-001 3.11151683e-001 1.06395120e-002 3.02077353e-001
      3.06382269e-001 9.09878016e-002 1.34237126e-001 4.50538918e-002
      5.25948927e-002 3.12118173e-001 2.32606232e-001 3.24174672e-001
      1.45048451e+000 4.59260613e-001 2.64978576e-002 1.40404963e+000
      3.70574966e-002 8.44804868e-002 5.48853055e-002 4.06141207e-002
      3.04108709e-001 4.82257903e-002 1.53071329e-001 1.08152945e-002
      7.20790207e-001 1.24146752e-001 5.36206007e-001 1.38382718e-001
      3.79702419e-001 2.27808878e-001 7.37053156e-001 1.18760787e-001
      3.02243769e-001 4.31067534e-002 1.75687373e-001 1.34323776e-001
      4.65916283e-002 1.46664428e-002 1.38527617e-001 2.15357244e-001
      3.88623148e-001 3.67581934e-001 1.55713952e+000 1.28489983e+000
      8.76662850e-001 1.89673766e-001 4.26022410e-001 2.83623308e-001
      1.16477716e+000 2.71139324e-001 3.06840297e-002 2.02883989e-001
      1.20778131e+000 5.53700924e-001 1.09642953e-001 1.17935948e-001
      7.15179622e-001 8.67585838e-003 1.78556368e-001 4.25480306e-001
      5.38223907e-002 3.02705634e-002 3.54293853e-001 3.98750067e-001
      7.14591622e-001 1.52732626e-001 4.20002863e-002 4.98894989e-001
      5.52248478e-001 5.87700605e-001 1.00562014e-001 1.24568276e-001
      2.01123893e-001 1.55599490e-001 6.68471038e-001 1.48391628e+000
      2.95748599e-002 5.54058135e-001 1.91434640e-002 1.37201762e+000
      5.11847585e-002 7.58415833e-002 1.11061484e-001 4.17659171e-002
      8.63816962e-002 1.67927027e-001 4.14794505e-001 6.91623688e-002
      1.77809274e+000 8.20312619e-001 5.49125252e-003 2.08524913e-001
      2.79435992e-001 8.58338594e-001 2.91065462e-002 4.09785867e-001
      9.73608624e-003 4.15132970e-001 3.55429471e-001 8.56116056e-001
      5.07747412e-001 1.87313110e-001 3.42503160e-001 3.00871462e-001
      7.00211465e-001 6.43185228e-002 6.85117424e-001 3.73003572e-001
      4.22911167e-001 2.52630301e-002 9.12385248e-003 7.37923443e-001
      6.31183535e-002 7.66281843e-001 6.73152924e-001 2.75428206e-001
      5.70799947e-001 3.01127344e-001 4.65578772e-002 7.76588917e-001
      2.51193084e-002 1.04235455e-001 3.63011360e-001 7.54617304e-002
      4.51072603e-002 8.91105309e-002 2.82538354e-001 1.66070148e-001
      8.69743288e-001 8.70816350e-001 2.92332202e-001 2.21473604e-001
      8.41287732e-001 3.11261266e-001 3.65134120e-001 3.18394840e-001
      2.41568267e-001 1.48089707e-001 1.15258984e-001 1.54204667e-002
      3.09916794e-001 5.80915928e-001 2.48426571e-001 9.46636349e-002
      8.82432222e-001 4.19168174e-002 1.84620485e-001 7.68857449e-002
      1.20701529e-001 6.84174523e-002 1.21024334e+000 8.51488233e-001
      4.49680630e-003 9.20244992e-001 1.05214007e-001 7.25026608e-001
      9.37020600e-001 7.03538120e-001 4.14565116e-001 3.57131273e-001
      5.37022114e-001 8.02387297e-001 2.85408944e-001 3.61694068e-001
      2.00750858e-001 1.03018787e-002 9.75808650e-002 1.45017266e-001
      2.21069738e-001 5.43627620e-001 2.44155169e-001 6.95935488e-002
      5.21847725e-001 1.04997349e+000 2.15220675e-001 1.39919668e-002
      1.19406477e-001 1.93067706e+000 1.12767208e+000 7.12110698e-001
      9.44665447e-002 1.14800084e+000 3.35990757e-001 1.59150922e+000
      1.99833572e+000 2.27838024e-001 5.14124572e-001 2.98828125e-001
      1.30267358e+000 2.11933464e-001 1.92529216e-001 9.54009831e-001
      3.41544092e-001 1.47339135e-001 2.32505381e-001 9.82243493e-002
      2.51788795e-001 7.04000533e-001 1.66746810e-001 2.22535938e-001
      4.20408338e-001 2.14716539e-001 2.90261865e-001 2.55425692e-001
      1.53165504e-001 1.31933153e+000 7.16325864e-002 1.10375619e+000
      3.84592712e-001 1.69520631e-001 1.57247519e+000 7.97564507e-001
      2.22732544e-001 9.32214975e-001 4.69243340e-002 2.46226296e-001
      3.53532195e-001 5.67985952e-001 9.42191601e-001 2.07380727e-001
      3.08191329e-002 4.02337639e-003 4.61463511e-001 6.16585696e-003
      9.00586694e-002 4.50166203e-002 5.36382645e-002 1.92640662e-001
      1.56019747e+000 3.95976216e-001 1.29382443e+000 9.42329228e-001
      7.70062208e-001 6.32664859e-001 1.23844348e-001 3.45000595e-001
      8.01414847e-001 6.54914200e-001 1.86186707e+000 9.52881798e-002
      2.12450579e-001 6.89721763e-001 1.03594053e+000 1.03028640e-001
      1.34709015e-001 1.49784209e-002 3.61602038e-001 1.01666808e-001
      3.52582455e-001 4.83577102e-001 7.43529275e-002 1.19152069e-002
      2.39621371e-001 8.40323448e-001 4.79905367e-001 2.76837647e-001
      6.35700166e-001 2.06502989e-001 3.80348004e-002 1.18870687e+000
      2.77568609e-001 1.17306784e-001 6.04958355e-001 2.92812377e-001
      3.08985651e-001 1.26357466e-001 4.37186003e-001 1.53771248e-002
      7.53731951e-002 1.58851027e-001 1.13267088e+000 3.12812448e-001
      1.55164838e+000 3.59640658e-001 1.03014076e+000 1.26682511e-002
      2.83803463e-001 1.26519156e+000 8.93312916e-002 1.23710908e-001
      4.42713574e-002 1.18366569e-001 4.02084917e-001 1.14438087e-001</_>
    <_>
      1.82421267e-001 4.40256111e-002 5.19510984e-001 3.92063826e-001
      1.70907795e+000 1.24606240e+000 7.18307734e-001 5.34745932e-001
      2.42759921e-002 1.17360699e+000 7.82992601e-001 6.83718026e-001
      7.49410093e-001 1.95545301e-001 6.81164324e-001 6.58050060e-001
      3.30309659e-001 4.56227124e-001 1.39567247e-002 1.03427136e+000
      8.85577083e-001 2.24234238e-001 2.49092728e-001 4.90824431e-002
      1.22633465e-001 1.39480069e-001 9.84763682e-001 6.80990756e-001
      1.12947917e+000 6.26993716e-001 5.34038357e-002 1.28745759e+000
      6.66824654e-002 9.65404734e-002 6.16948716e-002 3.64156812e-002
      5.78270972e-001 2.01449484e-001 1.51010251e+000 1.79058723e-002
      3.42982322e-001 3.76115918e-001 3.88579607e-001 6.20736070e-002
      8.03010643e-001 3.18826675e-001 3.61101687e-001 6.34597018e-002
      2.98148900e-001 3.20931748e-002 4.86955374e-001 6.02290750e-001
      3.77578326e-002 2.30889581e-002 7.74838999e-002 6.39188111e-001
      4.49251235e-001 1.18139243e+000 1.58818018e+000 1.81740254e-001
      2.70356536e-001 1.77888715e+000 1.26484644e+000 5.56272984e-001
      2.80192047e-001 5.43898702e-001 3.84937301e-002 3.19122732e-001
      5.50918341e-001 2.51605719e-001 2.52124459e-001 6.01490378e-001
      1.26908088e+000 1.81476567e-002 7.09662855e-001 6.65531278e-001
      9.61142480e-002 6.96138069e-002 5.19495130e-001 3.62806946e-001
      1.19896686e+000 2.50024766e-001 6.25335425e-002 2.36714080e-001
      6.35583699e-001 3.68527770e-001 9.54777673e-002 7.20317289e-002
      1.46443903e-001 8.12806785e-002 1.93284142e+000 6.08695984e-001
      6.24732263e-002 9.68964815e-001 2.95670629e-002 4.05316681e-001
      4.34225164e-002 1.81891769e-001 1.73973411e-001 6.87313452e-002
      5.76426424e-002 3.70317966e-001 1.44250703e+000 1.27867848e-001
      3.75019461e-001 3.92352760e-001 6.83327299e-003 2.57218838e-001
      1.65759265e-001 3.96036357e-001 4.84920926e-002 2.72216499e-001
      1.36380289e-002 5.25074542e-001 4.61212993e-001 6.92843676e-001
      5.40055811e-001 1.62753224e-001 9.57303762e-001 4.64486063e-001
      1.24049568e+000 3.99651118e-002 1.72729015e+000 1.16285336e+000
      7.60869741e-001 6.64593577e-002 1.10557834e-002 3.87044877e-001
      1.60585403e-001 1.16348672e+000 1.06441975e+000 1.17786817e-001
      3.43900263e-001 7.28156269e-001 7.19327033e-002 3.36101800e-001
      2.54226681e-002 4.97389793e-001 3.75217229e-001 1.38988718e-001
      3.04061696e-002 1.82725117e-001 1.05227721e+000 4.00256962e-001
      2.80519664e-001 6.27801359e-001 9.88353133e-001 6.25203013e-001
      1.01193976e+000 6.69952035e-001 4.37873662e-001 2.63402969e-001
      1.36182165e+000 9.86195743e-001 1.70975208e-001 2.09787264e-002
      2.62102306e-001 6.90950572e-001 1.77763045e-001 8.94628465e-002
      2.64384687e-001 1.27299324e-001 2.62964815e-001 1.78956851e-001
      4.67967689e-001 6.76625296e-002 7.79149175e-001 2.29924846e+000
      6.12539332e-003 1.07292724e+000 1.39966533e-001 5.01459360e-001
      3.00584823e-001 8.60037088e-001 8.81508470e-001 1.12203753e+000
      6.50761843e-001 3.71415198e-001 6.62061632e-001 5.35730124e-001
      4.98693019e-001 1.45974932e-002 8.95094872e-002 9.69707668e-002
      3.15507174e-001 8.08305621e-001 6.63217664e-001 1.96502715e-001
      9.17946100e-001 4.99837309e-001 4.82168406e-001 2.57628597e-002
      1.70271143e-001 1.93629038e+000 3.33426595e-001 6.89725399e-001
      8.50632265e-002 1.39190781e+000 1.39848685e+000 1.18670475e+000
      1.97460020e+000 1.34517968e+000 2.74305761e-001 4.52809095e-001
      1.78671920e+000 7.53725708e-001 1.27120718e-001 8.95530522e-001
      8.87508392e-001 5.22167504e-001 2.48922542e-001 1.95408031e-001
      7.41290748e-001 3.98361087e-001 2.24601045e-001 1.19053312e-001
      1.88192889e-001 3.91734213e-001 1.07655299e+000 4.77407396e-001
      6.02902949e-001 1.34536207e+000 1.14295930e-001 1.90423799e+000
      6.41888201e-001 4.37641948e-001 4.45594758e-001 3.37405354e-001
      1.51499003e-001 1.33363152e+000 9.50677618e-002 4.29694444e-001
      1.56119049e-001 4.41052943e-001 5.19367576e-001 4.42375273e-001
      9.56514329e-002 4.59416769e-003 4.65973705e-001 9.55642853e-003
      2.03698680e-001 9.22273993e-002 2.14133367e-001 2.19088510e-001
      2.14818811e+000 2.14830756e-001 3.38481337e-001 7.56235898e-001
      1.02692425e+000 2.94772357e-001 1.20738816e+000 1.31418264e+000
      2.00906253e+000 9.95208025e-001 1.95655063e-001 1.07879408e-001
      1.70855987e+000 8.23258102e-001 4.97054428e-001 1.69130445e-001
      9.83054698e-001 2.45127380e-002 5.10307431e-001 1.35496184e-001
      4.73956019e-001 3.75228792e-001 1.40278563e-001 3.01911049e-002
      2.33339056e-001 4.12425637e-001 1.71881512e-001 7.52948403e-001
      9.89252090e-001 1.15485169e-001 4.55268323e-002 7.23993599e-001
      3.99239451e-001 7.08736703e-002 9.42957103e-001 1.76447421e-001
      6.29298270e-001 1.85125485e-001 6.56578839e-001 1.41470777e-002
      1.85003623e-001 3.84161711e-001 7.88853467e-001 2.12659776e-001
      7.07963228e-001 1.92323661e+000 2.52545655e-001 5.09044342e-002
      6.30229831e-001 1.35086918e+000 1.09317911e+000 3.72011840e-001
      2.63446160e-002 1.87053919e-001 2.77330905e-001 6.39535710e-002</_>
    <_>
      1.68934152e-001 6.21690974e-002 2.26985678e-001 1.14594316e+000
      8.64816546e-001 6.06252193e-001 7.20551491e-001 3.29077721e-001
      1.55433435e-002 1.34353435e+000 5.73316395e-001 1.52480555e+000
      3.56761009e-001 1.99357495e-001 2.51315325e-001 2.51933396e-001
      3.34713995e-001 5.49111187e-001 2.80860234e-002 1.61513031e+000
      1.60181689e+000 4.06201333e-001 1.33837372e-001 7.15988576e-002
      2.00038046e-001 1.71593294e-001 1.73598778e+000 2.90857166e-001
      4.64314669e-001 7.53511846e-001 5.65809198e-002 2.32514572e+000
      4.60192896e-002 1.68445170e-001 1.93951949e-001 6.44545034e-002
      3.45265388e-001 2.86506891e-001 3.66848439e-001 2.40049865e-002
      9.47507322e-002 4.81723309e-001 6.36872113e-001 1.23145513e-001
      3.80494326e-001 5.30716479e-001 1.07562876e+000 1.87518507e-001
      6.80882394e-001 5.16437441e-002 1.94863960e-001 2.06582621e-001
      4.27788161e-002 4.85233292e-002 1.27135336e-001 5.06910920e-001
      1.97133958e-001 1.27719593e+000 8.76321375e-001 5.45617104e-001
      1.38935792e+000 1.02719259e+000 7.37443030e-001 3.52945566e-001
      5.21139026e-001 4.49838489e-001 5.98838367e-002 3.22114497e-001
      5.52728355e-001 7.69658238e-002 6.08177423e-001 4.40555036e-001
      5.04389048e-001 2.64521614e-002 4.44921792e-001 5.84846377e-001
      1.51821271e-001 4.22191024e-002 3.10723931e-001 4.14622396e-001
      1.33450282e+000 3.29837918e-001 6.72344565e-002 2.15602085e-001
      1.48560095e+000 4.94059056e-001 1.09982751e-001 1.08576410e-001
      9.53666642e-002 1.04473867e-001 1.26186132e+000 3.56054783e-001
      8.05529729e-002 2.45814592e-001 3.50136869e-002 6.24571741e-001
      3.27464379e-002 2.00355589e-001 1.15250565e-001 1.79508671e-001
      1.47218168e-001 4.34904099e-001 1.22968018e+000 1.23308904e-001
      3.72888088e-001 3.89104187e-001 5.43970801e-003 4.47636366e-001
      3.73441011e-001 4.65765625e-001 8.23195353e-002 6.20082974e-001
      2.80253030e-002 5.64312458e-001 6.26316190e-001 1.95366788e+000
      4.84599590e-001 2.60601193e-001 1.83585614e-001 1.86571211e-001
      3.10459018e-001 5.45947850e-002 7.35593379e-001 7.13783741e-001
      8.70046794e-001 5.95913678e-002 1.60806458e-002 2.55557585e+000
      2.12294981e-001 1.73223722e+000 1.39775372e+000 1.79920897e-001
      8.55112895e-002 3.69647741e-001 6.78357780e-002 1.98595691e+000
      2.97502968e-002 1.19200647e-001 5.57368934e-001 1.07144870e-001
      7.47161210e-002 2.88684756e-001 4.68911767e-001 3.78590822e-001
      4.64598298e-001 1.69500411e+000 1.73872972e+000 5.29029787e-001
      3.97654027e-001 7.34092176e-001 9.73047674e-001 2.23241523e-001
      6.74819350e-001 6.61172271e-001 2.14885190e-001 1.75885577e-002
      4.45092261e-001 3.53639752e-001 1.33413747e-001 9.18645635e-002
      1.46190271e-001 1.71027258e-001 1.73384488e-001 1.85477614e-001
      5.02680004e-001 1.04201876e-001 2.04829884e+000 6.38521016e-001
      4.93911514e-003 1.99356163e+000 3.10616821e-001 5.42041719e-001
      2.14075923e-001 8.71978223e-001 1.71062481e+000 1.08800220e+000
      1.52579510e+000 3.18151891e-001 7.37356722e-001 2.55364001e-001
      5.18132389e-001 2.33315621e-002 1.15783498e-001 2.64091462e-001
      4.13452148e-001 9.39998925e-001 1.37989247e+000 7.11493969e-001
      1.58327556e+000 8.69333208e-001 4.96988773e-001 2.56157052e-002
      2.95707136e-001 9.39215720e-001 4.46125448e-001 6.79503024e-001
      1.67201951e-001 1.03881586e+000 6.44589841e-001 5.41401327e-001
      1.08171594e+000 6.53820515e-001 5.69377542e-001 2.66196966e-001
      6.11585736e-001 1.07238841e+000 2.85633773e-001 9.42655385e-001
      3.94637942e-001 3.02731276e-001 6.27839565e-001 2.12765083e-001
      6.54246926e-001 2.01929116e+000 3.88473183e-001 2.60484189e-001
      1.73550993e-001 2.21287459e-001 1.64956343e+000 4.64239478e-001
      8.47120047e-001 2.61289978e+000 6.16957024e-002 1.79182899e+000
      9.66680348e-001 2.59920150e-001 7.13440359e-001 1.33434117e+000
      1.88679591e-001 7.13728845e-001 1.51614517e-001 5.74407578e-001
      8.60580802e-002 6.24623597e-001 1.30017996e+000 2.48730421e-001
      2.57241372e-002 4.68566967e-003 4.50135618e-001 1.13244075e-002
      1.56578466e-001 1.51815638e-001 1.57294571e-001 4.68691558e-001
      8.33854496e-001 5.57314634e-001 7.54361004e-002 3.39345902e-001
      7.51452386e-001 3.53076369e-001 6.17794514e-001 6.09352708e-001
      1.20150995e+000 1.29921556e+000 4.50168401e-001 8.73908103e-002
      7.92801857e-001 1.64479470e+000 9.78606462e-001 1.73977494e-001
      4.48436856e-001 5.06822355e-002 1.27536094e+000 1.44452795e-001
      2.46566668e-001 1.63275683e+000 1.86846927e-001 9.33605433e-003
      5.68449080e-001 8.54075849e-001 2.95823395e-001 4.59466815e-001
      3.76389116e-001 4.70638394e-001 6.18921518e-002 5.57606041e-001
      4.45165634e-001 1.52836740e-001 9.26274896e-001 3.15749794e-001
      4.29073215e-001 1.73854336e-001 5.20219803e-001 2.60889679e-002
      2.82243818e-001 9.13790539e-002 1.01148677e+000 7.56355047e-001
      1.81718683e+000 1.26978767e+000 5.02110362e-001 4.45679650e-002
      3.30240607e-001 1.59119368e+000 1.69950441e-001 2.66741037e-001
      4.51477803e-002 2.29165584e-001 3.39261085e-001 2.00223997e-001</_>
    <_>
      2.68904597e-001 4.16897871e-002 1.08387701e-001 3.02359998e-001
      8.28761816e-001 7.95140505e-001 4.23932821e-001 2.87059426e-001
      1.29949115e-002 1.10838509e+000 1.17527358e-001 5.72218955e-001
      2.73352265e-001 1.44523665e-001 1.78427920e-001 2.10889220e-001
      2.13267386e-001 3.49861950e-001 1.15828626e-002 4.98241991e-001
      4.55555618e-001 8.07993934e-002 1.39673844e-001 3.52327861e-002
      6.88381344e-002 1.12069860e-001 5.13904274e-001 2.07130641e-001
      1.07444179e+000 7.36745775e-001 2.85112783e-002 1.36897922e+000
      2.55497005e-002 7.23989978e-002 7.04321712e-002 4.12750579e-002
      3.37283254e-001 1.11516260e-001 4.74560052e-001 1.81599110e-002
      2.51943797e-001 2.55315602e-001 4.64002520e-001 1.20664522e-001
      4.26692575e-001 1.15561388e-001 1.07343364e+000 3.49366628e-002
      5.53144336e-001 2.93464828e-002 1.44210249e-001 1.50601372e-001
      3.02620400e-002 1.05075017e-002 8.71092901e-002 2.72915751e-001
      2.09601596e-001 4.53202099e-001 6.26320720e-001 3.08481216e-001
      7.33449697e-001 6.30949378e-001 1.31736183e+000 3.37765574e-001
      2.87045628e-001 2.69199967e-001 3.41641717e-002 2.82784164e-001
      4.49454129e-001 8.06967244e-002 9.14895684e-002 1.03005938e-001
      3.84006053e-001 1.36632072e-002 4.91895556e-001 4.68473464e-001
      6.93638995e-002 2.96411328e-002 3.63233447e-001 1.43364623e-001
      8.82248819e-001 1.50574043e-001 3.93167920e-002 2.58422524e-001
      7.62293339e-001 1.01653850e+000 6.72025010e-002 5.41258864e-002
      6.08765855e-002 8.85387361e-002 7.21621394e-001 4.33004260e-001
      4.00898568e-002 1.42466381e-001 1.83870234e-002 2.33248845e-001
      3.71938013e-002 7.52948076e-002 9.08500403e-002 3.58150937e-002
      4.39014137e-002 2.69813895e-001 3.22256446e-001 6.97549880e-002
      6.87934697e-001 4.42953527e-001 4.91810963e-003 2.89850414e-001
      5.56063592e-001 3.24766964e-001 4.44861874e-002 4.29233760e-001
      1.16166556e-002 3.03555578e-001 1.53454289e-001 5.73595583e-001
      5.55781484e-001 1.23615578e-001 6.52820840e-002 1.87419116e-001
      2.30695724e-001 4.52261865e-002 5.15808582e-001 8.12358916e-001
      5.94916761e-001 4.46133502e-002 3.76139651e-003 1.12297654e+000
      7.68754557e-002 5.97110927e-001 3.34020168e-001 1.82257175e-001
      2.27889925e-001 5.87522089e-001 3.50819416e-002 3.04032832e-001
      1.15234051e-002 1.18649162e-001 4.04124379e-001 9.64820981e-002
      2.04238202e-002 9.69815850e-002 4.00621265e-001 1.29731342e-001
      3.54300767e-001 4.99912262e-001 5.30987144e-001 4.11031932e-001
      7.01728225e-001 1.24342823e+000 2.68245399e-001 1.16480514e-001
      1.45723477e-001 2.53147781e-001 1.17414273e-001 1.67664140e-002
      3.00632566e-001 2.80302763e-001 7.62658939e-002 3.97117175e-002
      1.92892715e-001 8.50190818e-002 3.72351736e-001 8.65650550e-002
      1.91257462e-001 2.16198098e-002 8.08993042e-001 6.71905160e-001
      4.34467755e-003 1.12405229e+000 1.48429871e-001 2.83494204e-001
      1.06946278e+000 1.80363560e+000 5.59878290e-001 3.16134959e-001
      9.50122654e-001 3.23573589e-001 5.85462332e-001 3.14771593e-001
      1.85522273e-001 1.12787038e-002 1.09070264e-001 7.81121552e-002
      2.68979251e-001 6.16071820e-001 3.73990566e-001 8.74620900e-002
      4.33264077e-001 5.80270588e-001 1.47417709e-001 8.06157384e-003
      1.52864963e-001 8.22367132e-001 6.09379053e-001 5.69139779e-001
      1.13541931e-001 4.39488769e-001 7.92378366e-001 7.59777904e-001
      9.20108318e-001 4.16696310e-001 1.27033257e+000 1.12954117e-001
      8.18943322e-001 3.88647586e-001 1.07770227e-001 5.19470036e-001
      4.83352572e-001 2.56855935e-001 8.77925307e-002 1.47009224e-001
      4.85188991e-001 8.61138821e-001 1.52569920e-001 7.42055327e-002
      1.23825759e-001 9.20457244e-002 4.92127359e-001 3.72361302e-001
      2.40481019e-001 1.03525114e+000 1.67356640e-001 1.54185176e+000
      5.29416442e-001 1.75507963e-001 3.84557575e-001 8.25360596e-001
      7.32261240e-002 6.37371957e-001 7.98214301e-002 2.48236299e-001
      1.87905222e-001 5.23181617e-001 6.13559484e-001 1.53445095e-001
      5.74674569e-002 3.72027489e-003 3.03658068e-001 3.05403490e-003
      1.38513073e-001 6.66753426e-002 1.21561870e-001 1.77772000e-001
      4.43813920e-001 2.48805583e-001 5.21830261e-001 2.68855751e-001
      5.18607855e-001 1.53053880e-001 2.36683115e-001 1.37137747e+000
      6.25383139e-001 5.38169265e-001 6.21034563e-001 7.01889470e-002
      5.34321010e-001 6.05880320e-001 2.88971245e-001 1.15031920e-001
      1.79338634e-001 1.07490635e-002 1.40143347e+000 1.41601413e-001
      1.42090023e-001 7.62961328e-001 7.54920617e-002 1.10232728e-002
      1.88605249e-001 6.54632449e-001 1.13705948e-001 1.96202889e-001
      4.53141540e-001 1.39989376e-001 2.92871706e-002 5.20528018e-001
      2.61708289e-001 8.09129924e-002 5.66552877e-001 4.03178781e-001
      3.45489651e-001 1.19281717e-001 4.81212616e-001 1.06076272e-002
      4.43852618e-002 1.08471707e-001 6.26780212e-001 2.57514387e-001
      8.21074665e-001 9.80155826e-001 4.64781910e-001 2.76566204e-002
      2.34493643e-001 4.97950435e-001 1.76064327e-001 1.34813130e-001
      3.24751772e-002 1.17940240e-001 1.93831727e-001 3.89096029e-002</_>
    <_>
      1.66804716e-001 3.03496681e-002 6.04788244e-001 5.68900049e-001
      3.49483788e-001 4.33131993e-001 1.86512485e-001 6.81823134e-001
      8.17535724e-003 5.99313915e-001 6.67324424e-001 9.52511966e-001
      2.33868524e-001 9.14506614e-002 1.90185413e-001 2.17016309e-001
      3.13085467e-001 2.68478572e-001 1.16524110e-002 6.68515146e-001
      5.18656552e-001 1.13586314e-001 9.11994204e-002 3.38806845e-002
      8.54957327e-002 2.92331755e-001 3.48216534e-001 2.78793573e-001
      9.23267901e-001 3.43213052e-001 2.17708759e-002 6.95867360e-001
      2.57529300e-002 8.34666565e-002 9.17459875e-002 3.95349711e-002
      2.89944291e-001 1.12404145e-001 5.29303432e-001 1.11698424e-002
      1.41249552e-001 2.43387327e-001 3.49248260e-001 9.69232693e-002
      2.67565578e-001 3.82221013e-001 3.00171196e-001 1.13927029e-001
      3.57977271e-001 2.02374179e-002 2.71398097e-001 1.92597702e-001
      2.11610608e-002 1.85023397e-002 6.44101501e-002 2.25800812e-001
      1.21224746e-001 7.56207049e-001 8.99743736e-001 2.56526172e-001
      2.71138668e-001 7.90589571e-001 3.91541123e-001 3.25723469e-001
      3.75498593e-001 2.21442685e-001 2.93438174e-002 1.82432711e-001
      3.21379960e-001 1.88950345e-001 1.32625461e-001 2.33867928e-001
      2.55895048e-001 1.16871381e-002 3.62433344e-001 2.21752495e-001
      5.94234988e-002 2.43491232e-002 2.59868830e-001 2.00490788e-001
      3.85372579e-001 2.81613380e-001 3.20715643e-002 2.32382238e-001
      2.57090032e-001 6.92690194e-001 3.40195000e-002 1.52100474e-001
      3.69144678e-001 5.47900312e-002 1.11677587e+000 8.47968698e-001
      3.80984284e-002 3.80207837e-001 1.52543932e-002 8.02564800e-001
      2.68110149e-002 8.38016719e-002 8.31139535e-002 3.24385278e-002
      4.82334569e-002 2.46426567e-001 2.67319113e-001 8.07095468e-002
      1.64997786e-001 2.16557622e-001 7.12234108e-003 1.49764538e-001
      3.83312821e-001 1.90505028e-001 4.36681658e-002 5.52023530e-001
      9.32298880e-003 2.58181304e-001 5.23636162e-001 3.09092641e-001
      5.18033504e-001 1.72391713e-001 6.12325668e-001 1.79862946e-001
      3.90570194e-001 3.31385247e-002 3.44302535e-001 3.96853089e-001
      6.32924438e-001 3.39102894e-002 1.05019594e-002 4.62769538e-001
      9.06768814e-002 8.99049163e-001 3.36151272e-001 9.12038237e-002
      1.07247964e-001 2.90099502e-001 3.15786488e-002 7.90878356e-001
      3.24991196e-002 1.26362726e-001 2.44216889e-001 7.00321347e-002
      3.74861956e-002 1.07926175e-001 2.14287683e-001 2.81092435e-001
      2.05845311e-001 3.18813175e-001 5.60207248e-001 5.14107704e-001
      6.94473624e-001 8.33265901e-001 4.38216388e-001 1.46211609e-001
      2.25056365e-001 2.15407401e-001 1.01962820e-001 8.43030028e-003
      2.14528531e-001 2.83503830e-001 7.35756308e-002 8.57662037e-002
      9.81984586e-002 8.35998356e-002 1.89235151e-001 7.20943883e-002
      1.78485513e-001 1.26617104e-001 7.49089301e-001 5.21231234e-001
      2.56196549e-003 9.68644559e-001 1.18786171e-001 1.09580553e+000
      5.23996890e-001 1.28306448e+000 2.37081036e-001 5.01192510e-001
      4.91399705e-001 2.70283788e-001 4.31763411e-001 3.67566258e-001
      1.99878901e-001 8.88866652e-003 1.08959667e-001 8.38100687e-002
      3.01294982e-001 6.68491423e-001 2.25103050e-001 1.42475724e-001
      6.37581587e-001 2.91937351e-001 3.08833182e-001 1.27077056e-002
      8.48364681e-002 1.94135144e-001 3.98092687e-001 4.28926170e-001
      1.03308454e-001 3.79155219e-001 4.83173817e-001 8.71425629e-001
      1.98950425e-001 5.25764227e-001 6.29695714e-001 3.16162974e-001
      2.77378142e-001 3.46782833e-001 1.58782139e-001 1.25742745e+000
      2.26086289e-001 2.39370316e-001 3.66456717e-001 1.07730292e-001
      5.33101976e-001 3.86353165e-001 3.07545364e-001 8.04632604e-002
      2.07929105e-001 3.39524150e-001 7.65881658e-001 6.34356678e-001
      2.17364058e-001 2.83343256e-001 9.85795185e-002 5.63566208e-001
      3.73518676e-001 2.02716425e-001 1.72512904e-001 6.23993218e-001
      3.47518891e-001 6.16305232e-001 9.88766551e-002 2.85867780e-001
      1.06240459e-001 3.95063728e-001 5.86273849e-001 1.88483953e-001
      3.26111130e-002 2.59983004e-003 3.21922272e-001 2.80118850e-003
      6.67910650e-002 5.32696955e-002 9.45521146e-002 3.47802579e-001
      5.37866592e-001 1.44884214e-001 3.17799240e-001 7.28424251e-001
      3.90730053e-001 2.82996535e-001 4.79841143e-001 6.69728696e-001
      3.93417299e-001 4.01748538e-001 2.54983366e-001 1.09105907e-001
      5.16157210e-001 6.93588316e-001 8.86204183e-001 9.35437381e-002
      3.30343693e-001 1.87700875e-002 6.72034204e-001 9.37435776e-002
      1.69420019e-001 3.47859830e-001 8.65176693e-002 5.49849262e-003
      4.47079718e-001 4.39747840e-001 1.54099181e-001 3.10693949e-001
      2.26109028e-001 1.74151286e-001 2.79282071e-002 1.00900471e+000
      2.34193936e-001 9.30777863e-002 7.22844124e-001 1.80124804e-001
      2.77671665e-001 7.84301981e-002 3.64358813e-001 8.88084527e-003
      1.09050155e-001 6.03063293e-002 8.49940002e-001 4.86891955e-001
      6.96040690e-001 8.24986160e-001 1.94171786e-001 2.70790346e-002
      1.91793889e-001 4.27456439e-001 3.29129547e-001 1.51438564e-001
      1.92865673e-002 9.80091915e-002 2.03619704e-001 1.15636051e-001</_>
    <_>
      2.42829412e-001 5.38015440e-002 4.93960679e-001 7.97322094e-001
      1.19872010e+000 1.35254467e+000 6.66730702e-001 2.99657494e-001
      1.53182400e-002 2.90117407e+000 1.18402326e+000 4.96683836e-001
      5.19233584e-001 1.40614271e-001 3.96969795e-001 5.41687727e-001
      4.51295167e-001 8.52078319e-001 1.97461322e-002 9.73554730e-001
      8.15670669e-001 1.96911052e-001 1.11358665e-001 5.04253022e-002
      1.33723557e-001 2.45014071e-001 4.94574219e-001 5.28423786e-001
      1.02758121e+000 4.53712463e-001 6.07009418e-002 1.42853594e+000
      3.97098251e-002 1.17595121e-001 1.60634041e-001 3.92514616e-002
      2.71632761e-001 1.41806304e-001 6.25033557e-001 1.67316217e-002
      3.57377470e-001 3.19219142e-001 3.34110349e-001 1.35512397e-001
      3.12212795e-001 4.55989093e-001 6.73391521e-001 2.11896166e-001
      4.85329598e-001 4.12170775e-002 6.43747389e-001 5.82948387e-001
      3.75863686e-002 2.48066895e-002 6.85759485e-002 5.17766833e-001
      4.33116198e-001 1.86240280e+000 6.75359607e-001 3.81621748e-001
      5.87106228e-001 1.08977473e+000 2.31457442e-001 2.59318650e-001
      3.90568763e-001 7.48539269e-001 5.26815206e-002 4.79606330e-001
      4.46382970e-001 1.25340685e-001 1.33804470e-001 4.74266618e-001
      7.90575922e-001 1.81092061e-002 3.10245752e-001 3.52961808e-001
      1.17211983e-001 4.84882891e-002 3.88163924e-001 3.13167989e-001
      4.85309958e-001 4.15452182e-001 4.92544994e-002 1.55773595e-001
      6.34658098e-001 4.09946650e-001 1.11638643e-001 1.41493201e-001
      2.37387672e-001 7.75401592e-002 6.05371654e-001 2.32282430e-001
      4.28909361e-002 9.70764756e-001 2.48544496e-002 5.91691136e-001
      4.73897606e-002 1.82812154e-001 1.55284792e-001 7.45147020e-002
      5.01452684e-002 6.16329968e-001 1.24287963e+000 2.02375069e-001
      5.70407331e-001 4.80153620e-001 8.82978085e-003 2.23070756e-001
      2.92189896e-001 2.39843294e-001 5.28688990e-002 6.62941456e-001
      1.36185903e-002 7.29959786e-001 6.31444693e-001 2.84744501e-001
      7.81966329e-001 2.29362488e-001 7.35554874e-001 3.24611723e-001
      3.49140108e-001 4.07731161e-002 7.64125764e-001 1.81471503e+000
      1.10045063e+000 4.97501902e-002 6.30905386e-003 1.18158472e+000
      1.17027976e-001 1.60536885e+000 1.07452881e+000 3.15704346e-001
      3.65033805e-001 2.72291899e-001 6.43682331e-002 1.01873875e+000
      1.55627653e-002 2.26732656e-001 2.91713208e-001 1.59696057e-001
      8.16881061e-002 1.38817906e-001 4.62079644e-001 4.87933815e-001
      2.30675831e-001 2.69119382e-001 1.09245503e+000 2.44395554e-001
      1.07755470e+000 4.40665334e-001 6.02739811e-001 1.75620899e-001
      1.48691356e+000 4.13312107e-001 9.03517231e-002 1.99016277e-002
      1.76941648e-001 7.75434732e-001 1.40490368e-001 1.46379128e-001
      2.66574234e-001 1.16253808e-001 2.30765656e-001 9.13013592e-002
      3.98646504e-001 9.43473577e-002 1.57709360e+000 1.04418480e+000
      5.09770168e-003 8.34426463e-001 1.22854583e-001 5.81491351e-001
      2.46562853e-001 4.50091958e-001 5.80218971e-001 1.60484242e+000
      8.45830500e-001 3.85411292e-001 5.16221464e-001 4.83682036e-001
      3.07904512e-001 1.23916613e-002 1.41999006e-001 1.78314939e-001
      5.21314442e-001 1.12597823e+000 3.43659759e-001 1.50494501e-001
      1.32213914e+000 9.91996825e-001 4.17766601e-001 1.66695043e-002
      2.56209165e-001 4.99124020e-001 2.66254246e-001 7.13484287e-001
      1.25498801e-001 6.44443512e-001 8.35621297e-001 1.11371768e+000
      4.63040680e-001 7.69239068e-001 4.73334342e-001 3.88857961e-001
      1.88287807e+000 8.10844481e-001 2.32254907e-001 2.03457141e+000
      3.46124947e-001 3.55935067e-001 3.48220021e-001 1.19901411e-001
      9.41517472e-001 1.06581676e+000 4.01992023e-001 1.55600086e-001
      2.20190406e-001 2.42825046e-001 7.96777785e-001 1.56335786e-001
      5.77253103e-001 9.79020774e-001 6.81462809e-002 1.30608737e+000
      5.55638611e-001 1.06173420e+000 5.84588587e-001 1.01198828e+000
      2.43314043e-001 2.29643297e+000 1.95443138e-001 5.83147943e-001
      2.02841029e-001 6.75320208e-001 6.95549548e-001 6.05670989e-001
      2.35962924e-002 4.66545299e-003 5.89219749e-001 5.60651720e-003
      9.64766145e-002 1.18801214e-001 1.62502721e-001 3.97941053e-001
      1.85098708e+000 3.28855932e-001 2.12654755e-001 2.22266033e-001
      8.60236645e-001 3.45139951e-001 1.31360137e+000 5.11041641e-001
      7.30517447e-001 7.15993404e-001 3.64751518e-001 1.59490913e-001
      6.16129875e-001 1.22779250e+000 1.00497293e+000 1.26759395e-001
      1.01519012e+000 2.60320157e-002 8.35557103e-001 7.25302100e-002
      2.88658440e-001 9.55150425e-001 1.77294403e-001 9.94062424e-003
      4.51562345e-001 5.27145207e-001 5.13906300e-001 6.32293522e-001
      5.15724659e-001 4.98170257e-001 5.20902351e-002 2.79831737e-001
      4.46447939e-001 1.34573147e-001 1.73719466e+000 2.81756073e-001
      5.74238360e-001 1.14074111e-001 9.49390113e-001 2.31158920e-002
      1.05263285e-001 1.01656154e-001 1.46226048e+000 7.26403713e-001
      1.39249527e+000 4.50006276e-001 4.65337008e-001 6.27772138e-002
      4.29011136e-001 6.86767042e-001 2.76895434e-001 3.64457190e-001
      4.05292176e-002 2.15555325e-001 1.53921887e-001 2.23633140e-001</_>
    <_>
      3.26916695e-001 4.90760468e-002 5.82702994e-001 3.58728647e-001
      4.39959854e-001 7.36771166e-001 3.47173095e-001 1.39459491e+000
      1.70583259e-002 1.77264810e-001 6.55531287e-001 1.33338571e+000
      4.05279905e-001 1.15699612e-001 2.80326515e-001 4.07498002e-001
      4.71357197e-001 3.71409684e-001 1.64530408e-002 8.29512715e-001
      1.26239860e+000 3.05968195e-001 1.21676065e-001 4.72387671e-002
      1.64962828e-001 2.98879951e-001 2.44970649e-001 2.60665625e-001
      4.11224455e-001 7.54213929e-001 4.97752801e-002 1.62783504e+000
      3.22314128e-002 1.05446666e-001 1.05054855e-001 4.82245646e-002
      5.02479851e-001 6.86206669e-002 1.37963521e+000 2.51583643e-002
      7.25783527e-001 2.68771052e-001 2.30327189e-001 1.08627342e-001
      6.33311033e-001 6.27749503e-001 1.69457150e+000 6.83244988e-002
      4.62713838e-001 3.15982811e-002 2.61528879e-001 1.97780773e-001
      3.39551046e-002 1.70925241e-002 1.12183131e-001 2.07379341e-001
      2.10551441e-001 6.03897929e-001 4.24922913e-001 4.03181732e-001
      1.60789394e+000 1.50148284e+000 5.68782389e-001 5.23181021e-001
      4.55530584e-001 7.68169940e-001 7.03649521e-002 2.33961493e-001
      7.27298319e-001 3.22241217e-001 1.05332486e-001 1.99085295e-001
      4.45235282e-001 1.39552290e-002 3.00192982e-001 1.89140126e-001
      1.32438004e-001 3.48148048e-002 7.64236033e-001 2.24559963e-001
      3.29017252e-001 4.22934085e-001 3.84177826e-002 2.06231460e-001
      1.06975389e+000 2.03526720e-001 1.76470518e-001 5.20602949e-002
      4.20057684e-001 1.80979371e-001 4.07840431e-001 1.60319984e+000
      5.41564524e-002 3.60825747e-001 2.98543442e-002 1.01474500e+000
      3.35710384e-002 1.77390501e-001 1.31745711e-001 3.74628343e-002
      5.10298535e-002 3.95335823e-001 8.95954013e-001 1.54646575e-001
      3.74929816e-001 5.58027208e-001 5.44994278e-003 1.97525725e-001
      2.52189934e-001 2.02306658e-001 5.81024624e-002 1.00165272e+000
      1.45341968e-002 4.44414794e-001 6.50326014e-001 3.50457072e-001
      2.93178201e-001 3.52643073e-001 4.71762002e-001 2.12479711e-001
      9.05890882e-001 2.92848647e-002 7.23534822e-001 5.70262432e-001
      9.08019900e-001 4.68499400e-002 8.42965767e-003 1.18172467e+000
      1.26158327e-001 1.94767916e+000 4.92709249e-001 3.63578200e-001
      7.86568403e-001 8.14176500e-001 4.35747206e-002 5.95658183e-001
      2.82592438e-002 9.35586542e-002 2.97628164e-001 1.48674369e-001
      3.55366543e-002 5.83768524e-002 3.41249287e-001 2.58627176e-001
      2.17987850e-001 3.66454959e-001 5.06600142e-001 3.21570456e-001
      1.69459224e+000 5.97218871e-001 1.01398015e+000 1.71764761e-001
      5.23936808e-001 6.46924913e-001 1.19983971e-001 1.38365878e-002
      2.55318224e-001 7.28790760e-001 1.35892361e-001 1.02752306e-001
      5.70319414e-001 1.32305995e-001 1.33933976e-001 1.55829072e-001
      2.44904265e-001 7.14845285e-002 9.15906966e-001 8.11686456e-001
      5.00719156e-003 7.18136907e-001 1.12504221e-001 5.52009046e-001
      3.96503270e-001 2.05430046e-001 7.72488773e-001 4.53886479e-001
      1.03493285e+000 9.69439387e-001 9.54377651e-001 5.46873271e-001
      3.85788172e-001 1.60262231e-002 9.01830196e-002 1.69404656e-001
      4.95318472e-001 9.64728236e-001 1.24961980e-001 1.05692931e-001
      4.87340778e-001 1.39930701e+000 1.89195827e-001 1.13137625e-002
      1.30964413e-001 9.57593679e-001 1.73368847e+000 3.89469087e-001
      1.25637040e-001 8.78508866e-001 3.24915797e-001 4.17547762e-001
      1.03039360e+000 6.10742033e-001 5.86515844e-001 1.16529179e+000
      2.24903226e+000 2.21108720e-001 3.09304416e-001 2.20290709e+000
      3.69644940e-001 3.57961982e-001 6.82356179e-001 1.21721223e-001
      2.28385657e-001 1.12209356e+000 3.56536955e-001 1.82664633e-001
      2.17760980e-001 3.97863567e-001 1.02626455e+000 3.15687835e-001
      3.81643325e-001 9.33281898e-001 5.91741800e-002 9.03301179e-001
      3.40611994e-001 2.84412742e-001 1.98926821e-001 4.43806022e-001
      2.58262962e-001 2.14442754e+000 1.01559125e-001 2.02779055e-001
      3.03187340e-001 6.21631026e-001 6.38082623e-001 5.16214669e-001
      3.01497113e-002 3.90366884e-003 4.15115118e-001 3.89615609e-003
      1.67071819e-001 1.52725235e-001 1.09829582e-001 2.00459942e-001
      3.45150733e+000 6.52519166e-001 3.16727430e-001 1.51355314e+000
      3.65876138e-001 3.66167575e-001 2.25059524e-001 5.19392729e-001
      1.13839900e+000 7.12812304e-001 4.29864317e-001 9.81080309e-002
      4.82452124e-001 1.51804435e+000 5.31019211e-001 1.42991588e-001
      4.67596799e-001 1.68768987e-002 1.08234429e+000 1.08664900e-001
      1.47872820e-001 6.13690376e-001 1.28981531e-001 1.59744825e-002
      3.79864007e-001 1.39638424e+000 2.38834038e-001 1.81242421e-001
      9.87937391e-001 2.45833725e-001 3.75836454e-002 1.56127274e+000
      4.34265256e-001 1.43284813e-001 1.68368864e+000 2.32742667e-001
      4.24170524e-001 9.60685983e-002 8.20531249e-001 1.64472722e-002
      1.12192951e-001 2.16453284e-001 2.96641052e-001 6.46065891e-001
      2.00861350e-001 2.44945168e-001 4.36587453e-001 3.61726359e-002
      3.29953790e-001 1.53663707e+000 8.72349203e-001 3.27124268e-001
      3.21854129e-002 1.44988090e-001 7.71634221e-001 7.41173476e-002</_>
    <_>
      1.55177519e-001 4.86632660e-002 4.47203249e-001 9.72267509e-001
      9.22700226e-001 3.77888352e-001 6.81502640e-001 2.19171613e-001
      7.84797408e-003 7.35720038e-001 1.05801678e+000 9.73987341e-001
      4.14597869e-001 9.51034799e-002 2.69615978e-001 4.09884989e-001
      3.59067500e-001 1.71141341e-001 1.31161017e-002 9.05001760e-001
      9.17883575e-001 2.10100487e-001 6.95706531e-002 4.96336445e-002
      7.53383636e-002 8.63361359e-002 3.42634439e-001 3.53781313e-001
      1.65255380e+000 2.50159293e-001 4.92063724e-002 7.91385889e-001
      3.43983620e-002 1.03809059e-001 9.42457095e-002 3.57537717e-002
      2.38848403e-001 1.71970069e-001 5.44816434e-001 1.51381670e-002
      6.31095111e-001 3.32990557e-001 6.51991487e-001 9.77514386e-002
      3.50124836e-001 4.44424927e-001 1.36888158e+000 7.72836879e-002
      2.21352622e-001 3.17793302e-002 4.63534206e-001 1.77033514e-001
      4.11518626e-002 1.42869009e-002 5.57242036e-002 3.36161166e-001
      3.77016842e-001 1.53368902e+000 1.73467898e+000 6.89984262e-001
      1.06226039e+000 9.75744665e-001 5.13069153e-001 1.84921592e-001
      6.70408547e-001 2.53996581e-001 3.70419472e-002 2.93298304e-001
      2.87311018e-001 1.34549767e-001 1.31096765e-001 1.79567933e-001
      5.84280133e-001 1.14531321e-002 1.67300701e-001 5.11674702e-001
      9.33927000e-002 3.15123089e-002 3.47049624e-001 2.77545691e-001
      7.35489070e-001 2.46112317e-001 3.93172912e-002 3.38034421e-001
      6.99671865e-001 5.44901907e-001 1.02531128e-001 4.33244295e-002
      1.68738827e-001 8.04766342e-002 1.20453870e+000 3.56113255e-001
      4.14548144e-002 4.24295962e-001 1.77667700e-002 6.09360933e-001
      3.35070640e-002 8.90620053e-002 9.24910083e-002 4.73929197e-002
      1.01161212e-001 2.99705952e-001 4.10092831e-001 1.19968496e-001
      5.97153068e-001 9.33184505e-001 4.50187828e-003 1.67400777e-001
      2.39853919e-001 2.31135294e-001 4.89945710e-002 5.55914164e-001
      1.03436792e-002 5.32394707e-001 6.49042189e-001 6.87763691e-001
      5.99707186e-001 2.27170333e-001 6.59370184e-001 3.08548391e-001
      3.16667736e-001 3.48286889e-002 7.83764005e-001 8.15680683e-001
      6.33929729e-001 3.90028469e-002 5.58825815e-003 1.15039301e+000
      1.22724958e-001 9.25725162e-001 1.03544223e+000 1.84371278e-001
      4.54504281e-001 3.53192508e-001 5.17227948e-002 1.07549119e+000
      1.22019229e-002 1.29625857e-001 4.46561694e-001 9.30355862e-002
      4.50504310e-002 1.60357594e-001 4.95991826e-001 2.24359542e-001
      2.77039796e-001 7.34036386e-001 4.59368527e-001 2.07634047e-001
      2.67073721e-001 3.61317456e-001 3.47482920e-001 1.94056839e-001
      3.89976531e-001 2.30665326e-001 1.04549073e-001 2.17752773e-002
      2.19195470e-001 3.05318803e-001 8.37984905e-002 1.32468209e-001
      5.70757985e-001 8.24405774e-002 1.97803020e-001 6.43255264e-002
      5.35082877e-001 4.88526188e-002 1.10206389e+000 7.48693585e-001
      3.16552329e-003 1.49957108e+000 1.23861618e-001 6.74376607e-001
      4.60421056e-001 9.26087976e-001 6.45936310e-001 1.11337376e+000
      3.20178092e-001 2.74685055e-001 2.10765421e-001 7.40566999e-002
      3.87370199e-001 1.33591900e-002 8.13313872e-002 1.13114208e-001
      3.32299769e-001 6.73384428e-001 2.37586513e-001 1.11529052e-001
      8.24802458e-001 8.74373972e-001 1.77597642e-001 1.78141389e-002
      2.38764718e-001 1.95215750e+000 2.71400452e-001 6.44731522e-001
      1.37696952e-001 3.25035840e-001 8.36343884e-001 1.72753763e+000
      2.20477009e+000 8.37266862e-001 4.68333453e-001 7.27062047e-001
      3.01898062e-001 3.83479625e-001 2.19668299e-001 1.12824810e+000
      4.93187308e-001 3.12560052e-001 4.94982719e-001 8.13516378e-002
      3.05608392e-001 1.00607395e+000 2.66509533e-001 8.97045508e-002
      1.33554369e-001 2.27256477e-001 9.18385506e-001 2.85071194e-001
      3.65922540e-001 1.17976701e+000 8.90278444e-002 2.03046966e+000
      6.34851336e-001 6.56997085e-001 4.65143591e-001 7.67521560e-001
      1.50125965e-001 2.39706564e+000 1.03517443e-001 1.58288330e-001
      3.01490098e-001 4.42194521e-001 6.14366949e-001 6.16664648e-001
      2.87876762e-002 3.16749024e-003 4.20448214e-001 4.14160313e-003
      1.14609174e-001 8.76091868e-002 1.16508581e-001 1.81506783e-001
      3.95086467e-001 4.04058367e-001 5.64399123e-001 1.90833569e-001
      7.40059137e-001 2.73500443e-001 7.56212592e-001 3.19768906e-001
      7.45583177e-001 6.02562189e-001 5.26197851e-001 5.74592389e-002
      2.54205018e-001 1.08988976e+000 5.17264187e-001 1.64427876e-001
      8.76915693e-001 1.53365070e-002 3.90222847e-001 1.42390773e-001
      1.48231223e-001 8.25815499e-001 1.51855260e-001 9.38430242e-003
      3.89747769e-001 7.80402899e-001 4.86335188e-001 2.26064980e-001
      2.77020931e-001 3.68847162e-001 3.69748846e-002 2.90480673e-001
      3.05612713e-001 1.24574892e-001 7.81542063e-001 2.45470867e-001
      3.99778247e-001 1.39418259e-001 6.24567270e-001 2.12739073e-002
      1.05628259e-001 8.63480270e-002 5.92133760e-001 4.08992827e-001
      5.78295410e-001 5.45014918e-001 5.65313339e-001 3.88547145e-002
      3.28355759e-001 5.11931181e-001 6.81488037e-001 3.82809192e-001
      3.82949635e-002 1.48861066e-001 1.77374616e-001 9.64993238e-002</_>
    <_>
      3.36737573e-001 5.06236777e-002 2.94546634e-001 4.81204301e-001
      1.44846880e+000 3.30551416e-001 8.60128284e-001 1.59542367e-001
      1.37014836e-002 3.11287498e+000 8.70025814e-001 2.20205545e+000
      5.30607760e-001 1.21818759e-001 2.72158235e-001 5.55182040e-001
      3.43580365e-001 5.65514505e-001 1.92838982e-002 1.19044411e+000
      1.22649956e+000 2.40316182e-001 7.67646804e-002 3.85990776e-002
      1.24004960e-001 1.01218976e-001 2.32783034e-001 4.10278499e-001
      2.66130537e-001 1.12961806e-001 3.89767438e-002 1.78022420e+000
      4.87039052e-002 1.19689129e-001 1.37024879e-001 2.98664887e-002
      1.16052888e-001 3.98516119e-001 6.55004323e-001 1.59634445e-002
      4.47619408e-001 4.51539099e-001 1.68198243e-001 1.15223669e-001
      1.18757561e-001 3.13757449e-001 8.74198616e-001 6.68738559e-002
      3.80670935e-001 3.91447283e-002 3.90874088e-001 3.12765926e-001
      4.21975814e-002 1.80470143e-002 6.52974024e-002 3.91321212e-001
      1.67596102e-001 1.14675725e+000 3.09251875e-001 2.23958343e-001
      7.25995958e-001 9.21449184e-001 1.33182630e-001 1.15504511e-001
      3.60960543e-001 5.97291291e-001 4.27092724e-002 3.94016922e-001
      5.67207754e-001 1.16153352e-001 1.76837280e-001 3.61739576e-001
      7.72279739e-001 1.80326700e-002 2.25882411e-001 6.52710855e-001
      1.06156595e-001 4.48324904e-002 2.47090846e-001 2.93245584e-001
      3.15120250e-001 3.21553975e-001 4.18092497e-002 7.99535438e-002
      7.42747009e-001 1.58352047e-001 5.25811911e-002 4.60870378e-002
      1.43796712e-001 7.17784017e-002 3.14460278e-001 2.29123324e-001
      4.83627208e-002 8.47464025e-001 2.16397401e-002 4.05988663e-001
      3.23689207e-002 1.17511258e-001 1.29677042e-001 6.64154664e-002
      7.84222409e-002 3.17233264e-001 1.47808409e+000 1.62656307e-001
      9.03395236e-001 5.61421275e-001 3.55183450e-003 1.98120117e-001
      2.21445546e-001 6.44016325e-001 5.00844456e-002 3.81392509e-001
      1.62045602e-002 6.50162518e-001 3.12712461e-001 4.54396278e-001
      2.23658964e-001 1.86005130e-001 3.30251217e-001 1.51414320e-001
      5.67993701e-001 3.35844196e-002 6.55837476e-001 2.31594110e+000
      8.95508826e-001 4.25264277e-002 5.41912811e-003 1.68379927e+000
      1.51787758e-001 2.90758133e+000 8.95588279e-001 3.71918708e-001
      4.53504205e-001 2.64413267e-001 3.23229693e-002 3.20497781e-001
      1.34322289e-002 2.07982317e-001 4.42577094e-001 1.23889446e-001
      2.30925046e-002 4.20784682e-001 6.86798513e-001 4.00860518e-001
      7.46853471e-001 5.03485799e-001 1.45033300e+000 2.20049560e-001
      3.57969522e-001 3.43423456e-001 3.09035182e-001 1.65049046e-001
      5.08292139e-001 5.34158945e-001 1.30225316e-001 1.16333477e-002
      2.32159287e-001 2.56159931e-001 1.20017603e-001 9.54927430e-002
      1.28056079e-001 9.39590111e-002 1.75046489e-001 8.24140012e-002
      3.08555722e-001 4.62709591e-002 1.57925391e+000 7.71562696e-001
      4.00069496e-003 1.88951266e+000 1.11685686e-001 8.05078506e-001
      1.19828530e-001 1.05334602e-001 5.39966524e-001 7.07633972e-001
      8.80753815e-001 2.06700861e-001 4.95875329e-001 1.19393639e-001
      3.78385037e-001 1.75376274e-002 7.03417733e-002 1.47714183e-001
      3.64704162e-001 1.10197747e+000 2.99786240e-001 2.18166366e-001
      1.38767850e+000 1.19778430e+000 3.45163822e-001 9.33239050e-003
      1.60344899e-001 1.10308707e+000 3.83569270e-001 1.07975018e+000
      1.35495871e-001 7.65375137e-001 1.77718270e+000 3.00106883e-001
      1.19073713e+000 5.97908378e-001 1.14324965e-001 2.57237017e-001
      2.53313959e-001 3.21533322e-001 3.11424613e-001 9.10925210e-001
      7.33352840e-001 5.29671192e-001 3.41927081e-001 1.34758517e-001
      6.69865847e-001 1.48867714e+000 3.25103998e-001 1.25434458e-001
      2.52856582e-001 2.84640908e-001 1.23506546e+000 1.72699451e-001
      4.84177530e-001 1.03055108e+000 6.37742206e-002 1.98978961e+000
      6.33907557e-001 5.32036662e-001 5.17732739e-001 3.05595428e-001
      1.29551724e-001 1.62897635e+000 1.05306730e-001 4.68109220e-001
      2.33546510e-001 8.88436198e-001 6.22313857e-001 5.39825439e-001
      6.14905879e-002 3.58007476e-003 6.31198287e-001 4.10186686e-003
      9.21942666e-002 1.04612291e-001 1.72207758e-001 2.87565708e-001
      3.16468298e-001 4.65389013e-001 2.04731256e-001 1.94111958e-001
      1.08304405e+000 2.63336509e-001 5.41148007e-001 3.05294484e-001
      1.37140000e+000 1.55570781e+000 8.01973999e-001 1.35904789e-001
      6.69901907e-001 2.06136751e+000 5.90484142e-001 1.44028023e-001
      3.98905575e-001 1.82572734e-002 7.91989923e-001 1.20588228e-001
      8.66523087e-001 8.52566838e-001 1.36793271e-001 9.45694093e-003
      6.36754155e-001 6.09771550e-001 2.28277326e-001 2.59047568e-001
      4.14394021e-001 1.23836651e-001 3.55960205e-002 1.85552701e-001
      7.57407308e-001 1.05711065e-001 2.01468205e+000 2.28117719e-001
      5.72715640e-001 1.24010749e-001 8.75733674e-001 1.20267849e-002
      2.10218042e-001 6.77068159e-002 2.13996482e+000 6.62337840e-001
      3.49514365e+000 1.77570567e-001 2.10005447e-001 2.96609979e-002
      3.42537165e-001 1.19550812e+000 4.25854772e-001 3.08807164e-001
      4.23669592e-002 1.28069088e-001 2.01342776e-001 6.45824373e-002</_>
    <_>
      1.98270112e-001 2.92418413e-002 9.85577255e-002 7.74536788e-001
      4.43473041e-001 8.53121161e-001 4.64710444e-001 4.99054670e-001
      1.16332592e-002 1.03701258e+000 8.76114219e-002 4.77870673e-001
      2.28120759e-001 5.73951975e-002 8.87206569e-002 1.77656829e-001
      2.38138363e-001 1.38642043e-001 8.33784509e-003 9.00935709e-001
      6.76527500e-001 2.34259233e-001 1.12615317e-001 2.81572416e-002
      8.66438150e-002 2.72575319e-001 7.49711752e-001 1.70069113e-001
      2.44546190e-001 6.40025139e-001 2.87550744e-002 1.00441813e+000
      1.85929183e-002 8.25879574e-002 7.24295899e-002 4.55422625e-002
      3.80441129e-001 1.18802972e-001 2.28958786e-001 1.41782081e-002
      2.02288717e-001 2.29853749e-001 1.11007608e-001 7.11732283e-002
      4.57174003e-001 2.97124892e-001 6.52414083e-001 8.36951435e-002
      2.79276252e-001 2.66637728e-002 1.84150949e-001 2.09937155e-001
      2.53646243e-002 2.22492646e-002 1.18614554e-001 2.20984146e-001
      1.27161235e-001 4.41533953e-001 2.49551892e-001 4.04893070e-001
      7.34135270e-001 3.08411092e-001 5.09281218e-001 3.67095530e-001
      1.39611617e-001 6.55186892e-001 4.20903228e-002 9.35967416e-002
      5.44917524e-001 1.50328994e-001 2.14747995e-001 1.73574880e-001
      2.86207408e-001 1.27080604e-002 2.17374980e-001 3.35885018e-001
      1.59546956e-001 1.90861840e-002 5.35906315e-001 9.39348117e-002
      2.47925431e-001 1.94962695e-001 3.45473550e-002 1.05420925e-001
      6.92617357e-001 8.73903781e-002 8.25028345e-002 7.51849040e-002
      1.59265786e-001 1.22571066e-001 2.59598464e-001 7.18643188e-001
      3.59186083e-002 4.16413903e-001 2.14187838e-002 7.74417073e-002
      3.13991345e-002 1.04875110e-001 4.66525778e-002 1.05239742e-001
      5.01394197e-002 1.41102508e-001 2.48679787e-001 6.04072288e-002
      3.95918131e-001 3.68477285e-001 5.26089827e-003 3.30364078e-001
      1.34938747e-001 2.47646764e-001 3.55890319e-002 3.41062784e-001
      8.13549198e-003 2.92767674e-001 2.49143496e-001 2.62205988e-001
      1.63690507e-001 1.86433449e-001 7.34753981e-002 1.26153573e-001
      3.33610684e-001 3.57326418e-002 3.49952072e-001 1.51116908e+000
      3.49424899e-001 2.65313182e-002 6.67619100e-003 8.22302461e-001
      6.57637045e-002 9.31138217e-001 6.63117528e-001 7.98838809e-002
      1.67991579e-001 5.68423688e-001 3.19196656e-002 1.03453827e+000
      1.54767698e-002 2.31645793e-001 2.88983494e-001 5.45800179e-002
      3.60476002e-002 1.00620657e-001 2.51375526e-001 1.41352788e-001
      2.66486377e-001 2.38248855e-001 3.68656814e-001 1.67043984e-001
      5.33400655e-001 2.93125868e-001 6.47972047e-001 1.10501230e-001
      3.35115880e-001 2.85688490e-001 7.25489855e-002 1.08133471e-002
      2.73460835e-001 5.23481131e-001 1.08961321e-001 4.25894111e-002
      1.83720306e-001 1.06846288e-001 2.06381634e-001 1.13017082e-001
      2.58675963e-001 6.09055758e-002 7.05350041e-001 2.65333921e-001
      3.46890790e-003 7.72104502e-001 1.06960624e-001 2.34694377e-001
      1.71659440e-001 1.60375938e-001 6.36219680e-001 4.65022981e-001
      5.58577061e-001 7.78674603e-001 9.94270563e-001 3.98390681e-001
      1.54456913e-001 8.25437997e-003 5.66825978e-002 7.40104988e-002
      2.68440396e-001 4.09977973e-001 4.30478722e-001 3.20716053e-001
      2.91931361e-001 2.07296178e-001 1.26288593e-001 8.16418603e-003
      1.33432135e-001 5.78740180e-001 6.70536101e-001 3.97587180e-001
      7.77986869e-002 7.19601989e-001 3.67818058e-001 2.46975407e-001
      6.41794026e-001 2.60306180e-001 1.96437195e-001 1.80693701e-001
      7.10083842e-001 5.36138415e-001 3.78828794e-001 6.44881189e-001
      2.38277972e-001 3.66778702e-001 2.39358455e-001 6.54311478e-002
      1.86031818e-001 8.12569261e-001 1.81492940e-001 9.01428610e-002
      1.16238691e-001 6.19548708e-002 9.47863579e-001 1.25586152e-001
      1.67712152e-001 7.44495809e-001 9.45675150e-002 9.19088423e-001
      4.44823474e-001 3.40651423e-001 2.07198218e-001 2.82467693e-001
      1.28282249e-001 4.99220282e-001 4.79401611e-002 1.05240658e-001
      1.22473024e-001 3.41868043e-001 3.91529351e-001 4.62559164e-001
      3.73494178e-002 2.33570416e-003 2.88822114e-001 8.48720875e-003
      1.68837592e-001 1.61312565e-001 7.44796619e-002 1.40545622e-001
      1.26998770e+000 4.61909711e-001 9.99424756e-002 4.71646070e-001
      5.41463792e-001 1.63677469e-001 4.75681335e-001 2.97592431e-001
      6.23305082e-001 4.22044247e-001 4.58211750e-001 3.65236439e-002
      1.42180359e+000 6.36657417e-001 1.71474263e-001 6.16882332e-002
      2.89737105e-001 2.26722751e-002 6.41142905e-001 6.64606914e-002
      4.72275674e-001 7.93011606e-001 7.05749169e-002 8.54872819e-003
      2.06210777e-001 1.28851843e+000 2.29407340e-001 2.19318599e-001
      1.11501729e+000 2.36525521e-001 2.27261838e-002 6.98301792e-001
      2.56131321e-001 8.07526708e-002 9.89920080e-001 1.38572618e-001
      2.74095953e-001 9.68989208e-002 3.55769962e-001 1.25587396e-002
      9.62829590e-002 1.12935975e-001 1.05063796e+000 1.74458906e-001
      8.73125017e-001 1.33235291e-001 3.88438314e-001 2.41964143e-002
      1.06861100e-001 9.05770123e-001 1.44750535e-001 1.98830113e-001
      2.65526921e-002 8.16582441e-002 3.56742233e-001 9.10518095e-002</_>
    <_>
      8.03251714e-002 4.03452553e-002 5.22586942e-001 7.44556487e-001
      1.61876917e+000 3.02811295e-001 1.23633611e+000 7.95070171e-001
      1.75392199e-002 3.42330050e+000 9.09744620e-001 1.18798327e+000
      8.99736106e-001 1.64395615e-001 5.66801846e-001 9.63080347e-001
      1.72136486e+000 9.17851865e-001 1.75074823e-002 8.78328979e-001
      1.03695881e+000 3.57556164e-001 1.56201154e-001 3.11826430e-002
      8.72304440e-002 4.23002481e-001 1.98503411e+000 9.15472031e-001
      3.59901041e-001 5.82902133e-001 1.09436236e-001 1.05724263e+000
      8.49957317e-002 1.44987583e-001 1.93508938e-001 8.85235518e-002
      6.20120585e-001 3.46587509e-001 1.37380123e+000 2.36657225e-002
      2.07807943e-001 8.35352898e-001 5.86730599e-001 8.39351714e-002
      7.91451156e-001 7.92876422e-001 2.95428187e-001 8.82450342e-002
      1.56454727e-001 5.52659445e-002 7.09601879e-001 6.97577477e-001
      4.15236875e-002 5.56498393e-002 1.89263776e-001 8.36445928e-001
      6.26270771e-002 3.10600734e+000 4.38480675e-001 5.31348109e-001
      7.06877291e-001 2.11657262e+000 8.50888491e-001 4.70462143e-001
      4.93097156e-001 7.50987887e-001 6.14054129e-002 4.99584109e-001
      7.23758519e-001 6.71279356e-002 4.13034737e-001 4.54797417e-001
      1.22600138e+000 1.59706566e-002 5.54175138e-001 5.68290710e-001
      4.26874578e-001 8.11283216e-002 3.54483724e-001 5.63845575e-001
      1.08685195e+000 1.47629237e+000 7.02772439e-002 1.88262269e-001
      4.54580158e-001 5.45649350e-001 7.34614357e-002 1.32164642e-001
      4.07501519e-001 2.85764903e-001 7.24148035e-001 9.76124406e-001
      8.07960406e-002 1.22209883e+000 3.00420839e-002 7.60606527e-001
      5.22093326e-002 2.59045064e-001 2.13360533e-001 2.50094622e-001
      1.72923803e-001 4.70405698e-001 1.74628472e+000 2.27192014e-001
      3.90620232e-001 6.90145969e-001 1.83841549e-002 1.51283994e-001
      1.21367894e-001 4.13924962e-001 6.99689835e-002 2.88589716e+000
      1.56233013e-002 5.61651826e-001 6.26861632e-001 2.62843871e+000
      2.07091585e-001 4.17731494e-001 7.45249271e-001 1.40105367e-001
      3.16810548e-001 5.36742546e-002 1.82285357e+000 2.31533885e+000
      9.08615589e-001 6.69987500e-002 1.97475236e-002 4.05291110e-001
      2.15270475e-001 1.51453912e+000 1.41856849e+000 9.15480927e-002
      2.02520102e-001 6.90445840e-001 8.04013163e-002 1.34724617e+000
      5.14836498e-002 2.14463338e-001 7.36236215e-001 3.81038725e-001
      2.27062032e-002 3.61845970e-001 8.27139020e-001 4.06751752e-001
      3.40636015e-001 2.27591252e+000 9.28093672e-001 4.43810910e-001
      2.73014605e-001 5.17976642e-001 8.28073025e-001 2.21728936e-001
      1.23619306e+000 6.42463684e-001 1.49292767e-001 1.36716142e-002
      2.66520053e-001 5.09835780e-001 9.09827352e-002 1.80744678e-001
      3.16913813e-001 1.28708601e-001 2.64246345e-001 2.85187274e-001
      9.03963447e-001 2.79365420e-001 8.34004462e-001 1.40168250e+000
      5.06998831e-003 8.41908157e-001 1.17045067e-001 1.19169712e+000
      3.58381063e-001 5.13131797e-001 3.38608593e-001 3.02577996e+000
      2.71005362e-001 4.44676340e-001 1.08633184e+000 2.90610790e-001
      7.18501329e-001 1.59846302e-002 7.00916499e-002 7.81811327e-002
      4.61559892e-001 1.05315387e+000 1.09945631e+000 4.28303808e-001
      2.29591918e+000 1.52107522e-001 5.51554501e-001 1.97717771e-002
      1.95967689e-001 2.82365394e+000 1.85803342e+000 1.14753890e+000
      1.05066612e-001 2.20300317e+000 1.22889662e+000 3.53081644e-001
      3.66148829e+000 2.21384287e+000 2.67959923e-001 1.07021892e+000
      6.46832049e-001 1.89492667e+000 3.26422006e-001 3.97554564e+000
      7.62547433e-001 1.37102401e+000 6.97352529e-001 1.69337377e-001
      1.03411853e+000 3.14729005e-001 1.20780468e+000 1.57405898e-001
      1.94820613e-001 4.45339918e-001 1.05783772e+000 1.90497816e-001
      3.83575141e-001 1.07610941e+000 1.18209675e-001 1.86405933e+000
      5.74983239e-001 6.93977535e-001 6.80888236e-001 9.02810514e-001
      7.31648147e-001 2.02356458e+000 2.40594000e-001 5.76845348e-001
      1.77219659e-001 4.37785000e-001 3.60935956e-001 2.92344362e-001
      3.97378951e-002 4.07756632e-003 6.41871929e-001 9.77213681e-003
      3.26774627e-001 3.74339074e-001 2.73705691e-001 1.07752657e+000
      6.60534024e-001 4.33293521e-001 3.78114671e-001 8.23951066e-001
      1.55337191e+000 2.46753678e-001 9.02744770e-001 8.36173177e-001
      8.81336987e-001 1.96363544e+000 2.80696392e-001 1.48247808e-001
      4.68639523e-001 9.59947050e-001 1.24913704e+000 1.59299150e-001
      1.77712655e+000 5.89731410e-002 5.18361568e-001 1.79600731e-001
      6.46871030e-001 6.71258748e-001 2.09686115e-001 6.52901921e-003
      7.03562796e-001 1.38788164e+000 2.21908227e-001 7.11252630e-001
      2.59442282e+000 1.10720001e-001 2.69634686e-002 1.54004097e+000
      2.72399664e-001 6.74865693e-002 7.17271864e-001 1.28973275e-001
      6.02866769e-001 2.08316147e-001 8.99992406e-001 1.16619468e-002
      2.45890677e-001 8.43413398e-002 1.82443500e+000 3.78274500e-001
      1.65937197e+000 1.35569108e+000 5.74831963e-001 5.16877696e-002
      4.98694539e-001 2.07194543e+000 1.44209886e+000 9.92110491e-001
      4.19065505e-002 1.76766485e-001 7.14373052e-001 8.16487148e-002</_>
    <_>
      2.74359584e-001 3.81753482e-002 3.69139373e-001 9.56376374e-001
      1.40061593e+000 3.75775814e-001 7.56403208e-001 3.15299630e-001
      1.04034776e-002 5.18252850e-001 4.64244634e-001 1.31691825e+000
      5.98543584e-001 1.99001431e-001 3.87475252e-001 2.29316533e-001
      4.24101412e-001 3.92632872e-001 1.45577285e-002 1.08297634e+000
      1.06363034e+000 4.06044573e-001 1.14584051e-001 4.65965047e-002
      1.24246500e-001 1.65249169e-001 5.76792657e-001 2.78023392e-001
      1.28440619e-001 5.08401752e-001 4.90271151e-002 1.38941371e+000
      3.88931222e-002 1.59904554e-001 1.06923863e-001 3.83847803e-002
      4.40399319e-001 9.90285054e-002 1.13963950e+000 2.12040972e-002
      7.07265794e-001 5.30150712e-001 1.01025045e-001 1.35714620e-001
      5.69027662e-001 5.87098539e-001 9.57477152e-001 8.64323303e-002
      5.77494264e-001 3.81344333e-002 5.92629373e-001 3.27949315e-001
      3.76811065e-002 1.72459725e-002 1.21861532e-001 4.69549119e-001
      2.90262401e-002 5.82887113e-001 1.68347061e-001 3.35377395e-001
      7.60863066e-001 1.20316160e+000 5.34032166e-001 3.78883958e-001
      3.90416414e-001 7.23644078e-001 5.43594509e-002 3.18881959e-001
      6.28467858e-001 1.15685068e-001 1.12843797e-001 3.47499073e-001
      8.76760185e-001 1.75485034e-002 1.94125667e-001 6.54393911e-001
      8.01991895e-002 3.94511037e-002 1.83727711e-001 2.50774652e-001
      2.14260191e-001 3.60828757e-001 3.91034149e-002 7.09671378e-002
      4.29935813e-001 8.76363143e-002 3.13184559e-002 6.07565157e-002
      9.26885679e-002 1.29378036e-001 1.75172836e-001 5.57224929e-001
      5.27150780e-002 7.03112602e-001 1.38549544e-002 3.82273734e-001
      4.01858725e-002 1.46175653e-001 1.51933074e-001 3.27088498e-002
      3.96122113e-002 4.96453732e-001 5.27847409e-001 1.01432435e-001
      9.65637207e-001 8.24242353e-001 6.61485316e-003 1.48141637e-001
      3.19556892e-001 3.53833020e-001 5.03483228e-002 6.98919952e-001
      1.32229570e-002 5.51635265e-001 5.37869990e-001 3.44256371e-001
      5.74974716e-002 1.94727272e-001 3.92227471e-001 7.20366240e-002
      1.74395621e-001 2.85168309e-002 9.30967927e-001 8.91640186e-001
      1.25995815e+000 4.61280197e-002 4.11096402e-003 2.50843477e+000
      1.05242632e-001 9.74288642e-001 9.77797449e-001 4.78585005e-001
      7.25996196e-001 6.76298201e-001 4.86046821e-002 1.58872306e-001
      1.48151778e-002 3.23881954e-001 4.29078817e-001 2.04258427e-001
      2.51793824e-002 1.08673990e-001 7.22466648e-001 2.81450331e-001
      3.92302781e-001 3.49370539e-001 7.85759091e-001 9.39431340e-002
      2.00686365e-001 2.28643894e-001 1.28106225e+000 2.23875269e-001
      5.84717393e-001 3.82637084e-001 1.42761827e-001 1.36231733e-002
      1.87807724e-001 2.26020023e-001 1.49655774e-001 1.19793683e-001
      1.54942483e-001 1.20908648e-001 1.61003068e-001 1.03842378e-001
      2.16299772e-001 5.41668124e-002 1.33975565e+000 7.79840708e-001
      3.03672394e-003 1.62254262e+000 1.50475800e-001 1.10101402e+000
      1.50244683e-001 1.16955049e-001 6.97502255e-001 4.72435921e-001
      6.61312759e-001 1.57409236e-001 1.42544818e+000 2.50613928e-001
      2.42458329e-001 1.43691618e-002 8.66805315e-002 1.52841642e-001
      5.42830408e-001 1.14501297e+000 5.24367392e-001 1.13799654e-001
      4.77794319e-001 1.78121197e+000 3.29996198e-001 6.45404076e-003
      8.37185383e-002 1.75675356e+000 1.65533507e+000 1.30454087e+000
      1.42933458e-001 6.30215168e-001 1.14233816e+000 1.60374358e-001
      1.75599480e+000 8.45066011e-001 1.73123956e-001 5.07530451e-001
      4.37957257e-001 4.15957898e-001 1.99259311e-001 1.84467602e+000
      8.00168097e-001 4.73884076e-001 5.07202804e-001 1.65782809e-001
      7.25369036e-001 2.07336450e+000 3.77243519e-001 1.70299694e-001
      1.57097101e-001 1.43661216e-001 1.06034994e+000 5.89895621e-002
      5.66538215e-001 1.23664844e+000 7.52119571e-002 2.55070233e+000
      5.10456026e-001 6.80195749e-001 4.18356419e-001 1.30867302e-001
      1.04124069e-001 3.36840302e-001 1.30064636e-001 3.74157846e-001
      2.81295538e-001 9.90549326e-001 1.70076382e+000 2.68070757e-001
      2.33920310e-002 3.07011348e-003 4.12982017e-001 4.42207977e-003
      1.11551337e-001 8.89909342e-002 1.68257222e-001 3.50667030e-001
      3.61413509e-001 4.74522203e-001 1.73566505e-001 2.86338359e-001
      1.07320464e+000 4.33489412e-001 8.92670751e-001 2.11020067e-001
      1.04939353e+000 4.37772542e-001 8.09125841e-001 1.15510583e-001
      6.03272736e-001 1.80864620e+000 5.52957535e-001 1.54011846e-001
      6.59155011e-001 1.73636340e-002 2.55333960e-001 1.13938197e-001
      3.66865516e-001 1.46941924e+000 9.29273963e-002 4.03491734e-003
      4.01561886e-001 5.01122952e-001 3.87313604e-001 4.10499930e-001
      8.54188442e-001 7.73034245e-002 3.34537476e-002 3.05979609e-001
      5.14690459e-001 1.27226606e-001 1.06316519e+000 3.72097492e-001
      6.72870398e-001 1.04538150e-001 1.26085865e+000 9.51586477e-003
      1.05037868e-001 5.56971021e-002 4.96819675e-001 5.08827627e-001
      5.12200236e-001 2.11627468e-001 2.91126877e-001 4.11599949e-002
      4.76843208e-001 6.30595386e-001 6.06036603e-001 2.70879954e-001
      3.42372395e-002 1.61852762e-001 3.36849630e-001 8.94718394e-002</_>
    <_>
      1.49799913e-001 4.27535512e-002 1.27883181e-001 8.08413923e-001
      1.13025177e+000 2.04197153e-001 1.77424520e-001 2.62427270e-001
      1.03152450e-002 5.71827710e-001 1.74492344e-001 6.40925407e-001
      5.77150285e-001 1.97758913e-001 2.16858923e-001 4.47027266e-001
      2.59603918e-001 3.63717586e-001 1.57324187e-002 9.37588811e-001
      1.95411012e-001 1.44595295e-001 8.37178007e-002 4.59323674e-002
      7.71198794e-002 1.55810341e-001 5.17013252e-001 3.78944486e-001
      4.64731008e-001 2.41305485e-001 3.49625647e-002 2.20360160e+000
      3.87299545e-002 1.35243356e-001 9.51212123e-002 5.72824515e-002
      1.99683994e-001 9.01035070e-002 9.58561540e-001 1.72006767e-002
      3.67131174e-001 2.80929923e-001 1.61448359e-001 9.14234966e-002
      2.41242737e-001 1.62175015e-001 8.65323186e-001 1.33013487e-001
      4.46184248e-001 2.41180677e-002 6.12522423e-001 4.24239844e-001
      2.96887010e-002 1.87421236e-002 9.19435918e-002 5.34676671e-001
      2.37091660e-001 9.03896630e-001 4.40440476e-001 2.17616096e-001
      5.17456591e-001 7.71730959e-001 2.37902254e-001 1.94526076e-001
      1.35338590e-001 3.50854754e-001 5.32671474e-002 2.83008158e-001
      3.30824614e-001 1.87034845e-001 1.91969782e-001 2.83659786e-001
      5.76310515e-001 1.63568463e-002 2.18069270e-001 4.40809429e-001
      9.73611698e-002 3.77624482e-002 1.90903381e-001 1.45110473e-001
      6.97861135e-001 2.09429055e-001 3.73869799e-002 1.14194348e-001
      1.02494025e+000 1.96969584e-001 3.79525088e-002 8.21572840e-002
      2.78045654e-001 7.34866634e-002 6.39579475e-001 2.76552320e-001
      6.21932745e-002 8.17034423e-001 1.66689847e-002 3.59165698e-001
      2.93827411e-002 1.13705434e-001 1.31882280e-001 6.03031702e-002
      3.21458504e-002 4.96946484e-001 9.60941434e-001 1.27569243e-001
      2.31422618e-001 3.47951829e-001 4.79054730e-003 2.04373211e-001
      2.28423640e-001 1.29134983e-001 5.48351482e-002 3.79027963e-001
      1.22341160e-002 4.47484076e-001 3.13819081e-001 2.56854266e-001
      3.18243593e-001 3.25140148e-001 5.65277874e-001 2.26589590e-001
      2.14049757e-001 3.40530537e-002 4.27886784e-001 3.96633238e-001
      8.40075433e-001 3.95310558e-002 1.26035661e-002 2.33573079e+000
      1.11602508e-001 7.23635197e-001 7.12365627e-001 2.38441810e-001
      2.63988793e-001 6.11334085e-001 4.20267582e-002 6.81169391e-001
      2.83568222e-002 4.13087666e-001 4.67936754e-001 1.47539049e-001
      5.62428795e-002 8.49489197e-002 5.48091471e-001 2.50893861e-001
      1.45482570e-001 2.66580492e-001 3.75870526e-001 2.08228827e-001
      4.18427259e-001 2.22755760e-001 2.74054497e-001 8.49943757e-002
      5.65961421e-001 6.70564711e-001 1.13732323e-001 1.70044117e-002
      2.77368605e-001 1.59868464e-001 4.61544879e-002 8.83147418e-002
      1.70485631e-001 9.79517326e-002 1.89156219e-001 8.58367532e-002
      3.12645137e-001 7.90627077e-002 1.61864436e+000 8.81353796e-001
      2.99405959e-003 1.78797650e+000 1.39531210e-001 8.25700283e-001
      1.79317400e-001 1.96191475e-001 1.01243198e+000 6.85213447e-001
      1.17553425e+000 1.49882823e-001 1.41724944e+000 2.27662310e-001
      4.68834937e-001 1.38187539e-002 4.34338860e-002 1.39390960e-001
      5.41598201e-001 8.28009784e-001 3.78239214e-001 2.74429977e-001
      1.39701879e+000 1.06613362e+000 2.91593641e-001 2.57598124e-002
      1.18708707e-001 2.77546167e-001 2.79809147e-001 7.37297833e-001
      1.44169837e-001 6.15486324e-001 9.94537473e-001 4.60547417e-001
      2.90386707e-001 8.36902618e-001 1.74282983e-001 1.64336383e-001
      2.63204038e-001 2.39523977e-001 3.64406496e-001 7.04026759e-001
      6.59226000e-001 1.76181406e-001 1.58506721e-001 1.78092569e-001
      8.02309632e-001 1.69170415e+000 2.11789936e-001 1.38842627e-001
      7.95194954e-002 3.52198958e-001 1.07590449e+000 1.93933308e-001
      1.99094191e-001 1.61964571e+000 6.27182946e-002 2.05164742e+000
      6.89355910e-001 7.46027052e-001 1.67769581e-001 4.65972364e-001
      2.40321085e-001 5.23780644e-001 1.22123137e-001 1.67345181e-001
      1.95261657e-001 4.48367417e-001 1.24479699e+000 2.09337488e-001
      2.50554960e-002 2.98000663e-003 5.24917126e-001 5.70124527e-003
      1.33744597e-001 9.40965861e-002 1.10021643e-001 3.50487679e-001
      1.92900747e-001 4.15633857e-001 1.35051906e-001 2.53359824e-001
      7.11370528e-001 1.09245241e-001 5.46919823e-001 3.29907626e-001
      2.62140900e-001 1.30803108e+000 1.60820797e-001 8.91226456e-002
      1.81469142e+000 4.99800682e-001 3.33232671e-001 1.32784262e-001
      4.93441641e-001 1.97483562e-002 5.63188612e-001 9.25644487e-002
      9.13401917e-002 7.36577868e-001 1.29274830e-001 3.45134363e-003
      3.93941849e-001 2.67255932e-001 1.21427998e-001 4.99653369e-001
      5.53770542e-001 2.91014493e-001 3.47246639e-002 5.99751472e-001
      3.33366513e-001 8.55098516e-002 9.30524290e-001 2.80628264e-001
      5.17544091e-001 1.34378880e-001 5.74811757e-001 1.92239005e-002
      8.35433006e-002 2.83366088e-002 1.24970078e+000 2.95153379e-001
      5.04765809e-001 4.18530345e-001 1.79736048e-001 3.55763845e-002
      3.21850091e-001 8.82436574e-001 4.12814677e-001 2.86195040e-001
      3.23694833e-002 1.49730548e-001 1.38675243e-001 1.40800938e-001</_>
    <_>
      1.77356750e-001 4.42148596e-002 4.93234754e-001 1.06837094e+000
      2.12297320e+000 2.20779091e-001 3.49537134e-001 1.14573807e-001
      1.40215838e-002 4.05277789e-001 3.78346890e-001 1.59473848e+000
      6.91766918e-001 2.14493155e-001 4.92797703e-001 4.27077085e-001
      6.84329152e-001 3.13113481e-001 1.85269266e-002 1.54388535e+000
      2.27878183e-001 4.97159541e-001 7.75796995e-002 3.20546404e-002
      1.54156923e-001 1.26707450e-001 7.69310415e-001 5.33541262e-001
      5.09280205e-001 2.25003883e-001 5.51393442e-002 6.90274298e-001
      7.27781206e-002 1.17379129e-001 1.33821085e-001 3.15990970e-002
      2.13020489e-001 1.89362958e-001 8.09590459e-001 1.73314866e-002
      2.10611999e-001 3.64516526e-001 3.77976626e-001 7.80658647e-002
      1.73922405e-001 1.02844715e+000 3.16811085e-001 9.34651271e-002
      1.93892300e-001 2.16946024e-002 6.89435363e-001 3.44343454e-001
      3.42513584e-002 1.61660407e-002 1.17843635e-001 4.43755358e-001
      2.10252494e-001 8.45082998e-001 4.78847861e-001 9.71175581e-002
      4.62067187e-001 8.28574419e-001 1.44697055e-001 2.64199436e-001
      2.67109901e-001 4.91964638e-001 5.54661453e-002 3.22266638e-001
      4.17911470e-001 2.83134673e-002 1.75487816e-001 2.84554422e-001
      8.61524820e-001 1.77058931e-002 2.03749657e-001 6.39410913e-001
      5.68826497e-002 6.59380332e-002 1.36669964e-001 1.52218774e-001
      1.28610954e-001 2.06277281e-001 3.30534801e-002 2.55299687e-001
      2.33129889e-001 3.48879069e-001 6.48833811e-002 6.98520094e-002
      1.40920028e-001 1.02238685e-001 2.98347503e-001 4.48110223e-001
      4.22935709e-002 5.54346621e-001 2.16452200e-002 1.66818470e-001
      4.17318232e-002 1.12814225e-001 1.80058390e-001 9.64768305e-002
      4.07107286e-002 6.97493792e-001 8.71015131e-001 1.48025185e-001
      8.75913203e-002 1.24693170e-001 6.18896028e-003 1.38915956e-001
      1.87191874e-001 1.53159067e-001 7.45731071e-002 1.09045064e+000
      1.74287297e-002 8.14965665e-001 7.15389550e-001 2.96031505e-001
      4.78243202e-001 3.69728506e-001 4.13581520e-001 7.54616633e-002
      3.39906961e-001 1.74999051e-002 8.83165538e-001 4.04097050e-001
      1.12895024e+000 8.37053210e-002 6.68560015e-003 3.91462922e-001
      1.16569236e-001 1.55163372e+000 1.42054677e+000 1.42559215e-001
      1.82888493e-001 6.94446445e-001 5.92401139e-002 1.00263119e+000
      1.72936860e-002 1.28234193e-001 4.39563334e-001 1.34808093e-001
      4.02862616e-002 1.79517850e-001 6.93127632e-001 2.82592714e-001
      2.05330789e-001 2.91188866e-001 1.03515124e+000 1.49135187e-001
      4.92573142e-001 5.29123366e-001 1.80285287e+000 1.38442829e-001
      6.79197192e-001 2.34695688e-001 1.32674858e-001 8.48237891e-003
      1.65772170e-001 1.96044460e-001 3.49252857e-002 1.39202744e-001
      1.62768334e-001 9.38232094e-002 1.11916371e-001 1.51903987e-001
      2.82943428e-001 9.83678326e-002 8.17406952e-001 1.06298816e+000
      4.66743065e-003 1.15551662e+000 1.05304010e-001 1.21211088e+000
      4.60711598e-001 2.07413808e-001 4.99412537e-001 3.78556430e-001
      4.53319728e-001 2.10039988e-001 1.00001323e+000 3.12129766e-001
      3.14707786e-001 1.43767232e-002 1.03950642e-001 6.34915158e-002
      7.78535008e-001 1.27687573e+000 4.68179166e-001 1.78752318e-001
      1.43923891e+000 2.08943844e-001 2.75625497e-001 5.87933417e-003
      1.35435939e-001 1.53673723e-001 1.35907149e+000 1.49430811e+000
      1.06281675e-001 7.58790374e-001 1.24072123e+000 5.18004656e-001
      1.73939005e-001 8.48200083e-001 6.52860880e-001 2.12181881e-001
      3.10901791e-001 3.30837220e-001 3.49212468e-001 9.25345898e-001
      7.71214664e-001 3.04419041e-001 7.12738931e-001 1.82878479e-001
      9.66543555e-001 3.09149206e-001 2.68718719e-001 5.64380363e-002
      1.40772149e-001 2.96464056e-001 1.49848878e+000 1.50657147e-001
      5.83673596e-001 7.36392498e-001 5.27080297e-002 7.41999388e-001
      4.69178379e-001 7.57339120e-001 2.25060791e-001 1.03580058e+000
      2.30418682e-001 3.87262315e-001 1.29098088e-001 3.63945186e-001
      1.04502976e-001 7.39573896e-001 4.33181196e-001 3.03441525e-001
      1.69714540e-002 4.26300429e-003 8.25526059e-001 7.11888820e-003
      1.08690210e-001 6.58483356e-002 2.33385190e-001 2.13579223e-001
      5.81726015e-001 2.39597484e-001 2.24118307e-001 1.02649450e-001
      1.73240709e+000 2.97965497e-001 6.15362287e-001 3.44298363e-001
      1.97170034e-001 1.21564507e+000 1.42639056e-001 1.30174682e-001
      4.19350237e-001 1.02477717e+000 3.63667578e-001 1.02661192e-001
      2.23891795e-001 1.72422808e-002 5.89414895e-001 1.04175247e-001
      1.94437623e-001 4.26733106e-001 1.53019831e-001 6.26817858e-003
      2.30148226e-001 3.24731737e-001 4.33147222e-001 4.20043141e-001
      1.04024565e+000 2.65479118e-001 3.04604489e-002 2.74846226e-001
      2.60603547e-001 5.72701283e-002 1.69222975e+000 2.25321546e-001
      6.91003442e-001 9.39885303e-002 1.57922900e+000 1.22123808e-002
      1.72714055e-001 8.69768262e-002 4.60125208e-001 3.11574042e-001
      4.00851518e-001 1.69248313e-001 1.34511575e-001 4.75050919e-002
      5.43026924e-001 5.51765323e-001 3.31100911e-001 5.81808269e-001
      2.99502127e-002 1.45980328e-001 6.94286749e-002 1.14444502e-001</_>
    <_>
      1.43679336e-001 2.89919991e-002 2.78623104e-001 7.00078607e-001
      8.60767424e-001 5.08617818e-001 2.62609839e-001 4.58538234e-001
      8.08305573e-003 5.41100860e-001 3.22110921e-001 9.32461381e-001
      3.57457638e-001 1.06015295e-001 2.39033803e-001 1.41391680e-001
      3.25069696e-001 4.96862471e-001 1.73136480e-002 1.08687115e+000
      9.52588618e-001 1.29433379e-001 7.76772499e-002 5.21806851e-002
      5.36084436e-002 7.71204680e-002 5.12767076e-001 2.34541103e-001
      9.44193363e-001 2.39025086e-001 4.71849404e-002 8.78492594e-001
      2.59811338e-002 7.69847482e-002 7.51969963e-002 3.19528356e-002
      2.39661157e-001 1.42564982e-001 5.60807586e-001 1.23662045e-002
      2.45485649e-001 2.27385744e-001 2.80717283e-001 8.17902684e-002
      2.75647879e-001 2.35302389e-001 5.61837256e-001 6.95444867e-002
      2.39767626e-001 2.94217803e-002 3.57442647e-001 3.16845924e-001
      2.10266709e-002 1.06526446e-002 9.21917781e-002 3.06215584e-001
      3.75149339e-001 4.36643004e-001 9.92005587e-001 3.59709382e-001
      5.50449848e-001 5.19245446e-001 3.08105856e-001 2.04090178e-001
      3.30085903e-001 4.50573951e-001 3.28454748e-002 4.24981683e-001
      2.88531095e-001 2.48321861e-001 2.05872387e-001 1.51586294e-001
      8.99868190e-001 1.38923135e-002 1.56002313e-001 3.43271732e-001
      6.25736043e-002 2.37055477e-002 2.81494886e-001 1.42008170e-001
      5.97225785e-001 2.21816689e-001 3.63009647e-002 1.32505447e-001
      3.56691182e-001 3.58231038e-001 8.57481882e-002 4.78545129e-002
      1.42822653e-001 9.41439644e-002 7.67584264e-001 6.24488533e-001
      4.05175835e-002 4.13562536e-001 1.79608557e-002 1.82767361e-001
      4.25965227e-002 1.23590976e-001 9.36275199e-002 6.16901889e-002
      1.15245581e-001 3.27196032e-001 4.28925902e-001 8.11304525e-002
      3.52530390e-001 3.25084299e-001 3.09218466e-003 1.31802022e-001
      1.37869641e-001 3.42119306e-001 5.07288203e-002 4.58319813e-001
      1.16159478e-002 3.86160433e-001 4.21266466e-001 9.43290114e-001
      5.63754022e-001 1.29339725e-001 1.84777722e-001 3.26047033e-001
      3.50334942e-001 2.55984273e-002 4.02003169e-001 1.37664616e+000
      9.36672628e-001 3.17317285e-002 4.68155416e-003 8.41745019e-001
      1.05700538e-001 1.22811115e+000 7.12208629e-001 1.57813698e-001
      2.94159442e-001 2.31990233e-001 4.87526767e-002 3.63908529e-001
      1.46793388e-002 4.47289944e-002 2.79195130e-001 1.11398563e-001
      3.82690243e-002 1.19926192e-001 5.19006371e-001 1.46506920e-001
      4.53598499e-001 8.19084346e-001 4.58038896e-001 1.62812978e-001
      2.34803647e-001 3.43281418e-001 3.37566942e-001 1.18963942e-001
      3.51062745e-001 1.54029936e-001 7.13813603e-002 1.60200745e-002
      1.31589577e-001 2.83905715e-001 4.81456704e-002 9.22312587e-002
      1.66590840e-001 6.50706068e-002 2.24714756e-001 8.75041559e-002
      1.98891863e-001 6.19851202e-002 1.32068527e+000 4.38907176e-001
      2.46051606e-003 7.16530025e-001 9.69825760e-002 7.60588527e-001
      2.46108130e-001 2.90438384e-001 3.30411702e-001 4.36903507e-001
      3.92413974e-001 2.51466691e-001 3.19129020e-001 1.31674930e-001
      3.21054369e-001 1.26402853e-002 5.44157848e-002 9.45485160e-002
      3.81378084e-001 9.62099135e-001 3.81252587e-001 1.11900821e-001
      1.31157339e+000 4.92636144e-001 1.88847840e-001 5.60167385e-003
      1.32833526e-001 7.21221149e-001 4.47155178e-001 9.88928616e-001
      9.85121205e-002 5.08079886e-001 9.05243218e-001 9.94345665e-001
      8.92351210e-001 5.29430866e-001 1.95954934e-001 4.30028379e-001
      2.40442321e-001 3.55657339e-001 1.42459601e-001 9.05856133e-001
      5.46659946e-001 4.46676910e-001 2.38774493e-001 9.54769254e-002
      3.82704407e-001 5.60516357e-001 2.15658352e-001 8.61756727e-002
      1.01477660e-001 9.14816633e-002 1.23635495e+000 1.46693170e-001
      4.23365206e-001 7.16349065e-001 1.05904028e-001 9.59585965e-001
      2.97603697e-001 5.01797557e-001 2.77679414e-001 4.93626177e-001
      1.05792649e-001 6.97785318e-001 8.69286805e-002 2.96708137e-001
      1.25191554e-001 4.77986097e-001 7.80023873e-001 4.16809648e-001
      5.13453782e-002 2.49382993e-003 3.00504327e-001 6.22443389e-003
      9.79075655e-002 5.16222231e-002 1.50987104e-001 2.45660424e-001
      4.91742224e-001 2.46212870e-001 2.42291257e-001 4.37031955e-001
      7.18340993e-001 3.57151389e-001 7.44134903e-001 5.10969222e-001
      9.91461992e-001 7.45722830e-001 2.26445839e-001 9.60686281e-002
      4.59748030e-001 1.20636678e+000 1.99056506e-001 9.85287055e-002
      1.28810555e-001 1.10411029e-002 4.95780885e-001 1.03489272e-001
      1.85617000e-001 3.95572156e-001 1.38473004e-001 1.29044130e-002
      3.87289435e-001 3.02284926e-001 3.71357381e-001 3.10456008e-001
      2.66192377e-001 2.32756466e-001 3.67547907e-002 3.88193756e-001
      4.69155788e-001 8.30052644e-002 1.07921970e+000 1.82903841e-001
      4.57308799e-001 1.15288556e-001 5.04250228e-001 1.42853092e-002
      8.46816748e-002 1.57790184e-001 4.42623883e-001 5.28797746e-001
      6.18093729e-001 3.71342272e-001 3.25038195e-001 3.51211987e-002
      2.92013258e-001 7.20315278e-001 2.05999717e-001 2.56863475e-001
      1.86094772e-002 1.07579648e-001 1.16481267e-001 8.00083503e-002</_>
    <_>
      3.45114291e-001 5.42887710e-002 9.06486034e-001 7.00624704e-001
      1.05092740e+000 7.07701087e-001 2.43388072e-001 2.77176499e-001
      1.36374114e-002 5.66641152e-001 1.15122020e+000 1.30928147e+000
      6.73364818e-001 1.04300581e-001 3.76039654e-001 4.83915269e-001
      6.28926277e-001 4.65685815e-001 1.85204353e-002 1.33506405e+000
      7.14173436e-001 2.05740973e-001 1.07387178e-001 5.01159430e-002
      1.26240075e-001 1.79230884e-001 3.54191095e-001 5.63514829e-001
      5.71588933e-001 5.19390583e-001 3.74163911e-002 2.05521679e+000
      3.72950137e-002 1.23362303e-001 1.33318186e-001 4.57266979e-002
      2.55822241e-001 1.59580931e-001 1.17924178e+000 1.77856795e-002
      3.00770879e-001 3.51452649e-001 3.19830805e-001 1.21811606e-001
      3.36311877e-001 2.98120469e-001 5.75123131e-001 9.67964306e-002
      4.31237996e-001 3.53449620e-002 8.49606037e-001 5.83759367e-001
      4.24107015e-002 1.68305915e-002 9.34146196e-002 3.67667079e-001
      2.71110803e-001 9.96268570e-001 6.36110723e-001 3.50276917e-001
      7.02630758e-001 1.62382662e+000 8.41107368e-001 1.76696777e-001
      3.92547131e-001 3.23737919e-001 4.24959213e-002 3.94359618e-001
      5.55493236e-001 1.97241545e-001 1.11044250e-001 4.40818936e-001
      5.57254314e-001 1.79825108e-002 4.22159284e-001 3.94019693e-001
      7.73548856e-002 3.77976708e-002 2.61478156e-001 3.26386720e-001
      5.17714858e-001 3.18609208e-001 3.36445346e-002 1.99229196e-001
      7.35996723e-001 3.42665523e-001 7.25538954e-002 1.13656305e-001
      1.79609895e-001 9.62254331e-002 5.16593814e-001 2.41782337e-001
      6.09004572e-002 1.17620802e+000 2.39029806e-002 9.46050525e-001
      5.64231314e-002 1.69764727e-001 1.57093853e-001 6.91435188e-002
      7.90247470e-002 4.79945242e-001 9.29647267e-001 1.65447026e-001
      1.37470126e-001 3.69725704e-001 8.79864581e-003 2.35202223e-001
      2.51050204e-001 2.93213457e-001 6.61216304e-002 5.71097732e-001
      1.60316378e-002 5.43785870e-001 4.04391259e-001 4.06321794e-001
      3.21065754e-001 1.57847658e-001 9.95096445e-001 2.68610239e-001
      4.18904126e-001 3.99609767e-002 7.15053082e-001 5.64334869e-001
      1.33758855e+000 3.97777371e-002 4.65731882e-003 7.36055374e-001
      1.40685350e-001 1.62523770e+000 6.28531396e-001 2.45762244e-001
      2.73272783e-001 3.81830305e-001 5.90192191e-002 5.59808850e-001
      1.40218707e-002 1.43258393e-001 3.59313846e-001 9.94517058e-002
      3.54436748e-002 1.54368058e-001 5.25492787e-001 4.57516432e-001
      3.12831491e-001 4.35685545e-001 8.84741962e-001 2.33099222e-001
      6.76777959e-001 5.93375564e-001 4.54197496e-001 2.52747625e-001
      5.44845879e-001 2.55032629e-001 1.30059943e-001 1.59824211e-002
      3.27931643e-001 3.11434656e-001 1.01864755e-001 1.68047175e-001
      1.90743312e-001 1.31079018e-001 2.48893246e-001 1.35701656e-001
      4.63239461e-001 7.81756416e-002 1.41992235e+000 1.19970381e+000
      4.18220414e-003 1.12609863e+000 1.92708641e-001 1.23014235e+000
      1.71441391e-001 2.89432406e-001 9.32549775e-001 7.99843609e-001
      1.39089930e+000 3.52998495e-001 6.74256206e-001 1.83457673e-001
      4.78304476e-001 1.49153285e-002 7.78425187e-002 1.11211680e-001
      5.81859767e-001 1.32411218e+000 2.61617959e-001 1.28960982e-001
      1.04821634e+000 7.20238626e-001 3.35649222e-001 8.65187962e-003
      1.12400740e-001 2.81617194e-001 5.55405855e-001 5.41197360e-001
      1.85674697e-001 8.43550384e-001 7.24473000e-001 6.39969707e-001
      2.89501786e-001 1.02237260e+000 3.55737686e-001 3.63609403e-001
      5.84820926e-001 2.45878458e-001 1.86361045e-001 7.24082112e-001
      4.73820567e-001 1.62598416e-001 3.00632417e-001 1.10102005e-001
      5.68337679e-001 6.23015821e-001 3.42063129e-001 1.12832472e-001
      2.63703406e-001 4.04045731e-001 1.45551419e+000 1.77043006e-001
      4.38344210e-001 1.63256097e+000 1.06442161e-001 1.12563431e+000
      5.43170333e-001 7.98407793e-001 3.45213175e-001 4.99778301e-001
      1.93513408e-001 4.50808316e-001 1.43719524e-001 3.70469928e-001
      2.23420501e-001 7.30500221e-001 7.87807822e-001 3.83303165e-001
      4.44076769e-002 3.93132539e-003 4.87654477e-001 6.20815204e-003
      1.14731923e-001 8.57451111e-002 1.21533975e-001 5.23866355e-001
      9.04939890e-001 3.91173244e-001 1.79864243e-001 2.90424734e-001
      7.21880913e-001 2.51162499e-001 5.85683346e-001 5.59376419e-001
      5.80755293e-001 8.95093381e-001 4.11812276e-001 1.24516308e-001
      3.08844507e-001 1.06281197e+000 7.89875925e-001 1.92070767e-001
      8.62332642e-001 1.75677463e-002 9.33908105e-001 1.11254655e-001
      2.53876746e-001 5.42689800e-001 1.49555281e-001 8.70723650e-003
      4.47946876e-001 6.37177646e-001 2.60166258e-001 4.41741318e-001
      5.11989057e-001 1.65379986e-001 4.56031784e-002 2.53232360e-001
      5.32636464e-001 7.52538070e-002 1.59139132e+000 3.07423115e-001
      5.44941306e-001 1.37527511e-001 6.25298798e-001 1.50210625e-002
      1.21103838e-001 9.82234031e-002 5.29189944e-001 5.75483561e-001
      5.52532196e-001 4.03407753e-001 3.26894701e-001 4.68851775e-002
      3.99405152e-001 1.43142068e+000 8.94464195e-001 2.61581659e-001
      4.20328341e-002 1.75975755e-001 1.75070092e-001 9.51604769e-002</_>
    <_>
      8.69968086e-002 3.36778313e-002 5.43821633e-001 5.61738551e-001
      4.02977675e-001 3.70341092e-001 1.39552400e-001 1.57527059e-001
      7.78689981e-003 1.20200491e+000 1.40651238e+000 1.03151178e+000
      3.70185137e-001 1.06264509e-001 3.19028586e-001 3.15819144e-001
      4.76083755e-001 3.81229311e-001 1.26567623e-002 6.88981593e-001
      8.04128826e-001 2.40534440e-001 1.08177654e-001 2.56077889e-002
      1.45267993e-001 2.24143058e-001 5.00947297e-001 3.92681271e-001
      1.52948946e-001 3.95566046e-001 3.67772654e-002 6.56974316e-001
      3.83630954e-002 7.28520155e-002 9.04848576e-002 3.57682928e-002
      1.03764288e-001 1.85884610e-001 4.03737932e-001 1.45729771e-002
      1.57846391e-001 3.32506448e-001 1.20703235e-001 3.56967561e-002
      1.15128212e-001 2.73050010e-001 1.56392261e-001 1.21262230e-001
      1.15990870e-001 2.73757540e-002 3.09984088e-001 2.45187789e-001
      2.18793862e-002 1.25907464e-002 5.94750009e-002 3.17935497e-001
      9.67621058e-002 1.00925469e+000 1.42526105e-001 1.41920224e-001
      1.86565652e-001 4.59748596e-001 2.50998765e-001 1.13344371e-001
      6.02836668e-001 6.30759597e-001 1.95841417e-002 2.78043568e-001
      2.52198637e-001 2.28426903e-001 2.31940508e-001 1.77662760e-001
      4.25278783e-001 1.08906263e-002 1.27728581e-001 3.66523862e-001
      8.80826861e-002 2.83863675e-002 2.70778477e-001 2.33011559e-001
      1.33433431e-001 2.00569183e-001 2.25962233e-002 8.50452334e-002
      1.51807755e-001 1.20966576e-001 5.45392446e-002 9.62128714e-002
      1.02108270e-001 4.83754724e-002 1.00226901e-001 1.48245633e-001
      4.97285277e-002 6.21971130e-001 1.98676921e-002 9.77377594e-001
      2.34800465e-002 1.07427321e-001 9.31843966e-002 1.04805321e-001
      4.60783169e-002 4.33032513e-001 1.01351571e+000 8.61807093e-002
      2.21718267e-001 4.98866737e-001 4.23113815e-003 1.99059546e-001
      1.72117844e-001 2.60490119e-001 5.43894656e-002 4.48918998e-001
      1.08656092e-002 3.95580083e-001 2.00577825e-001 5.11900902e-001
      2.49956504e-001 2.32010499e-001 7.51854181e-001 2.66836490e-002
      7.28437454e-002 2.61978470e-002 3.69393975e-001 8.89246523e-001
      7.36094296e-001 4.09906395e-002 5.23116766e-003 1.74298599e-001
      1.30993947e-001 1.26387179e+000 5.43845713e-001 4.84839603e-002
      1.34346157e-001 1.11063108e-001 3.23016867e-002 3.14776838e-001
      1.24177141e-002 2.32043549e-001 2.78102577e-001 8.39480981e-002
      3.99196409e-002 1.79469034e-001 3.53914678e-001 1.97196707e-001
      2.89568096e-001 4.87424582e-001 1.12394321e+000 1.25583619e-001
      1.00276731e-001 2.95533419e-001 3.86707902e-001 2.09128067e-001
      8.10067832e-001 4.40687597e-001 1.14863306e-001 7.67851947e-003
      2.97004998e-001 1.47137165e-001 6.78904578e-002 8.92166570e-002
      1.02139205e-001 1.12441562e-001 4.32087258e-002 7.58873597e-002
      3.20831329e-001 9.50528607e-002 1.05429828e+000 5.52585244e-001
      2.77204602e-003 1.37483299e+000 1.03720978e-001 7.85785437e-001
      1.14362888e-001 1.36430591e-001 3.96879643e-001 1.19329965e+000
      3.29152644e-001 2.16046900e-001 3.51416409e-001 1.43237799e-001
      3.92152816e-001 9.30667855e-003 4.03851233e-002 5.63272610e-002
      3.57493430e-001 8.35834861e-001 3.42556417e-001 2.01630875e-001
      1.39482820e+000 1.43821195e-001 2.78714508e-001 1.06490739e-002
      1.58837512e-001 7.89994538e-001 2.28806883e-001 7.84455657e-001
      9.43745449e-002 5.08457363e-001 5.06192744e-001 1.48437828e-001
      8.79807591e-001 3.55731934e-001 1.65670127e-001 2.16886804e-001
      3.30535620e-001 5.61122179e-001 2.22231150e-001 1.01120472e+000
      4.01800275e-001 2.92113751e-001 2.67410010e-001 1.12929352e-001
      5.42153478e-001 1.82413444e-001 2.12057382e-001 6.48026168e-002
      1.90287858e-001 1.89402893e-001 8.17311168e-001 9.31203291e-002
      3.09582829e-001 1.23168314e+000 2.73774322e-002 1.40897799e+000
      5.44032872e-001 3.23178530e-001 2.05416366e-001 5.20375490e-001
      2.32734233e-001 4.53884214e-001 1.43246472e-001 3.53620201e-001
      4.73782904e-002 3.41810673e-001 2.94675946e-001 1.73202366e-001
      1.21237403e-002 3.14579997e-003 4.42460954e-001 5.81848715e-003
      9.52444524e-002 8.06707069e-002 6.79123104e-002 2.65410841e-001
      3.09037834e-001 8.23751315e-002 1.09140933e-001 1.52393579e-001
      6.91352367e-001 4.52087730e-001 2.90185452e-001 4.58543360e-001
      7.42296398e-001 1.43475676e+000 3.46526206e-001 8.01411867e-002
      7.27974951e-001 1.31028688e+000 6.07024193e-001 7.60107040e-002
      4.38599646e-001 1.25950938e-002 4.54247326e-001 1.02468304e-001
      2.19171986e-001 2.57520527e-001 1.00849167e-001 3.27026099e-003
      4.84825253e-001 1.77296087e-001 2.83314496e-001 1.58858195e-001
      3.42426419e-001 1.51024684e-001 2.79308707e-002 2.71988064e-001
      1.95046633e-001 4.23381664e-002 9.50536609e-001 1.54220998e-001
      3.35546523e-001 7.15878382e-002 3.95487398e-001 9.12699103e-003
      1.20242029e-001 1.97147448e-002 9.38701153e-001 2.06671849e-001
      8.30405414e-001 2.55325735e-001 1.51943609e-001 4.52428944e-002
      3.27974826e-001 4.15059149e-001 1.96452737e-001 2.84156382e-001
      2.46154852e-002 9.84542817e-002 1.69949040e-001 1.18525594e-001</_>
    <_>
      3.46058935e-001 3.30139361e-002 2.10428834e-001 2.68295527e-001
      7.97776103e-001 4.94440973e-001 1.03545105e+000 2.35075727e-001
      1.37806321e-002 1.01765406e+000 2.37260953e-001 1.93512964e+000
      3.14483672e-001 1.99825853e-001 3.28088015e-001 2.51280963e-001
      1.73124641e-001 4.40574288e-001 1.55176511e-002 8.16104710e-001
      9.73631501e-001 4.36059833e-001 1.20826289e-001 4.43444401e-002
      9.95669439e-002 7.89934173e-002 3.48827511e-001 3.40452433e-001
      3.09146225e-001 2.64567494e-001 3.64559926e-002 9.11866546e-001
      3.93094681e-002 6.86833039e-002 8.79969224e-002 3.30081619e-002
      3.17825913e-001 2.03761816e-001 5.65857291e-001 1.55204311e-002
      6.36231661e-001 2.05354258e-001 3.59499305e-001 8.62471983e-002
      3.33692282e-001 6.44307971e-001 9.97852743e-001 4.09137234e-002
      2.17574567e-001 3.77490111e-002 3.24537277e-001 3.23264986e-001
      2.88786516e-002 1.60109065e-002 4.13599797e-002 4.84017849e-001
      2.04241470e-001 7.77833998e-001 5.97172618e-001 2.93675065e-001
      5.95954955e-001 9.35634017e-001 2.56535709e-001 3.55621785e-001
      9.06340837e-001 3.50665689e-001 4.11321409e-002 4.89086181e-001
      5.06782055e-001 2.57806003e-001 2.68163443e-001 1.83420926e-001
      5.55686772e-001 2.11637001e-002 1.34715781e-001 6.32222295e-001
      7.36908764e-002 4.09067795e-002 2.46745914e-001 3.61118108e-001
      7.03023493e-001 2.45714739e-001 5.04085198e-002 1.47245452e-001
      5.65049648e-001 3.75326037e-001 1.11804977e-001 3.67085859e-002
      1.19989008e-001 9.82542560e-002 7.96451330e-001 3.43678296e-001
      3.55597027e-002 3.71935278e-001 2.71944087e-002 1.51296127e+000
      4.70765308e-002 8.18499252e-002 8.13363120e-002 6.59393147e-002
      9.76737887e-002 2.56457299e-001 2.67936110e-001 6.48555383e-002
      1.38826418e+000 5.38037181e-001 2.78358394e-003 2.04922110e-001
      2.42643461e-001 7.35433161e-001 4.36786488e-002 3.74763668e-001
      1.19029246e-002 3.49210411e-001 7.36107409e-001 1.47779918e+000
      1.71480820e-001 1.77053392e-001 1.58466324e-001 2.38286808e-001
      2.70660967e-001 3.26840803e-002 4.48078364e-001 1.53761601e+000
      1.21707475e+000 3.92276570e-002 5.63303055e-003 1.22076154e+000
      1.45033732e-001 1.80206513e+000 3.60881776e-001 1.56736016e-001
      5.08309066e-001 2.85610080e-001 6.04380108e-002 2.19458640e-001
      1.49697233e-002 1.41333237e-001 2.52636492e-001 7.69123435e-002
      1.54417101e-002 2.13121906e-001 5.77107370e-001 1.51180774e-001
      8.95010829e-001 1.56682956e+000 5.91767848e-001 1.41610697e-001
      2.61638492e-001 2.15025395e-001 5.10624468e-001 4.39704597e-001
      4.42071766e-001 3.43724579e-001 1.69636294e-001 1.46997422e-002
      2.36348659e-001 2.88591743e-001 9.90559757e-002 1.18015289e-001
      2.81150013e-001 9.71412808e-002 2.09426135e-001 7.73548707e-002
      3.29673260e-001 4.91097197e-002 9.76477623e-001 6.56382799e-001
      4.57654567e-003 1.02916384e+000 1.49864540e-001 6.51738226e-001
      2.81180471e-001 3.20068419e-001 5.17059684e-001 6.40606046e-001
      2.73531109e-001 3.34360451e-001 5.38686216e-001 2.82876611e-001
      1.68182746e-001 1.33888815e-002 5.75105995e-002 7.81018361e-002
      3.62178415e-001 1.33915091e+000 1.16953981e+000 2.84321010e-001
      8.63690376e-001 6.39456630e-001 3.92154545e-001 9.44982003e-003
