<?xml version="1.0"?>
<opencv_storage>
<my_svm type_id="opencv-ml-svm">
  <svm_type>EPS_SVR</svm_type>
  <kernel><type>RBF</type>
    <gamma>1.1918200000000000e-002</gamma></kernel>
  <C>9.7435899999999993e+000</C>
  <p>1.0000000000000001e-001</p>
  <term_criteria><epsilon>4.9999998882412910e-003</epsilon>
    <iterations>2147483647</iterations></term_criteria>
  <var_all>400</var_all>
  <var_count>400</var_count>
  <sv_total>352</sv_total>
  <support_vectors>
    <_>
      3.83102968e-002 1.41005486e-001 1.08720911e+000 2.10593879e-001
      6.23544976e-002 3.82722288e-001 8.46581608e-002 2.03469962e-001
      1.24101065e-001 8.72351229e-001 2.67781615e-001 2.30406135e-001
      4.90436137e-001 5.56463361e-001 1.11503359e-002 1.09231025e-002
      5.20471156e-001 1.15141921e-001 6.66088641e-001 1.91066563e-001
      2.56039709e-001 4.04652297e-001 1.24232493e-001 3.90228003e-001
      9.99196544e-002 5.96656144e-001 2.69509554e-001 9.23918113e-002
      2.20341712e-001 7.67806888e-001 3.16716582e-002 1.03679255e-001
      1.30368978e-001 1.16476648e-001 1.93316221e-001 4.90946949e-001
      7.12409243e-002 2.42715269e-001 2.30261713e-001 2.17001721e-001
      1.77813973e-002 1.48501530e-001 2.50165522e-001 2.18024775e-001
      1.53964758e-002 1.44355912e-002 2.39367351e-001 2.55231738e-001
      4.07414436e-001 3.77037585e-001 1.89604938e-001 2.67352879e-001
      3.94252330e-001 2.98701793e-001 2.27657542e-001 4.20695007e-001
      4.03683126e-001 2.38971204e-001 5.97812235e-001 7.13717222e-001
      8.21229339e-001 3.20334584e-001 4.44096066e-002 8.06004256e-002
      6.22993633e-002 1.81823999e-001 3.43274325e-002 6.07082427e-001
      4.09362838e-003 2.63907909e-001 2.31099144e-001 1.27943587e-002
      5.00061452e-001 3.69491607e-001 7.88952708e-001 4.13438022e-001
      2.44206563e-001 3.99782300e-001 2.28271902e-001 2.12471008e-001
      3.43217283e-001 1.36967808e-001 2.83286899e-001 3.34396005e-001
      1.19516455e-001 5.92317164e-001 1.14866972e+000 7.08113611e-002
      4.47819242e-003 2.50850022e-001 4.05706853e-001 1.86431393e-001
      8.29187781e-002 8.37034225e-001 1.33869993e-002 3.23907398e-002
      8.85338306e-001 1.96589962e-001 9.31894630e-002 3.37198257e-001
      2.15777993e-001 3.11409265e-001 2.96029687e-001 3.74689817e-001
      2.06121311e-001 1.40010789e-002 2.13691041e-001 6.15424156e-001
      3.15271407e-001 1.14810579e-002 1.15778700e-001 1.34100363e-001
      1.02973692e-001 2.05757201e-001 5.89919053e-002 1.02448273e+000
      2.78418154e-001 3.58590893e-002 1.29718715e-002 1.03276663e-001
      4.52179492e-001 1.81546018e-001 1.23416841e-001 1.66960001e-001
      1.43137419e+000 1.34302270e+000 1.01467443e+000 6.40456736e-001
      2.39641532e-001 9.50893521e-001 1.27996346e-002 1.61298648e-001
      1.32941097e-001 2.85463572e-001 5.16924858e-002 1.17058329e-001
      1.94009040e-002 3.51739824e-001 3.84348422e-001 1.28990263e-001
      3.43620300e-001 1.56363733e-002 4.80177440e-002 7.26545453e-002
      2.67013926e-002 8.72804523e-001 1.11993563e+000 2.65510026e-002
      1.55527741e-002 2.44299173e-001 9.44631159e-001 2.53717035e-001
      2.88695633e-001 1.61749855e-001 2.47424081e-001 1.21209934e-001
      6.99287951e-002 6.88649356e-001 4.94014651e-001 8.28503966e-002
      8.19193572e-002 3.16690505e-002 1.39478520e-001 1.86993778e-001
      9.39381868e-002 7.73365125e-002 8.07560027e-001 3.37776423e-001
      1.99864596e-001 1.50107890e-001 1.36680812e-001 3.37956339e-001
      7.09678590e-001 3.15610290e-001 4.85820025e-001 1.07170008e-001
      6.34461820e-001 4.88917410e-001 8.27718526e-002 9.00374800e-002
      4.04140085e-001 1.08516805e-001 1.07542034e-002 4.91899222e-001
      1.98054582e-001 4.55098540e-001 1.09322555e-002 7.40078449e-001
      1.00862503e+000 5.92248976e-001 1.29235834e-001 1.86071694e-001
      7.15334475e-001 1.27489462e-001 7.84072932e-003 1.26595306e+000
      1.41667426e-001 4.69884694e-001 4.19787854e-001 4.04001214e-002
      4.42101806e-001 1.22519004e+000 2.41710052e-001 1.15700208e-001
      1.01509832e-001 1.19358795e-002 1.18445279e-002 6.88924119e-002
      4.51460108e-002 2.85540745e-002 5.12047648e-001 2.15627879e-001
      5.81986547e-001 2.21008390e-001 1.68519288e-001 3.35367531e-001
      7.26482511e-001 6.49773283e-003 1.18416436e-002 7.88206339e-001
      3.74529392e-001 1.98694378e-001 2.29297634e-002 7.48298392e-002
      1.31983054e+000 1.48764998e-001 1.23493172e-001 1.33452818e-001
      1.86365366e-001 7.99624994e-002 1.11250862e-001 3.79591972e-001
      4.64509010e-001 7.41400838e-001 9.75698382e-002 4.13307687e-003
      9.86314341e-002 2.52539933e-001 6.34394109e-001 3.05057555e-001
      4.41478431e-001 7.79655874e-001 3.25322032e-001 2.15794265e-001
      7.90372849e-001 8.30092967e-001 6.07075505e-002 4.61855568e-002
      1.14606256e-002 1.15390737e-002 3.87885332e-001 1.94304168e-001
      9.33881328e-002 6.64030850e-001 2.45899677e-001 7.53376305e-001
      1.19435862e-002 8.28382373e-001 2.91372508e-001 5.82680225e-001
      4.90714639e-001 2.15220973e-001 1.90562487e-001 8.76963735e-001
      1.17386647e-001 7.17225134e-001 1.42029166e-001 3.01230494e-002
      3.08716118e-001 3.32418866e-002 5.78851104e-001 1.56039029e-001
      5.07836461e-001 4.53535467e-001 1.38454437e-001 3.68315876e-001
      4.12690222e-001 6.30916432e-002 6.92316219e-002 1.01582289e-001
      3.87553754e-003 8.42651129e-001 1.46215796e-001 5.54235131e-002
      1.14129469e-001 6.66461233e-003 3.56984168e-001 3.52817290e-002
      3.55347723e-001 2.60656148e-001 2.64421791e-001 7.32097477e-002
      2.46941477e-001 5.18574491e-002 5.10364398e-003 9.17580724e-002
      1.10624798e-001 1.31449923e-001 2.70381778e-001 4.05300140e-001
      6.66294899e-003 7.77296305e-001 1.76987741e-002 1.48172369e-002
      2.46675894e-001 1.22001119e-001 7.29273796e-001 3.80921103e-002
      3.94678041e-002 1.06308917e-002 1.26681641e-001 3.69941980e-001
      4.13359880e-001 3.74696404e-001 5.51048040e-001 3.79050642e-001
      5.21414816e-001 2.56437331e-001 2.11591065e-001 1.01542622e-001
      3.57394367e-001 1.10677004e+000 1.50671393e-001 1.51887402e-001
      1.40718808e-002 7.67771676e-002 7.57967681e-002 5.57603657e-001
      2.54352063e-001 2.99226671e-001 2.77249604e-001 1.17440677e+000
      1.64232831e-002 2.01586738e-001 2.69111723e-001 3.89116234e-003
      7.56383300e-001 3.33694182e-003 5.48729748e-002 9.50330049e-002
      4.05874848e-001 1.32526994e+000 1.38936117e-001 1.84653457e-002
      7.02108979e-001 1.98332161e-001 2.33179599e-001 8.01631868e-001
      1.23863764e-001 8.04638490e-002 9.68018651e-001 1.23618722e-001
      7.85663068e-001 1.02796805e+000 1.72424495e-001 1.91825315e-001
      3.78537341e-003 1.30502149e-001 8.30514953e-002 4.61646527e-001
      1.86322004e-001 3.84148180e-001 2.56247699e-001 1.56848475e-001
      3.00754339e-001 3.94595534e-001 1.98597252e-001 8.10072571e-003
      7.00949550e-001 1.26733825e-001 2.66251951e-001 4.26054299e-001
      2.34858647e-001 1.13420367e-001 4.94394004e-001 2.53418863e-001
      4.29189771e-001 1.21445768e-001 1.67927355e-001 5.24869896e-002
      2.65081134e-002 7.22237602e-002 1.80855170e-001 7.89347410e-001
      4.11799461e-001 4.91761088e-001 7.24778324e-002 3.45547885e-001
      3.20264697e-002 1.07127619e+000 5.53980052e-001 1.32166231e+000
      9.98162329e-002 8.26395571e-001 1.23930208e-001 3.61582041e-001
      4.90243793e-001 4.31848556e-001 3.02117169e-001 6.89997256e-001</_>
    <_>
      3.25686783e-002 2.55314946e-001 1.21131420e+000 2.08123177e-001
      5.08860424e-002 1.71671122e-001 5.56314215e-002 1.95470780e-001
      6.16556183e-002 4.61611241e-001 3.40995431e-001 2.08890602e-001
      3.87074620e-001 1.44774437e+000 4.87578176e-002 9.01543256e-003
      2.19620556e-001 2.14048922e-001 3.25360179e-001 1.93094626e-001
      9.64553535e-001 4.45410252e-001 6.42541051e-002 7.55911291e-001
      6.30446076e-002 4.82837677e-001 1.24599314e+000 4.35741805e-002
      3.26527268e-001 3.07824254e-001 4.18541208e-002 7.84025341e-002
      1.25870556e-001 1.40026420e-001 3.20263922e-001 3.41423303e-001
      1.22892097e-001 2.85190970e-001 7.58541882e-001 1.07431084e-001
      3.49416547e-002 1.27003640e-001 1.93327308e-001 1.38819024e-001
      1.36804320e-002 2.88950577e-002 1.72526389e-001 3.04257870e-001
      6.17022157e-001 2.10806385e-001 1.95353761e-001 2.56385893e-001
      5.31975210e-001 1.79011151e-001 1.99087068e-001 5.84510267e-001
      4.55527067e-001 1.50135174e-001 4.59749967e-001 6.19664192e-001
      9.22724605e-001 2.60650069e-001 4.02693525e-002 6.49471581e-002
      8.24236870e-002 3.04053813e-001 4.09653857e-002 7.26312339e-001
      6.08136179e-003 2.12174743e-001 1.16452992e-001 1.79872662e-002
      6.48287416e-001 4.08629596e-001 3.77823621e-001 1.05637586e+000
      1.16201565e-001 8.18156123e-001 4.46565568e-001 3.28506500e-001
      1.50478765e-001 1.73644319e-001 8.31796527e-001 3.72293591e-001
      1.96136266e-001 2.70346999e-001 5.71309745e-001 1.60786942e-001
      6.49018167e-003 1.49163231e-001 2.45468110e-001 6.12190545e-001
      1.29659593e-001 3.76007766e-001 1.39223197e-002 2.33287886e-002
      6.43572330e-001 4.24045533e-001 1.47273868e-001 1.56521633e-001
      1.15887463e-001 1.75985262e-001 3.22172284e-001 8.48377764e-001
      2.62698174e-001 1.28399702e-002 1.63370132e-001 1.14587200e+000
      2.87765682e-001 1.54460473e-002 1.52015656e-001 1.60843611e-001
      7.40013048e-002 3.19797903e-001 1.22987792e-001 9.96237874e-001
      3.19977105e-001 3.21540460e-002 4.07654382e-002 1.11873142e-001
      3.54869932e-001 2.67079443e-001 5.06708808e-002 1.47017226e-001
      1.38327444e+000 6.11163199e-001 1.24138248e+000 9.16252792e-001
      3.85850549e-001 4.01055366e-001 5.75146126e-003 3.85426104e-001
      1.14161365e-001 3.92540723e-001 4.52723652e-002 9.96794850e-002
      1.90473571e-002 1.71547279e-001 1.23810515e-001 1.98853925e-001
      1.72142178e-001 1.37114553e-002 2.01518983e-002 1.20618761e-001
      2.02503093e-002 8.60534787e-001 6.95783854e-001 3.16888653e-002
      9.41624958e-003 1.55779809e-001 5.37019014e-001 5.24867654e-001
      8.40910137e-001 1.85728446e-001 2.59100288e-001 1.16273329e-001
      7.54677653e-002 2.83945888e-001 5.66828728e-001 9.98148769e-002
      4.00577933e-002 3.33897546e-002 5.25449775e-002 1.11256346e-001
      8.21561217e-002 7.28744790e-002 4.01172817e-001 7.17132330e-001
      3.16274881e-001 2.79475152e-001 1.27334818e-001 2.48382375e-001
      6.01491332e-001 2.60928124e-001 8.40534806e-001 1.39552176e-001
      5.21885395e-001 2.82510996e-001 6.92493767e-002 5.49136512e-002
      1.72492176e-001 8.14051479e-002 1.23546934e-002 3.58730316e-001
      1.36658043e-001 2.25608513e-001 1.16643077e-002 6.29366636e-001
      5.65526307e-001 1.36755645e+000 2.47449845e-001 1.24802478e-001
      7.70280004e-001 1.50843799e-001 1.24319391e-002 1.08586669e+000
      8.30045119e-002 3.28026861e-001 1.28655761e-001 1.44521240e-002
      5.80842018e-001 1.12499511e+000 2.88976282e-001 2.33570948e-001
      1.76528499e-001 1.51820900e-002 2.08118949e-002 6.05716765e-001
      4.74504344e-002 2.57298239e-002 5.76851845e-001 1.79343611e-001
      8.73516142e-001 3.97202075e-001 1.46935731e-001 2.13290125e-001
      7.32924342e-001 1.17958011e-002 1.43564856e-002 5.03696322e-001
      7.17326760e-001 6.41459107e-001 3.09617016e-002 1.18769459e-001
      6.08893871e-001 3.37193608e-001 8.92135873e-002 1.38062879e-001
      1.68581024e-001 5.79041168e-002 1.10178046e-001 4.28735048e-001
      7.47625053e-001 1.38227785e+000 4.13009487e-002 7.57253263e-003
      9.57095996e-002 1.14192463e-001 1.13275647e+000 2.34069899e-001
      3.49191904e-001 1.22475266e+000 1.23547234e-001 6.23239815e-001
      5.25306463e-001 6.14908159e-001 8.62271860e-002 2.03984812e-001
      5.58844814e-003 2.09121108e-002 2.77460068e-001 4.43907052e-001
      8.94012898e-002 2.96577752e-001 7.75103509e-001 1.25302935e+000
      5.33705344e-003 7.42061734e-001 2.40774244e-001 1.90996036e-001
      9.87154841e-001 1.03941798e-001 1.48478687e-001 4.88650948e-001
      1.37546629e-001 6.58504605e-001 1.26252159e-001 3.09102330e-002
      2.73197919e-001 2.63132136e-002 1.86660916e-001 2.46860743e-001
      7.61382222e-001 1.74393311e-001 7.96220601e-002 6.15850389e-001
      2.59657115e-001 1.22727558e-001 1.96119726e-001 5.73068112e-002
      5.10597508e-003 5.37433982e-001 4.63128626e-001 4.58410569e-002
      1.23893358e-001 5.82922157e-003 4.18877691e-001 4.73430716e-002
      3.76844347e-001 1.05393030e-001 1.78944245e-001 1.59397140e-001
      5.61180353e-001 9.45860445e-002 4.22455790e-003 9.13941041e-002
      6.54482991e-002 1.30254775e-001 6.18941844e-001 4.30149466e-001
      1.39344893e-002 2.04159275e-001 7.48390192e-003 1.37017751e-002
      8.11063871e-002 9.84170586e-002 8.06541026e-001 4.03570235e-002
      1.58361811e-002 9.80534963e-003 2.02202186e-001 2.80210644e-001
      7.00927258e-001 4.78615046e-001 4.82594997e-001 3.85487795e-001
      1.55528262e-001 2.74968386e-001 5.51671326e-001 1.18560582e-001
      4.56904948e-001 5.20509601e-001 7.44912103e-002 2.77794033e-001
      1.38287488e-002 5.82569987e-002 7.70067871e-002 4.74165022e-001
      2.88019121e-001 1.46846309e-001 2.66448289e-001 6.32749200e-001
      3.55286077e-002 9.14234743e-002 2.18859836e-001 5.21324575e-003
      3.59457374e-001 4.68649343e-003 9.84633639e-002 6.70020729e-002
      2.06054330e-001 9.90200818e-001 7.68431574e-002 3.50927114e-002
      5.22586644e-001 2.76116252e-001 1.70778841e-001 7.30723858e-001
      1.41775161e-001 7.18593076e-002 9.62434113e-001 7.70400912e-002
      7.26305485e-001 6.05686486e-001 6.49350941e-001 1.29386485e-001
      4.76492336e-003 2.64944375e-001 1.08798429e-001 8.43149364e-001
      2.54636288e-001 4.84585464e-001 3.27719212e-001 2.68535823e-001
      3.79194796e-001 5.76022685e-001 1.71440229e-001 9.30735748e-003
      8.76803696e-001 6.92513287e-002 9.14476737e-002 1.41146734e-001
      2.49562711e-001 1.91236213e-001 4.66984689e-001 4.54246283e-001
      6.25749588e-001 4.75350022e-002 1.56286448e-001 1.10528037e-001
      2.03992054e-002 8.10551941e-002 3.81411761e-001 1.07949591e+000
      2.21499279e-001 2.76160330e-001 7.07640052e-002 3.50524217e-001
      5.71245365e-002 2.12108946e+000 4.44472879e-001 4.33457106e-001
      1.04775161e-001 5.05630970e-001 8.43493938e-002 5.38359582e-001
      3.83365870e-001 4.31368232e-001 5.38907886e-001 2.26396978e-001</_>
    <_>
      3.40509973e-002 2.67816573e-001 1.44778001e+000 5.35437286e-001
      4.68971729e-002 2.21212342e-001 1.17673896e-001 1.30590916e-001
      1.46915510e-001 8.01369727e-001 2.51976579e-001 5.27725995e-001
      7.82125413e-001 9.09144819e-001 3.25117819e-002 1.14263771e-002
      1.05707943e+000 3.31178039e-001 1.99962986e+000 9.30413842e-001
      5.99494576e-001 8.34991217e-001 7.30400532e-002 5.11843681e-001
      2.91839600e-001 1.06058264e+000 4.87213582e-001 7.19522536e-002
      3.84818107e-001 1.98363587e-001 5.46022616e-002 1.88024640e-001
      9.96872783e-002 1.02178313e-001 8.49674582e-001 9.41385925e-001
      1.03305027e-001 3.55318427e-001 1.43494892e+000 2.05856800e-001
      2.34437250e-002 2.96804488e-001 9.71110538e-002 2.05040529e-001
      1.31172724e-002 2.60491408e-002 3.71962130e-001 2.98373014e-001
      4.18145210e-001 1.27961028e+000 7.51158535e-001 2.53728658e-001
      1.05615509e+000 1.40763307e+000 2.83445299e-001 2.90473789e-001
      5.96170008e-001 3.29760253e-001 1.06013632e+000 9.66953516e-001
      1.77589118e+000 3.43926489e-001 5.42462207e-002 7.23302886e-002
      8.62894058e-002 3.73917490e-001 4.74115796e-002 1.31237316e+000
      6.80084713e-003 5.82144558e-001 1.38414115e-001 2.10437011e-002
      7.98698902e-001 5.90944409e-001 4.79725838e-001 5.00720322e-001
      8.29729557e-001 5.25589049e-001 2.04082072e-001 5.72835267e-001
      2.14200452e-001 2.52402842e-001 8.00263166e-001 7.92712748e-001
      2.91161060e-001 6.62849307e-001 1.65705597e+000 1.02491990e-001
      4.38118074e-003 2.61926413e-001 2.11428836e-001 5.27408063e-001
      1.05339371e-001 1.07885051e+000 1.01681873e-002 3.26982960e-002
      1.43786085e+000 2.22541198e-001 4.08500433e-001 8.93287539e-001
      8.42947483e-001 1.00922894e+000 1.13504088e+000 7.11721182e-001
      1.10001516e+000 1.49340676e-002 1.23331904e+000 9.62893069e-001
      4.49263453e-001 1.13037797e-002 1.06732234e-001 1.75004482e-001
      1.22621603e-001 9.16818917e-001 1.04175285e-001 9.46661294e-001
      5.98540008e-001 6.31769001e-002 2.01877560e-002 1.59461617e-001
      5.32098949e-001 6.52056709e-002 3.97635639e-001 8.70291412e-001
      1.72013855e+000 3.66160810e-001 1.53257155e+000 9.60361004e-001
      4.39583957e-001 1.12119472e+000 1.45826545e-002 2.05349490e-001
      1.22737065e-001 4.09449548e-001 3.85216624e-002 1.11119203e-001
      1.95667632e-002 7.31677651e-001 6.55557215e-001 2.44754478e-001
      4.02105421e-001 1.33291595e-002 5.23069464e-002 5.44793010e-002
      2.29756739e-002 7.77216077e-001 3.19536567e-001 3.48135456e-002
      1.00898137e-002 9.07607853e-001 2.08267355e+000 8.70351613e-001
      8.50649059e-001 3.41067433e-001 4.05931354e-001 1.04917943e-001
      1.10748947e-001 5.44380188e-001 4.89911914e-001 9.64535400e-002
      8.59988853e-002 4.74771224e-002 4.56514210e-001 4.52607065e-001
      8.91210362e-002 1.90905795e-001 7.01059461e-001 4.83872682e-001
      3.59798253e-001 3.66721302e-001 1.48434669e-001 7.48660028e-001
      1.55752254e+000 3.03073704e-001 9.02123034e-001 1.23558871e-001
      6.12969279e-001 9.41542029e-001 7.91571513e-002 2.94943869e-001
      2.60276437e-001 1.12177454e-001 9.32118297e-003 4.58633155e-001
      2.13139310e-001 2.11364675e+000 1.49943801e-002 1.33432472e+000
      4.06290203e-001 8.02048802e-001 2.44931355e-001 8.09966922e-001
      1.18882859e+000 1.35094553e-001 8.52094498e-003 9.13820028e-001
      9.73486081e-002 3.26145440e-001 7.09033549e-001 3.40574086e-002
      8.82969439e-001 8.88673842e-001 4.06462014e-001 1.82465911e-001
      1.01347245e-001 1.48625458e-002 1.65117346e-002 2.25723937e-001
      4.30607311e-002 4.75845113e-002 4.52560812e-001 3.80328625e-001
      4.96657968e-001 4.23958093e-001 1.14169307e-001 3.88578355e-001
      2.32515121e+000 1.14081660e-002 1.96708143e-002 7.01247990e-001
      8.88872683e-001 7.68872023e-001 2.38563940e-002 7.66321048e-002
      3.69882017e-001 4.74238634e-001 1.12865373e-001 1.46077052e-001
      2.95342624e-001 6.69146627e-002 1.22319914e-001 6.07374132e-001
      1.00006223e+000 9.18154001e-001 1.54483259e-001 7.30187120e-003
      1.25073165e-001 5.75129211e-001 9.39408779e-001 3.36414546e-001
      2.42015451e-001 2.08404326e+000 1.04837108e+000 5.83044231e-001
      2.08084059e+000 2.10571575e+000 8.07471424e-002 1.21358670e-001
      1.34374667e-002 1.63243525e-002 5.41792750e-001 8.88842046e-001
      1.49327517e-001 7.02145040e-001 4.89817828e-001 1.13715219e+000
      1.36268483e-002 1.38590360e+000 4.76449698e-001 2.38394082e-001
      1.22230184e+000 3.15473765e-001 7.47680128e-001 6.83471859e-001
      9.96974632e-002 1.18209624e+000 3.46613377e-001 4.06687409e-002
      4.88462359e-001 5.76228127e-002 1.03133571e+000 3.32377255e-001
      9.89278316e-001 7.94264674e-001 1.40286893e-001 5.56156158e-001
      4.07452077e-001 7.55145997e-002 1.20254904e-001 1.30854309e-001
      5.73718874e-003 1.06070840e+000 5.19305825e-001 1.35074362e-001
      1.13977969e-001 4.77977144e-003 4.69719052e-001 4.85750288e-002
      4.96837318e-001 1.08448766e-001 4.33081567e-001 1.46406114e-001
      3.20693940e-001 8.73649865e-002 5.13815647e-003 9.57245305e-002
      1.10103555e-001 1.26234129e-001 4.34726566e-001 5.93159616e-001
      1.59610081e-002 1.61927450e+000 1.09166857e-002 1.30807031e-002
      1.10469669e-001 1.47430196e-001 1.43479097e+000 4.60059419e-002
      3.13142911e-002 1.61831267e-002 1.18564740e-001 5.99069417e-001
      4.41956878e-001 5.55217981e-001 4.86278683e-001 5.23129940e-001
      7.57813573e-001 5.67343295e-001 1.25904703e+000 1.14779398e-001
      9.40736055e-001 1.19430459e+000 3.97364378e-001 2.00324118e-001
      1.36912176e-002 6.82122186e-002 7.84588158e-002 2.17709613e+000
      3.49028826e-001 1.72387823e-001 1.88939616e-001 2.03791404e+000
      3.33115645e-002 1.11242510e-001 1.88220978e-001 5.69554325e-003
      1.53866637e+000 4.58110124e-003 7.92819485e-002 1.69731766e-001
      5.77710390e-001 1.06229138e+000 1.13687575e-001 2.47713663e-002
      8.29426348e-001 3.89210850e-001 2.79943407e-001 1.85124743e+000
      5.41350067e-001 7.81040043e-002 5.68940878e-001 2.73217976e-001
      2.72672343e+000 1.41936052e+000 6.38821840e-001 7.88616538e-001
      4.48655197e-003 2.26365611e-001 1.11371934e-001 6.38809800e-001
      1.09857380e+000 7.56636679e-001 5.61755836e-001 1.01268220e+000
      3.31653744e-001 6.20450497e-001 5.87649941e-001 7.70704541e-003
      1.64805639e+000 1.04001291e-001 1.03812970e-001 1.94388896e-001
      6.94963753e-001 1.35117888e-001 6.96085989e-001 3.22242498e-001
      3.52140069e-001 4.86708850e-001 7.28797674e-001 9.09356847e-002
      2.35793479e-002 1.16029143e-001 6.52512074e-001 1.42624736e+000
      5.39693058e-001 1.93488514e+000 1.15911201e-001 5.16322494e-001
      6.62554502e-002 1.35391891e+000 1.18684280e+000 8.63588214e-001
      1.45841196e-001 1.09591806e+000 3.28181803e-001 1.33619678e+000
      4.14394826e-001 5.90335608e-001 4.82573509e-001 2.42124736e-001</_>
    <_>
      6.67730868e-002 3.52424324e-001 1.24230838e+000 4.64803636e-001
      5.54036424e-002 2.40031376e-001 1.33688897e-001 2.86867261e-001
      1.76494524e-001 1.01212561e+000 3.54532391e-001 2.25342944e-001
      8.10117424e-001 6.18981123e-001 5.41654006e-002 1.78378262e-002
      8.77331793e-001 1.95889860e-001 3.63832772e-001 5.83292723e-001
      1.08528113e+000 3.43903691e-001 1.15332931e-001 9.03638065e-001
      2.17312440e-001 2.19582081e-001 1.78212011e+000 1.62349179e-001
      4.76027787e-001 2.35834539e-001 5.54174408e-002 1.63356766e-001
      1.96441785e-001 2.24925563e-001 2.64316946e-001 1.21379638e+000
      1.47461563e-001 2.10770324e-001 1.04613006e+000 1.63946778e-001
      2.63146404e-002 2.08291456e-001 1.63830936e-001 1.38827458e-001
      1.52842356e-002 3.50428708e-002 4.20319229e-001 3.10667455e-001
      5.46239197e-001 7.12830067e-001 8.14519107e-001 4.18462455e-001
      8.33441079e-001 6.30068660e-001 1.66474879e-001 4.67753023e-001
      8.05547297e-001 3.71952653e-001 1.54965734e+000 1.23385322e+000
      1.59807944e+000 4.77947474e-001 6.71324134e-002 7.92579055e-002
      1.47803426e-001 3.68871510e-001 5.29339761e-002 1.41235840e+000
      6.16867468e-003 3.87262672e-001 2.31680945e-001 2.12418884e-002
      5.52049637e-001 3.38964671e-001 4.55010146e-001 2.75693923e-001
      9.55051303e-001 4.78991807e-001 5.44998288e-001 5.81814408e-001
      1.60219803e-001 1.92756385e-001 4.33656424e-001 8.03252459e-001
      5.39704144e-001 6.56263351e-001 2.30445790e+000 1.66823372e-001
      6.94556208e-003 3.81520808e-001 5.59114158e-001 4.52735126e-001
      1.71123505e-001 9.20951307e-001 2.00924315e-002 5.58354370e-002
      2.10279822e+000 5.66703856e-001 1.70433223e-001 1.02229452e+000
      2.35791788e-001 6.27912939e-001 3.22806418e-001 1.04727876e+000
      2.16257378e-001 2.04790272e-002 5.00175774e-001 6.43280685e-001
      7.52186120e-001 1.72831770e-002 1.15476973e-001 1.97153971e-001
      1.15020290e-001 3.13242078e-001 1.25811666e-001 4.57989782e-001
      3.41194391e-001 6.16069809e-002 3.94377522e-002 1.81745082e-001
      7.72307217e-001 2.26731524e-001 2.56243348e-001 5.84666252e-001
      1.16692150e+000 4.07967538e-001 7.60197639e-001 9.22467709e-001
      5.10974944e-001 7.74363935e-001 1.32202292e-002 4.64203209e-001
      1.57174021e-001 2.99965918e-001 4.26984727e-002 1.48661807e-001
      2.72471327e-002 6.24824524e-001 5.26838064e-001 3.44797462e-001
      5.37453353e-001 1.52808847e-002 6.60474822e-002 1.10923640e-001
      2.45893970e-002 1.36078429e+000 4.88293558e-001 2.60461420e-002
      1.19554624e-002 2.77571768e-001 6.19966626e-001 3.51173162e-001
      9.51595724e-001 3.08790565e-001 3.81921142e-001 1.60694867e-001
      1.41045034e-001 7.07791150e-001 4.73501265e-001 8.51543024e-002
      1.60174057e-001 5.61952628e-002 2.62254775e-001 4.28567588e-001
      1.27091348e-001 1.51986837e-001 1.25941384e+000 4.20872092e-001
      2.85971433e-001 3.53709340e-001 2.10352659e-001 3.39624822e-001
      8.88269663e-001 3.61115307e-001 1.13862813e+000 1.25655770e-001
      7.50750601e-001 7.10542381e-001 8.20204541e-002 1.83181152e-001
      1.25163585e-001 1.34890303e-001 1.73629522e-002 5.57138383e-001
      2.43320212e-001 1.32116199e+000 2.59614158e-002 1.50982690e+000
      4.05730069e-001 5.88144541e-001 3.44660878e-001 6.50555134e-001
      8.36873770e-001 1.24538802e-001 6.62589259e-003 8.16966772e-001
      9.87209827e-002 2.76934028e-001 5.99708378e-001 4.81852926e-002
      8.70226502e-001 7.95204997e-001 4.04312491e-001 9.31434333e-002
      1.73754081e-001 1.82771944e-002 2.15861611e-002 2.43570998e-001
      6.51416108e-002 3.68550569e-002 5.20083308e-001 5.34767449e-001
      1.16822362e+000 6.96071684e-001 4.52786148e-001 4.22515929e-001
      6.06249511e-001 6.55786367e-003 2.30182018e-002 8.26547444e-001
      8.69453609e-001 6.97755396e-001 2.79775076e-002 1.29173875e-001
      4.14861798e-001 4.06691194e-001 1.24637634e-001 2.13047385e-001
      3.53418142e-001 7.98606649e-002 1.70334831e-001 2.97641546e-001
      4.70415115e-001 1.22088301e+000 1.45981759e-001 1.33020971e-002
      1.66685238e-001 6.12578452e-001 8.26929152e-001 5.55151403e-001
      3.81742984e-001 1.97773719e+000 6.45948410e-001 1.30374551e+000
      6.27215922e-001 2.47148347e+000 1.12699389e-001 1.40099376e-001
      1.14039648e-002 2.18697675e-002 6.10845864e-001 8.73307645e-001
      1.67156473e-001 1.14555478e+000 4.98483598e-001 4.04871076e-001
      1.23554980e-002 1.45739686e+000 3.76270413e-001 2.27036402e-001
      1.30269289e+000 3.55737507e-001 6.91273928e-001 1.15022457e+000
      1.57090783e-001 1.30640829e+000 2.28663400e-001 4.31632809e-002
      8.35616291e-001 5.30797392e-002 9.50693011e-001 3.55604023e-001
      7.29387462e-001 4.11149383e-001 1.64671913e-001 3.35550666e-001
      3.74283522e-001 1.22765824e-001 2.16979057e-001 1.10631913e-001
      5.48451673e-003 1.03624439e+000 3.76652062e-001 1.08451158e-001
      1.49722457e-001 1.03567988e-002 2.69432455e-001 5.53600192e-002
      2.77692646e-001 1.65689558e-001 4.30245191e-001 1.75375894e-001
      5.48531294e-001 1.18603826e-001 3.96156684e-003 2.05882907e-001
      1.47951186e-001 2.09376976e-001 3.94165963e-001 7.14942038e-001
      7.84098543e-003 1.54525638e+000 1.62750967e-002 1.51246944e-002
      1.52678609e-001 1.55492157e-001 9.84058321e-001 5.76468445e-002
      4.31316271e-002 1.63620897e-002 1.37295008e-001 8.30776930e-001
      4.86773640e-001 2.90793002e-001 8.67628157e-001 3.26776505e-001
      9.69286025e-001 2.38883674e-001 2.31175050e-001 2.07091182e-001
      1.02213907e+000 2.09467411e+000 2.26899773e-001 3.88950318e-001
      1.49694365e-002 8.26054364e-002 1.32563546e-001 3.54929417e-001
      4.46092218e-001 3.62949967e-001 1.31278381e-001 2.01933980e+000
      2.40283981e-002 1.13341324e-001 2.04815805e-001 5.52970963e-003
      1.15159833e+000 5.20610437e-003 1.14353791e-001 1.34732842e-001
      7.04713225e-001 4.53637272e-001 1.41408563e-001 2.72189621e-002
      7.40822077e-001 1.77472129e-001 3.26224446e-001 9.51652050e-001
      5.43663383e-001 8.25797096e-002 5.10430932e-001 3.17857057e-001
      7.00028241e-001 1.34252632e+000 5.07821798e-001 5.45043588e-001
      5.14911255e-003 4.35404152e-001 1.49042636e-001 6.04475260e-001
      2.31574342e-001 3.05636942e-001 5.33992946e-001 2.36545607e-001
      3.11056256e-001 1.13688850e+000 4.63688761e-001 9.62776225e-003
      1.00426376e+000 1.63604721e-001 6.84313029e-002 1.88184574e-001
      2.93534905e-001 2.35371128e-001 7.21422434e-001 6.91753864e-001
      5.00684798e-001 2.20273450e-001 5.10748386e-001 1.13006324e-001
      2.46181134e-002 1.19646735e-001 4.81096506e-001 1.42616534e+000
      4.89885271e-001 1.86372960e+000 1.89529538e-001 6.43695354e-001
      8.15927908e-002 1.58248401e+000 1.27238822e+000 5.93920588e-001
      1.92115754e-001 1.68746471e+000 1.47426441e-001 1.05791295e+000
      1.77403539e-001 5.89790046e-001 8.34289730e-001 3.33010167e-001</_>
    <_>
      3.31226103e-002 1.97699159e-001 1.58788013e+000 3.39830518e-001
      3.02358363e-002 3.58043253e-001 1.67520061e-001 1.19339451e-001
      1.39532685e-001 4.70529377e-001 1.69845983e-001 5.30969381e-001
      3.97047490e-001 4.97656912e-001 1.61526706e-002 6.55415356e-002
      5.36352932e-001 2.02640459e-001 1.68618572e+000 5.78674316e-001
      3.20500016e-001 7.52931237e-001 5.87618500e-002 2.31203094e-001
      6.85438961e-002 7.39387989e-001 7.28219092e-001 3.44477117e-001
      3.86303931e-001 5.68058118e-002 7.45829269e-002 1.37758896e-001
      8.01266581e-002 2.32072100e-001 2.69889653e-001 3.19472373e-001
      1.69878408e-001 4.29937720e-001 1.12462926e+000 1.31083652e-001
      2.34911609e-002 1.21791445e-001 1.51739731e-001 5.82501069e-002
      7.96798989e-003 2.06353106e-002 2.68016130e-001 2.93774426e-001
      3.84065509e-001 5.82899928e-001 3.66458029e-001 2.99199492e-001
      4.16260481e-001 4.45719957e-001 3.56617659e-001 1.04941928e+000
      4.84786749e-001 4.36934114e-001 1.03035831e+000 9.27243769e-001
      1.86806476e+000 1.54667214e-001 3.70720811e-002 5.08201495e-002
      1.02680244e-001 1.86827004e-001 4.81945947e-002 1.43578172e+000
      5.41148055e-003 6.22172832e-001 2.36195043e-001 1.54162226e-002
      3.98777425e-001 4.39812958e-001 2.51506299e-001 2.14493021e-001
      4.61101025e-001 6.42684579e-001 3.30516100e-001 2.94625431e-001
      1.50648013e-001 2.00574160e-001 1.92711368e-001 9.72767830e-001
      2.99480647e-001 4.74868298e-001 1.77182400e+000 8.83786902e-002
      3.32771079e-003 1.83299884e-001 3.95659506e-001 1.47225153e+000
      1.00716352e-001 8.45732629e-001 7.81916827e-003 1.77525237e-001
      1.40957165e+000 3.22469652e-001 2.64659673e-001 8.15987110e-001
      9.53254774e-002 5.89281917e-001 6.17796600e-001 1.34304857e+000
      2.17569217e-001 1.19791059e-002 2.17734978e-001 3.16756785e-001
      6.55826926e-001 1.08350953e-002 9.01941359e-002 1.85334399e-001
      7.99473524e-002 2.89021015e-001 9.39442441e-002 1.78973114e+000
      7.12900460e-001 6.80607334e-002 2.29828179e-001 1.14270866e-001
      4.60426658e-001 1.86592788e-001 1.88535795e-001 1.42149925e-001
      2.16021633e+000 5.62413745e-002 1.27428555e+000 4.13269669e-001
      5.13804734e-001 6.68909371e-001 1.46681452e-002 5.52109063e-001
      6.56214878e-002 5.53310096e-001 3.30845006e-002 1.10203736e-001
      4.38831747e-002 6.16602123e-001 3.88513237e-001 2.23967955e-001
      1.87165886e-001 7.96309114e-003 3.20551023e-002 9.23379362e-002
      1.91263575e-002 7.31316686e-001 9.01322141e-002 2.64978297e-002
      9.11153201e-003 7.28208840e-001 1.99748003e+000 6.20038092e-001
      7.74748921e-001 3.24994355e-001 4.05906528e-001 7.27635175e-002
      8.43945518e-002 4.20313150e-001 5.13042986e-001 9.18753743e-002
      3.08253586e-001 2.77448706e-002 1.91845059e-001 1.24830775e-001
      6.61790892e-002 1.54263720e-001 6.03226006e-001 5.13534904e-001
      5.15201747e-001 1.85666487e-001 1.14018559e-001 3.77101123e-001
      7.27698147e-001 3.51611376e-001 6.62399471e-001 9.56078768e-002
      6.62193000e-001 5.87990522e-001 5.33249825e-002 1.31192014e-001
      7.06339106e-002 6.24033622e-002 4.16650698e-002 1.72436166e+000
      1.44014850e-001 3.46800119e-001 2.63629649e-002 1.44583368e+000
      7.76033551e-002 3.76412749e-001 2.01341942e-001 2.55637914e-001
      1.53657377e+000 9.16962922e-002 9.22662672e-003 2.85394400e-001
      8.99790898e-002 1.51578474e+000 2.68329263e-001 2.60060132e-002
      3.14518213e-001 4.71090376e-001 2.85393625e-001 9.59777087e-002
      1.80239454e-001 1.07325232e-002 1.95098259e-002 1.30759275e+000
      3.69658731e-002 2.42590755e-002 3.53470147e-001 2.33064681e-001
      5.62328637e-001 4.95405644e-001 1.75477773e-001 2.42083520e-001
      1.50192416e+000 9.13146883e-003 1.46836666e-002 1.16233921e+000
      1.00542450e+000 2.10569835e+000 2.27542818e-002 9.22492221e-002
      5.38453013e-002 2.06507280e-001 1.48132131e-001 1.10773474e-001
      1.05598092e-001 5.66317253e-002 1.13041803e-001 7.28370368e-001
      3.56171310e-001 9.30351019e-001 7.74543285e-002 1.00414352e-002
      1.14590161e-001 1.40929773e-001 6.81592286e-001 1.99264720e-001
      1.07104778e+000 1.04450357e+000 3.65656674e-001 3.85755360e-001
      2.36228991e+000 1.42469573e+000 5.65656573e-002 3.60148661e-002
      1.17535628e-002 1.95883159e-002 3.15105021e-001 3.12261224e-001
      6.87974393e-002 3.72599095e-001 5.02182782e-001 5.45475602e-001
      1.42644923e-002 1.74222159e+000 5.48439622e-001 1.84936598e-001
      1.29713631e+000 1.35430261e-001 5.69806278e-001 4.51845020e-001
      1.00751147e-001 5.76721489e-001 1.76048517e-001 4.21520211e-002
      3.79177600e-001 3.13520320e-002 6.46352947e-001 1.95724681e-001
      3.82706344e-001 4.94631052e-001 9.30408686e-002 2.36352414e-001
      1.54516923e+000 7.69716874e-002 2.34554589e-001 4.59801704e-002
      4.80336277e-003 2.71701157e-001 2.74753243e-001 1.19169228e-001
      2.04726905e-001 8.85318965e-003 4.78858054e-001 6.91287741e-002
      1.78186625e-001 7.65350163e-002 2.65092283e-001 1.41596764e-001
      7.09192514e-001 6.29471466e-002 4.31114994e-003 1.43754885e-001
      4.29210588e-002 1.49220675e-001 3.08609903e-001 6.13371670e-001
      7.99638126e-003 4.85006094e-001 1.45775126e-002 8.05160031e-003
      1.17189430e-001 1.05730921e-001 1.14696610e+000 3.10890824e-002
      2.35587303e-002 1.56835113e-002 2.55582660e-001 7.41207302e-001
      1.21466565e+000 1.95466727e-001 7.18180954e-001 7.19580352e-001
      8.18761170e-001 3.49972844e-001 3.02969396e-001 1.08306162e-001
      8.27480257e-001 7.66078293e-001 7.09961802e-002 2.76466548e-001
      8.35868157e-003 5.49256839e-002 5.93210720e-002 1.43750215e+000
      3.01374614e-001 1.72996402e-001 1.42886266e-001 3.81267875e-001
      2.06690431e-002 8.24437216e-002 1.80977792e-001 4.83950134e-003
      4.63506401e-001 3.63869290e-003 5.35242371e-002 1.23024359e-001
      2.77576685e-001 4.67782050e-001 8.14255252e-002 2.37134043e-002
      4.74884927e-001 5.33736467e-001 1.57996520e-001 1.72036505e+000
      6.61754966e-001 5.00749610e-002 1.37724888e+000 1.63193539e-001
      1.96353006e+000 1.35482633e+000 1.27558923e+000 5.50897837e-001
      3.35895969e-003 4.04285222e-001 1.03548862e-001 6.73533678e-001
      2.38909811e-001 4.91173148e-001 3.48339021e-001 1.47258282e-001
      2.40835011e-001 1.06054509e+000 1.47708610e-001 8.64438340e-003
      9.29255128e-001 8.22393969e-002 6.20758198e-002 1.74954876e-001
      5.48783183e-001 6.68442473e-002 5.85519075e-001 3.12057346e-001
      9.32119489e-001 1.51307061e-001 5.37056863e-001 1.30520850e-001
      1.89764090e-002 5.66044636e-002 4.17171806e-001 7.35545158e-001
      3.77793074e-001 2.95067936e-001 1.33749411e-001 4.47783858e-001
      4.03036401e-002 1.02117395e+000 9.33448970e-001 3.45580339e-001
      1.45286307e-001 9.57598388e-001 1.16140671e-001 5.51580250e-001
      2.85399377e-001 1.13696873e+000 8.77497196e-001 2.53932208e-001</_>
    <_>
      4.28988189e-002 2.60116458e-001 9.93880808e-001 2.26582736e-001
      2.98037715e-002 1.99406579e-001 8.68586898e-002 2.54304022e-001
      1.07664883e-001 6.40311599e-001 3.22616756e-001 3.08946073e-001
      2.50447839e-001 1.04466701e+000 2.58840788e-002 1.84546486e-002
      4.16360617e-001 1.14993811e-001 4.59020823e-001 3.38767678e-001
      5.41016757e-001 3.65326703e-001 4.25954014e-002 3.33864182e-001
      1.03069052e-001 3.15634459e-001 5.79069138e-001 1.31800964e-001
      4.19831067e-001 3.08921516e-001 3.45593691e-002 9.76483971e-002
      9.93407816e-002 2.00942904e-001 2.67353833e-001 6.23305917e-001
      8.34749937e-002 2.03010440e-001 1.10962725e+000 1.18627422e-001
      3.15782726e-002 1.02573887e-001 1.97930679e-001 1.85010985e-001
      1.12383245e-002 4.05596122e-002 3.41088682e-001 2.84469366e-001
      3.36327881e-001 7.06355453e-001 4.22882646e-001 2.82379895e-001
      6.67448997e-001 3.58837664e-001 1.14983276e-001 3.94678324e-001
      3.83621424e-001 2.51447558e-001 1.03932619e+000 7.02389419e-001
      1.05723631e+000 2.52011776e-001 5.15012108e-002 7.22758621e-002
      9.19925421e-002 3.01955611e-001 3.35522331e-002 1.12506449e+000
      4.09985939e-003 4.03045923e-001 1.62625268e-001 1.44607387e-002
      3.23670089e-001 3.42347533e-001 4.42972928e-001 8.79184186e-001
      5.20582259e-001 4.11374569e-001 3.71747226e-001 4.17123437e-001
      2.10909039e-001 3.08541656e-001 7.74856806e-001 4.41616833e-001
      2.67859876e-001 3.41586143e-001 1.43083405e+000 1.21874340e-001
      4.66169650e-003 2.90371507e-001 3.79277915e-001 9.78531241e-001
      1.33531049e-001 6.12798989e-001 1.24284029e-002 4.61409874e-002
      8.97538126e-001 3.19388896e-001 8.95275325e-002 6.37990296e-001
      2.30321229e-001 4.65275079e-001 2.63454676e-001 3.07318479e-001
      2.30604559e-001 1.44213736e-002 3.94875675e-001 9.14008617e-001
      3.70992541e-001 1.43670551e-002 1.71351850e-001 3.02653551e-001
      9.90432426e-002 2.24700004e-001 1.37424633e-001 3.18264782e-001
      4.36129272e-001 2.97651161e-002 4.11530994e-002 8.93673897e-002
      3.29889029e-001 1.65610686e-001 1.43782437e-001 2.40615070e-001
      8.92336249e-001 4.06997561e-001 9.19029772e-001 5.30890584e-001
      1.93172455e-001 5.11732996e-001 7.31734140e-003 3.88093710e-001
      6.11308329e-002 3.16625744e-001 2.95107942e-002 7.28041083e-002
      2.86252033e-002 3.72140378e-001 3.08964938e-001 2.12983310e-001
      3.43622506e-001 1.13845589e-002 3.38638425e-002 9.84382778e-002
      2.49000639e-002 8.48177016e-001 6.69691503e-001 2.33374573e-002
      1.09341666e-002 3.91705155e-001 6.84866726e-001 7.37621069e-001
      1.01577890e+000 2.54388720e-001 4.01311189e-001 1.37241304e-001
      1.03286505e-001 6.64549053e-001 4.36378896e-001 6.63218573e-002
      1.28360480e-001 3.62985320e-002 1.61281645e-001 1.93927750e-001
      7.66627863e-002 1.08760484e-001 6.38296187e-001 4.93056893e-001
      5.99771380e-001 3.06981027e-001 8.62620398e-002 2.59162009e-001
      6.53789222e-001 3.62547666e-001 1.28159761e+000 1.85424313e-001
      5.32770395e-001 4.15361553e-001 7.51222447e-002 9.82476398e-002
      1.95470110e-001 8.19786415e-002 2.33234335e-002 1.07710242e+000
      9.55529213e-002 4.94436711e-001 2.54448969e-002 1.30787599e+000
      4.73284960e-001 7.24732995e-001 2.00542986e-001 2.99886525e-001
      6.13556027e-001 1.87710151e-001 1.24692488e-002 1.11298633e+000
      5.72422706e-002 1.03088796e+000 2.80248255e-001 1.99196972e-002
      5.51636219e-001 9.79649246e-001 2.62526542e-001 1.43661395e-001
      1.09254725e-001 1.52285164e-002 1.51931429e-002 5.05195737e-001
      4.78158295e-002 2.06863284e-002 5.34020782e-001 1.26432106e-001
      1.43409085e+000 3.72145444e-001 1.80821091e-001 1.65339932e-001
      7.07958639e-001 1.06447265e-002 1.38119375e-002 6.42368019e-001
      3.69218707e-001 1.22134030e+000 3.49522531e-002 5.78781106e-002
      4.36721861e-001 5.42918563e-001 1.72540188e-001 8.63253400e-002
      1.34695977e-001 7.16723502e-002 9.15195346e-002 3.08498830e-001
      4.26398486e-001 8.57875109e-001 9.34564918e-002 1.32254688e-002
      8.80699232e-002 2.16568708e-001 4.65999007e-001 2.45320439e-001
      3.72873187e-001 1.20489109e+000 4.94352937e-001 3.92716110e-001
      6.89428151e-001 1.23303235e+000 6.41600862e-002 1.53775528e-001
      7.56864808e-003 1.48613630e-002 2.73156196e-001 4.66160625e-001
      1.06486537e-001 8.51261735e-001 4.34636861e-001 1.22560608e+000
      7.37221725e-003 9.42929268e-001 3.33607912e-001 1.49370641e-001
      9.68320549e-001 2.29719520e-001 2.65120000e-001 9.89876390e-001
      8.39350522e-002 7.27639973e-001 1.22350551e-001 3.01807653e-002
      3.67967606e-001 3.31909917e-002 4.08239990e-001 1.95356473e-001
      6.53787494e-001 3.62384021e-001 7.37724677e-002 2.00149536e-001
      9.29118991e-001 8.96697417e-002 1.62687466e-001 8.72663930e-002
      4.05696128e-003 1.16815710e+000 3.84856462e-001 9.19193625e-002
      1.13304369e-001 8.33098870e-003 3.16737056e-001 3.45963202e-002
      7.59704888e-001 7.01827183e-002 4.03627127e-001 1.44603342e-001
      3.85924995e-001 1.24218069e-001 3.50801297e-003 1.14123940e-001
      4.18335423e-002 1.09717049e-001 3.20983678e-001 2.86895186e-001
      1.37255769e-002 7.46797085e-001 1.16262008e-002 1.11878887e-002
      8.93277004e-002 1.00184597e-001 8.31772566e-001 4.45911475e-002
      1.55902710e-002 1.18193980e-002 8.58253017e-002 5.32103121e-001
      7.58504808e-001 9.95602548e-001 4.22020048e-001 3.23353291e-001
      6.72517359e-001 2.04730019e-001 4.11900908e-001 1.00268655e-001
      5.21616697e-001 1.15814817e+000 1.09996907e-001 2.72342265e-001
      1.14661492e-002 7.42598325e-002 7.40443468e-002 3.99637848e-001
      2.87166744e-001 2.53987342e-001 3.26239586e-001 9.17060494e-001
      3.63310501e-002 9.61562097e-002 3.69150132e-001 4.09787009e-003
      7.61390865e-001 4.09857463e-003 1.18233778e-001 9.14444104e-002
      4.05257255e-001 8.48666430e-001 7.56096095e-002 3.38296592e-002
      3.65432024e-001 1.27012447e-001 1.62328154e-001 9.95926142e-001
      1.83064595e-001 7.91631415e-002 4.51807648e-001 1.74763873e-001
      7.65282750e-001 9.72268999e-001 1.09941316e+000 2.15481400e-001
      3.77193955e-003 1.87128291e-001 1.20380461e-001 4.61051077e-001
      1.96297511e-001 3.30264121e-001 4.32689309e-001 2.26698816e-001
      3.93552780e-001 6.67322457e-001 2.90005893e-001 1.04382215e-002
      8.34308624e-001 5.92820011e-002 9.62661505e-002 1.21118166e-001
      3.52230042e-001 1.39850095e-001 4.85740572e-001 3.85966539e-001
      8.00073981e-001 1.36797503e-001 2.81916112e-001 8.64904970e-002
      2.48211157e-002 7.92478621e-002 4.08064723e-001 8.29188108e-001
      2.91540414e-001 5.24582803e-001 1.36870503e-001 3.15889269e-001
      4.05993462e-002 1.15661681e+000 7.17719555e-001 8.93183172e-001
      1.25216678e-001 1.05243027e+000 8.79081860e-002 7.54114687e-001
      5.05869150e-001 2.82830000e-001 4.93281573e-001 3.29886794e-001</_>
    <_>
      1.42825797e-001 2.97091305e-001 1.55631077e+000 2.41364434e-001
      7.30628669e-002 4.28913593e-001 9.31903720e-002 3.19787771e-001
      1.04437672e-001 1.40869045e+000 9.55313519e-002 3.27667385e-001
      2.34722495e-001 2.26098776e-001 3.66126858e-002 1.36905201e-002
      4.83210027e-001 3.53793234e-001 5.42673290e-001 1.91739067e-001
      9.65117514e-001 6.13458693e-001 1.10379092e-001 3.74957412e-001
      1.88881829e-001 1.03003740e+000 1.53540850e+000 8.70677084e-002
      1.94286913e-001 6.07093275e-001 4.37503047e-002 1.58240974e-001
      2.87209034e-001 2.13720620e-001 3.13116282e-001 4.39351261e-001
      1.49344519e-001 2.53150582e-001 3.77178222e-001 2.35024884e-001
      1.34235350e-002 2.60723323e-001 3.49174112e-001 1.56068277e+000
      2.47520320e-002 6.28528818e-002 4.29464251e-001 1.87225863e-001
      3.72415990e-001 3.61919880e-001 3.74298722e-001 3.98059964e-001
      1.03521478e+000 1.72911048e+000 1.68454170e-001 6.45513654e-001
      4.01562214e-001 1.97634369e-001 7.12515533e-001 1.04633653e+000
      1.58797240e+000 5.88051498e-001 3.76630574e-002 2.25509122e-001
      7.75119513e-002 1.90570772e-001 4.24924344e-002 7.47089386e-001
      3.09894327e-003 4.57430840e-001 3.76758665e-001 6.07162453e-002
      4.09970701e-001 9.65471923e-001 2.70732284e-001 3.45538855e-001
      8.83519590e-001 5.33044100e-001 6.30450964e-001 3.94188523e-001
      2.91193336e-001 1.40320644e-001 8.06895375e-001 6.89053535e-001
      2.19620526e-001 2.51936972e-001 1.11415434e+000 8.49848241e-002
      5.11142472e-003 3.91372949e-001 5.56706846e-001 6.47849560e-001
      1.35779321e-001 5.83952248e-001 1.54680628e-002 3.65621485e-002
      1.46294010e+000 4.31030661e-001 2.41337746e-001 5.18786728e-001
      3.00613463e-001 2.52651066e-001 3.20301175e-001 2.07788062e+000
      3.13767016e-001 1.30872810e-002 4.61389929e-001 4.07935619e-001
      6.69968784e-001 1.40551887e-002 5.98552600e-002 1.70023054e-001
      1.03658415e-001 3.26664358e-001 8.22244287e-002 7.46702969e-001
      5.91237605e-001 3.99462916e-002 3.35198864e-002 1.04105413e-001
      2.53856182e-001 2.33215526e-001 4.45762813e-001 3.13064486e-001
      7.66552508e-001 1.57379913e+000 9.38567102e-001 9.16728079e-001
      1.47294497e+000 7.52412200e-001 9.81499813e-003 3.38424444e-001
      7.74773732e-002 2.58165300e-001 6.71141371e-002 1.19957030e-001
      5.57814538e-002 3.60055208e-001 3.16975951e-001 2.40993589e-001
      4.33014333e-001 2.53724158e-002 5.70220053e-002 5.33796027e-002
      8.23007822e-002 9.26093638e-001 1.21910644e+000 3.86327095e-002
      1.74771603e-002 1.87417597e-001 7.28350461e-001 9.79152262e-001
      3.48771989e-001 2.23433211e-001 1.82947564e+000 1.14936568e-001
      8.38070959e-002 9.38963890e-001 4.40539092e-001 1.24641046e-001
      8.75210986e-002 2.24563926e-002 4.55487043e-001 2.87068725e-001
      8.65587816e-002 1.11818619e-001 8.45455825e-001 7.53871799e-001
      3.24310780e-001 1.92494214e-001 1.24372572e-001 2.08898753e-001
      9.88536596e-001 9.70522344e-001 1.22691262e+000 6.77864254e-002
      1.97896910e+000 3.33667994e-001 2.33658507e-001 4.61762339e-001
      6.73844337e-001 1.09822899e-001 1.42114293e-002 9.77014363e-001
      5.08303523e-001 4.78786021e-001 1.81233305e-002 8.21340621e-001
      1.41131485e+000 3.22414726e-001 2.43328154e-001 2.50007600e-001
      3.55165869e-001 5.34544885e-002 4.36181063e-003 1.38114345e+000
      1.87667742e-001 8.97697091e-001 2.83915401e-001 3.36813517e-002
      2.26223290e-001 8.87273848e-001 1.62591100e-001 1.86971918e-001
      6.84444681e-002 1.40208658e-002 2.02293731e-002 3.18218797e-001
      3.46765965e-002 2.99656354e-002 2.72865474e-001 3.02850157e-001
      1.09452033e+000 4.62262064e-001 1.14622958e-001 2.81501412e-001
      7.39873588e-001 6.57561980e-003 1.53704602e-002 3.32169533e-001
      1.18046629e+000 6.88142061e-001 1.46275191e-002 1.32513285e-001
      1.55837345e+000 3.90379548e-001 1.53645858e-001 9.20766369e-002
      1.23515487e+000 2.04102904e-001 1.21871568e-001 7.78918743e-001
      2.28354406e+000 6.65713966e-001 7.66394064e-002 1.62996165e-002
      1.63098618e-001 3.33057642e-001 8.89578342e-001 3.58509153e-001
      7.39357710e-001 1.00736570e+000 3.45779687e-001 8.24331105e-001
      8.59516740e-001 4.74952549e-001 1.09635770e-001 2.59247392e-001
      1.38024483e-002 1.97325572e-002 3.77703726e-001 2.86093265e-001
      9.48916003e-002 9.81629908e-001 6.94287479e-001 5.52290082e-001
      8.72350857e-003 1.03713429e+000 1.97450027e-001 7.40152717e-001
      1.47374642e+000 2.14786842e-001 2.79861331e-001 9.61312056e-001
      1.35740444e-001 1.11049223e+000 1.65312544e-001 5.21406792e-002
      3.20185572e-001 3.83910164e-002 4.97850120e-001 1.55838102e-001
      5.38747787e-001 2.68222511e-001 1.29473299e-001 1.03489029e+000
      1.10376763e+000 1.43729731e-001 1.41613603e-001 1.02506727e-001
      3.73603753e-003 6.41094089e-001 2.79944450e-001 7.00629801e-002
      1.18512772e-001 8.28024838e-003 2.79867977e-001 6.52706921e-002
      6.77798569e-001 3.86705250e-001 1.10359877e-001 1.61337763e-001
      6.54452622e-001 1.72169119e-001 1.57843363e-002 2.12761372e-001
      1.05138078e-001 2.02465087e-001 5.37458181e-001 1.83226216e+000
      1.28662735e-002 7.54251063e-001 2.37906836e-002 2.47281585e-002
      4.94849354e-001 2.18754217e-001 5.38026989e-001 3.70544530e-002
      3.86081152e-002 1.38454875e-002 7.03567192e-002 2.63735890e-001
      7.10127592e-001 7.94802666e-001 2.62647092e-001 1.84552789e+000
      4.66847420e-001 1.67928636e-001 4.66938227e-001 7.44987875e-002
      6.06642127e-001 1.14454818e+000 2.26665571e-001 3.27223718e-001
      2.61610411e-002 1.96223795e-001 7.00470060e-002 8.16169202e-001
      5.40979803e-001 3.65510970e-001 3.88984442e-001 1.17357194e+000
      2.80962382e-002 4.78179157e-001 2.83310980e-001 3.83763039e-003
      6.75034583e-001 3.34489648e-003 1.74670681e-001 7.06731156e-002
      5.66749811e-001 1.41870379e+000 1.79127470e-001 1.33889038e-002
      4.98392761e-001 1.93643734e-001 1.53749153e-001 3.86594951e-001
      4.37539965e-001 2.30921477e-001 8.95273447e-001 4.56472456e-001
      7.62140989e-001 7.92003214e-001 7.02502310e-001 2.94862717e-001
      3.46482312e-003 5.24508417e-001 1.31590545e-001 5.93528450e-001
      2.98541605e-001 2.26830080e-001 4.89025831e-001 3.13852131e-001
      4.86217618e-001 7.24626362e-001 2.71300465e-001 5.43606235e-003
      6.17278397e-001 1.18941262e-001 5.05068779e-001 8.14310610e-001
      2.26864442e-001 1.17558710e-001 1.40323579e+000 4.41543549e-001
      6.62536085e-001 4.37026471e-001 3.73910934e-001 1.13115229e-001
      8.37934911e-002 1.38527274e-001 6.16440058e-001 2.20516586e+000
      3.21509212e-001 5.72711229e-001 1.16846085e-001 1.04008663e+000
      7.02494904e-002 6.05993509e-001 1.33961022e+000 3.37215573e-001
      1.26665220e-001 3.75416726e-001 2.26630256e-001 1.55373216e+000
      9.97838378e-001 2.77819037e-001 7.66300917e-001 1.85518897e+000</_>
    <_>
      5.19771762e-002 2.56876796e-001 2.57531714e+000 4.21057135e-001
      3.86227295e-002 1.40196770e-001 8.88222679e-002 1.24661110e-001
      9.85657349e-002 1.11738002e+000 1.41857773e-001 4.87623096e-001
      2.67006248e-001 1.48901665e+000 3.22552770e-002 8.81282985e-003
      6.61096573e-001 2.59161323e-001 3.29694033e-001 2.67561883e-001
      4.08351630e-001 3.28820169e-001 4.70060594e-002 2.63497233e-001
      1.49766296e-001 3.33501488e-001 5.14928043e-001 8.23004097e-002
      4.08518285e-001 1.38729975e-001 2.88085118e-002 1.30844533e-001
      1.11082442e-001 1.41997188e-001 3.46593142e-001 2.86696911e-001
      7.12887123e-002 2.99441427e-001 9.26117659e-001 1.49522811e-001
      2.06026267e-002 1.70686841e-001 2.15583250e-001 3.96072239e-001
      1.23158516e-002 1.80810671e-002 3.06631714e-001 4.55026537e-001
      4.97986257e-001 7.72836089e-001 4.59960967e-001 2.85727382e-001
      9.39050972e-001 7.37751365e-001 1.70780465e-001 2.26157293e-001
      4.66052204e-001 2.13188156e-001 1.69346547e+000 8.06972086e-001
      2.35346317e+000 2.46234283e-001 4.23514470e-002 4.74118665e-002
      1.08325042e-001 1.31786421e-001 3.79003882e-002 1.44631147e+000
      4.95951623e-003 4.73904341e-001 1.90959945e-001 1.35176945e-002
      4.59965885e-001 4.18055475e-001 1.22868955e+000 5.88981807e-001
      8.75073791e-001 1.22462459e-001 6.52476668e-001 3.00452054e-001
      1.19702324e-001 1.55223161e-001 3.62069458e-001 3.38226020e-001
      4.04970020e-001 4.65842605e-001 1.87301779e+000 1.45533755e-001
      3.76509479e-003 2.08919942e-001 1.18132129e-001 2.36813635e-001
      1.49523005e-001 9.94033933e-001 9.17737186e-003 2.73694508e-002
      1.23654807e+000 4.63447064e-001 1.08600326e-001 3.32374215e-001
      1.92071810e-001 3.47560436e-001 2.11324394e-001 4.90483671e-001
      2.11580589e-001 1.47482669e-002 1.03332579e+000 1.17776656e+000
      4.96395379e-001 1.51037993e-002 8.51753056e-002 1.44562066e-001
      1.02937549e-001 3.48446816e-001 1.18140563e-001 5.38834155e-001
      4.99474287e-001 3.92829925e-002 1.89158842e-002 1.39753222e-001
      1.59054309e-001 1.75394654e-001 2.12774411e-001 1.56641901e-001
      8.82596076e-001 2.12034687e-001 7.94771791e-001 1.49760127e+000
      3.28511238e-001 7.41366863e-001 1.16990032e-002 2.30522767e-001
      7.56435394e-002 4.35541689e-001 2.60207448e-002 8.12467188e-002
      1.36359520e-002 5.49829006e-001 4.25731003e-001 2.69783854e-001
      3.28324080e-001 1.24251964e-002 4.43628579e-002 5.81500977e-002
      1.30948704e-002 8.94041061e-001 3.14845502e-001 2.98698936e-002
      1.13292998e-002 2.08051816e-001 5.05301058e-001 6.33682489e-001
      6.30114019e-001 2.35266730e-001 4.77388501e-001 9.30447578e-002
      7.13574886e-002 8.37789774e-001 6.77564621e-001 8.33737627e-002
      7.95568973e-002 4.52962220e-002 2.53771722e-001 3.78643900e-001
      1.11285761e-001 1.47074625e-001 4.73456472e-001 5.92922091e-001
      1.99788317e-001 1.51113972e-001 1.20409504e-001 4.00329649e-001
      1.16280639e+000 5.08801222e-001 1.16808653e+000 8.92758965e-002
      9.53609884e-001 6.31362617e-001 4.77288999e-002 2.04606488e-001
      1.14520140e-001 1.05368108e-001 1.08605539e-002 8.53908181e-001
      1.90252900e-001 2.33575627e-001 1.73426066e-002 1.40210366e+000
      1.82306781e-001 1.28044856e+000 2.79455513e-001 2.36890018e-001
      8.85331213e-001 9.53823254e-002 8.65498185e-003 8.43113661e-001
      4.96040247e-002 4.78264272e-001 3.22172642e-001 3.27009819e-002
      3.75188738e-001 1.71634245e+000 3.80322665e-001 3.90228748e-001
      1.10310704e-001 1.58927739e-002 1.69908442e-002 1.74777940e-001
      4.41761389e-002 3.56750377e-002 1.97455183e-001 1.89198047e-001
      1.00950933e+000 3.41724724e-001 3.96087170e-001 3.57004613e-001
      6.59303606e-001 2.21000556e-002 1.54742114e-002 6.27547622e-001
      6.09033644e-001 2.87319332e-001 2.24885400e-002 6.09221980e-002
      1.94104135e-001 6.62094653e-001 1.27487436e-001 1.14393018e-001
      1.02788538e-001 2.97081638e-002 1.01375043e-001 6.18300200e-001
      1.74699426e+000 3.59235644e-001 6.98433965e-002 8.93044192e-003
      9.23776254e-002 4.88030344e-001 1.05192089e+000 6.15545690e-001
      3.78089488e-001 8.94253075e-001 2.30909973e-001 3.35506350e-001
      4.56076890e-001 8.83685172e-001 7.86812827e-002 1.62322447e-001
      9.79675353e-003 1.71625204e-002 5.11706591e-001 3.43356162e-001
      6.48886785e-002 7.96451271e-001 1.76973015e-001 9.78718340e-001
      1.09917996e-002 2.55115271e+000 5.73592424e-001 5.00325747e-002
      1.29524851e+000 1.01586990e-001 2.16190740e-001 7.66521871e-001
      1.01240642e-001 8.69038522e-001 1.97195545e-001 4.11276929e-002
      3.13516527e-001 5.00098318e-002 8.07420790e-001 3.91335249e-001
      4.98928845e-001 3.24908078e-001 7.69900084e-002 1.25195324e+000
      4.84942019e-001 9.11403745e-002 1.38759449e-001 9.60790664e-002
      4.41858405e-003 7.79771626e-001 5.57187676e-001 9.17436182e-002
      7.29730129e-002 5.63150225e-003 4.79958087e-001 4.46190611e-002
      5.22632062e-001 3.68050672e-002 1.93209335e-001 9.59866568e-002
      1.62540525e-001 5.82639910e-002 4.19140374e-003 1.07255742e-001
      9.93660688e-002 1.30725265e-001 2.08381921e-001 5.53395092e-001
      2.84980927e-002 1.02238333e+000 9.48744826e-003 1.23751024e-002
      6.22795895e-002 1.21752985e-001 1.28020763e+000 4.68820184e-002
      2.81412769e-002 1.32342353e-002 1.08429819e-001 4.78100091e-001
      3.05852145e-001 5.25639117e-001 3.56637955e-001 6.00247443e-001
      4.81329829e-001 2.91932434e-001 3.38402927e-001 9.93484482e-002
      5.46760559e-001 8.16908062e-001 3.30486625e-001 4.16924506e-001
      1.29155647e-002 2.87248436e-002 7.02054054e-002 3.08536142e-001
      2.52400339e-001 8.68785903e-002 3.37062210e-001 3.62659067e-001
      7.43810609e-002 7.66059458e-002 3.80362302e-001 4.51562786e-003
      1.19028795e+000 4.44715424e-003 5.54413013e-002 1.01807289e-001
      7.49866307e-001 1.80917156e+000 8.35760534e-002 2.23829392e-002
      6.94459438e-001 1.75120816e-001 1.38823286e-001 7.88547397e-001
      2.65376717e-001 4.85957041e-002 5.85430503e-001 2.70312965e-001
      5.05546331e-001 5.22522151e-001 3.58104020e-001 2.39478171e-001
      4.35213652e-003 1.81043118e-001 1.44380540e-001 1.35904640e-001
      2.34598473e-001 4.56805468e-001 3.92755955e-001 2.35443845e-001
      2.33829886e-001 5.61620593e-001 2.50967622e-001 6.93432335e-003
      7.18656242e-001 5.82089759e-002 4.43321392e-002 8.83183181e-002
      5.00895619e-001 1.19225107e-001 7.67594278e-001 3.57497722e-001
      2.25544065e-001 2.54574925e-001 2.37708062e-001 7.72581697e-002
      1.43224848e-002 8.18988755e-002 5.67519486e-001 2.24479699e+000
      4.99097854e-001 3.48577112e-001 1.46760643e-001 4.69762862e-001
      3.40864733e-002 1.43324053e+000 1.06475353e+000 1.47305107e+000
      1.32705778e-001 1.62123621e+000 8.81401598e-002 1.16016543e+000
      5.61795592e-001 3.23637784e-001 4.27771509e-001 2.11900517e-001</_>
    <_>
      4.95041460e-002 2.50894874e-001 8.92098010e-001 2.67716140e-001
      9.56736207e-002 3.98673981e-001 6.38074577e-002 1.92263827e-001
      1.14327528e-001 7.33395934e-001 2.51449317e-001 3.59882593e-001
      4.72219855e-001 3.26692343e-001 5.26659191e-002 1.58551317e-002
      8.46754313e-001 1.69878706e-001 5.91823936e-001 2.88883299e-001
      5.83587289e-001 6.88805580e-001 1.79546624e-001 8.66278470e-001
      1.62366480e-001 5.17427802e-001 5.06519377e-001 4.80538420e-002
      3.85015577e-001 6.94349110e-001 3.36250365e-002 1.06358655e-001
      1.62351280e-001 9.07051414e-002 3.97003204e-001 9.99547303e-001
      7.62168616e-002 3.86506498e-001 7.21135974e-001 3.13841552e-001
      2.52566319e-002 2.41914421e-001 2.38602713e-001 4.47412252e-001
      2.68026460e-002 3.63394022e-002 3.61139804e-001 2.97887623e-001
      5.05332410e-001 3.66285443e-001 5.00933766e-001 2.68352270e-001
      4.49785441e-001 4.28992182e-001 1.80452406e-001 1.98072866e-001
      6.44914865e-001 1.48276985e-001 7.97005057e-001 8.12432528e-001
      8.11454296e-001 4.84658659e-001 4.78175730e-002 1.87025204e-001
      5.39653040e-002 3.38159829e-001 2.73026749e-002 9.15941954e-001
      4.98562260e-003 4.58926558e-001 2.31469572e-001 1.53559418e-002
      6.51203811e-001 5.52024484e-001 4.70080227e-001 1.79116488e-001
      3.27649564e-001 5.80486178e-001 3.34470421e-001 6.06651545e-001
      2.30939060e-001 8.26154500e-002 4.34264213e-001 2.53900141e-001
      1.78897440e-001 4.98638123e-001 1.29692852e+000 7.74505287e-002
      4.62067034e-003 3.37189674e-001 6.41971767e-001 4.28382963e-001
      1.09722368e-001 7.58325040e-001 1.57831404e-002 2.17871200e-002
      1.26274931e+000 3.09350222e-001 1.71409264e-001 4.58207756e-001
      2.80507475e-001 2.55193502e-001 5.34936070e-001 4.23456192e-001
      3.19579810e-001 1.66165549e-002 7.40251780e-001 3.89662653e-001
      5.61000347e-001 1.40656885e-002 7.90068880e-002 8.36024061e-002
      1.35622591e-001 3.46287161e-001 1.23362549e-001 5.23285151e-001
      3.84866267e-001 4.42504697e-002 5.43640815e-002 1.03203267e-001
      3.69588792e-001 1.49612308e-001 2.74153084e-001 4.88431841e-001
      1.35404551e+000 1.43499732e+000 9.88797486e-001 7.66785741e-001
      3.64623994e-001 1.25029600e+000 1.34952422e-002 2.14782313e-001
      1.03335783e-001 5.59116483e-001 5.03513366e-002 7.68404678e-002
      8.59289914e-002 4.12923455e-001 6.61460876e-001 3.03872645e-001
      4.48051274e-001 2.75797378e-002 3.93200777e-002 3.86321507e-002
      9.42956433e-002 7.85367429e-001 1.27313948e+000 2.11963970e-002
      1.49470102e-002 2.16699854e-001 1.06761575e+000 3.19346756e-001
      6.61023617e-001 1.92875728e-001 6.65596187e-001 9.28777978e-002
      7.10115880e-002 7.17537820e-001 7.11845815e-001 8.64940062e-002
      5.83368279e-002 3.14974859e-002 3.01176012e-001 2.55204976e-001
      8.61816257e-002 8.57218504e-002 1.16287243e+000 2.45698571e-001
      1.53376400e-001 3.57482463e-001 1.05476245e-001 2.95119524e-001
      1.27348185e+000 4.23616022e-001 4.98776913e-001 1.25815466e-001
      1.27423728e+000 5.43577969e-001 1.94238365e-001 1.37186259e-001
      1.85391158e-001 1.19685456e-001 2.06234008e-002 3.16384226e-001
      2.32605800e-001 6.24197662e-001 1.44232390e-002 9.26839054e-001
      1.33627284e+000 3.58170241e-001 2.89380312e-001 5.73620379e-001
      9.13982511e-001 1.04191341e-001 8.82495008e-003 2.01271152e+000
      1.64151460e-001 3.42804402e-001 5.73304236e-001 2.81324945e-002
      6.79579437e-001 1.05258441e+000 4.01183277e-001 1.16260141e-001
      1.16257712e-001 1.42785860e-002 1.94011033e-002 1.35763079e-001
      4.32935916e-002 3.11086588e-002 4.74667817e-001 2.73668349e-001
      5.32731831e-001 4.83009279e-001 1.67094335e-001 2.65299529e-001
      1.34422767e+000 8.80692340e-003 1.41023751e-002 7.51862049e-001
      4.35577273e-001 3.10519427e-001 2.09815130e-002 8.57345536e-002
      1.54788518e+000 3.31633627e-001 1.15091093e-001 1.03309333e-001
      2.26070151e-001 2.44570777e-001 1.02249794e-001 7.58521974e-001
      7.15113640e-001 6.80437803e-001 1.20855480e-001 7.63289863e-003
      1.46715105e-001 4.37101305e-001 7.97711372e-001 5.05950451e-001
      2.29352757e-001 1.22802579e+000 3.47857088e-001 1.49179840e+000
      9.98006105e-001 1.37122142e+000 8.05913433e-002 3.72591093e-002
      1.37524875e-002 1.92159787e-002 3.96989495e-001 7.02898860e-001
      1.02419712e-001 9.95373070e-001 2.92646468e-001 3.19212586e-001
      1.30926827e-002 7.33867943e-001 3.47333223e-001 1.01609778e+000
      1.03788722e+000 3.40496629e-001 2.35839263e-001 6.71501935e-001
      7.50197396e-002 6.82691991e-001 1.66158989e-001 3.36862765e-002
      2.55857646e-001 4.30835597e-002 9.97666955e-001 2.61637896e-001
      1.03315270e+000 4.67241138e-001 1.86874211e-001 5.12083054e-001
      4.62734938e-001 8.03056881e-002 1.56040713e-001 1.40546903e-001
      4.58168751e-003 1.24657381e+000 3.64805669e-001 9.96113047e-002
      9.07934159e-002 5.03748097e-003 5.87467611e-001 7.00296536e-002
      1.86907277e-001 3.77901196e-001 3.04217190e-001 1.19739987e-001
      3.67531240e-001 8.73956233e-002 5.98145649e-003 1.59353003e-001
      1.46765321e-001 1.09153278e-001 3.32823068e-001 5.36273360e-001
      8.15679878e-003 7.88273394e-001 2.33406611e-002 2.62203105e-002
      5.30963063e-001 1.37796402e-001 1.02917790e+000 4.03758548e-002
      2.79178359e-002 1.27508631e-002 1.57939300e-001 4.36130345e-001
      2.94614017e-001 2.02924058e-001 4.48104829e-001 9.15675879e-001
      5.55657625e-001 2.61854768e-001 7.16361642e-001 6.29087165e-002
      5.85853040e-001 1.08904946e+000 2.26442575e-001 2.13176757e-001
      2.68839505e-002 2.45574236e-001 7.85746649e-002 7.39084780e-001
      2.62060046e-001 8.57752860e-001 1.96961269e-001 1.30169785e+000
      2.09024046e-002 3.87188315e-001 1.82213694e-001 4.50363802e-003
      1.22688305e+000 4.22734674e-003 9.04217735e-002 1.78866386e-001
      7.48401761e-001 1.14565456e+000 1.50343508e-001 2.63612717e-002
      3.90340179e-001 2.59734720e-001 1.80240929e-001 8.77908528e-001
      1.86080456e-001 1.87526986e-001 8.58909607e-001 1.49815530e-001
      1.47311652e+000 1.58134532e+000 3.91919196e-001 2.53919989e-001
      4.52891970e-003 2.50098020e-001 1.06893107e-001 6.63942695e-001
      3.28252196e-001 3.88371676e-001 3.51518452e-001 4.77058917e-001
      2.99575210e-001 7.75575995e-001 5.70497811e-001 7.21407961e-003
      1.08530366e+000 1.89984858e-001 2.61667877e-001 8.46621215e-001
      3.46480578e-001 1.55400008e-001 7.65017688e-001 1.23947501e+000
      2.40587816e-001 2.68167794e-001 2.44564667e-001 5.55651523e-002
      9.52723324e-002 1.10232830e-001 3.41738492e-001 9.46902514e-001
      6.67411983e-001 7.51062989e-001 1.04502201e-001 4.48083609e-001
      4.23373245e-002 8.26869309e-001 6.69691026e-001 7.76841342e-001
      8.69986042e-002 6.43056691e-001 2.31758073e-001 4.70391333e-001
      3.78359199e-001 3.82019371e-001 6.39500976e-001 1.44426370e+000</_>
    <_>
      8.28594342e-002 6.25203133e-001 2.37308049e+000 3.98323298e-001
      8.80215019e-002 2.07866502e+000 8.71918425e-002 4.25809175e-001
      2.42222980e-001 2.05785203e+000 2.09849134e-001 6.19011164e-001
      1.01341498e+000 2.07190490e+000 2.88496241e-002 1.10397702e-002
      3.60315084e-001 3.76390129e-001 1.21150243e+000 1.43009573e-001
      8.20119500e-001 3.15018952e-001 2.60975063e-001 4.66412991e-001
      1.84898317e-001 9.21774626e-001 9.13200796e-001 1.10433452e-001
      7.67940044e-001 5.52687705e-001 5.80752306e-002 1.81865528e-001
      2.46725157e-001 3.72043878e-001 1.74557000e-001 1.08267653e+000
      2.81577051e-001 4.63119388e-001 2.18586087e+000 3.72069687e-001
      2.77205110e-002 2.87383914e-001 4.74236280e-001 1.59947455e-001
      2.12863609e-002 3.29106785e-002 1.82478428e-001 5.55165112e-001
      1.17599332e+000 5.68022549e-001 4.00149137e-001 4.23738569e-001
      1.69679976e+000 1.43353426e+000 1.72181755e-001 3.59898835e-001
      9.96911108e-001 2.39988774e-001 1.89819646e+000 1.90825510e+000
      2.96324158e+000 1.71547920e-001 9.14863646e-002 7.11322948e-002
      1.88634083e-001 2.01390013e-001 5.78861050e-002 2.64341903e+000
      9.39519331e-003 6.81222916e-001 4.12320167e-001 1.56460740e-002
      8.15134168e-001 5.48573077e-001 4.66831326e-001 1.49336457e+000
      1.90550900e+000 8.17207336e-001 1.50752819e+000 6.14097953e-001
      8.46466303e-001 1.43207297e-001 4.16883022e-001 5.00791192e-001
      7.83924162e-001 9.27454591e-001 3.39283061e+000 1.33911252e-001
      5.38985711e-003 1.37612507e-001 1.42417300e+000 6.16124809e-001
      2.68026501e-001 7.78893650e-001 1.51754161e-002 3.35171744e-002
      2.46308756e+000 1.41015553e+000 2.80523747e-001 1.01918423e+000
      1.32650077e-001 3.81424010e-001 4.34493184e-001 9.58057404e-001
      1.27808869e-001 2.41192263e-002 2.30987191e-001 2.01805639e+000
      1.33117843e+000 2.25235447e-002 9.09364596e-002 1.24680869e-001
      1.87133729e-001 1.53678581e-001 6.67801723e-002 3.42462242e-001
      7.86998451e-001 5.89931160e-002 2.88711246e-002 2.26064816e-001
      5.59569776e-001 5.75063944e-001 4.34832036e-001 4.90720838e-001
      1.75036216e+000 2.09849477e-001 1.33338225e+000 1.82493913e+000
      5.92568576e-001 1.10246766e+000 1.19183827e-002 2.88553178e-001
      1.86481878e-001 5.86312592e-001 6.51582032e-002 1.68518379e-001
      2.67473068e-002 5.04512370e-001 5.78340828e-001 4.96418595e-001
      2.85573751e-001 2.11355947e-002 9.72049013e-002 7.21505955e-002
      2.47270614e-002 1.73030460e+000 7.39153683e-001 4.23533358e-002
      1.84530485e-002 1.69464082e-001 6.50701106e-001 9.97949004e-001
      1.99049938e+000 2.63864636e-001 7.85060525e-001 2.61489242e-001
      2.24294156e-001 5.48764825e-001 7.70009756e-001 1.92178532e-001
      1.17454387e-001 5.52790686e-002 4.22204584e-001 2.43112236e-001
      1.69931650e-001 1.63907602e-001 1.05460882e+000 1.09820116e+000
      1.77159593e-001 1.66133687e-001 2.28464082e-001 5.68042696e-001
      1.31872618e+000 5.04044294e-001 2.45397973e+000 7.55172744e-002
      1.05473232e+000 5.17411292e-001 5.39885163e-002 2.98366815e-001
      4.09013480e-001 1.91995323e-001 1.16119413e-002 2.92257249e-001
      1.41836852e-001 1.11977029e+000 2.04632040e-002 2.78605461e+000
      2.04008028e-001 1.67797947e+000 4.77973044e-001 3.87918562e-001
      2.05303359e+000 9.64403525e-002 7.99058191e-003 7.76560307e-001
      1.14572994e-001 4.82930392e-001 3.66955131e-001 6.02231398e-002
      5.99277198e-001 1.00871086e+000 6.89664304e-001 4.27717492e-002
      1.46253183e-001 2.51867324e-002 2.87785977e-002 1.65658057e-001
      8.00766125e-002 3.59696709e-002 6.78588152e-001 2.16952220e-001
      1.57370198e+000 6.28734767e-001 3.16269577e-001 3.74196976e-001
      1.10367382e+000 7.44052837e-003 2.39657629e-002 1.43980300e+000
      9.07062471e-001 3.75394017e-001 2.74072289e-002 1.34188399e-001
      1.92835137e-001 4.52418119e-001 1.76793844e-001 2.29272723e-001
      1.11974955e-001 8.04951638e-002 1.99169889e-001 6.69735670e-001
      4.66574311e-001 2.08649850e+000 1.34773687e-001 6.61950326e-003
      3.35476875e-001 2.45701060e-001 1.93612814e+000 2.41379619e-001
      5.60761750e-001 2.80128789e+000 7.89073288e-001 1.12842131e+000
      6.32755220e-001 2.24202323e+000 1.44825563e-001 6.57106563e-002
      1.18690254e-002 2.79743429e-002 4.14053261e-001 3.90111506e-001
      1.88110903e-001 7.02923417e-001 1.19218528e+000 1.80593550e+000
      1.20242937e-002 2.02060246e+000 5.10393441e-001 6.84129238e-001
      2.46299505e+000 3.48914295e-001 1.52425677e-001 9.58785474e-001
      2.05331638e-001 1.89466906e+000 2.18874454e-001 1.15895249e-001
      4.27242815e-001 4.72480953e-002 3.14638525e-001 6.95670247e-001
      4.27257061e-001 7.63695300e-001 3.33860159e-001 4.98628676e-001
      3.59698027e-001 8.25897828e-002 1.95901841e-001 1.67090252e-001
      9.37542040e-003 1.04255033e+000 5.57278037e-001 1.07916310e-001
      1.48462757e-001 6.93271216e-003 5.64582169e-001 1.12571955e-001
      9.68163848e-001 3.83035719e-001 7.49119222e-001 1.89350650e-001
      1.03424251e+000 1.00787558e-001 4.73982561e-003 2.32830495e-001
      1.46685377e-001 3.51039469e-001 6.63989305e-001 9.72706318e-001
      8.03805050e-003 7.71190226e-001 2.29406543e-002 2.15767212e-002
      1.50875941e-001 3.10360312e-001 1.40647531e+000 8.78788829e-002
      5.38009815e-002 1.60908774e-002 1.68865353e-001 9.13486600e-001
      3.93959880e-001 1.25607610e+000 4.01000082e-001 1.07584918e+000
      1.23716855e+000 5.05143583e-001 7.24875689e-001 2.19389126e-001
      1.95773506e+000 2.09778237e+000 1.23295583e-001 5.49073815e-001
      2.22996417e-002 8.32169056e-002 1.01016968e-001 1.18640709e+000
      6.50144696e-001 6.57385290e-001 7.49342382e-001 1.11573362e+000
      1.96801852e-002 1.91129401e-001 7.09221959e-001 9.69048124e-003
      6.86657488e-001 8.87584407e-003 1.04680881e-001 1.17226161e-001
      2.66826630e-001 8.67116094e-001 2.44069725e-001 2.72604041e-002
      8.41713965e-001 3.25391412e-001 6.03884518e-001 1.94115663e+000
      2.84444898e-001 5.15089892e-002 5.72611988e-001 5.46429932e-001
      1.29160047e+000 1.35352671e+000 2.73383349e-001 2.12349683e-001
      7.59931514e-003 6.75571561e-001 2.26478234e-001 9.91222441e-001
      1.23819217e-001 2.86267608e-001 8.85404408e-001 2.35485584e-001
      4.75753903e-001 1.77983773e+000 3.67832661e-001 6.97818352e-003
      2.08403349e+000 3.16286266e-001 1.98261514e-001 1.07566559e+000
      6.92634583e-001 1.75249428e-001 1.23766279e+000 9.51224983e-001
      5.62831163e-001 3.41248870e-001 2.54463643e-001 2.40893617e-001
      2.59172302e-002 1.73178434e-001 1.04235077e+000 2.25298715e+000
      5.91902375e-001 1.08116388e+000 2.46861354e-001 9.50910211e-001
      7.61844814e-002 2.67989230e+000 2.32553077e+000 5.94624698e-001
      3.02866995e-001 1.39523983e+000 3.22246075e-001 2.20038652e+000
      4.35361743e-001 4.44755346e-001 1.50556433e+000 1.17829370e+000</_>
    <_>
      8.30853283e-002 2.15011582e-001 7.64695585e-001 2.82071650e-001
      5.19535914e-002 3.24909419e-001 1.44121081e-001 6.48267567e-002
      8.98525864e-002 1.52124703e+000 2.17724577e-001 2.98740715e-001
      4.57440466e-001 8.91249418e-001 5.04874177e-002 1.98261309e-002
      7.46780574e-001 5.64081013e-001 5.27434051e-001 5.29203236e-001
      1.10534179e+000 5.85929632e-001 1.86278015e-001 4.05278563e-001
      9.24871042e-002 1.10481274e+000 1.46807635e+000 7.93833435e-002
      6.30077064e-001 4.91719365e-001 4.01056670e-002 1.60895914e-001
      2.17355967e-001 2.10713238e-001 1.23037493e+000 4.70454961e-001
      8.69949758e-002 6.29841089e-001 1.07954311e+000 1.69009477e-001
      3.38619277e-002 1.22943439e-001 1.57100141e-001 6.53286636e-001
      1.74961835e-002 1.21919420e-002 3.89776409e-001 2.37496823e-001
      3.17933828e-001 2.91327834e-001 5.58670521e-001 5.80678880e-001
      8.39558601e-001 6.23152196e-001 3.85812223e-001 7.61066377e-001
      5.28192103e-001 1.57744884e-001 7.11811781e-001 9.70419705e-001
      9.00743723e-001 1.09108186e+000 5.48050590e-002 7.23582134e-002
      1.44705310e-001 2.45062873e-001 6.36128634e-002 7.21815944e-001
      5.13894064e-003 5.98079443e-001 1.25252053e-001 2.64445767e-002
      1.23299432e+000 7.15755165e-001 5.94767869e-001 9.79084492e-001
      4.27837968e-001 3.87808174e-001 4.22724605e-001 5.49709141e-001
      7.13182271e-001 9.39802080e-002 4.54083234e-001 8.10575366e-001
      1.87785327e-001 9.27935168e-002 7.27438867e-001 7.68902153e-002
      7.87549093e-003 3.59764993e-001 3.93939346e-001 4.80866820e-001
      1.28177747e-001 9.28130627e-001 2.20271088e-002 4.18151990e-002
      7.15901554e-001 3.62763137e-001 8.24017465e-001 6.27007008e-001
      3.19029927e-001 3.02036524e-001 7.95242906e-001 6.86917663e-001
      7.47094572e-001 1.85433608e-002 2.73550868e-001 7.51308560e-001
      3.13135892e-001 1.46685932e-002 1.14173345e-001 1.22185349e-001
      1.18372880e-001 9.03358400e-001 1.38355225e-001 7.36260653e-001
      5.68895519e-001 4.62755933e-002 6.59998804e-002 1.42927140e-001
      3.67010146e-001 1.63654059e-001 2.17594028e-001 3.57394695e-001
      9.39882398e-001 4.88466173e-001 9.94113147e-001 8.20841074e-001
      7.93789983e-001 1.22957683e+000 1.28448298e-002 8.18429172e-001
      1.57262936e-001 3.97359669e-001 4.95572910e-002 1.67968884e-001
      2.10431423e-002 2.99736083e-001 1.92857563e-001 1.47093400e-001
      3.65690947e-001 1.72164924e-002 3.98877338e-002 1.02150820e-001
      2.28181686e-002 1.72875690e+000 3.63167733e-001 4.45094071e-002
      2.11207587e-002 2.09894747e-001 8.27255189e-001 4.76075083e-001
      9.40529764e-001 2.86380649e-001 9.28426921e-001 1.94549754e-001
      1.36623800e-001 1.05429840e+000 3.00057054e-001 1.08894423e-001
      8.26679468e-002 3.18181440e-002 2.23268822e-001 1.49570331e-001
      1.63795546e-001 1.29545763e-001 7.89263368e-001 6.66456342e-001
      1.54680640e-001 2.71637976e-001 8.67943913e-002 2.60300189e-001
      4.42445248e-001 6.06290042e-001 1.24503922e+000 1.19653977e-001
      7.61601031e-001 5.14421523e-001 7.30181783e-002 1.35398582e-001
      7.57388413e-001 1.85078427e-001 2.36990172e-002 1.21165323e+000
      4.94089216e-001 4.78209615e-001 2.66713258e-002 6.84963048e-001
      6.59640849e-001 6.94164813e-001 2.02550918e-001 3.53695661e-001
      5.98787069e-001 9.96838883e-002 1.13340877e-002 6.97528124e-001
      1.42140254e-001 7.06003070e-001 2.63191611e-001 3.18269953e-002
      2.02875674e-001 6.96629405e-001 4.69940633e-001 1.18914090e-001
      8.86392072e-002 1.73741709e-002 2.41130125e-002 3.13771307e-001
      5.35438880e-002 4.02669981e-002 8.07936192e-001 4.94843721e-001
      1.18703175e+000 4.10338014e-001 1.98310882e-001 5.40466309e-001
      1.31445265e+000 1.37105258e-002 1.53494310e-002 4.86676723e-001
      5.14898002e-001 5.17659485e-001 2.31067892e-002 8.48667771e-002
      5.03325880e-001 5.98582268e-001 9.35489461e-002 8.55260119e-002
      1.14122105e+000 6.08191006e-002 5.93205579e-002 9.58431125e-001
      8.56761217e-001 1.63764429e+000 8.74432474e-002 8.54216795e-003
      1.16294511e-001 1.57416850e-001 5.69341898e-001 1.18591428e-001
      9.68687117e-001 1.41146266e+000 2.62191653e-001 6.11733019e-001
      8.01117539e-001 7.64140010e-001 8.85367095e-002 1.16678230e-001
      1.14410818e-002 2.46877149e-002 5.62627017e-001 3.43959063e-001
      1.36195734e-001 1.07250965e+000 4.81695920e-001 8.76654685e-001
      1.33437095e-002 6.59800410e-001 2.40344271e-001 2.41705701e-001
      1.94752586e+000 1.83845937e-001 6.58106327e-001 1.14453924e+000
      1.08190075e-001 6.51727796e-001 1.78024516e-001 5.16935959e-002
      4.47832286e-001 3.34701501e-002 6.64700449e-001 3.89904946e-001
      4.55730438e-001 1.55343577e-001 1.36648536e-001 2.95880914e-001
      8.08252096e-001 6.55403882e-002 3.70934814e-001 1.37915164e-001
      5.03581855e-003 7.73055434e-001 6.52457476e-001 1.65999427e-001
      7.20978528e-002 9.21122916e-003 6.78601503e-001 2.02748664e-002
      7.69050360e-001 3.62605631e-001 3.26980591e-001 9.96778533e-002
      4.04162437e-001 2.54896116e-002 9.74828843e-003 2.03605413e-001
      7.79855922e-002 1.03238858e-001 8.53692174e-001 6.33406520e-001
      1.27335452e-002 6.39396369e-001 1.31194713e-002 1.77088231e-002
      1.71002194e-001 1.01996467e-001 8.71724129e-001 6.11820109e-002
      3.99772562e-002 1.56437196e-002 1.27859518e-001 2.93184638e-001
      6.21676922e-001 8.19624424e-001 3.99856716e-001 1.16964722e+000
      3.84900331e-001 2.46439591e-001 8.75523269e-001 8.10834765e-002
      1.03728461e+000 1.46432161e+000 8.64093825e-002 2.23905861e-001
      1.74484365e-002 6.10138997e-002 1.03756391e-001 6.69904947e-001
      3.17867249e-001 1.47427246e-001 4.74351496e-001 9.44222450e-001
      3.62166837e-002 1.96551189e-001 2.35877082e-001 5.12125529e-003
      5.39422870e-001 4.47468041e-003 2.89454088e-002 1.22427970e-001
      1.59182802e-001 6.49393320e-001 1.74597502e-001 3.41949835e-002
      1.93264157e-001 3.13856721e-001 6.39340341e-001 4.57886964e-001
      2.50029564e-001 7.83581883e-002 8.27316284e-001 1.61700368e-001
      1.32988036e+000 7.66789675e-001 4.71953690e-001 4.46864933e-001
      5.60108665e-003 2.44124100e-001 1.16833329e-001 3.68957311e-001
      7.20663130e-001 5.58733284e-001 4.06173706e-001 1.09143806e+000
      3.84452671e-001 5.09505153e-001 5.31654954e-001 6.45646453e-003
      4.46873844e-001 1.65596515e-001 4.18182850e-001 2.20655367e-001
      4.31128323e-001 8.60002935e-002 6.16608799e-001 6.50025725e-001
      5.48572481e-001 1.94337770e-001 7.87369192e-001 5.55092879e-002
      2.27008108e-002 1.46706790e-001 3.47652137e-001 8.81280303e-001
      2.95039684e-001 4.80063856e-001 5.93856238e-002 3.89068037e-001
      7.78839365e-002 1.70090866e+000 5.84049404e-001 7.32567728e-001
      7.53130689e-002 5.32264173e-001 1.44954041e-001 8.46551776e-001
      7.99380064e-001 2.58714795e-001 4.81037825e-001 3.38585496e-001</_>
    <_>
      3.28239128e-002 2.50973046e-001 1.05033708e+000 4.34338391e-001
      3.30435187e-002 2.64085948e-001 6.50801882e-002 1.06301889e-001
      1.33901000e-001 7.32793927e-001 6.28616735e-002 3.24564040e-001
      6.18431032e-001 5.78624189e-001 1.64893009e-002 2.71229213e-003
      7.75590897e-001 1.73853159e-001 1.31703064e-001 2.66772270e-001
      8.45907271e-001 2.97031730e-001 8.58495682e-002 1.50993729e+000
      1.24432981e-001 1.91211164e-001 9.96683180e-001 2.88697872e-002
      3.64246190e-001 2.25705802e-001 3.12253814e-002 1.61677867e-001
      1.14565738e-001 2.17626601e-001 2.29343459e-001 8.28112781e-001
      5.47578782e-002 4.07134920e-001 4.23065603e-001 2.72279888e-001
      1.33963488e-002 1.44726425e-001 1.26409829e-001 1.47402331e-001
      1.10260136e-002 1.10207703e-002 4.27806586e-001 1.93251058e-001
      4.61958945e-001 3.77999157e-001 4.63383734e-001 5.88565946e-001
      6.99360371e-001 3.95014584e-001 7.27465674e-002 8.25632870e-001
      4.61842000e-001 9.30379406e-002 6.16734445e-001 7.36821949e-001
      1.30808032e+000 2.68554688e-001 4.90481891e-002 1.65390167e-002
      1.50258526e-001 7.35806152e-002 1.75099224e-002 1.31794238e+000
      3.73942312e-003 1.49888784e-001 1.54584870e-001 1.71730574e-002
      6.66797519e-001 2.38619700e-001 4.02280867e-001 5.59729755e-001
      2.18018219e-001 1.25380114e-001 5.94130576e-001 5.02135754e-001
      8.52816552e-002 8.69551003e-002 1.46698087e-001 2.24405423e-001
      2.77380288e-001 3.43036085e-001 1.34368002e+000 1.45063013e-001
      3.98084428e-003 4.00622576e-001 2.15078294e-001 8.70008320e-002
      8.39908272e-002 8.00420880e-001 1.53127946e-002 7.90466275e-003
      4.76651341e-001 5.32371223e-001 1.14326395e-001 2.47745499e-001
      2.45380014e-001 5.86438000e-001 1.36438429e-001 7.65569866e-001
      2.09119231e-001 1.48793366e-002 2.46626198e-001 5.44051468e-001
      4.51144814e-001 1.31104030e-002 3.21778506e-002 1.04241759e-001
      1.36372238e-001 3.16379309e-001 4.98159453e-002 5.81956625e-001
      1.97432190e-001 2.75076125e-002 5.91095164e-003 1.64594576e-001
      3.94587576e-001 2.05531329e-001 1.40626892e-001 5.05315959e-001
      5.38454890e-001 2.00325981e-001 3.26242268e-001 7.07980216e-001
      4.18605000e-001 4.91279244e-001 7.42196571e-003 3.45911354e-001
      1.13372706e-001 4.51812357e-001 2.74704564e-002 1.04924157e-001
      6.21513138e-003 3.90459985e-001 2.41873875e-001 2.25851193e-001
      3.87747526e-001 1.12987608e-002 2.50819977e-002 2.32299324e-002
      7.49312853e-003 1.00150561e+000 2.40190372e-001 2.24868748e-002
      1.28236450e-002 3.11986029e-001 9.15808022e-001 3.69829863e-001
      4.65155900e-001 1.38840333e-001 2.46020555e-001 1.23601586e-001
      9.21657383e-002 6.07586384e-001 3.17344517e-001 1.44190386e-001
      3.20433490e-002 3.62740681e-002 1.36155263e-001 1.78927332e-001
      1.66098520e-001 8.09557438e-002 2.80003399e-001 3.61625522e-001
      1.95226446e-001 7.44200051e-002 1.42174155e-001 3.46098453e-001
      5.53009033e-001 1.82758808e-001 7.16297984e-001 4.67245430e-002
      3.99587244e-001 5.40386260e-001 1.92549340e-002 1.24378651e-001
      8.80919471e-002 1.74782678e-001 2.02389876e-003 7.24273562e-001
      2.16568142e-001 6.61927879e-001 1.17560886e-002 8.13673556e-001
      1.63371742e-001 7.99065173e-001 3.05812478e-001 3.90485525e-001
      8.45926166e-001 3.36189717e-002 4.57300339e-003 1.07123697e+000
      5.75198419e-002 8.24892998e-001 1.77346900e-001 2.05729026e-002
      2.14931294e-001 1.02441812e+000 5.73510051e-001 3.73313695e-001
      1.00226581e-001 1.34107023e-002 1.14642587e-002 3.83508503e-002
      4.43197004e-002 3.92862335e-002 2.84014940e-001 1.42341346e-001
      7.36655831e-001 2.02741638e-001 2.66172469e-001 4.03463900e-001
      1.40753806e-001 4.41317353e-003 1.37511296e-002 4.33786392e-001
      7.19569564e-001 1.15506522e-001 1.50732063e-002 7.22445250e-002
      1.75043076e-001 2.50496656e-001 8.22153464e-002 1.27712205e-001
      2.08973318e-001 1.66837033e-002 9.35387537e-002 1.79291651e-001
      2.75346994e-001 7.05480695e-001 6.14198968e-002 3.60048702e-003
      5.04647046e-002 1.51723966e-001 6.70577049e-001 2.00509846e-001
      6.91329896e-001 1.10932100e+000 4.11033183e-001 1.55254054e+000
      8.16916585e-001 6.93315387e-001 1.66600153e-001 1.18140936e-001
      8.91306251e-003 1.17773023e-002 2.20291927e-001 1.52817249e-001
      6.34648874e-002 6.30270243e-001 1.65057331e-001 4.31702942e-001
      6.62157359e-003 7.87198782e-001 3.77239555e-001 6.56142607e-002
      9.07963097e-001 1.52892232e-001 2.21576124e-001 8.52927148e-001
      1.04014978e-001 4.02905852e-001 3.68884951e-001 3.85503285e-002
      4.79789019e-001 3.50430608e-002 7.58593440e-001 4.91280586e-001
      1.33040380e+000 3.19798470e-001 8.53388309e-002 3.75145823e-001
      6.29543900e-001 9.38339084e-002 5.71707040e-002 1.48825139e-001
      3.48306075e-003 3.85149390e-001 2.96143830e-001 1.94463626e-001
      3.34293693e-002 4.41251649e-003 7.46429145e-001 2.34628879e-002
      4.28076923e-001 3.46928127e-002 2.70608842e-001 8.89495313e-002
      1.44775137e-001 3.52748893e-002 3.91312782e-003 1.15997612e-001
      7.10538030e-002 9.61812735e-002 2.83342093e-001 4.63556558e-001
      1.81164481e-002 6.50653303e-001 9.85444244e-003 1.09835537e-002
      1.99562944e-002 4.82219420e-002 1.21701920e+000 4.38441075e-002
      2.22225171e-002 1.35034360e-002 1.11226365e-001 5.71589649e-001
      1.19297004e+000 4.46753621e-001 4.83348042e-001 2.77182013e-001
      4.85424161e-001 3.07724237e-001 1.50656477e-001 1.28066927e-001
      6.34964228e-001 1.13320327e+000 1.20307602e-001 1.77362785e-001
      1.14977555e-002 1.90152340e-002 1.09156944e-001 1.15196526e-001
      3.81983072e-001 7.48324916e-002 1.57017320e-001 6.91025376e-001
      3.54729667e-002 2.69984324e-002 2.60067731e-001 3.38836573e-003
      3.61708313e-001 3.59641807e-003 3.21635939e-002 1.56618550e-001
      4.40518320e-001 7.42801011e-001 8.70545059e-002 1.35723343e-002
      3.39558303e-001 1.35982364e-001 2.16117144e-001 8.37157905e-001
      9.83923376e-002 2.01754104e-002 6.02573097e-001 1.44972518e-001
      1.28798500e-001 1.31839359e+000 1.63251132e-001 2.65432477e-001
      3.28118424e-003 1.51250869e-001 8.16913173e-002 1.52634829e-001
      2.00826645e-001 3.33846122e-001 3.36463958e-001 2.11394623e-001
      3.27611625e-001 2.89795607e-001 3.88570637e-001 5.01442095e-003
      6.27393544e-001 8.29782784e-002 1.04897738e-001 4.94277552e-002
      3.60106885e-001 1.11746676e-001 4.19988155e-001 1.44824076e+000
      9.63580668e-001 1.20398015e-001 2.18379915e-001 5.53435758e-002
      8.28002393e-003 1.43663734e-001 3.42780888e-001 1.10061038e+000
      2.94751585e-001 6.68024600e-001 1.56542838e-001 3.11533868e-001
      4.88409624e-002 6.86395168e-001 3.49632382e-001 8.45755637e-001
      1.52131438e-001 5.72482824e-001 1.37602940e-001 6.24341309e-001
      3.42299372e-001 1.16392277e-001 2.70453781e-001 2.10051492e-001</_>
    <_>
      2.31887493e-002 1.44700795e-001 6.01902306e-001 1.93313003e-001
      4.46108244e-002 9.37776864e-001 4.17334884e-002 1.77765414e-001
      1.04006179e-001 5.52197218e-001 1.60505861e-001 1.53684229e-001
      8.33216846e-001 2.19358563e-001 3.71095538e-002 9.67459753e-003
      7.05964088e-001 1.16316304e-001 2.97112882e-001 1.69000626e-001
      7.00331032e-001 2.78464288e-001 1.23077542e-001 5.62629759e-001
      1.45597786e-001 1.89481884e-001 6.37938678e-001 9.47870910e-002
      1.03145100e-001 6.76699340e-001 2.98714451e-002 9.70236510e-002
      8.17880034e-002 2.22974047e-001 2.36765921e-001 1.04167318e+000
      6.32473454e-002 2.16971397e-001 2.00287491e-001 1.79244623e-001
      1.02208089e-002 1.81212604e-001 2.94895113e-001 6.10933959e-001
      1.25878453e-002 4.30629775e-002 2.35065386e-001 1.55323878e-001
      2.64747173e-001 1.70004532e-001 2.12664425e-001 2.24355698e-001
      3.52747232e-001 2.98989922e-001 9.88290161e-002 6.56092763e-001
      3.24966371e-001 2.12363914e-001 2.76515305e-001 5.13245940e-001
      9.68814850e-001 9.64344740e-001 2.92471927e-002 1.20154433e-001
      6.19236529e-002 1.19994938e-001 2.27721501e-002 7.80686438e-001
      3.51928943e-003 1.88109636e-001 4.03178573e-001 1.10950954e-002
      3.94593924e-001 2.09749803e-001 4.04912025e-001 2.07666978e-001
      2.25872740e-001 1.24010706e+000 5.08902788e-001 3.16306949e-001
      8.36936593e-001 3.02096725e-001 1.10913575e+000 1.95340991e-001
      1.61657691e-001 4.36719120e-001 4.64256018e-001 9.26583260e-002
      3.25661665e-003 2.50907004e-001 8.44885230e-001 4.78168190e-001
      4.22789380e-002 8.00355911e-001 1.02378065e-002 2.85541546e-002
      8.51126432e-001 2.72666752e-001 8.03306177e-002 4.36850041e-001
      2.65070707e-001 4.03132766e-001 1.58435225e-001 6.30045354e-001
      1.89381555e-001 1.09092100e-002 5.84817886e-001 2.47716367e-001
      3.05002242e-001 9.44496039e-003 5.65958284e-002 2.42097452e-001
      1.22382328e-001 2.38739327e-001 3.93082388e-002 2.26895288e-001
      2.07326978e-001 2.77983956e-002 2.08862741e-002 8.27828497e-002
      4.43691939e-001 3.17650080e-001 1.90762922e-001 3.96142215e-001
      1.21568513e+000 1.14641857e+000 5.00842035e-001 3.68986309e-001
      4.73176003e-001 5.76627851e-001 1.15711447e-002 1.89437062e-001
      1.21886216e-001 2.84747690e-001 3.34527344e-002 1.24426223e-001
      2.63032150e-002 2.33442307e-001 2.52915919e-001 2.29097575e-001
      3.23626965e-001 1.28993765e-002 4.33316901e-002 6.42041788e-002
      5.26349135e-002 5.18603444e-001 1.31290543e+000 1.87601987e-002
      8.92592687e-003 1.13708034e-001 5.18033862e-001 2.22600102e-001
      1.96828797e-001 1.06897697e-001 3.10123950e-001 8.50531757e-002
      6.08643405e-002 5.05340397e-001 2.52764285e-001 6.85175881e-002
      9.66457427e-002 3.38164121e-002 2.05297619e-001 2.16089889e-001
      4.64297608e-002 4.47804928e-002 5.99231422e-001 2.01725021e-001
      4.14974660e-001 9.75110158e-002 1.20525464e-001 1.73012704e-001
      3.28912526e-001 1.83287919e-001 4.91559684e-001 3.48367132e-002
      9.19122696e-001 4.05815005e-001 1.32270858e-001 1.15393072e-001
      8.25793803e-001 1.34627342e-001 1.06565710e-002 5.51048398e-001
      4.18693781e-001 6.01227939e-001 2.31516045e-002 3.57985109e-001
      9.07679975e-001 2.35481188e-001 2.50867993e-001 6.19041443e-001
      2.88762003e-001 4.88481820e-002 4.11414448e-003 2.88751423e-001
      1.10082008e-001 7.23215759e-001 2.98823476e-001 4.60324883e-002
      5.18603981e-001 4.21998352e-001 2.13245213e-001 2.98833735e-002
      8.78074542e-002 8.31085630e-003 9.40451119e-003 4.16879594e-001
      2.67835781e-002 3.41155529e-002 3.94242942e-001 4.11933392e-001
      4.83557791e-001 3.62631142e-001 2.11216286e-001 2.97208071e-001
      2.44514063e-001 3.79495672e-003 9.80826467e-003 4.18880343e-001
      5.62364876e-001 6.22502327e-001 1.38226394e-002 6.44673035e-002
      1.07705152e+000 3.34960014e-001 5.23778424e-002 1.18923686e-001
      8.29015732e-001 7.86692724e-002 1.18719600e-001 2.30183601e-001
      4.63616818e-001 3.11778992e-001 7.92293474e-002 1.68849006e-002
      9.22858790e-002 2.95683920e-001 5.23919463e-001 4.56612110e-001
      7.19913006e-001 4.89362299e-001 4.61929202e-001 1.20910680e+000
      3.54375422e-001 5.49159527e-001 6.99587390e-002 5.83103523e-002
      1.26094343e-002 9.36760381e-003 2.38523349e-001 3.22561949e-001
      5.96251637e-002 6.32125854e-001 8.40465188e-001 2.04425409e-001
      1.13174338e-002 8.39112639e-001 1.87345549e-001 5.81257641e-001
      4.54714656e-001 2.22041875e-001 2.57282883e-001 5.53199232e-001
      1.22700326e-001 4.11913276e-001 2.49075860e-001 2.55751647e-002
      4.43656296e-001 2.58904491e-002 6.95593178e-001 1.48264632e-001
      1.03251421e+000 7.26949453e-001 9.22535956e-002 2.89156884e-001
      6.46823406e-001 4.99025472e-002 1.50568768e-001 1.14404574e-001
      3.16724065e-003 9.22473192e-001 1.45124733e-001 5.54237776e-002
      6.50983527e-002 9.93641373e-003 2.56823361e-001 3.40036824e-002
      1.66730732e-001 5.06685197e-001 1.58599347e-001 1.61828786e-001
      5.74097812e-001 6.76099434e-002 3.13911797e-003 6.70866072e-002
      1.06109962e-001 1.09245308e-001 2.87902772e-001 4.92521942e-001
      3.37931095e-003 4.79017198e-001 1.24823758e-002 1.26841785e-002
      2.63235778e-001 9.70251262e-002 6.55024648e-001 2.31594276e-002
      4.70890142e-002 9.44153313e-003 9.97982398e-002 1.89864188e-001
      7.30604589e-001 2.06228465e-001 5.78775287e-001 3.81595135e-001
      4.39678133e-001 1.16850898e-001 1.87815517e-001 8.69133770e-002
      3.67318630e-001 8.24503779e-001 1.70521021e-001 2.47728556e-001
      1.38259688e-002 8.04230869e-002 6.34075776e-002 3.66305381e-001
      2.02710614e-001 4.70232219e-001 9.84299183e-002 1.17461121e+000
      7.66486814e-003 3.01747173e-001 1.33344203e-001 3.18562170e-003
      7.04315960e-001 2.84987735e-003 6.36506230e-002 7.29869306e-002
      5.74497402e-001 3.22233140e-001 1.36180103e-001 9.73228458e-003
      5.10558963e-001 1.25555739e-001 2.31403917e-001 2.93142527e-001
      4.79561031e-001 1.27881318e-001 3.32449615e-001 1.60457835e-001
      2.61065364e-001 1.13864112e+000 8.40909421e-001 2.74092674e-001
      3.63532687e-003 2.67557889e-001 3.69675942e-002 1.13257313e+000
      1.97901651e-001 2.73052067e-001 2.10611835e-001 1.48791343e-001
      2.40287319e-001 5.18282235e-001 4.19796199e-001 7.92297628e-003
      3.17308426e-001 1.14223242e-001 5.81180573e-001 4.32143509e-001
      1.45484626e-001 1.61994264e-001 7.04957187e-001 7.65333474e-001
      6.52199805e-001 1.75055847e-001 1.12657510e-001 8.57681930e-002
      5.61483689e-002 8.71739909e-002 1.92363441e-001 5.52747309e-001
      2.62230992e-001 1.19440174e+000 7.97758177e-002 2.39008993e-001
      2.62159538e-002 2.91509718e-001 4.56580728e-001 7.26076066e-001
      7.62861595e-002 2.67162830e-001 1.68630227e-001 3.35015565e-001
      1.71865195e-001 4.31871474e-001 4.62365925e-001 1.13378704e+000</_>
    <_>
      9.88253430e-002 2.67597258e-001 1.18289435e+000 8.62856507e-002
      6.83255866e-002 2.29641527e-001 1.03093170e-001 2.73432463e-001
      1.50621548e-001 1.40402853e+000 3.42938811e-001 3.96337986e-001
      4.49305594e-001 9.67864871e-001 3.14946361e-002 6.54223468e-003
      5.40455759e-001 2.12856933e-001 6.60266221e-001 3.65810245e-001
      2.83301264e-001 1.44797754e+000 5.67372330e-002 3.95069778e-001
      2.45237812e-001 8.57811928e-001 2.61152118e-001 7.06422925e-002
      5.47512829e-001 5.01387060e-001 3.54252942e-002 2.10519955e-001
      1.99660346e-001 1.76180750e-001 2.76698738e-001 4.27699238e-001
      1.31936207e-001 4.31243986e-001 8.19388688e-001 2.19719023e-001
      3.33221406e-002 2.45297268e-001 2.62519896e-001 3.14711928e-001
      2.51764134e-002 3.30828503e-002 1.18721575e-001 4.01291132e-001
      6.80946052e-001 5.20327389e-001 5.55253744e-001 2.82885283e-001
      1.34934878e+000 1.82438028e+000 2.98274368e-001 4.81019884e-001
      9.44736004e-001 1.78868890e-001 5.32459199e-001 7.21181333e-001
      1.69896185e+000 5.26543021e-001 5.47320470e-002 1.01792924e-001
      1.58330664e-001 2.29671150e-001 4.10377681e-002 4.58598524e-001
      4.83966293e-003 6.78136528e-001 2.28611827e-001 8.04845523e-003
      5.23634851e-001 4.56158310e-001 2.10654795e-001 1.26188636e+000
      1.26120627e+000 7.53477752e-001 3.14988434e-001 4.31572795e-001
      2.89791137e-001 2.00945944e-001 4.74433541e-001 5.31842172e-001
      2.70969421e-001 1.63770363e-001 6.51908755e-001 6.33979589e-002
      1.33560859e-002 1.07055821e-001 1.66960806e-001 3.94959092e-001
      1.13109782e-001 3.61681163e-001 3.54316458e-002 2.20970586e-002
      8.76096368e-001 2.16010273e-001 3.28884304e-001 3.38517427e-001
      4.69781488e-001 4.26637173e-001 8.14452648e-001 1.00359654e+000
      2.91796237e-001 1.84494145e-002 4.46947396e-001 7.19747543e-001
      2.71655440e-001 1.16458759e-002 1.48190662e-001 1.85392752e-001
      1.00822464e-001 2.23069638e-001 1.07015997e-001 5.80924153e-001
      5.40243089e-001 2.72158254e-002 4.05723155e-002 1.25970289e-001
      2.21032113e-001 2.11735353e-001 2.59237826e-001 4.28186148e-001
      6.64490759e-001 6.04112208e-001 6.36805773e-001 1.29465914e+000
      5.81224620e-001 9.87474859e-001 8.99250619e-003 1.12628832e-001
      1.14599556e-001 5.77125132e-001 5.94362915e-002 1.70716271e-001
      5.61194755e-002 1.29221857e-001 4.40867841e-001 2.86640376e-001
      1.80196628e-001 2.56498232e-002 5.30007929e-002 9.73756686e-002
      5.36175668e-002 1.00765312e+000 6.57155633e-001 3.22023816e-002
      4.21007946e-002 1.84864148e-001 4.22302246e-001 5.42605400e-001
      6.10685289e-001 1.05145767e-001 2.19529957e-001 1.51136220e-001
      1.38057351e-001 4.70623434e-001 6.40113354e-001 2.21393436e-001
      5.69114685e-002 3.11678927e-002 2.79417962e-001 2.91415304e-001
      9.21472237e-002 8.93846080e-002 1.08083576e-001 2.83580065e-001
      5.70228457e-001 2.29465112e-001 2.29829520e-001 3.76711339e-001
      8.18250537e-001 4.02354658e-001 1.57504821e+000 1.41849220e-001
      7.20838308e-001 2.60365039e-001 9.70735922e-002 5.43376565e-001
      2.81381577e-001 1.35450020e-001 7.30838580e-003 4.72200036e-001
      3.75165820e-001 3.40993464e-001 1.30139180e-002 3.13179016e-001
      6.11334622e-001 9.43913996e-001 2.15748027e-001 4.22897100e-001
      2.58061588e-001 1.50160611e-001 9.81620513e-003 6.25535131e-001
      1.59315348e-001 1.51339376e+000 3.40078115e-001 3.64531428e-002
      4.17303503e-001 7.44799852e-001 2.66985089e-001 1.00964598e-001
      6.60032630e-002 1.77163184e-002 1.69427134e-002 2.96411425e-001
      5.49412780e-002 2.78138537e-002 4.92247403e-001 2.43700132e-001
      1.19579244e+000 1.06314056e-001 9.72591266e-002 5.62349379e-001
      1.43191230e+000 9.71014705e-003 1.54502513e-002 3.16825330e-001
      8.38785350e-001 5.11932611e-001 3.04093212e-002 8.34275931e-002
      6.82196915e-001 2.11703330e-001 4.31081086e-001 2.42938414e-001
      2.75151223e-001 1.32409558e-001 1.50499582e-001 5.25471568e-001
      4.61160809e-001 4.98942524e-001 1.14664711e-001 1.15948040e-002
      1.13843381e-001 3.76708180e-001 8.92075300e-001 2.89790422e-001
      4.02450204e-001 9.66691971e-001 5.40050089e-001 4.71583188e-001
      4.36455935e-001 2.25848749e-001 1.22255601e-001 8.39349702e-002
      8.70158430e-003 1.66961551e-002 3.31681132e-001 2.60426104e-001
      1.72062248e-001 7.37724721e-001 4.20324773e-001 4.64759856e-001
      8.07595346e-003 1.35202539e+000 3.49663705e-001 5.59310079e-001
      1.43852997e+000 9.68886986e-002 5.19349515e-001 2.69401014e-001
      1.94891796e-001 1.57268596e+000 1.56929404e-001 7.54852444e-002
      1.83247924e-001 2.55993847e-002 6.24843001e-001 2.16460496e-001
      3.64243597e-001 2.50158489e-001 1.08692124e-001 2.77693927e-001
      1.31986153e+000 7.86312893e-002 1.06117949e-001 1.09756738e-001
      4.39296244e-003 4.34207499e-001 7.35041082e-001 9.26219672e-002
      9.52479392e-002 7.00528175e-003 5.40035129e-001 7.91908503e-002
      1.09903455e+000 1.85943872e-001 2.36150652e-001 2.37276942e-001
      4.64817792e-001 1.29729047e-001 9.87308286e-003 4.66061980e-001
      9.94145498e-002 1.76449001e-001 2.60476798e-001 6.78041339e-001
      9.35544632e-003 8.11766267e-001 9.63440258e-003 2.50058547e-002
      2.38763437e-001 1.48959279e-001 5.44320285e-001 4.41765413e-002
      4.27814126e-002 1.30192451e-002 8.50551426e-002 3.42374444e-001
      4.60924387e-001 1.27872646e+000 2.75884569e-001 2.50028163e-001
      4.10536319e-001 2.64224380e-001 7.67969489e-001 1.72700644e-001
      8.11223567e-001 2.22287560e+000 2.50233501e-001 3.32659304e-001
      2.57405508e-002 1.35100529e-001 7.94817805e-002 8.63156199e-001
      3.20938259e-001 4.57556218e-001 3.44617844e-001 6.58733487e-001
      2.06518564e-002 2.03096107e-001 9.19256985e-001 4.54239314e-003
      7.09720969e-001 4.79240436e-003 1.24809846e-001 8.87536481e-002
      3.77147466e-001 5.83456516e-001 1.26257211e-001 3.36966738e-002
      1.76414877e-001 2.67846167e-001 1.52128816e-001 2.26146355e-001
      5.08729160e-001 9.69185755e-002 7.12840259e-001 3.74866277e-001
      1.41389227e+000 4.68855441e-001 5.15504897e-001 3.66069257e-001
      4.97362018e-003 2.15974122e-001 1.19642548e-001 9.63065863e-001
      2.56126225e-001 9.75843668e-002 4.79456425e-001 5.84728539e-001
      4.47823733e-001 3.49082768e-001 3.86075139e-001 7.68596260e-003
      3.29893380e-001 6.26557842e-002 2.05558926e-001 4.05389965e-001
      3.47506434e-001 1.89529538e-001 6.73521042e-001 3.28310490e-001
      4.32484806e-001 2.63753653e-001 4.31874603e-001 1.51515111e-001
      5.38206212e-002 1.59572035e-001 5.06550252e-001 9.45187390e-001
      5.63494444e-001 3.14156115e-001 2.09484845e-001 3.90800029e-001
      1.71680808e-001 7.81490207e-001 9.14061427e-001 4.65585977e-001
      1.39711380e-001 6.82942927e-001 2.63581783e-001 1.71675789e+000
