<?xml version="1.0"?>
<opencv_storage>
<my_svm type_id="opencv-ml-svm">
  <svm_type>EPS_SVR</svm_type>
  <kernel><type>RBF</type>
    <gamma>2.1113799999999999e-002</gamma></kernel>
  <C>9.7435899999999993e+000</C>
  <p>1.0000000000000001e-001</p>
  <term_criteria><epsilon>4.9999998882412910e-003</epsilon>
    <iterations>2147483647</iterations></term_criteria>
  <var_all>400</var_all>
  <var_count>400</var_count>
  <sv_total>349</sv_total>
  <support_vectors>
    <_>
      3.43372487e-002 3.42649013e-001 2.26686382e+000 3.60184968e-001
      4.55479920e-002 2.57875741e-001 6.42804056e-002 9.01879519e-002
      1.38969362e-001 1.08307910e+000 2.26688087e-001 4.25031692e-001
      4.87898916e-001 1.41105235e+000 2.02582460e-002 3.14025916e-002
      6.07564867e-001 1.90013707e-001 1.14921784e+000 4.62534875e-001
      1.61489832e+000 5.14207482e-001 8.33070502e-002 7.50160158e-001
      1.45854488e-001 5.29401660e-001 1.39071083e+000 2.37576574e-001
      3.55597228e-001 1.08264968e-001 5.46865910e-002 1.86585635e-001
      1.16356432e-001 3.38175923e-001 2.67765373e-001 6.36350393e-001
      1.06256045e-001 2.85005242e-001 1.03873503e+000 1.01799734e-001
      2.56702472e-002 1.43285021e-001 1.24835223e-001 1.11162454e-001
      1.27798561e-002 2.09883545e-002 2.93736905e-001 3.58844310e-001
      4.79232311e-001 8.81841004e-001 4.46710765e-001 2.31142655e-001
      6.10705316e-001 5.80331981e-001 1.35010704e-001 4.11887258e-001
      5.00026226e-001 6.55868351e-001 1.03443575e+000 9.78101730e-001
      2.12083054e+000 2.45952010e-001 5.02316281e-002 3.43746208e-002
      1.11845680e-001 1.41707286e-001 4.66400422e-002 1.94462407e+000
      5.17092226e-003 3.62741768e-001 1.49923474e-001 1.05707143e-002
      8.88484299e-001 4.38811213e-001 1.46402538e-001 5.73561132e-001
      2.06291944e-001 3.31050962e-001 5.19287825e-001 3.40822577e-001
      1.06634855e-001 6.39338672e-001 6.43431008e-001 2.58328944e-001
      2.52920985e-001 5.99987328e-001 1.63108552e+000 1.32309601e-001
      5.38661331e-003 2.16639593e-001 2.24751413e-001 5.47419250e-001
      1.32338539e-001 1.15224743e+000 1.25434976e-002 8.93533602e-002
      1.29901564e+000 4.92677212e-001 1.85927153e-001 2.96049416e-001
      1.85139552e-001 7.11504281e-001 3.18550617e-001 1.04016209e+000
      1.76586315e-001 1.66998748e-002 5.54771960e-001 1.07953668e+000
      4.80654806e-001 1.72772650e-002 8.76046270e-002 5.54890096e-001
      1.21652417e-001 4.48478162e-001 5.28452210e-002 8.43723476e-001
      3.38880628e-001 5.35229258e-002 3.23823690e-002 1.59462601e-001
      2.19230920e-001 1.76511616e-001 1.73443586e-001 2.94605315e-001
      5.65628886e-001 1.30133599e-001 4.12217051e-001 1.05093038e+000
      4.46548283e-001 8.15953314e-001 1.23063587e-002 8.30561638e-001
      1.09880880e-001 5.05272686e-001 3.10543571e-002 1.20286696e-001
      2.29845680e-002 5.44089794e-001 5.02109766e-001 2.60318369e-001
      3.87890697e-001 1.28934477e-002 3.66936065e-002 7.82263950e-002
      1.64130777e-002 1.08802509e+000 1.34839371e-001 2.90701259e-002
      1.32296393e-002 4.80787635e-001 6.49136662e-001 6.04994297e-001
      8.27881157e-001 2.66200989e-001 7.24258363e-001 1.02165826e-001
      1.08235307e-001 8.42444122e-001 6.01041555e-001 1.21959984e-001
      2.27745429e-001 4.41064537e-002 2.00796530e-001 2.80153751e-001
      8.96820575e-002 1.31797537e-001 6.47883773e-001 4.45576876e-001
      9.96825993e-001 1.37530714e-001 1.58409163e-001 3.41164201e-001
      1.38083971e+000 3.89088124e-001 1.18573296e+000 6.41850457e-002
      5.44194818e-001 6.40395403e-001 3.76771390e-002 1.02820255e-001
      1.13506079e-001 9.51323956e-002 3.09925880e-002 8.45346093e-001
      2.28661224e-001 1.06061363e+000 4.45913710e-002 1.20686877e+000
      1.58218458e-001 1.22887743e+000 2.59193420e-001 2.88561642e-001
      1.68718302e+000 7.92447776e-002 8.76684953e-003 1.85931170e+000
      8.50283653e-002 1.35180151e+000 4.18479472e-001 2.58926973e-002
      2.58978754e-001 8.70969713e-001 4.26920056e-001 1.16692908e-001
      1.29149690e-001 1.59945358e-002 1.83893312e-002 2.86026448e-001
      4.90577295e-002 3.68050300e-002 4.09849048e-001 2.71892011e-001
      9.90179360e-001 3.82524848e-001 9.79441553e-002 3.77228528e-001
      1.09705234e+000 8.05651117e-003 1.80671550e-002 1.05736542e+000
      8.26585591e-001 4.76902634e-001 2.25664433e-002 8.55064020e-002
      1.31034195e-001 1.25070155e-001 1.33602753e-001 1.57746255e-001
      1.30535081e-001 5.20478003e-002 1.26544848e-001 9.22827005e-001
      9.68358636e-001 8.49582553e-001 1.12933844e-001 2.91308854e-002
      1.15387179e-001 4.17281657e-001 9.68172669e-001 4.74291712e-001
      4.28676009e-001 2.07476568e+000 4.12658125e-001 8.52546632e-001
      5.55536091e-001 1.67794204e+000 7.38868117e-002 9.68903229e-002
      1.10951746e-002 1.80269703e-002 5.51326573e-001 1.70500576e-001
      1.13965392e-001 9.69267249e-001 3.06729496e-001 1.05055714e+000
      1.16244517e-002 1.67216599e+000 5.68784535e-001 9.18634608e-002
      1.21975589e+000 2.01375172e-001 2.89689958e-001 6.71727061e-001
      1.30173281e-001 9.80319798e-001 1.51081160e-001 3.89051288e-002
      1.88727394e-001 4.73773628e-002 6.81846738e-001 4.16438967e-001
      5.22559524e-001 2.97024310e-001 1.15938433e-001 6.40994608e-001
      7.12859511e-001 1.16341181e-001 3.02292258e-001 9.39724371e-002
      4.84250626e-003 7.80755162e-001 4.92679685e-001 7.98563510e-002
      9.76678208e-002 1.82035323e-002 4.75172222e-001 5.47045730e-002
      5.55772066e-001 4.12509590e-002 2.43921563e-001 1.57400474e-001
      2.96027541e-001 5.53105809e-002 4.17840574e-003 1.38209209e-001
      9.19936150e-002 1.56472668e-001 5.62936187e-001 5.97112298e-001
      6.80885091e-003 7.46820807e-001 1.21517284e-002 1.28671229e-002
      3.93543839e-002 1.30560473e-001 1.41633224e+000 4.87667918e-002
      2.11071111e-002 1.57462582e-002 1.46735907e-001 4.10325140e-001
      5.48839450e-001 5.56026995e-001 2.62525350e-001 1.27782142e+000
      5.75972795e-001 2.72457689e-001 8.18288147e-001 1.59758225e-001
      8.65721226e-001 1.09405637e+000 2.07389295e-001 2.77934045e-001
      1.34046050e-002 5.41336946e-002 7.69541115e-002 9.93427455e-001
      2.79477596e-001 5.74215204e-002 2.25888401e-001 1.32306898e+000
      1.77029353e-002 3.18895802e-002 2.65940100e-001 4.91991965e-003
      1.03570116e+000 5.08956518e-003 4.98242602e-002 1.13380767e-001
      6.61016464e-001 1.13466334e+000 1.12195991e-001 2.46230476e-002
      7.07392454e-001 2.04272956e-001 2.84187794e-001 1.00187349e+000
      1.88731089e-001 3.79812829e-002 4.68387187e-001 1.20568074e-001
      1.34512711e+000 4.22720313e-001 4.48937327e-001 2.60827303e-001
      6.44972175e-003 2.30410010e-001 1.19063891e-001 3.44236493e-001
      2.34096333e-001 4.74046141e-001 3.93624395e-001 2.09767684e-001
      2.37149805e-001 7.16026366e-001 3.63437712e-001 5.69816446e-003
      7.78291941e-001 9.79618207e-002 3.20064425e-002 7.28280693e-002
      4.07064259e-001 1.59860313e-001 5.68844974e-001 3.19359303e-001
      3.91836017e-001 1.88285232e-001 1.54502809e-001 1.36643097e-001
      1.75728183e-002 9.59626436e-002 6.30355418e-001 1.76887417e+000
      5.33435583e-001 1.58268046e+000 1.38370618e-001 4.90331113e-001
      4.89802882e-002 1.71722400e+000 1.14105070e+000 3.80314320e-001
      1.82445079e-001 1.07074428e+000 1.20642208e-001 7.62710690e-001
      3.88877779e-001 6.41664565e-001 6.21824622e-001 2.43541464e-001</_>
    <_>
      4.91371714e-002 7.69958496e-001 2.07000828e+000 5.36622167e-001
      7.85744786e-002 5.64467132e-001 1.49860889e-001 3.11874300e-001
      1.77300140e-001 1.18909800e+000 3.54998827e-001 5.85446119e-001
      2.56033391e-001 3.45623922e+000 2.04270054e-002 8.26697238e-003
      7.10151672e-001 4.83911693e-001 9.61013675e-001 5.69935679e-001
      1.06701291e+000 1.04407525e+000 2.40483284e-001 4.59116250e-001
      5.97539395e-002 2.57680154e+000 5.68674386e-001 3.98831666e-002
      1.01802468e+000 1.66313648e+000 5.96295334e-002 2.83766836e-001
      2.15561196e-001 4.49612737e-001 6.82481885e-001 3.34324658e-001
      2.16578975e-001 5.16514361e-001 2.37884450e+000 6.57657161e-002
      4.33103554e-002 7.80112520e-002 7.46494949e-001 1.13689351e+000
      1.78332496e-002 3.28429900e-002 4.15309846e-001 4.57701355e-001
      7.75813341e-001 9.99338865e-001 1.73586106e+000 3.65475535e-001
      1.34464943e+000 1.36723554e+000 4.06937748e-001 8.78298581e-001
      1.10207474e+000 1.06573284e-001 2.51269031e+000 9.04295981e-001
      1.74762940e+000 6.12347305e-001 6.35260493e-002 7.11180940e-002
      1.57094792e-001 2.82356173e-001 5.70737422e-002 2.77688527e+000
      7.27297366e-003 1.07238519e+000 5.30665994e-001 1.21402228e-002
      1.24239600e+000 4.84588444e-001 2.10839689e-001 2.74128580e+000
      9.51403007e-002 9.80671942e-001 7.77813137e-001 6.21424675e-001
      8.93798530e-001 1.84170306e-001 7.66328573e-001 1.13507390e+000
      2.67536163e-001 6.35108292e-001 3.76993513e+000 9.11232233e-002
      6.91767503e-003 3.07146221e-001 8.31522465e-001 6.78686619e-001
      2.41409987e-001 1.44029999e+000 1.70867722e-002 1.15580959e-002
      1.70377994e+000 8.69953573e-001 7.66396821e-001 4.00651962e-001
      8.21078271e-002 1.32864642e+000 1.34241700e+000 1.34370863e+000
      6.31030321e-001 2.48726010e-002 5.35690486e-001 2.11509418e+000
      9.93729770e-001 2.34704781e-002 1.56527445e-001 1.96831286e-001
      1.95378453e-001 3.19440007e-001 1.05530001e-001 4.82267946e-001
      6.61652505e-001 4.90231924e-002 1.88586656e-002 2.46451199e-001
      3.03461701e-001 6.85176075e-001 2.32601911e-001 1.30438387e-001
      3.74866486e-001 4.11037147e-001 4.96966004e-001 2.24531221e+000
      3.79266918e-001 1.87685001e+000 2.20581647e-002 3.83459598e-001
      2.25317135e-001 5.93865216e-001 6.90339208e-002 2.92592019e-001
      2.40076724e-002 7.40915239e-001 5.33898830e-001 3.01304936e-001
      3.03214490e-001 1.81504898e-002 7.80777186e-002 1.14916377e-001
      2.54005287e-002 1.14263654e+000 6.32149041e-001 8.35541934e-002
      2.41738930e-002 2.64056772e-001 2.34594822e-001 1.61054504e+000
      2.61072278e+000 3.83426875e-001 7.69810081e-001 2.42519364e-001
      1.86677411e-001 1.04051900e+000 7.18449295e-001 2.55948365e-001
      4.01165411e-002 5.99845946e-002 2.80815244e-001 3.14743847e-001
      1.98514536e-001 2.29655549e-001 9.03291285e-001 1.60518789e+000
      3.04021090e-001 2.68933535e-001 4.04421598e-001 7.55769432e-001
      1.20528078e+000 1.02177358e+000 1.82655454e+000 1.45008758e-001
      7.37524986e-001 4.86178488e-001 5.90566956e-002 2.29196668e-001
      8.19074512e-001 1.92224219e-001 9.97267105e-003 6.44612670e-001
      3.79160583e-001 4.83215958e-001 2.82886978e-002 3.60974097e+000
      4.88164276e-001 3.12895751e+000 3.92418414e-001 7.93327391e-002
      2.06130576e+000 1.63761914e-001 1.41652357e-002 4.36426759e-001
      2.64060527e-001 7.96631575e-001 5.47581375e-001 6.79744259e-002
      5.82000911e-001 6.59051657e-001 5.48745036e-001 5.38014360e-002
      1.04761563e-001 2.81936880e-002 2.18793284e-002 4.55827653e-001
      9.52933356e-002 4.08020020e-002 5.49731493e-001 3.93946946e-001
      1.19722784e+000 6.50596201e-001 8.15534741e-002 7.10939109e-001
      1.17584598e+000 1.16179455e-002 2.67363321e-002 1.85246074e+000
      1.79574621e+000 7.25403070e-001 4.40995619e-002 1.20445326e-001
      7.27969587e-001 3.35637480e-001 2.17834935e-001 3.73202682e-001
      1.60369977e-001 9.09507200e-002 2.84356833e-001 7.57565975e-001
      5.40425897e-001 2.10842443e+000 1.73942327e-001 6.97444705e-003
      2.65397847e-001 4.12419856e-001 1.64008439e+000 1.99474335e-001
      1.30908883e+000 2.56873655e+000 4.56114322e-001 4.07721609e-001
      2.37633124e-001 1.32741117e+000 1.18032403e-001 3.57013941e-002
      2.03282069e-002 2.20913049e-002 6.15788877e-001 5.06132126e-001
      1.50628731e-001 1.24350512e+000 7.36530483e-001 3.32983398e+000
      1.96838900e-002 8.39775145e-001 8.33874404e-001 2.48185962e-001
      9.40126359e-001 2.50629365e-001 5.74568272e-001 1.01722705e+000
      3.01460862e-001 1.18230557e+000 3.56037885e-001 7.93288127e-002
      2.93891907e-001 4.19377871e-002 6.27725720e-001 5.25493622e-001
      5.24345517e-001 6.35565579e-001 2.73588777e-001 3.05933297e-001
      5.61460555e-001 9.51624215e-002 2.27359995e-001 1.48260966e-001
      7.72461575e-003 7.21378982e-001 2.64441085e+000 1.34521544e-001
      2.08944455e-001 1.02769639e-002 6.40274227e-001 7.63525292e-002
      1.33326161e+000 3.47304821e-001 6.40591621e-001 3.11766535e-001
      5.90955675e-001 1.12880409e-001 6.71534706e-003 2.17386842e-001
      8.42686668e-002 2.62264580e-001 4.56510872e-001 7.54961491e-001
      7.38387601e-003 1.56915343e+000 1.85529143e-002 1.75704770e-002
      1.72122329e-001 2.77416021e-001 1.62872601e+000 5.98865487e-002
      6.78922459e-002 1.60014983e-002 1.10877663e-001 7.15292454e-001
      9.69113588e-001 1.41573060e+000 2.26450533e-001 7.57999659e-001
      7.52465129e-001 7.21867263e-001 5.52154720e-001 3.71191263e-001
      9.20953691e-001 2.00577688e+000 2.36013472e-001 5.86279750e-001
      1.77891888e-002 8.81933123e-002 1.14591368e-001 7.93006659e-001
      5.17744362e-001 2.17623219e-001 5.34065902e-001 7.39495754e-001
      1.94607507e-002 1.88530266e-001 5.98310471e-001 8.05542618e-003
      1.43534887e+000 8.40640813e-003 1.13404885e-001 1.53751314e-001
      5.03567398e-001 4.05677617e-001 2.99479812e-001 4.34662886e-002
      4.72514868e-001 4.79148060e-001 4.60810930e-001 2.03129768e+000
      2.92048544e-001 6.09473400e-002 4.63282377e-001 1.47229642e-001
      1.18514597e+000 2.76504576e-001 6.55994296e-001 4.74059671e-001
      8.34588800e-003 9.55717802e-001 2.23860726e-001 9.22091305e-001
      5.42296648e-001 2.45812550e-001 7.21184313e-001 8.65612686e-001
      6.68688595e-001 2.09290338e+000 1.04193404e-001 1.28591061e-002
      1.66017210e+000 2.37221137e-001 3.97030026e-001 2.23209992e-001
      9.03138936e-001 6.86328858e-002 8.79378140e-001 3.10633034e-001
      8.84946585e-001 2.78759897e-001 6.91362739e-001 1.68452233e-001
      2.53001004e-002 1.30525440e-001 6.71681464e-001 2.41237259e+000
      6.62026167e-001 1.09288502e+000 1.63461372e-001 4.81279612e-001
      3.19325440e-002 2.80649996e+000 2.01799417e+000 3.21829915e-001
      3.73644561e-001 3.07496476e+000 6.11734316e-002 2.00478864e+000
      1.16275144e+000 2.53246725e-001 1.81431007e+000 5.32886505e-001</_>
    <_>
      3.42263505e-002 2.93551803e-001 1.19531512e+000 1.63821682e-001
      5.69791421e-002 6.35671735e-001 4.02945615e-002 8.99683461e-002
      9.01252851e-002 4.60245013e-001 2.24343330e-001 1.74722716e-001
      5.44423401e-001 7.53028154e-001 3.32581736e-002 9.17699747e-003
      4.34197813e-001 1.08881339e-001 3.13072652e-001 2.20539063e-001
      5.27032554e-001 4.03038919e-001 9.88163799e-002 5.05336940e-001
      1.10195510e-001 4.69356894e-001 6.30768299e-001 7.24755749e-002
      2.45173693e-001 4.44251239e-001 3.88582572e-002 9.09674764e-002
      5.97547591e-002 1.39772221e-001 1.75969929e-001 5.11524737e-001
      1.47966534e-001 1.63411915e-001 4.44601655e-001 1.44414604e-001
      1.95719283e-002 1.32555455e-001 3.44823986e-001 3.29245806e-001
      2.08260156e-002 1.15026720e-002 1.67015940e-001 2.02301979e-001
      2.11816713e-001 2.29226544e-001 4.55178976e-001 2.04509497e-001
      5.51870048e-001 3.67199123e-001 2.07781434e-001 2.43174225e-001
      2.58547187e-001 2.64010549e-001 8.17682505e-001 5.99373639e-001
      1.33813989e+000 3.28926444e-001 2.80203521e-002 9.74373966e-002
      7.26690367e-002 1.85714379e-001 3.04142796e-002 1.02811706e+000
      3.29935062e-003 6.75459027e-001 1.79258019e-001 1.41489757e-002
      4.34699148e-001 8.22481692e-001 2.76987642e-001 4.55544978e-001
      8.12788486e-001 7.71300316e-001 1.34628356e+000 4.37959313e-001
      9.05066967e-001 1.22237459e-001 1.11386991e+000 7.04377294e-001
      2.85767853e-001 2.94755191e-001 7.58486509e-001 1.81640089e-001
      3.32119991e-003 1.36330202e-001 6.00526929e-001 6.74497247e-001
      9.11841691e-002 3.27045619e-001 1.10079981e-002 2.65983753e-002
      6.51781976e-001 9.06139374e-001 1.19586840e-001 3.03981662e-001
      2.92922556e-001 1.51901990e-001 1.58375666e-001 9.69959855e-001
      1.61874294e-001 9.50430520e-003 6.74805939e-001 7.66174674e-001
      5.63253641e-001 9.23223235e-003 9.10109580e-002 9.89619717e-002
      5.67626953e-002 1.76666871e-001 5.17062470e-002 9.68287945e-001
      8.97355378e-001 3.20526585e-002 5.39848693e-002 7.34546334e-002
      5.62692702e-001 3.55582923e-001 2.01555133e-001 3.11356962e-001
      2.48606277e+000 6.70673788e-001 8.96095216e-001 4.63759005e-001
      9.26401556e-001 5.10052621e-001 6.97035482e-003 3.05013180e-001
      1.17875919e-001 2.88420200e-001 3.01098581e-002 1.13512903e-001
      5.75152822e-002 1.40725344e-001 3.19230974e-001 3.09108496e-001
      1.95645899e-001 2.13886611e-002 4.70468961e-002 6.67466223e-002
      5.59029914e-002 6.96708322e-001 7.66444147e-001 2.78587490e-002
      1.14612132e-002 1.46640271e-001 1.96946800e+000 4.18804646e-001
      2.49969959e-001 1.02790795e-001 5.09578764e-001 5.11323400e-002
      4.58662137e-002 3.82068634e-001 2.58519262e-001 5.80941364e-002
      7.73143917e-002 3.09613440e-002 2.32968166e-001 2.16246396e-001
      8.38350058e-002 4.63591404e-002 5.11738241e-001 3.51036608e-001
      1.59298301e-001 1.66240811e-001 7.23471567e-002 1.11635782e-001
      6.62988424e-001 4.70409453e-001 5.15650451e-001 8.13820362e-002
      9.42410827e-001 2.45690659e-001 9.64992046e-002 1.58381477e-001
      1.10061300e+000 1.06858775e-001 8.37968942e-003 1.03427327e+000
      2.19238684e-001 2.73102373e-001 9.02232993e-003 6.89941227e-001
      1.36450350e+000 7.89484978e-001 2.70933956e-001 3.52691144e-001
      2.24195287e-001 9.08195600e-002 5.94035955e-003 4.30532694e-001
      6.23787902e-002 3.05450469e-001 3.93642485e-001 2.82894503e-002
      4.29466039e-001 5.71048915e-001 1.62460282e-001 7.78808445e-002
      1.53517246e-001 1.07135866e-002 1.26880156e-002 4.12837803e-001
      3.26855071e-002 2.41566263e-002 5.04441917e-001 2.72066504e-001
      5.13892055e-001 3.55532825e-001 3.86433065e-001 1.84449986e-001
      4.18831050e-001 5.08141844e-003 1.34849939e-002 2.70178139e-001
      6.78844631e-001 4.67344165e-001 2.12581027e-002 8.41073245e-002
      9.61382806e-001 1.80934206e-001 8.45695361e-002 6.95398301e-002
      4.01364237e-001 1.67790458e-001 1.06105618e-001 1.22034955e+000
      7.29218483e-001 4.13757622e-001 5.17228991e-002 5.76502364e-003
      1.24787197e-001 3.53467435e-001 5.46360612e-001 4.55878407e-001
      4.86162037e-001 1.40879214e+000 3.27956885e-001 1.26184213e+000
      1.67141557e+000 1.34120512e+000 7.20922947e-002 1.60276979e-001
      9.74620692e-003 1.30015910e-002 1.87790230e-001 3.50611538e-001
      6.23229370e-002 6.03642464e-001 5.95959842e-001 6.02610826e-001
      7.41071021e-003 1.21123242e+000 1.70089275e-001 8.08012784e-001
      5.66071451e-001 1.58250749e-001 2.23460898e-001 2.70079613e-001
      8.56532604e-002 8.35049391e-001 1.75484806e-001 5.07019497e-002
      3.54646921e-001 3.24996263e-002 5.07949531e-001 1.50471613e-001
      6.25741601e-001 2.79225558e-001 1.13282740e-001 5.73590696e-001
      4.18651670e-001 1.46124214e-001 1.31410882e-001 7.61542395e-002
      3.53276101e-003 7.91894495e-001 4.91106510e-001 5.92022613e-002
      1.43079951e-001 3.74598126e-003 1.85021028e-001 6.22399375e-002
      2.81190515e-001 6.34200752e-001 1.39251933e-001 1.54948816e-001
      5.25421560e-001 4.14740145e-002 3.58031224e-003 9.41865146e-002
      8.11678544e-002 1.47640228e-001 4.30340230e-001 4.03193802e-001
      5.49603766e-003 7.71274984e-001 1.15352822e-002 2.04302482e-002
      3.57596278e-001 1.32748842e-001 6.32063985e-001 2.41810605e-002
      2.35842783e-002 7.24420138e-003 1.53010175e-001 1.63469046e-001
      2.22407505e-001 3.02323163e-001 6.76076710e-001 8.46587777e-001
      2.10270986e-001 1.05474830e-001 2.56006360e-001 7.90148899e-002
      2.27109566e-001 3.67370725e-001 1.79589972e-001 5.47380984e-001
      2.09355168e-002 1.68306783e-001 5.45264482e-002 3.27169031e-001
      1.67428628e-001 5.60740352e-001 2.41932973e-001 5.56473553e-001
      1.38584180e-002 1.71590820e-001 3.06441426e-001 3.44240130e-003
      8.32718849e-001 2.52983114e-003 3.82281467e-002 7.65892193e-002
      4.97134030e-001 7.39897788e-001 1.42226607e-001 1.96089875e-002
      2.60989279e-001 2.39374191e-001 2.28812963e-001 2.05343887e-001
      2.45399088e-001 9.31697339e-002 1.61369491e+000 3.04208368e-001
      4.39820141e-001 1.66283166e+000 1.71215117e+000 1.76580757e-001
      3.55902454e-003 5.63165188e-001 9.37657878e-002 7.87708104e-001
      1.45523265e-001 1.82400003e-001 2.17796639e-001 1.53858557e-001
      1.46487921e-001 5.30759156e-001 2.85599470e-001 5.17108710e-003
      3.70142698e-001 9.95512232e-002 1.51582018e-001 5.49564004e-001
      1.95037693e-001 1.75801292e-001 6.74115360e-001 7.34367669e-001
      2.45838746e-001 1.94821179e-001 2.39762917e-001 1.32789060e-001
      5.54175563e-002 5.87711409e-002 3.37747931e-001 8.03186476e-001
      2.52613962e-001 3.39828461e-001 1.23026989e-001 3.52965176e-001
      3.47286575e-002 5.32787681e-001 8.78432810e-001 4.70637619e-001
      8.65904465e-002 4.33233857e-001 1.45104811e-001 6.39431417e-001
      4.00104135e-001 4.51877356e-001 4.49614108e-001 9.86625493e-001</_>
    <_>
      1.69910729e-001 3.17218363e-001 3.16573882e+000 5.18862128e-001
      8.04171115e-002 4.12410706e-001 1.64031610e-001 1.44389108e-001
      2.09117264e-001 1.65981090e+000 3.98673832e-001 5.97837508e-001
      1.28649879e+000 7.02489853e-001 3.49405669e-002 3.34383436e-002
      1.40440476e+000 4.60866898e-001 1.77203894e+000 4.93903935e-001
      2.62632608e+000 1.73871028e+000 8.23492631e-002 3.25621271e+000
      3.82787853e-001 1.36020601e+000 2.74439907e+000 3.13247353e-001
      2.63052464e-001 5.51088929e-001 6.89211562e-002 2.29215771e-001
      4.54004139e-001 2.33638063e-001 9.25006032e-001 2.13461971e+000
      1.22694232e-001 4.65698659e-001 1.40068221e+000 4.15623248e-001
      2.20313277e-002 4.21263218e-001 2.94121295e-001 6.17170751e-001
      2.77273562e-002 5.41611537e-002 3.89067799e-001 3.79746944e-001
      5.78647971e-001 9.06883597e-001 1.48297262e+000 3.53420854e-001
      1.21317601e+000 1.43272793e+000 3.84195626e-001 5.60324907e-001
      5.07123709e-001 4.24556583e-001 1.19164276e+000 1.48228836e+000
      2.43052197e+000 6.23206079e-001 8.11015889e-002 2.95965910e-001
      1.38870865e-001 2.67967403e-001 7.26780668e-002 2.79171848e+000
      7.66640902e-003 1.46074319e+000 4.39193249e-001 1.94119457e-002
      1.57932711e+000 3.34981012e+000 5.41510522e-001 1.54435098e+000
      1.75958896e+000 6.48132086e-001 4.56926346e-001 4.72912669e-001
      7.97836632e-002 2.54965246e-001 1.11120832e+000 1.05867529e+000
      5.29442489e-001 1.33729076e+000 1.58526838e+000 1.48355871e-001
      1.26588829e-002 3.16847116e-001 2.54588008e-001 9.29091454e-001
      1.46086156e-001 1.84095919e+000 3.14917937e-002 1.11835465e-001
      1.77959955e+000 4.23275560e-001 7.72158742e-001 2.33723307e+000
      1.34225869e+000 1.01619899e+000 9.82034326e-001 1.80667937e+000
      8.01107168e-001 2.92483568e-002 1.05067325e+000 5.70269823e-001
      6.20422602e-001 1.92918442e-002 1.39949068e-001 2.43668407e-001
      1.04992718e-001 7.40955114e-001 8.48020613e-002 1.15281641e+000
      1.74650908e+000 5.28608523e-002 1.20977163e-001 1.91127762e-001
      4.82124150e-001 2.32476249e-001 2.89692253e-001 1.08702743e+000
      6.83949888e-001 7.01181471e-001 1.62806237e+000 2.48462439e+000
      1.02243412e+000 1.62123609e+000 1.62673928e-002 5.53709388e-001
      1.51571020e-001 6.97660506e-001 5.24254888e-002 1.39939308e-001
      6.03313223e-002 8.77758324e-001 9.06172633e-001 4.40777838e-001
      6.90313697e-001 2.82960162e-002 6.59004152e-002 9.56587195e-002
      9.56781879e-002 1.34378767e+000 6.55640125e-001 3.36612090e-002
      4.29498032e-002 4.06539679e-001 7.72329867e-001 1.17665255e+000
      8.16365421e-001 3.73932660e-001 1.20508230e+000 2.03851014e-001
      1.57944202e-001 1.66456389e+000 6.36192620e-001 1.69012561e-001
      2.66923547e-001 5.77592328e-002 2.58733004e-001 4.84023690e-001
      1.06662370e-001 2.33961895e-001 1.19081974e+000 7.91419327e-001
      5.72383165e-001 2.59956151e-001 2.21691683e-001 7.51770377e-001
      1.49026716e+000 5.80478549e-001 2.64121103e+000 9.86904055e-002
      1.44712913e+000 9.74515080e-001 3.11078608e-001 5.22879958e-001
      1.26054391e-001 1.86128318e-001 1.88655183e-002 7.51984954e-001
      4.75138873e-001 2.45726013e+000 2.05002371e-002 7.80245781e-001
      1.24774814e+000 4.92012799e-001 5.70247769e-001 9.36728537e-001
      1.63618648e+000 1.19734801e-001 7.42851617e-003 3.27995038e+000
      1.32164687e-001 7.86292017e-001 9.00893450e-001 4.54813279e-002
      5.37057102e-001 2.03725791e+000 4.55879062e-001 7.54792392e-002
      2.04678759e-001 2.02918202e-002 2.07940079e-002 8.18900466e-001
      6.27015829e-002 4.49586920e-002 9.43658948e-001 4.69190717e-001
      2.25366163e+000 7.33350098e-001 2.15156257e-001 6.51712179e-001
      2.54443192e+000 9.11362749e-003 2.25447472e-002 1.24865270e+000
      1.25979292e+000 2.59842062e+000 2.62631159e-002 1.67255968e-001
      9.64317441e-001 6.10232472e-001 5.85813701e-001 1.95645049e-001
      1.41841084e-001 2.00727522e-001 1.43305928e-001 2.99776244e+000
      2.92848754e+000 6.23961210e-001 2.30449438e-001 1.84228010e-002
      1.65906191e-001 5.57533264e-001 1.88526475e+000 4.19404596e-001
      3.18844289e-001 2.98705959e+000 1.23295999e+000 3.45560122e+000
      8.55908632e-001 2.77038598e+000 1.53763413e-001 1.00563556e-001
      1.57826021e-002 2.04071160e-002 7.50659466e-001 5.38185298e-001
      2.20919088e-001 1.88294780e+000 4.20188040e-001 6.47941411e-001
      1.54775577e-002 1.99772656e+000 5.23834705e-001 7.65488982e-001
      2.10790110e+000 3.46374571e-001 1.53433537e+000 2.00038314e+000
      1.39846802e-001 7.64473081e-001 3.52990896e-001 5.78129068e-002
      4.23319399e-001 5.86661510e-002 1.42763853e+000 4.07730341e-001
      1.33158982e+000 8.83742154e-001 1.56085119e-001 8.11797917e-001
      8.95629525e-001 1.43368185e-001 1.60563245e-001 1.36168793e-001
      7.54011050e-003 8.82619381e-001 1.14299130e+000 1.56645343e-001
      1.96514860e-001 7.10126990e-003 4.67491180e-001 7.32214674e-002
      1.79533446e+000 2.27534577e-001 5.79544663e-001 1.19213492e-001
      2.90116996e-001 1.12845249e-001 1.26863662e-002 2.90680736e-001
      1.78834826e-001 1.16371408e-001 1.06226707e+000 1.32260644e+000
      1.03821568e-002 1.68532693e+000 2.54062321e-002 2.79863570e-002
      5.38044930e-001 1.33269042e-001 1.88360775e+000 7.72283748e-002
      3.84686068e-002 2.16166638e-002 1.96425155e-001 4.11888152e-001
      6.97654545e-001 2.00341511e+000 5.29800415e-001 1.90485823e+000
      1.18608546e+000 6.27404869e-001 8.10061574e-001 1.20979190e-001
      9.82819378e-001 2.52049828e+000 3.38954031e-001 2.82154381e-001
      2.98515931e-002 1.95029110e-001 1.35834068e-001 2.10032511e+000
      4.42704409e-001 3.33992183e-001 8.12722206e-001 3.14006567e+000
      2.31988151e-002 5.75001955e-001 9.77460563e-001 7.65206851e-003
      1.54066432e+000 7.26139825e-003 1.31999448e-001 2.06949532e-001
      7.21942902e-001 3.28412366e+000 1.23694561e-001 2.26363596e-002
      1.36615467e+000 3.12242448e-001 3.78502250e-001 1.89394164e+000
      1.00437272e+000 3.07451904e-001 7.71312773e-001 4.63827640e-001
      2.63502884e+000 5.50948918e-001 1.75284111e+000 1.30604780e+000
      7.87317008e-003 3.02474797e-001 1.36260837e-001 7.73934782e-001
      6.65608585e-001 5.81903100e-001 6.66041851e-001 1.01514494e+000
      5.95689595e-001 8.40436161e-001 7.45967209e-001 6.76199701e-003
      2.22163844e+000 1.30394384e-001 2.55737305e-001 8.05520177e-001
      5.67975461e-001 2.50041068e-001 1.41021228e+000 3.51221728e+000
      6.24121070e-001 2.83928186e-001 1.14652133e+000 1.70333341e-001
      9.75030437e-002 1.44403875e-001 8.73580635e-001 3.16010356e+000
      8.70462835e-001 3.18208027e+000 2.01938808e-001 6.55131280e-001
      1.32293165e-001 1.18031454e+000 1.49246132e+000 4.81146574e-001
      1.27100185e-001 5.80179393e-001 3.94845426e-001 1.50581837e+000
      8.70931923e-001 7.65709281e-001 5.80352843e-001 1.16417503e+000</_>
    <_>
      2.73799710e-002 1.90000802e-001 1.39294887e+000 2.43758574e-001
      4.86712940e-002 3.18629861e-001 1.10438146e-001 1.73283949e-001
      1.34170145e-001 8.15960407e-001 1.67857423e-001 3.42759728e-001
      7.33620703e-001 8.59240353e-001 5.26911952e-002 1.51510546e-002
      7.02920854e-001 2.05757499e-001 8.41437936e-001 2.69845217e-001
      1.09429252e+000 4.97306287e-001 6.27381280e-002 3.84981334e-001
      1.31720051e-001 9.80164170e-001 1.06945527e+000 3.68859619e-002
      3.48971248e-001 2.33155131e-001 4.53737341e-002 1.45688817e-001
      8.60360563e-002 1.85894027e-001 2.40923315e-001 5.92049062e-001
      1.00253016e-001 2.89093703e-001 6.19784772e-001 1.85015500e-001
      1.57537796e-002 1.45204216e-001 2.11439714e-001 1.72490925e-001
      1.45968879e-002 2.61690635e-002 1.54255107e-001 3.26707155e-001
      4.24450964e-001 5.69751799e-001 2.29148030e-001 2.53635943e-001
      7.37818778e-001 8.16887140e-001 2.32763544e-001 2.43645251e-001
      6.06929839e-001 6.84307441e-002 7.22773612e-001 8.72160435e-001
      1.73080516e+000 4.23861891e-001 3.29953693e-002 9.70641449e-002
      1.04697712e-001 9.97538343e-002 3.47364098e-002 1.70395565e+000
      3.79662472e-003 1.03256452e+000 1.62663281e-001 1.08671682e-002
      6.83450282e-001 6.01462603e-001 2.45028973e-001 8.47499132e-001
      9.61524308e-001 2.86072046e-001 4.53266025e-001 2.64669567e-001
      1.59449890e-001 1.83587655e-001 4.22191352e-001 8.04439545e-001
      3.68636519e-001 3.79682839e-001 1.14002776e+000 1.05069689e-001
      4.20007575e-003 1.47222579e-001 1.73842832e-001 2.58345872e-001
      1.42386898e-001 4.50731337e-001 9.93178599e-003 1.75751671e-002
      1.08225012e+000 3.02532822e-001 2.06304163e-001 3.68647873e-001
      2.42059976e-001 2.97628850e-001 3.39877039e-001 1.45113432e+000
      2.05512241e-001 1.38412872e-002 6.63384616e-001 6.22675121e-001
      4.67849851e-001 1.09627098e-002 9.24032405e-002 1.89969257e-001
      7.96220228e-002 3.33260566e-001 3.15392278e-002 6.46551788e-001
      9.75732803e-001 4.31771129e-002 3.72259915e-002 1.13831528e-001
      4.09148991e-001 2.40593031e-001 2.50270575e-001 3.36140752e-001
      9.25917268e-001 5.04989862e-001 1.76939023e+000 1.18867493e+000
      6.00838125e-001 6.91312253e-001 9.39743407e-003 3.89718622e-001
      9.72476974e-002 3.44774216e-001 4.25208881e-002 1.25917211e-001
      3.61965373e-002 4.06916708e-001 4.05643165e-001 2.63695180e-001
      3.54433030e-001 1.47220390e-002 3.82800587e-002 1.27807438e-001
      3.96271087e-002 9.64516878e-001 4.48619455e-001 2.52637174e-002
      1.03377905e-002 2.53998518e-001 3.95484507e-001 6.92759573e-001
      4.14734960e-001 2.32868820e-001 5.62527120e-001 1.23660959e-001
      1.11076199e-001 4.32228595e-001 3.80233675e-001 1.11863464e-001
      4.38506790e-002 3.12724262e-002 2.39525333e-001 3.93002272e-001
      9.88538414e-002 1.08435445e-001 2.03113303e-001 4.88911510e-001
      2.82550395e-001 7.83696547e-002 1.67252570e-001 3.08402658e-001
      8.68637443e-001 6.40812933e-001 1.17433405e+000 2.59348024e-002
      7.97976255e-001 4.85812187e-001 1.00597754e-001 2.66057134e-001
      1.45616174e-001 1.33778453e-001 2.00385489e-002 4.44949925e-001
      3.35090011e-001 1.00536883e+000 3.00074499e-002 7.00964570e-001
      4.13533062e-001 6.31625354e-001 2.59231031e-001 2.44019523e-001
      4.68646079e-001 6.89608976e-002 7.24266982e-003 1.06128323e+000
      9.49077234e-002 4.34080184e-001 4.44064200e-001 3.12827118e-002
      2.70371437e-001 1.13371027e+000 2.04353333e-001 8.60285461e-002
      9.18483511e-002 1.32057900e-002 1.77164320e-002 1.67887583e-001
      3.58761922e-002 3.34735177e-002 3.01843762e-001 1.94197476e-001
      9.57002640e-001 4.13414687e-001 1.40782520e-001 4.46690321e-001
      1.50923073e+000 3.98884341e-003 1.75009295e-002 5.40373802e-001
      9.03511167e-001 1.76249936e-001 2.32459344e-002 7.60906637e-002
      4.70442355e-001 1.92714393e-001 1.16888940e-001 1.62039638e-001
      4.17721272e-001 1.14328414e-001 1.13720171e-001 9.05990899e-001
      7.68583298e-001 1.02907562e+000 1.05467446e-001 1.40092270e-002
      1.35455996e-001 3.60773444e-001 1.03965628e+000 2.86185056e-001
      3.43347341e-001 2.00092101e+000 3.28844547e-001 9.63278472e-001
      4.15802002e-001 8.85040641e-001 5.74352629e-002 7.47688860e-002
      1.15088196e-002 1.75188277e-002 3.63366455e-001 1.65978298e-001
      1.15064904e-001 7.64756858e-001 3.04964572e-001 5.36438406e-001
      8.46020784e-003 1.11019647e+000 2.48895913e-001 3.02961737e-001
      1.60368872e+000 1.83641687e-001 2.08158597e-001 8.33037555e-001
      1.06278777e-001 1.38851488e+000 1.50562063e-001 3.84209864e-002
      2.77415633e-001 3.92090529e-002 9.42295492e-001 2.15534940e-001
      3.33148032e-001 3.27270538e-001 1.09977432e-001 3.90366703e-001
      4.37912494e-001 6.26869798e-002 2.78612465e-001 7.27706403e-002
      2.82908720e-003 5.27887702e-001 4.76852119e-001 8.18158239e-002
      1.17671520e-001 1.29248071e-002 2.98257262e-001 5.51871508e-002
      3.66799951e-001 9.78641734e-002 2.62842596e-001 1.49245799e-001
      2.27306217e-001 7.26813227e-002 2.96532060e-003 1.19775258e-001
      9.88427326e-002 1.23402357e-001 5.66974282e-001 7.15589046e-001
      5.70204807e-003 8.82874966e-001 1.19736297e-002 1.46077871e-002
      1.78352967e-001 1.34072766e-001 8.63775551e-001 3.02344132e-002
      2.89418455e-002 1.18034128e-002 1.26761079e-001 3.07353228e-001
      2.74582803e-001 3.91637743e-001 4.11917955e-001 7.32009709e-001
      4.65934128e-001 2.09656790e-001 7.62943029e-001 1.09770194e-001
      8.69773328e-001 7.89204717e-001 2.35179007e-001 2.52867222e-001
      1.51821412e-002 1.16246000e-001 6.26509413e-002 1.20013666e+000
      2.44011909e-001 4.21290398e-001 2.49734789e-001 1.73604023e+000
      1.70097873e-002 1.56952113e-001 3.81118298e-001 2.94852885e-003
      6.74452007e-001 3.80851235e-003 7.41251707e-002 9.88645405e-002
      4.15746838e-001 6.18512332e-001 1.08940370e-001 1.46498606e-002
      3.62578928e-001 2.58387208e-001 2.10565090e-001 3.60443205e-001
      1.23820841e-001 1.01547807e-001 7.41496563e-001 3.67570162e-001
      1.66244030e+000 4.94146734e-001 4.08015192e-001 2.41939604e-001
      4.13329341e-003 2.23003805e-001 1.39948785e-001 3.59177411e-001
      2.42967770e-001 3.08996648e-001 4.39661056e-001 1.05638720e-001
      3.64739746e-001 7.06693709e-001 1.99690819e-001 1.08799888e-002
      7.57321656e-001 8.70549828e-002 9.27470475e-002 2.76339352e-001
      4.67998594e-001 1.39303938e-001 6.36692107e-001 5.88431180e-001
      2.39710093e-001 2.16586769e-001 1.57410622e-001 1.14295349e-001
      3.95692661e-002 7.53662214e-002 5.24083197e-001 1.77584124e+000
      4.24315244e-001 9.85535741e-001 1.54399455e-001 6.52116835e-001
      6.18629530e-002 1.54769027e+000 1.10191405e+000 2.38224655e-001
      1.16125502e-001 4.05358940e-001 1.30842388e-001 9.10802245e-001
      3.92373443e-001 2.28310108e-001 6.61278844e-001 6.20441616e-001</_>
    <_>
      5.07432222e-002 3.29970747e-001 1.67674196e+000 2.07194328e-001
      7.29584843e-002 9.86236036e-001 2.66101882e-002 2.68424928e-001
      7.89132342e-002 5.12730479e-001 1.09176122e-001 2.86652565e-001
      1.18093276e+000 8.97907436e-001 3.09852082e-002 1.65083259e-002
      4.31905985e-001 2.15263486e-001 3.38155836e-001 8.09531510e-002
      6.67240441e-001 4.12851721e-001 7.09695742e-002 7.11641192e-001
      1.91237152e-001 1.22658186e-001 7.26144075e-001 1.31552145e-001
      2.93858141e-001 1.38386562e-001 4.75952961e-002 1.54903308e-001
      9.32676718e-002 2.81025022e-001 1.69664547e-001 9.17753518e-001
      1.69813320e-001 2.70925403e-001 9.16301489e-001 3.08377147e-001
      1.66761298e-002 2.35496938e-001 2.06100434e-001 1.11813277e-001
      1.60787832e-002 3.32896225e-002 2.03702226e-001 2.80296326e-001
      4.32131350e-001 2.67530829e-001 6.25816703e-001 1.32733211e-001
      6.74387753e-001 6.44219279e-001 5.37224486e-002 7.79615998e-001
      5.39463758e-001 3.08671594e-001 1.18122435e+000 4.75566328e-001
      2.02556205e+000 1.89655289e-001 3.18712853e-002 1.43652752e-001
      1.68076098e-001 1.27128571e-001 1.91867091e-002 1.20837021e+000
      4.50128177e-003 2.03515276e-001 2.03916609e-001 1.94339082e-002
      1.10746861e+000 2.60789484e-001 2.85960764e-001 5.46308756e-001
      4.10313129e-001 4.55290139e-001 7.67878413e-001 4.31996614e-001
      1.06908761e-001 4.72730547e-001 1.16318107e+000 1.79393768e-001
      2.87266880e-001 3.79179955e-001 1.56556106e+000 5.53072356e-002
      3.50820227e-003 1.35024816e-001 4.17673469e-001 6.56837642e-001
      1.20711975e-001 6.08875692e-001 1.30949300e-002 4.76874597e-002
      1.29661822e+000 8.62543702e-001 5.84606975e-002 1.23762593e-001
      4.56738919e-001 1.65021747e-001 1.27764270e-001 9.11058784e-001
      2.11523041e-001 1.09167369e-002 6.08277142e-001 6.86770797e-001
      5.38719177e-001 1.52704865e-002 3.23990621e-002 4.09127951e-001
      1.23762660e-001 2.40706414e-001 3.68105620e-002 2.63140887e-001
      1.93046451e-001 4.23844755e-002 9.27682072e-002 1.44216895e-001
      3.17814261e-001 2.62509227e-001 2.37437576e-001 6.54959857e-001
      5.66449523e-001 2.85200357e-001 4.56519634e-001 8.91339660e-001
      4.38935012e-001 7.27173805e-001 1.03335548e-002 2.65434831e-001
      1.46608636e-001 4.43040699e-001 4.56990227e-002 1.03889130e-001
      3.96341607e-002 1.86927438e-001 4.00688916e-001 3.50698590e-001
      1.82238758e-001 1.66689921e-002 3.51729952e-002 3.62803377e-002
      4.61244322e-002 6.36944115e-001 2.57337987e-001 1.93877779e-002
      1.41161419e-002 1.60138473e-001 3.39120418e-001 2.61800796e-001
      9.56112444e-001 1.45344526e-001 6.35106504e-001 7.13298395e-002
      1.38890430e-001 3.93860012e-001 5.99667549e-001 1.13470599e-001
      1.31803840e-001 4.32811230e-002 2.73041397e-001 1.98171824e-001
      7.58319646e-002 5.50563112e-002 3.16630334e-001 2.43447468e-001
      5.54975450e-001 1.16153337e-001 1.72442913e-001 2.17214078e-001
      1.42326415e+000 2.11369485e-001 3.55249703e-001 2.95114480e-002
      5.61005533e-001 2.92628318e-001 1.54884860e-001 2.27089018e-001
      7.15798587e-002 1.16134129e-001 1.87384728e-002 4.84717548e-001
      1.87477827e-001 1.10725749e+000 1.42597090e-002 1.22640121e+000
      2.90303946e-001 7.85740495e-001 3.11850250e-001 5.33261955e-001
      6.09381616e-001 2.87179742e-002 6.84109656e-003 7.75342405e-001
      6.88760355e-002 6.53430402e-001 3.85119528e-001 2.28781197e-002
      3.13506812e-001 5.02970755e-001 3.45707089e-001 5.95366359e-002
      4.43373993e-002 1.05796233e-002 1.79642718e-002 2.20697835e-001
      3.57632227e-002 3.15541998e-002 3.96556616e-001 2.80813247e-001
      4.75649655e-001 3.10727656e-001 9.68026891e-002 2.13356942e-001
      4.47666675e-001 5.55718644e-003 1.96313150e-002 6.69712365e-001
      6.74388647e-001 9.08130646e-001 1.84098613e-002 5.06628826e-002
      2.82555670e-001 3.30358386e-001 9.16509181e-002 1.84680700e-001
      2.14355499e-001 1.25845701e-001 1.40336886e-001 4.57917839e-001
      6.69071317e-001 5.52260339e-001 6.02037087e-002 1.75563693e-002
      1.66993886e-001 3.97346407e-001 7.97717035e-001 4.20113534e-001
      7.39424825e-001 2.19345713e+000 4.78641659e-001 7.44222164e-001
      2.78040886e-001 1.35796583e+000 8.84845555e-002 5.17677963e-002
      9.38122161e-003 1.79298650e-002 3.92481238e-001 3.27047020e-001
      1.55185029e-001 6.04231775e-001 4.51635003e-001 4.31068271e-001
      9.61773749e-003 1.31331837e+000 4.15610135e-001 6.72473729e-001
      1.04434216e+000 3.52271587e-001 9.22282934e-002 2.97159255e-001
      1.46571457e-001 1.47000897e+000 1.59980372e-001 3.99427712e-002
      2.40561977e-001 4.05845642e-002 4.77097064e-001 2.75745183e-001
      7.53126740e-001 4.26711768e-001 1.96072638e-001 2.61474073e-001
      4.43278462e-001 3.58452685e-002 1.01108454e-001 1.08790703e-001
      3.50550469e-003 7.41970241e-001 4.20996100e-001 6.21382669e-002
      2.62988023e-002 6.04656385e-003 4.04267579e-001 6.46974742e-002
      3.41395706e-001 2.35177845e-001 2.84346163e-001 2.63698637e-001
      3.57091695e-001 1.10028863e-001 5.72500331e-003 1.12099431e-001
      1.41150475e-001 2.15146393e-001 4.39184338e-001 6.13689959e-001
      4.53080889e-003 8.61661971e-001 1.32513773e-002 1.56769343e-002
      3.32293600e-001 2.16030300e-001 6.91818595e-001 3.80455591e-002
      2.16165762e-002 1.33246547e-002 3.69210504e-002 3.08714926e-001
      9.46250379e-001 3.64857376e-001 3.08738679e-001 6.90267503e-001
      2.60447443e-001 2.30325133e-001 4.64878201e-001 1.88103393e-001
      8.81839633e-001 4.17104334e-001 2.15559706e-001 3.97500664e-001
      1.63319502e-002 1.18858777e-001 5.24009354e-002 2.10695609e-001
      2.00017974e-001 5.01342356e-001 1.37511313e-001 8.17305386e-001
      1.54252686e-002 3.01442891e-001 2.08262369e-001 3.57134803e-003
      8.55920494e-001 4.21703560e-003 1.06290244e-001 7.45938495e-002
      5.62377036e-001 3.65468174e-001 1.72619686e-001 1.65279843e-002
      5.34727395e-001 6.63737804e-002 2.95781642e-001 6.27415061e-001
      4.31013703e-001 1.50543362e-001 3.01412284e-001 2.62471527e-001
      4.14406776e-001 6.04980886e-001 9.81127083e-001 7.95350745e-002
      5.63462684e-003 2.41904959e-001 1.05412804e-001 4.73657340e-001
      2.34339952e-001 2.95046121e-001 2.92522460e-001 1.46783903e-001
      2.03576773e-001 6.71513557e-001 5.41665494e-001 6.49878243e-003
      8.30136240e-001 8.92268196e-002 8.15676972e-002 7.30982125e-001
      3.66128027e-001 1.46467358e-001 6.11925602e-001 8.14010024e-001
      7.80385494e-001 2.51721740e-001 1.16695337e-001 1.74020186e-001
      4.67071906e-002 1.11952350e-001 2.49598250e-001 1.78471601e+000
      4.16897953e-001 1.10221803e+000 1.26958966e-001 5.32479286e-001
      3.87910008e-002 1.12987673e+000 1.04620326e+000 5.84119856e-001
      1.57477215e-001 8.01166952e-001 3.12675327e-001 7.39368021e-001
      3.10310841e-001 5.91191649e-001 5.71056068e-001 1.30928910e+000</_>
    <_>
      1.05780892e-001 4.69797760e-001 2.57498240e+000 4.78216827e-001
      9.06031877e-002 1.14636469e+000 1.02969818e-001 1.30592197e-001
      1.46202177e-001 1.29166079e+000 4.73319501e-001 4.70208168e-001
      2.21536112e+000 8.03435266e-001 1.93520170e-002 3.14266831e-002
      9.59150553e-001 2.30643004e-001 1.40346718e+000 3.60578030e-001
      1.14697301e+000 5.72894454e-001 1.47949770e-001 1.35618639e+000
      3.16210181e-001 7.08584785e-001 2.14554858e+000 1.96119338e-001
      4.24008548e-001 1.51128197e+000 6.39346465e-002 2.21848100e-001
      2.39064962e-001 3.49699974e-001 3.03846717e-001 2.30767035e+000
      1.47636667e-001 4.55787569e-001 1.45900571e+000 3.89723450e-001
      4.09105979e-002 3.55157435e-001 3.31998795e-001 1.38535094e+000
      2.34096609e-002 2.99364589e-002 3.84439439e-001 3.77682894e-001
      8.77977788e-001 9.00561631e-001 9.95215118e-001 6.37399256e-001
      8.92868519e-001 1.02118349e+000 3.33107889e-001 1.68154645e+000
      1.54110181e+000 4.43126976e-001 2.05793262e+000 9.90996361e-001
      2.63647699e+000 1.26591933e+000 5.83691783e-002 5.29305264e-002
      1.26630887e-001 2.76467919e-001 4.11209762e-002 2.21318150e+000
      6.55314978e-003 1.26805103e+000 3.25235426e-001 1.37442248e-002
      1.88069987e+000 5.46819866e-001 5.90385675e-001 9.09966588e-001
      4.77101028e-001 7.68160760e-001 1.03020573e+000 7.39780724e-001
      1.95448768e+000 2.29368225e-001 1.23322427e+000 9.17133272e-001
      3.18570584e-001 1.04019594e+000 2.44397521e+000 1.36699140e-001
      7.62437703e-003 3.04409891e-001 1.02012694e+000 1.79060590e+000
      1.66716963e-001 1.32060242e+000 2.01493222e-002 8.18509907e-002
      1.80322230e+000 9.56416190e-001 2.32514530e-001 1.10778618e+000
      4.36706334e-001 6.24846399e-001 6.03648782e-001 1.01113999e+000
      4.08992648e-001 1.65433139e-002 6.02848291e-001 1.08539438e+000
      1.00869024e+000 1.79509744e-002 2.84445882e-001 2.14760751e-001
      1.03878431e-001 3.81783873e-001 6.87073693e-002 8.39262128e-001
      9.69003201e-001 7.18005076e-002 5.36839776e-002 1.64374962e-001
      8.89093876e-001 2.66139477e-001 2.70323902e-001 1.05439949e+000
      3.04332614e+000 8.94914508e-001 3.09309125e+000 9.51114058e-001
      1.94737983e+000 1.81705618e+000 2.82165948e-002 5.36960840e-001
      2.71385998e-001 5.24235904e-001 7.38901719e-002 3.13363642e-001
      2.80700643e-002 6.10677242e-001 7.19210327e-001 3.70175183e-001
      4.25534070e-001 2.41802037e-002 8.61232951e-002 3.32817495e-001
      2.26426199e-002 1.14110386e+000 1.06524587e+000 4.04088721e-002
      2.39166152e-002 2.88600564e-001 6.96088970e-001 6.71750367e-001
      1.29777467e+000 4.98089343e-001 3.72610152e-001 1.44091323e-001
      1.87556759e-001 1.53014970e+000 7.69419074e-001 1.28649294e-001
      1.89315349e-001 4.70604412e-002 2.44972318e-001 3.73555332e-001
      1.33079126e-001 1.38081163e-001 1.36516118e+000 7.69180059e-001
      4.51878488e-001 2.36430138e-001 2.44155765e-001 5.46053946e-001
      1.99110460e+000 4.61597979e-001 1.08024919e+000 1.20991506e-001
      2.20627046e+000 6.05323017e-001 5.65699078e-002 3.23101431e-001
      1.82630312e+000 2.14227349e-001 3.57809924e-002 1.73763263e+000
      3.64109397e-001 1.12551510e+000 5.81744350e-002 2.45551348e+000
      1.06593370e+000 1.00975025e+000 3.09485823e-001 6.38572752e-001
      2.52904391e+000 2.67894477e-001 2.35651769e-002 6.80276394e-001
      1.94397256e-001 1.52474284e+000 7.29001939e-001 9.08603594e-002
      8.45597208e-001 8.86975884e-001 6.50410891e-001 3.06738555e-001
      1.55218661e-001 1.89370438e-002 2.60198228e-002 8.75057459e-001
      5.76823279e-002 8.94551352e-002 7.16933608e-001 1.11969841e+000
      1.45483959e+000 4.77469116e-001 1.68254405e-001 6.39523685e-001
      2.18679070e+000 1.20696547e-002 2.21873038e-002 2.53017187e+000
      5.94972968e-001 1.21638501e+000 6.51365593e-002 8.53385776e-002
      1.41899538e+000 5.78297496e-001 1.93094641e-001 2.26391912e-001
      9.11289632e-001 5.64085171e-002 1.40966609e-001 8.35736692e-001
      1.04236639e+000 9.95542288e-001 1.25442505e-001 1.75860561e-002
      1.28021136e-001 4.72056121e-001 1.17960596e+000 5.97060740e-001
      2.29383373e+000 2.54730392e+000 6.57677889e-001 2.08558130e+000
      4.93637472e-001 3.57399321e+000 1.08703189e-001 4.84625101e-002
      3.15583088e-002 2.61918139e-002 7.72781491e-001 4.52620119e-001
      1.49223089e-001 1.27471077e+000 1.92738283e+000 1.40601933e+000
      2.75183674e-002 2.72532868e+000 7.85597920e-001 4.00236070e-001
      1.53494620e+000 2.91999638e-001 5.02753794e-001 1.06585300e+000
      2.57737964e-001 7.28577673e-001 3.81503910e-001 6.99306577e-002
      6.80993915e-001 7.54468963e-002 1.05431402e+000 6.01280391e-001
      1.87959325e+000 8.28961313e-001 1.79823264e-001 5.91519713e-001
      1.39595962e+000 1.33085400e-001 6.19043887e-001 1.38835609e-001
      4.73676296e-003 1.81331229e+000 4.39453006e-001 1.64557561e-001
      1.20634533e-001 2.60245409e-002 7.27011025e-001 6.94812834e-002
      1.04941833e+000 5.21104217e-001 5.32128632e-001 1.49875432e-001
      1.67003918e+000 8.74707401e-002 5.78386569e-003 1.31707788e-001
      1.84220046e-001 1.50730267e-001 7.31992483e-001 1.77274430e+000
      1.82081293e-002 1.47761595e+000 2.49578860e-002 2.34166365e-002
      1.48906946e-001 1.14652187e-001 1.88884604e+000 7.29301199e-002
      9.26144645e-002 1.96607690e-002 1.16584748e-001 9.45855379e-001
      1.22353745e+000 1.17078686e+000 6.21153533e-001 4.19191629e-001
      9.61061001e-001 5.75083971e-001 7.91395962e-001 1.23445332e-001
      1.15372550e+000 1.28576803e+000 3.28743964e-001 4.78457779e-001
      2.55330298e-002 6.25285730e-002 9.82591286e-002 1.35015440e+000
      4.43506569e-001 3.13084364e-001 5.36856711e-001 2.49104953e+000
      3.97474021e-002 1.46275267e-001 5.44837236e-001 4.81717056e-003
      1.06120932e+000 4.70002228e-003 9.13006663e-002 1.87465698e-001
      1.06247282e+000 1.20305800e+000 1.93662614e-001 4.00265716e-002
      1.10049188e+000 4.07725871e-001 5.58255315e-001 2.11408281e+000
      4.96587932e-001 6.00561239e-002 9.77438092e-001 4.22174096e-001
      2.51708579e+000 1.31378818e+000 1.95223749e+000 5.92056334e-001
      4.57876781e-003 7.80015469e-001 1.33519277e-001 9.92050409e-001
      4.80705738e-001 6.35888159e-001 5.44043183e-001 4.20767397e-001
      4.65218335e-001 2.02739334e+000 9.84104514e-001 2.89190449e-002
      1.62503171e+000 1.57476336e-001 4.32597250e-001 2.58249491e-001
      8.18747938e-001 1.29308283e-001 1.53098130e+000 1.18955541e+000
      8.82351339e-001 2.29775295e-001 5.47894716e-001 1.30658597e-001
      2.39030700e-002 9.17368382e-002 4.09382522e-001 2.57157373e+000
      7.02091277e-001 1.27845049e+000 1.06106982e-001 8.36807907e-001
      7.37917647e-002 1.69847429e+000 1.39278293e+000 1.28853631e+000
      1.49321839e-001 2.35975075e+000 5.21842659e-001 9.67230499e-001
      1.16834545e+000 1.01225924e+000 1.62109518e+000 1.96472001e+000</_>
    <_>
      1.16304807e-001 2.19924897e-001 2.01586199e+000 2.82774687e-001
      3.37233432e-002 3.71802509e-001 2.20076695e-001 1.88791290e-001
      1.33492529e-001 1.23895121e+000 3.99683565e-001 5.47430038e-001
      4.58051890e-001 7.73127019e-001 2.82787252e-002 1.98455807e-002
      8.39280725e-001 6.73498631e-001 9.49037433e-001 4.92268682e-001
      6.62611663e-001 3.11197519e-001 7.09281191e-002 3.70796293e-001
      1.11463301e-001 1.29844546e+000 8.29754353e-001 9.89262909e-002
      5.99517405e-001 2.00757191e-001 7.61224404e-002 1.74010634e-001
      3.44199032e-001 3.40638340e-001 1.59599113e+000 4.12182987e-001
      2.71822214e-001 4.91322368e-001 1.26466095e+000 2.47645438e-001
      6.24664575e-002 1.38283223e-001 2.07233354e-001 3.55164766e-001
      2.45196801e-002 1.72535721e-002 1.25745445e-001 3.02146673e-001
      4.24143255e-001 5.29494166e-001 4.45087671e-001 5.22597730e-001
      1.08351421e+000 6.18660986e-001 6.11602783e-001 1.09289825e+000
      2.75504559e-001 2.04334334e-001 4.67447370e-001 1.29936719e+000
      8.59968305e-001 9.93321896e-001 2.13355143e-002 3.51311974e-002
      1.47426248e-001 6.92350805e-001 8.63625482e-002 1.21142733e+000
      6.46835845e-003 1.28588617e+000 1.68975875e-001 2.12267134e-002
      5.33644378e-001 7.65881896e-001 9.01738048e-001 3.90077859e-001
      1.25477278e+000 8.31894159e-001 7.33789563e-001 3.54185969e-001
      2.54190207e-001 3.00615877e-001 1.09702229e+000 1.74797976e+000
      3.11078876e-001 2.16098115e-001 6.63942397e-001 1.51738063e-001
      5.00745466e-003 1.33055910e-001 3.82973403e-001 1.02315331e+000
      1.50278315e-001 8.99688542e-001 1.07660061e-002 4.86537628e-002
      8.74741673e-001 8.84445727e-001 1.16565454e+000 2.82590771e+000
      1.88385636e-001 9.36423421e-001 9.57230210e-001 2.08579540e+000
      1.41005790e+000 2.29013637e-002 3.81182611e-001 1.60086775e+000
      3.61995578e-001 1.14119770e-002 2.08489478e-001 3.75797749e-001
      8.73073712e-002 1.50647318e+000 2.95713425e-001 9.18270350e-001
      1.49902332e+000 6.63182586e-002 1.05414979e-001 1.32646292e-001
      3.48802358e-001 3.69578212e-001 2.35365242e-001 1.19650371e-001
      1.19783914e+000 1.50547981e-001 8.58857453e-001 2.95928741e+000
      6.68639660e-001 6.23296618e-001 1.13177281e-002 3.04304570e-001
      9.73445848e-002 4.13769662e-001 4.04387601e-002 1.47741467e-001
      3.65846492e-002 2.95106918e-001 2.55200028e-001 2.32691318e-001
      1.89597055e-001 2.37556975e-002 3.40011418e-002 1.21959552e-001
      2.86135878e-002 9.31368709e-001 2.69730747e-001 6.15420453e-002
      1.44335171e-002 1.40975744e-001 1.25266683e+000 3.60419226e+000
      1.01111698e+000 2.63852030e-001 7.05503762e-001 1.44830495e-001
      8.87221247e-002 3.61409068e-001 5.54903150e-001 1.80312887e-001
      8.71500745e-002 2.93519013e-002 2.19873205e-001 2.35348538e-001
      1.47760585e-001 1.96402922e-001 1.11969285e-001 1.78985274e+000
      7.75283456e-001 7.18588889e-001 1.86870918e-001 2.32589737e-001
      7.14647770e-001 8.11155915e-001 1.28769195e+000 3.04742843e-001
      9.65511560e-001 4.79939669e-001 3.85453254e-002 2.33290106e-001
      3.41866821e-001 1.31452575e-001 1.71397049e-002 1.33363628e+000
      9.13938701e-001 5.33868790e-001 2.06465535e-002 6.70228124e-001
      2.21698016e-001 6.92341685e-001 2.00637043e-001 2.21181065e-001
      3.48604947e-001 2.30752081e-001 2.25476995e-002 7.99124241e-001
      1.29906669e-001 1.51752841e+000 2.00059950e-001 3.41744646e-002
      9.84321773e-001 1.56424129e+000 3.54630589e-001 8.84326547e-002
      1.58017159e-001 2.15156358e-002 1.97987091e-002 3.47627938e-001
      4.43120450e-002 3.27693969e-002 7.29113877e-001 2.73894787e-001
      5.09257913e-001 3.27574402e-001 2.19518200e-001 1.03966916e+000
      6.06532037e-001 2.28317007e-002 1.62953511e-002 2.54875064e-001
      2.37909698e+000 1.28394568e+000 4.83347215e-002 1.22800209e-001
      1.84153259e-001 1.00236309e+000 1.66250750e-001 1.50832415e-001
      2.29196858e+000 7.67751932e-002 1.42745376e-001 9.61144388e-001
      7.63785303e-001 1.34629512e+000 9.09647420e-002 1.02492543e-002
      1.22776560e-001 1.67185277e-001 1.30212522e+000 1.88044518e-001
      1.09952748e+000 4.50825393e-001 2.97747791e-001 8.40107501e-001
      1.04762352e+000 1.76358268e-001 5.91353923e-002 1.41551360e-001
      9.35603585e-003 1.94171425e-002 2.25990131e-001 1.13375664e+000
      8.59200805e-002 5.98368704e-001 6.93080485e-001 1.99166203e+000
      1.11863669e-002 7.17093587e-001 3.54020953e-001 8.72567818e-002
      2.11614442e+000 3.56030822e-001 1.33708239e+000 2.72200644e-001
      9.70769450e-002 2.56155038e+000 2.09098890e-001 8.87626112e-002
      3.38113964e-001 3.63459438e-002 1.18232560e+000 2.46413827e-001
      6.30050480e-001 1.15644105e-001 7.91813508e-002 4.83553767e-001
      1.64418554e+000 1.14935815e-001 1.89824969e-001 7.08662495e-002
      6.09500334e-003 1.36305392e+000 3.91994268e-001 8.75484794e-002
      3.18114012e-001 7.18288217e-003 4.70822573e-001 8.40292200e-002
      3.44057059e+000 2.18276784e-001 2.50344336e-001 1.63723290e-001
      7.15898693e-001 6.44040629e-002 7.87929818e-003 8.97410214e-002
      5.28392605e-002 2.15617612e-001 6.07982874e-001 4.67623889e-001
      1.69022381e-002 8.13373446e-001 1.21670691e-002 2.53824629e-002
      7.34401643e-002 1.35897264e-001 8.51523936e-001 3.64826024e-002
      2.83453949e-002 1.43272001e-002 1.63321465e-001 2.17510715e-001
      2.46395588e+000 3.53006816e+000 5.41756392e-001 8.53749633e-001
      1.25206101e+000 1.80282176e-001 4.64785010e-001 1.27290577e-001
      1.25878894e+000 1.23940682e+000 1.22024313e-001 2.31748998e-001
      2.55891383e-002 7.71855786e-002 1.01214059e-001 3.72836381e-001
      3.75316441e-001 3.55603009e-001 6.81651711e-001 8.00881565e-001
      3.34958993e-002 7.51476660e-002 7.45941222e-001 6.23205816e-003
      1.28527117e+000 3.65514122e-003 4.96501960e-002 9.76798460e-002
      3.06205690e-001 1.29511714e+000 9.48900357e-002 6.61181360e-002
      2.78848708e-001 3.67063880e-001 2.82425582e-001 4.61668551e-001
      7.09601581e-001 3.55068780e-002 1.11500812e+000 3.32523525e-001
      6.36269569e-001 9.94797766e-001 1.31134653e+000 1.49037695e+000
      5.21155586e-003 4.34582591e-001 1.48583218e-001 1.24161315e+000
      1.43250751e+000 2.44487375e-001 4.24384773e-001 1.76739109e+000
      4.45182174e-001 1.93958211e+000 1.59236610e-001 1.47723099e-002
      7.30137646e-001 7.70379305e-002 3.62936646e-001 6.70525655e-002
      4.47875530e-001 1.44869685e-001 4.75594044e-001 5.58790565e-001
      1.26555932e+000 1.65466070e-001 1.20356631e+000 2.08820403e-001
      2.91232876e-002 9.25150588e-002 1.13478220e+000 3.06886673e+000
      4.73266751e-001 5.35429418e-001 8.58498886e-002 1.10634565e+000
      3.47565673e-002 1.80962121e+000 1.58321059e+000 1.17432761e+000
      1.51222095e-001 5.39583504e-001 2.25819021e-001 1.20104349e+000
      1.62194324e+000 6.40715241e-001 2.13746786e+000 3.56247395e-001</_>
    <_>
      3.91195565e-002 2.55840540e-001 1.49956727e+000 2.13123396e-001
      4.55782749e-002 4.11244571e-001 5.50498143e-002 1.20956711e-001
      1.59536883e-001 1.25314426e+000 2.33960703e-001 3.59032124e-001
      1.49870351e-001 1.46435821e+000 4.45207097e-002 7.16002146e-003
      9.88136888e-001 2.41592541e-001 6.57578170e-001 2.83964515e-001
      4.70426321e-001 3.45654339e-001 1.18136793e-001 2.30975926e-001
      1.14048854e-001 1.93211362e-001 5.36577225e-001 6.39327914e-002
      7.82937765e-001 1.10590771e-001 5.10776080e-002 1.18963309e-001
      1.60436198e-001 2.44622186e-001 4.51336443e-001 1.93343624e-001
      1.97664976e-001 1.80733681e-001 1.82117629e+000 1.05537482e-001
      3.16358805e-002 1.10030018e-001 3.13491970e-001 5.83019257e-001
      1.34218270e-002 1.67024136e-002 1.15393780e-001 3.15872520e-001
      4.67800170e-001 5.84107637e-001 1.11085510e+000 2.96186745e-001
      5.68368077e-001 5.03940403e-001 6.51646778e-002 5.41696608e-001
      4.63808864e-001 1.92478284e-001 8.98907065e-001 3.96556556e-001
      1.19752371e+000 2.79514641e-001 4.54030894e-002 4.22974303e-002
      6.73430189e-002 1.97166815e-001 4.02601808e-002 1.71530879e+000
      6.58727018e-003 2.29881197e-001 2.85977066e-001 1.62722375e-002
      3.61493558e-001 2.61492670e-001 2.91506767e-001 5.84517002e-001
      2.27366745e-001 5.73608756e-001 8.80957186e-001 7.12829292e-001
      1.18154816e-001 1.06429935e-001 8.98707390e-001 1.98427409e-001
      3.72736365e-001 4.67992604e-001 1.05598116e+000 1.06652126e-001
      2.81072198e-003 9.56854597e-002 2.65847832e-001 7.45491028e-001
      1.29139781e-001 8.56156409e-001 7.25478213e-003 2.16789860e-002
      1.58933711e+000 5.46035469e-001 1.81532964e-001 2.60098308e-001
      2.99244016e-001 4.46748763e-001 1.73165515e-001 1.04486763e+000
      1.35300890e-001 1.69132836e-002 3.05838972e-001 1.22578645e+000
      7.55477846e-001 1.78275518e-002 1.19342789e-001 1.37878120e-001
      1.32111132e-001 3.70481819e-001 1.09806910e-001 3.66365910e-001
      2.48011157e-001 4.44684885e-002 3.22600976e-002 1.51132643e-001
      2.80042022e-001 1.98314533e-001 1.59603745e-001 2.31702670e-001
      9.74960625e-001 1.90427229e-001 9.80251253e-001 1.53927052e+000
      8.36522341e-001 4.88697618e-001 1.11581208e-002 3.94206107e-001
      7.13940635e-002 2.39367694e-001 3.36530432e-002 1.06670961e-001
      2.03411747e-002 3.75670284e-001 4.47358519e-001 3.16045493e-001
      2.50315100e-001 1.36761563e-002 3.67448144e-002 1.18125752e-001
      2.49647200e-002 7.33288884e-001 1.86258465e-001 4.41758595e-002
      1.08081633e-002 2.72532582e-001 7.28616476e-001 1.10987282e+000
      1.85972404e+000 2.62031198e-001 4.01692152e-001 1.41911641e-001
      1.00879937e-001 7.70907581e-001 4.14094180e-001 1.11995846e-001
      7.09985420e-002 4.70332764e-002 1.96981072e-001 2.62831151e-001
      1.03321701e-001 1.35944262e-001 4.92314547e-001 1.31711245e+000
      2.73332268e-001 2.01250270e-001 1.31481215e-001 4.10799056e-001
      6.80097401e-001 5.97888052e-001 1.73261797e+000 1.14546619e-001
      1.34519756e+000 4.40144897e-001 4.05054875e-002 1.35558456e-001
      1.43945128e-001 1.03524469e-001 1.18851904e-002 8.68619025e-001
      2.68501669e-001 2.77925223e-001 2.79414020e-002 7.24208951e-001
      1.80411488e-001 1.30821240e+000 3.30874830e-001 1.94177851e-001
      7.08259225e-001 1.13918357e-001 1.21186227e-002 1.66148677e-001
      9.46698263e-002 8.51910591e-001 3.82175505e-001 2.52542309e-002
      2.58090496e-001 2.18650192e-001 2.71996588e-001 3.01397383e-001
      8.49600807e-002 1.88626517e-002 2.62020584e-002 2.19170481e-001
      5.88874817e-002 2.65633613e-002 3.23625773e-001 1.77118734e-001
      9.41588700e-001 4.56748396e-001 1.15045160e-001 3.85157228e-001
      1.36484063e+000 1.06616458e-002 1.83509141e-002 5.31745017e-001
      5.74064493e-001 7.57490218e-001 3.23237926e-002 1.05198316e-001
      1.82946116e-001 2.56776214e-001 1.36446983e-001 1.32044733e-001
      1.79940537e-001 8.98757651e-002 1.34674102e-001 2.83117741e-001
      6.59161389e-001 1.53045213e+000 1.37605980e-001 7.32587371e-003
      1.58600554e-001 2.96208411e-001 8.73980939e-001 2.30007857e-001
      6.25014484e-001 9.48210418e-001 3.05062056e-001 2.94347495e-001
      6.04263783e-001 1.06039166e+000 9.42216143e-002 3.86733860e-002
      9.66195017e-003 2.63551828e-002 3.75839293e-001 2.68752843e-001
      9.31704417e-002 4.76394773e-001 6.40775263e-001 1.66437185e+000
      1.05729448e-002 8.85463476e-001 4.42418575e-001 1.98228702e-001
      9.28089201e-001 1.50052100e-001 2.90886730e-001 7.94530690e-001
      1.11158289e-001 1.35055697e+000 1.52944401e-001 5.08905090e-002
      2.10052565e-001 3.60838212e-002 1.02845025e+000 2.92902946e-001
      2.21885115e-001 4.73471940e-001 1.29658341e-001 4.48948413e-001
      8.74897778e-001 7.44970515e-002 2.55217791e-001 1.14644788e-001
      6.25865720e-003 3.80687594e-001 1.60893011e+000 8.84168595e-002
      6.44138381e-002 1.06551284e-002 2.87250370e-001 6.84956312e-002
      6.78256214e-001 6.09787963e-002 2.95855314e-001 1.19272888e-001
      6.76823974e-001 5.17706163e-002 4.61712014e-003 1.32718012e-001
      6.60999790e-002 1.79217473e-001 3.71262044e-001 1.10290551e+000
      1.55627821e-002 7.04536021e-001 1.09116556e-002 1.33574903e-002
      1.17509082e-001 1.96588531e-001 7.93667972e-001 4.55050133e-002
      2.55362596e-002 1.36588616e-002 7.02287629e-002 3.99342775e-001
      7.89875805e-001 6.42493248e-001 4.43418115e-001 3.86594236e-001
      3.50709110e-001 3.67152214e-001 5.86109281e-001 8.41615200e-002
      8.19220304e-001 1.65303457e+000 1.64475039e-001 3.68949533e-001
      1.41105931e-002 9.00771320e-002 8.46703127e-002 4.30760235e-001
      4.04643983e-001 3.23389560e-001 4.85764354e-001 4.41558182e-001
      3.51640694e-002 7.77569488e-002 3.71999860e-001 6.45594765e-003
      7.17646182e-001 6.21115416e-003 4.47639748e-002 7.77707398e-002
      4.00379986e-001 1.14325571e+000 1.59657836e-001 3.20719779e-002
      3.78495663e-001 1.79532707e-001 1.71957746e-001 8.48194003e-001
      2.61191756e-001 4.00095396e-002 4.05661345e-001 1.51130468e-001
      1.32397795e+000 7.19307303e-001 8.93454909e-001 2.61489689e-001
      6.10556919e-003 5.53240716e-001 1.08475350e-001 6.92840159e-001
      9.31955874e-002 2.24858806e-001 5.81560969e-001 1.51370555e-001
      4.65136707e-001 1.17774439e+000 2.40799889e-001 1.19366888e-002
      8.89119685e-001 1.14176899e-001 1.25635281e-001 1.37080312e-001
      5.29769957e-001 6.35387748e-002 1.12160122e+000 2.38069907e-001
      5.64591408e-001 2.02614814e-001 1.72325686e-001 1.04732871e-001
      2.52148751e-002 1.00389063e-001 5.77533066e-001 1.61780667e+000
      4.68309879e-001 1.67359591e-001 1.11524068e-001 7.95327008e-001
      4.23141271e-002 1.63606393e+000 1.52435875e+000 4.13674712e-001
      1.49681330e-001 7.70995140e-001 1.30564690e-001 7.17449725e-001
      5.54943323e-001 3.84254903e-001 9.28957224e-001 6.98201358e-001</_>
    <_>
      9.30840001e-002 6.19503260e-001 2.46119475e+000 2.01831564e-001
      5.66409789e-002 1.27730370e+000 2.89730951e-002 4.03684676e-001
      1.22942343e-001 1.09239471e+000 1.16604701e-001 3.13805938e-001
      4.48211610e-001 2.21358848e+000 1.85415167e-002 1.05772736e-002
      4.94876295e-001 8.77871588e-002 1.30363166e-001 2.34926760e-001
      1.00392342e+000 8.46918523e-001 2.53960967e-001 3.62358868e-001
      1.07038274e-001 1.10289767e-001 1.21985948e+000 8.03716034e-002
      5.74756384e-001 1.61210549e+000 5.05779795e-002 2.01917216e-001
      2.55629689e-001 2.85805762e-001 5.07157668e-002 5.76005697e-001
      2.29438856e-001 4.22327012e-001 4.85032320e-001 1.33198917e-001
      1.74324475e-002 1.38595715e-001 6.68035209e-001 1.01658201e+000
      2.21792795e-002 4.97398414e-002 2.00878128e-001 3.75776976e-001
      4.98290449e-001 5.98154545e-001 2.62753934e-001 4.42654490e-001
      1.51322007e+000 6.99978173e-001 4.82335240e-002 5.81455767e-001
      7.53870666e-001 2.22984850e-001 1.60633671e+000 4.21647012e-001
      2.64089465e+000 5.10434568e-001 4.79313694e-002 1.40523806e-001
      2.33282581e-001 7.07889721e-002 4.78508584e-002 1.85310018e+000
      4.48558154e-003 2.46859878e-001 4.30241078e-001 1.18289543e-002
      1.03620851e+000 5.78085840e-001 1.08966343e-001 2.52481937e+000
      1.76207155e-001 6.84062362e-001 1.39824021e+000 2.14654520e-001
      8.34723651e-001 4.55260426e-001 6.81389272e-001 1.15897283e-001
      1.03435494e-001 3.32904875e-001 2.05799961e+000 2.52448954e-002
      7.41320429e-003 1.62899747e-001 9.62151468e-001 1.13258255e+000
      1.35028362e-001 1.08595157e+000 1.48421936e-002 3.32187861e-002
      1.92121887e+000 1.08313262e+000 3.14091444e-002 1.34818047e-001
      1.80205837e-001 5.79241276e-001 9.16223451e-002 5.08345008e-001
      7.97115341e-002 1.67165622e-002 1.33092195e-001 2.35860324e+000
      8.17579031e-001 1.41254710e-002 5.34767807e-002 3.54711711e-001
      7.80441761e-002 6.12612404e-002 2.40568034e-002 1.65739864e-001
      3.89409512e-001 5.81729524e-002 4.44496721e-002 1.57137021e-001
      1.05823949e-001 5.79633713e-001 9.58111361e-002 2.62529194e-001
      1.06624648e-001 2.12672400e+000 1.65436804e-001 6.00589156e-001
      3.98326069e-001 9.02607918e-001 2.18419656e-002 6.26619697e-001
      2.73206472e-001 5.15402913e-001 7.60784820e-002 2.63041764e-001
      5.08468188e-002 2.68940777e-001 3.63995939e-001 8.70876908e-002
      2.42871046e-001 2.32180413e-002 7.75574595e-002 4.69769463e-002
      4.33166772e-002 3.36835295e-001 1.78021204e+000 6.15927465e-002
      2.00500358e-002 2.24361375e-001 1.09904669e-001 1.78837907e+000
      6.79361761e-001 1.54532626e-001 9.77619648e-001 1.43226698e-001
      1.27062559e-001 4.97360855e-001 5.41496933e-001 1.24551326e-001
      8.59080330e-002 4.07218225e-002 1.23602971e-001 1.51475102e-001
      1.86452001e-001 8.76431093e-002 1.10512066e+000 1.68289053e+000
      5.99189103e-001 6.09480850e-002 2.79506266e-001 2.61338979e-001
      5.99438429e-001 1.39845717e+000 1.42121553e+000 4.15353701e-002
      2.71547824e-001 4.19661373e-001 1.22196957e-001 9.23272446e-002
      1.22221005e+000 1.62650973e-001 8.79911147e-003 1.03799152e+000
      1.86530456e-001 9.24320519e-001 2.57479213e-002 2.24839926e+000
      1.46962810e+000 2.52923512e+000 1.27334028e-001 2.18018085e-001
      1.71132147e+000 5.44239208e-002 6.15196722e-003 1.74637005e-001
      2.24092886e-001 7.14669466e-001 2.92242974e-001 6.47718161e-002
      2.70563751e-001 2.28853643e-001 2.17112437e-001 1.33708045e-002
      3.33645940e-002 1.66362952e-002 1.61422286e-002 2.66802132e-001
      6.16973005e-002 3.30159925e-002 3.57050031e-001 4.90551412e-001
      7.00585961e-001 7.79235244e-001 6.08990043e-002 2.98914433e-001
      2.49426439e-001 4.79460461e-003 2.04793606e-002 1.50771630e+000
      8.36105645e-001 7.64974594e-001 1.98911801e-002 8.90135095e-002
      1.84969580e+000 9.41835120e-002 1.75122306e-001 2.72508055e-001
      2.85341203e-001 1.68660060e-001 2.40742981e-001 5.22518456e-001
      1.13296233e-001 1.33118689e+000 9.15054679e-002 2.18878780e-002
      2.09732696e-001 2.15760767e-001 5.02809584e-001 1.30063549e-001
      8.32329035e-001 2.40548038e+000 3.59873563e-001 6.82044268e-001
      1.05274856e-001 3.09736872e+000 1.08849734e-001 3.11409980e-002
      2.43503023e-002 1.60115641e-002 4.36725199e-001 1.23815171e-001
      1.45697445e-001 5.58642864e-001 6.98160112e-001 2.78099632e+000
      2.00101361e-002 2.28377032e+000 7.65206158e-001 6.66537702e-001
      6.62060618e-001 2.38555074e-001 2.90517300e-001 3.83090496e-001
      3.16531181e-001 7.76072562e-001 1.21073879e-001 8.05000439e-002
      9.38456208e-002 5.18559292e-002 6.34330690e-001 2.08455518e-001
      3.59510452e-001 3.99440676e-001 2.27538422e-001 9.69587415e-002
      7.57508814e-001 6.40996993e-002 1.45042881e-001 1.15392797e-001
      4.99557005e-003 2.90588945e-001 9.85142112e-001 6.49858192e-002
      1.01832598e-001 9.63912439e-003 2.92907804e-001 6.11069538e-002
      1.90402842e+000 3.97810847e-001 3.94035339e-001 1.52125493e-001
      8.08284342e-001 1.61507457e-001 7.48952385e-003 1.29019186e-001
      7.17605129e-002 3.09585482e-001 7.18262672e-001 4.46008950e-001
      5.05351555e-003 4.75428849e-001 1.65615734e-002 2.17281524e-002
      3.42358530e-001 2.13762000e-001 5.07100701e-001 4.45600189e-002
      5.85098416e-002 1.70325786e-002 3.35535631e-002 5.94126761e-001
      7.50044763e-001 2.31246400e+000 8.90292004e-002 9.41951394e-001
      4.10027295e-001 2.07839623e-001 2.03825846e-001 2.64586359e-001
      4.19116735e-001 1.57194793e+000 6.64414540e-002 6.03715181e-001
      2.31853630e-002 1.65995732e-001 9.68772098e-002 6.83809742e-002
      4.60172117e-001 4.00642067e-001 7.64649689e-001 1.41722023e+000
      9.81764402e-003 3.17412674e-001 8.29630792e-001 5.12533495e-003
      6.66595519e-001 5.02739847e-003 1.74005374e-001 9.90664437e-002
      3.57515901e-001 1.13444373e-001 2.55822152e-001 1.64113417e-002
      2.73449570e-001 3.12533118e-002 6.12202108e-001 1.50717223e+000
      4.81023014e-001 1.26601860e-001 1.38369724e-001 7.06194118e-002
      2.33514011e-001 1.72622457e-001 7.78500915e-001 2.68614203e-001
      5.12297451e-003 3.78519982e-001 1.57871827e-001 6.08649015e-001
      5.75844087e-002 1.65591225e-001 5.34810007e-001 8.80413279e-002
      4.46593970e-001 1.08311069e+000 1.84560969e-001 6.59090513e-003
      1.18732357e+000 2.66976058e-001 6.30984068e-001 6.89540148e-001
      5.79883158e-001 3.97309065e-002 6.11862838e-001 4.24342096e-001
      8.19863260e-001 1.21542096e-001 1.73382685e-001 1.75856873e-001
      4.16470319e-002 8.38603303e-002 5.28000653e-001 1.69956708e+000
      4.40382391e-001 1.00794029e+000 9.98601243e-002 4.41357553e-001
      4.83029149e-002 1.23145914e+000 1.60870779e+000 2.81615049e-001
      3.19518834e-001 1.43614471e+000 1.10284634e-001 1.47378743e+000
      1.36497176e+000 4.54712987e-001 9.32662547e-001 1.67227793e+000</_>
    <_>
      5.32263629e-002 2.93282062e-001 1.93333936e+000 4.72437799e-001
      4.37429808e-002 1.65800735e-001 1.22759312e-001 1.77450523e-001
      1.71409637e-001 1.11694908e+000 2.33112618e-001 3.87793481e-001
      1.98046243e+000 8.03273439e-001 4.82462198e-002 1.34164179e-002
      1.13397658e+000 2.71593153e-001 6.55816853e-001 6.51236653e-001
      8.45987856e-001 6.37328148e-001 8.90098214e-002 1.79393947e+000
      2.06699759e-001 4.16615307e-001 1.06314456e+000 9.45070237e-002
      3.70372951e-001 2.50712812e-001 4.50586453e-002 1.43804520e-001
      1.94225013e-001 1.58875093e-001 2.11728394e-001 2.51746273e+000
      1.05454057e-001 4.18062896e-001 8.51844072e-001 2.33458787e-001
      1.76938474e-002 2.77746588e-001 1.46453753e-001 2.75040597e-001
      1.40737612e-002 2.96878554e-002 3.60906452e-001 5.34333289e-001
      7.11842716e-001 1.18673897e+000 9.08641875e-001 4.45786148e-001
      6.79717720e-001 4.07461017e-001 3.42162639e-001 7.05054998e-001
      8.93006802e-001 2.39086971e-001 1.36258590e+000 2.09353709e+000
      1.61917794e+000 8.06831300e-001 5.27260676e-002 8.08637291e-002
      9.03989226e-002 1.81189895e-001 4.46952879e-002 1.47107637e+000
      5.47039416e-003 7.32814431e-001 2.16921583e-001 1.03157926e-002
      7.89788246e-001 4.94693965e-001 6.82953775e-001 7.94876993e-001
      3.48264545e-001 9.40859914e-001 5.23395717e-001 4.03351784e-001
      2.17951655e-001 1.10816948e-001 8.74510944e-001 7.56811976e-001
      2.94289768e-001 9.04338717e-001 2.02890897e+000 1.70218572e-001
      4.70442371e-003 2.73606330e-001 6.48317039e-001 9.32660937e-001
      1.27932683e-001 1.34436107e+000 1.79521367e-002 3.87444831e-002
      1.15373099e+000 4.80588257e-001 1.44376889e-001 6.38357162e-001
      3.90515506e-001 4.68252271e-001 3.88602644e-001 7.03365803e-001
      2.96338975e-001 1.99960675e-002 4.76595551e-001 1.00657809e+000
      6.67553842e-001 1.55220730e-002 9.03554335e-002 1.15393721e-001
      1.22028328e-001 3.42254698e-001 9.23030451e-002 3.02824438e-001
      5.96740305e-001 5.61959445e-002 5.02535477e-002 1.46422356e-001
      1.60436705e-001 1.09920688e-001 2.22994566e-001 9.32401657e-001
      7.70305753e-001 3.07601988e-001 1.00823772e+000 1.20232785e+000
      5.06966710e-001 1.92919135e+000 1.40192490e-002 3.63317937e-001
      1.44799635e-001 4.97250646e-001 3.21032628e-002 1.18252620e-001
      4.25723083e-002 7.68438101e-001 4.17042822e-001 3.34951073e-001
      4.33719248e-001 1.42969526e-002 4.48370837e-002 9.15655270e-002
      3.61379273e-002 1.95930815e+000 4.17309850e-001 4.99612466e-002
      1.52671784e-002 7.35096872e-001 5.60192049e-001 9.00544822e-001
      7.67491937e-001 3.60927850e-001 6.10729635e-001 1.80924043e-001
      9.15288106e-002 1.32446682e+000 7.07807779e-001 1.38996467e-001
      8.54364187e-002 3.68531756e-002 2.67505020e-001 3.62204105e-001
      1.20986395e-001 1.86935753e-001 1.18247771e+000 7.27073014e-001
      2.00903311e-001 1.67513758e-001 1.47810102e-001 3.87687147e-001
      1.51066422e+000 4.56820726e-001 1.51022887e+000 6.51818216e-002
      7.15565741e-001 6.03551686e-001 8.40647966e-002 1.80851832e-001
      7.70347044e-002 1.41440958e-001 1.12278527e-002 6.36975825e-001
      3.28143388e-001 1.08159375e+000 1.87327340e-002 1.54947090e+000
      3.11592788e-001 7.67673492e-001 2.92044103e-001 5.70371151e-001
      1.29972339e+000 9.31523889e-002 6.17940491e-003 8.70437860e-001
      7.84871802e-002 5.80559909e-001 5.14070868e-001 4.36607748e-002
      7.10503995e-001 1.06619513e+000 4.88858938e-001 6.48181885e-002
      1.96473300e-001 1.86922457e-002 1.91092882e-002 1.70874596e-001
      5.72890714e-002 3.52795683e-002 5.72674692e-001 5.01566589e-001
      1.70037699e+000 5.77666044e-001 8.16790983e-002 3.66880000e-001
      1.72691572e+000 5.90710342e-003 1.52045889e-002 9.77408350e-001
      7.70691276e-001 8.07473302e-001 2.30678841e-002 1.26044288e-001
      2.64914572e-001 5.44955194e-001 1.21915042e-001 1.40202180e-001
      2.23034397e-001 9.72510874e-002 1.17846563e-001 5.38317442e-001
      9.09644186e-001 1.65663052e+000 1.17853776e-001 9.08758398e-003
      1.31294981e-001 4.23147976e-001 8.16770256e-001 4.03490961e-001
      3.39546174e-001 1.69552600e+000 5.64618051e-001 7.40392864e-001
      5.47374785e-001 2.28834152e+000 8.44441280e-002 6.43497854e-002
      1.30499946e-002 1.90937947e-002 5.83418131e-001 5.46438873e-001
      1.05274603e-001 1.02292383e+000 3.22834641e-001 1.56179726e+000
      1.29209794e-002 1.41814351e+000 4.67038780e-001 2.52192408e-001
      7.69028425e-001 3.59847933e-001 3.69652838e-001 1.55452335e+000
      9.64476690e-002 5.37146747e-001 2.08429739e-001 5.22360876e-002
      1.61320046e-001 4.19641361e-002 1.35325587e+000 3.69756937e-001
      2.16091561e+000 5.41862190e-001 1.32164508e-001 2.90262938e-001
      5.46057940e-001 1.10040739e-001 1.63135216e-001 1.02639012e-001
      4.89136251e-003 1.01900506e+000 5.50307155e-001 1.30579919e-001
      1.08713485e-001 8.14058073e-003 6.26341581e-001 5.03240898e-002
      7.62695432e-001 1.55475438e-001 4.37955886e-001 1.71355382e-001
      4.44792360e-001 8.17590281e-002 4.99231741e-003 1.28268406e-001
      1.54063180e-001 1.73115641e-001 3.65405083e-001 6.00672305e-001
      5.90718305e-003 1.71780467e+000 1.54234478e-002 1.39217507e-002
      1.74308121e-001 1.21612653e-001 1.40246665e+000 4.36344706e-002
      4.01402898e-002 1.44522358e-002 1.91299155e-001 8.20865154e-001
      7.69879818e-001 1.02729797e+000 2.69829452e-001 6.86885297e-001
      4.69746083e-001 3.21673155e-001 7.88365662e-001 9.65170562e-002
      7.33933926e-001 1.66817522e+000 1.79422662e-001 2.76867181e-001
      1.41412709e-002 9.84378308e-002 8.89238790e-002 8.18246126e-001
      5.73968589e-001 2.56750911e-001 5.12052953e-001 2.45874095e+000
      2.10055895e-002 1.26909688e-001 3.84451836e-001 4.94387839e-003
      1.58439171e+000 3.71800619e-003 7.84440115e-002 1.66277692e-001
      7.48285830e-001 1.22882473e+000 1.07719757e-001 1.80292167e-002
      8.82674456e-001 2.63900250e-001 3.15594226e-001 1.49914742e+000
      2.62159407e-001 8.26831609e-002 6.00947618e-001 2.77270705e-001
      2.20196342e+000 4.01911795e-001 9.52205360e-001 3.91740292e-001
      4.96921828e-003 2.47846529e-001 1.21762082e-001 1.04787230e+000
      3.31688404e-001 8.18489194e-001 3.38882327e-001 1.87695950e-001
      4.79985476e-001 8.16896439e-001 6.21826172e-001 8.36777966e-003
      1.55960751e+000 1.12454154e-001 5.97587712e-002 2.39505380e-001
      4.92860079e-001 1.68101907e-001 7.27115035e-001 9.38361406e-001
      7.68932760e-001 2.51251101e-001 4.17940438e-001 1.22434020e-001
      3.59818563e-002 1.19635858e-001 6.69025183e-001 1.56007552e+000
      3.56538296e-001 1.11213887e+000 8.92478675e-002 4.68934923e-001
      3.71973440e-002 1.97561908e+000 7.56439924e-001 1.90805852e+000
      1.24407582e-001 5.86144745e-001 1.89199433e-001 7.14136839e-001
      6.30880833e-001 6.40571654e-001 7.00320899e-001 3.91874194e-001</_>
    <_>
      9.82228294e-002 5.15397906e-001 1.54749548e+000 2.86018670e-001
      6.10067211e-002 7.84650326e-001 1.45788789e-001 1.53760090e-001
      1.93286419e-001 1.25837398e+000 1.66746691e-001 4.20638978e-001
      1.61929464e+000 1.33566141e+000 3.53903472e-002 9.66087729e-003
      7.78216958e-001 3.01839441e-001 9.64792967e-001 4.39657807e-001
      8.61215055e-001 5.99658430e-001 2.18043908e-001 1.66979003e+000
      4.37341690e-001 1.31004739e+000 1.96060646e+000 4.59767804e-002
      4.91094917e-001 4.58270997e-001 5.39068356e-002 2.75575787e-001
      2.48781890e-001 3.20692152e-001 2.87410647e-001 1.98141372e+000
      1.50054306e-001 4.33651417e-001 1.15234542e+000 4.26057130e-001
      2.86639240e-002 5.18966794e-001 1.58428907e-001 2.43708119e-001
      2.04634555e-002 2.24451628e-002 4.53986317e-001 3.23021680e-001
      5.65008283e-001 9.86602247e-001 2.40343601e-001 3.60221624e-001
      1.43601084e+000 1.65276384e+000 3.39378595e-001 1.28851902e+000
      5.11883259e-001 1.59394562e-001 7.75134921e-001 1.37090802e+000
      2.01540589e+000 3.49119723e-001 6.69704750e-002 8.80928934e-002
      2.45131895e-001 3.63904148e-001 8.44021216e-002 1.20592248e+000
      3.70388594e-003 9.68490779e-001 1.72850743e-001 1.48772532e-002
      4.42890406e-001 7.68334448e-001 6.52140260e-001 1.19460523e+000
      1.06725919e+000 1.22737372e+000 6.66136444e-001 4.17291433e-001
      5.16312480e-001 2.55355686e-001 1.05644941e+000 1.39019513e+000
      4.46420193e-001 4.39721495e-001 1.58879817e+000 2.28610814e-001
      7.80446734e-003 3.73251110e-001 4.87010866e-001 6.86335206e-001
      1.36843681e-001 5.60392499e-001 2.33895499e-002 2.33193077e-002
      1.34638405e+000 6.68486953e-001 5.59227347e-001 7.02991664e-001
      1.73247516e-001 8.98074865e-001 1.04320693e+000 1.17685187e+000
      3.17924321e-001 1.47652421e-002 7.39480555e-001 8.58397365e-001
      4.11311179e-001 1.45186922e-002 1.00265540e-001 1.88142940e-001
      1.26583576e-001 4.75991786e-001 1.15462758e-001 1.09155369e+000
      1.36777520e+000 4.45994660e-002 9.18410793e-002 1.44846544e-001
      2.58648723e-001 2.67393082e-001 4.45328265e-001 9.76194143e-001
      1.13286281e+000 9.69211876e-001 7.88923621e-001 1.48780119e+000
      3.61201972e-001 5.80312729e-001 9.35999677e-003 1.01000094e+000
      1.41747296e-001 5.54840684e-001 5.81729151e-002 2.05757648e-001
      8.52852613e-002 4.27184224e-001 4.41815287e-001 3.92017752e-001
      4.56859618e-001 2.17689462e-002 5.75757362e-002 1.82021037e-001
      7.28779212e-002 1.28679621e+000 9.79553759e-001 5.21514341e-002
      2.13921182e-002 4.26084250e-001 6.16947472e-001 9.16823804e-001
      8.02346408e-001 3.08024377e-001 1.04844248e+000 1.65616184e-001
      1.75455913e-001 2.74875522e-001 4.35312033e-001 1.73497081e-001
      4.78737876e-002 5.38719893e-002 4.42468047e-001 1.72145009e-001
      1.59831122e-001 1.26576170e-001 7.18197584e-001 5.84823191e-001
      3.27906489e-001 3.56198609e-001 2.53214836e-001 3.88478816e-001
      1.26994562e+000 7.41508365e-001 2.19926143e+000 1.15097232e-001
      7.12042868e-001 6.33228362e-001 8.46840292e-002 3.30548763e-001
      6.09361947e-001 1.69932246e-001 8.32378026e-003 1.44191051e+000
      2.33190551e-001 8.74867618e-001 4.43501361e-002 9.82943296e-001
      5.64054072e-001 8.84688854e-001 4.15819079e-001 9.08167362e-001
      9.45751369e-001 1.04609288e-001 1.15674976e-002 3.54077911e+000
      1.44676015e-001 1.32225585e+000 2.22160161e-001 5.11998460e-002
      7.12994576e-001 2.58243871e+000 3.11802387e-001 1.18411131e-001
      2.94753015e-001 1.49520924e-002 2.35081334e-002 2.29540899e-001
      5.30986860e-002 2.61493735e-002 3.76316875e-001 2.15357706e-001
      1.33494377e+000 6.86736941e-001 1.65308043e-001 2.63487041e-001
      9.97108936e-001 1.04311621e-002 2.83531453e-002 6.98536754e-001
      7.65476048e-001 6.52016163e-001 3.97517122e-002 1.96138456e-001
      6.13253653e-001 8.12073290e-001 8.72756764e-002 2.39572287e-001
      3.52984458e-001 1.88374072e-001 1.34389341e-001 1.61985779e+000
      8.53518069e-001 1.08955312e+000 9.30413604e-002 1.44896796e-002
      1.66692242e-001 4.37411398e-001 1.01845467e+000 4.85871285e-001
      1.37125850e+000 1.69599473e+000 4.22420293e-001 1.64468992e+000
      5.48328817e-001 8.16697836e-001 1.42265320e-001 1.15305789e-001
      1.21311303e-002 2.31920481e-002 3.04422975e-001 8.53501797e-001
      1.00845031e-001 3.18900883e-001 1.32040203e+000 9.46046710e-001
      8.69675539e-003 1.13251162e+000 6.39888883e-001 7.52780259e-001
      1.89482903e+000 6.51296496e-001 7.34702826e-001 9.52664495e-001
      2.37688795e-001 2.00354600e+000 3.94814938e-001 5.70879728e-002
      2.66113341e-001 5.02803884e-002 7.73543537e-001 3.36686939e-001
      2.06360936e+000 2.70874768e-001 1.72754034e-001 1.08576453e+000
      1.14916348e+000 1.58693269e-001 3.75554413e-001 1.00130558e-001
      4.19776421e-003 2.10752583e+000 3.23179364e-001 1.61233753e-001
      2.82794476e-001 1.64652541e-002 3.57463837e-001 4.98219915e-002
      9.10629451e-001 2.27606907e-001 3.70636612e-001 1.65881723e-001
      9.29003417e-001 4.93661687e-002 5.86410332e-003 1.31966949e-001
      2.16458037e-001 1.92455098e-001 3.43648970e-001 6.64327323e-001
      1.17458068e-002 6.01784408e-001 1.67262983e-002 1.98396854e-002
      3.75417829e-001 1.33883432e-001 6.16577506e-001 6.77405000e-002
      4.96928617e-002 1.84694920e-002 3.16952497e-001 5.79092681e-001
      1.62298024e+000 1.01547956e+000 4.99639183e-001 1.68572032e+000
      1.27992606e+000 3.64017040e-001 6.40225947e-001 2.48912066e-001
      1.26602745e+000 2.28321934e+000 1.66086212e-001 2.67479926e-001
      2.14879084e-002 1.83694378e-001 1.28853127e-001 1.26270676e+000
      3.49468172e-001 5.45104444e-001 5.01149178e-001 1.80725241e+000
      2.87639368e-002 1.57518327e-001 3.41724992e-001 4.18792805e-003
      1.12072396e+000 4.53673396e-003 4.59799431e-002 1.28134087e-001
      4.50783700e-001 3.08706188e+000 1.85067698e-001 3.17807384e-002
      8.15692067e-001 5.12858450e-001 3.33119154e-001 9.23508763e-001
      2.44742602e-001 7.79780895e-002 1.23496115e+000 3.56929630e-001
      1.14266253e+000 7.23813295e-001 1.16168296e+000 4.83676195e-001
      7.91249238e-003 4.90184665e-001 1.30254462e-001 1.48918486e+000
      3.27801287e-001 3.21599931e-001 5.34144461e-001 3.14215511e-001
      4.10526991e-001 7.10432947e-001 8.96779895e-001 1.62761174e-002
      1.15736341e+000 2.22398013e-001 3.17058384e-001 6.86016262e-001
      6.83152437e-001 2.62066036e-001 7.21417964e-001 1.15059936e+000
      1.13313246e+000 4.25588608e-001 3.70809436e-001 1.08712703e-001
      7.38305971e-002 1.45907611e-001 7.32592523e-001 2.19606543e+000
      4.62767869e-001 4.00294900e-001 1.15525782e-001 7.77791083e-001
      5.93799390e-002 1.31671703e+000 1.16328132e+000 9.20672894e-001
      2.71084756e-001 7.32904911e-001 2.16760427e-001 1.87056959e+000
      4.86507088e-001 6.46319628e-001 5.85996389e-001 1.13057816e+000</_>
    <_>
      1.01867378e-001 3.18674266e-001 9.53611910e-001 3.37903857e-001
      4.81838919e-002 3.27340215e-001 9.69140306e-002 2.96826642e-002
      1.87815577e-001 1.34557211e+000 1.32362962e-001 2.63829440e-001
      1.72880793e+000 8.37316155e-001 1.42624723e-002 8.35294090e-003
      1.47321355e+000 2.35944644e-001 1.02248764e+000 5.80290020e-001
      1.63036215e+000 4.99590516e-001 1.82776049e-001 2.38788581e+000
      3.59172255e-001 3.20884615e-001 1.03254473e+000 8.03151950e-002
      2.65376925e-001 1.73208907e-001 5.89353815e-002 1.88496023e-001
      2.31097221e-001 2.55413622e-001 3.34754437e-001 1.76100290e+000
      1.28983006e-001 5.07336020e-001 5.79404891e-001 2.74316967e-001
      2.14841776e-002 2.53954470e-001 6.96164295e-002 1.58512995e-001
      1.36507610e-002 2.01501306e-002 5.88792384e-001 2.31896520e-001
      3.72684330e-001 1.09740627e+000 9.58366334e-001 3.73263478e-001
      1.34685910e+000 9.24184203e-001 1.52452230e-001 5.18210590e-001
      5.98408103e-001 1.72221035e-001 8.79904628e-001 1.33180058e+000
      2.22437572e+000 1.60385025e+000 5.99008128e-002 3.33503112e-002
      2.29480371e-001 2.52063304e-001 4.04511243e-002 1.17432201e+000
      5.98316081e-003 7.04417706e-001 5.77699654e-002 1.81068406e-002
      1.68010187e+000 6.48485601e-001 5.11280477e-001 7.68109322e-001
      3.74778420e-001 6.23147309e-001 1.98326275e-001 5.13374507e-001
      3.70559931e-001 4.03860360e-001 7.01992214e-001 2.96021610e-001
      2.55798578e-001 1.20901370e+000 1.16012967e+000 9.02037770e-002
      4.91504092e-003 4.55730498e-001 6.16282940e-001 1.26900506e+000
      1.16141446e-001 1.62942040e+000 1.11301010e-002 2.57542823e-002
      1.14538014e+000 2.14797169e-001 1.38645351e-001 7.91533470e-001
      6.30076051e-001 9.24447834e-001 3.14104229e-001 5.12452364e-001
      3.07833076e-001 2.11607330e-002 8.50547731e-001 1.37810016e+000
      4.91129547e-001 1.64392013e-002 5.54259643e-002 4.47885066e-001
      9.47057009e-002 3.43932360e-001 8.23202804e-002 5.64433098e-001
      7.18067884e-001 8.36523101e-002 1.82066653e-002 1.53015614e-001
      2.43986294e-001 7.26437345e-002 2.16778204e-001 9.24613893e-001
      2.92501479e-001 8.50739405e-002 2.50932336e-001 4.55380023e-001
      2.53067195e-001 1.39706087e+000 1.10078147e-002 6.82401419e-001
      1.51377589e-001 5.66583633e-001 3.15199196e-002 1.24844804e-001
      1.78026780e-002 5.09721518e-001 9.51390982e-001 2.24184319e-001
      3.93229902e-001 1.39248893e-002 4.84905615e-002 7.28107765e-002
      1.61666162e-002 1.24184990e+000 9.43834856e-002 5.51900193e-002
      1.73997413e-002 3.46997559e-001 1.89806890e+000 1.41758120e+000
      5.94208300e-001 2.74090588e-001 9.06238079e-001 1.18039027e-001
      1.27889916e-001 8.03376734e-001 3.48611504e-001 1.48173511e-001
      7.49174505e-002 5.16387969e-002 2.91195273e-001 3.52028608e-001
      9.27936807e-002 1.10012800e-001 1.34781504e+000 1.23737645e+000
      7.62896895e-001 2.03073904e-001 1.50822014e-001 6.21340990e-001
      1.95887685e+000 5.08161247e-001 1.66518581e+000 5.34275956e-002
      2.27513373e-001 5.28059602e-001 3.91532257e-002 2.80823916e-001
      2.87150860e-001 1.53948024e-001 1.03975423e-002 9.62454557e-001
      4.56704974e-001 1.13412941e+000 4.45777401e-002 1.15597010e+000
      7.51186460e-002 7.64522851e-001 2.52415240e-001 8.21181118e-001
      1.44960880e+000 6.50127605e-002 6.25002896e-003 1.84895307e-001
      7.83127621e-002 1.44503379e+000 7.61699736e-001 4.35723253e-002
      7.29250491e-001 2.09935978e-001 4.41531569e-001 8.83457735e-002
      1.07257605e-001 1.74609125e-002 1.73972305e-002 3.84501040e-001
      6.73088133e-002 5.30888066e-002 3.48102152e-001 9.06224728e-001
      1.70128238e+000 6.58910632e-001 1.60671428e-001 4.94627595e-001
      1.50940681e+000 6.53297873e-003 1.96874999e-002 1.26692843e+000
      7.10153103e-001 1.39403141e+000 2.00233739e-002 1.16749950e-001
      7.70953149e-002 5.49058318e-001 1.30436569e-001 1.48619011e-001
      1.09581113e+000 5.87089919e-002 1.13530234e-001 7.74412870e-001
      7.76090801e-001 1.70648098e+000 1.19150631e-001 1.78579707e-002
      1.64033785e-001 2.99852163e-001 5.64248621e-001 6.34120226e-001
      3.33906144e-001 2.24831510e+000 1.33541012e+000 1.72939360e+000
      1.50239730e+000 1.48944592e+000 8.64044949e-002 4.35458831e-002
      1.32501461e-002 1.71146467e-002 7.90758371e-001 5.46587050e-001
      1.10547595e-001 1.02090561e+000 4.60023969e-001 2.06017542e+000
      1.17115192e-002 1.72580075e+000 4.57554221e-001 1.10388458e-001
      5.21790862e-001 3.15121740e-001 8.46026242e-001 1.18806148e+000
      1.57310888e-001 1.38431609e+000 4.68842536e-001 5.88170886e-002
      3.57576787e-001 8.12173784e-002 1.58925831e+000 3.81746650e-001
      8.19443345e-001 1.32054341e+000 2.06833601e-001 3.25586736e-001
      1.22219467e+000 8.30804184e-002 2.34252512e-001 1.14639521e-001
      4.49150521e-003 1.54467380e+000 4.71709937e-001 1.66054234e-001
      1.20689735e-001 1.41007034e-002 5.07519305e-001 5.67674153e-002
      1.03625643e+000 3.00902635e-001 4.57557440e-001 1.34710371e-001
      5.49162745e-001 4.67809923e-002 9.08115227e-003 1.03951156e-001
      1.26348019e-001 1.95616886e-001 3.59212309e-001 2.80547917e-001
      4.63858526e-003 8.38265836e-001 1.40706981e-002 1.36988964e-002
      1.46420464e-001 1.67220995e-001 1.00806296e+000 5.34130111e-002
      4.01227362e-002 1.50356106e-002 1.13488406e-001 5.78849614e-001
      5.60086787e-001 1.05169606e+000 2.55801409e-001 9.94378388e-001
      1.03907287e+000 3.65064025e-001 3.88689786e-001 1.52669281e-001
      4.98122305e-001 2.39222169e+000 4.08399165e-001 2.20775276e-001
      1.45737510e-002 6.07937910e-002 1.10756069e-001 1.00111020e+000
      4.06393021e-001 2.05848053e-001 5.80490947e-001 1.19510841e+000
      1.39165977e-002 7.49165341e-002 4.12588418e-001 4.50308761e-003
      1.60575509e+000 4.05791029e-003 4.14505973e-002 1.65070936e-001
      1.02689743e+000 7.61878371e-001 1.31778985e-001 2.23944671e-002
      8.33840966e-001 1.55081883e-001 3.77848029e-001 1.63384926e+000
      4.50313509e-001 3.95504497e-002 5.45741916e-001 1.81018069e-001
      1.84665561e+000 8.17819893e-001 5.96173286e-001 7.58538783e-001
      4.67520254e-003 4.44635272e-001 1.15871280e-001 7.13251770e-001
      3.13899189e-001 3.88407022e-001 4.36413854e-001 2.96330780e-001
      3.87640208e-001 1.24964118e+000 4.95920539e-001 7.72394333e-003
      2.02715945e+000 2.06157148e-001 1.81402415e-001 1.61898613e-001
      4.36066002e-001 1.77646473e-001 2.57706314e-001 1.21683335e+000
      6.27589881e-001 3.26609641e-001 5.72932065e-001 1.14998497e-001
      1.75342672e-002 9.10407752e-002 5.15499651e-001 7.62006462e-001
      9.20840025e-001 1.07897758e+000 6.83245659e-002 3.19837332e-001
      5.08328080e-002 1.83123589e+000 1.54323995e+000 1.42303610e+000
      1.66416615e-001 1.23449886e+000 1.40332073e-001 1.51418757e+000
      9.17672634e-001 6.98094487e-001 1.22915792e+000 1.87477589e-001</_>
    <_>
      1.59073025e-001 6.08325303e-001 9.77503955e-001 1.64579183e-001
      2.58724578e-002 4.88929868e-001 3.57439257e-002 1.45795330e-001
      8.37926194e-002 6.11653149e-001 1.47657812e-001 1.54286474e-001
      7.00317621e-001 9.35155571e-001 1.71376634e-002 7.90087041e-003
      3.69239151e-001 1.22758284e-001 4.28616494e-001 2.87514538e-001
      9.62722182e-001 9.75791454e-001 1.90165669e-001 7.72998750e-001
      2.01475725e-001 1.02633029e-001 1.18362164e+000 6.58939406e-002
      4.07261312e-001 1.04736328e-001 3.81560251e-002 1.35714218e-001
      2.66185611e-001 6.62674427e-001 2.12339535e-001 8.61654758e-001
      1.51281938e-001 1.87625557e-001 2.56592959e-001 1.73233971e-001
      1.63133517e-002 2.12832704e-001 3.57153505e-001 2.22498789e-001
      1.10726953e-002 1.89460833e-002 1.44318864e-001 2.41941765e-001
      3.60650271e-001 5.53587496e-001 4.79340374e-001 1.88117981e-001
      5.10384321e-001 5.90642631e-001 5.27003072e-002 7.11374938e-001
      4.02191758e-001 2.10699484e-001 1.50954854e+000 5.86299717e-001
      1.08212233e+000 1.30212039e-001 2.69143302e-002 5.80525286e-002
      2.12690338e-001 1.92715928e-001 3.99674512e-002 1.25491953e+000
      3.41880764e-003 2.45732859e-001 1.63394630e-001 3.33246812e-002
      4.42746371e-001 9.09893632e-001 3.45753074e-001 1.21413755e+000
      1.96745902e-001 5.12742341e-001 2.07065725e+000 3.16867918e-001
      1.61304936e-001 1.37475371e-001 5.66137612e-001 1.14709437e-001
      1.17337883e-001 4.78225768e-001 1.92325950e+000 4.45063747e-002
      9.54927038e-003 1.21820465e-001 1.46042585e+000 9.55987573e-001
      7.92550966e-002 7.25646496e-001 2.21601203e-002 2.25574803e-002
      1.27591968e+000 1.90707695e+000 7.14788958e-002 4.52663422e-001
      1.28099084e-001 9.09976542e-001 6.62697554e-002 3.68654311e-001
      5.77103160e-002 9.89648141e-003 2.67620534e-001 9.73998010e-001
      7.61298418e-001 1.25447698e-002 6.87206537e-002 1.04517013e-001
      4.61425446e-002 1.16531573e-001 6.24502189e-002 1.51040867e-001
      2.21175835e-001 3.65514383e-002 1.24852387e-002 1.40083835e-001
      9.42774266e-002 5.57240069e-001 1.28658295e-001 4.55516279e-001
      1.50627300e-001 1.65479586e-001 1.74978256e-001 7.09727049e-001
      2.62083620e-001 7.80157804e-001 9.16532055e-003 8.66411686e-001
      1.24102138e-001 3.50617498e-001 3.23122256e-002 1.13933899e-001
      1.53966136e-002 2.00388148e-001 2.79831707e-001 1.66681930e-001
      1.61730051e-001 1.12740910e-002 3.06663401e-002 8.19984451e-002
      1.82330739e-002 5.13528585e-001 1.96428999e-001 5.14695980e-002
      2.73777004e-002 1.57555580e-001 1.72370195e-001 7.66705453e-001
      2.77091861e-001 1.30057454e-001 1.43316901e+000 7.27449283e-002
      1.64669931e-001 2.63870001e-001 3.52554917e-001 1.65475130e-001
      7.06278458e-002 3.87209579e-002 1.41389430e-001 1.16272770e-001
      8.06800276e-002 7.94505849e-002 7.03037918e-001 8.05651963e-001
      3.00087571e-001 1.67833269e-001 1.90036818e-001 1.58683345e-001
      5.54603636e-001 9.13440168e-001 6.27003789e-001 5.52899204e-002
      8.00950110e-001 3.47933114e-001 5.83226494e-002 1.00137502e-001
      1.06954284e-001 7.70529583e-002 7.30992155e-003 1.29512084e+000
      1.12847812e-001 1.32933390e+000 2.11966485e-002 2.01107478e+000
      1.61702886e-001 8.92313540e-001 2.00735733e-001 4.61958259e-001
      1.44265544e+000 6.30979314e-002 7.63862347e-003 1.78254521e+000
      4.14285772e-002 9.94103432e-001 2.51831234e-001 3.11252307e-002
      4.73404855e-001 2.61014056e+000 1.78449273e-001 5.19238152e-002
      3.59274037e-002 1.17578777e-002 1.02975052e-002 4.32233542e-001
      3.76837589e-002 2.43081767e-002 5.49029648e-001 2.85190076e-001
      3.04136455e-001 8.56864095e-001 5.48727140e-002 1.95471734e-001
      2.27401480e-001 6.31380361e-003 1.92528665e-002 1.34793937e+000
      5.45873046e-001 1.07867622e+000 2.47217361e-002 1.11111596e-001
      1.69338286e-001 3.25295240e-001 1.51982531e-001 1.68042347e-001
      1.89626455e-001 4.46424522e-002 1.83732077e-001 1.26901698e+000
      1.29849398e+000 8.00527573e-001 5.14836423e-002 8.03033821e-003
      1.59531593e-001 2.24711448e-001 2.65105963e-001 1.75555333e-001
      1.10247767e+000 6.84083462e-001 6.99197710e-001 9.55045283e-001
      1.75484791e-001 9.13331866e-001 5.52898496e-002 7.27641657e-002
      7.84524158e-003 1.02119707e-002 3.59891474e-001 4.14787620e-001
      1.44461870e-001 1.59846470e-001 1.14359260e+000 1.15072143e+000
      8.87958053e-003 1.09056973e+000 6.30161107e-001 4.13708389e-001
      9.64747250e-001 3.47444713e-001 4.10901517e-001 2.86193639e-001
      1.02985114e-001 1.84651518e+000 1.52007967e-001 2.52810437e-002
      9.49520692e-002 3.35452631e-002 3.76834959e-001 1.40480995e-001
      1.05322826e+000 4.50903714e-001 1.63992167e-001 3.93176019e-001
      1.04965341e+000 8.32428113e-002 1.81232482e-001 5.81351966e-002
      4.06233361e-003 8.04541051e-001 5.81759751e-001 5.22604063e-002
      7.16262385e-002 7.53368344e-003 2.25474104e-001 4.98144180e-002
      8.86367857e-001 1.35846257e-001 5.44097245e-001 2.13662595e-001
      1.59145689e+000 4.30439822e-002 1.48741193e-002 1.95723325e-001
      1.16342075e-001 1.68487549e-001 7.12345004e-001 5.38185596e-001
      8.66055395e-003 4.20370460e-001 1.02020660e-002 1.09827621e-002
      2.35745311e-001 1.32179648e-001 4.69480991e-001 2.69775651e-002
      2.94431131e-002 1.11370478e-002 3.31862420e-002 6.31735504e-001
      1.08040202e+000 1.02504551e+000 9.95521173e-002 1.54257059e+000
      8.35528374e-001 1.47784114e-001 1.17643178e-001 2.09538862e-001
      3.58909935e-001 9.53662515e-001 1.09118864e-001 1.05835199e+000
      1.13339284e-002 4.36693095e-002 7.24287480e-002 3.94666970e-001
      2.38637373e-001 4.29337054e-001 4.79702145e-001 1.21587813e+000
      1.86669882e-002 1.17553882e-001 4.60554421e-001 4.16436326e-003
      4.86485332e-001 3.99245555e-003 4.73069958e-002 5.31675331e-002
      2.95717061e-001 4.02793139e-001 1.41154915e-001 1.70139894e-002
      4.28321749e-001 2.87579056e-002 2.58221835e-001 6.96000159e-001
      6.35483861e-001 5.17993532e-002 9.64939743e-002 1.09984592e-001
      2.07114071e-001 1.34090587e-001 8.73303413e-001 4.18230295e-001
      6.68738410e-003 3.26045036e-001 8.01176727e-002 4.96767879e-001
      6.42623231e-002 9.12082791e-002 3.20420474e-001 8.60276446e-002
      3.95011485e-001 1.18110299e+000 3.22164625e-001 8.39238800e-003
      5.96337974e-001 2.07066700e-001 4.48638126e-002 3.94281060e-001
      7.22462177e-001 1.65607080e-001 9.37255442e-001 5.59861124e-001
      5.93064606e-001 1.28937885e-001 1.31862953e-001 1.61508620e-001
      1.89940967e-002 5.96896783e-002 5.56841433e-001 1.81663930e+000
      2.89353549e-001 1.51068211e+000 7.10019991e-002 7.65432775e-001
      9.43232551e-002 9.27976608e-001 1.53844821e+000 7.50915349e-001
      2.20617041e-001 1.52513337e+000 1.46934867e-001 5.36261380e-001
