<?xml version="1.0"?>
<opencv_storage>
<my_svm type_id="opencv-ml-svm">
  <svm_type>EPS_SVR</svm_type>
  <kernel><type>RBF</type>
    <gamma>3.3750000000000002e-002</gamma></kernel>
  <C>2.5000000000000000e+000</C>
  <p>1.0000000000000001e-001</p>
  <term_criteria><epsilon>4.9999998882412910e-003</epsilon>
    <iterations>2147483647</iterations></term_criteria>
  <var_all>300</var_all>
  <var_count>300</var_count>
  <sv_total>404</sv_total>
  <support_vectors>
    <_>
      3.90416563e-001 9.83930975e-002 6.36673391e-001 2.88189858e-001
      1.01661777e+000 1.03323543e+000 7.24756062e-001 1.00206745e+000
      1.40401991e-002 2.93169618e-001 1.48238373e+000 2.75273013e+000
      4.77481484e-001 3.30449641e-001 4.29210484e-001 4.29752231e-001
      3.46443027e-001 6.35226905e-001 3.41161750e-002 1.80969608e+000
      2.57149124e+000 4.35152441e-001 1.85624450e-001 1.03706285e-001
      1.72807738e-001 2.60153294e-001 9.33322072e-001 3.76235425e-001
      1.15630376e+000 1.47842515e+000 8.05450901e-002 2.22156715e+000
      5.15244044e-002 1.95248261e-001 2.45894030e-001 3.67090292e-002
      9.31584001e-001 2.96703190e-001 8.96638453e-001 3.42031457e-002
      3.23055983e-001 4.40935791e-001 1.29968393e+000 2.33921438e-001
      9.92722571e-001 4.87743706e-001 2.77931333e-001 1.49550840e-001
      6.61524534e-001 4.59217057e-002 2.90469617e-001 1.64394632e-001
      6.39730170e-002 2.12799143e-002 1.60653695e-001 8.80775750e-001
      3.33214253e-001 1.96030721e-001 2.11523485e+000 2.16139030e+000
      8.05792332e-001 2.40922451e-001 1.22787225e+000 8.52411211e-001
      5.72800517e-001 4.78092372e-001 6.85199499e-002 9.77155507e-001
      1.97511494e+000 1.55396715e-001 3.53158772e-001 1.05989456e+000
      6.43801093e-001 2.87217349e-002 4.41072851e-001 8.18268180e-001
      2.03484014e-001 5.51203601e-002 3.81190032e-001 8.25995445e-001
      1.53686857e+000 8.87709141e-001 8.33494142e-002 5.89208782e-001
      8.70323658e-001 1.11883104e+000 1.49505645e-001 8.49876776e-002
      1.39006913e-001 4.06005353e-001 1.89417851e+000 1.05290902e+000
      7.49636739e-002 4.74042207e-001 3.67196389e-002 1.25040269e+000
      7.17937276e-002 1.47899687e-001 1.75606668e-001 8.45653117e-002
      5.95475584e-002 3.30100745e-001 6.75133467e-001 3.42567861e-001
      6.46832883e-001 7.71153986e-001 1.06132906e-002 4.30483490e-001
      3.60260993e-001 5.35762370e-001 7.37739578e-002 9.41291511e-001
      2.27174945e-002 5.71675599e-001 1.80373669e+000 5.81031084e-001
      7.20849574e-001 4.17099863e-001 7.17308223e-001 3.01527858e-001
      3.74142915e-001 3.45210694e-002 3.94911796e-001 1.06261182e+000
      1.30885839e+000 5.61992116e-002 7.12502887e-003 2.43795180e+000
      2.08399341e-001 2.30091643e+000 4.95381325e-001 3.66397232e-001
      4.63014185e-001 1.03084421e+000 9.71392170e-002 3.31447411e+000
      1.47383828e-002 7.53583431e-001 6.52639568e-001 2.39076167e-001
      4.60858457e-002 3.26442152e-001 7.44434774e-001 6.74506843e-001
      5.50448358e-001 5.72465241e-001 2.72990561e+000 3.60505015e-001
      6.63492560e-001 9.80300307e-001 6.92517102e-001 3.72191280e-001
      2.50960082e-001 4.17118967e-001 2.81507581e-001 2.35414002e-002
      5.15712798e-001 5.01645148e-001 1.50133565e-001 1.74474210e-001
      8.79563451e-001 3.42318386e-001 3.40663880e-001 1.07039429e-001
      1.68001682e-001 5.82702905e-002 2.48529005e+000 1.03216398e+000
      5.42103127e-003 2.57719254e+000 3.52422416e-001 2.04427099e+000
      1.19293380e+000 1.19619322e+000 1.03641963e+000 3.17260206e-001
      8.17511976e-001 3.28212112e-001 1.75347447e+000 4.31946903e-001
      2.85899758e-001 2.60886010e-002 1.80960342e-001 3.29856932e-001
      8.96143436e-001 1.57870388e+000 5.57211399e-001 3.68732184e-001
      1.11361814e+000 7.34571397e-001 7.68867195e-001 7.25424010e-003
      3.13424051e-001 6.53463125e-001 9.15797830e-001 6.29979253e-001
      1.99263513e-001 1.91457975e+000 1.05758274e+000 1.65449262e+000
      7.49338806e-001 5.32803595e-001 1.31375062e+000 6.87808692e-001
      1.14230180e+000 6.79032326e-001 2.55925894e-001 8.16876054e-001
      7.93794751e-001 8.23601842e-001 4.13726896e-001 3.45337570e-001
      2.68715334e+000 2.19873023e+000 7.38731980e-001 4.01526749e-001
      3.58647794e-001 3.92112881e-001 1.97933817e+000 4.10832196e-001
      1.40994430e+000 1.85062313e+000 1.42523810e-001 2.83506799e+000
      1.19803071e+000 2.60782272e-001 6.01553559e-001 1.88716781e+000
      1.89078853e-001 1.12312281e+000 9.59389731e-002 6.45046651e-001
      3.78499806e-001 1.41440141e+000 1.82933331e+000 3.13021988e-001
      3.38043347e-002 6.31173048e-003 4.15506601e-001 9.51287523e-003
      2.60735750e-001 1.61581889e-001 1.93906799e-001 1.04996896e+000
      5.49037457e-001 7.12892592e-001 1.21002030e+000 1.15125000e+000
      5.44866204e-001 3.72480303e-001 5.21925628e-001 8.23863387e-001
      6.15313947e-001 8.75189483e-001 9.14396226e-001 2.02215776e-001
      2.33492422e+000 3.64171696e+000 1.92715728e+000 1.54380962e-001
      1.17746659e-001 2.24883817e-002 3.61953855e-001 2.63119340e-001
      3.73447537e-001 1.82685542e+000 1.70857131e-001 8.96373484e-003
      4.32262182e-001 3.13341045e+000 2.64425933e-001 3.58373791e-001
      1.57143688e+000 2.99258769e-001 8.99259076e-002 7.39602864e-001
      9.10322487e-001 2.01978251e-001 2.55000806e+000 6.22728765e-001
      4.92850006e-001 1.86683908e-001 3.69681746e-001 2.42119078e-002
      3.14606100e-001 6.01153970e-002 2.67730057e-001 3.50795269e-001
      3.76383066e-001 1.16135275e+000 1.56882823e+000 5.78368455e-002
      5.62111139e-001 3.14074802e+000 2.96349615e-001 1.55023679e-001
      6.89435154e-002 2.34947175e-001 1.44750702e+000 1.57047167e-001</_>
    <_>
      2.22082883e-001 4.47610691e-002 3.39897692e-001 2.23414838e-001
      9.10864234e-001 1.03891969e+000 4.56336409e-001 2.21026510e-001
      8.76469910e-003 8.89636040e-001 7.03620493e-001 1.39962673e+000
      4.47401077e-001 1.25471741e-001 4.27047938e-001 5.74880242e-001
      2.99322963e-001 4.87060755e-001 1.82731133e-002 5.99719822e-001
      3.59280109e-001 6.18154630e-002 1.02622800e-001 4.06848043e-002
      5.72077222e-002 2.30270356e-001 7.64228404e-001 4.12479937e-001
      1.81267476e+000 2.15231806e-001 4.03370783e-002 1.52172220e+000
      3.90728675e-002 7.65557215e-002 1.41777575e-001 3.25566679e-002
      3.56763452e-001 2.27740318e-001 3.46924514e-001 1.75272431e-002
      1.83580011e-001 2.74419755e-001 3.64266723e-001 1.01612411e-001
      3.75607550e-001 1.24752842e-001 3.84431660e-001 9.24449563e-002
      2.55862653e-001 3.70734446e-002 3.82876813e-001 2.24232778e-001
      3.16911414e-002 1.61362458e-002 6.33945763e-002 4.23942626e-001
      2.12460414e-001 8.71315956e-001 1.68092227e+000 3.71036559e-001
      4.55751926e-001 5.27920187e-001 2.68282324e-001 3.60039026e-001
      2.82713860e-001 1.76937208e-001 2.94952951e-002 3.32567573e-001
      2.86121160e-001 1.29898965e-001 1.33301049e-001 2.68974751e-001
      5.81491768e-001 1.25240190e-002 1.85429171e-001 5.26823580e-001
      4.77654450e-002 3.33668254e-002 6.76280737e-001 2.69302040e-001
      1.33046937e+000 1.72344700e-001 3.21004912e-002 4.24074620e-001
      4.61439013e-001 4.19145107e-001 1.67640686e-001 9.41672996e-002
      7.97957778e-002 6.72958270e-002 1.36794627e+000 2.08983749e-001
      3.59231941e-002 6.69521034e-001 2.23122165e-002 4.55524504e-001
      3.65334637e-002 8.31265748e-002 1.19443238e-001 6.94622472e-002
      4.42750789e-002 3.83555382e-001 2.69068331e-001 1.33959755e-001
      5.73067844e-001 6.14839613e-001 5.76729653e-003 1.54867351e-001
      2.11101204e-001 2.91598737e-001 4.60887738e-002 3.08498770e-001
      1.06312959e-002 5.47063649e-001 2.35857874e-001 5.93999267e-001
      4.25985128e-001 1.19649567e-001 5.29961109e-001 2.01367900e-001
      3.97909373e-001 3.71122733e-002 7.74437428e-001 3.58109415e-001
      7.87771881e-001 2.91490983e-002 6.25425437e-003 7.68476367e-001
      1.28431022e-001 8.26772153e-001 7.31145501e-001 1.33733869e-001
      1.67977557e-001 3.34272772e-001 4.60217521e-002 1.25313187e+000
      1.55370189e-002 1.84618026e-001 3.77899528e-001 9.72907171e-002
      3.24241780e-002 1.91959187e-001 5.32474458e-001 3.32160801e-001
      3.03948432e-001 5.65728724e-001 8.58875513e-001 3.37020993e-001
      5.06106555e-001 5.28513908e-001 2.41446584e-001 1.79764941e-001
      2.47332364e-001 2.76803195e-001 1.09568626e-001 1.13773784e-002
      2.03335971e-001 5.74114859e-001 1.30308598e-001 1.06419496e-001
      3.54797840e-001 6.11038879e-002 2.39190042e-001 1.00673229e-001
      1.50642902e-001 4.49791066e-002 1.14714444e+000 1.14154911e+000
      4.21182858e-003 1.00845504e+000 1.21643327e-001 1.27916348e+000
      5.04824162e-001 9.80021000e-001 4.82453078e-001 5.42873204e-001
      2.93681085e-001 6.53782964e-001 3.75859827e-001 1.72385469e-001
      2.75261998e-001 1.04166521e-002 7.91264772e-002 1.44038647e-001
      4.57167804e-001 9.62293088e-001 3.55247617e-001 1.41391754e-001
      5.48495352e-001 2.76392370e-001 3.01558793e-001 2.35556699e-002
      3.77792865e-001 9.03341651e-001 2.15859920e-001 8.78057480e-001
      1.38449699e-001 5.29545307e-001 6.72034562e-001 1.93363309e+000
      1.00457323e+000 4.16551173e-001 7.06316471e-001 1.38515338e-001
      4.72341895e-001 6.22890294e-001 8.22852477e-002 7.56254971e-001
      6.14792109e-001 1.28210366e-001 1.85740262e-001 1.29551768e-001
      6.58130348e-001 7.78083622e-001 1.94710419e-001 1.14563830e-001
      1.45995528e-001 2.55704731e-001 6.26007378e-001 2.70496130e-001
      3.14593792e-001 1.09240830e+000 1.01299271e-001 1.31542456e+000
      5.31861484e-001 2.73155540e-001 5.38130879e-001 8.78179193e-001
      8.84286985e-002 1.57285237e+000 8.95984620e-002 4.46673751e-001
      1.15642473e-001 7.53492415e-001 5.35085022e-001 2.41566509e-001
      3.38508375e-002 3.51943751e-003 5.39285004e-001 5.39127644e-003
      1.34765953e-001 4.10548933e-002 8.89547840e-002 2.42370948e-001
      5.24925053e-001 2.48148724e-001 4.10534859e-001 2.30526432e-001
      9.42868710e-001 2.27855682e-001 2.28554621e-001 3.03755224e-001
      8.39037180e-001 5.99760532e-001 6.59497082e-001 1.48929849e-001
      4.73801881e-001 1.39974272e+000 5.95505893e-001 1.05143130e-001
      3.78837377e-001 1.64609849e-002 3.51398647e-001 9.10082608e-002
      3.21001291e-001 6.90257430e-001 1.69851929e-001 8.81507713e-003
      6.50430202e-001 4.57332313e-001 2.10278228e-001 1.97770104e-001
      3.03120583e-001 2.41067663e-001 3.98947224e-002 5.97571969e-001
      4.95084584e-001 1.22658759e-001 6.91412091e-001 2.23099068e-001
      4.10651326e-001 8.77488628e-002 6.18429601e-001 1.35683259e-002
      1.29916832e-001 1.24024406e-001 3.59874517e-001 3.07949036e-001
      1.16212618e+000 4.98634815e-001 3.45485777e-001 2.65352335e-002
      5.30887902e-001 5.72349429e-001 1.52175754e-001 2.00682506e-001
      3.60195413e-002 9.64444727e-002 1.47861362e-001 9.54492316e-002</_>
    <_>
      3.51464868e-001 2.96012778e-002 3.34643751e-001 2.76279896e-001
      4.41868633e-001 1.78796899e+000 8.60082805e-001 4.42541838e-001
      1.64696723e-002 3.59020352e-001 8.90038669e-001 1.05917704e+000
      2.28442773e-001 9.70335007e-002 3.63284945e-001 2.47891530e-001
      4.03829992e-001 3.20823908e-001 1.66362617e-002 8.64441037e-001
      1.78181183e+000 2.46769845e-001 1.45003647e-001 3.37771662e-002
      7.40700588e-002 9.89238918e-002 6.39822423e-001 3.81840885e-001
      2.71525830e-001 3.75517696e-001 5.12307622e-002 1.02272999e+000
      4.96800095e-002 7.33870491e-002 1.13480873e-001 2.13276260e-002
      3.19718421e-001 1.78643823e-001 1.03375351e+000 1.64402444e-002
      2.20170546e+000 3.50493908e-001 2.01140547e+000 2.10874617e-001
      3.81235123e-001 3.48282158e-001 1.39858508e+000 7.34220892e-002
      2.05384582e-001 5.47644459e-002 2.93832421e-001 2.26757184e-001
      4.95230854e-002 2.92163230e-002 1.20584995e-001 2.78437376e-001
      1.22262992e-001 6.65803254e-001 1.73551232e-001 6.54151678e-001
      1.25776732e+000 1.30107832e+000 4.84042823e-001 2.77037889e-001
      1.66652596e+000 2.64978588e-001 4.87433970e-002 3.63884211e-001
      5.96163571e-001 1.33103579e-001 2.81699955e-001 2.71736771e-001
      5.28677583e-001 1.39074614e-002 1.71028733e-001 1.94585547e-001
      1.11746222e-001 5.04752994e-002 8.27897370e-001 5.53761542e-001
      5.23383498e-001 4.83147204e-001 3.41194756e-002 2.67917007e-001
      4.37812775e-001 9.58023906e-001 2.43559569e-001 5.26542738e-002
      1.33683950e-001 1.81778267e-001 3.86363983e-001 5.57147861e-001
      3.31696272e-002 4.53913271e-001 4.37605940e-002 1.79286087e+000
      4.15103957e-002 7.07271770e-002 7.50144571e-002 1.17678002e-001
      5.48104607e-002 4.88012642e-001 2.28419349e-001 1.24244347e-001
      1.22173131e+000 2.35103250e-001 7.83097837e-003 2.63430893e-001
      2.37343654e-001 1.17855620e+000 3.07824388e-002 7.29219317e-001
      1.35094263e-002 2.83271819e-001 1.15472758e+000 2.04433799e+000
      3.40893447e-001 5.73571213e-002 3.01008761e-001 1.52508125e-001
      2.84872770e-001 3.84217091e-002 7.17414141e-001 3.16595763e-001
      1.14720702e+000 4.46734391e-002 8.39650910e-003 9.10505772e-001
      1.04143560e-001 1.37661052e+000 4.06459272e-001 3.30227643e-001
      2.01105762e+000 3.49201977e-001 3.58035341e-002 1.01112950e+000
      2.00073160e-002 1.28924459e-001 3.09185714e-001 1.22681960e-001
      3.03338431e-002 1.01611339e-001 1.76632509e-001 2.79262692e-001
      1.30736923e+000 2.23580217e+000 1.30860400e+000 1.44864038e-001
      2.70871937e-001 1.64311990e-001 5.39757073e-001 3.92861784e-001
      2.70292193e-001 2.13924557e-001 1.21767677e-001 1.15998304e-002
      4.42073286e-001 9.12043869e-001 1.42293409e-001 1.08432248e-001
      2.11843109e+000 6.07541837e-002 2.09416717e-001 6.72442019e-002
      1.64336056e-001 8.28307271e-002 8.88607204e-001 1.02467203e+000
      3.89594096e-003 5.82581401e-001 1.24097556e-001 6.00569189e-001
      2.98975229e-001 1.08439483e-001 3.15885514e-001 4.25830871e-001
      6.21117353e-001 1.18831146e+000 1.30772889e-001 1.93800569e-001
      2.05488950e-001 1.60709936e-002 1.57230422e-001 1.72410294e-001
      2.42617488e-001 1.46751606e+000 7.54083931e-001 2.88771898e-001
      7.08250165e-001 1.45435870e+000 5.35862803e-001 7.13801663e-003
      2.80663937e-001 9.35453475e-001 1.61148953e+000 3.83149177e-001
      9.87434611e-002 5.87847173e-001 4.16331559e-001 2.87760735e-001
      8.38936150e-001 9.74315107e-001 1.27942637e-001 1.18511939e+000
      3.71603638e-001 7.36819506e-001 9.27138999e-002 6.87202573e-001
      2.03964889e-001 1.86306238e-001 3.09795946e-001 9.66259465e-002
      6.81672692e-001 9.59815919e-001 4.66290742e-001 1.15917467e-001
      4.71218735e-001 4.09275055e-001 9.64028120e-001 1.55547097e-001
      5.32085240e-001 5.50820410e-001 7.19903708e-002 1.52885675e+000
      3.55975807e-001 4.10477400e-001 1.55396652e+000 1.50564659e+000
      1.68372869e-001 4.45640951e-001 7.58968443e-002 4.27652359e-001
      9.53894794e-001 4.48041707e-001 5.50002992e-001 5.28251231e-001
      3.64286713e-002 2.65626376e-003 2.34006539e-001 9.90476087e-003
      1.37098819e-001 1.05827779e-001 9.97985154e-002 4.17594761e-001
      2.04909706e+000 4.60656017e-001 5.98885119e-001 4.07785147e-001
      4.33897942e-001 9.58422422e-001 3.39485765e-001 2.55697966e-001
      7.67514527e-001 3.08502913e-001 1.38220716e+000 6.85393438e-002
      4.90835637e-001 1.33647466e+000 1.10029268e+000 1.31355673e-001
      3.86668146e-001 3.06409765e-002 4.24341828e-001 1.65029719e-001
      1.86814964e-001 1.24609494e+000 1.23243846e-001 1.93395000e-002
      4.52457249e-001 1.32126427e+000 6.92885578e-001 4.37691599e-001
      9.93059039e-001 1.69944242e-001 4.69588563e-002 3.89203578e-001
      6.93569005e-001 1.78954780e-001 8.95124435e-001 3.06749642e-001
      3.98287565e-001 1.95538238e-001 7.07980871e-001 1.33510707e-002
      1.57765031e-001 2.09803462e-001 2.97454298e-001 3.75357479e-001
      2.95361131e-001 2.50940412e-001 5.17051220e-001 3.42476815e-002
      3.27640861e-001 9.23070490e-001 1.13887954e+000 3.30909580e-001
      3.43290530e-002 1.14769340e-001 3.59465122e-001 8.36950168e-002</_>
    <_>
      4.77163732e-001 8.07142928e-002 2.89256215e-001 4.96516079e-001
      5.64072549e-001 1.13582981e+000 2.72088140e-001 6.42476439e-001
      2.08339915e-002 1.17818797e+000 4.05125648e-001 1.40284336e+000
      1.80463746e-001 2.52556741e-001 4.82073009e-001 2.24984005e-001
      1.78777948e-001 3.37105572e-001 2.33994927e-002 1.26328933e+000
      3.66013378e-001 1.23012565e-001 1.84396133e-001 1.20686457e-001
      6.45328909e-002 1.35988742e-001 9.40367639e-001 2.91585326e-001
      1.47955394e+000 1.33412051e+000 4.62999493e-002 2.48249745e+000
      4.78965603e-002 1.89945415e-001 1.59750968e-001 5.69155477e-002
      8.07287931e-001 1.97533026e-001 8.08480144e-001 3.09594721e-002
      1.79975480e-001 2.00010359e-001 1.08568728e+000 2.38639012e-001
      7.06265628e-001 2.74381012e-001 3.27414006e-001 8.01437274e-002
      1.07864273e+000 3.20769139e-002 1.32392764e-001 1.55194268e-001
      5.79865798e-002 1.36583373e-002 2.13778868e-001 2.25394189e-001
      5.12616813e-001 5.18412411e-001 2.21175885e+000 3.62019360e-001
      3.81868243e-001 7.89605856e-001 1.70808196e+000 6.69160426e-001
      1.72217026e-001 3.60763550e-001 6.44533634e-002 2.24508882e-001
      9.61623907e-001 4.21920031e-001 1.55258596e-001 3.85495216e-001
      4.25034821e-001 1.59367844e-002 4.51374739e-001 4.10618693e-001
      1.27894804e-001 4.52482849e-002 6.41623497e-001 3.09866428e-001
      1.30459321e+000 2.87706703e-001 9.20273885e-002 3.45173448e-001
      7.78032720e-001 1.11850464e+000 1.28607288e-001 6.21217117e-002
      2.39191607e-001 2.23288268e-001 2.25922608e+000 8.41348171e-001
      7.65967146e-002 2.49086484e-001 2.87423413e-002 4.34629112e-001
      3.25802155e-002 1.25545010e-001 9.56449509e-002 7.42561817e-002
      5.86404055e-002 4.14665967e-001 1.58547640e+000 1.10304676e-001
      6.38848484e-001 3.91290426e-001 9.00557823e-003 3.68589699e-001
      3.19492549e-001 1.53569967e-001 7.61016458e-002 3.52349102e-001
      2.06911881e-002 2.78439939e-001 2.37788826e-001 2.77367443e-001
      7.04093456e-001 2.17497602e-001 4.99064565e-001 5.68270087e-001
      5.14464855e-001 5.13154268e-002 3.77547860e-001 9.27204370e-001
      9.41723287e-001 6.42686561e-002 7.93752354e-003 2.49720407e+000
      1.25810131e-001 1.11262810e+000 3.41113269e-001 4.04754192e-001
      1.35152638e-001 1.05202091e+000 4.11312021e-002 1.86146224e+000
      2.33538691e-002 4.76444632e-001 5.13833046e-001 1.54737473e-001
      2.37134416e-002 1.83092281e-001 2.61236876e-001 4.22487348e-001
      1.65377453e-001 2.78498262e-001 1.84966326e+000 2.83256412e-001
      1.08708203e+000 6.98895931e-001 3.48996997e-001 7.74226710e-002
      7.37318456e-001 3.03416729e-001 2.39583120e-001 2.06390526e-002
      4.21272278e-001 7.48184621e-001 7.21181557e-002 8.34961161e-002
      5.65378070e-001 1.27549022e-001 5.23700178e-001 1.31374672e-001
      1.30829662e-001 7.37904683e-002 8.29306781e-001 8.05174589e-001
      7.52882985e-003 9.29320812e-001 3.76393110e-001 1.19863296e+000
      9.99566436e-001 1.02278280e+000 4.70324218e-001 3.51532191e-001
      1.15099669e+000 6.28946960e-001 5.37193537e-001 5.53437948e-001
      3.29935730e-001 2.05749273e-002 2.48498902e-001 2.83272624e-001
      5.30102313e-001 1.01703167e+000 3.96527737e-001 2.11589038e-001
      8.01028788e-001 6.71298862e-001 4.77383107e-001 1.67797077e-002
      2.83633411e-001 3.10819179e-001 1.06344402e+000 5.14435947e-001
      1.91139579e-001 2.26416373e+000 4.56099153e-001 1.87448418e+000
      3.20150942e-001 7.20294535e-001 9.73214447e-001 4.12969470e-001
      9.93672669e-001 3.67727846e-001 2.81692296e-001 1.04865825e+000
      2.49206677e-001 2.60641724e-001 2.82955468e-001 2.57071465e-001
      2.03396487e+000 2.23288131e+000 2.43762657e-001 2.70482481e-001
      9.68847573e-002 2.25215808e-001 1.48011494e+000 3.74401718e-001
      5.18011391e-001 1.35621560e+000 2.33138725e-001 1.89437568e+000
      7.36312926e-001 2.05083802e-001 1.60504743e-001 1.31718504e+000
      2.01335609e-001 8.22193205e-001 1.34287059e-001 5.35532176e-001
      2.92541414e-001 1.33572936e+000 2.16296411e+000 8.59476745e-001
      6.59701601e-002 7.61729712e-003 3.80487859e-001 4.76513663e-003
      2.10458413e-001 1.29233003e-001 2.44087622e-001 3.50592673e-001
      1.33157766e+000 5.20882010e-001 7.44139671e-001 7.61973560e-001
      5.67020953e-001 1.56940311e-001 3.57448190e-001 6.98623776e-001
      5.38819432e-001 7.90691614e-001 1.79330960e-001 1.30282000e-001
      7.01531351e-001 1.74868822e+000 9.57446218e-001 1.64684102e-001
      3.59712929e-001 1.40153421e-002 5.43685019e-001 1.40585244e-001
      4.93882447e-001 7.81113446e-001 1.55899063e-001 1.26690594e-002
      7.63197005e-001 4.18941706e-001 1.43914267e-001 3.76641273e-001
      1.13133073e+000 2.07386300e-001 1.03695206e-001 4.54110950e-001
      1.42999291e+000 2.23088905e-001 1.22059000e+000 6.13730013e-001
      2.62411296e-001 1.42979398e-001 5.71285427e-001 2.08032634e-002
      1.58207387e-001 1.33020848e-001 1.19516492e+000 4.51649338e-001
      8.66065502e-001 8.83601487e-001 3.73804778e-001 5.02439253e-002
      4.79620576e-001 2.21690536e+000 3.93523872e-001 1.54245824e-001
      6.40765056e-002 1.42175436e-001 4.87524122e-001 8.80924687e-002</_>
    <_>
      1.37883559e-001 3.08389850e-002 1.83942020e-001 3.76292944e-001
      5.81214428e-001 6.16107762e-001 3.61226261e-001 1.63832977e-001
      1.05282990e-002 1.09166026e+000 5.32351017e-001 1.53322196e+000
      4.01594549e-001 1.09360971e-001 2.66543567e-001 4.98261809e-001
      4.42893982e-001 3.96626025e-001 1.53688006e-002 6.52546823e-001
      2.70452052e-001 1.06382154e-001 1.25075787e-001 3.96556668e-002
      2.68062763e-002 7.25144967e-002 1.29785752e+000 3.27506214e-001
      9.61905792e-002 3.08895409e-001 2.90102065e-002 1.65510547e+000
      3.84082980e-002 1.02907628e-001 9.85171050e-002 3.34541425e-002
      7.80997515e-001 1.82470679e-001 5.97576141e-001 1.87510904e-002
      1.47387773e-001 1.58039555e-001 8.32780898e-002 1.01339661e-001
      7.31929898e-001 2.49677435e-001 5.64478517e-001 3.97706181e-002
      3.57559413e-001 3.01615056e-002 2.53063858e-001 1.36378273e-001
      2.07109656e-002 8.02296028e-003 1.11081630e-001 3.94134611e-001
      4.66190241e-002 2.76918948e-001 2.01618478e-001 1.16319776e-001
      6.39984250e-001 6.72425389e-001 5.08701503e-001 7.89182603e-001
      2.38794968e-001 3.34936678e-001 4.60847206e-002 2.94921905e-001
      8.24348688e-001 2.45230719e-001 1.03583910e-001 1.89075440e-001
      3.88209879e-001 1.54074160e-002 2.08541214e-001 1.80700690e-001
      6.35702014e-002 3.11883762e-002 3.69219124e-001 2.10060924e-001
      1.09764910e+000 2.75884837e-001 2.68116985e-002 5.36374189e-002
      5.02352417e-001 8.86152610e-002 9.32373405e-002 4.13973778e-002
      1.83559626e-001 1.69669241e-001 3.29166651e-001 2.56977081e-001
      5.05416580e-002 4.67923880e-001 2.16335468e-002 6.36160553e-001
      4.11944836e-002 6.15204573e-002 1.08677372e-001 5.99195473e-002
      4.49544229e-002 2.51658678e-001 6.08228087e-001 1.17738910e-001
      4.04170781e-001 6.69096231e-001 3.00779962e-003 3.03812265e-001
      1.86451748e-001 1.47224188e-001 4.73132133e-002 3.82562697e-001
      1.31658185e-002 4.66983825e-001 3.71562749e-001 6.74495578e-001
      6.62992746e-002 6.36164621e-002 4.07556921e-001 2.00066999e-001
      4.72963154e-001 4.15039994e-002 5.04100800e-001 6.13417864e-001
      5.07282913e-001 3.27427350e-002 5.79982251e-003 9.39603269e-001
      1.19875006e-001 1.56016386e+000 7.61523426e-001 1.52481332e-001
      1.39964968e-001 3.61869872e-001 3.80019136e-002 4.61503863e-002
      1.73291434e-002 1.34526595e-001 4.14754748e-001 6.29720837e-002
      1.48380389e-002 1.91871256e-001 2.87854373e-001 2.43789747e-001
      1.72318324e-001 6.81924224e-001 5.48413098e-001 1.91238210e-001
      4.69912350e-001 8.18483829e-002 1.99499235e-001 9.41161066e-002
      2.47939646e-001 2.89803088e-001 1.57213688e-001 7.81632029e-003
      3.90628397e-001 3.59812051e-001 8.54282975e-002 8.52761790e-002
      1.00360297e-001 8.31653774e-002 4.76421565e-001 4.64634039e-002
      1.74140766e-001 3.35960872e-002 1.52251899e+000 5.08158565e-001
      3.10839876e-003 1.19459128e+000 1.56715646e-001 1.54449844e+000
      8.40207040e-002 1.06325120e-001 5.63728333e-001 2.45239243e-001
      2.60170341e-001 4.54535961e-001 2.04599053e-001 5.56426167e-001
      2.77405113e-001 1.20088113e-002 4.31425571e-002 1.18298121e-001
      4.73191172e-001 5.30489624e-001 5.65013230e-001 1.36897236e-001
      4.65281278e-001 5.60215175e-001 2.64401406e-001 2.11498477e-002
      2.32757181e-001 1.01542687e+000 8.34306777e-001 8.01177144e-001
      1.29835561e-001 9.92550969e-001 6.17999434e-001 1.15072392e-001
      1.11080444e+000 4.60308939e-001 6.70548752e-002 2.07625955e-001
      3.41574997e-001 4.59076941e-001 1.10070132e-001 1.36643016e+000
      3.51881683e-001 2.53526658e-001 2.40438372e-001 1.08580239e-001
      4.77217585e-001 9.48993146e-001 2.51718134e-001 1.26949042e-001
      7.53165409e-002 1.88254088e-001 9.32525337e-001 1.07854992e-001
      2.11927980e-001 1.32054865e+000 2.17903927e-001 1.70047474e+000
      4.38491702e-001 2.51611233e-001 1.48897991e-001 6.12149276e-002
      1.05915740e-001 1.12582397e+000 9.12834108e-002 4.59703594e-001
      1.19389452e-001 4.43567216e-001 5.38226187e-001 1.67551771e-001
      6.12368993e-002 2.82948650e-003 4.35998589e-001 4.12000669e-003
      1.46829978e-001 5.07722721e-002 7.07042217e-002 2.84330547e-001
      6.91152096e-001 4.04522508e-001 8.42471793e-002 1.68144688e-001
      7.25649238e-001 1.33813709e-001 2.66040564e-001 1.47022426e-001
      5.29253125e-001 6.03518426e-001 4.03837353e-001 1.25638261e-001
      3.30125779e-001 8.36288214e-001 1.09235156e+000 1.11118875e-001
      2.51815498e-001 8.14947113e-003 6.64021492e-001 1.34885028e-001
      5.19824207e-001 5.19880176e-001 1.56198084e-001 1.05826454e-002
      5.82270741e-001 4.70217675e-001 2.01567337e-001 1.90054014e-001
      6.61265612e-001 2.87676584e-002 3.33716236e-002 1.53923959e-001
      2.18060032e-001 8.24615136e-002 1.26155782e+000 2.32014433e-001
      4.10207182e-001 1.25216559e-001 5.06050706e-001 6.22162316e-003
      9.15810466e-002 1.13925084e-001 6.38526678e-001 3.90143514e-001
      6.75737262e-001 4.64194745e-001 9.95799601e-002 3.22792009e-002
      2.97065198e-001 7.78737903e-001 2.89520770e-001 1.40484884e-001
      2.21336875e-002 1.02317519e-001 1.68309912e-001 4.14073914e-002</_>
    <_>
      3.26313287e-001 6.01218492e-002 1.49766982e-001 5.54110289e-001
      1.18128300e+000 6.79567933e-001 5.09292305e-001 8.68159056e-001
      1.74022112e-002 5.94032943e-001 3.13259333e-001 1.27881384e+000
      2.29474500e-001 1.64511383e-001 3.68578613e-001 2.90210396e-001
      7.21275568e-001 4.42210257e-001 1.44972084e-002 5.57186067e-001
      6.65349424e-001 2.72238106e-001 1.39741987e-001 4.58576679e-002
      8.23986679e-002 2.20871493e-001 6.44427299e-001 3.51132601e-001
      1.41387165e+000 5.51485956e-001 3.88069078e-002 1.37878740e+000
      4.27281559e-002 1.25423551e-001 9.98817831e-002 4.11209390e-002
      4.02692616e-001 1.71060771e-001 3.86281371e-001 1.76071394e-002
      6.35239661e-001 2.55922586e-001 7.81720519e-001 1.80634260e-001
      4.38774318e-001 3.77213567e-001 5.15926600e-001 7.68125579e-002
      5.13594270e-001 2.95814555e-002 2.01818094e-001 2.25454599e-001
      5.65244853e-002 1.48137547e-002 1.77177086e-001 3.61751974e-001
      3.18918258e-001 5.98824918e-001 1.62832987e+000 4.44849133e-001
      6.54760599e-001 5.44893026e-001 9.36489165e-001 4.31752384e-001
      2.08403915e-001 3.61936688e-001 5.58204353e-002 3.13505560e-001
      9.10076857e-001 4.19253021e-001 1.41008094e-001 2.00705975e-001
      3.83884221e-001 1.71280503e-002 5.33967733e-001 5.37575364e-001
      1.09270580e-001 4.20659743e-002 3.33395332e-001 1.15894735e-001
      1.67768204e+000 2.22085863e-001 5.90356998e-002 7.51495183e-001
      7.64660478e-001 1.05478215e+000 6.73560128e-002 6.28353357e-002
      1.75045520e-001 1.95087373e-001 1.29370952e+000 4.41615850e-001
      5.58847971e-002 3.27442467e-001 2.27134116e-002 3.53599578e-001
      3.08222231e-002 1.42616197e-001 1.16525948e-001 7.58547559e-002
      8.67015123e-002 4.56984133e-001 1.25056231e+000 7.72838742e-002
      4.34020728e-001 2.48624384e-001 7.55099021e-003 3.34204137e-001
      4.76068258e-001 1.81636319e-001 5.17296307e-002 6.12624049e-001
      1.75580382e-002 5.21822453e-001 2.03918725e-001 3.26474220e-001
      4.50184733e-001 2.47411370e-001 1.68534219e-001 3.17235589e-001
      2.78449923e-001 3.19480039e-002 8.02595615e-001 4.36389714e-001
      1.02144241e+000 4.85102050e-002 4.08105832e-003 7.53934443e-001
      1.07354820e-001 1.20368242e+000 7.04259038e-001 2.31902242e-001
      6.46715641e-001 7.62400508e-001 4.23207954e-002 1.02574551e+000
      1.17054339e-002 3.81534755e-001 4.16326165e-001 1.47101566e-001
      2.88417581e-002 1.71126857e-001 3.87817174e-001 2.00055435e-001
      1.88617691e-001 3.27389687e-001 6.80327952e-001 3.98304045e-001
      4.71529812e-001 5.81086934e-001 4.53443050e-001 1.28254682e-001
      7.68764079e-001 3.46836954e-001 1.26113340e-001 1.73684396e-002
      2.59371907e-001 5.75242698e-001 7.74302185e-002 5.02516441e-002
      5.69166899e-001 1.10357262e-001 2.32559621e-001 8.10672864e-002
      2.59082675e-001 6.46461472e-002 1.48275983e+000 8.18707585e-001
      4.93612140e-003 1.78734434e+000 1.58476233e-001 1.30598009e+000
      8.39371264e-001 6.06632948e-001 9.26358342e-001 4.13326919e-001
      1.09410298e+000 2.82277822e-001 1.12462592e+000 2.19112486e-001
      3.75995725e-001 1.63226146e-002 1.61271065e-001 1.38903856e-001
      4.29289490e-001 1.12907231e+000 3.98083061e-001 1.56849504e-001
      1.67335677e+000 6.11386299e-001 1.83766514e-001 1.12331240e-002
      1.80679724e-001 1.48821384e-001 1.09449291e+000 6.11438334e-001
      1.24631718e-001 5.54478407e-001 1.17157114e+000 1.51934159e+000
      1.64455995e-001 4.60701495e-001 4.82404977e-001 1.25767201e-001
      6.24185145e-001 5.25363684e-001 3.89529288e-001 1.45341837e+000
      4.62552816e-001 1.47167221e-001 3.54914784e-001 1.52140528e-001
      4.97281075e-001 7.44149566e-001 1.80098057e-001 1.45988569e-001
      6.45489022e-002 1.07356600e-001 5.91278911e-001 4.07418311e-001
      4.61390018e-001 1.32368505e+000 7.21777380e-002 1.40970087e+000
      4.98184323e-001 2.26473093e-001 2.27988139e-001 8.04594934e-001
      2.55181551e-001 3.40933681e-001 7.48794526e-002 4.11863297e-001
      3.86752129e-001 5.43496430e-001 7.71497548e-001 3.89004469e-001
      2.36657541e-002 5.80881303e-003 4.56257850e-001 5.45392139e-003
      1.62166908e-001 9.75532159e-002 1.52001590e-001 2.25684747e-001
      4.45789397e-001 5.96727788e-001 1.65609837e+000 9.41378474e-001
      5.15694976e-001 1.49430886e-001 3.65567237e-001 7.76487470e-001
      7.98625767e-001 1.69090712e+000 4.03446376e-001 1.38828531e-001
      1.44599354e+000 1.20962334e+000 2.06728384e-001 9.02789980e-002
      3.70697558e-001 1.51071912e-002 1.08966780e+000 1.22130811e-001
      2.65193075e-001 5.23715556e-001 1.25120908e-001 4.81440127e-003
      2.63418704e-001 6.11807764e-001 1.69698149e-001 3.31673831e-001
      1.17923498e+000 3.05249214e-001 4.62076105e-002 5.02182782e-001
      4.19685274e-001 1.80883914e-001 9.64842141e-001 2.08494917e-001
      5.95824480e-001 1.59386963e-001 8.76461804e-001 1.79769378e-002
      1.31479114e-001 3.47039849e-002 1.02882111e+000 3.46887559e-001
      7.20434487e-001 1.28256667e+000 6.86185896e-001 2.89955307e-002
      3.99278104e-001 1.54092145e+000 2.41426945e-001 3.44023705e-001
      5.56783564e-002 1.47956148e-001 5.51920176e-001 7.43179396e-002</_>
    <_>
      2.17919081e-001 4.71492894e-002 7.84262478e-001 3.79116774e-001
      7.90553510e-001 5.51625669e-001 4.52696115e-001 5.96950769e-001
      1.16088381e-002 1.06999063e+000 7.07710028e-001 1.29663634e+000
      4.15930450e-001 1.57816172e-001 3.65666747e-001 3.32000047e-001
      1.84001595e-001 3.33226293e-001 1.57193523e-002 1.28652561e+000
      6.77206933e-001 1.51054695e-001 9.98235047e-002 3.83456126e-002
      7.63829499e-002 2.16315269e-001 9.98712957e-001 3.36535573e-001
      1.12195738e-001 3.49679768e-001 3.15226726e-002 1.91851676e+000
      2.45513283e-002 1.44465849e-001 1.07832022e-001 3.72251682e-002
      3.24947566e-001 1.07722387e-001 6.62969112e-001 1.77474041e-002
      1.47996947e-001 2.65094221e-001 5.38396761e-002 1.15188241e-001
      4.07673508e-001 2.52200574e-001 8.93547118e-001 6.58643991e-002
      3.15643728e-001 2.79010069e-002 3.12199891e-001 3.01827639e-001
      2.78042015e-002 1.32094519e-002 1.17328398e-001 3.38124514e-001
      8.82135704e-002 9.80354846e-001 2.00806320e-001 4.70993698e-001
      1.17146337e+000 5.69118619e-001 4.22631264e-001 2.74337590e-001
      2.23217458e-001 3.92945379e-001 4.58448306e-002 2.52014697e-001
      5.86238146e-001 1.31150261e-001 1.66906521e-001 3.62291634e-001
      5.49857974e-001 1.84644926e-002 3.01965415e-001 5.37731409e-001
      8.40365216e-002 2.32447665e-002 2.92719215e-001 1.78092867e-001
      2.98905015e-001 2.27894947e-001 5.46680987e-002 5.15878424e-002
      1.03714514e+000 7.48507753e-002 3.13222297e-002 7.46549591e-002
      1.56899616e-001 1.35499969e-001 3.08859676e-001 7.32473552e-001
      5.11099994e-002 3.77504081e-001 1.70988068e-002 9.44288969e-001
      3.52157056e-002 1.97151110e-001 1.44319713e-001 7.25822672e-002
      5.32153249e-002 3.21172714e-001 1.14988446e+000 7.78327808e-002
      3.92941236e-001 2.69403785e-001 3.84698831e-003 3.59895706e-001
      2.26153806e-001 2.42163077e-001 4.96691205e-002 2.97878206e-001
      1.10878116e-002 3.26318353e-001 5.67941010e-001 3.67244571e-001
      5.21213897e-002 2.16241762e-001 7.91177630e-001 1.39311746e-001
      1.72633722e-001 2.70424988e-002 3.84592533e-001 5.69850266e-001
      9.28617895e-001 3.87354195e-002 7.55499816e-003 1.80340183e+000
      9.93319750e-002 1.25251234e+000 5.56881189e-001 1.72572270e-001
      1.04473799e-001 5.56369364e-001 5.50258048e-002 1.19051211e-001
      1.85998902e-002 1.28244773e-001 5.20063460e-001 1.63977146e-001
      1.85371395e-002 1.12762637e-001 4.63581800e-001 3.43601465e-001
      2.78032839e-001 3.85795057e-001 9.63252664e-001 3.09291959e-001
      3.46734464e-001 3.60815197e-001 4.03842002e-001 1.28596917e-001
      6.10294163e-001 2.11387858e-001 1.26398757e-001 1.15492633e-002
      2.90158808e-001 2.99840182e-001 6.74632788e-002 7.30904862e-002
      1.26201898e-001 6.01749122e-002 2.51537025e-001 1.69064984e-001
      2.57875621e-001 4.12130132e-002 1.11690474e+000 5.93206108e-001
      3.90006020e-003 9.60862517e-001 1.65970415e-001 1.29458964e+000
      9.64552164e-002 1.56026468e-001 9.57341433e-001 7.28329241e-001
      6.33234143e-001 3.05587441e-001 3.03939134e-001 2.57251024e-001
      3.70745599e-001 9.60932672e-003 4.30679843e-002 1.28882557e-001
      4.29141521e-001 9.84374642e-001 4.86331403e-001 2.05505252e-001
      1.25994861e+000 6.55239582e-001 2.58034557e-001 1.61712319e-002
      7.78846219e-002 4.58236068e-001 6.48471117e-001 6.24718606e-001
      1.47574931e-001 9.01713729e-001 7.43778408e-001 1.08131722e-001
      4.99798745e-001 3.53347927e-001 1.87693447e-001 2.34618977e-001
      3.29522699e-001 3.77100199e-001 2.24515587e-001 3.99732113e-001
      5.60303271e-001 2.18695983e-001 2.85991549e-001 1.61353275e-001
      7.39887178e-001 1.21449435e+000 1.87532425e-001 1.78383812e-001
      2.25304931e-001 4.10316616e-001 1.30799150e+000 1.77216843e-001
      4.73976523e-001 1.70864367e+000 9.45111141e-002 1.67657363e+000
      3.70303333e-001 3.65284681e-001 1.92274243e-001 6.77196756e-002
      1.08681381e-001 1.00133848e+000 1.12574957e-001 3.68034571e-001
      1.14783213e-001 7.50573933e-001 5.74058175e-001 2.56289184e-001
      3.49646024e-002 3.28787323e-003 2.84969270e-001 5.77221671e-003
      1.31634787e-001 9.16406959e-002 1.50516614e-001 2.49559283e-001
      6.69018447e-001 6.79023504e-001 7.40293786e-002 7.40732074e-001
      5.74751198e-001 2.38928854e-001 4.77796406e-001 5.38881421e-001
      4.70246136e-001 7.43008375e-001 1.78345740e-001 1.16769984e-001
      5.97675383e-001 1.34594810e+000 1.11399472e+000 1.56816840e-001
      5.40207863e-001 1.37109393e-002 1.09004223e+000 1.18301630e-001
      2.56047845e-001 6.36402667e-001 1.23344794e-001 3.71235143e-003
      4.76622969e-001 9.63993788e-001 2.27019221e-001 5.47569036e-001
      5.94380200e-001 5.22474721e-002 3.37018222e-002 6.93680942e-001
      3.33283067e-001 8.86898935e-002 1.27850902e+000 2.65771449e-001
      2.13602126e-001 1.51320785e-001 5.86244881e-001 9.49815847e-003
      1.48908257e-001 3.83910947e-002 1.29534566e+000 4.44852710e-001
      8.32644820e-001 3.36611688e-001 3.43044072e-001 4.54236567e-002
      4.32654202e-001 1.10788560e+000 3.50064129e-001 2.15026468e-001
      2.80955322e-002 1.75910130e-001 3.94171655e-001 6.59125671e-002</_>
    <_>
      1.31024718e-001 3.62947918e-002 9.99550968e-002 2.98287570e-001
      4.65025574e-001 9.70976055e-001 9.76990879e-001 1.19711554e+000
      1.63710676e-002 1.50823087e-001 4.04349208e-001 4.69594419e-001
      1.78650394e-001 1.02782048e-001 1.12864152e-001 2.24711448e-001
      3.50403637e-001 3.52895766e-001 9.77934524e-003 8.81911814e-001
      6.64988756e-001 5.27003072e-002 1.90898776e-001 3.13276500e-002
      3.02404128e-002 1.57680422e-001 1.11804020e+000 1.59043938e-001
      1.15277901e-001 8.44994366e-001 2.43740492e-002 1.46603703e+000
      2.75985003e-002 1.97777823e-001 5.37676737e-002 3.19873355e-002
      3.95750701e-001 1.47657812e-001 7.52444923e-001 1.24590751e-002
      2.44507998e-001 1.40480995e-001 1.15926683e-001 7.64846578e-002
      4.16576564e-001 1.60092294e-001 1.11422145e+000 4.78894189e-002
      2.70142764e-001 3.17685492e-002 2.07268983e-001 2.09535509e-001
      3.11252307e-002 3.54758501e-002 1.49625137e-001 3.32417488e-001
      7.02908486e-002 1.96316481e-001 1.71632960e-001 8.61785889e-001
      8.62869620e-001 4.43778843e-001 4.37141567e-001 4.32808429e-001
      1.51454404e-001 6.75379932e-002 4.01459746e-002 3.56176525e-001
      1.17180717e+000 1.58267632e-001 2.47738883e-001 1.68803185e-001
      2.74574131e-001 1.84164569e-002 2.65444726e-001 2.59633571e-001
      8.82033929e-002 2.69103348e-002 6.26216650e-001 1.91440687e-001
      2.01379359e-001 2.47150883e-001 4.59859595e-002 4.45351861e-002
      5.30972064e-001 9.57028940e-002 9.61530134e-002 4.03330624e-002
      1.35045648e-001 1.57374427e-001 1.81047320e-001 1.54266369e+000
      2.85210386e-002 2.24043116e-001 2.45958623e-002 1.97903261e-001
      3.85310948e-002 7.66232386e-002 4.68210839e-002 1.83771700e-001
      7.27763399e-002 1.40880719e-001 6.77049458e-001 5.04335649e-002
      7.12460816e-001 8.42122674e-001 3.73018649e-003 4.51353550e-001
      1.44112229e-001 4.61970270e-001 2.49744542e-002 6.42932832e-001
      1.20454766e-002 2.71765947e-001 2.23363787e-001 4.98816967e-001
      1.12912044e-001 2.87579056e-002 3.00953209e-001 1.03067711e-001
      2.77787685e-001 4.73865047e-002 3.43597740e-001 1.71417907e-001
      3.70957226e-001 3.02994084e-002 1.31972590e-002 5.16737759e-001
      1.24879427e-001 6.74378276e-001 2.89690405e-001 1.82096541e-001
      2.72304326e-001 3.46949399e-001 3.94331068e-002 5.98054826e-001
      3.22367996e-002 6.44001141e-002 4.50987697e-001 6.54985160e-002
      1.89228505e-002 1.85304865e-001 3.47663611e-001 1.56270772e-001
      4.11284000e-001 4.34580505e-001 3.21355402e-001 1.87277615e-001
      7.78400242e-001 2.37978444e-001 1.59604073e-001 2.58125633e-001
      3.49660695e-001 1.31697178e-001 1.30195066e-001 9.74862557e-003
      5.05454481e-001 8.42483521e-001 1.25710472e-001 9.67133120e-002
      3.25501055e-001 7.58739188e-002 1.49646372e-001 6.18349425e-002
      1.14518069e-001 1.56888157e-001 6.77633643e-001 3.23727071e-001
      5.85152628e-003 1.27165771e+000 2.20617041e-001 8.67643416e-001
      8.75927880e-002 9.70569700e-002 5.43462634e-001 2.11002454e-001
      4.76961583e-001 4.68929350e-001 6.19873591e-002 4.99750704e-001
      1.73930407e-001 9.78212431e-003 4.75553758e-002 1.36999235e-001
      2.66397923e-001 4.28646237e-001 4.36362326e-001 2.28484109e-001
      4.70425546e-001 5.44534326e-001 1.73624411e-001 1.15461741e-002
      1.79163516e-001 9.55045283e-001 8.72489870e-001 3.32731873e-001
      1.13640994e-001 1.84651518e+000 4.11559373e-001 1.19539127e-001
      9.86178160e-001 2.33007789e-001 1.02894701e-001 4.50533032e-001
      9.33283210e-001 8.89801085e-001 4.94044460e-002 1.17917764e+000
      3.31081271e-001 1.31653443e-001 1.03331693e-001 9.85858664e-002
      2.77091861e-001 4.57589954e-001 2.65510887e-001 1.32179648e-001
      2.12832704e-001 1.41389430e-001 8.93598080e-001 8.87357071e-002
      2.65717000e-001 1.06903088e+000 7.85942897e-002 1.78562415e+000
      6.35835826e-001 1.97073534e-001 5.01622796e-001 4.15154755e-001
      2.43457675e-001 2.62639195e-001 6.36212751e-002 3.50125790e-001
      1.45861298e-001 3.34417522e-001 5.95438123e-001 1.32423937e-001
      2.40551792e-002 2.85876077e-003 2.98745751e-001 9.80478339e-003
      1.16732337e-001 8.32428113e-002 9.91631672e-002 3.01778138e-001
      1.64090526e+000 6.43658042e-001 9.26179886e-002 1.18572426e+000
      3.85234743e-001 8.85239169e-002 3.41338873e-001 3.43607664e-001
      1.23317289e+000 5.70012391e-001 6.65786088e-001 7.93804526e-002
      1.72545016e-001 7.65391469e-001 2.55286932e-001 1.36423796e-001
      1.03930227e-001 3.74627523e-002 7.61487365e-001 1.37549296e-001
      4.25086975e-001 6.37858689e-001 7.03562647e-002 7.46282190e-003
      3.78283530e-001 1.32883310e+000 1.20760806e-001 5.44097245e-001
      7.58743405e-001 2.13821471e-001 3.23122256e-002 5.72356224e-001
      1.91333562e-001 1.33756727e-001 6.50361478e-001 1.80862099e-001
      1.85588747e-001 2.37101838e-001 3.69239151e-001 9.93698370e-003
      7.08031878e-002 7.50405565e-002 1.41587988e-001 3.33713561e-001
      1.63064346e-001 1.90329224e-001 1.21925998e+000 3.73444259e-002
      1.35880604e-001 1.41287315e+000 2.61525720e-001 1.29972935e-001
      3.06419712e-002 8.37926194e-002 2.28130877e-001 5.87176308e-002</_>
    <_>
      3.80606949e-001 3.20731290e-002 1.97084039e-001 6.77272081e-001
      1.38009584e+000 1.01737189e+000 2.78821170e-001 3.21278870e-001
      1.02713266e-002 4.17804658e-001 5.22930205e-001 1.53900421e+000
      3.17694962e-001 2.03218296e-001 3.44260424e-001 2.00852394e-001
      1.94288135e-001 4.87407744e-001 1.92926209e-002 8.17911565e-001
      8.24986398e-001 2.23784029e-001 1.58935174e-001 6.31828606e-002
      1.65261403e-001 1.08045362e-001 8.00147235e-001 2.94692695e-001
      1.28260359e-001 4.89211291e-001 5.30475117e-002 7.05764592e-001
      5.06735519e-002 1.23768397e-001 1.15545593e-001 3.34517881e-002
      2.76392072e-001 1.84242368e-001 9.55705047e-001 2.14663446e-002
      3.06069106e-001 2.90235609e-001 2.49791577e-001 9.53702852e-002
      3.36249709e-001 3.25041503e-001 4.26072866e-001 1.11251488e-001
      6.40117884e-001 3.06370482e-002 1.59696370e-001 1.15350947e-001
      2.38015708e-002 1.27544478e-002 1.32120758e-001 3.68292868e-001
      4.07320000e-002 1.16301119e+000 1.04291350e-001 4.10311431e-001
      2.85488069e-001 9.76249039e-001 3.32494795e-001 2.85620242e-001
      2.23989144e-001 1.39821738e-001 4.32401635e-002 7.14789093e-001
      5.74793696e-001 2.38869071e-001 1.78046584e-001 3.55447620e-001
      4.42035735e-001 1.88895687e-002 1.27369374e-001 6.00737154e-001
      7.05466941e-002 4.47421186e-002 3.72170210e-001 2.61808366e-001
      1.38776556e-001 1.20365195e-001 6.48562312e-002 8.92662704e-002
      1.99381754e-001 2.38981485e-001 1.39699489e-001 1.04875766e-001
      8.63860995e-002 1.14560179e-001 1.31925985e-001 5.28609812e-001
      4.10294607e-002 2.24673271e-001 3.16912793e-002 3.50403398e-001
      3.49306352e-002 1.37357190e-001 7.13921189e-002 9.35573578e-002
      5.73729761e-002 4.82038260e-001 5.71255147e-001 9.35166180e-002
      6.73692465e-001 4.73362356e-001 1.31572867e-002 1.60587624e-001
      1.71754375e-001 3.46934468e-001 5.97734004e-002 3.49411041e-001
      1.97938196e-002 3.30991507e-001 5.15227675e-001 5.42305648e-001
      8.14766884e-002 3.73579264e-001 2.99819261e-001 4.14509252e-002
      2.57330030e-001 4.79276404e-002 3.05880666e-001 4.05810237e-001
      1.39298511e+000 5.51135242e-002 4.68714209e-003 3.49340111e-001
      1.44318014e-001 1.74448574e+000 5.96729040e-001 3.63336504e-001
      3.30284923e-001 1.09932160e+000 3.94400246e-002 1.04211211e+000
      1.14242611e-002 2.84387797e-001 2.30084240e-001 1.65995538e-001
      3.87716107e-002 1.88673079e-001 4.38564986e-001 3.69446963e-001
      3.42934906e-001 5.07529676e-001 1.83939886e+000 1.42418757e-001
      2.73686528e-001 1.38178736e-001 3.99595231e-001 1.71120957e-001
      7.26446211e-001 3.48554254e-001 2.23278269e-001 1.58398543e-002
      3.49879950e-001 6.40612304e-001 7.85437748e-002 5.98027073e-002
      3.81397814e-001 9.55701321e-002 1.29607335e-001 9.15118903e-002
      4.14060771e-001 3.89253534e-002 5.06921709e-001 5.41381836e-001
      3.63656273e-003 1.04986131e+000 1.64928183e-001 1.41834903e+000
      1.45058259e-001 1.69425368e-001 4.71366137e-001 7.39632189e-001
      6.73595548e-001 6.15447402e-001 1.21474576e+000 3.80922735e-001
      3.06577295e-001 1.84396747e-002 7.02939034e-002 1.03248574e-001
      7.12890387e-001 1.32143736e+000 6.57579958e-001 2.58704692e-001
      4.46615547e-001 3.72013688e-001 4.84568924e-001 1.00264801e-002
      1.77101225e-001 8.19303215e-001 8.42496932e-001 6.33580983e-001
      1.32159442e-001 8.58906150e-001 8.39529395e-001 1.42399251e-001
      8.26769233e-001 8.55521381e-001 9.73863453e-002 6.33311450e-001
      1.83183253e-001 4.94196922e-001 2.02063307e-001 2.23609403e-001
      4.71274048e-001 1.48128286e-001 5.46798408e-001 2.13015378e-001
      1.77281678e+000 3.95317018e-001 1.37993261e-001 1.39294118e-001
      1.36701033e-001 1.23294681e-001 6.30890548e-001 9.92614329e-002
      3.84790987e-001 5.05404055e-001 8.75801966e-002 1.21971357e+000
      6.99924171e-001 2.26617798e-001 4.60177004e-001 5.93752384e-001
      5.00625521e-002 4.46089923e-001 8.28130543e-002 3.94125164e-001
      1.80777326e-001 8.43544185e-001 9.25979972e-001 6.04917884e-001
      3.08972113e-002 3.21019441e-003 5.13889074e-001 4.42064134e-003
      1.16085470e-001 7.69474730e-002 3.06325763e-001 2.50829041e-001
      1.46801555e+000 1.45283595e-001 1.77596301e-001 3.58281642e-001
      1.02319741e+000 9.72568840e-002 2.85074472e-001 1.38632029e-001
      4.30480212e-001 4.58031893e-001 3.84019226e-001 1.87935382e-001
      1.14698565e+000 1.22111058e+000 3.33857596e-001 1.45693734e-001
      4.02373582e-001 1.32461498e-002 4.40623611e-001 1.36822879e-001
      4.89564359e-001 5.59855878e-001 1.59297511e-001 1.47115299e-002
      9.39741015e-001 4.83249545e-001 1.19705170e-001 3.13882560e-001
      1.09701383e+000 2.51938581e-001 5.45182712e-002 2.84540594e-001
      7.33382583e-001 7.81131983e-002 2.39848208e+000 4.27329600e-001
      2.03703269e-001 1.86047167e-001 9.92850900e-001 1.17715569e-002
      1.69952199e-001 1.14231966e-001 3.08100432e-001 3.07906598e-001
      3.29430699e-001 9.29516256e-002 3.23367655e-001 3.95627208e-002
      4.23190176e-001 8.40968847e-001 5.80313146e-001 2.26337805e-001
      1.46305626e-002 1.46487638e-001 4.03092235e-001 1.27715215e-001</_>
    <_>
      3.07302356e-001 3.44185233e-002 3.04149151e-001 7.39349842e-001
      6.75916135e-001 1.42035937e+000 6.56364262e-001 4.09322530e-001
      1.21322358e-002 4.32327509e-001 2.79939860e-001 1.93525493e+000
      3.64838034e-001 1.38634771e-001 2.32820377e-001 2.76871562e-001
      1.51517570e-001 2.86162019e-001 1.17975138e-002 1.00218248e+000
      7.63350904e-001 1.62045389e-001 1.81797028e-001 4.75628711e-002
      9.70786735e-002 1.27043337e-001 6.67864323e-001 3.19016814e-001
      1.29758582e-001 3.67900372e-001 4.15922627e-002 6.64536774e-001
      3.20209637e-002 8.52233022e-002 6.42805099e-002 3.08777038e-002
      3.31163913e-001 9.97690409e-002 6.08072340e-001 2.47018486e-002
      2.37255543e-001 2.09971771e-001 1.42571807e-001 8.28983411e-002
      3.30695897e-001 3.24459612e-001 4.05322075e-001 3.12834606e-002
      4.61993903e-001 2.23562289e-002 4.25456583e-001 1.72356904e-001
      2.08343398e-002 1.10944500e-002 1.63479686e-001 3.69080305e-001
      3.35058942e-002 2.23591954e-001 1.92420319e-001 1.69038504e-001
      2.61218667e-001 4.85113353e-001 2.61485904e-001 3.27743739e-001
      8.26658428e-001 2.42009550e-001 4.57697883e-002 3.91036153e-001
      1.37903666e+000 1.79370284e-001 1.71437442e-001 1.79730073e-001
      4.78255808e-001 1.73904393e-002 1.61250398e-001 4.15421307e-001
      9.89061594e-002 3.31396274e-002 3.34408104e-001 4.47934300e-001
      3.61216903e-001 2.06160679e-001 6.20197766e-002 5.54299094e-002
      2.89975643e-001 1.19987495e-001 9.82604697e-002 7.79341161e-002
      1.40216321e-001 1.88001335e-001 2.57717520e-001 1.41622937e+000
      4.43863384e-002 4.32338655e-001 2.19358820e-002 8.36891949e-001
      2.76776981e-002 6.44083992e-002 6.74903989e-002 2.83474177e-002
      5.90695962e-002 2.97915876e-001 2.86955208e-001 4.88011949e-002
      2.86384016e-001 2.03625262e-001 8.86988733e-003 2.11392164e-001
      2.66290724e-001 5.08171797e-001 3.94068323e-002 4.00977165e-001
      1.31809525e-002 3.97207737e-001 4.09499615e-001 1.24975002e+000
      5.03484979e-002 1.99992597e-001 3.25070590e-001 5.00529073e-002
      2.92572916e-001 2.42408123e-002 4.24787283e-001 1.11034667e+000
      9.89529192e-001 4.88203131e-002 3.98099795e-003 7.42584705e-001
      1.54806063e-001 1.39825308e+000 4.34728295e-001 2.09169656e-001
      2.15729505e-001 7.71839261e-001 2.91632134e-002 1.13525994e-001
      1.32093830e-002 4.93707210e-001 1.79978937e-001 1.20305166e-001
      1.50613990e-002 6.57532141e-002 3.19628835e-001 1.46171942e-001
      5.50062656e-001 1.63066077e+000 5.76066792e-001 1.55504972e-001
      5.06795526e-001 4.00033385e-001 7.49312758e-001 1.95563868e-001
      3.37617993e-001 6.23464584e-001 1.47703856e-001 1.47594400e-002
      2.90286899e-001 7.33250141e-001 1.32933706e-001 5.97963966e-002
      1.87020376e-001 7.51927271e-002 1.28384456e-001 7.60592073e-002
      1.25881195e-001 4.01692837e-002 4.92616773e-001 4.16536659e-001
      4.29573329e-003 8.75030041e-001 1.58383012e-001 1.20015800e+000
      1.13365412e-001 2.35701352e-001 7.16693580e-001 1.95104569e-001
      9.67466474e-001 7.91912496e-001 1.43717313e+000 3.97136599e-001
      1.17786124e-001 8.63719825e-003 7.42687806e-002 7.04972893e-002
      4.51238930e-001 9.77086127e-001 2.13839337e-001 9.74529833e-002
      2.68155187e-001 5.22356153e-001 2.98233956e-001 9.56788659e-003
      1.19657822e-001 1.11177897e+000 1.72502542e+000 7.84199834e-001
      1.16058901e-001 8.28575492e-001 4.89880830e-001 1.25883177e-001
      1.06595373e+000 5.18276334e-001 2.28867412e-001 4.41412300e-001
      4.48907107e-001 3.98367554e-001 1.60137743e-001 7.72190809e-001
      3.46133918e-001 4.70778167e-001 1.85452610e-001 1.48341373e-001
      5.52466989e-001 6.82672381e-001 1.88052163e-001 1.05276167e-001
      1.61629513e-001 1.25615343e-001 1.04074621e+000 1.16147071e-001
      3.77682865e-001 6.98781669e-001 8.19744840e-002 1.05663109e+000
      5.13416111e-001 3.36498201e-001 6.34600997e-001 1.14663467e-001
      8.71881545e-002 1.22995698e+000 6.19167387e-002 2.21937880e-001
      1.14386357e-001 1.06813514e+000 1.68120599e+000 3.46144468e-001
      3.09523717e-002 2.99747218e-003 3.30731213e-001 2.41284189e-003
      1.29021138e-001 9.86188352e-002 2.20046327e-001 2.48173252e-001
      1.16731250e+000 1.85660198e-001 1.32676378e-001 4.57975388e-001
      6.16981506e-001 4.24958199e-001 4.07280743e-001 3.70830774e-001
      5.59566557e-001 2.89603919e-001 4.89381343e-001 1.26493946e-001
      1.14171779e+000 1.32861567e+000 6.14891946e-001 1.43782124e-001
      2.21659720e-001 1.11305267e-002 4.98089731e-001 1.80163175e-001
      2.22862720e-001 3.10350418e-001 9.70248803e-002 6.44584512e-003
      2.61825830e-001 7.45255828e-001 2.85766333e-001 3.72815251e-001
      1.09241903e+000 2.33480148e-002 3.51953767e-002 4.64990318e-001
      8.19277048e-001 4.34457026e-002 1.37212563e+000 3.61365199e-001
      3.60436469e-001 2.05648765e-001 9.41952467e-001 1.05120009e-002
      8.46156105e-002 5.18030934e-002 2.47552454e-001 2.12309301e-001
      3.28448206e-001 3.59671593e-001 1.61541626e-001 2.81892344e-002
      2.21590638e-001 1.19325101e+000 4.44922388e-001 2.02836692e-001
      1.94711499e-002 1.45668313e-001 5.44877827e-001 4.27088253e-002</_>
    <_>
      1.10466614e-001 3.35974842e-002 2.65568584e-001 2.45393530e-001
      4.94188964e-001 7.51475811e-001 6.98409557e-001 6.16757452e-001
      8.98331124e-003 4.64826137e-001 5.50958633e-001 6.21240973e-001
      2.84311235e-001 7.84513503e-002 2.16674507e-001 2.34575123e-001
      1.82703465e-001 3.45800489e-001 1.07185626e-002 9.04660165e-001
      9.35983360e-001 2.32927322e-001 1.05472505e-001 4.10397872e-002
      1.16403311e-001 1.68985873e-001 7.29482174e-001 2.98970729e-001
      3.38156462e-001 6.51739597e-001 3.40777710e-002 1.21783698e+000
      2.00470146e-002 8.90354440e-002 1.07371949e-001 3.61797698e-002
      2.65899807e-001 3.55514109e-001 3.31514806e-001 2.51291208e-002
      2.19608366e-001 2.13358819e-001 1.00496672e-001 9.97328088e-002
      2.88905889e-001 5.61219394e-001 7.07534909e-001 8.17576572e-002
      2.36183837e-001 2.95815617e-002 1.87114850e-001 1.52473435e-001
      2.32587606e-002 1.66041534e-002 1.38259262e-001 1.67707890e-001
      1.75202101e-001 3.11983377e-001 4.48819757e-001 4.27549392e-001
      8.21586907e-001 3.58859718e-001 2.44002908e-001 2.45789513e-001
      7.36313164e-001 3.38778794e-001 4.73498367e-002 2.61448324e-001
      4.70067054e-001 2.42852688e-001 1.04874536e-001 1.71742871e-001
      3.94203424e-001 1.12983314e-002 1.01355277e-001 1.68630347e-001
      5.21158166e-002 2.10269913e-002 4.50243980e-001 2.63056278e-001
      4.81705010e-001 1.85285434e-001 3.71363983e-002 5.71295321e-002
      4.98422325e-001 1.52358323e-001 1.79126397e-001 6.75503239e-002
      9.79758501e-002 2.19732657e-001 5.37355483e-001 6.81926370e-001
      4.41892073e-002 4.64708924e-001 2.44932994e-002 7.01050043e-001
      3.45727801e-002 1.09817900e-001 1.07432812e-001 8.07879344e-002
      6.72319457e-002 2.21790105e-001 2.66033322e-001 1.10541947e-001
      8.52583468e-001 3.69427711e-001 9.47046839e-003 1.57078430e-001
      1.43987432e-001 4.51797575e-001 3.48170064e-002 4.58813727e-001
      6.66884100e-003 3.12001675e-001 4.91517693e-001 2.70661652e-001
      2.00210646e-001 2.86370665e-001 3.33431631e-001 2.05595180e-001
      5.08951187e-001 3.79610881e-002 5.64629734e-001 2.07600132e-001
      6.99607313e-001 2.78552864e-002 6.65730098e-003 7.38743484e-001
      8.61399919e-002 9.99706030e-001 3.36488098e-001 2.26049438e-001
      1.71809927e-001 7.06231177e-001 3.80147398e-002 3.15933079e-001
      1.57618206e-002 3.54059339e-001 3.68404865e-001 1.32385150e-001
      2.66211759e-002 3.30715895e-001 2.67151743e-001 2.13887960e-001
      4.35421079e-001 2.79737115e-001 5.29335022e-001 1.24618568e-001
      9.92522597e-001 9.38412845e-002 4.41992879e-001 2.73153961e-001
      1.41453728e-001 9.40941989e-001 7.86617249e-002 1.11715449e-002
      1.57541603e-001 4.22510743e-001 6.66792169e-002 6.95075616e-002
      1.32992044e-001 3.55989300e-002 1.78397298e-001 8.72940645e-002
      1.91502154e-001 5.12090735e-002 8.39634776e-001 5.08359730e-001
      2.86335545e-003 6.17154062e-001 1.15920573e-001 5.10698736e-001
      5.46023138e-002 1.29101247e-001 4.01336938e-001 3.66101712e-001
      2.37208679e-001 3.16541791e-001 3.00018609e-001 3.20619524e-001
      1.60848543e-001 9.69747268e-003 3.39670964e-002 9.31177214e-002
      2.86231399e-001 6.83864534e-001 3.75660807e-001 1.98569000e-001
      4.33759868e-001 5.88657618e-001 1.67309299e-001 1.99979506e-002
      4.03575391e-001 7.17432380e-001 7.57053792e-001 5.55414081e-001
      1.10507905e-001 9.15998995e-001 5.09229064e-001 3.70348126e-001
      8.34153295e-001 2.64744252e-001 8.00138786e-002 8.87474120e-001
      1.06272519e+000 6.92775071e-001 2.12817892e-001 3.31178993e-001
      2.41680816e-001 1.61192209e-001 5.07407427e-001 7.66626745e-002
      3.42729896e-001 5.63360572e-001 1.52719736e-001 1.06985949e-001
      2.28507817e-001 1.58983797e-001 1.03394401e+000 7.79321715e-002
      2.34759822e-001 7.58975327e-001 8.00859332e-002 1.18911934e+000
      4.23451751e-001 3.00343990e-001 7.85782576e-001 2.22490609e-001
      7.40275159e-002 6.35334194e-001 5.32816984e-002 2.32046470e-001
      1.12658449e-001 4.60541368e-001 4.92805541e-001 1.68996423e-001
      3.22380289e-002 2.19081948e-003 3.02347809e-001 4.56483150e-003
      1.15213923e-001 4.69075926e-002 8.05030093e-002 2.14240998e-001
      1.11485863e+000 4.46666092e-001 9.90533978e-002 5.85573494e-001
      4.26258296e-001 3.78989339e-001 2.39565253e-001 1.95092067e-001
      5.66093504e-001 4.06166106e-001 1.20616627e+000 5.05105220e-002
      7.31946647e-001 1.31863296e+000 6.53922439e-001 1.07527509e-001
      2.41508067e-001 1.74135976e-002 2.39180803e-001 1.22497372e-001
      7.98006475e-001 4.27084565e-001 9.07509401e-002 1.29068354e-002
      2.81385899e-001 8.72960567e-001 2.32499987e-001 2.64359891e-001
      2.93011099e-001 1.47095069e-001 3.24886851e-002 7.31398880e-001
      2.37483039e-001 6.05415963e-002 9.32292104e-001 1.91566885e-001
      3.54453951e-001 1.03858545e-001 3.67177129e-001 9.76679660e-003
      6.59711584e-002 9.11185369e-002 6.94304824e-001 1.96708769e-001
      4.09401566e-001 2.28801340e-001 5.20552993e-001 2.86788419e-002
      2.46966749e-001 9.55379128e-001 4.17846054e-001 1.29175141e-001
      2.21771132e-002 1.40827194e-001 2.67493159e-001 8.69081765e-002</_>
    <_>
      2.91058689e-001 4.44624834e-002 1.09309232e+000 9.83490586e-001
      6.85095251e-001 1.68895829e+000 1.08989060e+000 6.96053565e-001
      1.05988737e-002 7.40045726e-001 1.28681397e+000 1.05106723e+000
      2.58722454e-001 1.27773613e-001 3.26306581e-001 2.80597925e-001
      2.78016329e-001 5.39784431e-001 1.97894257e-002 9.54045653e-001
      1.54610264e+000 2.81796426e-001 1.49919078e-001 7.19030723e-002
      9.77183580e-002 1.77966982e-001 8.20436835e-001 2.71379113e-001
      6.46950722e-001 7.21230030e-001 4.96696495e-002 1.87957704e+000
      3.82502228e-002 1.33262098e-001 1.39123708e-001 2.67519131e-002
      4.66274261e-001 7.83309937e-002 8.49339366e-001 1.53895086e-002
      6.79203510e-001 4.28908944e-001 6.10149324e-001 1.32440820e-001
      5.72387516e-001 5.94217002e-001 1.00673330e+000 1.06556289e-001
      5.39338529e-001 4.54987660e-002 8.49741876e-001 2.29869962e-001
      2.37627644e-002 2.10937317e-002 7.66748264e-002 3.22564453e-001
      3.10956448e-001 7.26095140e-001 5.35726011e-001 3.65713596e-001
      9.36504662e-001 8.77577424e-001 4.94488031e-001 3.44291270e-001
      1.00007355e+000 2.78415561e-001 5.22024930e-002 3.32816690e-001
      7.72119880e-001 2.88510531e-001 1.43850103e-001 2.64079273e-001
      5.61550200e-001 9.94751230e-003 2.71805137e-001 3.43140990e-001
      9.94213372e-002 3.69949043e-002 4.77371156e-001 3.76053602e-001
      1.20608604e+000 3.38689387e-001 4.08200026e-002 2.20236808e-001
      4.63988453e-001 5.81339717e-001 7.25423098e-002 7.98684582e-002
      3.69633466e-001 1.14277124e-001 8.04048240e-001 7.41171360e-001
      3.63815837e-002 5.72861254e-001 2.03462578e-002 1.45070171e+000
      3.30233239e-002 7.62628391e-002 1.24296799e-001 9.87128764e-002
      7.77922869e-002 2.85005987e-001 5.00979424e-001 1.04746528e-001
      1.52169943e+000 2.72208422e-001 5.25902957e-003 4.67329949e-001
      3.51557344e-001 1.70209217e+000 4.62257303e-002 5.38298666e-001
      1.22450674e-002 4.53533232e-001 7.11792529e-001 1.44170272e+000
      5.78254521e-001 2.08758712e-001 9.15028036e-001 3.14925611e-001
      6.42118812e-001 3.47974189e-002 7.65560865e-001 7.52908111e-001
      5.05615175e-001 5.74406274e-002 1.47118326e-002 1.99012184e+000
      1.14356220e-001 1.44797587e+000 1.10209918e+000 6.49440229e-001
      6.79726779e-001 5.84404409e-001 3.43589857e-002 6.36981189e-001
      3.23719792e-002 2.07727998e-001 4.04784292e-001 1.74381778e-001
      3.94759029e-002 1.02239423e-001 2.73679227e-001 2.97653437e-001
      1.46410525e+000 1.20491505e+000 9.34715211e-001 2.56396830e-001
      8.81764352e-001 4.90578830e-001 4.78430033e-001 4.08359617e-001
      5.72545648e-001 2.05875382e-001 1.34331405e-001 1.39070088e-002
      5.94186068e-001 4.42431629e-001 9.36185718e-002 1.65043116e-001
      4.51260835e-001 1.14196926e-001 3.08212429e-001 9.76823121e-002
      2.43738502e-001 1.21507287e-001 1.70869052e+000 9.82731581e-001
      3.98212811e-003 1.46501946e+000 1.60863698e-001 1.38625932e+000
      5.57565928e-001 4.08948302e-001 5.09487391e-001 6.94458246e-001
      7.40386069e-001 5.07019460e-001 6.79995358e-001 4.42600876e-001
      3.31906050e-001 1.48442304e-002 9.84846279e-002 1.55901238e-001
      3.92953455e-001 5.88945925e-001 4.21487778e-001 2.01610133e-001
      1.29751647e+000 1.59612739e+000 4.28302884e-001 2.12188680e-002
      1.24686420e-001 9.64032948e-001 5.92852116e-001 1.28461313e+000
      1.26019701e-001 9.54854906e-001 6.63943231e-001 6.84665501e-001
      9.62710798e-001 6.55427039e-001 5.28087258e-001 5.23879588e-001
      1.39740682e+000 6.63356245e-001 1.49626791e-001 1.09678364e+000
      2.55333871e-001 2.91670412e-001 6.59009635e-001 1.27771452e-001
      9.48987305e-001 1.52706409e+000 3.41156006e-001 1.46047473e-001
      3.82122666e-001 2.30834171e-001 8.11610878e-001 2.04707369e-001
      4.52303827e-001 1.04567969e+000 1.47133186e-001 1.10394871e+000
      4.13891107e-001 6.73349619e-001 1.16741502e+000 8.85664582e-001
      2.72791892e-001 2.11370921e+000 8.08433667e-002 3.66321832e-001
      3.12491477e-001 6.31365061e-001 1.45243967e+000 9.01754022e-001
      6.06798306e-002 3.78503883e-003 5.75722575e-001 4.85348515e-003
      1.27046630e-001 8.36254507e-002 1.16144001e-001 4.36353594e-001
      1.07285702e+000 4.90267158e-001 7.42733419e-001 8.15569580e-001
      1.36508095e+000 1.19297850e+000 6.14196599e-001 6.05425298e-001
      1.12097740e+000 5.92378438e-001 1.12237847e+000 1.61852077e-001
      5.78413248e-001 2.43525124e+000 1.73596311e+000 1.61022797e-001
      5.98361492e-001 2.17890814e-002 9.30021226e-001 1.88181639e-001
      3.60367090e-001 1.36470282e+000 1.71130031e-001 8.79114028e-003
      3.06193233e-001 9.92551386e-001 1.32502878e+000 3.32541734e-001
      7.28822768e-001 2.16849610e-001 5.17798029e-002 5.79834282e-001
      8.22934985e-001 1.06587820e-001 1.30109668e+000 3.09144467e-001
      3.43179703e-001 1.42338917e-001 1.06814742e+000 1.14005264e-002
      1.21731445e-001 6.25006631e-002 5.23170829e-001 3.77315104e-001
      6.88805699e-001 5.79876304e-001 5.40693641e-001 4.07993048e-002
      3.56436431e-001 7.73948729e-001 3.77691627e-001 3.51622671e-001
      2.85057463e-002 8.11215714e-002 2.78904855e-001 1.03822179e-001</_>
    <_>
      6.16104126e-001 7.76675642e-002 1.40440479e-001 3.61899495e-001
      6.78376257e-001 9.73976910e-001 5.77783585e-001 7.82374859e-001
      1.75876040e-002 2.78356433e-001 4.43398356e-001 1.78511536e+000
      1.78801894e-001 2.66598374e-001 4.13445562e-001 1.94499597e-001
      1.68905467e-001 4.33488905e-001 1.92911681e-002 1.68238091e+000
      6.62610590e-001 1.22298911e-001 2.01890573e-001 7.28841349e-002
      8.88192505e-002 2.83672243e-001 3.99918258e-001 2.79745877e-001
      1.20145774e+000 7.07246363e-001 5.79932332e-002 2.72129178e+000
      5.40386662e-002 2.65887439e-001 1.39805198e-001 2.29503158e-002
      6.03285253e-001 4.42669272e-001 5.22221982e-001 3.04643381e-002
      1.61802042e+000 4.26846355e-001 1.27682304e+000 3.02644104e-001
      8.10869813e-001 1.75199106e-001 2.02089691e+000 7.34167248e-002
      9.56956089e-001 2.92272028e-002 1.25897408e-001 1.44150004e-001
      8.07288587e-002 9.81973018e-003 2.72084117e-001 3.19642782e-001
      2.04458013e-001 5.64683020e-001 1.43949473e+000 2.60473800e+000
      1.88225174e+000 5.14806211e-001 1.75866306e+000 5.94207585e-001
      1.70530453e-001 1.45316944e-001 9.54006314e-002 4.66924816e-001
      1.14322972e+000 1.74339101e-001 2.13775232e-001 2.65354037e-001
      2.55226791e-001 2.00216360e-002 1.03769088e+000 5.70945323e-001
      6.03226721e-002 5.48418500e-002 8.29487920e-001 1.75882638e-001
      1.08955574e+000 8.65089968e-002 7.44563416e-002 1.14328802e+000
      1.26303196e+000 1.02758932e+000 1.68782532e-001 9.13202390e-002
      6.60864115e-002 3.72779816e-001 1.24748802e+000 7.89965570e-001
      9.16391537e-002 2.40814582e-001 3.49741615e-002 1.82545677e-001
      4.62440774e-002 2.29411229e-001 8.24297294e-002 7.93452486e-002
      3.35321762e-002 4.00612354e-001 1.81807482e+000 1.10473439e-001
      4.61181164e-001 2.20835611e-001 1.09655252e-002 7.77254343e-001
      4.25620705e-001 3.63636345e-001 9.21837911e-002 1.64065078e-001
      1.72067620e-002 3.65332544e-001 1.22572146e-001 2.54259080e-001
      3.29410613e-001 2.32798025e-001 2.39419401e-001 2.50804007e-001
      3.62805247e-001 3.21225300e-002 2.50792027e-001 2.55967975e-001
      1.13337612e+000 5.86260147e-002 3.06095975e-003 1.81268311e+000
      1.57943681e-001 9.05043006e-001 2.90598422e-001 5.28399408e-001
      1.45635104e+000 9.51211512e-001 6.47239238e-002 1.34718466e+000
      7.17087835e-003 4.63810891e-001 7.38053679e-001 1.65447310e-001
      2.85573937e-002 4.98878747e-001 4.63097721e-001 3.15641880e-001
      3.80881786e-001 2.86512911e-001 1.62949145e+000 5.44185221e-001
      5.62721252e-001 6.59869909e-001 2.31996462e-001 1.33687317e-001
      5.96704602e-001 3.78723264e-001 2.28125274e-001 2.32800022e-002
      7.18361914e-001 7.55409360e-001 6.11940138e-002 7.06080422e-002
      2.12404823e+000 7.60337114e-002 2.34148562e-001 2.05320269e-001
      2.49273524e-001 4.19086590e-002 2.75721622e+000 5.67571521e-001
      6.15108153e-003 2.23693347e+000 2.98168659e-001 2.09813094e+000
      1.86565721e+000 1.28543460e+000 5.70053697e-001 5.48216641e-001
      1.10135448e+000 6.10069156e-001 1.41442990e+000 6.06366336e-001
      4.94018286e-001 1.60159692e-002 1.91125780e-001 3.68703187e-001
      6.52217209e-001 1.20255256e+000 2.49262571e-001 2.68878758e-001
      1.93454707e+000 5.55827081e-001 3.35271031e-001 6.81041554e-003
      4.67112899e-001 5.72219491e-001 1.87862599e+000 5.56811750e-001
      2.62980312e-001 3.04142928e+000 9.87075686e-001 1.54404044e+000
      5.28179944e-001 3.77352744e-001 1.07551467e+000 2.21242562e-001
      3.99963289e-001 2.16749012e-001 8.89738575e-002 5.30704260e-001
      4.60845500e-001 9.07941833e-002 1.16701297e-001 2.61622787e-001
      1.59676147e+000 1.72961223e+000 7.52049088e-002 3.59410048e-001
      9.53690559e-002 1.23218253e-001 1.67589176e+000 4.40931797e-001
      6.75891101e-001 1.73156381e+000 1.13803044e-001 2.84650326e+000
      7.46731162e-001 2.17285454e-001 4.00322229e-001 9.30404246e-001
      6.05807565e-002 2.20736727e-001 9.53571498e-002 3.87559295e-001
      6.64609134e-001 1.10350120e+000 2.08527923e+000 1.95280850e-001
      5.58697432e-002 8.36626440e-003 3.16591233e-001 2.92449025e-003
      3.04245293e-001 5.68517596e-002 1.81224316e-001 3.06454271e-001
      1.34215319e+000 9.67719853e-001 2.77208591e+000 8.01007032e-001
      5.02910912e-001 1.49317235e-001 4.10008013e-001 1.34845710e+000
      3.82345825e-001 1.77742434e+000 3.82769227e-001 1.58526614e-001
      2.23188567e+000 1.76424766e+000 7.08660662e-001 1.71033740e-001
      2.67236769e-001 9.86394379e-003 6.34908557e-001 1.78092450e-001
      9.36935723e-001 1.83007252e+000 1.79534867e-001 1.19319269e-002
      7.28370905e-001 2.48565984e+000 1.03710927e-001 2.81638235e-001
      2.02077389e+000 1.40983567e-001 7.66454637e-002 7.46586740e-001
      1.02809703e+000 3.03556859e-001 1.40401673e+000 7.82541215e-001
      2.85051167e-001 1.91122338e-001 4.30962294e-001 3.03214956e-002
      1.08880714e-001 8.41384158e-002 2.79403180e-001 3.53011966e-001
      2.62015373e-001 1.54062402e+000 2.30654573e+000 3.51528786e-002
      4.73908126e-001 3.37370801e+000 1.41647637e-001 1.26585454e-001
      6.91525042e-002 1.34840637e-001 4.77751672e-001 9.21762958e-002</_>
    <_>
      3.88650656e-001 4.66930680e-002 2.74197161e-001 8.82766426e-001
      1.42205238e+000 1.16112924e+000 3.64256471e-001 8.99364829e-001
      1.56448912e-002 9.63258147e-001 5.48480749e-001 1.04131794e+000
      3.04993898e-001 1.45006552e-001 3.13869804e-001 3.45821589e-001
      3.66789967e-001 7.89306939e-001 1.59961917e-002 1.40622115e+000
      1.56780672e+000 2.16790900e-001 1.20646700e-001 5.83590865e-002
      8.14971775e-002 2.15164900e-001 6.37600839e-001 3.48891050e-001
      1.00283146e+000 8.41403723e-001 4.63506803e-002 1.17979825e+000
      4.83003519e-002 1.08861804e-001 1.45495072e-001 4.80935536e-002
      3.11878979e-001 8.86723772e-002 6.37308896e-001 2.69620325e-002
      6.28299296e-001 2.55639225e-001 1.27709734e+000 2.37787127e-001
      3.75456333e-001 7.18998432e-001 1.40565908e+000 9.76950079e-002
      5.32813430e-001 5.13911843e-002 3.65299821e-001 1.33444220e-001
      5.46758994e-002 1.31760370e-002 1.13180496e-001 4.69930112e-001
      9.39640775e-002 6.70326829e-001 8.91537130e-001 6.17340446e-001
      7.87210524e-001 1.04733336e+000 9.75745618e-001 3.28547150e-001
      4.10148382e-001 3.43300998e-001 5.00528440e-002 5.45531452e-001
      3.03648442e-001 2.45345965e-001 1.51391789e-001 2.23622814e-001
      4.34421301e-001 1.49694951e-002 4.87339020e-001 6.59245610e-001
      9.66051891e-002 4.60134931e-002 4.29370701e-001 4.49828058e-001
      7.52626657e-001 2.92690039e-001 4.13383134e-002 5.00728905e-001
      3.18282455e-001 1.22204196e+000 8.53229538e-002 8.33492503e-002
      1.29172161e-001 1.47013739e-001 5.26390553e-001 1.00066173e+000
      5.68854176e-002 2.22923353e-001 1.79072134e-002 6.54419422e-001
      3.92529741e-002 8.01716596e-002 1.50022745e-001 4.28603292e-002
      8.55056569e-002 3.87149066e-001 2.45171428e-001 1.42219007e-001
      4.02874768e-001 2.94430912e-001 7.54140643e-003 4.56711531e-001
      5.15706956e-001 3.61233979e-001 5.33584617e-002 4.49614614e-001
      1.45923365e-002 6.31017983e-001 7.05450773e-001 6.19268179e-001
      3.02250654e-001 2.51735806e-001 3.19100976e-001 1.12369888e-001
      3.01810324e-001 6.31169677e-002 9.90126193e-001 6.02114260e-001
      1.03950512e+000 3.88723910e-002 6.50308235e-003 1.16414726e+000
      1.15141340e-001 1.45108593e+000 7.84896433e-001 4.25980866e-001
      5.23350596e-001 2.90632784e-001 4.45150807e-002 8.18527877e-001
      1.63834114e-002 3.81974399e-001 3.44391257e-001 1.01539642e-001
      2.85182316e-002 9.14089382e-002 5.02438128e-001 2.12563723e-001
      3.93985480e-001 6.25859261e-001 1.13793612e+000 4.31478679e-001
      4.45356458e-001 8.51707637e-001 5.92579782e-001 1.91181645e-001
      3.10298502e-001 8.06979954e-001 1.45043090e-001 1.48900319e-002
      4.27424669e-001 6.82129204e-001 8.78774375e-002 6.18905015e-002
      1.21287560e+000 8.94484967e-002 1.36354953e-001 7.09177554e-002
      2.41356388e-001 3.56961600e-002 1.13582778e+000 1.03929365e+000
      4.17811470e-003 1.49972618e+000 1.28835529e-001 1.59042108e+000
      1.83330595e+000 9.87120867e-001 3.48658323e-001 4.53289777e-001
      1.06490147e+000 5.00622094e-001 3.06303531e-001 2.85316378e-001
      2.11280271e-001 1.62502229e-002 2.24209294e-001 1.23536080e-001
      5.61129391e-001 1.05212867e+000 6.37267947e-001 1.35371372e-001
      4.61324692e-001 1.00643229e+000 3.50725472e-001 2.02876963e-002
      1.72697678e-001 9.72007990e-001 6.81144178e-001 1.00014961e+000
      1.27675563e-001 4.24156517e-001 1.33281267e+000 1.14486217e+000
      9.87535954e-001 7.57500529e-001 1.40914226e+000 1.05863273e+000
      5.67113996e-001 5.16845763e-001 2.30522960e-001 1.21783352e+000
      5.84397137e-001 1.75694481e-001 5.16056240e-001 1.59857556e-001
      5.23962736e-001 1.07733142e+000 3.21103364e-001 7.84346014e-002
      1.93904594e-001 2.13536397e-001 1.74036014e+000 5.49101114e-001
      3.23420644e-001 7.01399267e-001 6.12716489e-002 1.17428875e+000
      4.98735845e-001 2.65985608e-001 4.61369604e-001 6.38820410e-001
      9.01485905e-002 6.09255075e-001 1.04671329e-001 6.99230671e-001
      5.81022739e-001 1.09447777e+000 1.21863091e+000 6.52007639e-001
      2.50489041e-002 4.56726179e-003 6.16442323e-001 7.66799087e-003
      8.74441639e-002 8.71170461e-002 1.72383457e-001 3.33093047e-001
      7.13294268e-001 2.98560351e-001 1.49537861e+000 9.03210878e-001
      1.05251610e+000 1.87168047e-001 3.88901830e-001 1.12071657e+000
      1.03695858e+000 3.91391188e-001 5.65713942e-001 1.42868176e-001
      6.16019130e-001 2.44328475e+000 6.51593149e-001 9.33392122e-002
      4.80059832e-001 1.29977688e-002 1.15959358e+000 1.23881020e-001
      1.87022343e-001 9.72723484e-001 1.22797430e-001 6.50825771e-003
      8.28090906e-001 6.69035733e-001 2.27445617e-001 2.01498091e-001
      2.75242537e-001 2.54165262e-001 5.24383150e-002 9.25227880e-001
      7.59757876e-001 2.16694310e-001 1.14739263e+000 3.93182009e-001
      7.32730031e-001 1.39584988e-001 1.09865761e+000 1.46597829e-002
      1.51038587e-001 8.03052783e-002 8.47784340e-001 7.27511704e-001
      6.49488330e-001 8.60905528e-001 6.90014482e-001 3.28453332e-002
      4.26624954e-001 5.30653238e-001 6.57144785e-001 2.28368953e-001
      5.22466041e-002 1.21530682e-001 2.94395119e-001 8.86945724e-002</_>
    <_>
      1.70937940e-001 3.11237611e-002 1.47371367e-001 1.47394180e-001
      4.00380135e-001 1.17047632e+000 8.16701293e-001 8.76815438e-001
      1.07273422e-002 1.92845917e+000 4.64492112e-001 7.37785995e-001
      1.96280643e-001 1.02964215e-001 1.36945426e-001 2.05448747e-001
      3.27689618e-001 3.05657655e-001 1.16438195e-002 3.89333397e-001
      3.85545522e-001 2.06167117e-001 1.24489412e-001 3.45420986e-002
      9.99219790e-002 1.55062243e-001 4.28094745e-001 2.41641760e-001
      9.44123030e-001 1.00877714e+000 2.89378110e-002 1.01463497e+000
      2.61582397e-002 8.25705901e-002 1.01842023e-001 5.27372546e-002
      4.14311081e-001 4.84896094e-001 6.91802502e-001 2.88663246e-002
      9.04799998e-002 1.51831985e-001 1.23176944e+000 8.62309635e-002
      5.44700444e-001 3.87539059e-001 7.81536102e-001 9.18793604e-002
      1.63412377e-001 2.96892058e-002 1.41325161e-001 9.05122757e-002
      2.96063591e-002 1.68862715e-002 9.15034488e-002 2.40384817e-001
      1.21245801e-001 3.19259942e-001 8.10091674e-001 3.64215910e-001
      6.29023314e-001 8.94608378e-001 1.24478316e+000 3.70858312e-001
      6.10074103e-001 9.24289823e-001 3.88931520e-002 2.14863211e-001
      3.66023004e-001 6.50140941e-001 9.00318623e-002 1.60722360e-001
      3.46881866e-001 1.15410574e-002 4.14010435e-001 3.44700485e-001
      1.39393851e-001 2.45730020e-002 3.71697783e-001 3.17521185e-001
      1.12802649e+000 3.01697582e-001 3.90889123e-002 2.38482371e-001
      6.21003985e-001 8.99918377e-001 1.22947343e-001 6.79259673e-002
      3.93886536e-001 1.13534316e-001 1.64224899e+000 1.27479196e+000
      4.96711768e-002 2.46139839e-001 3.19328979e-002 4.53853637e-001
      3.31413820e-002 4.88428660e-002 6.68207109e-002 3.12011614e-002
      6.45995364e-002 2.18945041e-001 1.53396130e-001 7.12518618e-002
      1.16573787e+000 4.37670052e-001 6.44854782e-003 2.67356068e-001
      2.70538449e-001 9.08228755e-001 5.55429831e-002 5.39412975e-001
      1.13096163e-002 3.34563673e-001 2.84648299e-001 9.54028845e-001
      5.88462114e-001 3.67328256e-001 2.39335105e-001 1.37794554e-001
      1.03498030e+000 4.13500294e-002 4.63820785e-001 2.37039804e+000
      7.22278833e-001 2.66323127e-002 1.28079047e-002 1.11173105e+000
      8.85052085e-002 4.02251929e-001 4.77612853e-001 1.26707435e-001
      1.24106541e-001 5.93932211e-001 3.21586877e-002 7.82787442e-001
      3.25940400e-002 6.94441140e-001 2.81588584e-001 4.74809222e-002
      2.81290151e-002 4.95583445e-001 3.08616221e-001 1.90251634e-001
      9.73956585e-001 8.92498553e-001 7.96206236e-001 5.02774239e-001
      7.54446983e-001 8.84352267e-001 6.42755091e-001 2.49873415e-001
      1.67485401e-001 6.55882180e-001 9.74223912e-002 9.75453388e-003
      1.71906099e-001 6.61648631e-001 1.09403163e-001 9.70051363e-002
      2.55319446e-001 5.64774200e-002 2.12861568e-001 5.06675914e-002
      1.56318873e-001 9.87182260e-002 8.96977305e-001 4.34588850e-001
      4.74675698e-003 1.19196355e+000 1.60121128e-001 6.57451034e-001
      3.16862911e-001 1.74150598e+000 7.12780654e-001 2.68836826e-001
      1.78482562e-001 6.83149219e-001 9.96086121e-001 5.47595620e-001
      1.11392237e-001 9.29599907e-003 4.71474342e-002 9.74044427e-002
      2.37376273e-001 8.59226584e-001 2.13530347e-001 6.59816638e-002
      2.71094143e-001 2.84491152e-001 1.83121487e-001 3.92363854e-002
      3.45230371e-001 2.31079054e+000 1.00342453e+000 5.04761994e-001
      9.28780511e-002 4.25775051e-001 2.78775454e-001 9.13630188e-001
      2.07103515e+000 6.45854175e-001 5.37919760e-001 2.13735372e-001
      1.59272683e+000 2.64476568e-001 3.56468111e-001 2.15833116e+000
      3.72455657e-001 5.55627882e-001 1.59985274e-001 1.08272888e-001
      6.89539313e-001 1.17996228e+000 1.85480177e-001 9.54711661e-002
      2.60259807e-001 1.51585266e-001 4.51035172e-001 4.51728106e-001
      1.84827119e-001 1.17667472e+000 8.91169235e-002 1.31904197e+000
      5.23223758e-001 1.75721571e-001 9.18430090e-001 1.30759001e+000
      3.05841774e-001 2.21976280e+000 9.25618410e-002 3.27977121e-001
      1.07460894e-001 5.42090356e-001 4.34174120e-001 2.64404982e-001
      8.55382234e-002 3.20969778e-003 2.99437374e-001 3.88616952e-003
      1.45955503e-001 1.55010775e-001 8.21245834e-002 1.57057092e-001
      1.39526212e+000 2.61841476e-001 3.08092803e-001 8.71125877e-001
      5.24942935e-001 2.42317200e-001 1.33891776e-001 9.25312579e-001
      8.39702249e-001 1.98348552e-001 1.01692951e+000 1.05482385e-001
      1.55422413e+000 7.94680595e-001 5.77239931e-001 7.36069456e-002
      3.06709886e-001 1.70607120e-002 4.07778054e-001 7.52841905e-002
      8.91256094e-001 1.18660927e+000 8.66381079e-002 1.97262336e-002
      3.64270508e-001 3.45740736e-001 1.79902881e-001 1.94886848e-001
      9.51615155e-001 1.74193323e-001 3.36245783e-002 6.70419574e-001
      3.44371259e-001 9.26217884e-002 4.01514649e-001 1.94001853e-001
      3.06648195e-001 1.13178939e-001 4.14309025e-001 9.77728423e-003
      3.87137048e-002 1.68516085e-001 1.48286319e+000 3.53472561e-001
      1.39007592e+000 1.39103508e+000 2.70983130e-001 4.59636003e-002
      1.73522025e-001 4.71012652e-001 3.86771977e-001 1.56276718e-001
      2.83352714e-002 8.28766525e-002 2.83048332e-001 9.08324644e-002</_>
    <_>
      2.38179341e-001 3.34595405e-002 9.63527918e-001 3.66050333e-001
      6.20784521e-001 1.47724032e+000 4.35037792e-001 1.78915501e-001
      1.59879923e-002 9.07069147e-001 1.31921566e+000 1.19182372e+000
      2.72778362e-001 9.74199548e-002 3.13454986e-001 2.29187861e-001
      5.15282691e-001 5.99054039e-001 1.23787820e-002 1.09143913e+000
      7.05180883e-001 2.35014975e-001 1.86689749e-001 3.11340429e-002
      1.59242198e-001 1.23813048e-001 5.26862383e-001 3.90677750e-001
      5.89732006e-002 4.50911403e-001 3.49924676e-002 1.29863656e+000
      3.53087597e-002 1.27119616e-001 1.27996907e-001 6.98618069e-002
      3.47502083e-001 6.67234838e-001 7.97674060e-001 1.97999272e-002
      2.01697454e-001 3.19039911e-001 7.17316493e-002 7.33269751e-002
      3.11873496e-001 5.15872121e-001 9.98781264e-001 4.06620130e-002
      3.17283630e-001 3.90007235e-002 2.73683459e-001 2.00132474e-001
      3.01056299e-002 2.29045451e-002 9.02994946e-002 3.98610920e-001
      8.62275064e-002 5.99484444e-001 5.98784611e-002 4.59737688e-001
      1.16917622e+000 6.78787231e-001 5.59465349e-001 3.63190979e-001
      6.06755137e-001 2.95503438e-001 5.29672690e-002 2.34548897e-001
      7.27998972e-001 2.38864854e-001 1.31750152e-001 2.62191087e-001
      4.71335471e-001 1.84319895e-002 2.95864224e-001 3.07267278e-001
      1.22191966e-001 3.15152407e-002 1.10985720e+000 2.40180463e-001
      7.10342377e-002 4.26673532e-001 3.13388295e-002 1.58850595e-001
      5.68801939e-001 6.59992099e-002 2.72808760e-001 5.71396649e-002
      2.02726319e-001 1.29803777e-001 4.58145402e-002 5.68752468e-001
      5.65819889e-002 4.79959577e-001 7.45879635e-002 9.44647849e-001
      3.86625119e-002 1.42743379e-001 1.17155232e-001 5.31335808e-002
      9.88919139e-002 3.26816529e-001 6.67227507e-001 1.03825338e-001
      8.14367056e-001 4.41942036e-001 3.12595605e-003 3.99522275e-001
      2.15467960e-001 4.11972314e-001 6.31121024e-002 9.57930267e-001
      1.47667900e-002 4.49108303e-001 4.95389342e-001 4.80697781e-001
      7.74414241e-002 3.09402287e-001 6.07124329e-001 7.38411173e-002
      4.02539641e-001 7.18857646e-002 4.70987856e-001 1.21530485e+000
      1.36680663e+000 3.54526713e-002 1.13472641e-002 5.98680615e-001
      1.38071239e-001 1.89665329e+000 6.34269059e-001 1.73745364e-001
      1.51721209e-001 5.83040833e-001 3.91268581e-002 9.93435234e-002
      2.94374805e-002 1.39879093e-001 3.28538626e-001 7.15166479e-002
      1.36265839e-002 6.68450475e-001 2.59998441e-001 3.63514751e-001
      3.51630032e-001 4.72186804e-001 1.10124505e+000 3.24835360e-001
      5.14380157e-001 7.73100734e-001 8.24038267e-001 3.32404286e-001
      3.71185452e-001 6.39738739e-001 1.30170643e-001 9.48348735e-003
      4.47250217e-001 1.04503119e+000 1.46298662e-001 1.30513653e-001
      2.27702975e-001 1.26359165e-001 1.20489024e-001 1.19026296e-001
      1.77607298e-001 9.60807055e-002 1.13027382e+000 6.25056326e-001
      5.65994903e-003 1.05917072e+000 1.60240769e-001 1.02707791e+000
      1.67844132e-001 2.32804492e-001 5.74663639e-001 4.98030812e-001
      1.02396965e+000 1.05387151e+000 1.15760827e+000 3.40340793e-001
      2.91348666e-001 9.07238387e-003 4.67515215e-002 1.01385720e-001
      4.30167764e-001 1.47158015e+000 4.08556163e-001 1.61826834e-001
      9.21262145e-001 3.89699429e-001 3.27631086e-001 2.81770881e-002
      5.75942397e-001 1.06672454e+000 1.25363994e+000 6.22784495e-001
      1.23748504e-001 7.32770324e-001 3.59281093e-001 5.40134199e-002
      1.03285313e+000 5.17011166e-001 5.20734966e-001 3.08872998e-001
      7.90564120e-001 8.20326924e-001 2.77256817e-001 1.01303697e+000
      2.98632056e-001 2.64657706e-001 4.84969258e-001 1.03534885e-001
      6.85650587e-001 5.41220248e-001 3.75229686e-001 1.10673331e-001
      3.25149834e-001 2.94134021e-001 1.32684374e+000 2.38511533e-001
      2.39660665e-001 1.44984627e+000 5.76301292e-002 1.90588629e+000
      4.77066904e-001 4.29600030e-001 5.05680859e-001 6.52959123e-002
      2.86460400e-001 1.32374084e+000 1.21073812e-001 4.79505301e-001
      9.40826759e-002 6.26619518e-001 4.42430079e-001 4.07112747e-001
      1.97769925e-002 2.78684217e-003 4.00900573e-001 5.88967931e-003
      1.31164223e-001 1.20280705e-001 1.08616643e-001 2.76197672e-001
      1.17987275e+000 4.89916295e-001 7.11036026e-002 1.87455311e-001
      7.43358850e-001 4.78083432e-001 1.99724153e-001 9.23052073e-001
      9.28376913e-001 7.22511232e-001 6.43631577e-001 1.29510716e-001
      9.39059258e-001 8.30443382e-001 9.42884266e-001 1.01089522e-001
      3.01607192e-001 2.29721293e-002 9.20475185e-001 1.15941979e-001
      1.03712797e+000 8.35097730e-001 1.31344825e-001 1.62520129e-002
      5.96715569e-001 8.98502052e-001 3.23523313e-001 2.31495306e-001
      1.16602278e+000 7.93564245e-002 2.67116483e-002 1.95978537e-001
      4.15087819e-001 6.15879782e-002 1.16072619e+000 1.87794134e-001
      4.23028141e-001 1.25283569e-001 7.36279845e-001 7.86977541e-003
      1.52753830e-001 1.46055534e-001 1.12639630e+000 7.51317024e-001
      9.98445511e-001 6.49735093e-001 5.46743572e-001 4.89929505e-002
      3.42794061e-001 8.38350296e-001 2.21034199e-001 3.02328378e-001
      2.70453822e-002 8.62668231e-002 1.66481629e-001 3.99947278e-002</_>
    <_>
      2.26970211e-001 5.58101758e-002 1.96020022e-001 8.69253457e-001
      1.49853444e+000 1.18230999e+000 5.52819610e-001 7.24134505e-001
      1.49527071e-002 3.90360177e-001 6.29860938e-001 8.64288151e-001
      3.79662424e-001 1.84073359e-001 3.11411589e-001 4.60960269e-001
      4.62714911e-001 5.73554397e-001 1.63072404e-002 7.86879897e-001
      6.00538671e-001 2.69021302e-001 1.13498695e-001 4.79150489e-002
      1.29465416e-001 2.22310856e-001 6.55327260e-001 3.71559709e-001
      9.24659848e-001 3.50384444e-001 3.66470963e-002 1.77472210e+000
      3.70976441e-002 1.36047319e-001 8.98110121e-002 2.07341798e-002
      2.88695067e-001 1.65176943e-001 5.02147734e-001 1.82775911e-002
      5.10057569e-001 2.91876018e-001 1.10652208e+000 1.20473079e-001
      2.71169156e-001 4.19092864e-001 2.69933015e-001 1.66031897e-001
      5.57176888e-001 3.53736468e-002 1.75437927e-001 1.67873070e-001
      4.00430448e-002 1.77316722e-002 1.36646792e-001 4.63356644e-001
      1.93633899e-001 8.08380187e-001 1.14565420e+000 1.78159744e-001
      2.41415456e-001 4.66500878e-001 3.61097723e-001 3.09134215e-001
      3.68755281e-001 5.20426631e-001 4.80130166e-002 2.73481637e-001
      5.03922105e-001 1.94121480e-001 1.07125364e-001 2.40759298e-001
      4.04194474e-001 1.73893478e-002 2.37004772e-001 5.85299313e-001
      6.99948668e-002 3.67674194e-002 3.38617653e-001 2.41887420e-001
      1.06631112e+000 2.19401956e-001 3.89365591e-002 4.40412909e-001
      6.32459283e-001 1.68171442e+000 8.00713226e-002 1.27528071e-001
      1.39315933e-001 1.53690100e-001 1.52949691e+000 5.00882566e-001
      6.54174387e-002 2.32559338e-001 2.16064993e-002 8.13635290e-001
      4.56372015e-002 1.29433587e-001 1.42497569e-001 4.85212579e-002
      7.97633007e-002 5.67628860e-001 8.09806049e-001 1.34894028e-001
      9.51026022e-001 6.46983147e-001 1.56789906e-002 2.56487817e-001
      3.02607030e-001 4.20981228e-001 6.89522400e-002 6.80288255e-001
      1.60350632e-002 6.70904040e-001 6.45377636e-001 4.36046869e-001
      4.27013695e-001 4.07864124e-001 5.07893324e-001 1.87073708e-001
      5.84930241e-001 3.46730053e-002 6.48249090e-001 4.37644333e-001
      8.18769455e-001 4.13181968e-002 4.68207523e-003 1.68428063e+000
      9.54702571e-002 7.62940049e-001 1.08700621e+000 2.95047015e-001
      3.90405715e-001 8.54996860e-001 5.06037101e-002 1.34986079e+000
      1.30060129e-002 2.36793742e-001 3.63197774e-001 1.37793899e-001
      5.89957684e-002 1.92791834e-001 3.70699674e-001 3.19546074e-001
      4.29128170e-001 4.42315429e-001 9.00650561e-001 2.98932552e-001
      5.44280350e-001 4.60264325e-001 1.19717085e+000 2.11271599e-001
      4.36150134e-001 4.83876348e-001 1.42837062e-001 1.45511609e-002
      2.52243578e-001 7.00684369e-001 8.22059736e-002 9.85321403e-002
      4.51201081e-001 1.31686971e-001 1.70544550e-001 1.08438566e-001
      2.85087556e-001 4.57917526e-002 1.57775962e+000 7.23867238e-001
      5.57027804e-003 1.31204307e+000 1.28906161e-001 8.81541789e-001
      1.02050734e+000 1.19466352e+000 7.36369729e-001 5.30564785e-001
      1.84030497e+000 6.07835650e-001 1.33464313e+000 2.60377914e-001
      2.86245883e-001 1.39820939e-002 1.22754999e-001 9.98547673e-002
      5.71787596e-001 8.94103706e-001 3.85949284e-001 1.17741324e-001
      1.24664688e+000 7.07065880e-001 2.20394179e-001 4.43392806e-003
      1.58604085e-001 6.18631840e-001 8.23116958e-001 8.53060961e-001
      1.82560310e-001 7.37946689e-001 8.52813840e-001 9.83890772e-001
      6.37375653e-001 3.81706834e-001 8.38909388e-001 1.71297431e-001
      9.61416423e-001 6.24055743e-001 3.05922657e-001 1.43823123e+000
      4.39126164e-001 2.89897949e-001 4.55094725e-001 1.79487601e-001
      7.72530854e-001 1.48062587e+000 2.83730686e-001 1.10224903e-001
      2.22295597e-001 2.49417394e-001 8.46654177e-001 2.95989782e-001
      3.85562330e-001 1.75928223e+000 5.15528619e-002 1.92065001e+000
      4.68760729e-001 1.51383594e-001 6.63871527e-001 1.83782363e+000
      1.15323961e-001 2.92347699e-001 1.32565722e-001 3.15440893e-001
      2.41079822e-001 1.02919495e+000 1.28822327e+000 3.83953184e-001
      2.62009166e-002 3.93350655e-003 6.43855572e-001 4.26678266e-003
      1.24452084e-001 5.96056469e-002 1.47590041e-001 2.25018322e-001
      1.38849628e+000 3.66836399e-001 9.17667150e-001 6.91122949e-001
      1.47157228e+000 1.67356104e-001 2.38075092e-001 4.15873170e-001
      8.80265057e-001 9.86504257e-001 5.52917421e-001 1.10903852e-001
      8.42898786e-001 7.42328346e-001 6.89320624e-001 1.35682508e-001
      2.80453950e-001 1.76031981e-002 8.22192967e-001 1.16192766e-001
      6.76729202e-001 9.66875076e-001 1.12983264e-001 1.07410531e-002
      4.10449505e-001 3.86271238e-001 8.59940872e-002 1.40262902e-001
      7.60604262e-001 3.45618844e-001 4.77555469e-002 7.48819351e-001
      7.31572807e-001 1.02848753e-001 7.30176389e-001 3.61931741e-001
      5.10185540e-001 1.18364081e-001 1.03382659e+000 1.67459026e-002
      9.48210061e-002 1.23432711e-001 2.76902378e-001 5.05753577e-001
      2.97277629e-001 6.02758884e-001 2.54108846e-001 4.20678854e-002
      3.47771376e-001 7.10021019e-001 1.22709997e-001 3.51042390e-001
      4.55666892e-002 1.33751914e-001 2.66472220e-001 1.71756044e-001</_>
    <_>
      1.64968506e-001 2.70663723e-002 2.56668925e-001 4.62923974e-001
      5.16056776e-001 1.41904509e+000 5.84127069e-001 9.86235917e-001
      1.21502951e-002 1.24629986e+000 3.28208566e-001 7.87007987e-001
      1.79368541e-001 1.09721556e-001 1.09223053e-001 2.03842551e-001
      7.85643697e-001 3.45130980e-001 1.06686298e-002 6.73078537e-001
      6.32675350e-001 3.40563744e-001 1.71006605e-001 3.93250436e-002
      1.72030106e-001 1.59361020e-001 1.01707077e+000 1.94255352e-001
      3.86618041e-002 1.03674626e+000 2.17459686e-002 1.16753531e+000
      3.36368978e-002 1.10202007e-001 1.00417987e-001 5.27278557e-002
      2.85310864e-001 6.02164268e-001 6.65772855e-001 2.53548156e-002
      1.63942799e-001 1.94714114e-001 1.03936300e-001 9.02387351e-002
      4.33252156e-001 6.20141089e-001 4.02777851e-001 4.47549187e-002
      3.66363972e-001 3.79468910e-002 3.69995266e-001 1.21340260e-001
      2.25452390e-002 1.73556600e-002 9.62970704e-002 1.43214449e-001
      7.57819712e-002 4.67210531e-001 1.07966624e-001 2.26031125e-001
      2.97860920e-001 7.49670267e-001 1.00876677e+000 2.62455106e-001
      3.36989582e-001 1.04097867e+000 4.44067754e-002 3.04508418e-001
      7.86129236e-001 3.15536559e-001 1.09328590e-001 1.22480139e-001
      2.47942507e-001 1.30142830e-002 4.07230347e-001 3.02148312e-001
      9.96307731e-002 3.08823809e-002 9.59849834e-001 3.45914751e-001
      8.55629146e-001 3.32335532e-001 2.83072535e-002 2.35012751e-002
      3.79471302e-001 5.30975163e-002 1.72836140e-001 4.60540913e-002
      2.09360272e-001 1.37119770e-001 4.62118596e-001 1.82975030e+000
      5.00735231e-002 2.33945221e-001 4.62172031e-002 3.05154681e-001
      4.00478020e-002 7.22406954e-002 7.48225898e-002 6.73767403e-002
      4.58371192e-002 1.80381089e-001 2.49039546e-001 6.79801926e-002
      8.86261642e-001 5.74515224e-001 4.62007010e-003 4.62917864e-001
      1.91192999e-001 6.29098773e-001 5.09137027e-002 9.01670396e-001
      1.04636410e-002 3.28485191e-001 5.58989048e-001 5.78272402e-001
      4.42844182e-002 4.29063082e-001 2.74520487e-001 1.15639053e-001
      4.04755056e-001 5.42012677e-002 3.27049017e-001 1.11041093e+000
      5.40631413e-001 3.74084190e-002 6.40374655e-003 8.86811674e-001
      7.50361979e-002 7.35238135e-001 4.94955719e-001 2.41895959e-001
      1.44115329e-001 9.60908711e-001 3.59767936e-002 1.10886052e-001
      1.71668679e-002 2.25676760e-001 3.66150856e-001 6.16721734e-002
      1.07325092e-002 5.86311758e-001 2.28690311e-001 1.33797482e-001
      5.84926188e-001 5.63980043e-001 5.65695107e-001 3.76415819e-001
      1.06697619e+000 8.00475404e-002 7.44176030e-001 3.06376547e-001
      2.84480989e-001 3.68234873e-001 1.24938942e-001 1.08909458e-002
      4.36967820e-001 7.47301400e-001 1.33419424e-001 1.12138443e-001
      1.00731120e-001 9.41627473e-002 1.14095852e-001 1.17376730e-001
      1.76643044e-001 8.56394917e-002 9.96332467e-001 3.84795368e-001
      4.17901762e-003 1.56659317e+000 1.39722437e-001 5.85277200e-001
      4.07795310e-002 3.67386676e-002 3.39337498e-001 4.08509344e-001
      6.24297082e-001 1.01379764e+000 1.30698895e+000 3.34917426e-001
      2.04845250e-001 9.23234969e-003 5.17127290e-002 9.35945138e-002
      3.14000368e-001 4.98129964e-001 5.20722866e-001 7.58863166e-002
      4.56853956e-001 5.10270715e-001 1.57542169e-001 1.70581266e-002
      4.26957726e-001 1.85087049e+000 9.89560544e-001 7.10299790e-001
      1.30216435e-001 5.68459094e-001 6.13484859e-001 4.47109938e-002
      1.79929459e+000 5.25368452e-001 4.83615473e-002 5.85908651e-001
      1.79773879e+000 4.84370768e-001 4.56230253e-001 1.83400667e+000
      2.88479894e-001 3.04657012e-001 3.98963958e-001 1.15972891e-001
      4.70019937e-001 7.95357525e-001 3.68919909e-001 1.09477453e-001
      2.51301944e-001 1.94226652e-001 8.78519297e-001 3.52561101e-002
      1.91015989e-001 8.72518599e-001 5.95408455e-002 1.38760734e+000
      4.01241720e-001 2.45395660e-001 7.91967094e-001 1.03520542e-001
      2.07958952e-001 5.38797677e-001 6.06848337e-002 4.89247710e-001
      1.25343323e-001 5.08690178e-001 1.09370840e+000 1.89419657e-001
      3.43862437e-002 2.86467583e-003 3.23729366e-001 4.03339276e-003
      1.84030592e-001 9.59097445e-002 1.04480602e-001 3.41684788e-001
      1.99619150e+000 3.23243439e-001 7.23138899e-002 1.20450187e+000
      5.50714374e-001 1.21640101e-001 2.53079802e-001 9.14050341e-001
      7.18598008e-001 3.05255145e-001 1.36441743e+000 1.05138093e-001
      1.29843223e+000 1.28700244e+000 3.99064094e-001 1.03340238e-001
      3.57027292e-001 1.74069870e-002 6.99322402e-001 1.13676943e-001
      7.83743143e-001 8.38307440e-001 1.00389577e-001 1.36153558e-002
      5.18850446e-001 5.08005798e-001 1.57984570e-001 2.48221904e-001
      6.91520870e-001 2.47372184e-002 3.47484462e-002 1.00877154e+000
      3.20407450e-001 6.83883056e-002 7.95529783e-001 2.59841681e-001
      3.49895477e-001 1.04663700e-001 4.72437859e-001 8.95845890e-003
      6.20471016e-002 1.10947579e-001 1.16286731e+000 4.36993122e-001
      6.88752651e-001 1.03872061e+000 1.70325592e-001 4.89550717e-002
      1.32363543e-001 9.41792786e-001 3.22813094e-001 1.70245245e-001
      2.21095085e-002 6.69671893e-002 3.91177058e-001 4.44822945e-002</_>
    <_>
      1.81706697e-001 4.13843244e-002 4.74119186e-001 4.76173639e-001
      8.89928341e-001 3.77963096e-001 8.81148219e-001 4.81163591e-001
      1.91476941e-002 5.89774370e-001 8.76265764e-001 1.97014296e+000
      4.96617168e-001 1.24009013e-001 2.10689798e-001 3.72199982e-001
      3.73538911e-001 1.04156244e+000 1.45932566e-002 1.43355238e+000
      1.89119828e+000 5.70565343e-001 1.12585232e-001 4.67675664e-002
      1.33783877e-001 1.49888530e-001 5.96555352e-001 3.33572388e-001
      7.88263559e-001 4.00905907e-001 3.56414355e-002 1.59826922e+000
      3.08239385e-002 1.21543393e-001 1.23566277e-001 3.28588784e-002
      4.20213819e-001 1.32368177e-001 5.89322746e-001 1.69505011e-002
      6.09082162e-001 3.94338518e-001 3.58954251e-001 9.12220851e-002
      3.75325024e-001 8.71181488e-001 1.55438089e+000 7.17132613e-002
      1.25344470e-001 4.43256944e-002 9.17034209e-001 4.77235049e-001
      3.21964622e-002 1.10486466e-002 8.18012208e-002 4.03191298e-001
      2.37336531e-001 1.20011985e+000 7.23140717e-001 3.46913248e-001
      7.37506330e-001 1.11454415e+000 5.60626447e-001 5.32320797e-001
      1.01737332e+000 7.32074440e-001 6.17061257e-002 6.32707298e-001
      4.45672840e-001 8.89241546e-002 3.06504905e-001 4.21660274e-001
      1.28719556e+000 1.52436290e-002 2.91426361e-001 3.02186340e-001
      1.20250233e-001 3.12854163e-002 2.29294166e-001 3.99073154e-001
      9.31450069e-001 2.72936583e-001 4.61230464e-002 2.05061570e-001
      8.37975562e-001 5.84882498e-001 3.03775333e-002 7.33771771e-002
      9.15774480e-002 7.03460723e-002 1.06968069e+000 6.41117513e-001
      5.43519370e-002 9.86120164e-001 1.04153426e-002 1.19104421e+000
      4.36978936e-002 9.51145142e-002 1.03271976e-001 5.43822832e-002
      1.17565855e-001 3.61903727e-001 3.89913529e-001 1.10216863e-001
      1.23361766e+000 5.58797359e-001 7.04029528e-003 1.79197609e-001
      1.45777240e-001 6.06438518e-001 6.29182979e-002 5.71928859e-001
      1.04051102e-002 3.69727880e-001 4.00097162e-001 2.27590370e+000
      3.24072331e-001 2.61790246e-001 9.14001644e-001 2.77745098e-001
      6.59933150e-001 3.44536267e-002 5.69595039e-001 6.48869574e-001
      1.27970767e+000 2.84788981e-002 3.84672568e-003 2.96498251e+000
      1.61965072e-001 1.44389403e+000 6.02019906e-001 2.21615121e-001
      6.32420361e-001 3.20164144e-001 5.08350097e-002 3.95459861e-001
      1.05933947e-002 3.31031084e-001 4.23639536e-001 1.19918622e-001
      2.46502925e-002 2.27650672e-001 5.96723676e-001 3.60808045e-001
      5.58891714e-001 2.37980652e+000 1.13945580e+000 3.01164359e-001
      7.90220678e-001 3.53925973e-001 1.28402925e+000 4.12344456e-001
      3.27408493e-001 4.59319532e-001 1.19210541e-001 1.92880165e-002
      2.93797910e-001 1.92199200e-001 9.12576243e-002 1.43363610e-001
      3.80239487e-001 1.11950360e-001 2.09211484e-001 1.08654559e-001
      3.06613684e-001 4.32385094e-002 1.32233775e+000 7.11026728e-001
      3.14476551e-003 1.51375616e+000 1.32901967e-001 1.96084154e+000
      2.54806340e-001 3.93779457e-001 5.40412843e-001 7.15348482e-001
      3.45357507e-001 2.82461494e-001 2.30821058e-001 5.50228059e-001
      1.76540971e-001 1.04958173e-002 7.23493695e-002 1.36078835e-001
      5.23461044e-001 1.47868598e+000 8.81314397e-001 1.56147316e-001
      7.16164947e-001 1.14057398e+000 4.54597056e-001 1.47786587e-002
