<?xml version="1.0"?>
<opencv_storage>
<my_svm type_id="opencv-ml-svm">
  <svm_type>EPS_SVR</svm_type>
  <kernel><type>RBF</type>
    <gamma>3.3750000000000002e-002</gamma></kernel>
  <C>2.5000000000000000e+000</C>
  <p>1.0000000000000001e-001</p>
  <term_criteria><epsilon>4.9999998882412910e-003</epsilon>
    <iterations>2147483647</iterations></term_criteria>
  <var_all>300</var_all>
  <var_count>300</var_count>
  <sv_total>313</sv_total>
  <support_vectors>
    <_>
      1.23144895e-001 2.29498036e-002 1.03289828e-001 2.26374254e-001
      2.61223435e-001 1.80494606e-001 4.51814741e-001 4.15992588e-001
      8.27845745e-003 7.96847820e-001 3.24107915e-001 4.07183528e-001
      1.91078097e-001 4.10822742e-002 1.69226602e-001 1.76947042e-001
      4.56393421e-001 3.07814389e-001 9.32907779e-003 5.47112823e-001
      9.48916435e-001 4.14348662e-001 4.06165831e-002 1.82026047e-002
      1.77187577e-001 1.33281440e-001 2.41428703e-001 1.86639994e-001
      6.50301456e-001 1.99860305e-001 2.65510231e-002 8.31868351e-001
      2.77473964e-002 6.20736815e-002 7.42044300e-002 4.73509319e-002
      6.26860484e-002 3.98917906e-002 8.04760516e-001 4.35499735e-002
      3.46961677e-001 2.37824798e-001 5.33293426e-001 5.87403178e-002
      6.50096461e-002 1.08099711e+000 7.47249961e-001 4.09645811e-002
      1.29043400e-001 2.40127202e-002 4.76160385e-002 8.12878460e-002
      2.27081124e-002 1.56752747e-002 1.30207121e-001 1.71436191e-001
      3.52242477e-002 5.88512421e-001 4.42414999e-001 5.05046487e-001
      6.94846928e-001 9.85676348e-001 1.77624941e-001 7.06506446e-002
      3.23294282e-001 3.92467439e-001 5.15996739e-002 1.58032224e-001
      9.13379610e-001 5.51996268e-002 7.66571164e-002 1.26234233e-001
      2.23204911e-001 9.10031609e-003 8.30804557e-002 1.07376158e-001
      7.14131072e-002 2.61447765e-002 1.19461134e-001 1.64621621e-001
      2.31826439e-001 3.21472436e-001 1.40081923e-002 1.20886162e-001
      3.86353463e-001 6.74731731e-001 3.09533644e-002 5.72231635e-002
      7.57760033e-002 2.05855116e-001 2.28418559e-001 6.13073766e-001
      5.61556853e-002 1.44886509e-001 8.87058862e-003 3.14125568e-001
      2.81921625e-002 1.76179916e-001 6.36252463e-002 4.95533384e-002
      1.77767389e-002 2.67716825e-001 6.80693507e-001 6.40863925e-002
      2.18473539e-001 1.85713023e-001 1.73290223e-002 7.91882500e-002
      1.01024255e-001 4.87568885e-001 4.96956743e-002 9.18638587e-001
      8.38308968e-003 2.57986248e-001 9.44648683e-001 2.62106806e-001
      1.59833446e-001 2.24678144e-001 1.79890081e-001 5.19019626e-002
      8.27531889e-002 2.46348623e-002 4.03260350e-001 4.29581285e-001
      4.00437176e-001 3.01304106e-002 5.16602211e-003 9.92730081e-001
      6.65031224e-002 6.23245001e-001 2.99147069e-001 1.04378104e-001
      3.41273129e-001 1.58279121e+000 3.68556678e-002 4.36832666e-001
      1.42548140e-002 8.75299752e-001 2.04659417e-001 1.31008804e-001
      1.16207041e-002 4.61319014e-002 1.49358228e-001 1.68787152e-001
      5.34210682e-001 2.18753174e-001 4.03631300e-001 9.69751179e-002
      1.32477269e-001 3.37817103e-001 1.75264525e+000 2.29698583e-001
      6.72473550e-001 2.46665046e-001 5.20699024e-002 6.60184165e-003
      1.37926489e-001 1.22790895e-001 5.50159812e-002 8.28331411e-002
      6.10831618e-001 8.71943757e-002 2.14274023e-002 1.72024891e-001
      3.99317116e-001 4.15589474e-002 3.48572910e-001 6.18620515e-001
      2.42576469e-003 8.41040075e-001 6.59190565e-002 3.53483528e-001
      3.04253459e-001 6.93281054e-001 3.74524236e-001 3.39018494e-001
      1.24893636e-001 1.17255621e-001 9.16124046e-001 5.18183783e-002
      1.44253239e-001 8.90627410e-003 2.87402961e-002 7.72311240e-002
      2.03120232e-001 5.08346081e-001 1.76485136e-001 7.94978887e-002
      3.20160657e-001 3.17652315e-001 1.51400477e-001 1.39028952e-002
      4.73459773e-002 6.96774960e-001 1.04288220e+000 1.79418683e-001
      7.07449839e-002 7.75615215e-001 1.95861414e-001 5.04026353e-001
      7.35416949e-001 5.79044580e-001 3.21582854e-001 8.54909122e-001
      1.56618252e-001 4.76381958e-001 2.60181755e-001 7.95087337e-001
      1.59147486e-001 1.81107000e-001 1.11442959e+000 4.42759730e-002
      1.39677688e-001 9.39358711e-001 3.18473607e-001 9.00099352e-002
      1.64262310e-001 1.28475875e-001 5.04415810e-001 1.62237823e-001
      3.44158351e-001 5.67238688e-001 1.66481640e-002 9.61940885e-001
      2.12745622e-001 1.03823222e-001 7.99357235e-001 5.26617587e-001
      8.29945579e-002 4.14226770e-001 1.07466593e-001 1.54101953e-001
      9.95748192e-002 2.33880654e-001 2.08291069e-001 2.34901175e-001
      6.90153427e-003 2.40475615e-003 2.31449321e-001 2.48644105e-003
      1.82069570e-001 7.76327327e-002 6.42924532e-002 2.66015351e-001
      2.84930766e-001 4.08584803e-001 2.98914015e-001 4.49228317e-001
      2.02763453e-001 2.41110265e-001 1.52819186e-001 2.10924461e-001
      2.07670763e-001 2.60319144e-001 5.62642097e-001 4.17510197e-002
      1.25884449e+000 1.01534164e+000 3.34867060e-001 3.76796871e-002
      2.60875642e-001 1.62812173e-002 2.99635440e-001 3.78030688e-002
      1.06813401e-001 2.97577113e-001 4.86917719e-002 3.38584441e-003
      1.75559491e-001 8.39968622e-001 2.25579306e-001 1.20789595e-001
      1.21442401e+000 6.61533624e-002 1.79060474e-002 6.53646111e-001
      1.26980692e-001 5.34267016e-002 4.27855492e-001 1.09297216e-001
      2.00692028e-001 3.46619599e-002 4.39539045e-001 6.18629763e-003
      6.32122383e-002 4.06040587e-002 8.96926463e-001 4.16596711e-001
      5.58233619e-001 1.77272350e-001 6.09851420e-001 4.44203354e-002
      1.72047317e-001 1.03523743e+000 6.14853680e-001 2.57939070e-001
      2.69792266e-002 6.61208034e-002 2.97379255e-001 4.42427658e-002</_>
    <_>
      4.03995842e-001 3.38593535e-002 2.62045681e-001 1.60305902e-001
      5.09933650e-001 3.53960752e-001 1.02486742e+000 7.21911490e-001
      1.29108224e-002 7.14409888e-001 7.84184754e-001 1.36391032e+000
      2.12000608e-001 2.39657059e-001 4.96685445e-001 1.49874613e-001
      2.53707141e-001 3.24128360e-001 1.92863923e-002 1.57822096e+000
      1.48909342e+000 2.00633302e-001 2.14942813e-001 5.18586189e-002
      9.07624066e-002 2.59001672e-001 6.93659544e-001 2.35603362e-001
      1.81086987e-001 3.68327200e-001 4.95646000e-002 1.49935246e+000
      4.22235131e-002 1.60667881e-001 9.53626111e-002 4.62271124e-002
      2.97521919e-001 1.26519024e-001 5.40176570e-001 2.30309721e-002
      3.04819286e-001 3.31374139e-001 2.59441763e-001 1.59933165e-001
      4.07588899e-001 2.61421710e-001 5.66113412e-001 9.86322910e-002
      5.50280869e-001 4.23712693e-002 1.27412722e-001 2.33559251e-001
      2.36212481e-002 1.45161394e-002 1.40903831e-001 3.71740371e-001
      1.46704853e-001 5.67993164e-001 1.52298272e-001 7.66205788e-001
      5.18440068e-001 3.85998219e-001 6.71907246e-001 2.83029437e-001
      1.79242358e-001 4.76613790e-001 4.03372869e-002 4.07318920e-001
      3.91098768e-001 1.98112413e-001 1.56254068e-001 2.52545714e-001
      4.07866448e-001 1.78970098e-002 2.70710886e-001 7.69281924e-001
      8.52930695e-002 3.74003798e-002 2.42441818e-001 2.40290165e-001
      4.93130237e-001 2.24114358e-001 4.53506857e-002 9.30759758e-002
      7.74381340e-001 1.20526232e-001 6.91897869e-002 1.02189034e-001
      1.20297991e-001 1.76108479e-001 3.32093507e-001 4.22204792e-001
      5.46894930e-002 1.48552611e-001 1.95371136e-002 4.44931060e-001
      4.60498333e-002 1.50595173e-001 7.42906183e-002 6.51085675e-002
      6.24545403e-002 3.44726980e-001 5.20611227e-001 1.21546976e-001
      7.72549748e-001 6.57222211e-001 5.71536319e-003 4.85048026e-001
      2.81395704e-001 2.42716849e-001 5.87728508e-002 2.32646778e-001
      1.45417657e-002 2.32722402e-001 2.07889244e-001 4.78171945e-001
      3.13615173e-001 1.60488203e-001 4.13788289e-001 9.57809612e-002
      2.86835253e-001 4.32378426e-002 4.37221557e-001 3.80767077e-001
      1.18277717e+000 3.57865654e-002 4.99821827e-003 1.13436198e+000
      1.49992630e-001 1.76603866e+000 2.19365075e-001 4.30137992e-001
      3.01071733e-001 8.28305781e-001 6.33626059e-002 5.30747116e-001
      1.41692944e-002 3.46778005e-001 4.04307991e-001 2.68145710e-001
      3.26030068e-002 1.38787448e-001 4.91907418e-001 2.46488884e-001
      2.74348527e-001 4.55161303e-001 1.15547943e+000 3.64796400e-001
      2.27302313e-001 5.24897397e-001 2.13116094e-001 1.64248258e-001
      3.94752264e-001 3.42851371e-001 1.71363220e-001 1.57008171e-002
      4.67054486e-001 3.69350135e-001 1.08930729e-001 8.73499513e-002
      3.09435189e-001 6.90917075e-002 1.57238215e-001 1.38643488e-001
      1.84669077e-001 5.80071621e-002 8.77348602e-001 8.70270312e-001
      6.09594444e-003 6.03992283e-001 1.46265000e-001 1.02560019e+000
      1.23496920e-001 2.06233263e-001 6.95918560e-001 4.71551925e-001
      9.95556831e-001 2.50592500e-001 3.66522610e-001 1.93615198e-001
      4.15495843e-001 1.54618770e-002 7.94849992e-002 9.97646749e-002
      4.85506624e-001 1.44201314e+000 4.76971328e-001 1.72290459e-001
      9.16481972e-001 1.00790918e+000 2.93558300e-001 4.36625117e-003
      1.07878149e-001 1.10358822e+000 5.47923028e-001 3.99416178e-001
      1.53944418e-001 6.20304406e-001 3.59332860e-001 1.80400103e-001
      1.22472250e+000 2.38390684e-001 2.07559317e-001 3.59790385e-001
      2.60357708e-001 6.45214200e-001 2.08757818e-001 2.18497202e-001
      4.61076736e-001 2.57173061e-001 2.13298127e-001 2.43985638e-001
      2.90567368e-001 1.07127440e+000 2.05521449e-001 1.26830712e-001
      1.45291656e-001 1.96326658e-001 1.82817388e+000 2.33059242e-001
      4.83360499e-001 4.89667356e-001 4.95698005e-002 1.07910824e+000
      4.50000495e-001 1.42715514e-001 1.81293219e-001 6.45452440e-001
      1.21313758e-001 3.57560605e-001 1.05269380e-001 3.92800838e-001
      2.17699066e-001 1.07627320e+000 9.45505023e-001 3.48261327e-001
      1.76374819e-002 4.58934810e-003 2.80080795e-001 5.25509566e-003
      1.68222070e-001 9.41527560e-002 2.26296186e-001 3.43031675e-001
      4.08257931e-001 1.63499951e-001 1.08399965e-001 8.28351319e-001
      3.97924393e-001 2.04785079e-001 3.64097387e-001 8.28738153e-001
      2.97455341e-001 6.67066276e-001 7.03715861e-001 1.12226836e-001
      9.38558877e-001 2.00453067e+000 3.47554237e-001 2.25982264e-001
      1.14638150e-001 1.47263668e-002 9.36638892e-001 1.88974217e-001
      1.87894151e-001 4.42395538e-001 1.38511568e-001 9.68684163e-003
      4.43918735e-001 3.82374018e-001 1.51713222e-001 5.19337773e-001
      5.38525939e-001 1.38904601e-001 4.64199409e-002 7.41911530e-001
      7.69621074e-001 9.93261039e-002 1.45576751e+000 5.16260028e-001
      2.25363985e-001 1.98109314e-001 4.18484986e-001 1.16896397e-002
      2.09212407e-001 8.44370797e-002 9.93396282e-001 3.31655174e-001
      5.77717483e-001 7.17156410e-001 6.86108172e-001 3.59014496e-002
      4.89159197e-001 3.66582006e-001 2.52213836e-001 2.51169324e-001
      2.91891452e-002 1.75440922e-001 4.29275006e-001 9.02060643e-002</_>
    <_>
      2.19915345e-001 4.38707918e-002 2.19921350e-001 4.47576165e-001
      7.38760471e-001 4.47038442e-001 6.14521146e-001 5.21452069e-001
      9.24482010e-003 5.12517571e-001 5.62434554e-001 5.97623825e-001
      2.58196533e-001 1.15383916e-001 3.50843817e-001 3.37227911e-001
      2.40418866e-001 5.91674089e-001 1.66193806e-002 8.70626092e-001
      9.54851270e-001 8.82985666e-002 1.39658511e-001 3.45051996e-002
      4.10208218e-002 1.72893927e-001 3.25123936e-001 3.44354779e-001
      8.95779431e-002 3.36573929e-001 3.78974006e-002 7.12688982e-001
      3.55787724e-002 1.65966287e-001 1.28730834e-001 2.73955613e-002
      2.07533032e-001 6.02417365e-002 3.91266793e-001 1.88424401e-002
      7.77488708e-001 1.47849768e-001 2.89414257e-001 1.05007321e-001
      2.12962195e-001 2.80214608e-001 2.65143871e+000 6.33939654e-002
      2.59276569e-001 3.78542729e-002 1.83903009e-001 1.50662839e-001
      3.01198903e-002 1.19894929e-002 1.12311684e-001 3.21285427e-001
      7.92372227e-002 6.76871002e-001 1.02989383e-001 1.24510789e+000
      2.20567298e+000 6.71605885e-001 3.27429444e-001 2.37887174e-001
      2.35258922e-001 1.75567120e-001 5.79259135e-002 5.10150015e-001
      7.47030675e-001 1.49695158e-001 1.12108804e-001 2.48801231e-001
      5.84272265e-001 1.33722834e-002 1.99177474e-001 3.02690268e-001
      7.26207495e-002 3.49454358e-002 2.70353764e-001 2.62184590e-001
      2.47452959e-001 2.19557032e-001 3.86787429e-002 9.56043452e-002
      4.59364891e-001 8.99840072e-002 3.46255936e-002 7.65979812e-002
      1.82890460e-001 1.02050483e-001 1.30332932e-001 6.21785820e-001
      4.80572507e-002 4.41819429e-001 1.40290977e-002 9.44983840e-001
      3.77628617e-002 6.83050677e-002 8.83092731e-002 3.29903103e-002
      4.72760387e-002 2.36510143e-001 4.55633432e-001 1.08640626e-001
      3.21918011e-001 4.21496242e-001 5.43611031e-003 3.17507565e-001
      1.65017217e-001 3.06365401e-001 4.86061350e-002 2.95947254e-001
      1.06155993e-002 4.17723507e-001 3.16259325e-001 4.33447719e-001
      5.77618591e-002 8.83021429e-002 3.24818432e-001 7.13593438e-002
      3.36568713e-001 2.72834934e-002 9.25942719e-001 3.11329931e-001
      6.54791236e-001 3.54078263e-002 8.21914617e-003 1.21313822e+000
      9.87697169e-002 1.11264360e+000 5.26118934e-001 2.88688540e-001
      7.09013104e-001 4.70855981e-001 4.44509983e-002 1.32565960e-001
      2.17711087e-002 1.73983783e-001 4.45229232e-001 9.30894613e-002
      1.84187070e-002 7.42911771e-002 2.37172246e-001 2.49252692e-001
      3.10190946e-001 4.43229675e-001 9.40854788e-001 2.17624024e-001
      3.04045528e-001 4.69996274e-001 3.96425754e-001 1.77042067e-001
      2.77533084e-001 2.06389949e-001 9.30161402e-002 9.73747857e-003
      3.87369394e-001 5.16744316e-001 1.29263222e-001 7.28266686e-002
      9.52800632e-001 1.06212206e-001 1.22283876e-001 7.20725805e-002
      2.23042339e-001 3.66924293e-002 1.13519764e+000 9.79191840e-001
      4.94722091e-003 7.39276171e-001 1.63608402e-001 1.19208145e+000
      9.35384035e-002 1.19185649e-001 4.95791316e-001 3.39894235e-001
      6.82074130e-001 3.47169131e-001 1.29829839e-001 2.85496444e-001
      1.63479909e-001 1.15472497e-002 6.96052238e-002 1.60076499e-001
      3.51466328e-001 8.60445201e-001 3.89939189e-001 1.04767650e-001
      7.98401535e-001 1.04958272e+000 3.80494833e-001 1.48994476e-002
      7.70682171e-002 9.38191772e-001 3.31034571e-001 5.71352363e-001
      1.28492892e-001 8.15422297e-001 4.69922572e-001 1.01975404e-001
      9.88010585e-001 3.36898506e-001 3.17228943e-001 2.22434729e-001
      2.87817627e-001 3.08495432e-001 8.90028998e-002 3.81860971e-001
      2.93205917e-001 7.09608942e-002 2.64161676e-001 1.19927622e-001
      7.29087234e-001 1.07201827e+000 1.99122280e-001 1.71190262e-001
      1.56314597e-001 1.56950101e-001 7.97550023e-001 1.52843952e-001
      4.31132495e-001 1.12001312e+000 5.62060289e-002 1.07899809e+000
      3.62972438e-001 1.71895176e-001 4.30427015e-001 9.65857953e-002
      1.09398812e-001 5.78763664e-001 7.32707530e-002 3.71511608e-001
      2.11552903e-001 6.72245860e-001 5.93590975e-001 4.66009855e-001
      1.73037741e-002 2.77851475e-003 3.48996103e-001 5.39257936e-003
      1.06759489e-001 7.44616613e-002 7.18989894e-002 2.90457904e-001
      3.78086567e-001 1.10219765e+000 2.22788826e-001 6.69261754e-001
      6.34862423e-001 1.61845908e-001 1.68044880e-001 5.65416276e-001
      7.00210094e-001 5.91556370e-001 4.06558007e-001 1.29232153e-001
      4.18484807e-001 1.57372630e+000 1.01240838e+000 1.40512004e-001
      4.68151540e-001 1.24759395e-002 7.74404407e-001 9.98764336e-002
      3.01317453e-001 1.21238720e+000 1.18801713e-001 4.60134819e-003
      3.20203960e-001 2.30851746e+000 2.00349689e-001 2.83832759e-001
      4.02155012e-001 7.83473402e-002 3.24667841e-002 3.40293258e-001
      6.02024257e-001 9.74748656e-002 1.16594756e+000 2.58660167e-001
      4.19859558e-001 1.48845375e-001 5.42927682e-001 9.70486179e-003
      7.40744025e-002 3.57489772e-002 4.57547039e-001 4.13106829e-001
      4.22173500e-001 2.56073385e-001 1.63225400e+000 3.84395495e-002
      3.58039111e-001 8.76384676e-001 2.37905845e-001 2.16917679e-001
      3.46268825e-002 9.94579941e-002 3.51000965e-001 6.61938637e-002</_>
    <_>
      3.80279154e-001 5.97755052e-002 4.95037466e-001 1.09550464e+000
      1.37189615e+000 4.66610074e-001 9.29902077e-001 5.44597924e-001
      2.21954975e-002 8.39898229e-001 8.27168047e-001 1.29721713e+000
      4.86749589e-001 2.03724667e-001 4.06449705e-001 5.17433226e-001
      7.32489407e-001 4.60587710e-001 2.29150429e-002 1.50765729e+000
      9.36797142e-001 2.96228170e-001 1.50590137e-001 6.44850358e-002
      1.18778706e-001 1.51162595e-001 8.46482694e-001 5.94000399e-001
      1.54922038e-001 4.97065842e-001 6.01045527e-002 3.11687326e+000
      5.08425646e-002 2.04387799e-001 1.47249505e-001 4.17337567e-002
      1.27460316e-001 1.92399189e-001 1.50260305e+000 3.71658951e-002
      3.75649273e-001 4.14382964e-001 1.94537282e-001 1.62233368e-001
      1.59925595e-001 7.36175299e-001 1.32593644e+000 4.95555289e-002
      7.62154758e-001 2.58779954e-002 4.63118613e-001 3.25260162e-001
      4.46691290e-002 1.60073284e-002 1.21565498e-001 5.04381597e-001
      1.67955905e-001 1.28158700e+000 2.82525986e-001 3.01362544e-001
      1.07257056e+000 2.08901668e+000 4.57481831e-001 1.59738913e-001
      5.89847386e-001 6.16439641e-001 7.50960484e-002 2.95381010e-001
      9.12599325e-001 9.24198031e-001 1.97545961e-001 2.82564700e-001
      1.02995586e+000 2.18504965e-002 4.45479691e-001 7.60268092e-001
      1.14128195e-001 5.02089038e-002 3.58399600e-001 2.64830738e-001
      3.33616465e-001 3.88120174e-001 4.65800166e-002 2.42094085e-001
      8.95758033e-001 1.32763475e-001 1.00740999e-001 4.97608185e-002
      1.93365797e-001 1.60700664e-001 2.23850071e-001 5.01531661e-001
      8.96875113e-002 6.42854691e-001 3.13931182e-002 7.02212751e-001
      3.48631479e-002 1.69173509e-001 1.91921487e-001 6.32942989e-002
      7.99921155e-002 7.60865211e-001 1.46399701e+000 1.95524588e-001
      1.00734842e+000 3.92842919e-001 5.07379649e-003 4.36265618e-001
      4.30856943e-001 5.54311097e-001 8.73799250e-002 6.42839193e-001
      2.28132401e-002 6.73608363e-001 1.00578070e+000 7.53951252e-001
      8.86176527e-002 3.95128518e-001 4.95403081e-001 1.63027555e-001
      5.07161736e-001 8.56611803e-002 1.27766669e+000 4.66264129e-001
      1.42392325e+000 6.76509142e-002 6.47975458e-003 1.99324727e+000
      1.83032945e-001 2.16387200e+000 8.46303284e-001 3.40822756e-001
      2.72587031e-001 7.33738124e-001 5.45855947e-002 1.67506248e-001
      1.53469602e-002 2.78284013e-001 5.13669729e-001 1.72302917e-001
      1.70780402e-002 2.11872533e-001 6.26783848e-001 3.18987757e-001
      5.59683442e-001 8.80061686e-001 1.07032847e+000 4.13221836e-001
      4.48754698e-001 7.35648692e-001 1.25939023e+000 2.30584934e-001
      8.60354483e-001 3.41488093e-001 1.61553189e-001 1.54418023e-002
      2.72014797e-001 3.06842566e-001 7.85948336e-002 1.06387779e-001
      2.83036560e-001 1.33136109e-001 1.81598499e-001 1.36373401e-001
      5.00582397e-001 6.43343776e-002 2.63298726e+000 1.33213127e+000
      7.21280416e-003 1.70186210e+000 2.15294704e-001 1.36219931e+000
      3.56599629e-001 1.27805993e-001 1.01541626e+000 1.33349562e+000
      2.61817932e+000 3.19375455e-001 2.96891499e+000 1.61600128e-001
      4.49887902e-001 1.98982339e-002 1.01276964e-001 1.70787275e-001
      6.39206767e-001 1.46330738e+000 3.43042225e-001 2.24582464e-001
      1.46483076e+000 1.17090106e+000 2.67045021e-001 1.14462646e-002
      2.02383816e-001 8.31205308e-001 6.15340292e-001 9.40202892e-001
      2.22286254e-001 1.04416502e+000 9.70710516e-001 1.82618126e-001
      9.09702063e-001 1.52868021e+000 3.40917885e-001 7.71405280e-001
      5.52128732e-001 1.00608313e+000 3.48702848e-001 2.13031626e+000
      6.02917254e-001 2.52510250e-001 6.18211210e-001 1.73670217e-001
      7.24727631e-001 1.63563454e+000 2.94345021e-001 1.89560458e-001
      2.29865670e-001 2.68713146e-001 1.58296847e+000 3.58559847e-001
      4.84938025e-001 2.52560401e+000 6.39171973e-002 2.56812429e+000
      7.37031579e-001 6.31450653e-001 6.35725439e-001 1.92115739e-001
      2.03026325e-001 3.39679837e-001 1.53848872e-001 5.95280528e-001
      3.82878095e-001 1.33660626e+000 1.94176316e+000 6.16667807e-001
      4.08404768e-002 5.72634209e-003 6.83471024e-001 6.57994812e-003
      2.32969850e-001 1.30309895e-001 1.65264770e-001 3.75604033e-001
      6.24760449e-001 5.32302916e-001 3.63698393e-001 5.96658945e-001
      1.41504955e+000 6.06565416e-001 6.65257037e-001 9.96879101e-001
      5.24138987e-001 1.91318071e+000 5.18677115e-001 1.37672246e-001
      1.83247232e+000 9.58847761e-001 6.13633454e-001 2.19921142e-001
      9.63072836e-001 1.54902441e-002 1.74824715e+000 1.77540392e-001
      5.86813450e-001 1.49527586e+000 1.86858639e-001 8.20838939e-003
      6.19149029e-001 6.27449095e-001 3.47875208e-001 2.98501760e-001
      1.59389377e+000 3.28822993e-002 5.60615323e-002 4.22785550e-001
      9.19279993e-001 1.18159756e-001 1.56312549e+000 4.71355289e-001
      7.39446759e-001 1.69592947e-001 1.41421020e+000 1.34914564e-002
      1.22083001e-001 1.29887372e-001 8.33380640e-001 7.10606337e-001
      4.36165154e-001 1.93715721e-001 2.53346473e-001 5.55025488e-002
      4.66829270e-001 1.32936597e+000 6.15003645e-001 2.75448978e-001
      4.76863943e-002 1.81970671e-001 2.48515129e-001 4.95357439e-002</_>
    <_>
      4.11347747e-001 4.91130576e-002 2.90429205e-001 6.67934299e-001
      1.14720070e+000 1.37602854e+000 3.55190933e-001 8.48089159e-001
      1.54854413e-002 6.19302690e-001 7.43927002e-001 1.00202835e+000
      2.29168847e-001 1.71680078e-001 1.95776731e-001 3.33544344e-001
      2.00393155e-001 3.19712639e-001 1.81113183e-002 6.55514777e-001
      5.92730761e-001 6.89365625e-001 1.48233011e-001 6.29714131e-002
      1.11437805e-001 9.66093391e-002 2.60190606e-001 2.54076064e-001
      3.00177902e-001 5.20291150e-001 3.88307311e-002 1.07441711e+000
      4.26874347e-002 1.59896746e-001 8.87403116e-002 5.11359349e-002
      3.43811154e-001 3.00076991e-001 3.94566804e-001 1.05322385e-002
      2.91597873e-001 2.77843773e-001 1.98442504e-001 7.67047405e-002
      4.01923656e-001 9.88156021e-001 8.20047379e-001 5.46834767e-002
      7.99229741e-001 2.36988869e-002 2.56383836e-001 1.69533953e-001
      3.91348563e-002 1.19660376e-002 9.91493613e-002 5.03571332e-001
      1.52837723e-001 6.54974818e-001 2.65700668e-001 5.11865139e-001
      1.01421034e+000 4.89113331e-001 3.10393631e-001 2.79950172e-001
      2.92519003e-001 4.45060283e-001 5.16444966e-002 3.15833092e-001
      7.41250813e-001 5.79109304e-002 1.24091312e-001 3.60433400e-001
      4.47803736e-001 1.24558965e-002 1.53204441e-001 4.86517370e-001
      1.33282945e-001 4.36820015e-002 1.00790083e+000 1.19657092e-001
      6.18517160e-001 3.34439397e-001 4.78423499e-002 1.16412014e-001
      2.67718136e-001 2.34576046e-001 2.26044521e-001 4.11568210e-002
      1.09884270e-001 1.17211863e-001 3.77943993e-001 6.36901021e-001
      3.87501568e-002 2.82511562e-001 3.85570452e-002 6.50213361e-001
      1.90654639e-002 1.32351816e-001 8.43850598e-002 4.32862230e-002
      2.98648700e-002 3.71426046e-001 8.50128055e-001 7.66934007e-002
      2.63191730e-001 2.57843912e-001 3.07777338e-003 2.68832237e-001
      3.13189924e-001 1.95817426e-001 4.96371649e-002 1.00342000e+000
      1.59663092e-002 2.38220245e-001 5.98017037e-001 5.36795914e-001
      1.49418712e-001 5.58298886e-001 4.39505339e-001 1.84538662e-001
      4.67257440e-001 1.72965527e-002 4.93413001e-001 4.59566146e-001
      7.36161590e-001 6.54290840e-002 4.14633984e-003 1.34262896e+000
      1.49713129e-001 1.67451596e+000 4.18420374e-001 1.83047682e-001
      2.44866103e-001 9.11192119e-001 2.82132328e-002 4.60301161e-001
      1.24186743e-002 1.64523229e-001 3.47737044e-001 1.56327814e-001
      2.31574625e-002 1.96987018e-001 3.34415585e-001 2.63971925e-001
      1.96879923e-001 5.52002907e-001 1.11007953e+000 1.91144019e-001
      7.21908748e-001 1.93157136e-001 8.58016610e-001 1.16566919e-001
      9.99132276e-001 7.27927446e-001 1.55204803e-001 1.17285568e-002
      3.10785472e-001 9.63584960e-001 4.54858541e-002 7.21248165e-002
      2.49684677e-001 1.55545995e-001 2.42770121e-001 1.23458311e-001
      2.60198385e-001 5.00483923e-002 1.32157028e+000 6.58793628e-001
      3.70243704e-003 1.43716896e+000 1.93561330e-001 4.52478498e-001
      2.80272245e-001 3.39551777e-001 5.51464319e-001 4.60817814e-001
      1.97679794e+000 9.09569442e-001 1.92408955e+000 2.94268429e-001
      3.42002511e-001 1.51271075e-002 1.04531460e-001 1.38024136e-001
      3.57732594e-001 9.68026161e-001 3.98400843e-001 1.57432854e-001
      1.31846941e+000 4.34680194e-001 2.86705583e-001 9.06183477e-003
      4.68989491e-001 5.67037344e-001 7.82728910e-001 6.92444324e-001
      1.99583799e-001 1.05130434e+000 8.62186670e-001 3.21962625e-001
      6.36107147e-001 6.03908122e-001 2.47310847e-001 9.83333528e-001
      9.67478991e-001 5.19836545e-001 6.68239415e-001 6.73120141e-001
      3.84785920e-001 3.25077444e-001 9.80813026e-001 1.66855603e-001
      6.86718047e-001 1.03828764e+000 3.25885981e-001 9.90585387e-002
      7.46512190e-002 2.54762977e-001 6.44701600e-001 2.30580360e-001
      3.57273430e-001 1.73629797e+000 1.10881478e-001 1.96197653e+000
      5.64114273e-001 1.98878258e-001 3.12255353e-001 2.39388585e-001
      1.03792168e-001 3.78825575e-001 4.74959128e-002 5.51964045e-001
      1.95184410e-001 1.30928206e+000 2.29671311e+000 3.71066153e-001
      3.87863703e-002 4.27579321e-003 3.62974256e-001 3.88838770e-003
      1.26912862e-001 1.20942138e-001 2.17466861e-001 2.70567685e-001
      1.14252734e+000 5.36873043e-001 3.42157394e-001 6.50276601e-001
      8.70989382e-001 1.37463927e-001 2.94833928e-001 2.48544484e-001
      4.57919687e-001 1.06138515e+000 3.66415888e-001 1.30079895e-001
      2.25717497e+000 8.72836351e-001 1.01935101e+000 2.30358452e-001
      4.25449997e-001 1.17402980e-002 7.66706705e-001 1.22597679e-001
      1.10848449e-001 6.75874114e-001 1.32691592e-001 1.63277518e-002
      6.65304065e-001 6.37851179e-001 1.48767680e-001 2.07264110e-001
      1.21583652e+000 1.39148816e-001 5.45744598e-002 8.36413264e-001
      9.02970493e-001 7.42138475e-002 1.00055897e+000 5.55261314e-001
      2.98539609e-001 1.53723791e-001 4.78624374e-001 1.15209483e-002
      1.33388400e-001 1.99363708e-001 1.40978229e+000 3.95569503e-001
      4.79255855e-001 3.59609216e-001 7.52173662e-001 3.84327099e-002
      2.33961150e-001 8.00958097e-001 2.77406096e-001 2.80902088e-001
      3.36200260e-002 1.26453266e-001 1.60705537e-001 6.09720498e-002</_>
    <_>
      4.46936369e-001 3.27051245e-002 1.03531575e+000 1.26149797e+000
      2.55204844e+000 1.85317779e+000 1.46405935e+000 2.03855664e-001
      2.39212010e-002 2.88425028e-001 8.09272826e-001 1.27611327e+000
      8.28502774e-001 1.59661025e-001 6.12995744e-001 7.12520361e-001
      2.08182007e-001 2.77179748e-001 1.46694938e-002 8.86463284e-001
      1.08319569e+000 2.01552808e-001 1.36967301e-001 2.60888617e-002
      8.59991312e-002 1.37592822e-001 4.58948195e-001 6.95452809e-001
      1.03371739e-001 4.97286618e-001 4.66207713e-002 1.82745469e+000
      4.54198904e-002 1.28451481e-001 1.66442424e-001 2.46088412e-002
      3.04398537e-001 2.69866914e-001 1.03450918e+000 3.00985333e-002
      9.50451732e-001 4.52353150e-001 4.54795539e-001 9.97628644e-002
      3.23754281e-001 2.97182679e-001 5.14770806e-001 5.36701754e-002
      2.32293218e-001 3.53859663e-002 1.99077952e+000 4.41060126e-001
      4.10583057e-002 1.28191514e-002 1.12248309e-001 4.27821577e-001
      4.71336879e-002 2.00984836e+000 8.64204168e-002 2.17886925e-001
      3.60244542e-001 1.41756308e+000 1.37620106e-001 3.60642165e-001
      1.50177431e+000 1.12253882e-001 6.21332079e-002 2.46089786e-001
      3.55806321e-001 1.10556774e-001 1.27517134e-001 4.16091859e-001
      8.34728956e-001 1.61749087e-002 5.36915883e-002 6.73322260e-001
      4.76246811e-002 5.08430637e-002 1.09398067e+000 1.80363283e-001
      9.47872102e-002 1.94492370e-001 3.94976474e-002 1.61717623e-001
      7.81072557e-001 2.91964799e-001 2.60137498e-001 5.42761646e-002
      4.51583378e-002 9.14622396e-002 8.42668191e-002 4.27143335e-001
      6.10827841e-002 1.51803017e+000 4.73317057e-002 9.58913505e-001
      4.25088890e-002 1.45257384e-001 1.70896158e-001 6.03586324e-002
      5.25758006e-002 4.74710643e-001 5.95165014e-001 1.67032361e-001
      1.31840897e+000 4.79559928e-001 7.76489871e-003 4.02830206e-002
      2.03976497e-001 1.27585328e+000 5.53381443e-002 3.21795374e-001
      1.60161015e-002 7.16596961e-001 3.48853558e-001 5.92114449e-001
      9.79539752e-002 2.49547169e-001 1.15553415e+000 3.50183584e-002
      7.35382020e-001 4.22064699e-002 9.70663428e-001 2.05496594e-001
      3.39950800e-001 5.46742715e-002 6.57803053e-003 1.79990256e+000
      1.64353833e-001 1.73320580e+000 1.99539161e+000 4.94205326e-001
      1.25939870e+000 4.65420067e-001 4.87104915e-002 1.29930869e-001
      1.21515691e-002 8.58198285e-001 3.07749778e-001 1.79860115e-001
      1.54818231e-002 1.72860965e-001 6.87475979e-001 5.13882339e-001
      1.22800088e+000 6.81630373e-001 1.02691472e+000 5.02985418e-002
      1.19146502e+000 1.64239809e-001 1.80433214e-001 4.51128900e-001
      4.66975391e-001 5.12459755e-001 1.59853056e-001 6.48318697e-003
      1.37089550e-001 1.16088700e+000 1.66159302e-001 1.77678332e-001
      1.18858743e+000 6.69879615e-002 7.19563439e-002 1.18437462e-001
      4.75205392e-001 3.69691327e-002 1.68613052e+000 1.49706638e+000
      6.42105471e-003 1.16017759e+000 1.19251385e-001 1.47189736e+000
      3.79174143e-001 1.07386991e-001 3.52322549e-001 1.30171955e+000
      3.90598744e-001 1.18173146e+000 1.50027585e+000 4.66160268e-001
      4.00751740e-001 1.26446588e-002 1.43354610e-001 8.78580511e-002
      4.49475288e-001 3.98998350e-001 3.58155012e-001 1.68640256e-001
      9.90261436e-001 9.01805818e-001 3.20442110e-001 2.31333673e-002
      3.83801043e-001 1.24681747e+000 4.11170572e-001 1.95449626e+000
      1.20324939e-001 1.19409931e+000 1.80578732e+000 9.23126861e-002
      1.32256269e+000 1.23541141e+000 2.13588387e-001 5.22010565e-001
      1.64523447e+000 3.10047179e-001 1.30256206e-001 5.06262481e-001
      8.12355161e-001 8.84913802e-002 3.25114250e-001 1.66506290e-001
      4.73800749e-001 1.56414723e+000 1.71151057e-001 8.52904767e-002
      4.08675015e-001 5.81202745e-001 9.86020684e-001 1.16778955e-001
      3.92916411e-001 6.29028022e-001 7.44091421e-002 9.98725235e-001
      3.16423684e-001 1.52425635e+000 2.71321774e+000 1.64249703e-001
      5.33358715e-002 1.47327870e-001 1.11635745e-001 4.08655554e-001
      2.49703050e-001 1.09310043e+000 4.23603773e-001 3.41369957e-001
      4.09870036e-002 4.35117166e-003 7.59986818e-001 4.46532387e-003
      1.28393367e-001 4.37184460e-002 1.45727351e-001 2.37797365e-001
      1.99859786e+000 2.95667201e-001 7.22339690e-001 1.80768996e-001
      2.28074813e+000 1.12753093e+000 8.47886503e-001 1.49943128e-001
      2.27843031e-001 5.60253024e-001 1.44661343e+000 1.62189543e-001
      2.95311904e+000 1.03769255e+000 8.62679183e-001 1.38475269e-001
      1.79201400e+000 1.35814091e-002 2.20863685e-001 1.12893686e-001
      5.58423638e-001 8.32145751e-001 1.59806550e-001 2.54144631e-002
      4.35515821e-001 3.84810001e-001 1.16153741e+000 4.88190234e-001
      1.74597347e+000 1.06130704e-001 2.09113192e-002 1.92658573e-001
      5.06286681e-001 8.05615559e-002 1.30105376e+000 3.08101892e-001
      5.15739799e-001 1.05882779e-001 1.69974601e+000 1.21187111e-002
      1.29011959e-001 2.84333289e-001 3.23239863e-001 2.78216869e-001
      2.80168921e-001 1.15933381e-001 2.01152489e-001 4.16699834e-002
      5.41345537e-001 3.78510743e-001 1.29049361e+000 4.38904375e-001
      2.92800590e-002 1.39154583e-001 1.69468015e-001 4.80283387e-002</_>
    <_>
      3.20631713e-001 4.08829972e-002 1.91149712e-001 7.25572407e-001
      7.44107664e-001 1.00194967e+000 7.93610334e-001 5.86576462e-001
      1.15463780e-002 2.49936152e+000 5.05759656e-001 8.14962983e-001
      4.74965125e-001 1.59502998e-001 1.49219975e-001 4.83115345e-001
      3.33981812e-001 2.88518190e-001 1.73642337e-002 7.08945870e-001
      5.66184461e-001 1.12226434e-001 1.08041316e-001 4.90006991e-002
      1.53544039e-001 1.91927820e-001 4.67334688e-001 2.66331971e-001
      3.62757772e-001 4.76506948e-001 4.74851020e-002 1.96731377e+000
      3.77548449e-002 1.92481384e-001 1.47775277e-001 4.85652648e-002
      1.59923553e-001 5.97738445e-001 7.17564762e-001 3.20890211e-002
      3.44625950e-001 3.45618784e-001 2.66318470e-001 1.29107073e-001
      1.73472524e-001 2.57198393e-001 6.21191025e-001 5.61619587e-002
      4.82401073e-001 5.60650416e-002 2.71949857e-001 2.88712054e-001
      4.10116278e-002 1.55643634e-002 1.19424567e-001 5.20169318e-001
      7.66294152e-002 3.71027529e-001 2.42906794e-001 3.51264089e-001
      5.94994068e-001 5.46446085e-001 3.03407282e-001 1.64690614e-001
      6.28831923e-001 6.95208430e-001 5.66384792e-002 1.50254920e-001
      1.20156920e+000 2.70276517e-001 1.20113090e-001 5.47650993e-001
      7.12836623e-001 1.95171162e-002 7.78239816e-002 4.49065506e-001
      1.08201288e-001 4.32762764e-002 6.46915972e-001 3.34652394e-001
      1.44341558e-001 3.01114947e-001 4.52502817e-002 1.18109755e-001
      9.96656477e-001 3.09185445e-001 2.29664728e-001 4.40246761e-002
      1.61140487e-001 1.38788670e-001 2.00839251e-001 7.36655056e-001
      6.24733642e-002 3.14894497e-001 3.79202701e-002 4.64708179e-001
      5.98983094e-002 1.27072200e-001 1.50717258e-001 3.50563340e-002
      9.58859771e-002 3.66241753e-001 6.20155811e-001 1.66928262e-001
      1.05048239e+000 9.86655116e-001 6.95590815e-003 2.13555679e-001
      1.68183342e-001 4.78602976e-001 6.22737296e-002 3.72901559e-001
      1.47264032e-002 5.38105905e-001 5.87320864e-001 7.99012721e-001
      1.73618436e-001 3.05240333e-001 5.31134307e-001 6.84243664e-002
      2.21447483e-001 6.53624758e-002 8.25682998e-001 1.08120084e+000
      5.24289489e-001 4.18408997e-002 7.78457383e-003 2.15729809e+000
      9.09327194e-002 8.51292312e-001 9.64719534e-001 6.23265207e-001
      3.72886777e-001 9.85408127e-001 5.79517931e-002 3.48538101e-001
      1.80468708e-002 5.24459481e-001 4.68780518e-001 1.61396742e-001
      1.62476804e-002 5.48462749e-001 5.13871968e-001 4.67480034e-001
      4.81652468e-001 8.27125311e-001 5.65913558e-001 6.71331435e-002
      7.75611281e-001 3.08103144e-001 5.27626693e-001 2.05194458e-001
      2.39517525e-001 4.39773083e-001 1.79620743e-001 1.37113864e-002
      4.17048246e-001 3.99229854e-001 2.01985657e-001 7.17506930e-002
      2.51749218e-001 1.49146140e-001 7.29083791e-002 1.30850911e-001
      1.12998560e-001 4.57900092e-002 1.20293236e+000 7.18762934e-001
      4.04718285e-003 1.99758470e+000 1.84981480e-001 5.36532819e-001
      2.28630736e-001 2.56848723e-001 1.02447331e+000 2.01083928e-001
      5.33545256e-001 3.69584829e-001 1.15422773e+000 3.53302658e-001
      3.10197294e-001 1.58842579e-002 1.17023461e-001 1.28623843e-001
      5.28641582e-001 5.46344578e-001 2.46804208e-001 7.93737620e-002
      6.62523508e-001 8.20478261e-001 3.65622938e-001 2.24183183e-002
      5.95501602e-001 1.12340522e+000 1.07716620e+000 1.08086348e+000
      1.94635391e-001 7.47817397e-001 1.05035019e+000 3.82381409e-001
      1.19290137e+000 5.80667853e-001 2.45622635e-001 5.27248263e-001
      1.03058755e+000 3.74178648e-001 3.67358744e-001 1.54315722e+000
      6.58668280e-001 3.98559690e-001 2.09682122e-001 1.68993160e-001
      6.92733169e-001 1.49520993e+000 3.07402939e-001 1.50183558e-001
      1.54406279e-001 2.92473823e-001 7.46191442e-001 8.84171873e-002
      2.73725480e-001 9.72870529e-001 8.06722417e-002 1.74000955e+000
      6.23227835e-001 3.05370659e-001 5.48238933e-001 3.65490347e-001
      9.88827050e-002 1.69638574e+000 1.36764556e-001 2.29766443e-001
      2.95148581e-001 3.74812245e-001 5.34881771e-001 4.97645259e-001
      2.51311008e-002 2.91100238e-003 4.11948860e-001 6.84966473e-003
      1.48656636e-001 1.07316688e-001 1.43918529e-001 1.83107778e-001
      1.04361236e+000 6.53519928e-001 3.71333092e-001 6.93826199e-001
      7.56040454e-001 2.32971013e-001 9.59115386e-001 2.10672930e-001
      1.00935316e+000 8.15060318e-001 8.29573750e-001 9.78870392e-002
      1.44696057e+000 7.39552081e-001 7.87609816e-001 1.33658484e-001
      2.41106242e-001 1.55427763e-002 2.66935468e-001 2.18380034e-001
      6.00358486e-001 1.21803474e+000 1.11955650e-001 1.18856952e-002
      2.69946456e-001 9.06014800e-001 1.98202372e-001 5.21950901e-001
      8.55222344e-001 9.43624154e-002 3.75706553e-002 3.89755905e-001
      3.95806909e-001 9.46850255e-002 7.77978659e-001 3.53436440e-001
      5.79871178e-001 1.85589179e-001 7.01535344e-001 1.35316644e-002
      9.80754942e-002 4.72964495e-002 1.68238616e+000 3.03301603e-001
      2.00281239e+000 1.45243078e-001 2.95282245e-001 5.69719411e-002
      2.63719112e-001 1.80489671e+000 3.19523275e-001 3.11883420e-001
      3.28528434e-002 1.68347105e-001 4.46287543e-001 5.21127991e-002</_>
    <_>
      3.14049900e-001 4.57934998e-002 2.56914198e-001 6.60113037e-001
      1.50595355e+000 6.26175225e-001 3.81905138e-001 1.65402800e-001
      1.49427336e-002 3.80275577e-001 7.01344669e-001 1.54793453e+000
      2.80623019e-001 2.00021192e-001 2.27606371e-001 1.90651610e-001
      4.14456636e-001 4.37813878e-001 1.90038104e-002 8.95685673e-001
      9.68806505e-001 4.54436690e-001 1.32065564e-001 5.73661253e-002
      1.05713405e-001 1.15248583e-001 9.41614866e-001 3.11904073e-001
      1.78578928e-001 3.89187604e-001 4.17869575e-002 2.57595754e+000
      4.83887866e-002 1.75499380e-001 1.37337536e-001 2.67422795e-002
      1.02425151e-001 2.39525080e-001 1.13215268e+000 1.86580829e-002
      4.69731361e-001 2.92844504e-001 1.28003359e-001 1.09577551e-001
      1.28259957e-001 9.78478372e-001 6.57012165e-001 3.74502316e-002
      6.88347220e-001 2.20769476e-002 3.49623114e-001 1.32942632e-001
      3.10681630e-002 1.42096374e-002 1.04403012e-001 3.16327751e-001
      1.35271907e-001 9.69790936e-001 2.19626129e-001 6.01920485e-001
      8.89476359e-001 1.50803900e+000 2.72486687e-001 1.01085365e-001
      3.27241361e-001 6.58905208e-001 5.70684373e-002 2.45822847e-001
      8.60680342e-001 6.18588626e-001 1.08667657e-001 3.05671185e-001
      5.41477442e-001 1.46705434e-002 1.78529635e-001 4.35016304e-001
      1.02058731e-001 4.37764712e-002 5.87939322e-001 1.66975439e-001
      2.66991377e-001 2.58896649e-001 4.38752249e-002 8.08020607e-002
      6.81435466e-001 1.17508054e-001 1.24681808e-001 5.34603260e-002
      1.48187548e-001 1.09794647e-001 2.23409042e-001 5.87124109e-001
      6.28039613e-002 3.99916172e-001 3.39653045e-002 7.47285783e-001
      3.08062807e-002 1.25674978e-001 7.06087798e-002 6.93215579e-002
      7.04429448e-002 6.94453537e-001 6.69766426e-001 9.53845978e-002
      2.22046196e-001 2.88427860e-001 6.97785895e-003 3.44514608e-001
      2.38780931e-001 3.24539393e-001 5.60005382e-002 5.47968626e-001
      1.93216819e-002 2.99229354e-001 1.03104222e+000 3.77320409e-001
      1.17320038e-001 2.74367034e-001 3.73147726e-001 1.21168911e-001
      3.26356262e-001 4.83518988e-002 7.38780022e-001 3.86440635e-001
      9.46856976e-001 5.91396876e-002 5.59323002e-003 9.87506211e-001
      1.36756167e-001 1.24732387e+000 4.92553383e-001 3.93689185e-001
      4.03056085e-001 5.24899960e-001 3.75465602e-002 1.89428106e-001
      1.70025062e-002 1.43914908e-001 5.14475524e-001 1.18915156e-001
      1.38100795e-002 1.96101278e-001 2.94347912e-001 3.33468407e-001
      3.72786671e-001 4.13357824e-001 1.32094848e+000 2.63396621e-001
      2.79830426e-001 1.18199803e-001 1.30367863e+000 1.64588213e-001
      5.76430380e-001 2.18027696e-001 1.50019690e-001 1.32497251e-002
      3.26001525e-001 4.74822521e-001 7.84293786e-002 6.83981106e-002
      2.24366590e-001 1.11728154e-001 1.71405315e-001 9.40692276e-002
      4.62707520e-001 4.93786037e-002 1.70750618e+000 7.48574078e-001
      4.95154131e-003 2.33232760e+000 1.90749869e-001 1.05009198e+000
      2.72917688e-001 1.19274244e-001 1.04890120e+000 5.87952435e-001
      1.40780616e+000 5.05980551e-001 5.37025273e-001 1.48498684e-001
      4.76674497e-001 1.77826714e-002 1.03030041e-001 1.00313395e-001
      2.46083856e-001 1.01112795e+000 2.38417476e-001 1.76787585e-001
      8.91325653e-001 6.55166864e-001 2.87036061e-001 6.45266427e-003
      3.08804691e-001 7.75132120e-001 9.40770328e-001 7.33325958e-001
      1.46280095e-001 1.26455224e+000 7.56248057e-001 1.88055530e-001
      8.91988337e-001 9.92084146e-001 1.92104936e-001 9.25187469e-001
      2.52802134e-001 5.97493529e-001 3.40918422e-001 9.52535331e-001
      4.05057997e-001 4.00649667e-001 8.15680504e-001 1.82748854e-001
      1.15663779e+000 8.15079153e-001 3.68528038e-001 1.25407547e-001
      1.46446139e-001 1.72021031e-001 8.08314025e-001 2.27901220e-001
      4.58305717e-001 2.13310528e+000 6.59651309e-002 2.84328079e+000
      7.93420196e-001 4.18182999e-001 3.65229577e-001 1.68214589e-001
      1.39775082e-001 4.13686097e-001 8.62547755e-002 3.32209557e-001
      2.63415664e-001 9.04931664e-001 1.49572957e+000 8.14341426e-001
      3.22200470e-002 4.39602463e-003 3.77056807e-001 3.86486389e-003
      1.60779268e-001 7.75492862e-002 1.46986037e-001 2.13749975e-001
      5.01302481e-001 5.60937762e-001 2.71037459e-001 1.49894297e-001
      1.10368550e+000 3.63567203e-001 5.62036633e-001 2.37715200e-001
      5.45662940e-001 9.28263366e-001 4.35408592e-001 1.32382929e-001
      4.66411561e-001 1.79636705e+000 8.20282221e-001 1.45660177e-001
      8.93648148e-001 1.40103474e-002 8.00816715e-001 1.21396810e-001
      1.99121401e-001 7.79921174e-001 1.31537631e-001 1.24505684e-002
      2.80449301e-001 8.37069988e-001 2.13425368e-001 3.43101919e-001
      7.33451605e-001 5.58925979e-002 4.67798114e-002 2.16229975e-001
      9.23785210e-001 7.38948509e-002 8.10210824e-001 3.57132822e-001
      2.87738562e-001 1.45864248e-001 8.62101257e-001 1.10679017e-002
      8.37744623e-002 1.34195328e-001 3.76107275e-001 4.25270617e-001
      3.83341134e-001 1.55401558e-001 4.55330074e-001 4.36709747e-002
      2.62615412e-001 1.79022896e+000 1.33756602e+000 2.96776772e-001
      3.39411050e-002 1.54705256e-001 1.37964204e-001 3.99451442e-002</_>
    <_>
      4.57362771e-001 3.16719376e-002 9.78848338e-001 1.19264758e+000
      3.01664734e+000 1.85294068e+000 1.51074302e+000 1.57045931e-001
      2.30021589e-002 2.54518092e-001 9.46648479e-001 8.58195722e-001
      7.72511005e-001 1.30989268e-001 7.30246961e-001 6.26920342e-001
      1.39676541e-001 2.94851005e-001 1.44671313e-002 9.12347138e-001
      9.40861642e-001 1.65716052e-001 1.31352916e-001 2.82607116e-002
      8.79045948e-002 1.38144344e-001 8.08541000e-001 7.19488144e-001
      8.23172927e-002 4.68731344e-001 4.47310470e-002 1.36567330e+000
      5.04973866e-002 1.33125052e-001 1.74751386e-001 2.60456502e-002
      3.28430772e-001 1.85674667e-001 9.25042510e-001 2.34977789e-002
      9.87938404e-001 5.07778883e-001 4.40273166e-001 9.34974328e-002
      3.80179435e-001 2.07733169e-001 4.14027125e-001 5.05005009e-002
      2.59181648e-001 3.31955776e-002 8.49510789e-001 4.02125984e-001
      4.46243063e-002 1.11517617e-002 1.22212939e-001 4.44469750e-001
      5.62067740e-002 2.97742081e+000 8.58129635e-002 1.52609676e-001
      3.05832595e-001 1.61273289e+000 3.47379148e-001 3.81407171e-001
      1.77862072e+000 9.72767919e-002 7.72599429e-002 3.43946666e-001
      3.23350698e-001 9.20645073e-002 1.97423220e-001 4.17292148e-001
      1.37776303e+000 1.66493487e-002 5.48524000e-002 6.59628928e-001
      3.71739753e-002 5.60008250e-002 9.23894167e-001 1.81726217e-001
      9.28596184e-002 1.38005123e-001 3.84711139e-002 1.71263888e-001
      6.94796205e-001 3.39978635e-001 2.22373605e-001 6.41699806e-002
      5.17716035e-002 8.38016272e-002 7.02704862e-002 4.97767121e-001
      6.41277581e-002 1.61667001e+000 4.05654237e-002 1.08928239e+000
      4.49689031e-002 1.61879793e-001 1.80114433e-001 6.40422925e-002
      5.85380681e-002 5.83720565e-001 5.97653270e-001 1.78892016e-001
      1.43751860e+000 5.34256399e-001 8.23935866e-003 1.00870185e-001
      2.82022089e-001 1.58057129e+000 6.47019967e-002 3.16950440e-001
      1.53116425e-002 6.88899815e-001 2.32504711e-001 5.75735211e-001
      1.26475692e-001 2.35947758e-001 1.16000211e+000 3.71338837e-002
      6.75160587e-001 4.59208004e-002 1.11448514e+000 1.39640495e-001
      3.36971402e-001 5.47824986e-002 6.91550737e-003 1.99427557e+000
      1.46264657e-001 1.36519897e+000 1.82941210e+000 5.49955428e-001
      1.29954720e+000 1.88377962e-001 5.02787679e-002 1.15466632e-001
      1.26282610e-002 6.78167343e-001 2.64541179e-001 2.09897131e-001
      1.51083209e-002 1.50752485e-001 7.00647891e-001 4.62538958e-001
      1.61143243e+000 6.29162908e-001 8.93369496e-001 5.67786135e-002
      1.10702884e+000 1.70621291e-001 1.87921613e-001 4.29715782e-001
      5.06146073e-001 1.03652060e+000 1.56224072e-001 8.08069482e-003
      2.15625122e-001 1.12921929e+000 1.62246689e-001 1.42751157e-001
      1.11877918e+000 6.55127168e-002 8.08631778e-002 1.11492090e-001
      5.86596310e-001 2.11532973e-002 2.00234962e+000 1.50946903e+000
      5.60609624e-003 1.46727121e+000 1.42763153e-001 1.12648237e+000
      4.31513548e-001 1.32636264e-001 3.99122119e-001 2.10743761e+000
      4.79613751e-001 1.20242488e+000 1.30868173e+000 4.67699766e-001
      5.16732872e-001 1.49677489e-002 1.47381946e-001 8.01128522e-002
      3.26045722e-001 3.52257729e-001 5.27825892e-001 2.17206106e-001
      1.24452484e+000 1.04048347e+000 2.88724393e-001 2.62997188e-002
      3.20355207e-001 1.39524603e+000 3.58601749e-001 1.72318745e+000
      1.21710420e-001 3.10284555e-001 2.40164518e+000 8.39902237e-002
      1.41574669e+000 1.61639655e+000 1.86670139e-001 2.42514834e-001
      1.65312815e+000 4.43287939e-001 1.12485334e-001 4.17146325e-001
      7.71212816e-001 5.07284440e-002 2.71791726e-001 1.48234442e-001
      3.90597075e-001 1.72749794e+000 1.11668877e-001 7.36880153e-002
      4.30312574e-001 5.79062641e-001 1.01929867e+000 1.37266725e-001
      4.38658267e-001 8.84543061e-001 7.38086030e-002 1.15759444e+000
      4.14696872e-001 7.43617296e-001 2.54866695e+000 1.45425871e-001
      4.99728657e-002 1.90993547e-001 1.32344991e-001 4.55846339e-001
      2.89794922e-001 9.57620025e-001 5.06925106e-001 4.34229493e-001
      3.59179899e-002 4.79732919e-003 7.64464319e-001 3.81098944e-003
      9.41648036e-002 3.52199301e-002 1.35204837e-001 2.37717792e-001
      1.83902788e+000 2.64709741e-001 7.46297359e-001 1.43846259e-001
      2.13128614e+000 1.50613284e+000 7.83660948e-001 1.41731143e-001
      2.60878444e-001 5.58784664e-001 1.54659200e+000 1.64661646e-001
      2.96776581e+000 8.63390744e-001 1.03664458e+000 1.35421902e-001
      2.42962408e+000 1.18333884e-002 1.97555512e-001 1.14242919e-001
      5.37550926e-001 1.52324629e+000 1.28906459e-001 2.31078416e-002
      4.72943008e-001 3.32446307e-001 1.45545113e+000 3.96754980e-001
      4.17044371e-001 1.04066789e-001 2.38349251e-002 1.60267055e-001
      4.27114129e-001 8.54824185e-002 8.82151365e-001 3.14926028e-001
      5.11176944e-001 1.37893558e-001 1.44376135e+000 1.20844105e-002
      1.63358986e-001 2.74480820e-001 2.72947133e-001 2.63518989e-001
      2.06149161e-001 9.13887024e-002 1.82874843e-001 5.08055985e-002
      6.54263139e-001 3.68405610e-001 1.09521174e+000 4.54799145e-001
      3.35789695e-002 1.29042819e-001 1.50355697e-001 4.41031270e-002</_>
    <_>
      4.17623967e-001 5.49571849e-002 5.06185591e-001 1.46444869e+000
      9.74206150e-001 5.49499393e-001 1.66085482e+000 1.68345487e+000
      1.44860707e-002 2.21612349e-001 7.01132476e-001 8.85446370e-001
      5.67984998e-001 1.70181945e-001 2.97142506e-001 5.34071445e-001
      5.71419239e-001 2.81066090e-001 1.82539299e-002 3.97904962e-001
      1.08308172e+000 2.55952328e-001 1.93063244e-001 6.32166713e-002
      8.89924020e-002 3.07103544e-001 1.70777953e+000 5.86061835e-001
      2.10130662e-001 2.29232937e-001 5.13903648e-002 2.67655969e+000
      4.22934294e-002 1.87543064e-001 1.41187996e-001 5.36876433e-002
      1.87366024e-001 1.57748342e-001 9.24397767e-001 2.27443799e-002
      1.00376904e-001 4.84575808e-001 6.75736889e-002 1.31209642e-001
      2.07495555e-001 6.08666599e-001 4.53719854e-001 2.27188289e-001
      9.81517673e-001 4.70321886e-002 3.52295101e-001 2.53158659e-001
      4.75319065e-002 3.80081572e-002 2.54622936e-001 4.77096736e-001
      1.38083622e-001 1.73695719e+000 2.12207898e-001 3.66201438e-002
      5.96876800e-001 5.80412686e-001 3.11162204e-001 1.88097760e-001
      8.48602772e-001 4.09453779e-001 8.41099173e-002 4.75045472e-001
      2.78591347e+000 1.86563373e-001 3.76932710e-001 3.72596532e-001
      7.51957417e-001 1.87653769e-002 1.53617814e-001 2.42369115e-001
      1.85365498e-001 4.85602766e-002 4.92188275e-001 2.58405596e-001
      3.07758719e-001 4.26836550e-001 3.48711945e-002 5.33762053e-002
      1.46517897e+000 5.24480231e-002 7.67860189e-002 1.83765531e-001
      2.82396436e-001 2.70261616e-001 1.89134881e-001 1.53828967e+000
      7.62717202e-002 4.27703381e-001 2.21310463e-002 2.55336702e-001
      5.12133650e-002 1.46601051e-001 1.46484911e-001 2.48602360e-001
      6.41526654e-002 3.08478713e-001 1.60645604e+000 1.62170395e-001
      6.24115467e-001 1.69113800e-001 1.12571446e-002 3.52060884e-001
      2.99576521e-001 6.87458873e-001 7.67556801e-002 1.48147810e+000
      1.75366029e-002 6.77937448e-001 5.10069311e-001 9.38347042e-001
      1.70239672e-001 2.10789725e-001 4.55354124e-001 1.10207535e-001
      4.21466798e-001 3.59876603e-002 9.02578235e-001 7.84938931e-001
      4.61080790e-001 6.66096210e-002 1.20631987e-002 1.94632709e+000
      1.41421318e-001 1.03495193e+000 1.45920813e+000 3.35647762e-001
      7.70403519e-002 4.33485687e-001 5.33328466e-002 7.20722497e-001
      2.49107946e-002 1.56810805e-001 5.96843004e-001 1.04218163e-001
      6.95602745e-002 1.49136335e-001 3.33630741e-001 4.08384055e-001
      6.88597679e-001 7.47681379e-001 7.56579578e-001 1.79238766e-001
      3.16835701e-001 1.58154219e-001 6.63791358e-001 3.10014158e-001
      1.40950596e+000 4.50588316e-001 2.06686527e-001 1.58581939e-002
      3.28036457e-001 2.58066922e-001 7.65406787e-002 7.42663145e-002
      3.85947526e-002 9.82060581e-002 1.48782387e-001 1.04830280e-001
      4.30921882e-001 1.05993018e-001 2.33147955e+000 1.19040787e+000
      6.10567490e-003 2.12962317e+000 1.53833196e-001 7.32679486e-001
      6.20251857e-002 1.19141944e-001 1.34757566e+000 1.36152768e+000
      1.48640978e+000 2.70268589e-001 1.26087379e+000 1.52438775e-001
      5.18590808e-001 1.57910977e-002 1.06525548e-001 1.70462683e-001
      3.23463023e-001 5.29861152e-001 4.17130470e-001 5.51272273e-001
      1.72758782e+000 4.67316151e-001 2.70307302e-001 9.81756020e-003
      1.98130161e-001 5.37954569e-001 2.33104634e+000 1.73230290e+000
      1.66285485e-001 1.56468177e+000 1.23768973e+000 2.18211710e-001
      5.60452700e-001 3.63746643e-001 8.77504796e-002 4.70138222e-001
      1.68870687e-001 6.80120468e-001 1.45877138e-001 1.98247159e+000
      3.13408613e-001 6.59199119e-001 8.21133792e-001 1.79560393e-001
      5.35543144e-001 1.58620262e+000 4.46300596e-001 2.47917220e-001
      1.80939078e-001 2.74821222e-001 3.07954997e-001 1.88348770e-001
      3.37143719e-001 1.80364358e+000 6.21594600e-002 2.09791851e+000
      7.45303273e-001 3.94634455e-001 1.24640334e+000 2.12570056e-001
      2.16107011e-001 2.17496228e+000 9.72001851e-002 4.09465581e-001
      2.12011173e-001 1.41070843e+000 1.75974727e+000 8.86968851e-001
      2.20064204e-002 4.47082520e-003 4.48085010e-001 1.88294034e-002
      1.92390293e-001 1.57196671e-001 1.43256366e-001 1.93626925e-001
      3.61275494e-001 6.67576849e-001 5.65512702e-002 1.75843430e+000
      1.26719916e+000 5.58879435e-001 1.76280522e+000 2.59284317e-001
      2.97006398e-001 1.30675220e+000 9.59297955e-001 1.61407530e-001
      1.05646384e+000 3.43829274e-001 2.69986063e-001 1.49885207e-001
      5.98664761e-001 4.06881198e-002 5.70269346e-001 1.97186247e-001
      3.14604193e-001 1.36175478e+000 1.02880448e-001 6.12977985e-003
      4.33173954e-001 1.24640393e+000 2.52457768e-001 4.56718504e-001
      9.92209256e-001 3.22914928e-001 5.20471260e-002 1.83252501e+000
      1.25035679e+000 9.30822492e-002 1.04539645e+000 4.56802815e-001
      6.71010971e-001 1.73864678e-001 1.42096686e+000 1.64050721e-002
      1.61258176e-001 6.87892288e-002 1.96893215e-001 2.47747049e-001
      2.13087067e-001 2.12306604e-001 2.93344390e-002 3.60700265e-002
      3.33368242e-001 2.13230348e+000 4.33193356e-001 4.80415970e-001
      5.56178875e-002 1.54251322e-001 7.91543126e-001 2.42630333e-001</_>
    <_>
      2.68997997e-001 4.00400199e-002 2.48139992e-001 3.27892989e-001
      7.94045746e-001 2.96360433e-001 9.11823392e-001 2.81871080e-001
      9.30839125e-003 1.37396109e+000 4.24664944e-001 1.17047000e+000
      1.82459965e-001 1.64738968e-001 2.64403582e-001 2.84414619e-001
      1.74274504e-001 3.61078978e-001 1.81364976e-002 1.00458729e+000
      3.04533958e-001 7.23087043e-002 1.15235433e-001 5.28380871e-002
      4.67852578e-002 2.30828106e-001 4.58705068e-001 2.47468442e-001
      4.35025066e-001 3.18209946e-001 4.13040854e-002 1.99025333e+000
      2.92049423e-002 1.32037953e-001 1.01745740e-001 2.94854473e-002
      1.82361409e-001 1.66764855e-001 2.42815927e-001 2.26653088e-002
      3.52114618e-001 2.63366997e-001 2.26144895e-001 1.57679543e-001
      2.95196742e-001 1.53652400e-001 5.82202852e-001 1.49774969e-001
      5.16906857e-001 5.24339415e-002 2.99307823e-001 1.80878997e-001
      2.68280115e-002 9.88263171e-003 1.18710101e-001 3.47185254e-001
      1.75504282e-001 5.36021411e-001 4.00894284e-001 2.61228383e-001
      5.92639863e-001 2.92436868e-001 6.14342034e-001 1.45247638e-001
      2.75181144e-001 2.46877313e-001 4.56116535e-002 2.24726275e-001
      6.20355368e-001 6.46577358e-001 1.02469258e-001 1.71903580e-001
      4.14288849e-001 2.11122129e-002 2.60117382e-001 3.72147053e-001
      7.76646063e-002 2.64271516e-002 1.47620589e-001 2.45529905e-001
      4.42246854e-001 1.94985658e-001 4.30176035e-002 1.23724259e-001
      7.25791216e-001 3.51667672e-001 6.83022067e-002 1.19419761e-001
      9.26028937e-002 1.60015598e-001 4.25430834e-001 5.43377161e-001
      6.10682815e-002 2.37055868e-001 2.27844305e-002 4.28723335e-001
      7.53107145e-002 1.41961694e-001 9.46846902e-002 4.01401110e-002
      7.37855807e-002 3.15531522e-001 1.21841908e+000 1.00011729e-001
      2.88551807e+000 7.05531657e-001 6.06714096e-003 3.24073136e-001
      2.47444034e-001 1.13862431e+000 6.27916455e-002 2.28497922e-001
      1.20712416e-002 4.05611277e-001 3.90497237e-001 4.38681394e-001
      2.70218134e-001 9.90934372e-002 2.89434642e-001 1.66859239e-001
      2.45644912e-001 8.16658214e-002 3.81211340e-001 6.53520644e-001
      1.10398459e+000 3.22391652e-002 6.05097273e-003 2.07999110e+000
      1.30889043e-001 1.52607131e+000 6.40728772e-001 3.02297145e-001
      2.50834078e-001 6.59866095e-001 4.11988460e-002 6.79526150e-001
      1.43954959e-002 4.56931710e-001 3.56722087e-001 1.96875021e-001
      4.85386476e-002 1.70214817e-001 2.37632826e-001 2.49734402e-001
      1.11758494e+000 4.07050967e-001 7.86415040e-001 1.94830358e-001
      1.90858215e-001 3.01285744e-001 2.68742919e-001 2.51014113e-001
      4.34839278e-001 6.79105878e-001 1.47322103e-001 1.23820985e-002
      3.49331707e-001 2.33302951e-001 1.33467004e-001 9.23323482e-002
      2.02958569e-001 6.59413114e-002 1.71369150e-001 1.14810742e-001
      1.31989002e-001 3.90757099e-002 1.40525723e+000 5.79651892e-001
      4.40895651e-003 1.46659470e+000 1.47668689e-001 9.32048619e-001
      1.97199941e-001 2.50952870e-001 5.98635674e-001 5.28978467e-001
      1.19520068e+000 1.93434894e-001 2.18847901e-001 1.09664872e-001
      3.79208833e-001 1.47191547e-002 6.25140965e-002 1.57267764e-001
      5.60119629e-001 1.23411536e+000 1.65172487e-001 1.22999258e-001
      1.05858159e+000 7.19853342e-001 2.33760715e-001 2.79061347e-002
      1.26189590e-001 1.47692716e+000 6.43545270e-001 8.89132202e-001
      1.57939523e-001 1.20992875e+000 6.58827960e-001 4.78668779e-001
      1.57172143e+000 2.91243166e-001 3.06994766e-001 2.63697714e-001
      2.25853652e-001 2.66179323e-001 1.59787104e-001 3.93213779e-001
      2.90772796e-001 2.01927960e-001 1.68336958e-001 1.68262899e-001
      7.54206300e-001 1.62225211e+000 1.97407931e-001 1.67985320e-001
      4.50683326e-001 1.63464546e-001 1.23935080e+000 1.40514940e-001
      3.71761888e-001 1.12400782e+000 4.72176857e-002 1.59723020e+000
      3.54423106e-001 3.52341443e-001 1.16660893e+000 6.81858301e-001
      7.90577754e-002 1.36893594e+000 9.39466283e-002 3.12539518e-001
      1.75470397e-001 8.88289928e-001 1.34213281e+000 3.22243601e-001
      1.30955186e-002 3.02231545e-003 4.22352046e-001 6.11631153e-003
      1.66542873e-001 8.04393962e-002 1.46408662e-001 2.23044693e-001
      2.24656418e-001 4.07978982e-001 2.06397742e-001 3.17466825e-001
      8.53577256e-001 1.35330424e-001 3.27507704e-001 3.49303991e-001
      3.05192441e-001 8.98166180e-001 1.98970449e+000 1.24619514e-001
      8.93368840e-001 1.36082685e+000 6.88860357e-001 1.52160242e-001
      3.38090539e-001 9.73017607e-003 6.22049332e-001 1.08792998e-001
      5.92279553e-001 6.17727816e-001 1.32604241e-001 6.29293313e-003
      6.31823957e-001 4.45007831e-001 1.56268880e-001 2.64349788e-001
      5.58899641e-001 2.41373509e-001 4.58746776e-002 2.70845622e-001
      5.57338238e-001 9.74285528e-002 1.33781850e+000 3.64321262e-001
      3.34523171e-001 1.32737339e-001 7.05735087e-001 1.36238346e-002
      8.24072808e-002 2.47221533e-002 1.06217980e+000 4.18962598e-001
      1.20497119e+000 2.30979845e-001 2.92950839e-001 3.69418338e-002
      3.43432337e-001 1.70358598e+000 3.09838057e-001 1.34640217e-001
      2.60339417e-002 1.32482961e-001 4.06839341e-001 1.57374278e-001</_>
    <_>
      1.71508208e-001 3.73403877e-002 2.80694515e-001 3.91508698e-001
      9.47846234e-001 1.45620918e+000 8.31473351e-001 3.98548067e-001
      1.54809728e-002 5.00893652e-001 5.61050117e-001 1.22772872e+000
      5.85831106e-001 1.83410615e-001 5.27805984e-001 6.64506257e-001
      3.39028925e-001 4.00650829e-001 1.75378993e-002 1.06670737e+000
      5.03537238e-001 1.56721398e-001 1.42690837e-001 3.66977006e-002
      7.06592053e-002 2.30317101e-001 1.08867192e+000 5.04121184e-001
      2.45549530e-001 6.83716178e-001 4.56534773e-002 2.51273799e+000
      3.10795046e-002 1.45387009e-001 1.14075497e-001 3.73112597e-002
      4.38028216e-001 4.61078763e-001 5.77294350e-001 1.65943168e-002
      2.40398183e-001 3.92387092e-001 7.06106201e-002 1.11306474e-001
      6.13782227e-001 3.74081522e-001 8.70742738e-001 1.02981061e-001
      4.90935266e-001 3.42372432e-002 3.88841867e-001 2.39366248e-001
      1.85406730e-002 1.49799604e-002 1.33196667e-001 5.41053116e-001
      1.04817264e-001 4.55234498e-001 2.86309600e-001 1.44848317e-001
      9.89430487e-001 4.77904588e-001 4.93571043e-001 3.55809391e-001
      4.02209133e-001 1.11674219e-001 5.41109741e-002 3.57130945e-001
      8.83470356e-001 1.03597924e-001 2.00085819e-001 3.76694769e-001
      7.93305814e-001 1.53971966e-002 2.88562566e-001 3.49988103e-001
      8.71640667e-002 2.91777086e-002 8.48647714e-001 3.45992327e-001
      2.73032367e-001 2.60874420e-001 4.62942906e-002 5.04212081e-002
      1.30194676e+000 8.97732526e-002 2.67136753e-001 1.01744056e-001
      1.97974145e-001 1.07468121e-001 1.91691518e-001 5.76721668e-001
      7.82197714e-002 5.36166370e-001 6.19415753e-002 1.18570280e+000
      5.21168299e-002 1.91471636e-001 1.51812524e-001 1.00710072e-001
      6.72173575e-002 4.88735050e-001 1.73358929e+000 1.89793378e-001
      5.46826959e-001 3.90058696e-001 5.72397420e-003 4.75395650e-001
      2.98647761e-001 3.42760354e-001 7.38322884e-002 4.40477133e-001
      1.34447701e-002 5.18262267e-001 4.05469060e-001 6.03958786e-001
      7.87039548e-002 1.13070220e-001 7.35837102e-001 1.26555040e-001
      8.14595222e-001 2.85120234e-002 8.15394580e-001 3.37442368e-001
      9.06715035e-001 3.32835168e-002 7.71402009e-003 2.47024059e+000
      9.93470028e-002 9.81522560e-001 8.36653292e-001 2.16711715e-001
      1.54566452e-001 3.53692651e-001 7.02636093e-002 1.29412755e-001
      2.08705775e-002 1.02201387e-001 5.98407447e-001 1.59014389e-001
      3.11957505e-002 4.37830657e-001 5.32739401e-001 3.91454875e-001
      3.42418760e-001 4.68164325e-001 1.58883405e+000 3.17904294e-001
      1.46076095e+000 2.09327117e-001 2.51024753e-001 1.87082753e-001
      9.18899119e-001 2.79246539e-001 1.44644737e-001 1.00449808e-002
      4.57917601e-001 8.67660582e-001 1.39505491e-001 1.36971593e-001
      9.31119174e-002 9.80926901e-002 2.97805160e-001 1.56678393e-001
      3.55820090e-001 6.53479844e-002 1.07700825e+000 1.41717434e+000
      5.93860308e-003 1.50090325e+000 1.91976368e-001 1.05494928e+000
      1.05031945e-001 2.02248231e-001 1.12144327e+000 5.94140947e-001
      1.04123461e+000 5.65097630e-001 2.10480511e-001 6.66410387e-001
      4.96014565e-001 1.31300502e-002 6.00787327e-002 1.87995210e-001
      5.08634388e-001 1.03823245e+000 4.05785382e-001 2.08839372e-001
      1.46269059e+000 9.88842905e-001 4.85487282e-001 1.33796502e-002
      5.27126431e-001 8.62392783e-001 7.91343808e-001 8.90254319e-001
      1.48300648e-001 1.17220294e+000 9.12449539e-001 2.69314468e-001
      8.70117903e-001 4.65903848e-001 1.96702525e-001 2.73364097e-001
      1.66197145e+000 4.91186142e-001 9.87222716e-002 5.80749929e-001
      6.04167759e-001 9.51521620e-002 2.89067775e-001 1.85980111e-001
      1.55019343e+000 1.75028372e+000 2.39848912e-001 2.08633840e-001
      1.97584763e-001 3.59958380e-001 1.06144679e+000 1.96157098e-001
      3.76078695e-001 1.77532458e+000 7.79288486e-002 1.78091085e+000
      7.49337196e-001 3.30944300e-001 4.49931800e-001 1.25630558e-001
      1.73905835e-001 5.03379107e-001 1.36573002e-001 5.68782389e-001
      1.78624079e-001 8.46305072e-001 1.15155983e+000 1.56470388e-001
      2.47094184e-002 3.54265817e-003 5.23617864e-001 7.34749530e-003
      1.49535805e-001 9.27129313e-002 7.16596171e-002 3.75705808e-001
      2.12284303e+000 6.36852682e-001 1.10560074e-001 4.37165409e-001
      9.00659859e-001 2.72087544e-001 3.46097469e-001 4.31656510e-001
      6.11783683e-001 1.50299704e+000 3.89915526e-001 1.56726077e-001
      4.18538004e-001 1.61161387e+000 1.09081185e+000 1.15450837e-001
      3.34183753e-001 1.56586226e-002 9.96437609e-001 1.28472164e-001
      8.60622942e-001 6.31992638e-001 1.35456994e-001 1.42338248e-002
      3.67023289e-001 7.53744841e-001 2.23637223e-001 3.45150590e-001
      7.23532736e-001 7.31157809e-002 3.03318072e-002 5.85440218e-001
      4.05633688e-001 1.15901306e-001 7.27406561e-001 2.81335771e-001
      3.99499923e-001 1.95366472e-001 5.61776578e-001 1.05084227e-002
      2.15156808e-001 7.02417344e-002 4.32765335e-001 3.08674008e-001
      4.99636918e-001 3.17803711e-001 1.24357916e-001 4.44036312e-002
      5.79930186e-001 2.28241801e+000 3.08582902e-001 2.85887748e-001
      2.62076575e-002 1.44766301e-001 1.74904630e-001 1.00146748e-001</_>
    <_>
      3.86004180e-001 6.62126243e-002 2.17959583e-001 1.30001712e+000
      2.15987468e+000 2.16830683e+000 1.22346330e+000 7.20398486e-001
      2.20837388e-002 4.14599150e-001 3.86955917e-001 1.43570554e+000
      5.17153561e-001 2.22371534e-001 3.44108909e-001 4.21351105e-001
      1.30532250e-001 2.91668355e-001 2.21646279e-002 1.22046638e+000
      4.58538234e-001 7.63079897e-002 2.02922076e-001 5.95118888e-002
      8.23621228e-002 2.72084862e-001 2.96690166e-001 4.19873655e-001
      3.47801074e-002 9.42895234e-001 5.79847842e-002 1.09929895e+000
      3.62979621e-002 1.64425403e-001 1.09753363e-001 1.90979019e-002
      5.06146669e-001 2.26880819e-001 6.19966507e-001 3.52990702e-002
      1.94101200e-001 5.58180749e-001 8.72362852e-002 9.51070115e-002
      8.14902604e-001 1.41408011e-001 5.91503382e-001 8.84609967e-002
      4.44425523e-001 2.34033540e-002 1.38879752e+000 7.34641969e-001
      6.04191944e-002 1.20810186e-002 1.89825222e-001 3.03651929e-001
      6.45190254e-002 1.47380567e+000 6.11515641e-002 7.02549219e-002
      5.61874986e-001 9.31609631e-001 1.15761352e+000 4.53257233e-001
      3.37779462e-001 3.48038644e-001 5.28382175e-002 4.26660776e-001
      5.88732898e-001 1.33707166e-001 1.80516213e-001 3.09375197e-001
      1.76497197e+000 2.06078421e-002 3.66544515e-001 8.07667971e-001
      5.76199777e-002 3.34000066e-002 1.00936985e+000 1.79951757e-001
      1.38616934e-001 1.47290409e-001 5.92701212e-002 3.95511985e-002
      5.61042070e-001 4.77567203e-002 2.44748682e-001 9.38459486e-002
      8.73186663e-002 1.99122295e-001 8.72508436e-002 1.60052192e+000
      4.78539579e-002 1.40915823e+000 4.70580086e-002 3.53861183e-001
      5.08463830e-002 1.57805055e-001 8.97757635e-002 5.28770648e-002
      5.56970313e-002 4.19566512e-001 1.33168530e+000 1.61823049e-001
      1.04554224e+000 3.63264084e-001 1.67924128e-002 4.68421251e-001
      2.53619343e-001 3.68180662e-001 5.10242172e-002 1.66889280e-001
      1.78927518e-002 6.06856763e-001 1.39462650e-001 5.65416157e-001
      4.36809622e-002 1.75147668e-001 1.71098024e-001 9.85461026e-002
      9.44115758e-001 2.50001904e-002 9.28210378e-001 3.82351279e-001
      7.68686473e-001 4.07087132e-002 5.50934626e-003 1.71728110e+000
      1.17997751e-001 1.58476925e+000 2.07752991e+000 3.11672986e-001
      1.97413340e-001 1.08523464e+000 7.35247657e-002 2.77601004e-001
      1.08975181e-002 4.92298245e-001 5.33206522e-001 1.94985181e-001
      2.92433202e-002 1.75686643e-001 7.35633731e-001 3.01381707e-001
      3.50883484e-001 5.49029350e-001 1.66262102e+000 1.78677663e-001
      1.37322807e+000 9.34696123e-002 3.59823704e-001 1.64569125e-001
      1.97959638e+000 2.61743248e-001 1.59112856e-001 1.94492992e-002
      5.89406550e-001 1.36610508e+000 9.82872248e-002 2.06319854e-001
      5.25740385e-002 7.36471787e-002 1.85356110e-001 1.37133658e-001
      2.29591727e-001 3.99325453e-002 1.36977911e+000 7.09644318e-001
      6.80756522e-003 8.91115189e-001 1.63959742e-001 9.13269639e-001
      6.56629056e-002 5.24297543e-002 6.94955289e-001 4.68912601e-001
      9.76445675e-001 1.23882496e+000 7.72102296e-001 5.31276345e-001
      4.28815722e-001 1.82534363e-002 5.50361648e-002 1.14704624e-001
      3.13162565e-001 8.62401068e-001 2.76644409e-001 1.85300335e-001
      1.39447296e+000 7.96156108e-001 3.42422396e-001 9.97837074e-003
      4.03482080e-001 1.08039033e+000 1.57168329e+000 1.88673282e+000
      1.80696994e-001 2.02655530e+000 1.50447154e+000 3.86037529e-002
      1.09430695e+000 6.86001420e-001 6.86488450e-002 1.58968121e-001
      1.38157237e+000 1.96114570e-001 1.72518626e-001 6.23079956e-001
      8.29931557e-001 1.55618772e-001 9.65479836e-002 1.83969870e-001
      1.23074484e+000 1.62254095e+000 1.22361034e-001 1.28672078e-001
      2.01286688e-001 2.91593343e-001 1.23284352e+000 1.58848241e-001
      4.98243213e-001 1.14530766e+000 6.73474371e-002 1.37574172e+000
      4.78766143e-001 1.48550594e+000 5.71867108e-001 1.72266424e-001
      9.57830623e-002 5.22391081e-001 9.97563675e-002 3.22878987e-001
      1.33199006e-001 2.25511193e+000 1.18754530e+000 1.18649781e+000
      3.40346470e-002 5.12045622e-003 9.29106891e-001 6.93966495e-003
      1.78346470e-001 5.11216782e-002 2.16679275e-001 3.03357542e-001
      2.01168537e+000 3.04908007e-001 6.45059049e-002 7.97420979e-001
      2.58919334e+000 1.51936531e-001 1.46532226e+000 1.25146374e-001
      6.72540545e-001 1.00239718e+000 1.12432945e+000 9.83645767e-002
      1.38353539e+000 1.78091240e+000 3.13228846e-001 2.13163331e-001
      3.75803649e-001 1.24005564e-002 5.35525084e-001 1.43722802e-001
      3.10635269e-001 1.00120330e+000 1.54417783e-001 2.45297886e-002
      2.97950596e-001 2.81316698e-001 8.38322699e-001 7.04389334e-001
      2.09573889e+000 5.38351946e-002 4.68665995e-002 1.02947855e+000
      8.69519472e-001 8.39670226e-002 1.24317765e+000 3.07294458e-001
      5.34868598e-001 2.15020195e-001 3.31573486e+000 1.66618135e-002
      1.32336527e-001 2.36522913e-001 4.00501072e-001 2.44367644e-001
      3.90217215e-001 1.20502189e-001 5.92869632e-002 4.44188341e-002
      4.35081929e-001 1.38268018e+000 1.58905074e-001 4.04864550e-001
      6.16312698e-002 1.63132682e-001 4.34500426e-001 8.18201378e-002</_>
    <_>
      1.73081279e-001 4.12580408e-002 3.26339245e-001 8.45021784e-001
      1.11394572e+000 8.13756466e-001 4.36737925e-001 4.12446201e-001
      1.42171467e-002 8.80509019e-001 4.10697103e-001 1.13024557e+000
      3.87441814e-001 1.73980191e-001 2.18888551e-001 4.15081948e-001
      4.27155912e-001 4.99113828e-001 2.29555983e-002 1.27363455e+000
      1.07939076e+000 2.62882799e-001 1.45038173e-001 5.03990874e-002
      1.32317498e-001 2.20965698e-001 2.11030746e+000 4.02316481e-001
      6.68884456e-001 3.31782550e-001 5.59641235e-002 1.88800311e+000
      4.72778603e-002 1.72247976e-001 1.32292643e-001 2.94794813e-002
      1.34137452e-001 7.25786865e-001 9.89908338e-001 1.96760837e-002
      5.54197848e-001 2.00098008e-001 7.01553583e-001 1.20378725e-001
      1.49149477e-001 4.35577750e-001 7.98787475e-001 8.62182006e-002
      5.44116676e-001 2.87878495e-002 4.15223330e-001 2.15226620e-001
      3.34615000e-002 1.41138639e-002 2.19392270e-001 4.18633401e-001
      1.23192623e-001 6.60163999e-001 8.37700188e-001 2.53085613e-001
      6.29459560e-001 1.60473895e+000 2.69694328e-001 1.12467378e-001
      2.48620331e-001 4.57758218e-001 5.81826903e-002 2.70841390e-001
      8.31039310e-001 5.94626665e-002 1.24662705e-001 1.91669360e-001
      5.22155583e-001 1.80951301e-002 1.34502351e-001 3.83941233e-001
      9.21234861e-002 4.33793217e-002 5.97058296e-001 2.04050839e-001
      4.05455947e-001 1.73116684e-001 3.81708182e-002 2.90114343e-001
      5.32263577e-001 6.17163956e-001 2.91531414e-001 1.42908260e-001
      1.73314393e-001 1.79659471e-001 6.22110248e-001 1.19330287e+000
      5.73677607e-002 4.97558683e-001 5.14520593e-002 3.57881904e-001
      4.14611213e-002 1.03237130e-001 1.19468264e-001 5.98009787e-002
      5.32970801e-002 5.73065877e-001 7.33007073e-001 1.24055974e-001
      8.61364365e-001 3.36048037e-001 1.08395498e-002 3.02342713e-001
      2.45594144e-001 2.48792171e-001 5.59080951e-002 6.64292216e-001
      1.72358993e-002 5.49557269e-001 8.01836252e-001 5.72800934e-001
      2.96547472e-001 4.02707338e-001 2.66044736e-001 8.18166658e-002
      2.43591815e-001 3.58476453e-002 7.39647686e-001 9.44718599e-001
      1.32264674e+000 5.66436462e-002 5.55661879e-003 1.20334959e+000
      1.40483305e-001 8.95937622e-001 7.41846323e-001 2.54094869e-001
      4.59858686e-001 4.93658721e-001 4.77975085e-002 6.37213588e-001
      1.35585088e-002 1.99938044e-001 5.32877445e-001 1.03869453e-001
      2.71855257e-002 6.31372154e-001 3.45451713e-001 2.32294485e-001
      2.61862129e-001 6.33442998e-001 8.32482517e-001 2.43526816e-001
      5.27392089e-001 4.96172667e-001 2.99902409e-001 1.06288843e-001
      3.14555079e-001 8.45998883e-001 1.65070176e-001 1.37237515e-002
      4.24549401e-001 4.67061132e-001 7.27401748e-002 6.57303408e-002
      6.74865365e-001 1.07713178e-001 6.25298768e-002 9.77922380e-002
      2.76257783e-001 5.59729636e-002 2.03832841e+000 1.09069312e+000
      4.22155391e-003 2.32629514e+000 1.71682999e-001 1.36967862e+000
      8.31305742e-001 7.12567449e-001 5.44392109e-001 5.28655112e-001
      9.45099294e-001 5.06440759e-001 1.30095875e+000 1.62250176e-001
      3.12832117e-001 1.54768256e-002 7.84535035e-002 1.24228418e-001
      5.60611069e-001 1.28821063e+000 5.58078408e-001 1.67337358e-001
      8.88359308e-001 7.79651105e-001 2.47349575e-001 1.58891976e-002
      7.65694320e-001 1.35683262e+000 1.72328341e+000 7.00293422e-001
      1.86489791e-001 1.13472319e+000 8.55058312e-001 7.35577583e-001
      1.51013577e+000 9.74269211e-001 8.81820440e-001 5.59949815e-001
      5.34620941e-001 7.91747093e-001 4.45151895e-001 6.89673245e-001
      3.79835308e-001 4.15248990e-001 3.63310784e-001 1.49929374e-001
      8.17766845e-001 9.26761985e-001 2.19574824e-001 1.36205629e-001
      1.16400972e-001 2.49297738e-001 1.17598665e+000 2.81521350e-001
      4.96738046e-001 1.18663979e+000 5.51897250e-002 1.97769856e+000
      5.15269876e-001 5.71548760e-001 2.99230009e-001 5.72433889e-001
      1.43061727e-001 9.96722519e-001 9.09322202e-002 4.43702847e-001
      2.71352410e-001 5.75267315e-001 1.11733747e+000 5.74395835e-001
      1.93339828e-002 3.65341688e-003 4.40558553e-001 3.85976373e-003
      1.39923662e-001 7.52798542e-002 1.10134706e-001 2.84703135e-001
      1.08402598e+000 4.87999558e-001 6.27762794e-001 4.44562405e-001
      6.80212557e-001 3.14331442e-001 5.34900367e-001 3.09334546e-001
      5.94472349e-001 8.10528815e-001 6.65267289e-001 1.50837868e-001
      1.41171110e+000 1.93627524e+000 4.55961674e-001 1.47337958e-001
      5.43045700e-001 1.37817403e-002 5.06052077e-001 1.29289299e-001
      3.05289239e-001 1.49719131e+000 1.70719013e-001 1.30707743e-002
      4.23230559e-001 7.05452383e-001 3.43821079e-001 3.22654009e-001
      7.32792377e-001 1.30652636e-001 4.18139100e-002 6.87594533e-001
      5.55548012e-001 9.96586233e-002 1.24800384e+000 2.10409909e-001
      5.59534609e-001 1.61765844e-001 5.36340356e-001 1.12495748e-002
      8.92662555e-002 7.03930110e-002 2.60370255e+000 3.72423947e-001
      9.61784780e-001 4.25351322e-001 2.90663540e-001 4.18048762e-002
      3.18347603e-001 1.52046800e+000 7.01545179e-001 2.19349712e-001
      3.58289741e-002 1.35139450e-001 1.85053989e-001 8.80725533e-002</_>
    <_>
      4.19017255e-001 4.64350097e-002 7.26334214e-001 8.35476577e-001
      1.15982401e+000 5.76216221e-001 2.69235998e-001 1.06097484e+000
      1.19658979e-002 8.37523282e-001 9.81102049e-001 1.37698245e+000
      2.91110218e-001 1.44881561e-001 3.06862503e-001 2.31609121e-001
      6.41982377e-001 4.44361359e-001 1.26884142e-002 1.01549625e+000
      5.33838868e-001 2.25377381e-001 1.00286715e-001 5.09712696e-002
      1.37926340e-001 1.91301569e-001 6.04218900e-001 2.63778269e-001
      6.29903138e-001 5.24850070e-001 2.80708969e-002 1.63099301e+000
      4.03850302e-002 1.26229048e-001 1.17996700e-001 4.26495858e-002
      3.32097411e-001 1.58450514e-001 6.23210073e-001 1.90625507e-002
      1.54251862e+000 3.28419805e-001 7.84397662e-001 1.78902373e-001
      3.46232563e-001 4.11204368e-001 6.59422636e-001 1.26545042e-001
      8.70860636e-001 2.25239005e-002 3.17963034e-001 1.59084290e-001
      5.00955395e-002 1.71111878e-002 1.05258897e-001 2.95698583e-001
      1.85639694e-001 7.10197747e-001 6.02281213e-001 4.77404296e-001
      6.01280808e-001 5.22375584e-001 3.61436397e-001 3.73094171e-001
      6.98433161e-001 2.83147603e-001 4.85855751e-002 2.78811038e-001
      9.21600699e-001 5.12288697e-002 2.05715016e-001 2.44790569e-001
      4.74359125e-001 1.18066389e-002 2.43213281e-001 3.71001631e-001
      7.84500316e-002 5.16467802e-002 3.75430644e-001 2.00118259e-001
      8.88845325e-001 2.81320632e-001 4.10311483e-002 5.21288574e-001
      4.05797988e-001 1.20429635e+000 6.42481595e-002 1.17784299e-001
      3.07384491e-001 9.28453431e-002 4.56033707e-001 3.98032337e-001
      4.63445149e-002 2.03927949e-001 1.99361295e-002 6.67014003e-001
      2.91375872e-002 1.49304286e-001 1.17453098e-001 6.20241612e-002
      2.57421695e-002 3.45072091e-001 8.68966877e-001 8.68750811e-002
      3.24427962e-001 6.27769053e-001 4.86503076e-003 3.28400522e-001
      3.74540180e-001 1.74611405e-001 4.91049588e-002 4.50785190e-001
      1.38709964e-002 4.50516760e-001 4.39405024e-001 2.41398469e-001
      4.44701374e-001 1.96068391e-001 5.20735979e-001 1.38057604e-001
      3.52478057e-001 1.85148995e-002 7.06882000e-001 9.49441075e-001
      7.86338747e-001 4.26634476e-002 7.05094635e-003 1.87183297e+000
      1.04005635e-001 2.05752921e+000 6.02032244e-001 8.42296660e-001
      1.42755103e+000 4.69852418e-001 4.03562076e-002 8.19142222e-001
      2.23110076e-002 1.79592177e-001 3.65919948e-001 1.62780017e-001
      4.71085943e-002 2.08544210e-001 2.83633709e-001 4.02521253e-001
      1.66575760e-001 2.32768759e-001 1.19607627e+000 2.81303197e-001
      1.12674212e+000 6.78833604e-001 7.82692254e-001 2.37308368e-001
      7.28011966e-001 2.17228279e-001 1.65888473e-001 1.11439517e-002
      2.46812552e-001 4.11382347e-001 7.07462505e-002 7.72301406e-002
      7.36384571e-001 9.43986624e-002 1.83489278e-001 1.16839662e-001
      1.89627707e-001 8.49490166e-002 1.56560922e+000 5.42967677e-001
      3.54803866e-003 1.57037318e+000 1.79542646e-001 1.33015120e+000
      1.04573810e+000 7.53392756e-001 4.31469560e-001 7.51691937e-001
      2.66919851e+000 4.75279510e-001 5.98795533e-001 4.63637173e-001
      3.68494391e-001 1.48123996e-002 9.64757353e-002 1.47038385e-001
      5.22543311e-001 8.09771180e-001 4.04968232e-001 2.15860307e-001
      1.54855645e+000 1.78583264e+000 2.64903277e-001 1.10711195e-002
      1.38512865e-001 6.21598899e-001 8.11470866e-001 5.67334592e-001
      1.34567440e-001 1.29108191e+000 9.13417578e-001 7.84796119e-001
      6.56850040e-001 5.25610626e-001 9.26119089e-001 3.72422546e-001
      1.17639637e+000 4.97851044e-001 2.16283813e-001 1.29599321e+000
      3.11931819e-001 4.35013592e-001 3.13299984e-001 1.43969297e-001
      9.97388124e-001 1.99639201e+000 2.98751593e-001 1.21369883e-001
      1.74132854e-001 2.06618637e-001 1.37656081e+000 4.13613409e-001
      2.42935359e-001 1.09680629e+000 7.57190064e-002 1.44360757e+000
      4.14586127e-001 1.95916593e-001 2.70546973e-001 1.70531249e+000
      2.41702765e-001 1.44704401e+000 1.16498575e-001 4.61429060e-001
      4.75555867e-001 7.31213093e-001 1.88259935e+000 1.20466661e+000
      2.96150986e-002 3.32941767e-003 4.55244213e-001 6.49648812e-003
      9.72410217e-002 6.76224679e-002 1.41326621e-001 2.42445484e-001
      9.51559663e-001 3.59275877e-001 8.41585398e-001 9.29077268e-001
      5.98693907e-001 3.99004668e-001 1.81905493e-001 7.07376540e-001
      8.21425617e-001 1.13018334e+000 4.37804729e-001 1.14403419e-001
      5.28308272e-001 9.00533617e-001 6.94627047e-001 1.53317869e-001
      3.29140276e-001 1.72720663e-002 8.49513531e-001 1.65934473e-001
      4.26154852e-001 1.30358124e+000 1.22113951e-001 5.96361328e-003
      5.33842325e-001 5.07455289e-001 2.88645685e-001 2.57068127e-001
      9.11545157e-001 2.86547482e-001 4.53889072e-002 1.18852675e+000
      1.32992315e+000 1.57944277e-001 1.27681649e+000 4.41174895e-001
      2.82234401e-001 1.48561969e-001 6.13049150e-001 1.65012572e-002
      1.34147525e-001 5.79168238e-002 6.45428538e-001 5.64697742e-001
      4.74275768e-001 8.22567165e-001 3.29515338e-001 3.91352549e-002
      3.25522512e-001 1.35082567e+000 3.37686688e-001 1.93278134e-001
      5.37397563e-002 1.19486712e-001 2.59615898e-001 1.35458246e-001</_>
    <_>
      4.28542644e-001 3.56824398e-002 9.86613929e-001 8.92549515e-001
      2.41526222e+000 1.46965837e+000 1.40896010e+000 3.01819891e-001
      2.25869846e-002 2.88624793e-001 9.08796728e-001 1.45162833e+000
      7.61234760e-001 1.49823070e-001 7.23841071e-001 6.48948312e-001
      1.57774463e-001 2.77335346e-001 1.32580139e-002 9.29956734e-001
      8.79741311e-001 1.75166607e-001 1.40451133e-001 2.63680033e-002
      8.47596675e-002 1.46867856e-001 6.53012216e-001 7.07715988e-001
      8.35993066e-002 3.67632091e-001 4.71274965e-002 1.56660366e+000
      4.71631140e-002 1.38303906e-001 1.63309127e-001 2.36519948e-002
      2.24073708e-001 6.64685607e-001 1.08172429e+000 2.87724733e-002
      9.52496350e-001 4.73404586e-001 6.31747603e-001 8.98958147e-002
      2.44872183e-001 1.90843746e-001 6.81726456e-001 4.93893400e-002
      2.41705582e-001 3.02920416e-002 1.66297626e+000 5.42774737e-001
      4.47903536e-002 1.76624991e-002 1.27067074e-001 4.21317697e-001
      5.20932265e-002 2.60408640e+000 8.01981837e-002 2.20338285e-001
      5.72252750e-001 1.31432331e+000 8.61723423e-002 3.62082154e-001
      9.41757321e-001 6.92006424e-002 7.66846016e-002 3.04001123e-001
      3.68346810e-001 6.59176111e-002 1.80451155e-001 3.36218566e-001
      1.52793872e+000 1.53575549e-002 6.21015653e-002 6.07634664e-001
      4.11256738e-002 5.14350794e-002 1.26571846e+000 1.45810619e-001
      9.35867727e-002 1.52381837e-001 3.69057916e-002 2.08137840e-001
      7.15018272e-001 5.49785495e-001 4.83613640e-001 5.50387874e-002
      5.27308658e-002 9.72170457e-002 7.87636861e-002 6.01915300e-001
      6.62877485e-002 1.81806052e+000 9.07700360e-002 9.47863162e-001
      3.94883156e-002 1.48080423e-001 1.71701640e-001 8.60858411e-002
      5.65263256e-002 5.57561815e-001 5.16646862e-001 1.80095255e-001
      1.26062870e+000 4.49572265e-001 1.20329689e-002 3.29750329e-002
      3.24835986e-001 1.31205523e+000 5.84492236e-002 2.86387414e-001
      1.56755205e-002 6.94808602e-001 3.51961553e-001 4.90711421e-001
      1.77344009e-001 2.27007002e-001 1.14155483e+000 4.28472944e-002
      9.38747168e-001 3.82425562e-002 1.36615348e+000 9.92843360e-002
      3.46824259e-001 5.75676709e-002 6.62952196e-003 1.97191215e+000
      1.35387853e-001 2.20357394e+000 1.88509095e+000 4.13858831e-001
      1.11005270e+000 1.04617763e+000 5.83763123e-002 2.05725685e-001
      1.31933475e-002 7.00297117e-001 4.17462617e-001 1.87829867e-001
      1.58488844e-002 4.37082648e-001 6.43393517e-001 4.53602701e-001
      1.29618776e+000 5.70677817e-001 9.02338386e-001 6.63116351e-002
      1.28213477e+000 1.78647444e-001 1.55501813e-001 3.84125680e-001
      4.08180743e-001 4.14624006e-001 1.73417896e-001 7.83145055e-003
      1.30424410e-001 1.15696216e+000 1.50660530e-001 1.62456021e-001
      8.30606818e-001 6.48239255e-002 5.37027977e-002 1.53480470e-001
      5.64907551e-001 4.69035245e-002 1.25339413e+000 1.59397864e+000
      5.72988298e-003 1.12753570e+000 9.92230922e-002 1.05094588e+000
      4.85502571e-001 1.26254559e-001 4.92274672e-001 2.11379671e+000
      3.99394810e-001 1.19222176e+000 1.59666288e+000 5.12768984e-001
      5.39042115e-001 1.47184199e-002 1.58686548e-001 9.27561298e-002
      3.45629752e-001 4.07171696e-001 5.79081535e-001 2.25356668e-001
      1.09405339e+000 7.11866021e-001 2.84147948e-001 1.18692992e-002
      8.45301032e-001 1.15892899e+000 3.39911133e-001 1.60874426e+000
      1.28138170e-001 9.02696848e-001 1.29265058e+000 9.92645919e-002
      1.28380561e+000 8.81513238e-001 2.73133248e-001 5.51558077e-001
      1.39096558e+000 4.25231278e-001 1.07832626e-001 3.30064386e-001
      7.74120569e-001 6.37440532e-002 2.78512776e-001 1.64278358e-001
      4.28312182e-001 1.77201152e+000 1.34863570e-001 1.01678923e-001
      4.00940031e-001 5.79291940e-001 1.02251637e+000 1.36930406e-001
      4.27843750e-001 9.64219928e-001 7.98872560e-002 1.32536459e+000
      4.02843595e-001 1.28269494e+000 2.47125196e+000 2.48987556e-001
      5.98453619e-002 1.68033510e-001 1.23109400e-001 4.35475916e-001
      2.65878618e-001 1.32410264e+000 3.93083423e-001 4.22373235e-001
      5.38058653e-002 4.76557622e-003 7.86814332e-001 6.76174415e-003
      1.54897973e-001 3.79104353e-002 1.51274174e-001 2.39477202e-001
      1.78790617e+000 3.06753814e-001 9.66564715e-001 2.67907083e-001
      2.17940044e+000 1.10060501e+000 8.43100667e-001 1.82714358e-001
      1.68835729e-001 5.69679976e-001 1.61654711e+000 1.27437145e-001
      2.60583687e+000 1.02008891e+000 8.78524542e-001 1.55015126e-001
      2.29312205e+000 1.85558796e-002 2.17332840e-001 1.26745030e-001
      4.92304981e-001 1.42663383e+000 1.42690450e-001 4.02370729e-002
      3.79816473e-001 3.80274773e-001 8.38204205e-001 4.13333952e-001
      1.20775962e+000 1.48377910e-001 2.48366203e-002 2.78471798e-001
      3.64051700e-001 8.25628191e-002 1.17091131e+000 3.43663901e-001
      5.45038819e-001 9.84657407e-002 1.83881330e+000 1.30969845e-002
      1.69573873e-001 3.50165188e-001 2.69718915e-001 2.38309354e-001
      2.49187559e-001 1.29227608e-001 1.84202611e-001 5.66518195e-002
      6.67186677e-001 3.84622425e-001 1.15017164e+000 4.53614146e-001
      3.23091261e-002 1.17549434e-001 1.51442319e-001 4.79290038e-002</_>
    <_>
      3.65254045e-001 6.81646690e-002 2.79666513e-001 1.68195057e+000
      2.34064841e+000 1.68725312e+000 1.28897214e+000 1.12266934e+000
      1.98503993e-002 3.12589467e-001 3.36979896e-001 1.54920733e+000
      5.78264534e-001 1.77565366e-001 3.84893715e-001 3.16739470e-001
      2.18624935e-001 3.14297408e-001 2.39704102e-002 1.01547134e+000
      1.12197196e+000 1.10901549e-001 2.01766327e-001 6.44539595e-002
      7.76356682e-002 3.63061130e-001 4.07662958e-001 4.26988453e-001
      9.51567069e-002 8.18952978e-001 5.85725121e-002 1.27065372e+000
      4.15784083e-002 1.66691110e-001 1.29487351e-001 1.80178601e-002
      5.63277960e-001 2.34167382e-001 5.67432523e-001 2.43466683e-002
      1.65663466e-001 4.68966603e-001 9.10643116e-002 1.06133386e-001
      9.35721457e-001 1.95502087e-001 6.06199920e-001 1.25352457e-001
      4.14328277e-001 2.82076113e-002 5.53299069e-001 3.50698709e-001
      6.25288337e-002 1.69232953e-002 1.89350039e-001 4.10642236e-001
      8.08678344e-002 1.87564433e+000 1.01372562e-001 1.04589917e-001
      5.89611411e-001 1.07140493e+000 1.60465491e+000 3.91837537e-001
      4.47294950e-001 2.98712939e-001 5.41337170e-002 4.23948109e-001
      7.67237127e-001 1.62928641e-001 2.55271584e-001 3.27101648e-001
      1.28905630e+000 1.96950994e-002 4.02626157e-001 7.12174118e-001
      6.07822388e-002 3.51572521e-002 8.69555533e-001 1.39291778e-001
      5.81706643e-001 9.26089659e-002 6.91743344e-002 3.31189707e-002
      5.62633276e-001 4.86305766e-002 1.43395826e-001 1.08232901e-001
      9.31846276e-002 2.34950900e-001 1.60012379e-001 1.41772163e+000
      4.08666246e-002 3.95249367e-001 3.68975066e-002 5.24113417e-001
      3.45839299e-002 1.62206396e-001 1.12752996e-001 7.32054487e-002
      4.41955663e-002 4.21419740e-001 1.19158578e+000 1.15466684e-001
      8.78371835e-001 2.88637280e-001 9.08787176e-003 6.67587936e-001
      2.66300946e-001 6.75572813e-001 5.05476743e-002 2.64803380e-001
      1.91332847e-002 6.39555514e-001 1.69597417e-001 2.93349445e-001
      5.17460741e-002 2.29493827e-001 2.54994690e-001 1.66378930e-001
      7.56238520e-001 2.21251529e-002 7.61104226e-001 3.55759501e-001
      7.38144517e-001 4.00437117e-002 6.68325927e-003 1.56307471e+000
      1.42704263e-001 1.82249212e+000 2.34043813e+000 3.00790548e-001
      1.81342423e-001 8.72790575e-001 5.29332832e-002 2.51679391e-001
      1.36241084e-002 2.40634143e-001 7.95639575e-001 2.05811054e-001
      4.03531604e-002 2.20357895e-001 6.32687151e-001 3.32274705e-001
      7.03060150e-001 2.66704649e-001 1.50359273e+000 1.85954526e-001
      1.18973362e+000 1.34140074e-001 6.24196112e-001 1.96942821e-001
      1.50320065e+000 3.04137200e-001 2.06418172e-001 2.00582389e-002
      6.57947958e-001 1.28252733e+000 8.47715512e-002 1.00255318e-001
      9.56267267e-002 8.74365941e-002 2.15496182e-001 1.41968414e-001
      4.94246691e-001 4.99958843e-002 1.51649296e+000 9.29460883e-001
      6.70320680e-003 1.48754144e+000 2.11322770e-001 1.06045103e+000
      7.62954727e-002 6.17704242e-002 6.16743803e-001 1.25828159e+000
      1.05351853e+000 1.05854738e+000 8.47976029e-001 5.88470817e-001
      5.62451839e-001 1.98873580e-002 5.81700467e-002 1.15466729e-001
      3.83936673e-001 9.28592026e-001 4.67768103e-001 2.82586038e-001
      1.57125032e+000 8.12170923e-001 3.75266880e-001 6.73036464e-003
      3.04625481e-001 7.60702193e-001 1.72289693e+000 2.23853922e+000
      1.89405516e-001 1.97281790e+000 1.60405231e+000 9.62657854e-002
      7.02756703e-001 1.07729518e+000 1.12201229e-001 2.25915506e-001
      1.57782698e+000 3.75534773e-001 1.76914543e-001 6.37695968e-001
      7.24102318e-001 1.46856576e-001 1.16810851e-001 1.88995138e-001
      7.63807416e-001 1.48744500e+000 9.43432674e-002 1.34384036e-001
      2.08638474e-001 2.75652885e-001 1.03934634e+000 1.64607719e-001
      5.73803127e-001 1.12538350e+000 6.84785768e-002 1.45081306e+000
      4.28928584e-001 5.61604440e-001 8.78524482e-001 2.22470239e-001
      1.12001844e-001 3.51564407e-001 8.99752378e-002 3.77695292e-001
      1.45323575e-001 2.11208916e+000 1.28233492e+000 1.11340988e+000
      2.16001626e-002 5.21874521e-003 9.70877826e-001 6.36676280e-003
      1.71957046e-001 5.46643287e-002 2.05208436e-001 2.75429457e-001
      1.76273799e+000 2.82609344e-001 6.43777773e-002 1.20475698e+000
      2.69688153e+000 2.86197305e-001 4.38004941e-001 1.31758571e-001
      5.59048653e-001 1.09133327e+000 1.05587971e+000 1.14643320e-001
      1.17463303e+000 1.93557906e+000 4.08100784e-001 2.25337103e-001
      1.40526724e+000 1.77072603e-002 5.15542746e-001 1.52274549e-001
      3.74837220e-001 1.07705295e+000 1.42790914e-001 1.37491962e-002
      4.48496342e-001 4.89297360e-001 2.79526979e-001 6.55904531e-001
      1.89214826e+000 9.79512334e-002 4.95970882e-002 1.21929348e+000
      8.70584726e-001 8.16829279e-002 1.24096656e+000 3.85718197e-001
      5.62613726e-001 1.95224702e-001 3.25303316e+000 1.80472583e-002
      1.79517806e-001 8.69348198e-002 4.84008610e-001 2.47324571e-001
      3.23769480e-001 2.52885014e-001 7.05572963e-002 5.63521683e-002
      4.32550818e-001 1.37251544e+000 1.82049349e-001 3.13768268e-001
      6.18981831e-002 1.38078541e-001 4.91289735e-001 1.21527523e-001</_>
    <_>
      2.68219829e-001 3.70057784e-002 2.34173164e-001 4.35826033e-001
      9.01891589e-001 5.35893381e-001 3.59986305e-001 2.36446321e-001
      9.76570044e-003 1.43560755e+000 4.32166517e-001 6.92352593e-001
      3.83631617e-001 1.45829782e-001 1.94231182e-001 5.03564119e-001
      2.43442491e-001 3.77743930e-001 1.47152767e-002 7.25034177e-001
      4.36326981e-001 1.53198108e-001 9.39886123e-002 5.06211929e-002
      7.89615884e-002 1.01362437e-001 5.90520918e-001 3.23616028e-001
      9.30361897e-002 1.04463421e-001 3.62061821e-002 1.03059089e+000
      3.04209068e-002 1.31181255e-001 9.80296507e-002 2.61038356e-002
      9.06890854e-002 2.19809130e-001 6.93190813e-001 1.77083071e-002
      1.65492475e-001 1.54187828e-001 3.09343599e-002 1.18867904e-001
      9.93785486e-002 4.96939868e-001 4.72100288e-001 5.15965074e-002
      4.98490512e-001 2.97439564e-002 3.22441041e-001 2.14230761e-001
      2.67098956e-002 7.83595257e-003 1.40954316e-001 3.25151592e-001
      4.95856069e-002 4.71831828e-001 8.32706690e-002 1.64563566e-001
      4.24707383e-001 1.01273000e+000 1.25331581e-001 8.12712535e-002
      3.41596395e-001 5.23864210e-001 3.86676453e-002 2.44781300e-001
      1.03835189e+000 7.74629489e-002 7.34135732e-002 2.94168591e-001
      4.53558534e-001 1.37385745e-002 7.26946592e-002 3.30725193e-001
      6.62358627e-002 3.22320573e-002 2.47171000e-001 1.36162013e-001
      2.06646577e-001 2.65783340e-001 3.57131958e-002 2.79522445e-002
      3.93856168e-001 3.38293947e-002 1.36746183e-001 5.75982183e-002
      9.86802280e-002 1.62669525e-001 1.90149412e-001 7.33255506e-001
      4.21762951e-002 4.25224066e-001 3.40714790e-002 3.90019268e-001
      3.88238356e-002 1.02711573e-001 1.25944570e-001 3.00398674e-002
      2.93901656e-002 3.17913860e-001 6.49791420e-001 1.64259836e-001
      1.63320124e+000 3.64699274e-001 1.07852165e-002 1.95705593e-001
      2.38921180e-001 3.14049244e-001 5.02316020e-002 4.20455605e-001
      1.30006336e-002 4.93335515e-001 4.02370185e-001 2.58713275e-001
      6.81023896e-002 1.46336988e-001 4.25162017e-001 6.27175868e-002
      1.09348722e-001 3.53917442e-002 6.87327921e-001 7.59750545e-001
      6.46285832e-001 3.84738818e-002 4.49243234e-003 1.59335184e+000
      8.58600661e-002 6.34925425e-001 6.80789232e-001 3.50165635e-001
      1.15459584e-001 5.57900965e-001 4.45334911e-002 1.06918551e-001
      9.91175789e-003 1.82469398e-001 2.14435995e-001 1.22129716e-001
      1.53093394e-002 2.42822260e-001 2.93953121e-001 2.77554482e-001
      3.61082107e-001 2.49038726e-001 5.09238243e-001 9.79504660e-002
      1.83803543e-001 1.16971046e-001 3.12404931e-001 2.06955105e-001
      3.29697251e-001 1.67170390e-001 1.15329713e-001 1.52966538e-002
      2.62952924e-001 3.42876077e-001 1.00817516e-001 9.39576551e-002
      5.91249354e-002 6.49683401e-002 8.05597156e-002 6.80352971e-002
      1.95734099e-001 2.51799673e-002 5.91960490e-001 6.84749782e-001
      2.77566561e-003 7.34565735e-001 1.40795156e-001 5.39043605e-001
      7.66760558e-002 6.03416972e-002 3.67520005e-001 3.28299582e-001
      6.10107899e-001 1.90780178e-001 2.85770327e-001 8.39980617e-002
      2.30108202e-001 1.43718850e-002 9.62482318e-002 1.14818767e-001
      5.09464085e-001 6.42934501e-001 3.65011960e-001 8.32664892e-002
      4.55641240e-001 5.82711637e-001 1.53206348e-001 8.37093592e-003
      2.56955504e-001 4.78006244e-001 1.42212296e+000 8.51298034e-001
      1.65176764e-001 9.81584013e-001 6.90956771e-001 9.54539180e-002
      5.32728076e-001 7.09141493e-001 1.03511587e-001 3.24465960e-001
      1.52319834e-001 2.93950886e-001 3.82493585e-001 7.07404256e-001
      3.68622750e-001 4.31470275e-001 4.40598756e-001 1.37799323e-001
      6.48867190e-001 1.25115848e+000 2.39319578e-001 1.16039529e-001
      1.86959073e-001 3.15009922e-001 7.64962196e-001 4.49898951e-002
      1.52249649e-001 6.53725088e-001 4.57274541e-002 8.06914866e-001
      1.82244748e-001 4.04114842e-001 3.43883514e-001 9.85390842e-002
      8.26299787e-002 4.50941294e-001 1.01030283e-001 3.30093682e-001
      1.94937840e-001 7.31430113e-001 1.21596408e+000 4.62791950e-001
      1.23996427e-002 2.68119597e-003 5.02021253e-001 4.22837166e-003
      1.09949805e-001 6.47668839e-002 1.35585710e-001 2.26517275e-001
      6.59467936e-001 3.96974593e-001 5.36318719e-002 2.42649287e-001
      8.88398290e-001 2.40698844e-001 4.42117780e-001 1.28365144e-001
      3.06117415e-001 4.55437124e-001 6.60311997e-001 9.38713476e-002
      3.64956439e-001 8.11882257e-001 6.41124368e-001 9.65278596e-002
      4.20519918e-001 8.23154952e-003 3.18616420e-001 1.44416913e-001
      5.83832920e-001 6.23408616e-001 9.13576931e-002 7.91558996e-003
      3.53857070e-001 5.38839877e-001 3.00452739e-001 4.69603211e-001
      7.14257121e-001 4.80867215e-002 3.97739075e-002 3.08388382e-001
      7.91510403e-001 9.19817016e-002 7.24078715e-001 3.25518876e-001
      4.14387465e-001 9.76185873e-002 8.29040766e-001 1.43789183e-002
      4.70078997e-002 3.39305103e-002 1.01904857e+000 4.06706899e-001
      1.76456094e+000 1.40997604e-001 1.12789772e-001 2.39464287e-002
      2.33029947e-001 1.38533998e+000 4.10629779e-001 2.25885451e-001
      2.57887058e-002 1.06014937e-001 2.16203600e-001 4.87632267e-002</_>
    <_>
      1.74492940e-001 3.02223489e-002 4.39094335e-001 3.42992574e-001
      6.61835551e-001 3.71829867e-001 5.40235460e-001 6.91418827e-001
      8.10197741e-003 3.38114738e-001 1.22046924e+000 6.64532483e-001
      3.84505451e-001 1.26848206e-001 2.38287508e-001 4.98382717e-001
      2.38546744e-001 3.78751040e-001 1.30812330e-002 3.23053956e-001
      4.63289946e-001 9.74031985e-002 7.15122521e-002 4.42020446e-002
      4.18383367e-002 3.39470118e-001 2.33868361e-001 3.97186607e-001
      1.13366151e+000 4.59873468e-001 2.95421146e-002 9.91495550e-001
      3.31261382e-002 1.11751094e-001 1.03851534e-001 1.75164305e-002
      4.76313144e-001 2.28450626e-001 4.75837708e-001 1.55874928e-002
      8.82828385e-002 2.90592432e-001 3.00186336e-001 8.24585408e-002
      4.39990073e-001 3.75836551e-001 2.72441179e-001 1.49198294e-001
      3.98320436e-001 2.71840170e-002 2.13818610e-001 1.39183417e-001
      2.46496592e-002 7.88205117e-003 1.09317385e-001 6.71117246e-001
      2.47804135e-001 7.27808118e-001 8.90439868e-001 2.73138225e-001
      3.32517654e-001 4.02100027e-001 2.86892742e-001 5.14076114e-001
      5.05306661e-001 2.01035380e-001 3.58150266e-002 2.06039697e-001
      3.44760805e-001 8.73679668e-002 6.53646737e-002 3.50460380e-001
      6.80441558e-001 1.94973983e-002 1.88841939e-001 4.21953112e-001
      4.17762250e-002 2.99931169e-002 2.97328264e-001 3.38598669e-001
      7.53465891e-001 1.54629633e-001 2.47654133e-002 2.24261120e-001
      4.24183637e-001 5.29415727e-001 9.18103084e-002 1.57753170e-001
      6.64713308e-002 1.25121415e-001 5.73987007e-001 3.75535309e-001
      4.81752791e-002 3.83708596e-001 2.08218005e-002 1.19206429e+000
      4.67419922e-002 5.57693280e-002 1.14286482e-001 3.29918601e-002
      4.97724004e-002 2.52312779e-001 6.61411047e-001 1.13912329e-001
      1.35292733e+000 5.95352054e-001 6.16127020e-003 2.55322248e-001
      1.73440710e-001 5.75983644e-001 5.37676811e-002 2.84017593e-001
      1.44837843e-002 4.30281103e-001 3.86065483e-001 3.29775691e-001
      4.81403857e-001 1.03166066e-001 4.06018823e-001 2.73671716e-001
      6.65464282e-001 3.16173173e-002 7.37718761e-001 2.66427636e-001
      6.16058171e-001 2.77680606e-002 3.31474049e-003 1.58487928e+000
      1.03207983e-001 1.21340930e+000 6.21303916e-001 2.19748169e-001
      1.22748189e-001 2.02551797e-001 3.53702977e-002 6.44030988e-001
      9.06725228e-003 1.00572698e-001 3.28862458e-001 6.81180358e-002
      4.20098528e-002 2.34062925e-001 3.31461519e-001 4.35979009e-001
      6.61206186e-001 3.55133921e-001 6.31954312e-001 1.55938923e-001
      8.85237217e-001 2.03455523e-001 4.76683915e-001 4.34698552e-001
      4.00219679e-001 2.10749224e-001 1.28563806e-001 1.27721187e-002
      2.19336540e-001 2.09000394e-001 7.48837516e-002 1.51902050e-001
      2.06312686e-001 5.52815460e-002 2.51643091e-001 6.32315129e-002
      1.57364950e-001 2.53417846e-002 1.43469441e+000 8.91616344e-001
      3.55913234e-003 1.20392466e+000 1.24005750e-001 5.46113968e-001
      2.46611342e-001 2.87243515e-001 4.37575519e-001 6.11128330e-001
      4.81890082e-001 2.79153109e-001 3.89802098e-001 4.78049994e-001
      2.55267292e-001 1.19564123e-002 6.72251359e-002 1.06219172e-001
      4.07084703e-001 6.51230574e-001 2.66605318e-001 6.92792460e-002
      8.91857088e-001 5.83518267e-001 2.33202875e-001 7.48948054e-003
