<?xml version="1.0"?>
<opencv_storage>
<my_svm type_id="opencv-ml-svm">
  <svm_type>EPS_SVR</svm_type>
  <kernel><type>RBF</type>
    <gamma>6.0240099999999998e-002</gamma></kernel>
  <C>9.7435899999999993e+000</C>
  <p>1.0000000000000001e-001</p>
  <term_criteria><epsilon>4.9999998882412910e-003</epsilon>
    <iterations>2147483647</iterations></term_criteria>
  <var_all>400</var_all>
  <var_count>400</var_count>
  <sv_total>184</sv_total>
  <support_vectors>
    <_>
      2.09573265e-002 9.13643241e-002 3.92094553e-001 2.00108215e-001
      1.56095531e-002 7.67786428e-002 8.72018933e-002 4.50901315e-002
      3.07416823e-002 1.63612768e-001 1.26214278e+000 1.13983922e-001
      8.70935500e-001 1.38797864e-001 6.93032965e-002 1.18175978e-002
      2.18752876e-001 7.68484026e-002 5.24158955e-001 1.41474903e-001
      1.83185327e+000 1.46161810e-001 3.28943618e-002 1.33726573e+000
      1.29722282e-001 8.29879761e-001 1.81539154e+000 4.63701375e-002
      5.00266477e-002 1.32511392e-001 1.88399125e-002 3.65324542e-002
      3.99371535e-002 4.75061163e-002 2.25035891e-001 1.24954581e+000
      7.00706989e-002 8.74285251e-002 1.90172330e-001 1.87211022e-001
      9.74774882e-002 2.00531393e-001 4.88243997e-002 8.55724216e-002
      5.06992592e-003 9.69852321e-003 1.57000050e-001 4.90161814e-002
      1.52625203e-001 3.88301343e-001 3.78008097e-001 1.22626118e-001
      2.42092133e-001 2.87356973e-001 2.29485214e-001 5.16636036e-002
      1.40878662e-001 1.25570014e-001 2.93554723e-001 3.55036587e-001
      5.96769035e-001 1.14289895e-001 1.96385793e-002 3.52978855e-002
      5.73761910e-002 3.26470107e-001 3.15752886e-002 3.58751982e-001
      2.02271459e-003 8.58826101e-001 4.38828655e-002 1.84924509e-002
      1.69459179e-001 5.24072707e-001 5.74984133e-001 2.99450904e-001
      8.37335140e-002 1.75753087e-001 2.11303622e-001 3.81054819e-001
      1.06247164e-001 1.25639029e-002 7.20745847e-002 6.48365021e-001
      2.38698766e-001 2.06410155e-001 5.05321801e-001 2.48485729e-001
      4.33991011e-003 1.07355393e-001 9.39363688e-002 1.61901101e-001
      3.01186126e-002 1.38623729e-001 1.14208087e-002 1.94723047e-002
      3.40579480e-001 2.66432911e-001 1.32622480e-001 1.47419289e-001
      9.27404091e-002 3.56614143e-001 2.71608442e-001 1.46767542e-001
      1.42594278e-001 5.65084582e-003 3.51675689e-001 1.26534954e-001
      1.64477482e-001 8.76902416e-003 6.41212940e-001 1.86932348e-002
      4.38955501e-002 1.89660996e-001 1.39671803e-001 1.74568284e+000
      4.48449254e-001 2.43053064e-002 3.84682119e-002 3.03798486e-002
      5.27843714e-001 4.14459482e-002 1.33931607e-001 1.32116273e-001
      1.99796724e+000 1.85249880e-001 2.09724998e+000 4.50902611e-001
      1.21469483e-001 1.01835057e-001 2.81512458e-003 2.24536687e-001
      2.90908348e-002 1.32700101e-001 9.77663975e-003 3.07702925e-002
      1.56825092e-002 1.77354887e-001 1.25212803e-001 2.72121698e-001
      1.18753977e-001 5.05451998e-003 9.90914367e-003 5.55906832e-001
      1.63375847e-002 2.80483246e-001 1.48728624e-001 1.27125764e-002
      9.80013516e-003 1.99799091e-001 8.09842944e-001 1.75193951e-001
      1.73460066e-001 1.03044704e-001 1.45705298e-001 2.49658767e-002
      8.48803371e-002 2.37436622e-001 8.87360200e-002 6.83268234e-002
      3.87426242e-002 3.02493908e-002 1.47336453e-001 1.04941823e-001
      2.94058304e-002 3.43424752e-002 2.57841498e-001 1.87879473e-001
      3.19080874e-002 2.55199224e-001 3.60375121e-002 1.39001131e-001
      2.97839791e-001 1.13390997e-001 1.95504904e-001 3.46818268e-001
      1.53502762e-001 1.50585651e-001 3.74827161e-002 8.36595073e-002
      7.63616413e-002 5.38677797e-002 2.42977422e-002 5.28560616e-002
      7.28848502e-002 5.49982190e-001 5.07135168e-002 4.95192111e-001
      1.88401610e-001 1.36629462e-001 3.59061301e-001 9.62796658e-002
      2.38408282e-001 6.22866988e-001 4.56164144e-002 4.03804570e-001
      1.88525133e-002 4.31880951e-002 1.00705907e-001 4.69083944e-003
      9.79121983e-001 5.22735834e-001 2.23824680e-001 6.96567819e-002
      1.86868697e-001 7.82840420e-003 1.66878905e-002 8.99249613e-002
      1.80134606e-002 1.46125285e-002 1.69206405e+000 9.05510038e-002
      2.47365728e-001 1.21129408e-001 2.52137691e-001 7.64571428e-002
      1.43528581e+000 2.94051915e-002 1.00934580e-002 2.07640618e-001
      1.33026540e-001 5.85839935e-002 1.28149092e-001 7.10919350e-002
      1.85845137e-001 3.42011452e-001 2.55153272e-002 4.06414047e-002
      8.27655345e-002 4.67570312e-002 3.32566835e-002 4.79323983e-001
      1.84077156e+000 1.57304049e-001 3.89533378e-002 1.12950662e-002
      3.43066379e-002 1.83259085e-001 3.35001200e-001 2.22123787e-001
      7.43331984e-002 5.22104442e-001 1.28493845e-001 3.04583526e+000
      1.04297447e+000 3.82267565e-001 5.65214157e-002 1.02796830e-001
      2.92905630e-003 1.72471087e-002 9.05164033e-002 3.61655772e-001
      1.26384988e-001 2.51520216e-001 1.85540646e-001 1.87210292e-001
      2.51585594e-003 4.08514023e-001 9.38274115e-002 1.23662241e-001
      2.64041960e-001 2.07471102e-001 1.60288453e-001 3.61235231e-001
      3.65383364e-002 3.64897013e-001 1.26200467e-001 2.34989729e-002
      4.59951967e-001 1.68225002e-002 1.67467132e-001 1.85188279e-001
      1.08710861e+000 1.67794436e-001 3.32036279e-002 8.41621578e-001
      3.23076136e-002 1.22685678e-001 9.28136230e-001 3.99440117e-002
      2.16940208e-003 1.13042235e+000 1.00318655e-001 6.23582415e-002
      1.19162217e-001 3.45527716e-002 1.04710430e-001 2.06768643e-002
      2.18219951e-001 3.43955196e-002 1.51291698e-001 2.51054112e-002
      2.28048980e-001 2.94470545e-002 4.30422276e-003 1.12936765e-001
      8.97195265e-002 5.45664802e-002 1.59777582e+000 1.22461222e-001
      7.45210843e-003 4.83765751e-001 3.79104307e-003 5.27259614e-003
      6.71477094e-002 3.53031531e-002 5.09583771e-001 1.92926805e-002
      3.98345292e-003 3.61464103e-003 2.37435460e-001 1.75621018e-001
      6.09695837e-002 2.60757685e-001 7.26558864e-001 2.74646044e-001
      3.59748960e-001 1.40812710e-001 7.54024982e-001 3.83405462e-002
      2.47173756e-001 3.11653495e-001 9.84465629e-002 8.43691304e-002
      5.73320035e-003 4.73289862e-002 3.28696556e-002 4.27729666e-001
      1.42962143e-001 1.21225722e-001 1.12198874e-001 2.43878531e+000
      1.44303711e-002 4.46842313e-002 8.96879062e-002 2.15545413e-003
      2.28516743e-001 1.92288717e-003 2.98554488e-002 7.09664822e-002
      1.79450482e-001 2.83085060e+000 2.97091492e-002 9.41247866e-002
      2.80910045e-001 3.81105691e-001 9.13248360e-002 1.71829209e-001
      1.77261025e-001 3.71214002e-002 1.52555299e+000 6.95176646e-002
      1.37922335e+000 1.20309985e+000 1.67949781e-001 1.78927317e-001
      2.70609674e-003 1.34228453e-001 2.62980461e-002 1.83129683e-001
      1.60073087e-001 1.45514578e-001 1.45345792e-001 1.48725525e-001
      6.55033588e-002 5.19600570e-001 1.53715074e-001 4.70422357e-002
      1.91051170e-001 3.16577256e-002 4.58894186e-002 9.94304046e-002
      8.63973275e-002 2.56006718e-001 1.32792383e-001 1.83794165e+000
      4.55213636e-002 1.28126889e-001 9.62583199e-002 4.41029593e-002
      1.64277051e-002 5.85917458e-002 1.65781170e-001 6.21518195e-001
      1.15572259e-001 5.50132573e-001 5.78087680e-002 2.61260897e-001
      5.09229116e-002 1.26231372e-001 2.11707145e-001 7.82776475e-001
      4.21974696e-002 6.19760513e-001 2.06188068e-001 2.63078153e-001
      1.62485525e-001 3.30343336e-001 4.46400434e-001 2.14727193e-001</_>
    <_>
      2.77120825e-002 9.69315097e-002 3.92076582e-001 2.13539183e-001
      1.69626437e-002 8.42938870e-002 8.03589970e-002 5.00898473e-002
      3.41945067e-002 1.53696209e-001 2.26025999e-001 1.17716759e-001
      1.40401495e+000 2.27896973e-001 7.11683780e-002 1.09410230e-002
      1.55572921e-001 9.13855880e-002 5.55015147e-001 1.36557028e-001
      1.79645717e+000 1.77251980e-001 3.58522348e-002 1.28383207e+000
      2.03490615e-001 8.86515200e-001 1.42783916e+000 4.20653373e-002
      5.87824248e-002 1.03930213e-001 1.99149102e-002 3.37150097e-002
      6.04560636e-002 4.24768291e-002 2.52753377e-001 1.82052100e+000
      6.90254718e-002 9.17192772e-002 1.80231825e-001 1.88064739e-001
      2.07202770e-002 2.18133092e-001 4.93423231e-002 9.48537737e-002
      5.08886576e-003 1.03601273e-002 1.60266235e-001 6.03962317e-002
      2.25144625e-001 4.48595464e-001 7.92283416e-001 1.34171665e-001
      3.22260022e-001 3.17026228e-001 2.10585311e-001 5.91170229e-002
      2.08388850e-001 9.56185386e-002 2.96670288e-001 2.91572243e-001
      6.61483824e-001 9.78731140e-002 2.01593544e-002 3.93839702e-002
      5.54205179e-002 2.00665370e-001 3.02376598e-002 4.22321618e-001
      1.91318255e-003 5.61945677e-001 4.43034135e-002 1.66992508e-002
      1.60547167e-001 4.64046746e-001 5.85672081e-001 3.19687873e-001
      7.58593604e-002 1.97628498e-001 2.08287954e-001 6.25384986e-001
      1.03526779e-001 1.58779278e-001 7.77186677e-002 6.49922490e-001
      2.57586867e-001 1.69238597e-001 5.43043673e-001 2.01366946e-001
      4.34037065e-003 1.05981044e-001 9.56838503e-002 1.70894548e-001
      3.13722156e-002 1.73106387e-001 1.20621733e-002 2.00004205e-002
      4.12167549e-001 2.76411235e-001 1.25579104e-001 2.17278808e-001
      9.20086130e-002 3.50657582e-001 2.66860843e-001 1.80920184e-001
      1.31767035e-001 5.84081747e-003 2.80277103e-001 2.24496663e-001
      1.87381566e-001 9.49954335e-003 1.47981167e-001 1.17440492e-001
      5.84266745e-002 2.13924333e-001 2.83574499e-002 1.44749594e+000
      4.20240462e-001 2.45439708e-002 8.48027021e-002 3.40739936e-002
      5.29708147e-001 5.00725657e-002 1.32949099e-001 5.65347314e-001
      2.17718339e+000 1.77721098e-001 2.17412734e+000 3.97284210e-001
      1.38181061e-001 9.60379690e-002 3.29172122e-003 2.46021867e-001
      3.10400296e-002 1.36956364e-001 1.10468492e-002 3.31596658e-002
      1.91902239e-002 1.74555212e-001 1.06577627e-001 4.69149739e-001
      1.27250090e-001 5.09839226e-003 9.80455521e-003 1.57493636e-001
      1.68435927e-002 1.95074886e-001 1.29369318e-001 1.54106328e-002
      1.03318980e-002 2.39356995e-001 1.12359262e+000 1.70641452e-001
      1.71410635e-001 1.13676138e-001 1.56787515e-001 2.44254190e-002
      8.24336335e-002 2.62138873e-001 1.37575209e-001 6.81293383e-002
      3.29312831e-002 3.04149799e-002 1.56159073e-001 1.22188367e-001
      2.92117838e-002 3.45487818e-002 2.97059566e-001 2.05864489e-001
      1.47777542e-001 1.50725067e-001 4.07338999e-002 1.18741855e-001
      3.37425232e-001 1.31020814e-001 1.96351811e-001 4.22820933e-002
      1.79709151e-001 1.73632160e-001 4.15420868e-002 7.84188807e-002
      7.46295899e-002 5.52861243e-002 2.18763258e-002 6.39323965e-002
      8.36912096e-002 1.32886755e+000 2.30243113e-002 5.06002665e-001
      2.00414762e-001 2.20385462e-001 4.88525629e-001 2.57768482e-001
      1.47944033e-001 1.28368109e-001 1.02289449e-002 4.28549260e-001
      2.19183806e-002 5.08451052e-002 8.51536542e-002 4.99807904e-003
      6.72368824e-001 4.55225289e-001 2.49909833e-001 1.18931100e-001
      1.71204314e-001 8.37271009e-003 1.60329901e-002 1.04435667e-001
      1.94482692e-002 1.67220701e-002 4.91739154e-001 9.37509760e-002
      2.24100992e-001 1.35999754e-001 2.22612336e-001 7.57907555e-002
      9.12650168e-001 4.60714614e-003 1.13346577e-002 2.16380030e-001
      1.44615591e-001 5.75430878e-002 3.19990180e-002 8.26387927e-002
      1.85782850e-001 3.46348852e-001 5.49623556e-002 4.46473695e-002
      9.06155854e-002 4.84137014e-002 3.44641805e-002 5.39912879e-001
      1.36624897e+000 1.72533408e-001 3.56169045e-002 9.98427160e-003
      3.97349596e-002 1.87922969e-001 3.50665182e-001 1.64405048e-001
      7.95425698e-002 5.18476784e-001 2.27125287e-001 2.82483029e+000
      1.22870290e+000 4.05783206e-001 8.18818063e-002 8.83989111e-002
      3.46030178e-003 1.66469254e-002 8.92842412e-002 3.30171734e-001
      1.08587235e-001 3.03579956e-001 2.02301845e-001 2.96327412e-001
      2.96858395e-003 4.66452509e-001 1.04822986e-001 1.19176172e-001
      2.86326647e-001 2.24235758e-001 2.03949973e-001 4.03444290e-001
      3.91603708e-002 3.95467579e-001 1.25966251e-001 2.48099063e-002
      4.79701638e-001 1.88903082e-002 1.44058451e-001 2.09973231e-001
      9.26476538e-001 1.16288908e-001 3.71645205e-002 7.27385998e-001
      6.14771917e-002 1.34248376e-001 3.47130656e-001 5.66058867e-002
      2.14843359e-003 1.04117298e+000 1.15077570e-001 6.00400418e-002
      1.15187578e-001 1.13190589e-002 1.38961405e-001 2.17116103e-002
      2.71883547e-001 4.36436273e-002 1.89550176e-001 2.63078548e-002
      2.45962471e-001 3.17881256e-002 3.85460863e-003 1.05780073e-001
      8.82123932e-002 5.71284220e-002 8.91449690e-001 1.21020429e-001
      8.06485675e-003 5.10717213e-001 3.98358423e-003 5.28735528e-003
      7.11731911e-002 4.29974794e-002 5.10870039e-001 1.81855541e-002
      3.62133351e-003 3.75278830e-003 2.27650598e-001 1.85069993e-001
      5.39146923e-002 3.01909804e-001 7.12632477e-001 2.97229946e-001
      3.68180096e-001 1.33909211e-001 4.66528684e-001 3.78323160e-002
      2.48141378e-001 3.82013500e-001 1.05010919e-001 8.75406936e-002
      5.79253631e-003 4.87840064e-002 3.16929184e-002 3.82182509e-001
      1.36067703e-001 1.19958505e-001 1.49513930e-001 2.15300226e+000
      1.84606165e-002 5.18044122e-002 1.28035769e-001 2.10315664e-003
      2.48513296e-001 1.87104056e-003 3.26690115e-002 7.77706355e-002
      1.88547924e-001 3.00855327e+000 3.34597602e-002 1.91078316e-002
      2.38307372e-001 3.69034827e-001 9.30566341e-002 1.37013361e-001
      1.05188400e-001 4.12577577e-002 1.62349939e+000 1.18435182e-001
      9.86429513e-001 1.46341324e+000 3.01031321e-001 2.29083300e-001
      2.70251418e-003 1.37739927e-001 2.77034771e-002 2.13617176e-001
      1.48155212e-001 1.53074503e-001 1.50088862e-001 1.52338296e-001
      5.84334135e-002 5.14360368e-001 2.80134410e-001 1.25993555e-002
      2.01398283e-001 3.36361453e-002 4.78509031e-002 9.49191079e-002
      1.35369182e-001 2.54175931e-001 1.61696851e-001 1.82953489e+000
      4.44646850e-002 1.37988523e-001 1.27553150e-001 4.68260124e-002
      1.69142541e-002 7.19606727e-002 1.54749349e-001 5.12022436e-001
      1.03862107e-001 1.29121912e+000 7.17462078e-002 2.35126317e-001
      4.92629632e-002 1.12573288e-001 2.41895735e-001 5.32818437e-001
      4.00531553e-002 6.04227424e-001 2.78376132e-001 3.46825421e-001
      2.18802124e-001 3.23833346e-001 4.48821455e-001 2.19055027e-001</_>
    <_>
      2.48117875e-002 9.82314795e-002 4.03765738e-001 2.13584542e-001
      1.65904984e-002 8.66549984e-002 8.59698281e-002 5.11222407e-002
      3.28502581e-002 1.68297768e-001 3.65770757e-001 1.14519298e-001
      9.33504105e-001 2.03105912e-001 6.39813393e-002 1.79642178e-002
      2.04428494e-001 8.13647211e-002 5.26535213e-001 1.33847341e-001
      1.85891080e+000 1.67245626e-001 3.42864729e-002 1.36900973e+000
      1.81661144e-001 9.01160121e-001 1.51820099e+000 5.87162077e-002
      5.35478368e-002 1.01651609e-001 2.02233437e-002 3.62704471e-002
      4.64951806e-002 4.69186828e-002 2.46365324e-001 1.65694702e+000
      7.22414479e-002 8.81087631e-002 2.10360095e-001 1.94401518e-001
      2.87431832e-002 2.08808556e-001 5.03993817e-002 1.02065854e-001
      5.22838626e-003 1.04394415e-002 1.64575905e-001 5.49919792e-002
      1.60746843e-001 4.01564270e-001 4.66985703e-001 1.34363145e-001
      2.87671775e-001 3.21555644e-001 2.24320948e-001 5.38045540e-002
      1.42674193e-001 1.56823710e-001 2.77089089e-001 3.74875605e-001
      6.38949811e-001 1.23073339e-001 2.00059116e-002 3.95525992e-002
      5.73968813e-002 1.96915373e-001 3.04266158e-002 3.97736549e-001
      1.99244730e-003 9.44573998e-001 4.62291129e-002 1.59955379e-002
      1.62522510e-001 5.35499990e-001 5.35875320e-001 3.17972273e-001
      7.80297220e-002 1.80664167e-001 2.24505484e-001 5.55418193e-001
      9.81719643e-002 4.17682864e-002 8.19162801e-002 7.64451385e-001
      2.71257669e-001 2.08866686e-001 5.42983770e-001 2.46440440e-001
      4.56286594e-003 1.10046297e-001 9.60573182e-002 1.63764685e-001
      3.06255799e-002 1.57782122e-001 1.21773789e-002 2.99291294e-002
      3.74026179e-001 2.80271739e-001 1.42525360e-001 1.65894061e-001
      9.82196853e-002 3.84441584e-001 3.20868939e-001 1.75456882e-001
      1.47808999e-001 5.57622220e-003 3.21483910e-001 1.83269411e-001
      1.68860555e-001 9.05348267e-003 2.06261650e-001 4.26262207e-002
      4.98914383e-002 1.90671995e-001 3.23759764e-002 1.60859513e+000
      5.07641733e-001 2.63801813e-002 1.40974641e-001 3.35326716e-002
      5.09995282e-001 4.81504686e-002 1.28548205e-001 4.65523243e-001
      1.97286737e+000 1.91694319e-001 2.18811417e+000 4.96263176e-001
      1.40089691e-001 1.12819701e-001 3.24597419e-003 2.27702409e-001
      3.02135423e-002 1.38386831e-001 1.09483423e-002 3.23938504e-002
      2.66652126e-002 1.83287084e-001 1.16807297e-001 4.01537657e-001
      1.25574276e-001 5.19434875e-003 1.00008296e-002 2.05554605e-001
      1.74680334e-002 2.86769181e-001 1.33566365e-001 1.48469238e-002
      1.09918378e-002 2.14055642e-001 8.48959565e-001 1.84986174e-001
      1.90943733e-001 1.01579592e-001 1.55874595e-001 2.34951414e-002
      8.02445710e-002 2.45056227e-001 9.36671123e-002 7.23038614e-002
      4.89919707e-002 2.97653768e-002 1.45687193e-001 1.12521395e-001
      3.05491816e-002 3.61267105e-002 2.73963869e-001 2.23595679e-001
      5.84922135e-002 1.43342838e-001 4.04848233e-002 1.30520597e-001
      3.18662673e-001 1.10203646e-001 2.14491323e-001 6.97993338e-002
      1.91312596e-001 1.68413490e-001 4.20045592e-002 8.07676390e-002
      8.08870643e-002 5.54700233e-002 2.39579957e-002 6.35566041e-002
      8.15147609e-002 1.34810102e+000 2.59478856e-002 4.81739163e-001
      1.90118283e-001 2.07355365e-001 4.40750420e-001 1.84875131e-001
      2.21991509e-001 1.88079685e-001 1.39748268e-002 5.03033459e-001
      2.15573944e-002 4.61713932e-002 9.09245387e-002 4.74351086e-003
      6.56801045e-001 4.49506044e-001 2.38700375e-001 7.13371187e-002
      1.94339246e-001 7.66715873e-003 1.61521677e-002 1.32210582e-001
      1.79243386e-002 1.59953441e-002 6.38573945e-001 9.54904407e-002
      2.37610608e-001 1.27640143e-001 2.44974658e-001 7.58354440e-002
      1.56190908e+000 6.89436821e-003 9.71163064e-003 2.26501852e-001
      1.42035410e-001 6.43788204e-002 4.16856371e-002 8.29168335e-002
      1.96483955e-001 3.07128698e-001 3.15321684e-002 4.46353741e-002
      9.35478434e-002 4.91209142e-002 3.47079337e-002 5.24163246e-001
      1.90560937e+000 2.16981456e-001 3.77624147e-002 7.83749484e-003
      3.70687805e-002 1.82338193e-001 3.64286602e-001 1.81135848e-001
      7.54875541e-002 5.27954519e-001 2.15169698e-001 2.94747686e+000
      1.00746334e+000 3.66870224e-001 7.27425590e-002 9.02611241e-002
      3.27498768e-003 1.65204071e-002 9.07415152e-002 2.97985375e-001
      1.10149585e-001 2.57907480e-001 1.99888229e-001 2.32060626e-001
      2.92449840e-003 4.26570535e-001 9.32224467e-002 1.29416376e-001
      2.82102257e-001 2.09083915e-001 1.73986867e-001 3.55674326e-001
      3.91889773e-002 4.20889378e-001 1.27283499e-001 2.39806809e-002
      4.87556487e-001 1.79430563e-002 1.56395584e-001 1.97636008e-001
      1.05738902e+000 1.58171281e-001 3.46079729e-002 7.90807605e-001
      4.97881435e-002 1.27701744e-001 4.29626018e-001 4.81786393e-002
      2.07018107e-003 1.08119249e+000 1.12456746e-001 6.12876341e-002
      1.19128488e-001 1.35217672e-002 1.12945311e-001 2.14408208e-002
      2.28597760e-001 4.02513929e-002 2.16190591e-001 2.51513943e-002
      2.43452936e-001 3.16414647e-002 4.10854165e-003 1.16292745e-001
      8.73027071e-002 5.74404523e-002 9.53553557e-001 1.26318142e-001
      5.88126248e-003 4.69476134e-001 4.21320274e-003 5.42720966e-003
      7.31030554e-002 3.89917977e-002 5.43405652e-001 1.87485274e-002
      3.85266729e-003 3.74760083e-003 2.50657916e-001 2.03079745e-001
      6.80726320e-002 2.67934322e-001 6.70085669e-001 3.05178344e-001
      3.71388584e-001 1.37666166e-001 8.51618886e-001 3.86918262e-002
      2.66943097e-001 3.35263371e-001 1.03431903e-001 8.53544399e-002
      5.86100342e-003 4.95682433e-002 3.26923318e-002 4.68739510e-001
      1.48126334e-001 1.25064492e-001 1.33869186e-001 2.04118800e+000
      1.38252685e-002 5.21469042e-002 1.08533397e-001 2.03920086e-003
      2.46295244e-001 1.88500818e-003 3.22509967e-002 7.49675035e-002
      1.80462152e-001 3.03065491e+000 3.17425951e-002 2.67092306e-002
      2.87204683e-001 4.03275907e-001 9.52002853e-002 1.84773415e-001
      1.70818552e-001 4.15970199e-002 1.45767093e+000 9.30290222e-002
      1.42733848e+000 1.14246809e+000 4.76315826e-001 1.96025372e-001
      2.65385304e-003 1.37959421e-001 2.85751093e-002 1.87360749e-001
      1.78265378e-001 1.29291683e-001 1.57503784e-001 1.65783539e-001
      6.15406781e-002 5.26349068e-001 2.74688095e-001 1.62935499e-002
      2.13527665e-001 3.20488922e-002 4.83989008e-002 1.02484018e-001
      1.06181882e-001 2.65843719e-001 1.72960684e-001 1.99700928e+000
      4.89949174e-002 1.29251525e-001 1.15922906e-001 4.64253798e-002
      1.75607204e-002 6.73533604e-002 1.67181090e-001 6.70447230e-001
      1.17057562e-001 1.28410137e+000 6.52036592e-002 2.73548245e-001
      5.36854528e-002 1.30989030e-001 2.28712216e-001 6.82383776e-001
      4.23849635e-002 6.76149905e-001 2.58156210e-001 3.11848074e-001
      1.83461934e-001 3.61489654e-001 4.61772650e-001 2.50232458e-001</_>
    <_>
      3.03709693e-002 8.69857296e-002 3.81402552e-001 2.69790709e-001
      1.51266390e-002 8.74118134e-002 5.97065836e-002 4.19489630e-002
      2.99059972e-002 1.84591040e-001 3.24081630e-001 1.61869437e-001
      7.38887310e-001 3.13018173e-001 1.01026416e-001 7.44570512e-003
      1.92945421e-001 1.38010219e-001 4.58920836e-001 2.10616633e-001
      1.30907691e+000 1.81850955e-001 3.55043560e-002 7.70568967e-001
      1.96426272e-001 4.61168259e-001 8.46005082e-001 3.03021483e-002
      5.14970161e-002 1.02642752e-001 1.98421516e-002 3.27713490e-002
      7.74137825e-002 3.85197327e-002 1.22335576e-001 1.30252016e+000
      6.74755946e-002 8.05919394e-002 1.11347705e-001 1.32399499e-001
      1.98244564e-002 1.74113825e-001 3.94407213e-002 1.10345349e-001
      4.95529361e-003 7.37719843e-003 1.73697218e-001 6.20012470e-002
      1.10159159e-001 3.77650291e-001 3.29022288e-001 1.13638945e-001
      2.87149459e-001 3.20130408e-001 1.13577366e-001 4.59577776e-002
      1.79750279e-001 5.30909784e-002 2.52823144e-001 2.79857904e-001
      5.96965730e-001 1.11487903e-001 1.96399596e-002 2.23003644e-002
      5.18538468e-002 1.86170846e-001 2.68687531e-002 4.08875376e-001
      1.44136150e-003 1.37624279e-001 4.98480313e-002 1.77730341e-002
      9.51230600e-002 1.29134998e-001 3.28876227e-001 4.56356317e-001
      8.44521001e-002 1.96101904e-001 1.67265147e-001 2.10205257e-001
      1.37771279e-001 1.22068711e-002 6.88163936e-002 2.11880133e-001
      1.49471045e-001 4.25913125e-001 4.41987991e-001 7.86138177e-002
      3.87652521e-003 1.26057759e-001 1.02617934e-001 2.04781890e-001
      2.15146616e-002 1.90512016e-001 9.27045569e-003 1.35731176e-002
      3.49173635e-001 2.25897014e-001 9.25730243e-002 3.06614339e-001
      1.35902494e-001 4.64839309e-001 1.46545261e-001 2.02680901e-001
      1.61722183e-001 4.38930653e-003 3.86682987e-001 2.70299643e-001
      1.43115327e-001 6.88827457e-003 1.39204875e-001 1.44921020e-002
      2.85358392e-002 2.00873241e-001 5.43053746e-002 8.26166391e-001
      1.35169730e-001 1.85342003e-002 6.02500774e-002 4.89161089e-002
      6.35187030e-001 3.27144861e-002 1.02978587e-001 2.48919666e-001
      2.12788773e+000 1.36628062e-001 1.98090565e+000 4.01549935e-001
      1.19671963e-001 1.62668601e-001 3.37917753e-003 8.45904872e-002
      3.46065983e-002 1.26371890e-001 9.65882838e-003 3.59560028e-002
      1.25592863e-002 2.08581626e-001 9.30800959e-002 1.62324905e-001
      1.12245038e-001 4.92981076e-003 1.05895493e-002 1.26198217e-001
      9.49119870e-003 1.97233036e-001 1.47136107e-001 1.11437393e-002
      1.00585120e-002 2.09974617e-001 8.01985204e-001 2.68331647e-001
      7.52279535e-002 1.39717892e-001 1.49399713e-001 3.54617350e-002
      7.32882246e-002 1.84447840e-001 9.28656161e-002 6.31114244e-002
      2.42607053e-002 2.59878431e-002 1.14056140e-001 1.58704266e-001
      2.34435219e-002 5.52602336e-002 2.79912949e-001 2.35168532e-001
      2.83931009e-002 1.62320763e-001 3.82571481e-002 1.11283146e-001
      2.83915013e-001 1.41181871e-001 1.58366680e-001 5.43685742e-002
      1.80072635e-001 1.59515545e-001 2.33070720e-002 7.24301860e-002
      1.22207880e-001 5.02307452e-002 2.58887205e-002 4.15631086e-002
      8.12028721e-002 1.21257269e+000 1.45579157e-002 3.79175931e-001
      1.37591705e-001 2.81172037e-001 1.59548491e-001 1.49786219e-001
      1.91128075e-001 1.29473627e-001 8.85500479e-003 2.40451932e-001
      1.82636846e-002 3.32191139e-002 7.91989714e-002 4.55154106e-003
      4.76377755e-001 2.91845322e-001 2.54445493e-001 1.01789743e-001
      1.19236089e-001 5.87480050e-003 2.06487328e-002 8.78182650e-002
      1.49553558e-002 1.69245917e-002 6.29816175e-001 1.15618393e-001
      1.73025191e-001 1.21341988e-001 2.04252586e-001 7.04405755e-002
      5.94730616e-001 5.74101182e-003 8.54453072e-003 1.83141336e-001
      1.17327169e-001 5.68624772e-002 2.67019644e-002 4.27076742e-002
      1.27713084e-001 2.91742176e-001 6.37169629e-002 4.24417183e-002
      9.43939090e-002 3.15153748e-002 3.11250743e-002 2.16141522e-001
      3.42742145e-001 2.65966177e-001 3.86589393e-002 3.79812112e-003
      4.11415175e-002 2.07420781e-001 5.49027264e-001 3.01707834e-001
      5.85935339e-002 5.06064296e-001 2.52243072e-001 1.10463619e+000
      6.89554155e-001 5.14953732e-001 3.54451612e-002 9.93151516e-002
      4.14183037e-003 2.16237251e-002 9.28804651e-002 2.70270973e-001
      9.10253674e-002 2.23497435e-001 2.08550379e-001 4.00584698e-001
      3.16667068e-003 4.36880469e-001 1.06553182e-001 6.02973849e-002
      2.64966220e-001 1.92902952e-001 3.04106385e-001 4.42238867e-001
      3.79669592e-002 4.93556023e-001 9.52924415e-002 2.42042691e-002
      5.20813704e-001 1.83004364e-002 1.44815490e-001 2.07284242e-001
      7.62391806e-001 2.93034196e-001 4.01296951e-002 3.35912526e-001
      2.80306358e-002 5.33954464e-002 2.82020628e-001 2.94840541e-002
      1.92692410e-003 1.01920474e+000 8.04429948e-002 5.24154082e-002
      7.40838647e-002 8.13209452e-003 1.67641371e-001 1.83113609e-002
      3.62367988e-001 4.92001697e-002 2.05273211e-001 2.21652184e-002
      2.37932488e-001 2.49942541e-002 3.37713072e-003 8.53117481e-002
      7.88330659e-002 5.98331206e-002 7.62951016e-001 1.40883029e-001
      6.01320947e-003 5.07255077e-001 3.23633826e-003 5.15807141e-003
      3.90830897e-002 4.17610444e-002 5.81332982e-001 1.73068326e-002
      3.44099198e-003 4.06131707e-003 1.23399571e-001 1.86028168e-001
      6.56160638e-002 4.29829419e-001 7.83823431e-001 1.95261270e-001
      4.74431425e-001 1.09692901e-001 3.16029876e-001 3.50679122e-002
      1.44494176e-001 3.37313712e-001 1.91905618e-001 7.15090185e-002
      5.58892870e-003 3.17734592e-002 2.90991962e-002 3.46705139e-001
      1.33964032e-001 8.88726339e-002 1.99682012e-001 1.90146041e+000
      1.93777829e-002 2.50080228e-002 1.67629570e-001 1.91439001e-003
      2.25279123e-001 1.52340659e-003 2.48617139e-002 7.07262456e-002
      2.69378990e-001 1.52399135e+000 3.59940752e-002 1.85563453e-002
      4.44987297e-001 2.63596386e-001 8.32782462e-002 2.07090899e-001
      6.83037713e-002 2.35153604e-002 1.19091964e+000 5.82907684e-002
      7.01737344e-001 9.87594962e-001 2.32175887e-001 3.31337005e-001
      2.16975133e-003 1.52648613e-001 2.37289462e-002 2.05016211e-001
      1.59504369e-001 3.37322712e-001 1.03207722e-001 1.42756477e-001
      7.49448910e-002 5.01019001e-001 2.49373913e-001 9.78843868e-003
      2.16329634e-001 3.73680964e-002 3.92088220e-002 6.31355718e-002
      1.28110304e-001 1.36621267e-001 1.58140004e-001 5.46157062e-001
      4.23133411e-002 1.06794953e-001 8.55141059e-002 3.92054953e-002
      9.54555441e-003 3.53028774e-002 1.64184779e-001 5.33714473e-001
      1.07079864e-001 1.08073449e+000 3.92160565e-002 2.23437265e-001
      4.06106301e-002 2.26164326e-001 2.15442091e-001 6.03170216e-001
      3.91424075e-002 5.96793652e-001 1.84443921e-001 3.00986916e-001
      2.68444091e-001 2.74267107e-001 4.18662518e-001 1.19087815e-001</_>
    <_>
      4.83417176e-002 7.93610454e-001 3.46634221e+000 2.36449465e-001
      9.13158804e-002 1.75776452e-001 6.94214329e-002 1.16503462e-001
      1.38997406e-001 1.72517288e+000 1.20697372e-001 4.94741529e-001
      9.07404125e-001 4.07418013e+000 4.51422520e-002 4.17475123e-003
      1.14478886e+000 2.32706740e-001 8.69889557e-001 9.90235507e-002
      7.97755778e-001 1.90743446e+000 1.89588442e-001 8.60741913e-001
      2.78510809e-001 1.94261819e-001 1.27190673e+000 3.65727320e-002
      1.60589004e+000 1.48151889e-001 5.61104789e-002 2.42627308e-001
      1.44783020e-001 3.00508916e-001 1.92703918e-001 1.77122986e+000
      1.54558107e-001 6.49303257e-001 2.90470695e+000 1.41740963e-001
      2.43620742e-002 2.63028920e-001 1.17009424e-001 2.16692507e-001
      1.72662009e-002 2.43063401e-002 1.77681789e-001 5.50981104e-001
      5.27410209e-001 3.76296461e-001 2.22855210e+000 5.20965278e-001
      1.68082035e+000 2.78857207e+000 6.31318018e-002 8.65136087e-001
      6.02281809e-001 8.75437111e-002 1.66743720e+000 1.18390143e+000
      1.85638011e+000 1.49457395e+000 7.27864429e-002 4.27727848e-002
      2.13809475e-001 9.54312384e-002 5.25798798e-002 1.69827008e+000
      7.10016815e-003 1.68247402e-001 1.21181339e-001 2.11604219e-002
      5.59526384e-001 4.12589431e-001 4.40222472e-001 2.99234271e+000
      8.56690407e-001 6.51370049e-001 8.81163836e-001 6.69893205e-001
      1.10667340e-001 1.63687170e-001 7.36304820e-001 1.43905327e-001
      4.20750618e-001 1.04758990e+000 1.62592757e+000 7.33264759e-002
      8.19953065e-003 1.43460214e-001 4.00509268e-001 5.40823400e-001
      2.85080135e-001 7.66664982e-001 2.57994700e-002 1.20442351e-002
      1.44646132e+000 1.32071137e+000 1.10256054e-001 1.30660757e-001
      2.45788291e-001 8.65040958e-001 1.30259186e-001 4.90471423e-001
      1.07753173e-001 2.52178591e-002 5.50909162e-001 2.91398454e+000
      8.40481043e-001 3.07911765e-002 5.24519719e-002 2.15356216e-001
      2.37972483e-001 2.34094113e-001 5.70421703e-002 1.96738765e-001
      3.05044591e-001 6.67098165e-002 1.96180325e-002 2.28625163e-001
      3.32466066e-001 2.77206600e-001 3.89584124e-001 6.91788733e-001
      7.83600092e-001 1.35329038e-001 5.45717239e-001 1.44155502e+000
      1.77890718e-001 5.00955701e-001 1.75496861e-002 8.46021891e-001
      2.05235392e-001 6.60880327e-001 4.53435816e-002 1.74352318e-001
      2.39919182e-002 2.74535954e-001 6.72988057e-001 4.56230402e-001
      2.32139185e-001 1.70024242e-002 6.02392443e-002 7.32870772e-002
      2.50880718e-002 1.59863389e+000 2.09217429e-001 8.80212188e-002
      3.00915297e-002 8.61460716e-002 3.19783419e-001 2.16479754e+000
      2.84272861e+000 1.34893641e-001 1.16638923e+000 3.28691095e-001
      1.56727761e-001 1.91743538e-001 7.89878726e-001 1.40963018e-001
      3.57617773e-002 8.32587779e-002 2.78215468e-001 1.59607306e-001
      1.60862029e-001 8.85951966e-002 9.25653279e-001 1.79982746e+000
      2.27287978e-001 9.09773409e-002 2.45609462e-001 5.29512405e-001
      1.09287751e+000 1.28037202e+000 2.39987111e+000 4.56375591e-002
      5.49745977e-001 5.76793313e-001 4.99591306e-002 4.01130855e-001
      8.71394873e-002 1.28536239e-001 6.69581862e-003 1.39794028e+000
      4.21568722e-001 1.99224174e+000 4.16841879e-002 1.44405675e+000
      1.46706417e-001 3.88003635e+000 5.14024615e-001 5.44675708e-001
      2.15356612e+000 5.47809675e-002 6.88429177e-003 1.48094475e+000
      1.07677646e-001 4.50070232e-001 3.96308780e-001 4.59402315e-002
      4.31090534e-001 2.15675998e+000 3.99382353e-001 3.96762118e-002
      5.99749684e-002 2.95814723e-002 2.04027444e-002 3.16658527e-001
      1.08510211e-001 4.47544679e-002 3.20052505e-001 9.68904793e-001
      1.03132868e+000 7.59631217e-001 2.09499791e-001 5.94925761e-001
      3.56816411e-001 6.98558660e-003 2.91083269e-002 2.92252231e+000
      9.16276932e-001 3.91073257e-001 2.36248374e-002 1.33436948e-001
      1.34262934e-001 2.07197949e-001 1.76373616e-001 2.52991915e-001
      7.38033950e-001 6.45821244e-002 2.27706715e-001 3.14452678e-001
      3.01108778e-001 1.86914957e+000 1.20243996e-001 1.28337666e-002
      2.10208386e-001 4.10121471e-001 2.20540428e+000 3.27122271e-001
      9.81075168e-001 1.37756383e+000 9.36051548e-001 7.17977762e-001
      3.02678078e-001 2.46635437e+000 1.80641949e-001 9.05940682e-002
      1.63387656e-002 2.05448400e-002 6.92838490e-001 1.74872935e-001
      1.81853980e-001 3.55950683e-001 4.80714649e-001 3.57048750e+000
      1.75677221e-002 1.86357617e+000 7.06651032e-001 3.58622074e-002
      3.92974019e+000 4.06798661e-001 9.01263803e-002 2.71736056e-001
      2.36674875e-001 1.46017694e+000 4.27314252e-001 6.22164980e-002
      3.14028531e-001 7.11843297e-002 1.27365994e+000 4.31563169e-001
      1.53351998e+000 1.72079933e+000 2.44748160e-001 1.96720198e-001
      1.08933723e+000 1.04387335e-001 1.78161964e-001 1.89757004e-001
      8.09180550e-003 1.16670442e+000 3.12359333e+000 1.32324696e-001
      1.16844796e-001 1.17954081e-002 7.70786047e-001 7.74157047e-002
      1.13339925e+000 2.24855036e-001 5.74200332e-001 1.23943999e-001
      5.43168187e-001 7.06940293e-002 7.44984346e-003 1.71981022e-001
      1.68609276e-001 1.75482184e-001 4.95664924e-001 3.03712428e-001
      7.00986153e-003 5.61554909e-001 2.07092855e-002 1.70962680e-002
      1.02072835e-001 1.91494152e-001 1.37112212e+000 8.03314671e-002
      4.25433256e-002 2.70116720e-002 4.21244912e-002 4.93039340e-001
      8.51505458e-001 1.38194740e+000 3.82392615e-001 9.77716148e-001
      9.37692225e-001 4.39294219e-001 3.14592928e-001 3.29266757e-001
      2.41164303e+000 3.28216243e+000 1.69081360e-001 6.98420942e-001
      1.61160342e-002 7.21725225e-002 1.09062083e-001 4.53206629e-001
      6.54088676e-001 9.91169363e-002 8.67167294e-001 1.61854517e+000
      2.13561878e-002 5.17688468e-002 7.74479687e-001 8.42582155e-003
      6.08006060e-001 8.87494255e-003 6.46258444e-002 2.10637763e-001
      4.07842964e-001 3.44073623e-001 1.73412800e-001 2.48117503e-002
      8.69179964e-001 1.05590284e-001 5.84346592e-001 1.56792653e+000
      2.45292753e-001 5.30440249e-002 3.09078157e-001 5.05735219e-001
      3.22522759e-001 5.84518611e-001 3.29693437e-001 7.82580227e-002
      8.45122989e-003 4.07110125e-001 2.23116502e-001 6.15516007e-001
      8.80453959e-002 2.53975868e-001 1.03827596e+000 1.04067728e-001
      8.39965105e-001 1.20593226e+000 6.46556377e-001 9.67282150e-003
      1.72328234e+000 2.12304771e-001 1.43784940e-001 2.88586020e-002
      8.18057895e-001 1.64585605e-001 6.34994626e-001 6.43754840e-001
      5.96666873e-001 2.47322172e-001 1.01174042e-001 1.95824489e-001
      2.73001976e-002 2.71813393e-001 7.73787260e-001 1.87862468e+000
      9.19288218e-001 1.90707064e+000 1.24880515e-001 4.54115540e-001
      6.13201335e-002 3.37119651e+000 1.23325026e+000 9.85590816e-001
      3.01477551e-001 2.32585406e+000 2.42559835e-001 1.83740759e+000
      1.47340548e+000 2.13945389e-001 1.14511073e+000 2.00851515e-001</_>
    <_>
      1.65606961e-002 8.98043588e-002 4.03404832e-001 2.25479111e-001
      1.47085777e-002 8.19790587e-002 7.83994496e-002 4.65207435e-002
      3.14686149e-002 1.27687603e-001 1.21872592e+000 1.27303660e-001
      8.13581944e-001 2.27719963e-001 8.40229094e-002 7.84775522e-003
      1.58859059e-001 8.51152763e-002 5.17948389e-001 1.38381884e-001
      1.62537003e+000 1.54012308e-001 3.67675349e-002 1.32835650e+000
      1.18091308e-001 6.69113457e-001 1.34025121e+000 2.21484136e-002
      5.31112775e-002 1.06611826e-001 1.83735546e-002 3.54452655e-002
      4.12044451e-002 4.60095853e-002 2.01895267e-001 1.14488685e+000
      6.96901381e-002 9.60231572e-002 1.85699657e-001 1.71777338e-001
      9.61498022e-002 1.96289256e-001 4.72867861e-002 1.08794354e-001
      4.84820781e-003 8.05824623e-003 1.62435964e-001 4.71001863e-002
      1.16421752e-001 4.86577690e-001 5.31599879e-001 1.29383817e-001
      2.25956231e-001 2.66048849e-001 2.13233024e-001 4.92550209e-002
      1.34259596e-001 4.12861146e-002 2.79471219e-001 2.65644252e-001
      5.62301695e-001 1.12674043e-001 2.09070258e-002 2.37338431e-002
      5.74131459e-002 4.13530886e-001 3.05779260e-002 3.43978733e-001
      1.81563618e-003 1.11117110e-001 4.57579941e-002 1.82540026e-002
      1.35115787e-001 3.12772810e-001 5.48394620e-001 3.16551685e-001
      5.78343235e-002 2.10768804e-001 1.94288820e-001 3.21000606e-001
      1.20967947e-001 2.15705819e-002 8.19243789e-002 5.04142344e-001
      2.16574281e-001 2.25936174e-001 5.16005874e-001 1.42083734e-001
      4.37011383e-003 1.07928671e-001 9.95614529e-002 1.90388024e-001
      2.67829243e-002 1.84412077e-001 1.09809330e-002 1.37358187e-002
      3.35144013e-001 2.53846347e-001 7.42284209e-002 2.20434815e-001
      7.75623098e-002 3.84464562e-001 1.81972101e-001 1.93549663e-001
      1.59862459e-001 4.85065067e-003 3.28078181e-001 2.54295439e-001
      1.57244563e-001 7.89538957e-003 6.04902506e-001 2.17902865e-002
      4.08096127e-002 1.91285610e-001 1.79507509e-001 1.58693051e+000
      1.33077487e-001 2.12195572e-002 6.81137070e-002 3.73588949e-002
      5.74951470e-001 4.06396315e-002 1.32009029e-001 1.18740037e-001
      2.26948428e+000 1.54210567e-001 2.26932883e+000 3.62537831e-001
      1.28104255e-001 1.44665092e-001 3.09532601e-003 1.26210019e-001
      3.48143429e-002 1.36494696e-001 1.00784935e-002 3.39608341e-002
      1.37050524e-002 1.86676234e-001 1.08356901e-001 2.90583223e-001
      1.13975748e-001 4.78767836e-003 1.10598747e-002 4.87515002e-001
      1.05297649e-002 1.69993058e-001 1.34211808e-001 9.97027382e-003
      1.03542572e-002 2.65284121e-001 1.27932930e+000 1.90534800e-001
      1.69095397e-001 1.19859554e-001 1.32529646e-001 2.26390306e-002
      8.68101716e-002 2.41302937e-001 1.00981750e-001 6.85391799e-002
      1.58158559e-002 2.87852101e-002 1.46519393e-001 1.14983350e-001
      2.86613647e-002 4.07334007e-002 3.01206291e-001 2.16392055e-001
      3.82238068e-002 3.35571289e-001 3.98317240e-002 1.22080818e-001
      3.16633880e-001 1.32279351e-001 1.48153216e-001 3.81610572e-001
      1.51081204e-001 1.69961542e-001 2.51473114e-002 8.16064253e-002
      9.79983509e-002 5.16582951e-002 2.20364872e-002 4.96257208e-002
      8.10940489e-002 5.49088478e-001 3.89270112e-002 4.60399032e-001
      1.54748082e-001 2.51347274e-001 3.53753835e-001 9.85261127e-002
      2.39283428e-001 5.99363387e-001 4.40333523e-002 3.68511081e-001
      1.86236929e-002 4.42483798e-002 8.46394971e-002 5.06092748e-003
      1.12520552e+000 3.25544298e-001 2.37230852e-001 7.54420385e-002
      1.41673371e-001 7.01419776e-003 1.76329818e-002 9.42757800e-002
      1.64029561e-002 1.66061092e-002 1.68989360e+000 1.04340330e-001
      2.11058289e-001 1.24351434e-001 2.58001417e-001 7.60671124e-002
      7.15073347e-001 3.07700112e-002 1.01746153e-002 2.10254684e-001
      1.34040013e-001 5.82639389e-002 1.20075092e-001 7.09203258e-002
      1.63817674e-001 3.73831302e-001 2.18802355e-002 4.43088897e-002
      9.99109969e-002 3.37265730e-002 3.31603214e-002 3.67903024e-001
      8.76395643e-001 1.85144007e-001 3.57127003e-002 8.03153310e-003
      3.97159979e-002 1.82557747e-001 4.82858777e-001 2.04482853e-001
      7.50747249e-002 4.76994604e-001 1.60625607e-001 2.69373465e+000
      1.34491062e+000 4.83757317e-001 5.27698882e-002 1.06192581e-001
      3.49751371e-003 1.84541028e-002 8.90754312e-002 4.77120966e-001
      1.17947713e-001 2.35676929e-001 2.18812793e-001 3.20604056e-001
      2.78076855e-003 4.33352798e-001 1.00387283e-001 4.97675054e-002
      2.21789867e-001 2.06222102e-001 2.29330838e-001 3.89052063e-001
      3.99764627e-002 4.14067686e-001 1.10736221e-001 2.49171983e-002
      4.89486665e-001 1.86559316e-002 1.46350250e-001 1.82290405e-001
      1.23335290e+000 1.67392626e-001 3.72715332e-002 6.95674241e-001
      3.18173543e-002 9.88525152e-002 7.34880328e-001 4.37610783e-002
      2.09566462e-003 1.24933982e+000 1.06843255e-001 5.83775043e-002
      1.09949440e-001 3.01252156e-002 1.34151325e-001 1.91131681e-002
      1.92878857e-001 5.03192060e-002 1.64770827e-001 2.41964031e-002
      2.47481257e-001 2.73720920e-002 3.91575042e-003 1.35535449e-001
      8.59335512e-002 5.99086694e-002 1.41662073e+000 1.11982562e-001
      1.14057874e-002 4.62850243e-001 3.38741206e-003 5.10006119e-003
      3.77295762e-002 4.05449979e-002 5.64702630e-001 1.81079805e-002
      3.98678519e-003 3.85163096e-003 1.85609162e-001 1.91897660e-001
      7.14193210e-002 2.22842306e-001 7.70014167e-001 2.31912836e-001
      3.75062793e-001 1.23427376e-001 3.86113346e-001 3.90411280e-002
      2.01600537e-001 3.00576240e-001 1.09182544e-001 8.37613121e-002
      5.56182582e-003 3.43055651e-002 3.11257262e-002 3.55179131e-001
      1.33980870e-001 9.90096554e-002 1.21880457e-001 2.26662397e+000
      1.55980512e-002 2.67500617e-002 1.06933624e-001 2.06049019e-003
      2.29101136e-001 1.67133100e-003 2.75090709e-002 7.26658776e-002
      1.83911011e-001 2.90528607e+000 3.55056152e-002 9.46301296e-002
      3.03759396e-001 3.53642106e-001 8.93129930e-002 1.94399267e-001
      7.36384243e-002 2.54494883e-002 1.64445674e+000 4.75044288e-002
      8.36404860e-001 1.36190546e+000 2.57956654e-001 2.56026834e-001
      2.62214872e-003 1.47434771e-001 2.38262005e-002 2.18669474e-001
      1.76924318e-001 1.84841290e-001 1.24201544e-001 1.55895099e-001
      4.47826609e-002 5.11515200e-001 1.07464954e-001 4.29780670e-002
      2.22151905e-001 3.59216407e-002 4.53396477e-002 5.02676927e-002
      9.21187699e-002 2.35781088e-001 1.48998246e-001 1.50206769e+000
      5.53524047e-002 1.29344359e-001 1.07031733e-001 4.41860706e-002
      1.05932234e-002 5.52323945e-002 1.52015641e-001 6.10362768e-001
      1.17682517e-001 5.84069252e-001 5.69473170e-002 2.56701678e-001
      5.55329807e-002 1.59541413e-001 2.09485501e-001 9.18410301e-001
      4.25975807e-002 6.46638513e-001 1.91175446e-001 2.45303676e-001
      1.96385995e-001 2.79592544e-001 4.35787886e-001 1.27356023e-001</_>
    <_>
      3.28198560e-002 9.24195498e-002 4.21151221e-001 2.17325509e-001
      1.72708966e-002 8.41520131e-002 8.82890895e-002 4.38326485e-002
      3.19087580e-002 1.45559534e-001 1.05172372e+000 1.22828394e-001
      9.13573086e-001 2.67129242e-001 8.47821832e-002 6.24885522e-002
      1.81732461e-001 7.52396062e-002 5.43937743e-001 1.13944098e-001
      1.89672196e+000 1.76888704e-001 3.73754837e-002 1.49057233e+000
      1.73525348e-001 1.11063671e+000 1.62391984e+000 2.29088694e-001
      5.73091023e-002 1.20820507e-001 2.89258752e-002 3.87255289e-002
      5.75210787e-002 4.41939272e-002 1.93075985e-001 1.38915217e+000
      8.28978047e-002 1.03446856e-001 1.44316331e-001 1.82115138e-001
      7.96901807e-002 2.09379807e-001 4.74021509e-002 8.42844993e-002
      5.27893612e-003 9.29680653e-003 1.79390356e-001 5.42990007e-002
      1.41426057e-001 4.04808730e-001 4.00635153e-001 1.26198038e-001
      2.93241769e-001 3.30276489e-001 2.05446318e-001 4.67591546e-002
      1.42232001e-001 3.37759048e-001 2.78302729e-001 2.81695575e-001
      6.36112928e-001 9.94367450e-002 2.08179411e-002 3.56493667e-002
      5.86763546e-002 2.99942285e-001 3.02078314e-002 3.49925607e-001
      2.04001856e-003 1.06701136e+000 3.88832279e-002 1.51828201e-002
      1.62110433e-001 8.27891469e-001 4.97785389e-001 3.38181615e-001
      5.85410818e-002 1.61074251e-001 2.12034687e-001 5.68566859e-001
      1.03255190e-001 2.49376725e-002 2.13124692e-001 9.02314782e-001
      2.41737798e-001 2.19997853e-001 5.03019929e-001 2.26558030e-001
      4.32665879e-003 1.17792755e-001 1.24167308e-001 1.65015325e-001
      3.12116817e-002 1.66002870e-001 1.18189240e-002 1.50993660e-001
      3.03539723e-001 2.62790561e-001 1.83556914e-001 1.50452286e-001
      1.04050256e-001 3.83701742e-001 3.36336374e-001 1.50382519e-001
      1.26323730e-001 5.76911448e-003 3.48571420e-001 2.57354528e-001
      1.55762941e-001 8.90356209e-003 5.22583306e-001 2.59119440e-002
      4.51635495e-002 1.73888609e-001 1.05372384e-001 1.35533464e+000
      6.71906233e-001 2.25676522e-002 3.32806557e-001 3.47633585e-002
      4.44771826e-001 4.33150567e-002 1.30544677e-001 2.18751132e-001
      1.72797000e+000 1.82521954e-001 1.78884423e+000 4.43083286e-001
      1.18673690e-001 1.18579723e-001 3.28487321e-003 1.79924548e-001
      3.13754827e-002 1.47859633e-001 1.07140131e-002 3.22656296e-002
      5.88530116e-002 1.80504113e-001 1.22873157e-001 3.23903859e-001
      1.32936418e-001 5.25773037e-003 1.08568352e-002 4.42241579e-001
      1.53816137e-002 1.67490005e-001 1.34809867e-001 1.94864348e-002
      1.02394652e-002 2.20446363e-001 7.93231666e-001 1.70278281e-001
      1.29392341e-001 1.06535003e-001 1.53794125e-001 2.50812378e-002
      8.48034620e-002 2.85967767e-001 9.81470719e-002 6.74671754e-002
      2.15812892e-001 2.92579830e-002 1.44410148e-001 1.17660664e-001
      2.82486659e-002 3.53922658e-002 2.97246844e-001 1.88038558e-001
      3.98999453e-002 2.29966193e-001 3.87102999e-002 1.38506040e-001
      3.14324915e-001 1.08378530e-001 2.19843477e-001 2.88065135e-001
      1.61013976e-001 1.71652123e-001 3.77819911e-002 8.68905708e-002
      7.82689601e-002 5.69130182e-002 4.11753133e-002 5.47757000e-002
      7.55397305e-002 7.15811372e-001 4.11884710e-002 4.48259443e-001
      1.84445709e-001 2.61814088e-001 3.73392105e-001 9.52891782e-002
      2.28751883e-001 5.05491614e-001 3.67689133e-002 2.43082330e-001
      1.94579884e-002 4.07896228e-002 9.79134738e-002 4.33110632e-003
      8.76265705e-001 2.18570560e-001 2.37182230e-001 6.68923706e-002
      2.08567470e-001 8.74807127e-003 2.21342593e-002 1.08478332e+000
      2.01043840e-002 1.61950067e-002 1.48892462e+000 9.64653641e-002
      2.49615133e-001 1.19506307e-001 2.26803064e-001 7.56558701e-002
      2.18104005e+000 2.37800609e-002 1.11248428e-002 2.18728647e-001
      1.44050777e-001 9.03656185e-001 1.03770368e-001 1.01066291e-001
      1.83944970e-001 3.08053225e-001 4.11362313e-002 4.25473861e-002
      8.16391110e-002 4.42015342e-002 3.30289938e-002 6.86060250e-001
      1.54728973e+000 1.64638251e-001 3.76798436e-002 8.99927225e-003
      3.83492000e-002 1.82805568e-001 3.96595508e-001 2.23264784e-001
      8.16654265e-002 5.56739509e-001 1.92482188e-001 3.01380801e+000
      9.59992886e-001 4.49021608e-001 6.32405803e-002 8.83411765e-002
      3.50239873e-003 2.23218091e-002 9.35897157e-002 3.06290627e-001
      1.25703260e-001 2.72115707e-001 1.86818063e-001 3.12219501e-001
      2.99423956e-003 4.28221285e-001 9.35469791e-002 1.21079519e-001
      2.09463477e-001 2.15126067e-001 1.57221451e-001 4.17904675e-001
      3.82372364e-002 3.84495914e-001 1.19623058e-001 2.32208464e-002
      4.05604243e-001 1.79891773e-002 1.46896034e-001 1.84354544e-001
      1.01026940e+000 1.57368824e-001 3.85072716e-002 7.22299039e-001
      3.41803022e-002 1.39259115e-001 7.59121060e-001 3.99549603e-002
      2.19966774e-003 1.21802056e+000 1.15559570e-001 6.07807525e-002
      1.15662642e-001 2.78565958e-002 1.18270420e-001 4.10941243e-002
      2.52307057e-001 3.73596624e-002 1.94612041e-001 2.12080628e-002
      2.30597824e-001 2.83456836e-002 4.02260106e-003 1.03995457e-001
      8.85016471e-002 5.60857840e-002 1.44542885e+000 1.21933997e-001
      6.97864173e-003 4.88697827e-001 3.93910753e-003 5.48787694e-003
      6.78874329e-002 4.02556062e-002 5.70217907e-001 1.89919677e-002
      3.97939701e-003 3.52468994e-003 2.70666957e-001 1.96440011e-001
      6.21472895e-002 2.80057907e-001 6.10160470e-001 2.82139927e-001
      3.68603766e-001 1.38310194e-001 1.34005892e+000 3.74800712e-002
      1.94863096e-001 3.99861425e-001 1.17458999e-001 8.30297023e-002
      5.94617333e-003 4.44704406e-002 2.81264093e-002 4.17939126e-001
      1.36425391e-001 1.06265858e-001 1.51257738e-001 2.42989111e+000
      1.52044734e-002 4.57158685e-002 1.31852940e-001 2.16230843e-003
      2.18314126e-001 1.88408466e-003 2.89607532e-002 7.47937188e-002
      1.89024195e-001 2.76904130e+000 3.39291357e-002 7.71122500e-002
      3.06218982e-001 3.89105171e-001 9.42439511e-002 1.90717563e-001
      7.25773990e-001 3.74500826e-002 1.33356249e+000 9.25808698e-002
      2.19162703e+000 1.02917182e+000 2.03967500e+000 1.68539062e-001
      2.62571522e-003 1.54326767e-001 2.69146618e-002 1.62265837e-001
      1.43659189e-001 1.66933581e-001 1.43069208e-001 1.39096543e-001
      5.80489188e-002 5.27722955e-001 2.11543813e-001 3.78311649e-002
      2.23484740e-001 3.67537774e-002 4.75973524e-002 1.00637980e-001
      9.74454954e-002 2.62888283e-001 1.45903602e-001 1.84683168e+000
      4.72515449e-002 1.28994420e-001 8.71250778e-002 5.42699248e-002
      1.55509049e-002 6.08168505e-002 1.44849136e-001 6.40370429e-001
      1.25487730e-001 6.21296763e-001 5.92681095e-002 2.66301006e-001
      4.99448963e-002 1.52532205e-001 2.15637863e-001 6.29194319e-001
      4.13763672e-002 6.59601092e-001 2.32036784e-001 3.25289786e-001
      1.82712272e-001 5.93134463e-001 4.61684287e-001 2.29834601e-001</_>
    <_>
      1.39425561e-001 3.69204909e-001 3.29584622e+000 2.66471684e-001
      9.15143564e-002 1.41457886e-001 4.84179482e-002 2.40300909e-001
      1.63585290e-001 1.62466562e+000 7.44317994e-002 5.64756930e-001
      1.01243103e+000 2.55009747e+000 4.84681576e-002 1.35550955e-002
      1.44663548e+000 2.27689326e-001 8.80235493e-001 2.36483887e-001
      3.20790529e-001 1.10200477e+000 1.70146972e-001 9.43047464e-001
      1.65019929e-001 5.57246745e-001 3.97905111e-001 4.98789735e-002
      1.04908669e+000 1.82757318e-001 7.26934522e-002 2.53156930e-001
      4.25528556e-001 3.79320890e-001 1.79602474e-001 9.03544009e-001
      1.37149408e-001 4.58984673e-001 2.48605680e+000 3.15979421e-001
      1.94071196e-002 2.43268862e-001 2.90911555e-001 1.54623106e-001
      1.88417826e-002 2.96973344e-002 2.75000364e-001 6.28369629e-001
      8.00551713e-001 4.83317673e-001 1.76587141e+000 3.60801071e-001
      1.36741483e+000 1.41714978e+000 1.53851405e-001 1.96132869e-001
      7.33555019e-001 1.32245794e-001 1.86382020e+000 9.36728895e-001
      2.51043153e+000 2.93771005e+000 7.76415318e-002 1.26659080e-001
      1.32862628e-001 1.35117248e-001 5.23464978e-002 8.57340038e-001
      8.68386962e-003 3.21520209e-001 3.34382445e-001 1.66835357e-002
      1.41559482e+000 1.78716883e-001 7.26009488e-001 2.31805754e+000
      7.54737020e-001 4.85586971e-001 9.36407804e-001 6.83946431e-001
      1.47169188e-001 1.15600862e-001 5.67560256e-001 2.09942073e-001
      3.42913002e-001 8.96891594e-001 2.53832889e+000 1.66069031e-001
      1.16629694e-002 2.08828285e-001 3.61770660e-001 4.45083648e-001
      1.93465084e-001 1.41323316e+000 3.12258936e-002 1.80522706e-002
      2.88395762e+000 1.11120951e+000 2.15215221e-001 2.07809851e-001
      7.20883548e-001 4.50737208e-001 3.25975895e-001 1.85883880e+000
      1.51176468e-001 2.81453766e-002 5.70844829e-001 2.03290939e+000
      7.27353692e-001 2.16918308e-002 3.73357013e-002 1.03296764e-001
      1.60731003e-001 2.19886392e-001 3.37900594e-002 4.93911564e-001
      3.80773932e-001 7.37776086e-002 2.37457510e-002 2.53819853e-001
      5.54324210e-001 3.60109001e-001 3.67224813e-001 6.22221947e-001
      2.72667336e+000 3.57467324e-001 1.25931609e+000 1.87290239e+000
      9.21357214e-001 9.43577588e-001 1.56508274e-002 1.54604927e-001
      2.73951948e-001 5.69578588e-001 8.63937140e-002 2.41170138e-001
      2.92421002e-002 4.44608927e-001 6.60788774e-001 4.84792113e-001
      3.10069799e-001 1.88143682e-002 4.68456037e-002 4.91498932e-002
      3.23224328e-002 1.20792127e+000 4.26992357e-001 7.51389563e-002
      4.61299792e-002 1.25794932e-001 1.60700679e+000 1.32621491e+000
      2.02493048e+000 1.46604329e-001 4.56444919e-001 2.82000035e-001
      1.53690577e-001 7.24834085e-001 9.74617839e-001 1.80776149e-001
      5.51271029e-002 7.37673044e-002 3.61711591e-001 2.93150336e-001
      1.53109968e-001 1.04309484e-001 1.08124733e+000 1.17043090e+000
      1.50510103e-001 1.21663213e-001 3.43027562e-001 6.60581350e-001
      1.27330947e+000 1.01391923e+000 2.61499166e+000 5.50235175e-002
      9.45266843e-001 9.09162045e-001 1.40223309e-001 2.65317231e-001
      1.79391161e-001 1.41673058e-001 1.92814190e-002 3.99397969e-001
      6.23735964e-001 8.80990386e-001 1.23027964e-002 1.66434669e+000
      3.38078439e-001 2.27639008e+000 4.33713973e-001 4.45023298e-001
      2.36721420e+000 5.09507395e-002 7.57173868e-003 1.65433574e+000
      2.04487756e-001 1.33007064e-001 5.49315631e-001 3.76372822e-002
      3.76141012e-001 1.85116291e+000 4.25789803e-001 7.66391233e-002
      1.37017682e-001 2.41155103e-002 2.26920918e-002 1.99515402e-001
      8.50813687e-002 7.34717622e-002 3.51474404e-001 9.06895339e-001
      1.11917961e+000 8.70792627e-001 1.27320901e-001 1.02723598e+000
      1.65233469e+000 7.40378303e-003 3.19062471e-002 2.35265470e+000
      1.62001216e+000 2.74615258e-001 2.63479892e-002 1.04060166e-001
      3.55327278e-001 2.89964825e-001 4.06305790e-001 3.52516502e-001
      1.45251584e+000 1.08401373e-001 2.22176850e-001 2.47266144e-001
      4.38721597e-001 2.03969431e+000 1.69094250e-001 6.02743216e-003
      2.32871562e-001 5.40265203e-001 1.86768723e+000 2.33547628e-001
      2.34972611e-001 2.31396651e+000 4.88448739e-001 9.94314790e-001
      1.13631165e+000 2.90009141e+000 1.12938732e-001 3.87182944e-002
      1.80018097e-002 2.27295235e-002 7.48150349e-001 2.86557078e-001
      1.36879668e-001 7.20473230e-001 4.85747308e-001 2.45158529e+000
      1.48516856e-002 2.18428302e+000 7.93754339e-001 1.87989444e-001
      8.35209131e-001 3.34891766e-001 2.98586577e-001 6.51842594e-001
      2.39526987e-001 1.78548872e+000 4.41597909e-001 5.48890345e-002
      5.09351015e-001 7.85463080e-002 1.52700245e+000 4.82564509e-001
      7.59346187e-001 1.10813332e+000 2.35514343e-001 5.35392344e-001
      2.48649448e-001 1.14849776e-001 1.12090208e-001 1.80431709e-001
      8.10766034e-003 5.66755235e-001 1.95896804e+000 1.90099195e-001
      1.10654145e-001 3.99143482e-003 7.69721925e-001 7.65546709e-002
      1.43752217e+000 9.36802253e-002 5.55832207e-001 2.28921115e-001
      7.23485053e-001 1.29689500e-001 1.23810815e-002 2.53349423e-001
      1.54485375e-001 1.83184177e-001 3.52027476e-001 1.00673831e+000
      5.88992331e-003 1.26123714e+000 1.98944602e-002 1.83050465e-002
      1.29826471e-001 2.01249048e-001 9.91760135e-001 6.73262924e-002
      3.85902300e-002 3.10343504e-002 1.71034366e-001 6.14389598e-001
      4.05166507e-001 1.68877769e+000 9.36329067e-001 5.37069619e-001
      2.97257394e-001 5.86243629e-001 8.15221071e-001 3.07312429e-001
      1.10333693e+000 1.43448174e+000 2.21307904e-001 7.19794750e-001
      1.70457736e-002 1.16362408e-001 1.12340607e-001 1.29666388e+000
      4.34248060e-001 2.06024513e-001 5.86165369e-001 8.24845791e-001
      1.33711658e-002 1.41672656e-001 5.36183417e-001 8.27082526e-003
      2.09355497e+000 7.60919740e-003 1.18439458e-001 2.75724292e-001
      4.16897655e-001 1.15130639e+000 1.68894321e-001 1.99721884e-002
      4.13059115e-001 2.95057356e-001 4.92177367e-001 2.29031539e+000
      2.24169776e-001 1.40226424e-001 1.39428532e+000 3.71142566e-001
      1.93646908e+000 1.94231427e+000 3.11785311e-001 2.33340323e-001
      8.57315958e-003 4.95924830e-001 1.89491197e-001 5.04018486e-001
      1.38753742e-001 1.99272051e-001 9.64782834e-001 1.61297366e-001
      6.32895350e-001 1.82637012e+000 4.30175155e-001 6.00753818e-003
      1.82556570e+000 2.15349838e-001 1.01038322e-001 1.67487711e-001
      4.53626096e-001 1.69773251e-001 1.00498176e+000 9.60456550e-001
      2.06690490e-001 3.29515129e-001 2.51711607e-001 1.80757508e-001
      3.17134038e-002 1.67108312e-001 6.50555849e-001 2.86135650e+000
      8.05756450e-001 8.21650743e-001 1.62088439e-001 9.44970131e-001
      9.21339393e-002 2.49136281e+000 2.48451376e+000 1.25595081e+000
      2.21755907e-001 1.88757527e+000 3.68211240e-001 1.91513479e+000
      6.39443576e-001 2.02874273e-001 1.54015660e+000 3.89437079e-001</_>
    <_>
      3.82605344e-002 1.81941688e-001 5.44294000e-001 4.34653878e-001
      1.24096824e-002 1.77876145e-001 8.77402946e-002 5.59923090e-002
      6.69742599e-002 2.43098423e-001 1.73251021e+000 1.67070121e-001
      2.01851654e+000 2.79036164e-001 1.10223684e-002 5.09820506e-002
      4.48663026e-001 1.78823009e-001 2.27661395e+000 2.50372052e-001
      2.34035134e+000 2.15077803e-001 5.72382994e-002 1.48634303e+000
      2.42782265e-001 2.81027150e+000 2.79853106e+000 4.08059478e-001
      7.74557814e-002 2.11654723e-001 7.07215816e-002 7.25906119e-002
      9.59250629e-002 6.79086968e-002 5.95839918e-001 1.70256519e+000
      1.63843960e-001 9.27545056e-002 1.90482035e-001 2.55493760e-001
      1.45642906e-001 2.23553926e-001 2.27271214e-001 5.37194908e-001
      7.70069519e-003 5.75194787e-003 4.31451887e-001 1.02266662e-001
      1.73281714e-001 4.80426848e-001 3.25428009e-001 1.99321806e-001
      4.71687138e-001 4.18311089e-001 5.47697246e-001 9.06503946e-002
      1.76996812e-001 6.80713356e-001 3.19659144e-001 4.30554837e-001
      6.17557883e-001 1.55415356e-001 3.19522917e-002 2.45618299e-002
      8.26687217e-002 6.81181431e-001 3.87754366e-002 3.82702678e-001
      6.19903719e-003 1.27408886e+000 1.58403233e-001 1.15977814e-002
      1.54277265e-001 1.43994272e+000 5.99782228e-001 2.85576046e-001
      9.93851572e-002 2.81804025e-001 2.83222109e-001 4.74867314e-001
      1.53798670e-001 9.03352737e-001 1.37394583e+000 9.86760914e-001
      2.73348242e-001 3.34930032e-001 3.99528831e-001 1.41051352e-001
      4.12430754e-003 3.37235093e-001 3.73798370e-001 1.14008832e+000
      4.93344553e-002 3.39324832e-001 1.40793007e-002 1.52621642e-001
      4.07298446e-001 3.18645626e-001 5.44869900e-001 2.88111538e-001
      1.47862166e-001 3.68697345e-001 7.11447239e-001 3.41399699e-001
      2.55081475e-001 8.88620224e-003 2.78251052e-001 3.47135365e-001
      1.72290012e-001 1.25404876e-002 9.42153275e-001 6.37557328e-001
      5.37701771e-002 1.66877136e-001 2.90752858e-001 1.10640979e+000
      1.52719736e+000 5.96473329e-002 1.16474845e-001 8.75560194e-002
      5.49909890e-001 1.70118928e-001 1.18540034e-001 4.93054450e-001
      5.16557872e-001 1.75263718e-001 1.05910313e+000 5.18248975e-001
      5.82258940e-001 1.73886538e-001 8.78007244e-003 6.12192512e-001
      4.54761982e-002 1.26772240e-001 1.06334314e-002 4.71428707e-002
      2.69040447e-002 2.68592894e-001 1.68147817e-001 2.22962469e-001
      3.91534150e-001 7.50901457e-003 2.54194904e-002 8.34101319e-001
      8.68108403e-003 3.68165404e-001 2.67839283e-001 2.71248594e-002
      1.24791609e-002 2.80537277e-001 3.96341115e-001 1.63284749e-001
      1.39837220e-001 1.69034079e-001 7.23393023e-001 4.30514701e-002
      1.31072536e-001 5.09593606e-001 1.33477345e-001 9.40229297e-002
      3.62525672e-001 3.45406681e-002 1.64680913e-001 1.71902746e-001
      3.66932340e-002 6.20446429e-002 6.57136142e-001 1.85304478e-001
      9.51710701e-001 5.48472285e-001 5.56221046e-002 3.46852720e-001
      3.80348712e-001 6.30861223e-001 3.60211730e-001 5.59245884e-001
      6.63166046e-001 4.77152199e-001 2.30410602e-002 1.07743762e-001
      1.59525633e-001 6.15774132e-002 4.49254028e-002 3.19939524e-001
      1.44752115e-001 8.40181351e-001 8.79190192e-002 4.39785123e-001
      1.30429655e-001 2.82079786e-001 3.13782990e-001 4.07527417e-001
      4.51821208e-001 9.21415746e-001 7.19154701e-002 4.55858886e-001
      3.45481448e-002 7.22383559e-001 1.47362992e-001 1.33513240e-002
      1.74635184e+000 5.08883476e-001 4.72735643e-001 7.02757165e-002
      1.87295943e-001 1.07051702e-002 1.47493184e-002 6.17464721e-001
      3.16695906e-002 3.28665897e-002 2.45000958e+000 1.27431437e-001
      2.99841374e-001 2.62079835e-001 2.28630468e-001 1.20193303e-001
      1.45257866e+000 4.57148701e-002 1.63229946e-002 4.44490761e-001
      1.19068354e-001 3.48176956e+000 1.95667297e-001 8.20491910e-002
      1.37359053e-001 5.01792014e-001 6.52158260e-002 5.72016910e-002
      1.63136497e-001 3.21973152e-002 4.25727293e-002 2.30880857e+000
      1.30067229e+000 4.04332757e-001 5.06765358e-002 4.21359427e-002
      5.63611016e-002 1.18118294e-001 4.11710352e-001 1.63586214e-001
      1.24880821e-001 3.90352935e-001 4.78246272e-001 2.94634676e+000
      5.57271957e-001 6.67557299e-001 8.11804757e-002 9.10689533e-002
      7.90737104e-003 1.45695172e-002 1.88573420e-001 8.51842642e-001
      1.71569198e-001 4.89627063e-001 1.51444212e-001 3.11895847e-001
      8.08052346e-003 3.87412488e-001 1.55615926e-001 6.48583993e-002
      2.87538916e-001 3.40532154e-001 2.95668393e-001 5.44337630e-001
      5.77835552e-002 8.50056231e-001 3.63075584e-001 4.47966903e-002
      4.40623194e-001 4.40231338e-002 5.44819295e-001 4.79446292e-001
      1.29053295e+000 2.86645979e-001 4.92547117e-002 6.75553918e-001
      2.23695070e-001 9.48770791e-002 1.29708982e+000 7.51552135e-002
      4.46901890e-003 1.41851413e+000 1.57523826e-001 1.26474693e-001
      1.08035870e-001 5.61688654e-002 2.07742691e-001 6.55769408e-002
      2.04106495e-001 6.91060498e-002 2.79857844e-001 6.58931658e-002
      2.37139836e-001 2.02226061e-002 3.88186518e-003 9.05476287e-002
      8.89286324e-002 8.71962309e-002 2.25370240e+000 5.01219809e-001
      1.63058601e-002 5.68770468e-001 3.93434288e-003 8.00844096e-003
      6.31386489e-002 5.97995147e-002 5.33620834e-001 2.64999978e-002
      1.52266463e-002 1.05099110e-002 2.67572612e-001 1.72499523e-001
      1.08633295e-001 2.17384547e-001 6.18686259e-001 7.58637488e-001
      4.76738483e-001 4.18540657e-001 7.54255056e-001 4.84492220e-002
      2.25022689e-001 4.78358388e-001 1.70654297e-001 1.05655372e-001
      8.21835734e-003 3.05468980e-002 4.31802869e-002 2.46355343e+000
      1.61987543e-001 7.31919408e-002 1.09282024e-001 3.06888342e+000
      1.85026750e-002 5.15208207e-002 1.16574988e-001 4.49436856e-003
      5.63111305e-001 3.10783600e-003 1.94011629e-002 1.37055069e-001
      2.20227480e-001 3.41617286e-001 5.31025939e-002 1.42595336e-001
      4.23377991e-001 5.66265345e-001 1.64423361e-001 3.34904253e-001
      1.49808288e+000 2.31487416e-002 1.29983377e+000 9.12974551e-002
      1.88634467e+000 1.76446304e-001 2.21068072e+000 2.87634075e-001
      3.21488362e-003 2.45591432e-001 4.79088500e-002 2.54575819e-001
      2.78690189e-001 1.98908806e-001 2.22361237e-001 6.14075124e-001
      1.09224357e-001 8.12161922e-001 3.31861913e-001 7.55241141e-002
      3.24192017e-001 4.88478169e-002 1.19459622e-001 6.60686046e-002
      1.04212515e-001 2.25592688e-001 4.65502858e-001 1.86361206e+000
      1.05789304e-001 1.72206804e-001 2.54738450e-001 1.63304880e-001
      8.66674352e-003 7.08818883e-002 1.40261397e-001 6.29244506e-001
      1.21873908e-001 9.87965882e-001 8.07083547e-002 2.66878307e-001
      4.32619378e-002 7.31743395e-001 4.98635560e-001 6.16385162e-001
      5.39654717e-002 7.03576744e-001 2.55700499e-001 5.57217360e-001
      1.61917299e-001 1.59150660e+000 7.07331836e-001 1.59875557e-001</_>
    <_>
      2.71013658e-002 1.73071936e-001 4.84172940e-001 4.93279725e-001
      8.50928668e-003 1.99475572e-001 8.22069198e-002 5.74521944e-002
      6.87149614e-002 3.41531157e-001 6.27716780e-001 1.80474848e-001
      1.59186184e+000 1.40817359e-001 9.01073497e-003 8.90545323e-002
      6.86507285e-001 1.29191115e-001 1.30854440e+000 2.55924553e-001
      1.73321867e+000 1.63994819e-001 5.17953895e-002 1.48552251e+000
      2.45637149e-001 2.66084599e+000 2.31087446e+000 6.35048449e-001
      1.08490169e-001 1.94674090e-001 7.62063488e-002 1.23846270e-001
      8.07913393e-002 7.62811452e-002 3.71708959e-001 1.93701649e+000
      1.09705277e-001 1.03612818e-001 1.77914232e-001 2.57786393e-001
      6.82000145e-002 2.00181559e-001 2.29011551e-001 4.71628159e-001
      6.64876262e-003 5.19915251e-003 4.84308064e-001 1.00147702e-001
      1.37917861e-001 5.16686738e-001 1.37581617e-001 1.82890758e-001
      4.73970950e-001 4.75052834e-001 4.13703352e-001 8.71829316e-002
      1.48032889e-001 9.85340297e-001 1.80845812e-001 4.18329597e-001
      5.54262161e-001 1.31438762e-001 2.77760848e-002 2.02971473e-002
      8.12076330e-002 7.48956740e-001 3.70437726e-002 3.80542517e-001
      4.58514923e-003 9.92503405e-001 1.44347921e-001 1.23335477e-002
      1.41080320e-001 1.19304991e+000 6.40854359e-001 1.19556867e-001
      1.13632590e-001 1.63114190e-001 2.99727470e-001 4.16706681e-001
      1.80504590e-001 1.05427608e-001 1.12880003e+000 6.68214560e-001
      2.34992057e-001 2.45862365e-001 2.99408048e-001 1.26754418e-001
      3.24073830e-003 4.03012514e-001 4.89889205e-001 5.40737867e-001
      4.64916155e-002 2.86740363e-001 1.21435691e-002 2.59245992e-001
      3.65285426e-001 2.69874275e-001 4.73380297e-001 2.59007126e-001
      1.77599639e-001 3.48562509e-001 7.17035949e-001 2.44530156e-001
      2.73254782e-001 9.50750057e-003 3.17747205e-001 1.97984755e-001
      1.80649638e-001 1.27657177e-002 3.62582892e-001 8.56865570e-002
      4.90908362e-002 1.91129744e-001 2.50937045e-001 1.17866373e+000
      1.27461672e+000 4.73764576e-002 1.98817730e-001 1.00715704e-001
      5.05788565e-001 1.86377123e-001 1.42043486e-001 4.26934808e-001
      8.76584053e-001 1.50249451e-001 1.22970736e+000 4.71638381e-001
      5.24368405e-001 1.93737686e-001 1.03554055e-002 4.65580553e-001
      5.12966849e-002 1.24504685e-001 9.72668082e-003 4.58790772e-002
      4.24979068e-002 2.14330316e-001 1.89703703e-001 1.86732441e-001
      3.70460868e-001 6.47566514e-003 2.96323858e-002 3.35348338e-001
      6.02182839e-003 6.05850756e-001 2.21918866e-001 2.29909252e-002
      9.93485842e-003 3.24105769e-001 7.18724251e-001 1.31926462e-001
      1.52972639e-001 1.75481901e-001 3.57241809e-001 6.35613948e-002
      9.63686779e-002 5.52628994e-001 1.24033988e-001 9.51313674e-002
      5.80398560e-001 3.55955511e-002 1.84052780e-001 1.71110436e-001
      3.82561199e-002 5.78782745e-002 7.56129801e-001 8.61068815e-002
      1.72876224e-001 6.36733532e-001 5.52755743e-002 3.82792830e-001
      3.77875894e-001 4.13266301e-001 3.28131139e-001 2.90444791e-001
      6.20508015e-001 5.00564516e-001 1.89808048e-002 1.44312233e-001
      1.59251273e-001 6.28141314e-002 7.31313974e-002 2.56588161e-001
      1.24990754e-001 8.76489103e-001 3.99948992e-002 4.10732448e-001
      1.41938731e-001 1.51167035e-001 2.89199680e-001 3.94789428e-001
      4.67367530e-001 3.69818777e-001 3.33478265e-002 4.74650085e-001
      3.04201115e-002 1.97521985e-001 1.20998062e-001 1.50896749e-002
      1.56625235e+000 4.57036853e-001 5.48041046e-001 6.92505240e-002
      1.67284325e-001 1.10445516e-002 1.59154795e-002 1.11191916e+000
      2.60525234e-002 3.56726237e-002 1.12939799e+000 1.07195348e-001
      3.45506757e-001 2.99051374e-001 2.46068493e-001 1.29504323e-001
      1.92626560e+000 2.23781522e-002 1.60508379e-002 3.35199744e-001
      1.29480615e-001 2.94536710e+000 8.23208541e-002 9.26468596e-002
      1.46881983e-001 5.29290915e-001 2.33755708e-002 4.91581149e-002
      1.40986934e-001 2.39768047e-002 4.78787683e-002 2.36654806e+000
      1.57018590e+000 5.17152011e-001 5.40922135e-002 1.27940252e-002
      4.37854826e-002 1.15826696e-001 4.69853073e-001 2.00972810e-001
      1.56784937e-001 1.96359530e-001 3.78745615e-001 2.98217249e+000
      8.76918256e-001 4.79442477e-001 7.23817199e-002 1.43536940e-001
      8.88575707e-003 1.55831315e-002 1.91452444e-001 1.33918679e+000
      1.19065858e-001 4.35874283e-001 1.64463937e-001 1.42496258e-001
      9.74162947e-003 4.39698189e-001 1.58683792e-001 5.83956689e-002
      3.38852823e-001 3.24663907e-001 3.24686766e-001 6.67835116e-001
      4.86349985e-002 5.71750760e-001 4.12605137e-001 4.04357910e-002
      4.36095417e-001 5.32140173e-002 8.47739160e-001 5.58404684e-001
      1.54112744e+000 1.47895142e-001 4.65262458e-002 7.63394773e-001
      1.68426722e-001 9.35776830e-002 6.11667573e-001 7.28168935e-002
      3.80860898e-003 1.62352192e+000 1.34774581e-001 1.46931142e-001
      1.04289927e-001 2.20520105e-002 2.15427935e-001 7.99545348e-002
      8.99553075e-002 7.48605281e-002 2.61962771e-001 3.71692814e-002
      3.02834272e-001 1.78122036e-002 2.73250230e-003 9.28184614e-002
      9.41936597e-002 9.28014219e-002 1.02827108e+000 5.08531213e-001
      1.45293782e-002 6.10138357e-001 4.30297246e-003 6.91049313e-003
      6.82427362e-002 4.88637574e-002 5.29264271e-001 2.25659795e-002
      1.63056049e-002 1.14756310e-002 2.63679415e-001 1.78459361e-001
      1.12932369e-001 9.19529423e-002 6.70779705e-001 6.49033725e-001
      4.72977549e-001 4.83133107e-001 6.63310468e-001 4.76601608e-002
      2.39349321e-001 5.02525866e-001 1.66100368e-001 1.20957248e-001
      7.13080214e-003 2.27533337e-002 3.96385752e-002 1.35900915e+000
      1.50482893e-001 9.01341140e-002 7.99803063e-002 7.29820013e-001
      2.06548069e-002 5.23957871e-002 6.16743602e-002 3.73536604e-003
      9.16798711e-001 3.11562885e-003 1.67479012e-002 1.44547552e-001
      2.66670763e-001 5.34989774e-001 4.46147323e-002 6.89432919e-002
      3.34404409e-001 5.91061711e-001 1.76487282e-001 2.94030011e-001
      1.43981004e+000 1.91802308e-002 1.25988925e+000 9.35394987e-002
      2.31613445e+000 2.07827240e-001 2.57435203e+000 3.14014256e-001
      3.41349095e-003 2.46558622e-001 4.86141481e-002 1.93989173e-001
      3.01963925e-001 2.32676730e-001 2.29704633e-001 3.34975213e-001
      1.30886331e-001 7.07466543e-001 3.06831270e-001 3.29297483e-002
      2.52192706e-001 4.58907448e-002 1.15624242e-001 8.34798142e-002
      1.05017677e-001 2.30930179e-001 4.53648061e-001 1.74183381e+000
      9.57995430e-002 1.96380690e-001 2.44003624e-001 1.43799737e-001
      6.30256347e-003 7.35463127e-002 8.88476744e-002 5.72774112e-001
      1.69819817e-001 9.34705377e-001 6.81762025e-002 2.00384021e-001
      3.63938883e-002 7.33916759e-001 3.56338769e-001 7.94555902e-001
      5.92320301e-002 6.58809662e-001 2.55797923e-001 5.57244062e-001
      9.51747596e-002 1.70233798e+000 5.93428731e-001 1.53285086e-001</_>
    <_>
      3.02499030e-002 8.85536075e-002 8.46979797e-001 5.21173656e-001
      8.99272971e-003 1.56108007e-001 9.41486433e-002 6.04479052e-002
      6.73949867e-002 2.59360909e-001 9.14590657e-002 1.54379547e-001
      4.81880248e-001 3.35470319e-001 8.10999516e-003 5.40368855e-002
      4.46529627e-001 1.39798224e-001 2.81633592e+000 2.01477572e-001
      3.96166801e-001 1.66793525e-001 4.42936458e-002 8.65919173e-001
      1.68880597e-001 2.22637129e+000 4.69309390e-001 4.15133268e-001
      1.41711652e-001 2.60938257e-001 6.49863556e-002 7.53777176e-002
      7.54065886e-002 7.78680891e-002 3.17378193e-001 3.73454928e-001
      1.56396240e-001 1.21688016e-001 2.88991600e-001 1.94421425e-001
      1.82481129e-002 1.07388481e-001 2.41977900e-001 5.51888943e-001
      6.70330273e-003 5.26420400e-003 5.09569943e-001 1.08625442e-001
      1.76918462e-001 5.92291296e-001 1.44868121e-001 1.99707448e-001
      5.59952796e-001 4.62124825e-001 3.77486169e-001 8.06761757e-002
      1.04134955e-001 6.34422839e-001 1.82266697e-001 4.63340670e-001
      6.89204156e-001 1.76669583e-001 3.49402353e-002 2.05663983e-002
      6.80238083e-002 3.66531760e-001 3.92932966e-002 2.30536699e-001
      5.42629231e-003 9.69092846e-001 1.51202351e-001 1.18026175e-002
      1.44798502e-001 6.12994015e-001 8.61534417e-001 1.04971953e-001
      1.49357468e-001 2.73890674e-001 3.12764049e-001 9.44680125e-002
      1.77287504e-001 2.78991535e-002 1.55297160e+000 6.73356891e-001
      7.53901303e-002 3.44615161e-001 3.01154524e-001 1.28880054e-001
      3.03320936e-003 4.25348610e-001 4.49420601e-001 1.30957150e+000
      6.16619177e-002 4.24956024e-001 8.89799744e-003 1.62490815e-001
      2.19676599e-001 2.74397314e-001 5.08488238e-001 2.56066650e-001
      1.68202892e-001 3.57002378e-001 6.28188789e-001 2.79917866e-001
      2.52157360e-001 7.61569012e-003 3.64748359e-001 4.47663516e-001
      1.58015072e-001 1.21506732e-002 4.93910313e-002 3.39458212e-002
      4.02255096e-002 1.83482379e-001 1.30564839e-001 1.20042336e+000
      8.34794760e-001 4.74661291e-002 1.30317986e-001 1.54005408e-001
      4.72017705e-001 1.90085351e-001 1.27921000e-001 2.26663873e-001
      1.12385464e+000 1.58514872e-001 1.28539276e+000 6.79967999e-001
      6.30082309e-001 2.12667361e-001 1.02209412e-002 2.40173742e-001
      4.44876477e-002 1.68030933e-001 9.53038223e-003 4.74536009e-002
      3.04073673e-002 3.24123472e-001 1.48704514e-001 1.13078296e-001
      3.61690849e-001 6.37060497e-003 2.75353175e-002 2.51117218e-002
      6.77778153e-003 3.80527556e-001 2.00911000e-001 2.16732193e-002
      7.02883303e-003 4.12801981e-001 7.87359297e-001 2.02568233e-001
      2.80585617e-001 2.04016358e-001 5.66553354e-001 4.66040820e-002
      5.16978502e-002 9.02193666e-001 2.56120175e-001 9.27797481e-002
      3.68308097e-001 3.33236046e-002 1.76779822e-001 1.99263230e-001
      4.10116203e-002 8.49056840e-002 7.15623081e-001 2.89760381e-001
      5.64183258e-002 3.53249729e-001 6.13062494e-002 3.46010387e-001
      3.23460579e-001 3.19939017e-001 4.23922092e-001 1.10112213e-001
      6.30495131e-001 4.64793652e-001 1.87424105e-002 1.24099448e-001
      1.89578786e-001 5.05740047e-002 4.42708023e-002 2.28252992e-001
      1.30546838e-001 6.20626688e-001 5.30755613e-003 3.54275167e-001
      1.16515443e-001 3.63002121e-001 1.35830909e-001 2.32745335e-001
      5.75835049e-001 6.69877306e-002 8.14002287e-003 8.57934117e-001
      3.38979289e-002 1.22075520e-001 1.28748134e-001 1.70978326e-002
      3.08314919e-001 1.53494871e+000 5.41604698e-001 5.62484376e-002
      1.60549387e-001 1.18459454e-002 1.57114677e-002 8.91110659e-001
      3.12931091e-002 3.54494005e-002 1.95389375e-001 1.05529286e-001
      3.28016996e-001 2.83739835e-001 2.07913354e-001 1.13478124e-001
      1.99294257e+000 8.84040166e-003 1.26214512e-002 3.67421001e-001
      1.14836156e-001 3.54469085e+000 1.48253357e-002 8.69621113e-002
      1.52589828e-001 6.05044901e-001 2.59043295e-002 5.46642356e-002
      1.67612433e-001 2.77830958e-002 4.27851900e-002 1.75157273e+000
      1.74226272e+000 4.95132595e-001 4.92040887e-002 1.61168794e-003
      4.78570238e-002 1.30739957e-001 5.24870813e-001 1.85795814e-001
      1.78482458e-001 1.77682906e-001 2.46637225e-001 1.50533128e+000
      9.91671920e-001 4.18978810e-001 4.33237515e-002 4.22886498e-002
      7.22638704e-003 1.62079409e-002 1.96307763e-001 3.76433969e-001
      7.60985464e-002 4.67619330e-001 1.61916256e-001 3.98582876e-001
      9.60882008e-003 5.54010391e-001 1.86565474e-001 5.11448197e-002
      3.50595504e-001 1.87970743e-001 3.23330849e-001 7.17068613e-001
      5.07538021e-002 7.40361631e-001 4.20217305e-001 4.02809940e-002
      3.67367983e-001 4.94283251e-002 6.35518134e-001 5.53620040e-001
      2.02294636e+000 2.20333606e-001 4.70003523e-002 5.68860352e-001
      1.22179605e-001 9.28598195e-002 4.41545062e-002 4.93655093e-002
      4.18318249e-003 1.20041049e+000 1.40716359e-001 1.12445295e-001
      1.13864243e-001 2.40511890e-003 2.91869938e-001 6.93621188e-002
      1.48908198e-001 8.68529528e-002 2.44410694e-001 3.60498242e-002
      3.59884530e-001 1.90532524e-002 3.21104378e-003 6.39157221e-002
      7.73014203e-002 8.60370249e-002 2.74465650e-001 5.63534439e-001
      6.68991869e-003 5.51633298e-001 4.58041765e-003 7.18045374e-003
      6.53880462e-002 5.18573523e-002 5.90779305e-001 2.91288774e-002
      1.83027741e-002 1.16550801e-002 2.50147700e-001 2.24682987e-001
      6.96609765e-002 1.49307683e-001 7.00724065e-001 9.80834663e-001
      4.07772273e-001 4.58587557e-001 6.93245351e-001 4.65818048e-002
      2.59782046e-001 4.15224224e-001 1.98577926e-001 1.30948588e-001
      7.47595867e-003 2.70336252e-002 5.05797081e-002 2.69770384e+000
      1.52468517e-001 1.12568960e-001 9.60341692e-002 5.51762938e-001
      1.55847780e-002 5.76111637e-002 9.21259448e-002 4.20224387e-003
      5.56860030e-001 3.13866604e-003 1.97250638e-002 1.23684965e-001
      2.25708827e-001 1.06574702e+000 4.41718213e-002 2.13784408e-002
      4.00778353e-001 5.25411308e-001 1.43314093e-001 4.92254049e-001
      1.41813159e+000 1.92303900e-002 1.19673038e+000 8.56968611e-002
      2.37959027e+000 3.00300837e-001 2.43149948e+000 2.96084464e-001
      3.60328145e-003 2.25831762e-001 5.72830625e-002 2.42467329e-001
      2.61949331e-001 2.45222196e-001 2.32673466e-001 2.80773491e-001
      1.13824442e-001 8.99114609e-001 1.55091196e-001 4.73398156e-003
      3.94222051e-001 4.18715775e-002 1.28665209e-001 9.28144008e-002
      2.11086318e-001 1.64116219e-001 4.74958807e-001 5.25398731e-001
      8.93550366e-002 1.97197914e-001 3.05982292e-001 1.61216706e-001
      6.78651966e-003 5.27910739e-002 1.26981735e-001 9.02046025e-001
      1.18345134e-001 6.89231217e-001 3.47123183e-002 3.12071711e-001
      3.02981492e-002 8.44006181e-001 3.17267627e-001 1.36539268e+000
      5.55373617e-002 6.09258354e-001 4.58359085e-002 6.80323541e-001
      9.50947255e-002 1.58951759e+000 7.44855046e-001 1.54734045e-001</_>
    <_>
      4.11965661e-002 3.76427233e-001 3.72277677e-001 2.75163263e-001
      2.88314056e-002 1.18829846e+000 5.68447858e-002 1.42222434e-001
      8.62575173e-002 9.43135738e-001 8.82815421e-002 1.62553191e-001
      4.81542885e-001 4.26673979e-001 2.63776537e-002 5.58563275e-003
      2.99728096e-001 1.72740266e-001 3.94803643e-001 7.64437258e-001
      8.04235280e-001 3.43842238e-001 1.04670294e-001 5.30519307e-001
      2.04529166e-001 2.87217259e-001 1.01551354e+000 3.09187360e-002
      2.73640096e-001 6.24463379e-001 2.44436786e-002 1.08955428e-001
      7.25882053e-002 2.99879432e-001 5.38042784e-001 4.39804614e-001
      9.37831402e-002 1.54892907e-001 7.53763616e-001 2.70796001e-001
      7.35536823e-003 2.24712163e-001 3.08327049e-001 6.83574438e-001
      1.23398360e-002 3.16659585e-002 2.87377954e-001 2.31043026e-001
      1.36801690e-001 9.17297304e-001 5.98673522e-001 2.34738171e-001
      3.43506575e-001 5.33209860e-001 1.58126995e-001 6.07397616e-001
      2.35496759e-001 8.46972838e-002 9.36156571e-001 7.11981356e-001
      1.03710842e+000 5.15920997e-001 3.67700458e-002 4.88673337e-002
      1.04706742e-001 1.86463535e-001 1.76082216e-002 5.89615881e-001
      2.97935586e-003 1.81264326e-001 2.50770926e-001 1.11045009e-002
      3.29322726e-001 1.59740880e-001 2.33375773e-001 2.47384503e-001
      9.93832052e-001 9.99420404e-001 7.57423818e-001 6.63107216e-001
      9.47846651e-001 2.46770293e-001 8.65596294e-001 3.83745819e-001
      3.42242569e-001 1.88366055e-001 1.17559588e+000 5.33207245e-002
      3.65082501e-003 2.63595194e-001 9.76424813e-001 7.90594161e-001
      1.10582024e-001 2.62788326e-001 8.32282566e-003 1.71219856e-002
      9.42969084e-001 7.77845383e-001 1.95251375e-001 7.37054527e-001
      2.73461699e-001 8.25260937e-001 3.68385941e-001 8.20469916e-001
      4.65957880e-001 1.04046166e-002 6.99808061e-001 4.03048515e-001
      3.32011074e-001 1.04930289e-002 4.55057733e-002 1.64913937e-001
      1.50134712e-001 7.37416446e-001 5.71555384e-002 2.16866180e-001
      2.63675332e-001 2.73537822e-002 4.79575954e-002 3.51211987e-002
      2.50574350e-001 3.35499316e-001 2.61113733e-001 4.46438164e-001
      2.45591521e-001 8.22085202e-001 1.18874103e-001 3.27504069e-001
      5.46857893e-001 2.14574412e-001 1.30370026e-002 3.92844886e-001
      1.30149767e-001 2.80728549e-001 3.25917453e-002 9.49676037e-002
      3.87053639e-002 2.37094820e-001 2.84750372e-001 2.55911767e-001
      1.56423479e-001 1.28405336e-002 4.85053957e-002 5.29960766e-002
      3.35950553e-002 8.13088238e-001 8.03053558e-001 3.21565308e-002
      9.60979052e-003 4.73756939e-001 2.83790320e-001 2.48471454e-001
      5.09653211e-001 2.94458181e-001 1.77162766e-001 1.11838438e-001
      8.84329379e-002 4.98038232e-001 1.91966206e-001 4.81321625e-002
      3.37411091e-002 2.19774861e-002 2.70082682e-001 2.26487577e-001
      8.75093564e-002 7.82258362e-002 1.41808426e+000 2.40360975e-001
      2.77106404e-001 1.83438316e-001 9.99133289e-002 1.51554391e-001
      5.89784741e-001 1.51746437e-001 7.05401599e-001 4.66919169e-002
      5.70488572e-001 1.73182428e-001 5.65664358e-002 3.58232617e-001
      9.01228666e-001 9.04070437e-002 4.58688801e-003 5.07548213e-001
      3.75162095e-001 5.63271761e-001 1.13706449e-002 9.43504214e-001
      6.92748606e-001 4.40166235e-001 2.23927557e-001 3.00500840e-001
      3.49462241e-001 4.61687930e-002 3.51589266e-003 3.67153823e-001
      1.03510320e-001 9.81836140e-001 4.13700461e-001 4.29273732e-002
      3.01830083e-001 4.14252341e-001 2.57739216e-001 7.60433674e-002
      5.86760044e-002 9.23395436e-003 9.15541593e-003 3.17510366e-001
      3.76313776e-002 2.48854347e-002 3.41650426e-001 2.58071691e-001
      4.45527971e-001 4.75259155e-001 2.50111401e-001 2.10717589e-001
      1.38729453e-001 4.53800755e-003 1.00588026e-002 3.91255558e-001
      5.17050922e-001 3.76804769e-001 1.07370466e-002 7.17754588e-002
      7.66234279e-001 2.61544496e-001 6.95579499e-002 1.13042437e-001
      5.28968692e-001 8.60827044e-002 8.87282342e-002 2.37917453e-001
      5.12532532e-001 6.38106704e-001 8.52167979e-002 1.51062189e-002
      1.46268174e-001 3.40401828e-001 6.85628712e-001 3.97095025e-001
      7.76241541e-001 1.18192291e+000 3.55734438e-001 4.60004985e-001
      2.79503375e-001 8.83621693e-001 5.81970550e-002 8.45660493e-002
      1.18956687e-002 8.93080514e-003 2.87144125e-001 2.64931440e-001
      9.29703712e-002 5.55384278e-001 9.26360548e-001 1.80753365e-001
      1.35140931e-002 1.09465671e+000 2.41780505e-001 3.80502611e-001
      1.26976120e+000 1.64136156e-001 1.20088613e+000 4.83087420e-001
      1.09289892e-001 4.61119592e-001 1.42795295e-001 3.79315391e-002
      3.82033795e-001 2.76595801e-002 2.80986100e-001 2.50177413e-001
      4.13814545e-001 2.17218250e-001 7.74047524e-002 4.74928200e-001
      5.63511252e-001 5.59790321e-002 1.19480997e-001 8.07671770e-002
      2.55610212e-003 6.30936921e-001 2.87191391e-001 5.42539880e-002
      7.39320591e-002 4.78399033e-003 1.97047457e-001 4.50649112e-002
      1.42744124e-001 4.19392556e-001 1.77770138e-001 1.04446732e-001
      6.73135579e-001 6.24455549e-002 3.15490970e-003 5.40907308e-002
      6.40033111e-002 8.35306048e-002 5.13403773e-001 5.98620415e-001
      5.45007642e-003 7.28252888e-001 1.21701155e-002 1.16608897e-002
      1.25742868e-001 9.09650847e-002 6.65431440e-001 2.88959239e-002
      4.10125926e-002 1.07400445e-002 4.95259874e-002 2.12600693e-001
      7.61025786e-001 1.36275724e-001 2.46551871e-001 1.81679055e-001
      8.61461818e-001 1.15256891e-001 1.83430701e-001 8.70248377e-002
      8.95093977e-001 1.01694238e+000 2.11318225e-001 2.82343596e-001
      1.15028862e-002 9.06449631e-002 6.20043613e-002 2.47655571e-001
      2.12438241e-001 6.94817007e-001 1.25424191e-001 4.47386384e-001
      1.02763707e-002 1.32133827e-001 1.39955193e-001 2.58160313e-003
      4.15916085e-001 3.34742945e-003 6.61261454e-002 4.24333401e-002
      5.92757106e-001 5.38576841e-001 6.50933683e-002 8.78402684e-003
      4.64490682e-001 1.13062419e-001 2.93774664e-001 2.32841656e-001
      2.98209697e-001 6.25185072e-002 2.71682680e-001 4.72769201e-001
      1.60143852e-001 3.69095683e-001 6.86047018e-001 5.93018711e-001
      3.51295224e-003 3.84398311e-001 9.63683277e-002 9.48955834e-001
      6.26623631e-001 5.18445909e-001 4.13953900e-001 4.85500783e-001
      3.25653136e-001 6.71239376e-001 3.38125259e-001 4.04089829e-003
      3.02717268e-001 1.15613535e-001 3.38013917e-001 3.43254626e-001
      2.57872522e-001 7.23269582e-002 3.36135626e-001 3.29008490e-001
      6.08970821e-001 2.61117280e-001 9.13938642e-001 7.36342669e-002
      3.55389565e-002 9.87704769e-002 3.34849119e-001 5.04142463e-001
      1.85851932e-001 8.75458181e-001 9.43082273e-002 2.01434329e-001
      2.38122754e-002 8.64349008e-001 6.63010657e-001 4.44130808e-001
      9.05307978e-002 9.39193487e-001 3.64522159e-001 4.07496750e-001
      1.05155535e-001 2.80530542e-001 5.77882230e-001 8.02805662e-001</_>
    <_>
      4.80757095e-002 3.86086017e-001 2.76832581e+000 4.61682588e-001
      4.78354245e-002 3.20590883e-001 1.26460508e-001 1.61534309e-001
      1.81970671e-001 1.27808726e+000 1.92399189e-001 6.61520898e-001
      6.30327046e-001 1.80172110e+000 2.10314970e-002 5.14635257e-003
      1.41421020e+000 3.50165725e-001 2.60265970e+000 6.76878273e-001
      1.06650674e+000 5.89774907e-001 1.13913693e-001 7.00196922e-001
      1.92638323e-001 1.00325775e+000 9.59213138e-001 3.78644317e-002
      3.92478228e-001 1.61206424e-001 7.15945065e-002 1.94633469e-001
      1.82866037e-001 2.10821137e-001 9.31753993e-001 8.01567316e-001
      1.28563851e-001 4.29194748e-001 6.53109074e-001 3.19113970e-001
      2.98198685e-002 2.29865670e-001 5.11767030e-001 5.06924629e-001
      1.48831587e-002 1.92950554e-002 5.19041240e-001 4.18273091e-001
      6.91102207e-001 1.18891394e+000 6.60497487e-001 4.18664157e-001
      1.12910759e+000 7.29003429e-001 2.96228170e-001 4.65548158e-001
      5.67264795e-001 1.34062663e-001 1.07186103e+000 6.59731507e-001
      2.62342978e+000 6.53654158e-001 6.66913092e-002 3.57639715e-002
      1.43421829e-001 3.62206578e-001 5.22534177e-002 2.70283198e+000
      6.83713891e-003 1.03765404e+000 4.12214011e-001 1.50624663e-002
      1.09097445e+000 7.01147795e-001 9.15553749e-001 5.66271007e-001
      5.77274680e-001 4.34213609e-001 5.19846678e-001 8.15942585e-001
      2.76228517e-001 3.50069940e-001 5.22138953e-001 6.81560636e-001
      2.91810781e-001 1.00050199e+000 2.02728653e+000 1.71483010e-001
      6.76887576e-003 3.42259675e-001 3.12672138e-001 3.31453472e-001
      1.75635114e-001 1.46938586e+000 1.65633969e-002 1.32539226e-002
      1.67491651e+000 5.13353229e-001 2.51265436e-001 1.08251023e+000
      3.68134350e-001 1.11752152e+000 7.86588967e-001 2.43876123e+000
      4.18352246e-001 2.18704119e-002 3.68102729e-001 1.47579217e+000
      8.47497702e-001 1.94853544e-002 1.03065401e-001 3.36812407e-001
      1.24182664e-001 8.24160099e-001 1.97553560e-001 8.78032029e-001
      1.08259761e+000 7.26439208e-002 4.35376801e-002 1.81482881e-001
      2.11353913e-001 4.04700696e-001 2.58640438e-001 3.67303669e-001
      1.48165655e+000 2.98642635e-001 1.53285265e+000 1.89776492e+000
      1.28862858e+000 1.62786162e+000 2.01247931e-002 3.65602434e-001
      1.49530873e-001 5.89957833e-001 5.60615323e-002 1.60920575e-001
      1.70822609e-002 8.63691628e-001 7.13296890e-001 2.37505227e-001
      4.46022987e-001 1.51232509e-002 5.54837212e-002 8.84975791e-002
      1.59597117e-002 1.10795426e+000 3.14378530e-001 4.10019569e-002
      1.65908467e-002 7.58484244e-001 5.73040128e-001 8.32955420e-001
      7.24727631e-001 5.33442378e-001 6.96447730e-001 1.42789647e-001
      9.10827592e-002 1.36781406e+000 9.74773645e-001 1.91455677e-001
      3.86427008e-002 3.72785032e-002 2.68713146e-001 3.79019856e-001
      9.11810622e-002 1.89040437e-001 9.62254763e-001 9.14436519e-001
      4.82909918e-001 4.06933576e-001 2.07013845e-001 5.96161246e-001
      1.31572020e+000 6.17719054e-001 1.49030638e+000 1.56123728e-001
      1.85126984e+000 8.31876934e-001 3.94241437e-002 2.29927033e-001
      2.77544379e-001 2.05113322e-001 6.24146685e-003 7.24226952e-001
      7.59992480e-001 1.39956605e+000 2.75222063e-002 1.04882884e+000
      2.29040891e-001 1.33362961e+000 2.86721766e-001 3.28111082e-001
      9.77043152e-001 1.10042602e-001 1.14852590e-002 9.82606292e-001
      1.54621169e-001 6.81079745e-001 7.75152922e-001 4.46691290e-002
      6.37360513e-001 6.50425255e-001 5.51597476e-001 3.82161349e-001
      1.60719588e-001 2.08412297e-002 3.32892202e-002 1.63586184e-001
      6.34467676e-002 5.04668094e-002 4.40481484e-001 4.35474217e-001
      1.48904324e+000 5.34084976e-001 1.64941356e-001 6.22677565e-001
      2.56918955e+000 1.71440020e-002 2.77566854e-002 7.69028425e-001
      1.48477411e+000 4.77875590e-001 3.17093693e-002 1.34824827e-001
      2.34258682e-001 1.07516038e+000 1.93002984e-001 1.98666722e-001
      9.08924162e-001 4.27050926e-002 2.05746591e-001 9.28524852e-001
      1.89333105e+000 9.52896178e-001 1.46863878e-001 1.35362782e-002
      1.72549456e-001 5.17433226e-001 1.91641819e+000 5.61919987e-001
      5.61591327e-001 2.06659412e+000 9.61199760e-001 8.31205308e-001
      5.04616261e-001 2.19885945e+000 8.04527104e-002 7.24188462e-002
      1.54027250e-002 3.33280712e-002 6.05497837e-001 6.22370124e-001
      9.89627913e-002 7.95537591e-001 5.49423337e-001 1.62933171e+000
      1.85405780e-002 1.94488215e+000 4.73372519e-001 1.00879073e-001
      1.44675398e+000 2.61158794e-001 6.97611451e-001 1.47556961e+000
      1.67943522e-001 1.04416502e+000 2.39235133e-001 5.61106540e-002
      3.01320374e-001 5.45905642e-002 1.77372384e+000 4.14382964e-001
      8.92135918e-001 6.35469615e-001 1.60418838e-001 7.59330809e-001
      5.73946774e-001 1.30309895e-001 2.31445044e-001 1.14181273e-001
      6.74447883e-003 2.16664314e+000 5.58714628e-001 1.52900487e-001
      1.62746668e-001 8.23455397e-003 7.07062840e-001 5.95746823e-002
      8.05152655e-001 1.27853274e-001 2.98501760e-001 1.71441406e-001
      5.96224427e-001 7.59325251e-002 6.61841687e-003 1.44369543e-001
      1.61328524e-001 1.63129583e-001 3.47238809e-001 1.34894156e+000
      3.00313327e-002 1.67023432e+000 1.61879081e-002 1.46660078e-002
      3.66955586e-002 1.89560458e-001 1.67284882e+000 5.61545007e-002
      4.35864329e-002 2.18054689e-002 1.60344541e-001 6.17439985e-001
      6.58943295e-001 8.39422703e-001 3.18160862e-001 6.34022772e-001
      1.07663786e+000 5.49941361e-001 5.52899003e-001 1.44693062e-001
      7.59324551e-001 1.74842441e+000 2.25730583e-001 4.96877611e-001
      1.49245346e-002 4.53504436e-002 1.18232831e-001 2.63443804e+000
      3.51946861e-001 1.65935203e-001 3.84740174e-001 1.20526099e+000
      7.80871212e-002 4.77970876e-002 2.94151276e-001 6.80564763e-003
      1.58653581e+000 6.00522244e-003 5.93829453e-002 2.01685831e-001
      1.09086800e+000 8.53287280e-001 1.45465851e-001 3.33486535e-002
      1.31124234e+000 3.95128518e-001 3.43285531e-001 1.14083779e+000
      2.83418149e-001 4.00952771e-002 7.15221047e-001 3.02844435e-001
      3.44454050e+000 9.89784300e-001 5.23247421e-001 9.37077343e-001
      7.35787023e-003 2.91283756e-001 1.54074311e-001 5.02375424e-001
      4.04216915e-001 1.04126954e+000 5.52769423e-001 4.33485538e-001
      4.00983542e-001 8.90465498e-001 3.55494708e-001 1.08226305e-002
      1.26911986e+000 1.34084627e-001 2.53666043e-001 1.07658409e-001
      6.06221974e-001 1.38123199e-001 1.60984075e+000 6.15661621e-001
      4.36080188e-001 2.66730070e-001 4.74545449e-001 1.47162467e-001
      1.75262559e-002 9.30299163e-002 4.54690218e-001 2.57847977e+000
      6.52210653e-001 1.55876243e+000 1.27439439e-001 6.46348059e-001
      4.90284823e-002 2.22695041e+000 1.64138687e+000 1.35473847e+000
      2.15294704e-001 1.15410042e+000 3.55292588e-001 1.30813050e+000
      1.00608313e+000 3.72245133e-001 8.52475703e-001 3.12289774e-001</_>
    <_>
      1.74940582e-002 1.31680891e-001 5.86025774e-001 2.11140141e-001
      2.74923109e-002 4.83151406e-001 3.43867727e-002 7.04246536e-002
      8.52973387e-002 4.02712524e-001 7.02170208e-002 1.61464736e-001
      3.72836322e-001 4.29030150e-001 1.22388173e-002 1.66586637e-002
      5.64078450e-001 1.32186309e-001 9.17128503e-001 4.63957816e-001
      2.74431348e-001 4.02628899e-001 4.89640795e-002 2.71988064e-001
      1.15931489e-001 2.57058412e-001 5.19850075e-001 1.41107723e-001
      1.26503661e-001 4.92353678e-001 3.51722874e-002 5.69094308e-002
      4.97891903e-002 1.27323255e-001 3.28380644e-001 3.91633600e-001
      1.13837361e-001 2.43230924e-001 3.72009158e-001 1.13941222e-001
      8.90646130e-003 1.23389401e-001 1.11445375e-001 3.99919689e-001
      1.36858318e-002 1.73479244e-002 2.99612164e-001 9.34741348e-002
      3.53351742e-001 4.23407018e-001 5.32159209e-001 1.41480103e-001
      4.35238004e-001 3.80140007e-001 1.23216704e-001 5.01113772e-001
      2.80734658e-001 3.30242425e-001 5.22935927e-001 4.52796876e-001
      4.18557972e-001 4.12131071e-001 2.53400970e-002 2.26813890e-002
      8.67321715e-002 6.81422278e-002 1.32645220e-002 3.89957666e-001
      2.65292660e-003 6.49056971e-001 1.19199231e-001 4.33292892e-003
      5.11985958e-001 4.15364653e-001 1.61506489e-001 3.26189518e-001
      4.09617364e-001 9.54147816e-001 4.13716555e-001 3.92947257e-001
      4.28663671e-001 1.57320410e-001 1.04079080e+000 4.65810686e-001
      1.45673126e-001 4.85614926e-001 4.52153206e-001 4.09032628e-002
      3.38503136e-003 3.06401432e-001 3.18612456e-001 9.38329041e-001
      3.18046547e-002 5.19569874e-001 8.04405101e-003 4.94407453e-002
      4.15932029e-001 5.56475580e-001 9.94451419e-002 5.92705190e-001
      2.69562513e-001 3.78046572e-001 2.64831364e-001 4.54499215e-001
      2.71079689e-001 8.78345501e-003 4.52466369e-001 4.14197564e-001
      1.99259222e-001 7.58949341e-003 2.50101704e-002 1.42119884e-001
      3.12528200e-002 3.56798232e-001 2.97019221e-002 4.65198308e-001
      5.53245544e-001 1.56655367e-002 4.14261036e-002 8.79241899e-002
      9.13621783e-002 1.14768602e-001 1.27228171e-001 3.15923095e-001
      3.81388903e-001 3.74222577e-001 3.41094732e-001 6.88793421e-001
      5.38824260e-001 5.42218566e-001 7.06631364e-003 1.21035710e-001
      7.37014413e-002 2.15944603e-001 2.12656800e-002 5.44420704e-002
      1.81023851e-002 1.88590184e-001 2.59759128e-001 8.52296129e-002
      1.72524795e-001 1.37913879e-002 2.97501180e-002 2.40348205e-002
      1.32841989e-002 3.27680588e-001 4.02734935e-001 1.19540682e-002
      7.89222028e-003 4.70322579e-001 2.49432907e-001 3.83905530e-001
      3.87374163e-001 1.20315686e-001 3.57805073e-001 2.42377035e-002
      6.76680878e-002 5.53959072e-001 3.35435599e-001 1.09090120e-001
      1.41527161e-001 1.98567025e-002 1.29755825e-001 2.12387010e-001
      4.01155278e-002 6.78719580e-002 4.70294237e-001 4.99476165e-001
      1.84685811e-001 6.99307099e-002 4.90219034e-002 2.65227050e-001
      5.63395381e-001 4.27830309e-001 4.86505508e-001 2.67506652e-002
      5.34203649e-001 2.12581158e-001 2.24669445e-002 9.42451060e-002
      3.48302364e-001 7.58255497e-002 1.52367093e-002 5.65403223e-001
      1.50786638e-001 2.72210687e-001 8.80185794e-003 3.32850426e-001
      4.75585967e-001 3.78321022e-001 9.19738933e-002 3.16971511e-001
      5.48224986e-001 2.72102375e-002 2.34728237e-003 2.01077700e-001
      4.64827605e-002 4.68447238e-001 2.17129841e-001 3.19141783e-002
      1.33029133e-001 2.76403815e-001 3.04875791e-001 2.99497508e-002
      4.19253968e-002 7.78685696e-003 1.22584458e-002 4.52189654e-001
      1.58200115e-002 2.58569587e-002 1.08561181e-001 1.58234566e-001
      4.52268422e-001 1.04073815e-001 3.99219617e-002 2.86206186e-001
      7.84408927e-001 2.45091692e-003 6.50524162e-003 4.69770133e-001
      4.27437603e-001 1.04715610e+000 5.61432913e-003 3.76546085e-002
      3.83333176e-001 1.25983968e-001 5.56212850e-002 4.89587523e-002
      6.11231744e-001 3.68321612e-002 4.73463722e-002 5.07159531e-001
      4.18566167e-001 3.80796283e-001 5.16726598e-002 7.68772699e-003
      9.78843272e-002 1.56142250e-001 6.05610013e-001 4.34313118e-001
      3.83541733e-001 5.44059634e-001 3.89107913e-001 3.44242156e-001
      3.00677180e-001 4.39346582e-001 2.78414246e-002 1.77062135e-002
      7.00697256e-003 1.18447337e-002 2.62532175e-001 1.22073591e-001
      7.09785223e-002 5.55700362e-001 1.13830805e+000 4.26075995e-001
      6.59081619e-003 4.62748706e-001 1.55528724e-001 1.11532755e-001
      3.93839866e-001 9.69104320e-002 3.12944978e-001 5.88436961e-001
      5.75541668e-002 6.60888195e-001 3.72634739e-001 2.98615526e-002
      1.23085670e-001 1.62997209e-002 4.90862757e-001 3.17348510e-001
      3.95155162e-001 3.87034357e-001 5.13719395e-002 1.43145204e-001
      4.50796187e-001 4.33930792e-002 8.21760893e-002 4.18677069e-002
      2.53293593e-003 2.64566839e-001 3.75908762e-001 7.21958280e-002
      4.32284027e-002 1.97475380e-003 3.09263408e-001 4.14215699e-002
      4.17682081e-001 1.00311242e-001 2.05549583e-001 7.31536299e-002
      1.19703043e+000 3.91040035e-002 2.44376762e-003 7.48059154e-002
      4.11633439e-002 7.08163083e-002 1.00170515e-001 3.78125519e-001
      3.63646774e-003 5.04265428e-001 9.17949248e-003 1.34992683e-002
      4.84695286e-002 7.54478201e-002 5.06803393e-001 2.29963865e-002
      3.57537121e-002 7.10697938e-003 3.21507454e-002 1.55895919e-001
      4.92737859e-001 4.50317293e-001 9.62328538e-002 3.98378313e-001
      4.83095855e-001 2.77263880e-001 4.51789051e-001 4.55052443e-002
      4.50991929e-001 3.13889742e-001 1.49073824e-001 1.17340624e-001
      1.33420043e-002 3.63557599e-002 4.88630161e-002 6.86497390e-001
      1.03967994e-001 1.59857869e-001 1.24342024e-001 2.57633656e-001
      9.06038005e-003 3.62911262e-002 1.93986714e-001 2.54713465e-003
      4.30110365e-001 2.55295471e-003 3.66337001e-002 9.07050297e-002
      6.50462270e-001 4.23400104e-001 5.84059022e-002 9.40457638e-003
      7.85629869e-001 9.70983356e-002 1.27692163e-001 5.15434921e-001
      6.02510273e-001 2.45301668e-002 2.02582926e-001 1.03686005e-001
      7.72530258e-001 2.84675270e-001 7.30828702e-001 3.59775603e-001
      2.53563700e-003 2.81345367e-001 3.47512513e-002 9.39515412e-001
      2.26764709e-001 3.59773278e-001 1.18000433e-001 2.27494240e-001
      1.50451288e-001 6.17655277e-001 3.23234797e-001 1.65485358e-003
      7.71547198e-001 4.91147004e-002 1.12151347e-001 8.88658762e-002
      1.59817874e-001 3.34706828e-002 3.28916341e-001 3.15779775e-001
      5.02333999e-001 1.09023489e-001 4.62700933e-001 1.19686179e-001
      1.28492154e-002 3.26142162e-002 1.12055436e-001 5.43967247e-001
      2.40380675e-001 3.73662978e-001 3.65586989e-002 2.21354097e-001
      3.35084572e-002 3.77516747e-001 4.32771385e-001 2.49680698e-001
      4.87994142e-002 2.95254618e-001 9.29038450e-002 4.26469475e-001
