<?xml version="1.0"?>
<opencv_storage>
<my_svm type_id="opencv-ml-svm">
  <svm_type>EPS_SVR</svm_type>
  <kernel><type>RBF</type>
    <gamma>3.3750000000000002e-002</gamma></kernel>
  <C>6.2500000000000000e+001</C>
  <p>1.0000000000000001e-001</p>
  <term_criteria><epsilon>4.9999998882412910e-003</epsilon>
    <iterations>2147483647</iterations></term_criteria>
  <var_all>300</var_all>
  <var_count>300</var_count>
  <sv_total>228</sv_total>
  <support_vectors>
    <_>
      5.58793843e-002 2.22901180e-002 1.59292296e-001 3.72967958e-001
      2.41934434e-001 9.17329848e-001 5.39497435e-001 2.41801634e-001
      7.78391398e-003 6.71300769e-001 1.64074823e-001 6.38355613e-001
      1.24347568e-001 5.28376922e-002 1.41062975e-001 1.49227187e-001
      2.10284874e-001 1.35069668e-001 6.30608853e-003 3.29420328e-001
      2.05543071e-001 1.20125860e-001 7.19796792e-002 2.42349859e-002
      9.51553732e-002 1.34313971e-001 2.16370404e-001 2.39371583e-001
      1.59197837e-001 3.14887792e-001 2.06396263e-002 1.01351881e+000
      1.78405549e-002 6.28359094e-002 7.52816722e-002 4.46060300e-002
      1.80763796e-001 7.59230778e-002 3.59311193e-001 1.78270359e-002
      2.12178379e-001 1.57605603e-001 1.52623609e-001 4.30392921e-002
      2.56795079e-001 4.33145076e-001 6.92790627e-001 4.24810909e-002
      2.36358792e-001 3.44269276e-002 9.68227014e-002 8.11647624e-002
      1.17293289e-002 8.96794349e-003 9.62683707e-002 1.85162634e-001
      4.05104756e-002 3.13677996e-001 1.44058064e-001 3.74504507e-001
      7.28938997e-001 4.10591096e-001 3.89059603e-001 1.39867321e-001
      5.20181298e-001 2.43371800e-001 2.12311950e-002 1.80379584e-001
      2.12751910e-001 1.49499238e-001 7.00097233e-002 1.74481809e-001
      1.80444479e-001 9.50916484e-003 1.28774941e-001 2.05474302e-001
      5.28120957e-002 1.69208087e-002 2.51864195e-001 3.78812224e-001
      1.68858737e-001 1.22051783e-001 2.71017533e-002 6.32594749e-002
      5.00796199e-001 8.14470500e-002 6.53537735e-002 6.12154938e-002
      5.37699938e-001 1.05880015e-001 8.06178078e-002 2.23551005e-001
      4.61300053e-002 1.06032111e-001 1.54926460e-002 3.86397481e-001
      3.30997556e-002 8.99658427e-002 4.35782410e-002 2.96279136e-002
      7.85180852e-002 1.47240177e-001 2.97472805e-001 5.46817072e-002
      6.54075086e-001 5.44261932e-001 8.18758365e-003 1.70183524e-001
      1.47512019e-001 2.86458403e-001 3.34213339e-002 3.43993247e-001
      6.78421371e-003 1.60840482e-001 2.92479783e-001 3.57795149e-001
      8.93791169e-002 4.84387040e-001 1.50830463e-001 5.03890924e-002
      6.15297973e-001 4.33980264e-002 2.46442169e-001 2.34179318e-001
      4.09078360e-001 2.54129730e-002 2.52771806e-002 6.30582750e-001
      6.91416860e-002 5.68913758e-001 2.38848433e-001 1.32573292e-001
      2.16522545e-001 8.07486653e-001 2.35574581e-002 1.58081904e-001
      6.15289770e-002 1.97201207e-001 1.65429339e-001 9.33953822e-002
      1.48721589e-002 6.81355298e-002 1.76494345e-001 1.80954203e-001
      4.57089722e-001 4.12294954e-001 4.09463912e-001 1.30656287e-001
      3.15172583e-001 3.01770300e-001 5.38203239e-001 1.26795858e-001
      1.97586134e-001 8.00654233e-001 6.12972751e-002 5.35410689e-003
      1.45733058e-001 5.45634151e-001 1.02156848e-001 4.82470579e-002
      2.67978936e-001 4.97510061e-002 1.07804500e-001 1.26189560e-001
      1.49782866e-001 4.89128381e-002 4.82694954e-001 4.42689717e-001
      2.13597273e-003 6.55439615e-001 9.82439741e-002 4.54265267e-001
      9.11187008e-002 1.24587923e-001 4.88066852e-001 2.50700980e-001
      4.51217413e-001 4.89818215e-001 1.92239118e+000 1.20851688e-001
      1.96016282e-001 6.56166859e-003 1.92832462e-002 7.30782673e-002
      1.96821406e-001 4.23260093e-001 2.40579784e-001 1.00383222e-001
      4.13438201e-001 5.09446859e-001 1.73661396e-001 7.10601732e-002
      7.09424689e-002 1.51413190e+000 1.02616215e+000 2.91286945e-001
      5.39178066e-002 4.81449813e-001 2.51572758e-001 1.74011767e-001
      1.66066456e+000 3.20853859e-001 2.22191617e-001 2.31662348e-001
      2.95117825e-001 1.29170671e-001 2.35960424e-001 1.03092158e+000
      1.62565917e-001 2.32883915e-001 3.96472037e-001 5.91775030e-002
      4.44868296e-001 6.13135457e-001 1.16652444e-001 7.66205937e-002
      2.12692797e-001 1.64601803e-001 3.73276472e-001 1.15824252e-001
      9.37312618e-002 7.76044726e-001 4.27941941e-002 1.09162593e+000
      2.41362140e-001 1.53478771e-001 4.64451283e-001 2.12569505e-001
      1.28031895e-001 6.04267061e-001 4.75638360e-002 2.23040119e-001
      9.30494517e-002 2.69358516e-001 3.59628946e-001 1.45749301e-001
      4.27447706e-002 1.59857399e-003 1.93122670e-001 4.41378308e-003
      8.49391446e-002 4.64595556e-002 1.03564829e-001 5.63004650e-002
      1.24828422e+000 2.84892887e-001 8.92395377e-002 2.73742646e-001
      2.48433247e-001 2.35561818e-001 2.79469073e-001 2.99171925e-001
      9.49471354e-001 3.40118259e-001 1.13270807e+000 5.01743071e-002
      1.02900040e+000 3.52624327e-001 3.38120490e-001 8.69030282e-002
      1.96674034e-001 8.90396535e-003 5.88540852e-001 5.05778566e-002
      2.24835649e-001 2.25010604e-001 7.22058937e-002 1.55494297e-002
      3.75967950e-001 5.22050977e-001 1.97576016e-001 1.65660590e-001
      4.06185687e-001 4.84387130e-002 1.99290402e-002 1.88320920e-001
      1.52185857e-001 4.35096025e-002 5.19542396e-001 8.51893350e-002
      1.39987394e-001 8.71245191e-002 3.92963916e-001 4.63139173e-003
      3.83481868e-002 1.93356067e-001 7.92039692e-001 1.54554084e-001
      8.39459836e-001 1.38708934e-001 3.83750081e-001 1.28285391e-002
      1.41232938e-001 3.60553533e-001 1.83292136e-001 1.31886646e-001
      1.06712226e-002 8.09153840e-002 2.10175291e-001 4.39062901e-002</_>
    <_>
      4.47966792e-002 1.79316029e-002 8.14930126e-002 9.23196614e-001
      6.73867226e-001 6.21769369e-001 4.07096863e-001 2.78362721e-001
      6.89038029e-003 8.75532925e-001 6.34703115e-002 4.24281150e-001
      2.80323207e-001 5.50222956e-002 1.93116412e-001 2.29685515e-001
      1.33560210e-001 1.23742580e-001 7.91631453e-003 4.08390254e-001
      3.67137790e-001 7.31729567e-002 6.14910014e-002 1.68899670e-002
      5.22504747e-002 1.10841200e-001 2.72107095e-001 3.70256215e-001
      8.50584358e-002 1.00319602e-001 2.65340116e-002 3.30876321e-001
      1.60501618e-002 5.09988181e-002 2.21834909e-002 3.49229947e-002
      6.11457787e-002 2.65265614e-001 6.34399593e-001 1.13700172e-002
      1.40844569e-001 2.66127080e-001 1.36515170e-001 2.88780276e-002
      1.02187969e-001 9.70867872e-002 1.64905831e-001 2.75792647e-002
      1.34240866e-001 1.51288845e-002 4.32677507e-001 1.72502071e-001
      1.65348444e-002 6.36307150e-003 8.67368504e-002 1.57313421e-001
      6.57610670e-002 7.72478104e-001 1.73384383e-001 2.42936015e-001
      2.23723277e-001 6.61491215e-001 2.40208119e-001 4.76689748e-002
      5.76247014e-002 4.02154177e-001 2.67522074e-002 1.05057634e-001
      3.24643999e-001 8.18689317e-002 3.58527154e-002 8.96170735e-002
      3.36447120e-001 9.00277961e-003 7.47145340e-002 1.83567971e-001
      4.91366088e-002 1.71671901e-002 6.07250810e-001 1.51321664e-001
      1.41257688e-001 1.39962420e-001 1.43130319e-002 5.69311343e-002
      2.02072114e-001 5.83997965e-002 2.10069671e-001 5.67783117e-002
      4.23218757e-002 8.70944560e-002 2.37146318e-001 5.33875525e-001
      2.43739653e-002 3.74804795e-001 4.29635122e-002 3.38980444e-002
      1.79188810e-002 5.70139624e-002 7.91892111e-002 1.50489109e-002
      2.44670007e-002 1.54971659e-001 6.53835118e-001 4.04113866e-002
      3.00272942e-001 3.57274383e-001 5.39342361e-003 1.05986357e-001
      9.96203199e-002 2.07194522e-001 2.60784011e-002 1.50624737e-001
      7.28476746e-003 5.79677999e-001 5.69846369e-002 1.00975275e-001
      9.18206945e-002 1.99786022e-001 1.18632704e-001 7.46100247e-002
      5.26213706e-001 1.76103897e-002 4.30302888e-001 7.61310577e-001
      3.43952417e-001 2.01984365e-002 4.75984020e-003 1.85705721e-001
      6.98293447e-002 3.40861678e-001 9.60542083e-001 5.89596145e-002
      1.24241538e-001 3.98638427e-001 2.04832740e-002 2.53444374e-001
      1.18797775e-002 1.19858615e-001 1.50757834e-001 6.08286932e-002
      1.09882960e-002 2.57000268e-001 2.92828441e-001 8.67768526e-002
      2.19027996e-001 1.06239967e-001 2.68863142e-001 8.57596025e-002
      2.08205178e-001 1.10587746e-001 2.54444152e-001 1.05272286e-001
      5.35388947e-001 7.46511996e-001 5.36501594e-002 4.84720198e-003
      9.55594331e-002 5.78856111e-001 5.06033674e-002 3.13427933e-002
      1.76083922e-001 4.28613275e-002 5.20624109e-002 6.84569776e-002
      1.60738334e-001 1.26690408e-002 5.20336688e-001 4.16995734e-001
      2.02014786e-003 4.10603702e-001 4.81519289e-002 2.06808910e-001
      5.97022772e-002 1.09932676e-001 1.92646801e-001 3.83012146e-001
      1.99062854e-001 6.08662486e-001 1.04770911e+000 6.87366799e-002
      1.63279638e-001 6.33415859e-003 2.87153553e-002 2.61834282e-002
      2.17619777e-001 3.90305668e-001 1.30236775e-001 4.59444374e-002
      5.91369629e-001 1.67946979e-001 6.79862946e-002 2.20513269e-002
      3.36139202e-001 8.76086712e-001 5.86311042e-001 7.21426189e-001
      4.56952490e-002 4.37677860e-001 6.27514422e-001 8.73035491e-002
      8.91130567e-001 4.99408722e-001 1.25623211e-001 1.39473513e-001
      2.40595877e-001 1.67003289e-001 2.67627954e-001 6.41135514e-001
      2.80378938e-001 2.05333471e-001 6.40634447e-002 5.13140112e-002
      2.47422740e-001 1.96628541e-001 1.04559310e-001 4.80783880e-002
      7.34188110e-002 1.07988700e-001 3.41870517e-001 5.15699796e-002
      2.28596151e-001 2.37808481e-001 2.56998409e-002 5.39762497e-001
      1.68477014e-001 5.13482213e-001 2.89501548e-001 2.56085753e-001
      3.96912955e-002 6.55234098e-001 8.02961886e-002 9.29719657e-002
      6.49924129e-002 3.33983988e-001 1.63014814e-001 8.48877653e-002
      3.09331417e-002 1.43971003e-003 3.74700218e-001 1.77509221e-003
      7.22219422e-002 5.86778820e-002 5.30522503e-002 1.25115931e-001
      7.92146683e-001 9.06586498e-002 7.96464458e-002 3.04739445e-001
      8.19976389e-001 8.20468515e-002 4.27091777e-001 1.71606138e-001
      2.31850892e-001 4.34618920e-001 4.14772004e-001 3.77461314e-002
      9.87211227e-001 6.36469305e-001 7.19882846e-002 5.76391667e-002
      4.21954423e-001 6.39774976e-003 1.56722993e-001 3.42584923e-002
      4.89629000e-001 1.66280285e-001 3.51351239e-002 1.95516646e-002
      1.88911140e-001 1.88447848e-001 2.92913824e-001 1.75122708e-001
      4.26286489e-001 6.96541443e-002 1.37772085e-002 4.46822643e-001
      1.19949482e-001 3.59131880e-002 2.16725424e-001 8.82048905e-002
      4.50494885e-001 4.70906794e-002 1.08911932e+000 5.15388045e-003
      2.70230081e-002 1.74452290e-001 1.37458944e+000 2.22892180e-001
      8.30953240e-001 1.19363666e-001 1.75843030e-001 2.24903785e-002
      1.81936815e-001 2.77438372e-001 2.31567502e-001 3.26013923e-001
      1.80384219e-002 6.19577095e-002 7.33740851e-002 2.97257826e-002</_>
    <_>
      2.83841401e-001 4.71818931e-002 7.93646812e-001 3.48597378e-001
      3.67410421e-001 8.21292877e-001 3.15342516e-001 5.73468685e-001
      1.49405692e-002 8.65740120e-001 1.90761602e+000 1.27908826e+000
      3.50540847e-001 1.53317153e-001 3.77016127e-001 2.96538591e-001
      6.58582628e-001 4.53523248e-001 1.40150944e-002 9.77653682e-001
      1.11439741e+000 3.60148162e-001 1.66334257e-001 4.24259752e-002
      1.96422100e-001 1.21066190e-001 3.01700115e-001 2.75300413e-001
      1.30400896e-001 6.88175797e-001 3.58145423e-002 8.90388727e-001
      3.33572812e-002 1.38359696e-001 1.36488602e-001 5.82767315e-002
      2.62082815e-001 3.34139228e-001 7.39093125e-001 1.54152736e-002
      1.36976570e-001 2.05080092e-001 6.80863559e-002 1.24422580e-001
      3.53679627e-001 4.11032349e-001 1.87305540e-001 1.10772572e-001
      5.27298689e-001 4.46668230e-002 2.69752473e-001 2.12920204e-001
      2.80118436e-002 2.25857049e-002 1.32958889e-001 3.55954081e-001
      1.45207033e-001 6.90170884e-001 4.50564563e-001 4.61731344e-001
      1.59963131e-001 7.57090390e-001 8.62609148e-001 2.38174334e-001
      9.94356453e-001 3.33330333e-001 4.82551716e-002 3.21177512e-001
      5.38129032e-001 1.85620382e-001 1.11184776e-001 3.50748956e-001
      5.29291093e-001 1.53096598e-002 3.26241553e-001 2.67213911e-001
      1.47409752e-001 2.75919568e-002 5.73723435e-001 2.00023606e-001
      4.83687758e-001 3.30687284e-001 5.16604446e-002 1.59538999e-001
      5.79926491e-001 6.43777549e-002 1.01799391e-001 7.34458044e-002
      1.70695126e-001 1.38322279e-001 6.36219203e-001 8.69112492e-001
      6.77390918e-002 6.61705494e-001 3.50369737e-002 9.17877495e-001
      3.05077806e-002 1.69575632e-001 1.22380204e-001 9.29375291e-002
      4.97281626e-002 3.68296146e-001 1.09848845e+000 1.11208722e-001
      5.04457772e-001 3.94918084e-001 6.02686917e-003 2.66337574e-001
      3.73637825e-001 6.80524945e-001 7.23949894e-002 4.48008150e-001
      1.10203791e-002 3.94886523e-001 6.38203323e-001 3.32452804e-001
      1.41677722e-001 2.06641823e-001 7.38618433e-001 1.63133413e-001
      4.42852885e-001 3.90581936e-002 4.96072084e-001 8.72548223e-001
      9.07233953e-001 4.18488346e-002 9.57795605e-003 1.70629871e+000
      1.15099803e-001 1.79234219e+000 5.81838727e-001 2.65515149e-001
      1.12526730e-001 3.56465548e-001 4.57695499e-002 4.13425386e-001
      2.41465326e-002 1.14259750e-001 3.04881305e-001 1.05927117e-001
      3.75208594e-002 3.43342423e-001 3.22268754e-001 4.27161068e-001
      7.27678120e-001 3.50663185e-001 1.46469080e+000 2.91802973e-001
      6.81636751e-001 4.28686738e-001 6.98820889e-001 4.56766784e-001
      1.01831603e+000 4.69178736e-001 1.20333940e-001 8.85969773e-003
      4.32489187e-001 4.50731933e-001 1.13914557e-001 1.32234678e-001
      1.06149562e-001 1.35026649e-001 1.83962286e-001 1.53739229e-001
      2.35427395e-001 1.07195675e-001 7.83857524e-001 7.50684500e-001
      4.11459850e-003 8.50681007e-001 1.45615950e-001 1.15153110e+000
      1.61559656e-001 3.34376007e-001 4.82642442e-001 4.54184979e-001
      1.93187022e+000 3.94226938e-001 6.19907558e-001 2.58021832e-001
      2.61453211e-001 1.15625858e-002 7.13730380e-002 1.30757317e-001
      4.23450381e-001 1.10015810e+000 1.92384690e-001 1.57384709e-001
      9.82346714e-001 5.58587730e-001 2.60670215e-001 1.28853340e-002
      3.42360973e-001 5.59088767e-001 5.99862635e-001 7.11956739e-001
      1.88045979e-001 8.40677023e-001 3.16909671e-001 1.41996264e-001
      5.61839402e-001 5.18283904e-001 2.31775150e-001 4.95193154e-001
      9.40754950e-001 4.59798247e-001 2.39327803e-001 1.32271504e+000
      3.44410241e-001 2.20520914e-001 3.99336100e-001 1.42891034e-001
      5.84637821e-001 1.59155893e+000 3.19592416e-001 1.70831949e-001
      2.55972296e-001 3.06177348e-001 1.04578102e+000 2.47366637e-001
      4.31960672e-001 1.43272841e+000 6.98115975e-002 9.37758088e-001
      2.52324760e-001 7.92103052e-001 6.60863876e-001 2.92842150e-001
      3.30335826e-001 6.79122984e-001 1.42112464e-001 3.61755043e-001
      2.34444618e-001 7.44492114e-001 1.02964234e+000 4.06506747e-001
      1.92714762e-002 2.86979042e-003 5.27899265e-001 3.85649432e-003
      9.97989103e-002 1.42182231e-001 1.22289509e-001 4.34398919e-001
      2.18823266e+000 3.23703438e-001 1.54849276e-001 7.75905073e-001
      6.91654265e-001 5.86993396e-001 2.60566145e-001 5.17807841e-001
      4.42375004e-001 8.60482574e-001 5.69413483e-001 1.15696251e-001
      3.19841772e-001 1.86239231e+000 1.12191415e+000 1.58963740e-001
      3.88228446e-001 2.37099826e-002 8.42147589e-001 1.02733120e-001
      5.42448282e-001 6.72444522e-001 1.20827802e-001 5.50861331e-003
      6.43971980e-001 2.97042966e-001 5.87964535e-001 2.38323599e-001
      9.04706597e-001 1.92686290e-001 4.15681303e-002 6.24118030e-001
      8.99453998e-001 9.20800045e-002 1.58038032e+000 3.15645427e-001
      3.36315721e-001 1.30072877e-001 6.27987027e-001 1.37597146e-002
      1.49166882e-001 5.40438518e-002 8.48069608e-001 8.20275903e-001
      5.31480789e-001 4.38975811e-001 4.53723013e-001 4.85566221e-002
      4.14094061e-001 6.37459517e-001 6.10862195e-001 2.44526401e-001
      3.26743834e-002 9.71374139e-002 5.98424613e-001 1.27166882e-001</_>
    <_>
      2.05451533e-001 5.58481291e-002 6.24837399e-001 4.46914256e-001
      7.28546679e-001 1.24422240e+000 3.60203266e-001 9.82847631e-001
      1.25957569e-002 1.23015833e+000 8.07375193e-001 7.68136382e-001
      4.29932714e-001 1.35770023e-001 2.95093894e-001 4.21710789e-001
      5.71648777e-001 3.97386611e-001 1.39545240e-002 9.34026957e-001
      1.02182937e+000 1.29522100e-001 1.25574574e-001 5.05921133e-002
      5.40132150e-002 9.88671854e-002 3.70089203e-001 3.55455458e-001
      9.16987777e-001 9.36459959e-001 3.54810134e-002 1.95301437e+000
      3.26635800e-002 1.28943145e-001 7.19116628e-002 4.74621132e-002
      5.38061976e-001 3.53183717e-001 7.82786131e-001 1.39343673e-002
      1.37211490e+000 1.73026100e-001 4.88169044e-001 1.09813571e-001
      5.67434430e-001 2.65393734e-001 8.29979837e-001 8.33775476e-002
      4.34059083e-001 2.81230472e-002 3.25325519e-001 2.42706448e-001
      3.26984115e-002 2.90174484e-002 1.24876209e-001 2.93606222e-001
      3.28564823e-001 3.89361173e-001 8.64347756e-001 5.95207691e-001
      9.12808597e-001 8.50111246e-001 6.34995639e-001 4.94697422e-001
      8.35076272e-001 5.24405718e-001 3.98872904e-002 2.44193166e-001
      7.37856388e-001 1.94033831e-001 9.97528732e-002 1.47759527e-001
      5.28566301e-001 1.29934894e-002 1.82626739e-001 3.33639354e-001
      9.05225351e-002 3.39476168e-002 4.80227917e-001 1.65412575e-001
      6.34403467e-001 2.63366908e-001 4.58083637e-002 4.49459493e-001
      5.70101976e-001 6.15740418e-001 1.22361347e-001 5.61429635e-002
      3.01579088e-001 1.29797548e-001 6.54633343e-001 1.16121578e+000
      4.19557318e-002 3.92850012e-001 3.93781066e-002 3.10144395e-001
      3.64303589e-002 1.16815343e-001 1.28321335e-001 9.35929194e-002
      4.78547439e-002 2.54594326e-001 9.77652788e-001 1.10761769e-001
      6.58316851e-001 4.94814664e-001 5.05106710e-003 3.37434024e-001
      2.15092674e-001 2.51564741e-001 4.30357866e-002 5.36988735e-001
      1.01508675e-002 4.77884293e-001 3.24683338e-001 5.29410899e-001
      5.45496166e-001 2.86505967e-001 3.51107568e-001 3.02282602e-001
      4.43479389e-001 4.53515425e-002 6.01174593e-001 1.02759862e+000
      1.02873564e+000 3.25192921e-002 1.17807556e-002 1.71877122e+000
      8.01235810e-002 1.58270872e+000 6.19786263e-001 2.44780838e-001
      8.00190091e-001 5.51274598e-001 3.82591188e-002 6.91887796e-001
      3.30157168e-002 2.50442266e-001 3.85244071e-001 1.13430887e-001
      4.49491292e-002 3.73249739e-001 2.29473665e-001 2.56406307e-001
      2.65380412e-001 5.25684357e-001 6.24187887e-001 1.44444048e-001
      1.20340383e+000 4.14697289e-001 3.88308555e-001 2.37591863e-001
      3.82074952e-001 3.52533609e-001 1.16922095e-001 1.77286398e-002
      3.33926201e-001 6.39005244e-001 7.50121549e-002 1.06742688e-001
      5.89322031e-001 6.01353645e-002 3.37376922e-001 9.07600075e-002
      2.37013444e-001 1.31736442e-001 7.36605644e-001 6.70656025e-001
      3.41815967e-003 1.06616950e+000 1.35443002e-001 1.06652761e+000
      7.03873336e-001 4.07959849e-001 5.77022731e-001 2.28231087e-001
      9.34222341e-001 5.15278757e-001 2.59277403e-001 4.06799227e-001
      2.16981381e-001 1.20435162e-002 1.03793100e-001 1.25533551e-001
      4.35067773e-001 1.21947682e+000 3.13022465e-001 1.44658208e-001
      7.38691807e-001 1.05969262e+000 2.59198695e-001 1.08914375e-002
      2.83064336e-001 9.21440363e-001 5.30964792e-001 6.10988200e-001
      1.69897020e-001 1.13430524e+000 9.03373718e-001 1.00052583e+000
      9.38796818e-001 3.95311385e-001 4.57923025e-001 4.22077388e-001
      1.30507922e+000 5.05618453e-001 3.03730130e-001 1.21052122e+000
      2.79176265e-001 2.27662265e-001 1.92615181e-001 1.22482188e-001
      4.13410664e-001 1.47955549e+000 2.16405541e-001 1.29836515e-001
      2.12274611e-001 1.90589085e-001 1.09372830e+000 1.42731935e-001
      3.96658301e-001 1.02074420e+000 1.22846372e-001 1.27941859e+000
      3.00598443e-001 3.45110357e-001 2.31912985e-001 4.97292250e-001
      3.41064513e-001 1.02708530e+000 6.12844713e-002 3.98957163e-001
      6.05587840e-001 5.52114487e-001 9.97630775e-001 1.71245411e-001
      3.72304060e-002 3.25360312e-003 4.73355442e-001 4.21886751e-003
      1.20215289e-001 9.37653035e-002 9.72186401e-002 2.49548912e-001
      1.76212251e+000 4.88866389e-001 1.34826183e+000 9.56952512e-001
      6.79815471e-001 3.98090750e-001 2.95105487e-001 2.74709344e-001
      8.06130171e-001 9.13403749e-001 4.08568710e-001 9.59425196e-002
      5.82256794e-001 9.99422610e-001 3.61356437e-001 1.19795628e-001
      2.67737329e-001 3.01354025e-002 6.04453146e-001 9.12205279e-002
      7.34968364e-001 6.43306494e-001 8.27331245e-002 1.01678232e-002
      4.81796086e-001 8.80365431e-001 2.99476177e-001 2.02245891e-001
      5.21238208e-001 2.31021136e-001 4.58929315e-002 1.01419294e+000
      3.34281564e-001 1.57374531e-001 1.03179896e+000 2.99100220e-001
      3.37335616e-001 1.24147452e-001 6.23641193e-001 1.36843147e-002
      1.23745471e-001 8.22209194e-002 1.83431470e+000 4.45532650e-001
      6.70366824e-001 2.92714059e-001 5.38633347e-001 3.43976952e-002
      3.55488032e-001 1.73856342e+000 6.04511917e-001 1.95312828e-001
      4.08622958e-002 1.20919824e-001 3.73785734e-001 9.09569860e-002</_>
    <_>
      3.41417909e-001 3.72975506e-002 3.05615991e-001 6.90308034e-001
      1.79825544e+000 4.79258239e-001 6.65263295e-001 2.22773597e-001
      1.05715618e-002 5.24082482e-001 4.41063046e-001 9.03542101e-001
      3.88437927e-001 2.05240920e-001 2.91922122e-001 2.52366573e-001
      5.44649482e-001 5.51141024e-001 1.97011307e-002 1.21747136e+000
      1.59850371e+000 5.49328625e-001 9.25310031e-002 6.17983900e-002
      1.84137136e-001 9.23689008e-002 1.70329595e+000 3.24303836e-001
      8.71813819e-002 3.18648100e-001 3.91926579e-002 2.96528482e+000
      5.40996641e-002 2.19606638e-001 1.23462744e-001 4.37022224e-002
      1.18252493e-001 2.39971340e-001 1.14950192e+000 1.66062415e-002
      2.56122887e-001 3.71970117e-001 1.67174086e-001 9.44598541e-002
      1.10638767e-001 8.40838611e-001 1.74627066e-001 3.87390032e-002
      7.85180688e-001 3.45172994e-002 7.08591461e-001 4.15517598e-001
      3.32958810e-002 1.97999328e-002 9.97095034e-002 4.75672305e-001
      7.07893744e-002 1.59876430e+000 9.31953490e-002 1.93150192e-001
      4.47281212e-001 1.22631669e+000 2.14169368e-001 1.76612571e-001
      2.03544050e-001 7.42005110e-001 4.89984602e-002 7.74893403e-001
      6.79459870e-001 8.36543515e-002 1.26361236e-001 3.86540115e-001
      7.75787413e-001 1.57814082e-002 9.96162593e-002 3.83664817e-001
      7.43676051e-002 4.38101627e-002 3.49475652e-001 2.92559624e-001
      3.05315673e-001 4.74827409e-001 4.01098318e-002 6.36846423e-002
      9.25346375e-001 1.31021291e-001 6.58835247e-002 5.78044318e-002
      1.01889282e-001 7.72965699e-002 1.36947364e-001 3.98365617e-001
      6.16553724e-002 4.75386262e-001 2.24341936e-002 4.14632499e-001
      4.16675769e-002 1.39153630e-001 8.96199197e-002 9.02044922e-002
      3.19921225e-002 5.22276402e-001 9.55265880e-001 7.44040310e-002
      5.33740163e-001 1.55948341e-001 4.29903995e-003 3.10851067e-001
      3.38395715e-001 4.37676370e-001 5.13469502e-002 7.96671569e-001
      1.80660095e-002 2.21519738e-001 7.38644063e-001 6.26420557e-001
      5.40623702e-002 4.80598986e-001 6.97784662e-001 6.26490861e-002
      2.30858639e-001 3.00290883e-002 5.84878802e-001 5.32593489e-001
      6.47968471e-001 6.79627582e-002 6.38272800e-003 1.47961581e+000
      1.49751529e-001 1.17378342e+000 9.80622053e-001 2.48960406e-001
      2.33430713e-001 3.24719965e-001 4.65207696e-002 1.73744202e-001
      1.64907165e-002 1.27278239e-001 7.79435813e-001 1.31290242e-001
      1.23854000e-002 2.45365217e-001 5.83174229e-001 3.61611515e-001
      4.55790162e-001 7.92007506e-001 6.77974164e-001 1.86849326e-001
      3.25673640e-001 9.80370715e-002 6.76831782e-001 1.90160334e-001
      9.74132657e-001 2.68224537e-001 1.43288583e-001 1.52883949e-002
      3.96125883e-001 2.29505733e-001 4.77299839e-002 6.28121048e-002
      1.75319642e-001 1.21303402e-001 9.87891629e-002 1.07148878e-001
      5.71920633e-001 7.09701478e-002 2.38966012e+000 8.11746001e-001
      6.11068681e-003 2.55288696e+000 2.07341388e-001 1.24169314e+000
      1.16919301e-001 7.94931129e-002 1.34226906e+000 1.29143369e+000
      1.65575290e+000 2.64733672e-001 2.79144853e-001 1.68606594e-001
      6.14257813e-001 1.58659592e-002 9.45039243e-002 1.02102295e-001
      3.26068580e-001 6.68116629e-001 3.81252587e-001 2.13100120e-001
      1.55639720e+000 4.66154367e-001 2.55272925e-001 6.52382150e-003
      1.65004149e-001 3.56179655e-001 9.00095224e-001 8.85870457e-001
      1.16988264e-001 1.45610952e+000 1.43777561e+000 9.22700837e-002
      3.66868079e-001 7.19427764e-001 1.06326386e-001 1.29791009e+000
      2.61936218e-001 7.30269313e-001 4.87590462e-001 1.12852407e+000
      5.56198180e-001 2.58988947e-001 6.93203330e-001 1.64731786e-001
      1.15849602e+000 9.75651026e-001 5.67845225e-001 1.39081255e-001
      2.53081828e-001 3.15926492e-001 9.78665709e-001 1.58835322e-001
      7.11600244e-001 1.80306339e+000 5.59290685e-002 2.63415647e+000
      9.01486874e-001 5.05867064e-001 4.42803681e-001 9.35014337e-002
      1.20849058e-001 1.73647940e-001 9.93392989e-002 3.07747722e-001
      1.82635233e-001 1.65219557e+000 2.71487737e+000 5.36033154e-001
      1.67483594e-002 5.45339892e-003 2.59028435e-001 6.09921897e-003
      1.39363676e-001 6.89033568e-002 1.73089936e-001 3.47277880e-001
      2.69789100e-001 3.74316812e-001 2.41174996e-001 2.26791516e-001
      1.18056154e+000 2.22773701e-001 1.11243343e+000 2.67965555e-001
      2.63486862e-001 1.64921045e+000 3.62959087e-001 1.83441609e-001
      3.42582524e-001 2.05660868e+000 7.07365870e-001 1.64013654e-001
      8.68219554e-001 1.90359633e-002 9.36817169e-001 1.25431687e-001
      3.79039109e-001 1.24240911e+000 9.01931748e-002 4.25010175e-003
      3.74961406e-001 3.46776366e-001 3.29592854e-001 5.78202784e-001
      5.64554989e-001 4.18988764e-002 4.54140678e-002 2.49369711e-001
      9.54197049e-001 8.14808384e-002 1.66144049e+000 4.55025136e-001
      1.50896132e-001 1.76477939e-001 7.06535757e-001 1.16339279e-002
      1.63423970e-001 2.91898735e-002 6.35756373e-001 4.43508387e-001
      4.46865946e-001 2.85430253e-001 2.52732486e-001 3.07777766e-002
      2.97663897e-001 1.70937383e+000 1.19498527e+000 3.72348100e-001
      3.46300490e-002 1.65240124e-001 1.92918241e-001 3.99226062e-002</_>
    <_>
      3.07606667e-001 4.14293371e-002 2.61669576e-001 4.68973488e-001
      4.90572333e-001 1.06056643e+000 6.21522307e-001 7.89678991e-001
      1.17258336e-002 9.94327545e-001 4.55286801e-001 1.00714552e+000
      2.86054045e-001 9.29062068e-002 1.71744630e-001 3.09377491e-001
      2.02466249e-001 2.23271266e-001 1.11294705e-002 4.81846571e-001
      8.80540848e-001 9.06763077e-002 1.01663686e-001 5.98765388e-002
      8.36526826e-002 2.85761446e-001 2.31726453e-001 2.53446966e-001
      1.09394693e+000 1.38684344e+000 2.56464817e-002 8.15409124e-001
      4.18295562e-002 1.44421592e-001 1.32018358e-001 3.68368924e-002
      6.17070198e-001 2.73333937e-001 4.26001787e-001 1.49406167e-002
      9.03599501e-001 1.72923326e-001 8.92666459e-001 1.30962700e-001
      6.21127069e-001 1.79561272e-001 1.34102476e+000 1.20630190e-001
      3.60487968e-001 4.03855033e-002 1.90237746e-001 1.78939685e-001
      4.63706441e-002 9.93758161e-003 1.16463989e-001 2.51551926e-001
      2.69054741e-001 3.74987185e-001 1.17887366e+000 1.57712650e+000
      1.36606860e+000 5.16919255e-001 1.47397244e+000 6.69598997e-001
      4.42743450e-001 4.01138604e-001 4.22199555e-002 1.89516127e-001
      3.58615100e-001 2.27774382e-001 7.29006752e-002 2.78627276e-001
      4.93513525e-001 1.07104657e-002 4.23790336e-001 1.94842771e-001
      7.45578930e-002 4.67977077e-002 4.45595473e-001 2.33282775e-001
      1.42044568e+000 1.12550795e-001 2.76466943e-002 3.89171958e-001
      4.41959381e-001 7.82560229e-001 5.33720739e-002 1.55953109e-001
      9.82329175e-002 1.30998090e-001 1.35597944e+000 1.29534495e+000
      3.20833735e-002 3.77284199e-001 2.26698257e-002 5.56933045e-001
      3.75715047e-002 5.77242300e-002 8.49230140e-002 2.55034044e-002
      6.34221062e-002 1.42244220e-001 3.30075294e-001 1.16355963e-001
      1.22439611e+000 6.76703513e-001 7.64637906e-003 4.52981144e-001
      3.39325428e-001 5.22172391e-001 3.03116515e-002 3.24962348e-001
      9.58466064e-003 3.60285074e-001 2.12985367e-001 2.92465806e-001
      7.02350616e-001 1.87590912e-001 3.03114235e-001 2.97832042e-001
      8.09505343e-001 6.41742870e-002 5.68550885e-001 9.07378852e-001
      5.02866745e-001 4.20630090e-002 6.70119049e-003 1.03129017e+000
      8.50985125e-002 1.33957243e+000 4.96025532e-001 5.15417695e-001
      1.02981710e+000 2.95116514e-001 3.05283777e-002 1.21398699e+000
      1.50507716e-002 2.17074215e-001 2.37668112e-001 9.33211446e-002
      2.91793775e-002 3.18127543e-001 2.29066283e-001 3.26733053e-001
      5.56848526e-001 3.06750327e-001 4.72068906e-001 4.38863933e-001
      1.93332958e+000 1.24574447e+000 1.98241666e-001 2.43981466e-001
      2.80566931e-001 3.87954891e-001 1.07812449e-001 2.11648960e-002
      3.45660418e-001 4.32240278e-001 1.65494859e-001 1.00456879e-001
      1.27485013e+000 6.50764555e-002 4.01519775e-001 5.96511662e-002
      1.17044903e-001 3.36795449e-002 7.73933411e-001 5.23261964e-001
      3.48365935e-003 9.16008949e-001 1.44527748e-001 4.54471052e-001
      5.94091415e-001 9.13556516e-001 3.98998648e-001 1.64246768e-001
      1.08342874e+000 4.49951530e-001 4.33111459e-001 8.61278415e-001
      1.19205445e-001 1.03243021e-002 1.05537273e-001 1.06961392e-001
      3.39760929e-001 5.43205202e-001 1.71091825e-001 7.42112026e-002
      2.71149039e-001 9.87501264e-001 2.18561232e-001 3.79160009e-002
      1.61371872e-001 1.00825882e+000 4.33419019e-001 5.59533834e-001
      1.82573929e-001 4.24057722e-001 4.08166826e-001 1.10341775e+000
      9.67135191e-001 3.11620295e-001 9.33587015e-001 6.56985998e-001
      1.57619405e+000 2.28863120e-001 2.42398635e-001 4.90839362e-001
      2.38295242e-001 2.78288156e-001 1.26279563e-001 9.71851572e-002
      3.25347602e-001 8.32093596e-001 1.04526177e-001 1.30660042e-001
      2.04199106e-001 1.44392356e-001 6.65959537e-001 3.97681743e-001
      2.28714392e-001 7.38469422e-001 2.14348957e-001 1.19964731e+000
      4.25272852e-001 2.01444283e-001 5.93961477e-001 9.85130966e-001
      8.07276443e-002 1.20580566e+000 4.00365777e-002 2.49342531e-001
      3.19785893e-001 5.31556129e-001 8.63837183e-001 2.83572733e-001
      9.10630524e-002 3.62947048e-003 2.87973821e-001 3.64892930e-003
      7.04864189e-002 7.54816532e-002 6.96873888e-002 1.69944748e-001
      1.42811406e+000 7.46979177e-001 7.19244957e-001 7.08108783e-001
      5.63107610e-001 2.92722881e-001 3.10339183e-001 8.25282812e-001
      1.22914398e+000 3.13242942e-001 7.44516730e-001 9.58568826e-002
      1.27172709e+000 1.06234705e+000 4.03095305e-001 1.20162979e-001
      1.77180588e-001 9.83694755e-003 9.13605094e-001 1.01016611e-001
      6.25225067e-001 8.69057059e-001 9.94179249e-002 1.34594208e-002
      3.37303460e-001 1.14427304e+000 2.11507648e-001 1.44784257e-001
      3.62600923e-001 1.32333517e-001 5.42484522e-002 1.07462668e+000
      3.70608062e-001 1.09069809e-001 9.20240521e-001 3.08514267e-001
      3.25676352e-001 1.29829958e-001 4.41067457e-001 1.67762861e-002
      8.54407325e-002 1.14126183e-001 9.48719442e-001 3.22799474e-001
      9.30909395e-001 1.06183338e+000 1.56193602e+000 3.70586589e-002
      1.98799461e-001 6.81518197e-001 3.74820560e-001 2.07294151e-001
      3.40563543e-002 1.10351190e-001 3.11875194e-001 1.03211217e-001</_>
    <_>
      2.82101423e-001 4.70729880e-002 1.23105907e+000 5.78130722e-001
      1.90078068e+000 3.84076148e-001 6.11735404e-001 3.90440851e-001
      1.57460105e-002 5.11578381e-001 1.10489523e+000 2.26962352e+000
      8.35776150e-001 2.40321502e-001 5.13799012e-001 1.15036976e+000
      3.20049942e-001 5.46846509e-001 2.40724590e-002 1.38683403e+000
      9.83586788e-001 1.83405727e-001 1.24025695e-001 4.41683941e-002
      9.53222290e-002 1.11066937e-001 6.11480117e-001 6.99708760e-001
      4.05632108e-001 4.41702038e-001 4.34419885e-002 2.29501224e+000
      4.44621406e-002 1.67703912e-001 1.74908161e-001 4.42510508e-002
      1.80305064e-001 2.49723971e-001 8.36021781e-001 1.97468977e-002
      5.20268321e-001 3.38991612e-001 2.06828997e-001 1.69235632e-001
      2.09657520e-001 3.73987496e-001 7.28104532e-001 1.00143947e-001
      5.74705243e-001 4.30318378e-002 6.95344806e-001 3.53926450e-001
      3.17723453e-002 1.30263576e-002 1.27145573e-001 1.06862485e+000
      1.37639835e-001 8.46350551e-001 4.98975933e-001 3.79683614e-001
      8.45697045e-001 9.29584801e-001 4.48924303e-001 1.51000962e-001
      1.08080673e+000 3.21609408e-001 6.16644807e-002 4.91493344e-001
      6.89475000e-001 2.90005505e-001 1.58098429e-001 6.48780942e-001
      9.91706669e-001 1.62508041e-002 3.46263707e-001 4.94828045e-001
      1.31832138e-001 4.73218746e-002 2.72153676e-001 6.21363223e-001
      4.06280458e-001 4.95229721e-001 5.42271100e-002 9.31547135e-002
      6.29970431e-001 1.81533530e-001 6.45035282e-002 7.80110508e-002
      1.23321556e-001 9.70929489e-002 5.07834733e-001 2.39205375e-001
      6.42031953e-002 1.33967578e+000 3.10341101e-002 1.52697217e+000
      6.37759715e-002 7.99708068e-002 1.54311433e-001 5.15617318e-002
      5.32902665e-002 3.10056061e-001 1.00767040e+000 2.54861802e-001
      3.70164424e-001 3.87629837e-001 5.79408370e-003 4.41921264e-001
      3.21102440e-001 7.96486497e-001 6.42713308e-002 8.06430161e-001
      1.82659291e-002 4.90253896e-001 8.04997981e-001 5.65210104e-001
      1.60385892e-001 1.94690332e-001 1.41665018e+000 1.39051586e-001
      3.81542593e-001 4.36363854e-002 8.72694314e-001 3.67803097e-001
      9.55249667e-001 5.16415909e-002 5.75346034e-003 2.94931245e+000
      1.77815735e-001 1.83855116e+000 6.80147886e-001 4.40585703e-001
      4.87567365e-001 2.16035381e-001 6.53522760e-002 2.85200894e-001
      1.41679673e-002 9.78780314e-002 8.87897551e-001 1.64344296e-001
      2.84467675e-002 2.72947788e-001 6.30923867e-001 5.59257865e-001
      8.85772169e-001 6.82848811e-001 1.27082551e+000 4.17068779e-001
      6.63108349e-001 3.67024124e-001 3.74694049e-001 3.84670407e-001
      4.09060031e-001 1.73011348e-001 1.83549777e-001 1.18508860e-002
      3.94321352e-001 2.41026506e-001 1.78440601e-001 1.59129664e-001
      1.58139870e-001 2.02748969e-001 2.46102065e-001 5.91955073e-002
      2.36795992e-001 3.60494368e-002 1.48268449e+000 1.31898201e+000
      5.78042911e-003 1.85217583e+000 1.36410356e-001 1.00711095e+000
      2.09778130e-001 4.40449983e-001 9.94025469e-001 5.85500121e-001
      6.67076886e-001 2.46152103e-001 4.11988765e-001 1.75523490e-001
      5.42631209e-001 2.34984308e-002 6.75984547e-002 1.92988023e-001
      7.49930859e-001 9.76081371e-001 3.31655800e-001 1.81867167e-001
      1.58251429e+000 1.62103498e+000 4.86941546e-001 1.25654135e-002
      1.58094943e-001 1.56305635e+000 4.74969029e-001 1.15487063e+000
      2.08633482e-001 8.23144436e-001 1.05686069e+000 4.45225894e-001
      1.33942974e+000 5.82814872e-001 3.18941027e-001 2.60715187e-001
      6.10287368e-001 5.71475327e-001 1.80835336e-001 6.92472994e-001
      7.57871270e-001 1.47419527e-001 4.00502652e-001 2.09829718e-001
      1.28227293e+000 2.64697361e+000 4.18280452e-001 1.65598139e-001
      7.38312364e-001 1.00378585e+000 1.02541971e+000 1.97300166e-001
      8.34511995e-001 1.27100575e+000 7.37607107e-002 2.49586511e+000
      7.43245065e-001 9.72512186e-001 7.18367040e-001 2.80862570e-001
      1.05163246e-001 8.81741583e-001 8.01699385e-002 4.83856678e-001
      2.45934367e-001 9.28360522e-001 1.27356136e+000 4.63421762e-001
      1.66615918e-002 5.55891963e-003 6.47472560e-001 5.98637387e-003
      1.37183741e-001 1.30367979e-001 1.15741029e-001 7.04055309e-001
      5.58074534e-001 6.75208807e-001 2.38767922e-001 3.29345107e-001
      1.14801586e+000 8.28945696e-001 6.97687328e-001 4.30704713e-001
      5.33390462e-001 1.26926136e+000 5.32723248e-001 2.53661692e-001
      4.21777576e-001 1.74385548e+000 1.41445673e+000 1.27845526e-001
      5.00853837e-001 1.32960677e-002 1.15019500e+000 1.81192219e-001
      4.77078497e-001 1.03961742e+000 2.25557089e-001 4.54633869e-003
      4.75213706e-001 8.50352049e-001 8.01507592e-001 3.02527964e-001
      5.24922669e-001 7.41700009e-002 3.34097072e-002 4.39293534e-001
      6.08653367e-001 1.44764319e-001 2.09096980e+000 3.52907330e-001
      4.01110917e-001 1.94346800e-001 7.29719937e-001 1.53069012e-002
      2.16534957e-001 3.47836204e-002 4.24521506e-001 4.19758171e-001
      6.20090604e-001 3.86438370e-001 2.50137269e-001 5.65960445e-002
      5.39372802e-001 1.17707419e+000 5.30567169e-001 2.74938554e-001
      3.62058692e-002 1.51084423e-001 1.51693135e-001 9.68624577e-002</_>
    <_>
      6.64228052e-002 6.69851573e-003 1.66584894e-001 1.75774455e-001
      3.07021707e-001 7.22514510e-001 5.33281505e-001 1.84390754e-001
      5.86551195e-003 1.48024821e+000 1.91091746e-001 1.05880253e-001
      2.27850571e-001 4.01814841e-002 1.08076431e-001 2.06768453e-001
      2.91676044e-001 1.12425283e-001 5.38875395e-003 3.41354191e-001
      5.85227072e-001 2.01827198e-001 6.13570400e-002 1.34748258e-002
      1.24241613e-001 6.48855790e-002 4.09970522e-001 1.64927110e-001
      1.46901637e-001 8.73922855e-002 2.04583909e-002 5.34211814e-001
      1.74768008e-002 5.43345511e-002 4.06589024e-002 4.97605391e-002
      4.89570983e-002 2.98219681e-001 5.53817213e-001 1.75547935e-002
      1.06898904e-001 2.18761683e-001 7.74985328e-002 4.62506227e-002
      7.41754100e-002 2.73098230e-001 2.44803727e-001 3.92699763e-002
      1.39838874e-001 2.28029154e-002 1.88807294e-001 1.63672060e-001
      5.19557530e-003 1.07309846e-002 3.41360755e-002 1.31964177e-001
      4.67234626e-002 5.58573306e-001 1.73393548e-001 8.12890902e-002
      3.39492768e-001 6.21101141e-001 9.98950079e-002 3.05157751e-002
      1.18313804e-001 1.16764796e+000 1.88768692e-002 6.34255931e-002
      3.41645390e-001 1.23698644e-001 8.67865384e-002 1.16993561e-001
      2.01113030e-001 1.10360282e-002 5.53292409e-002 1.40071794e-001
      9.97283459e-002 1.60930343e-002 4.24822837e-001 3.40597332e-001
      9.48527083e-002 2.57410347e-001 1.43625652e-002 5.61006553e-002
      2.11107597e-001 6.29256442e-002 1.36881873e-001 5.41830063e-002
      1.63375586e-001 6.32206127e-002 1.63158104e-001 8.49428177e-002
      3.60582434e-002 3.12226832e-001 2.78465133e-002 2.34890983e-001
      2.69303191e-002 7.23369196e-002 5.21592237e-002 2.19295640e-002
      7.91063383e-002 1.32109359e-001 3.86913151e-001 3.94120887e-002
      1.34240663e+000 8.66633832e-001 3.16699920e-003 1.00825161e-001
      7.56390989e-002 3.27286243e-001 1.58449579e-002 1.18263043e-001
      3.86577263e-003 1.33287072e-001 9.76597518e-002 7.29118228e-001
      5.01750410e-002 3.25676501e-001 2.27019325e-001 4.67948169e-002
      4.11896333e-002 4.97175790e-002 1.67953730e-001 1.35851383e+000
      1.53932735e-001 1.71347335e-002 8.06979463e-003 5.98408937e-001
      4.25028540e-002 1.07511796e-001 2.45568514e-001 1.21981628e-001
      9.92930681e-002 2.41008207e-001 1.74201205e-002 1.64128333e-001
      1.81284416e-002 4.85433728e-001 1.22923151e-001 8.25269744e-002
      1.19976550e-002 2.34388486e-001 2.15241179e-001 1.04847372e-001
      3.29348087e-001 8.85932148e-001 3.25831562e-001 4.11512628e-002
      5.28520644e-002 7.29134604e-002 8.01286697e-001 2.66685605e-001
      1.26766533e-001 1.52019334e+000 3.18504348e-002 3.35799810e-003
      1.04045048e-001 3.64407986e-001 1.34310320e-001 9.58093926e-002
      1.14604793e-001 6.17734417e-002 4.07600850e-002 6.24565296e-002
      1.76305741e-001 4.54830565e-002 1.99391425e-001 3.79685611e-001
      2.76985625e-003 4.38043177e-001 4.12742607e-002 1.24778077e-001
      8.36891457e-002 1.22670397e-001 1.91620365e-001 4.26824361e-001
      1.50546432e-001 2.06614718e-001 4.77366388e-001 3.18158939e-002
      1.66248828e-001 3.75236361e-003 2.08385121e-002 4.30144854e-002
      6.78347722e-002 2.16451794e-001 7.94947669e-002 4.77828234e-002
      2.43547723e-001 2.94168949e-001 1.16633661e-001 3.10558043e-002
      3.20446283e-001 2.42299485e+000 2.31755301e-001 2.17243269e-001
      4.14302275e-002 4.17627692e-001 2.32765421e-001 1.55461669e-001
      2.73934722e+000 2.95511335e-001 8.68732408e-002 2.54413545e-001
      7.72030726e-002 2.16464654e-001 3.49193037e-001 1.17100251e+000
      2.31922969e-001 4.85206842e-001 5.04999273e-002 4.03505526e-002
      1.67668447e-001 5.16867816e-001 2.66128123e-001 4.46930788e-002
      2.18454629e-001 1.48164541e-001 3.63495052e-001 3.55250835e-002
      1.70636803e-001 3.27738643e-001 2.10572444e-002 5.10426402e-001
      1.67812333e-001 2.24574134e-001 7.99941242e-001 1.06462143e-001
      1.41109169e-001 3.52207184e-001 4.43988629e-002 7.61122257e-002
      7.23775923e-002 1.08468994e-001 1.61041528e-001 1.25319809e-001
      5.96306240e-003 1.54361327e-003 1.42474219e-001 4.34285123e-003
      6.09602034e-002 1.08595334e-001 6.92745373e-002 9.54233333e-002
      6.20914251e-002 1.68548718e-001 8.95799696e-002 1.79368883e-001
      2.06299946e-001 1.38589457e-001 1.82673916e-001 6.64452910e-002
      6.73909187e-001 2.98621535e-001 1.41087818e+000 3.49342152e-002
      1.58489740e+000 5.57778478e-001 2.80681610e-001 4.20597196e-002
      2.33405709e-001 1.07929194e-002 1.47763461e-001 3.71138006e-002
      4.27166849e-001 9.58288983e-002 2.23628320e-002 7.24073313e-003
      1.02724485e-001 2.21751466e-001 1.04735352e-001 2.03034699e-001
      6.73690200e-001 3.75696719e-002 9.81673505e-003 1.55012727e-001
      1.37960330e-001 3.15494575e-002 1.26767576e-001 8.80074650e-002
      1.70913219e-001 5.20612337e-002 1.83769450e-001 3.27069522e-003
      2.30691116e-002 2.85009984e-002 1.11815643e+000 1.42855480e-001
      9.29393649e-001 6.73869327e-002 5.85910417e-002 3.01901326e-002
      1.07391015e-001 4.71536815e-001 2.50334531e-001 1.50278851e-001
      6.20428938e-003 3.16669680e-002 1.17613085e-001 3.87713537e-002</_>
    <_>
      7.35760331e-002 2.66356152e-002 1.73311174e-001 1.35698831e+000
      4.13819253e-001 6.04290307e-001 6.01435483e-001 2.52681434e-001
      1.16293654e-002 2.64022619e-001 2.79936701e-001 3.05762619e-001
      1.46773040e-001 7.30217025e-002 2.17002913e-001 9.78822559e-002
      8.09226751e-001 1.39731422e-001 9.60894953e-003 5.74766874e-001
      4.71343964e-001 3.19444627e-001 7.72595182e-002 8.72439425e-003
      1.78035349e-001 1.20423481e-001 9.77506414e-002 3.51721972e-001
      9.76747721e-002 1.12513058e-001 4.13379148e-002 6.43976092e-001
      3.25358324e-002 6.16996028e-002 3.38873379e-002 4.40578312e-002
      6.89625591e-002 2.40978628e-001 4.27863002e-001 2.48224419e-002
      2.29403555e-001 4.93277222e-001 9.36211646e-002 4.59300391e-002
      7.61684775e-002 3.98654550e-001 6.68699563e-001 2.80359350e-002
      9.10165086e-002 2.78040525e-002 1.10813417e-001 1.15307510e-001
      1.52809806e-002 9.55301151e-003 1.63841963e-001 1.80384159e-001
      6.35091811e-002 4.28509116e-001 1.40659273e-001 5.34582496e-001
      8.12426865e-001 5.09966731e-001 1.37414977e-001 7.09886104e-002
      7.99147561e-002 7.60541797e-001 4.51412238e-002 1.38968632e-001
      4.92583960e-001 2.11051553e-001 5.17675988e-002 9.31486785e-002
      2.26818621e-001 1.35651082e-002 2.19702750e-001 1.97795242e-001
      8.51972103e-002 3.28279547e-002 3.30587655e-001 2.65610039e-001
      2.98857003e-001 2.18952149e-001 3.30174305e-002 1.69060513e-001
      1.95584297e-001 8.41844603e-002 8.72459859e-002 1.01750277e-001
      2.16709465e-001 1.03832193e-001 1.49645075e-001 4.95912343e-001
      4.91029732e-002 1.83823824e-001 2.98137926e-002 1.28786832e-001
      3.24052162e-002 1.21205248e-001 1.26168445e-001 2.25114524e-002
      4.80512381e-002 1.84456840e-001 4.72350776e-001 5.34837097e-002
      1.57464337e+000 1.21220994e+000 1.82759445e-002 1.14578515e-001
      1.61776081e-001 3.22958291e-001 5.43029755e-002 8.10242772e-001
      1.18162408e-002 4.32366520e-001 3.21506321e-001 9.43187252e-002
      7.71247894e-002 5.60245752e-001 2.71724582e-001 6.06063679e-002
      9.84041467e-002 4.35427278e-002 3.07404786e-001 1.00504994e+000
      3.06929678e-001 4.13669087e-002 4.86560911e-003 2.49404088e-001
      5.00778183e-002 3.62176120e-001 1.49730563e+000 8.31854939e-002
      1.72023654e-001 1.81281662e+000 2.49281544e-002 7.98847377e-002
      1.42540708e-002 2.57537276e-001 1.02281168e-001 1.42680213e-001
      8.27767607e-003 4.16796625e-001 1.67236418e-001 1.35336459e-001
      2.71267742e-001 8.82556662e-002 3.22696120e-001 1.49100140e-001
      1.16861910e-001 4.24562186e-001 1.57657135e+000 2.10068733e-001
      4.22938108e-001 4.85404521e-001 1.49121389e-001 4.46901098e-003
      1.60470620e-001 3.83176237e-001 1.37110204e-001 8.23647529e-002
      2.65253782e-001 9.77414474e-002 6.43943399e-002 1.48261964e-001
      1.35221854e-001 3.66264172e-002 3.09113890e-001 4.97743636e-001
      3.27081443e-003 4.43506747e-001 6.14709407e-002 3.66323858e-001
      2.53424317e-001 1.71629563e-001 2.19058901e-001 2.38248691e-001
      2.07350522e-001 2.82627374e-001 2.20293713e+000 7.03025684e-002
      1.52838126e-001 1.01456856e-002 2.08775252e-002 5.08304089e-002
      1.43594965e-001 3.25159848e-001 5.00797480e-002 6.34757206e-002
      3.81759346e-001 3.08295995e-001 9.12776142e-002 1.28441947e-002
      1.49266988e-001 2.74485922e+000 5.23803294e-001 1.59707057e+000
      8.03348497e-002 4.87149656e-001 2.57094681e-001 8.96476135e-002
      2.91655755e+000 2.85794526e-001 3.57443541e-001 2.33386159e-001
      1.02779694e-001 9.79991108e-002 4.46509600e-001 2.09990692e+000
      1.81844264e-001 4.64655161e-001 3.54966879e-001 1.05098940e-001
      2.45997399e-001 2.30753630e-001 2.23530680e-001 4.95793521e-002
      1.86879173e-001 1.41563043e-001 5.38641393e-001 1.29495725e-001
      2.33915105e-001 4.50742185e-001 1.34284999e-002 7.46108592e-001
      1.17247246e-001 1.20311253e-001 6.59089208e-001 9.25058201e-002
      1.55566841e-001 3.94816667e-001 4.95599695e-002 7.18253031e-002
      9.07230079e-002 3.50321651e-001 1.03214383e-001 9.70872417e-002
      7.86460377e-003 1.50503882e-003 4.95757461e-001 3.84072820e-003
      1.61642909e-001 9.60890427e-002 1.33974329e-001 1.38265267e-001
      2.89958388e-001 3.39781463e-001 1.74519524e-001 2.62098670e-001
      1.27872586e+000 8.14298168e-002 2.02785566e-001 4.09114987e-001
      1.66812575e+000 4.11655784e-001 8.94725025e-001 5.14327288e-002
      2.36791325e+000 6.62159860e-001 1.82317004e-001 7.60425106e-002
      1.72575772e-001 9.08945128e-003 5.75018585e-001 7.28541836e-002
      1.04612362e+000 1.52124599e-001 6.05743416e-002 4.96556656e-003
      1.27987638e-001 5.61452210e-001 1.33721635e-001 2.38614395e-001
      1.37213051e+000 6.88895807e-002 9.62829310e-003 2.09668353e-001
      1.29339427e-001 4.30283733e-002 3.60290557e-001 7.11548701e-002
      5.02828896e-001 6.24422096e-002 5.29289186e-001 3.91249591e-003
      3.36394832e-002 5.15318066e-002 5.15315115e-001 1.41514853e-001
      2.74112791e-001 2.68464446e-001 5.27163923e-001 3.55530344e-002
      2.04388320e-001 6.35830283e-001 2.76149035e-001 3.83995742e-001
      1.57695208e-002 6.92684948e-002 1.77199364e-001 3.04994956e-002</_>
    <_>
      2.17445642e-001 3.22749615e-002 3.58836979e-001 2.95619071e-001
      5.74607432e-001 9.38063860e-001 6.81314588e-001 2.74293303e-001
      1.29438015e-002 1.64194775e+000 7.72813916e-001 7.12958157e-001
      3.76872391e-001 1.10028751e-001 2.33926624e-001 4.38234985e-001
      2.01817602e-001 2.12269500e-001 1.22490544e-002 4.94531155e-001
      4.82689112e-001 6.74222931e-002 1.27069995e-001 2.81079840e-002
      6.80837408e-002 1.66100621e-001 4.76023525e-001 3.13178569e-001
      2.77547628e-001 1.06415856e+000 2.30243877e-002 1.28670049e+000
      3.46338153e-002 8.60495791e-002 8.69031772e-002 2.90802401e-002
      4.13796067e-001 1.94093078e-001 3.91188025e-001 1.04374010e-002
      4.40833449e-001 1.67619541e-001 1.10522240e-001 1.03108726e-001
      5.05207360e-001 1.90463856e-001 6.81620121e-001 8.06063637e-002
      2.81326592e-001 3.12083066e-002 3.78785461e-001 1.97709620e-001
      3.57991718e-002 8.12798459e-003 6.51937649e-002 3.77223521e-001
      9.41499397e-002 9.40135539e-001 3.71692955e-001 1.32054701e-001
      4.47523177e-001 5.03937483e-001 8.78665507e-001 4.67418283e-001
      4.69571054e-001 2.39203557e-001 2.69734450e-002 1.86317936e-001
      4.03047115e-001 4.39116597e-001 8.48746449e-002 5.80703676e-001
      7.26308167e-001 9.93036665e-003 3.48488897e-001 5.28278470e-001
      5.65759838e-002 3.04930639e-002 4.30844486e-001 3.09413850e-001
      6.79358780e-001 1.50384039e-001 5.30283637e-002 1.12137251e-001
      3.38953555e-001 2.42257580e-001 7.75535181e-002 8.44391435e-002
      1.23528890e-001 5.64566813e-002 4.99479502e-001 4.48064893e-001
      3.38440388e-002 7.64791191e-001 2.27398686e-002 4.85794574e-001
      3.93604301e-002 8.12747777e-002 1.01660170e-001 4.38733287e-002
      5.41749708e-002 1.74631700e-001 6.30863607e-001 1.23348594e-001
      6.08477890e-001 3.76719981e-001 4.39030910e-003 2.94316173e-001
      2.09518746e-001 4.62798327e-001 2.71879248e-002 2.80518532e-001
      1.22577744e-002 3.74519706e-001 3.27496380e-001 3.54431540e-001
      1.14125617e-001 1.35131001e-001 9.45921302e-001 9.67100486e-002
      5.42752445e-001 3.60379107e-002 5.15317261e-001 3.89707208e-001
      6.16681397e-001 2.54580062e-002 4.12129657e-003 1.18178761e+000
      7.55000338e-002 5.20387292e-001 5.89556217e-001 2.05603212e-001
      4.15256113e-001 2.14860797e-001 4.98402417e-002 1.86936617e-001
      1.13806734e-002 1.47707939e-001 4.31707233e-001 8.19729120e-002
      2.38536336e-002 2.16480628e-001 3.99140090e-001 4.44323301e-001
      5.33387780e-001 4.12058413e-001 5.52089095e-001 2.62873799e-001
      1.29134202e+000 5.01850367e-001 2.19662607e-001 1.96017712e-001
      5.20181596e-001 5.63223898e-001 1.17538325e-001 1.05264885e-002
      3.89302731e-001 6.96492553e-001 1.51126280e-001 6.86687976e-002
      2.58816242e-001 5.96995614e-002 1.16193615e-001 4.41594720e-002
      2.41774663e-001 3.34519558e-002 1.23412752e+000 7.19827890e-001
      5.23921521e-003 1.46807873e+000 9.73867103e-002 6.62238896e-001
      3.03530693e-001 3.80791008e-001 3.63460988e-001 9.12676215e-001
      5.68025112e-001 5.89806139e-001 2.21736982e-001 5.11495769e-001
      2.90676057e-001 1.33432765e-002 5.30630238e-002 9.80116278e-002
      3.47701222e-001 6.77927434e-001 1.69141412e-001 1.13286510e-001
      8.61248314e-001 1.15878367e+000 1.94696650e-001 9.69186146e-003
      1.86264172e-001 1.28255129e+000 4.55908865e-001 5.63156009e-001
      1.26274556e-001 5.13871908e-001 4.99204636e-001 2.67311662e-001
      1.19723833e+000 3.17697018e-001 4.83246922e-001 2.59638131e-001
      1.74832416e+000 3.66658956e-001 1.63564011e-001 5.60365200e-001
      5.34002185e-001 1.80117652e-001 2.00131759e-001 1.17320381e-001
      3.96120161e-001 1.09265506e+000 1.46899030e-001 6.99881613e-002
      2.02978790e-001 4.15839732e-001 5.17040670e-001 2.45240942e-001
      2.17614964e-001 7.76583970e-001 3.32851857e-002 1.05604613e+000
      4.23893839e-001 6.19747341e-001 6.67747319e-001 2.00901195e-001
      9.69967023e-002 7.97771990e-001 5.69256693e-002 1.57337308e-001
      1.76958874e-001 7.50364900e-001 5.54675758e-001 2.64002144e-001
      3.45662832e-002 3.92664643e-003 3.37874085e-001 4.01944481e-003
      1.04164347e-001 5.81989028e-002 9.73474160e-002 2.21895382e-001
      1.07970881e+000 2.28730306e-001 1.97964534e-001 2.88787752e-001
      6.02827132e-001 4.27764177e-001 4.58406746e-001 3.33534002e-001
      8.75744998e-001 7.70626426e-001 9.02093172e-001 8.41571316e-002
      6.49685204e-001 7.52008080e-001 7.39475667e-001 7.88079575e-002
      3.76227677e-001 8.48607440e-003 4.71690148e-001 1.12271361e-001
      2.89635360e-001 9.01875615e-001 8.89378861e-002 1.16372965e-002
      1.49413869e-001 3.71569216e-001 3.52715373e-001 2.56336182e-001
      4.57584620e-001 1.13350347e-001 3.01997010e-002 3.57872844e-001
      5.91903925e-001 8.30852836e-002 4.54959810e-001 1.72990471e-001
      3.68458807e-001 9.70490053e-002 5.42655647e-001 1.01948436e-002
      4.31340747e-002 1.30447298e-001 1.49011946e+000 1.75810456e-001
      1.20959234e+000 6.15411639e-001 2.44290993e-001 2.60697789e-002
      2.63094008e-001 6.63180530e-001 1.57038748e-001 1.58860728e-001
      3.19733992e-002 8.48316029e-002 8.05547535e-002 7.80786499e-002</_>
    <_>
      4.86341983e-001 5.62056378e-002 3.86752844e-001 1.57234442e+000
      9.71923351e-001 9.24676776e-001 6.32295370e-001 8.70390296e-001
      2.00261213e-002 1.10154796e+000 6.47520959e-001 1.15397000e+000
      4.19165820e-001 3.42630118e-001 5.91945112e-001 4.40068364e-001
      4.98694986e-001 7.91032135e-001 2.98068337e-002 2.27763653e+000
      1.75735128e+000 6.29057229e-001 1.32554129e-001 8.26267973e-002
      3.17443162e-001 1.27217934e-001 2.56149912e+000 7.14416981e-001
      1.59782961e-001 2.65938133e-001 1.02302954e-001 2.19952273e+000
      7.15460107e-002 2.34954283e-001 2.07578883e-001 5.54842651e-002
      1.36025071e-001 3.18856806e-001 1.46309030e+000 2.72419825e-002
      2.11783022e-001 5.15244305e-001 1.01145722e-001 2.30548352e-001
      1.31806061e-001 1.21354938e+000 4.14552003e-001 7.48823881e-002
      1.23319376e+000 4.32325043e-002 3.70909125e-001 4.26687539e-001
      4.16841544e-002 3.36603969e-002 2.08247766e-001 7.11673558e-001
      1.44598693e-001 1.51717520e+000 3.82444441e-001 2.42889538e-001
      6.95962191e-001 1.52380073e+000 6.74176931e-001 1.25691533e-001
      6.77954733e-001 8.86139929e-001 8.65848213e-002 9.15605009e-001
      8.46763611e-001 1.11040115e-001 3.93022090e-001 5.68119109e-001
      6.61155581e-001 2.97042225e-002 3.38036478e-001 6.77751839e-001
      2.19289735e-001 6.81064352e-002 5.23847640e-001 6.73218787e-001
      5.62399089e-001 7.11210907e-001 4.62200753e-002 1.77861795e-001
      9.33321238e-001 1.03640117e-001 1.21226005e-001 7.11586103e-002
      1.87535256e-001 2.39321634e-001 6.54236555e-001 8.21085632e-001
      1.07708029e-001 1.67328730e-001 3.86765786e-002 1.59954798e+000
      7.76990205e-002 1.96632817e-001 2.11870715e-001 2.64571965e-001
      4.93212976e-002 9.90185678e-001 1.62094533e+000 1.98792309e-001
      3.06221694e-001 2.40813732e-001 9.40581132e-003 3.26024681e-001
      3.45314264e-001 7.57807136e-001 1.13051437e-001 1.66770053e+000
      2.48509869e-002 8.33828270e-001 1.47589421e+000 8.31335127e-001
      8.69992673e-002 5.50877690e-001 3.26347023e-001 8.33573788e-002
      1.65651187e-001 2.74370275e-002 8.75118911e-001 1.18817627e+000
      2.05101633e+000 8.20408016e-002 1.26946038e-002 2.39708066e+000
      1.43276453e-001 2.25550938e+000 1.56117260e+000 8.46958041e-001
      2.57085294e-001 1.35152781e+000 8.05290490e-002 1.61788464e-001
      2.25095693e-002 1.48020476e-001 5.88850975e-001 2.56274134e-001
      2.38333344e-002 2.75478214e-001 3.98791105e-001 5.28714359e-001
      7.30284512e-001 8.09061348e-001 1.57348049e+000 2.95611203e-001
      3.65573347e-001 5.08268893e-001 1.96173668e+000 2.38581732e-001
      9.18386221e-001 6.11613572e-001 2.75147468e-001 2.33496949e-002
      2.48015150e-001 5.77275932e-001 1.18156187e-001 1.60439640e-001
      8.68928358e-002 2.77724475e-001 1.34937897e-001 2.43762240e-001
      4.82107073e-001 1.26903504e-001 1.15502560e+000 1.59652591e+000
      5.96115971e-003 2.24073648e+000 1.54479221e-001 1.67841709e+000
      2.84774840e-001 3.56598020e-001 8.12154889e-001 1.42544234e+000
      2.38786697e+000 5.73254466e-001 2.44729662e+000 1.87854156e-001
      5.56859076e-001 1.95322242e-002 1.67149276e-001 2.06433609e-001
      6.96428895e-001 1.90528774e+000 7.68077552e-001 5.88582575e-001
      2.14495754e+000 1.02502155e+000 5.83334327e-001 8.80469847e-003
      2.81549811e-001 1.06816888e+000 1.20780849e+000 1.52428794e+000
      2.54301429e-001 1.47474110e+000 1.28001130e+000 2.13474438e-001
      1.10439539e+000 1.46251106e+000 4.10855353e-001 6.16573632e-001
      3.10483187e-001 1.07015622e+000 4.45849955e-001 2.36939645e+000
      4.28408355e-001 3.97009343e-001 9.08805430e-001 3.31674993e-001
      1.65331256e+000 2.12982464e+000 6.66155875e-001 1.78701043e-001
      2.30579719e-001 1.95897028e-001 2.40441656e+000 4.09537315e-001
      7.99698710e-001 1.71873915e+000 5.35447896e-002 2.13765001e+000
      6.50726378e-001 3.55479598e-001 6.17735445e-001 1.06328420e-001
      1.81816474e-001 7.34016359e-001 2.20206246e-001 5.32130718e-001
      6.52519166e-001 1.08159840e+000 1.00071490e+000 1.90613544e+000
      2.95276400e-002 6.06987393e-003 7.65793860e-001 1.35157891e-002
      1.99199170e-001 2.11179063e-001 3.06880444e-001 5.78525782e-001
      7.73900390e-001 6.12364590e-001 1.93961591e-001 9.10082459e-001
      1.23956740e+000 5.33230066e-001 6.63340271e-001 5.86701393e-001
      3.95914376e-001 2.13505459e+000 7.08707154e-001 1.70619056e-001
      2.12471247e+000 1.97803760e+000 1.83891869e+000 1.61948368e-001
      4.42972809e-001 3.48761342e-002 1.10067594e+000 1.92989513e-001
      1.85463950e-001 9.86323237e-001 2.27304369e-001 8.41480494e-003
      5.03429651e-001 8.54389727e-001 5.76744258e-001 6.32771790e-001
      1.33005917e+000 3.63519378e-002 7.61851445e-002 6.24694228e-001
      1.22129309e+000 2.04692572e-001 1.76026797e+000 5.54363251e-001
      7.80851483e-001 1.78655535e-001 1.96407175e+000 2.60173231e-002
      1.90294966e-001 5.78382574e-002 1.20787454e+000 4.35405999e-001
      8.75801086e-001 5.41268289e-001 2.16140971e-001 9.85748395e-002
      6.36045456e-001 1.84698582e+000 6.71011686e-001 4.55694973e-001
      5.19006103e-002 2.25029588e-001 1.96554780e-001 5.85319921e-002</_>
    <_>
      3.28527510e-001 4.81256768e-002 1.07941806e+000 1.01351225e+000
      1.80081594e+000 2.53469348e+000 1.44475472e+000 6.08012855e-001
      2.83141527e-002 1.57300222e+000 1.71810901e+000 2.19648981e+000
      9.46654618e-001 1.77446529e-001 6.64305508e-001 4.59540009e-001
      1.89787820e-001 3.71837288e-001 2.17043832e-002 1.61091530e+000
      1.90447295e+000 5.09410203e-001 1.98629156e-001 6.25976920e-002
      1.29058629e-001 1.60390049e-001 7.72324204e-001 4.87911612e-001
      8.55757296e-001 8.09587657e-001 6.88137040e-002 1.25728762e+000
      5.13188578e-002 1.33876219e-001 2.29806408e-001 6.31026328e-002
      3.60189438e-001 3.32242727e-001 1.97996509e+000 2.53838804e-002
      1.00833821e+000 5.35598457e-001 3.92695814e-001 1.11583136e-001
      4.87306118e-001 1.18608022e+000 1.32587862e+000 1.22659832e-001
      5.12977540e-001 5.79692461e-002 1.08560252e+000 7.49612510e-001
      5.22593930e-002 1.74345113e-002 1.06168576e-001 7.66172707e-001
      3.99996877e-001 1.56898570e+000 6.93219721e-001 4.01804984e-001
      8.41113627e-001 1.85834849e+000 6.56074941e-001 2.95739979e-001
      1.05602074e+000 4.77978349e-001 6.12553023e-002 4.55849409e-001
      9.10126448e-001 3.09800148e-001 2.60681242e-001 5.40354311e-001
      1.02566278e+000 2.76479125e-002 3.24507713e-001 6.87043965e-001
      1.35780960e-001 5.46046123e-002 6.43443942e-001 4.18864071e-001
      5.53510189e-001 4.84323144e-001 4.44893166e-002 3.02929312e-001
      6.02250516e-001 5.47980368e-001 1.79945618e-001 9.48807299e-002
      1.47527441e-001 8.94591585e-002 5.15627980e-001 9.13894892e-001
      5.41686080e-002 1.91564608e+000 4.66850549e-002 1.09056103e+000
      4.69957516e-002 1.50586993e-001 2.11069554e-001 5.34773096e-002
      5.45805953e-002 6.04409039e-001 9.06851172e-001 1.78395167e-001
      1.37559032e+000 5.82072020e-001 7.13345641e-003 3.32831681e-001
      4.76825118e-001 1.01571429e+000 6.19153865e-002 4.69726861e-001
      2.22546980e-002 7.82122910e-001 1.58150423e+000 8.48957300e-001
      8.73829603e-001 4.44153011e-001 1.17763853e+000 2.25160897e-001
      8.46482396e-001 4.03673090e-002 1.57694125e+000 7.39344895e-001
      1.93751657e+000 5.69008812e-002 1.01017896e-002 3.06983161e+000
      1.86575562e-001 2.40685558e+000 1.68756032e+000 3.87774587e-001
      7.43333995e-001 2.80404955e-001 6.47337362e-002 9.03212130e-001
      2.65907422e-002 2.72751242e-001 3.96198601e-001 1.58793330e-001
      6.31237477e-002 2.96511024e-001 7.68239915e-001 6.74465954e-001
      1.06564128e+000 6.55611932e-001 2.27508163e+000 3.27185482e-001
      1.59542966e+000 7.89131761e-001 1.45885050e+000 3.44523042e-001
      5.21250963e-001 7.03766346e-001 1.77614734e-001 2.29601134e-002
      3.49738002e-001 1.52906787e+000 1.54318362e-001 1.28091425e-001
      5.52610397e-001 2.71853954e-001 2.18142539e-001 1.08907029e-001
      4.49732840e-001 3.90351787e-002 1.99021494e+000 1.33137393e+000
      7.62412092e-003 1.57857764e+000 1.49754450e-001 1.07492590e+000
      9.23242569e-001 6.26382172e-001 8.90254200e-001 1.05812800e+000
      1.00270557e+000 8.67180228e-001 1.85431397e+000 7.48581111e-001
      2.60952353e-001 2.11671684e-002 1.04713403e-001 1.32421553e-001
      9.60261881e-001 1.88378572e+000 5.44689476e-001 2.66156912e-001
      9.74593461e-001 1.98569036e+000 5.81429720e-001 5.05508482e-002
      3.36032629e-001 9.15717602e-001 5.26748180e-001 1.58010578e+000
      1.30285487e-001 6.31475687e-001 1.61444044e+000 8.39986503e-001
      8.80612910e-001 1.08122480e+000 9.34936643e-001 1.30887783e+000
      2.50497770e+000 3.62526238e-001 4.16153967e-001 8.01267862e-001
      8.89456034e-001 2.48327389e-001 9.46184933e-001 1.66703880e-001
      1.66520929e+000 3.04330945e+000 4.23586071e-001 1.12548470e-001
      5.22228718e-001 6.71091676e-001 1.54193842e+000 2.86666632e-001
      8.74326229e-001 1.65605688e+000 7.94352069e-002 1.61694002e+000
      5.51285625e-001 2.05407524e+000 8.20312500e-001 1.43087184e+000
      1.17072918e-001 1.98154140e+000 1.92343116e-001 6.38477325e-001
      3.85050565e-001 6.89593732e-001 1.15012646e+000 8.45379829e-001
      2.63577998e-002 6.11922052e-003 8.04669619e-001 1.11677302e-002
      9.02870893e-002 1.39283463e-001 1.94147006e-001 4.28059727e-001
      3.19046426e+000 3.99518996e-001 7.34158516e-001 6.02833152e-001
      1.54550195e+000 1.07771885e+000 1.39584661e+000 6.62922680e-001
      4.97445464e-001 8.30975235e-001 1.40356410e+000 2.62606531e-001
      2.43314648e+000 8.41704845e-001 1.00079083e+000 1.36649832e-001
      7.02323556e-001 1.81987956e-002 9.59045649e-001 1.32278353e-001
      4.24787760e-001 1.76078665e+000 2.29730293e-001 1.32958768e-002
      6.53429270e-001 6.16923451e-001 1.20786011e+000 3.98574144e-001
      9.37410891e-001 3.72423083e-001 4.72924896e-002 6.51653230e-001
      1.34500003e+000 1.38742477e-001 8.61981928e-001 5.23101807e-001
      7.44433224e-001 1.21987857e-001 1.30620325e+000 2.63448097e-002
      2.61122823e-001 9.78128314e-002 1.70623159e+000 6.91461682e-001
      1.64236975e+000 3.99509579e-001 4.75960791e-001 3.52036543e-002
      6.93670094e-001 1.04511881e+000 1.69359326e+000 4.94368136e-001
      5.17801195e-002 1.69384286e-001 2.67560393e-001 1.34386748e-001</_>
    <_>
      2.93411344e-001 6.02537505e-002 2.18145669e-001 1.49481702e+000
      2.14092612e+000 2.04109907e+000 1.29808509e+000 1.15080583e+000
      2.04018615e-002 3.05599660e-001 2.88731843e-001 1.52123761e+000
      4.68424082e-001 1.75677627e-001 3.47562432e-001 2.62080818e-001
      2.56678879e-001 2.29680806e-001 2.28134636e-002 9.88129258e-001
      7.32481122e-001 1.27080157e-001 1.79495096e-001 5.60906529e-002
      8.95897970e-002 3.43732804e-001 4.82967824e-001 3.64975810e-001
      6.04455955e-002 7.92958677e-001 5.59490360e-002 1.65077519e+000
      4.34353501e-002 1.96037978e-001 9.50689018e-002 2.31558941e-002
      5.63120723e-001 1.37688115e-001 4.49341416e-001 2.44501270e-002
      1.70205206e-001 5.69372237e-001 9.88550633e-002 1.04403794e-001
      9.46773469e-001 3.14396173e-001 5.12988508e-001 1.17457531e-001
      4.36393738e-001 2.55013593e-002 5.39264560e-001 2.65115231e-001
      5.43275550e-002 1.49456654e-002 1.81857526e-001 3.29146802e-001
      6.61014766e-002 1.55340552e+000 8.92627761e-002 7.81439543e-002
      4.76240337e-001 1.05182254e+000 1.45930755e+000 3.81990731e-001
      3.68628472e-001 2.87099779e-001 7.13513866e-002 4.06836182e-001
      1.00656164e+000 7.87630677e-002 2.08073735e-001 2.81109452e-001
      1.11018789e+000 2.06898581e-002 3.91616821e-001 6.92677498e-001
      5.17191701e-002 3.67014222e-002 6.59148872e-001 1.92919552e-001
      4.74067330e-001 1.25896066e-001 5.68416901e-002 3.35444622e-002
      5.17773747e-001 4.52674665e-002 9.42937583e-002 9.65423882e-002
      6.10924922e-002 2.51258969e-001 1.22138597e-001 1.39396417e+000
      5.20913489e-002 3.50182056e-001 2.54885070e-002 4.81369823e-001
      3.40245925e-002 1.76576644e-001 8.69312957e-002 5.95395230e-002
      4.03624438e-002 4.02337044e-001 1.41568029e+000 1.02770470e-001
      1.04329300e+000 2.89193630e-001 9.00720153e-003 5.91788054e-001
      2.66676366e-001 1.08409083e+000 6.20559603e-002 5.23753524e-001
      1.81305688e-002 5.63048124e-001 1.83116943e-001 4.87098575e-001
      2.93137822e-002 2.58591712e-001 1.83040276e-001 1.69054329e-001
      7.94230402e-001 2.11965330e-002 6.57145977e-001 3.02752733e-001
      7.05672681e-001 4.16348390e-002 5.66325290e-003 1.81915140e+000
      1.19170085e-001 1.68116105e+000 2.12809563e+000 2.49256343e-001
      1.29231766e-001 1.07099998e+000 5.27244471e-002 3.24240088e-001
      1.05895819e-002 2.01361582e-001 7.99482703e-001 2.11492017e-001
      4.22429442e-002 1.30896449e-001 6.67431951e-001 2.54153103e-001
      1.13588750e+000 4.38030452e-001 1.39940941e+000 1.59758240e-001
      1.20998025e+000 9.71704423e-002 7.17896640e-001 1.66193381e-001
      1.49878430e+000 3.45569551e-001 1.90846190e-001 1.86523870e-002
      6.14666939e-001 1.28777492e+000 8.48765373e-002 1.04528733e-001
      9.88035426e-002 7.79948309e-002 2.38500476e-001 1.61708489e-001
      4.17158872e-001 3.92454825e-002 1.19099784e+000 8.36012900e-001
      6.42929459e-003 1.08222902e+000 1.63105741e-001 8.63296032e-001
      6.88155666e-002 6.41593635e-002 6.28180325e-001 1.41478336e+000
      9.18316483e-001 1.07673907e+000 1.30728209e+000 5.46977103e-001
      6.42973363e-001 1.81176141e-002 5.66597842e-002 1.32267699e-001
      3.03501427e-001 8.30670774e-001 4.33515191e-001 2.51476347e-001
      1.56132317e+000 8.42566311e-001 3.18269789e-001 7.63437152e-003
      1.55545712e-001 7.85228729e-001 1.74997902e+000 2.10729599e+000
      1.77999750e-001 1.97044718e+000 1.51761246e+000 6.22117147e-002
      6.59178734e-001 9.80062187e-001 8.71093795e-002 1.28046483e-001
      1.63488388e+000 4.15136039e-001 1.81360155e-001 6.08156800e-001
      6.82622373e-001 1.48419335e-001 1.45946115e-001 1.79323882e-001
      7.72748888e-001 1.62608492e+000 1.43916294e-001 1.44530356e-001
      1.88974530e-001 2.11213052e-001 9.69594896e-001 1.43200219e-001
      5.02956629e-001 1.11805618e+000 7.80143142e-002 1.38115239e+000
      4.59291965e-001 5.25384009e-001 8.32072318e-001 2.73504376e-001
      8.73847157e-002 4.57909733e-001 9.61783826e-002 3.33166093e-001
      1.36698306e-001 1.81267512e+000 1.26251543e+000 8.81232142e-001
      2.47113463e-002 4.85226978e-003 9.32485461e-001 6.42628688e-003
      1.82896733e-001 4.83841486e-002 2.03477547e-001 2.34301388e-001
      1.76808500e+000 2.49474898e-001 5.69916405e-002 1.34700978e+000
      2.57319117e+000 3.40761542e-001 7.03666747e-001 9.01702717e-002
      7.26941168e-001 1.11248481e+000 9.22569573e-001 9.66679975e-002
      1.03342962e+000 1.64036107e+000 2.80391783e-001 1.92077309e-001
      1.31622231e+000 1.55048985e-002 5.12504280e-001 1.40963435e-001
      3.22839499e-001 9.30447161e-001 1.25448376e-001 1.30210463e-002
      2.95725971e-001 5.08052170e-001 3.17543298e-001 6.07853293e-001
      1.96464157e+000 1.11750558e-001 4.52798493e-002 1.24162674e+000
      7.33201981e-001 9.05560702e-002 1.30433071e+000 3.45660388e-001
      5.13471603e-001 1.83113441e-001 2.99726367e+000 1.72700454e-002
      1.55846015e-001 1.25862420e-001 3.63764167e-001 1.83187887e-001
      2.66054690e-001 1.90825328e-001 5.55671975e-002 5.47448061e-002
      3.88971686e-001 1.32183993e+000 1.09479755e-001 4.18292344e-001
      5.96553162e-002 1.38342440e-001 5.48883498e-001 1.16000310e-001</_>
    <_>
      4.01549071e-001 3.10252681e-002 3.03278267e-001 2.76258558e-001
      5.98613858e-001 9.30514812e-001 1.34642994e+000 8.78455818e-001
      1.21720154e-002 5.66777170e-001 1.24579728e+000 1.19006848e+000
      3.93388748e-001 9.38018262e-002 4.20628726e-001 4.10328835e-001
      2.50649422e-001 5.64304709e-001 1.36771603e-002 8.14893842e-001
      9.22630966e-001 1.69483840e-001 1.30926043e-001 3.24118584e-002
      6.01733923e-002 1.76402718e-001 9.48925674e-001 4.39860284e-001
      6.03404164e-001 1.12763894e+000 3.74053679e-002 7.14314520e-001
      2.47628652e-002 1.04695648e-001 2.61034548e-001 2.81308144e-002
      3.69460344e-001 1.03645302e-001 6.71797276e-001 1.52196586e-002
      4.42401856e-001 2.15273172e-001 1.14125431e+000 1.20324552e-001
      3.92784536e-001 5.19992590e-001 1.40331900e+000 7.57868886e-002
      3.10141653e-001 3.06667220e-002 2.25223899e-001 1.59519762e-001
      3.80026288e-002 1.06533021e-002 1.14727020e-001 3.91108364e-001
      1.09200023e-001 4.77938533e-001 4.54249561e-001 6.57584012e-001
      1.16424203e+000 8.22072327e-001 1.03965557e+000 4.73719895e-001
      1.45982146e+000 1.52993932e-001 3.45092602e-002 3.82329613e-001
      6.74297869e-001 2.40818456e-001 1.96891755e-001 4.01494652e-001
      4.60221112e-001 1.58012379e-002 2.58153856e-001 3.09102386e-001
      7.72508159e-002 2.20068786e-002 6.61229610e-001 4.40569907e-001
      4.15036440e-001 2.54908890e-001 3.20033245e-002 2.25781083e-001
      8.44526052e-001 5.33670664e-001 5.11568449e-002 6.17745146e-002
      1.00897841e-001 1.56033039e-001 2.73018062e-001 7.83848286e-001
      3.58860977e-002 5.05200505e-001 1.84133928e-002 1.04413426e+000
      3.13640684e-002 1.13588557e-001 9.22508538e-002 8.47153664e-002
      8.13089833e-002 1.93096861e-001 5.07306039e-001 1.50961101e-001
      1.21861589e+000 6.50447369e-001 4.13604500e-003 3.71125817e-001
      1.93573862e-001 1.11557591e+000 3.49141248e-002 3.13979536e-001
      1.04707396e-002 4.39281076e-001 6.86842442e-001 1.75360513e+000
      2.82086402e-001 1.48330048e-001 3.96189719e-001 8.56629610e-002
      9.40692186e-001 5.41229881e-002 7.16663003e-001 2.92110652e-001
      8.19815397e-001 2.18877252e-002 4.75774612e-003 1.06152713e+000
      1.01977929e-001 2.01715255e+000 5.77516496e-001 2.05305710e-001
      3.71675938e-001 4.98243302e-001 5.31728454e-002 1.30919242e+000
      8.25384818e-003 2.06255987e-001 2.19864309e-001 9.52855200e-002
      2.91183293e-002 1.34172693e-001 2.40499422e-001 4.51280713e-001
      1.23660791e+000 1.84811103e+000 6.75190628e-001 1.96167126e-001
      9.61193860e-001 3.58956933e-001 5.30042529e-001 5.80074966e-001
      5.15342295e-001 2.37038732e-001 8.52120668e-002 1.06823174e-002
      3.55794907e-001 4.41533267e-001 1.36592433e-001 1.80565089e-001
      1.26714146e+000 5.88176660e-002 1.10790148e-001 1.10683553e-001
      2.90670037e-001 4.62183207e-002 8.81292403e-001 9.99942601e-001
      5.29219257e-003 3.24531734e-001 6.25217929e-002 1.23812187e+000
      3.50036830e-001 5.74835181e-001 2.61406839e-001 3.31693321e-001
      1.02025616e+000 4.81578827e-001 1.42409787e-001 4.73389149e-001
      1.89905569e-001 7.50291301e-003 1.08657911e-001 1.27825603e-001
      3.35968524e-001 9.92855251e-001 3.98134112e-001 2.23453447e-001
      6.43148363e-001 8.75523567e-001 4.99758720e-001 8.00186954e-003
      9.69619751e-002 2.06306934e+000 7.71660984e-001 5.14265418e-001
      1.28525600e-001 1.07501221e+000 3.58116150e-001 5.24620414e-001
      2.12960291e+000 6.17585540e-001 4.07465577e-001 5.79953551e-001
      8.22441041e-001 4.30991530e-001 1.40189588e-001 4.43863034e-001
      2.90179223e-001 1.19777277e-001 4.57280695e-001 8.94509703e-002
      5.51501572e-001 8.80513191e-001 2.31036335e-001 1.06071010e-001
      3.60954791e-001 3.87213111e-001 8.94031346e-001 1.71223149e-001
      3.43426049e-001 8.30986321e-001 4.26629074e-002 6.45333886e-001
      2.23528102e-001 3.87239963e-001 1.89837646e+000 1.09206319e+000
      1.03509434e-001 4.33728009e-001 5.19480258e-002 4.91345644e-001
      2.83514172e-001 8.33447218e-001 5.07571340e-001 8.40902209e-001
      4.22715135e-002 3.36470921e-003 3.69416386e-001 8.80846009e-003
      1.25307068e-001 8.11715201e-002 6.73320293e-002 2.99448639e-001
      1.42653096e+000 3.16621751e-001 5.43939650e-001 9.07245994e-001
      6.70751035e-001 8.03489566e-001 2.17699394e-001 2.37033188e-001
      7.68320143e-001 3.86353552e-001 1.66502702e+000 1.35343581e-001
      2.89618999e-001 1.56665218e+000 1.27154768e+000 6.88618571e-002
      3.79505932e-001 1.15176793e-002 5.20612299e-001 7.25940540e-002
      5.19712687e-001 5.04012108e-001 1.33686438e-001 1.01067545e-002
      6.11724496e-001 6.80889189e-001 6.02631032e-001 3.32949042e-001
      5.78422904e-001 1.30086645e-001 3.17852534e-002 1.28016531e+000
      9.26131070e-001 1.38814285e-001 1.17319036e+000 2.77154744e-001
      3.40415061e-001 8.47724900e-002 5.68623245e-001 1.11754183e-002
      1.78599730e-001 1.26085833e-001 4.32037890e-001 5.12833297e-001
      3.94347519e-001 3.59302849e-001 7.08616674e-001 3.10614407e-002
      4.48361546e-001 1.03080058e+000 7.31969416e-001 2.26913989e-001
      3.63278799e-002 8.98998976e-002 4.13533568e-001 7.22305700e-002</_>
    <_>
      6.89049810e-002 2.57551875e-002 1.40947253e-001 1.43585753e+000
      3.87098998e-001 1.26770449e+000 5.95314384e-001 1.46325722e-001
      1.12888506e-002 4.18136060e-001 2.44423538e-001 2.60295540e-001
      1.94983974e-001 5.21120317e-002 2.25799307e-001 1.34798259e-001
      5.06957412e-001 1.37548089e-001 8.25753715e-003 5.91258585e-001
      5.48901916e-001 2.23119304e-001 1.04714081e-001 7.80889951e-003
      1.45534694e-001 9.68507156e-002 1.29823148e-001 3.72594297e-001
      1.04093425e-001 8.68926868e-002 3.84232067e-002 5.64134538e-001
      3.22453082e-002 6.16283081e-002 3.39539684e-002 4.24813889e-002
      6.40203804e-002 9.67014968e-001 5.58469415e-001 2.63495743e-002
      1.53268114e-001 4.35204566e-001 1.17800876e-001 4.94818054e-002
      6.70219958e-002 3.04604948e-001 5.67851245e-001 2.56746858e-002
      1.39865279e-001 3.07611804e-002 9.02371854e-002 1.52644187e-001
      1.53382355e-002 9.36440099e-003 1.21239886e-001 1.59729123e-001
      6.80811480e-002 5.13785124e-001 1.44161940e-001 5.58246434e-001
      7.61057019e-001 6.26587629e-001 1.08226761e-001 6.56134114e-002
      2.35693157e-001 9.03649271e-001 4.27744463e-002 1.11784026e-001
      4.46015745e-001 2.26813555e-001 3.91492657e-002 1.00089386e-001
      2.76891917e-001 1.57313980e-002 2.20213711e-001 1.44923255e-001
      8.58330131e-002 3.30972895e-002 1.34550357e+000 2.29437247e-001
      1.72889277e-001 2.17212275e-001 3.00071165e-002 1.79904729e-001
      1.78340763e-001 9.28466171e-002 5.39352238e-001 1.01237923e-001
      1.68233067e-001 8.39691013e-002 1.14056818e-001 2.04550013e-001
      5.08986786e-002 2.21115053e-001 1.23923048e-001 1.31313562e-001
      3.54268812e-002 1.18978038e-001 7.87821263e-002 3.14970240e-002
      6.66865855e-002 1.98594049e-001 5.98916531e-001 5.23331426e-002
      1.52902675e+000 1.04398048e+000 1.58011913e-002 1.14428401e-001
      1.57609746e-001 4.88959759e-001 4.78790402e-002 4.72252160e-001
      1.21327592e-002 5.03288865e-001 1.86666593e-001 4.54519928e-001
      6.18609488e-002 4.91249859e-001 2.01350853e-001 6.29422516e-002
      4.41187710e-001 4.57046442e-002 2.76853323e-001 1.23128319e+000
      2.75150388e-001 4.06559184e-002 3.07400362e-003 3.17655176e-001
      6.56638816e-002 5.40641487e-001 1.38974345e+000 9.58582312e-002
      1.29271001e-001 1.51328969e+000 2.96692662e-002 1.06850430e-001
      1.07447281e-002 4.62383598e-001 1.30883336e-001 1.41898587e-001
      7.15837162e-003 9.75398779e-001 1.72750354e-001 1.34253696e-001
      4.58074123e-001 5.37397861e-001 3.81147832e-001 1.45329699e-001
      9.13049579e-002 4.55967903e-001 1.15647614e+000 2.84436852e-001
      1.96294501e-001 4.54437017e-001 8.42014775e-002 4.24398668e-003
      1.77250460e-001 1.00874758e+000 1.64204791e-001 9.94850472e-002
      2.24237233e-001 7.10489675e-002 6.28721416e-002 1.37456387e-001
      1.89969733e-001 2.82409042e-002 2.78879434e-001 4.42872584e-001
      3.70899448e-003 4.36708242e-001 5.54166511e-002 3.39103609e-001
      2.88323104e-001 1.31513789e-001 1.67980477e-001 3.04520667e-001
      2.83670306e-001 8.21366549e-001 1.67785490e+000 6.06371239e-002
      1.49193853e-001 7.95518793e-003 2.46742666e-002 5.21762334e-002
      1.16439216e-001 3.43037456e-001 5.61441630e-002 5.08277044e-002
      4.52796191e-001 3.10453892e-001 1.05022497e-001 4.79038712e-003
      9.37747598e-001 2.85655141e+000 5.00169694e-001 1.52311635e+000
      6.29462972e-002 4.93364781e-001 2.67901242e-001 9.76199880e-002
      3.13977242e+000 3.73654187e-001 4.36390162e-001 2.64717072e-001
      1.13490053e-001 9.71672237e-002 4.58084255e-001 2.73523259e+000
      1.83871284e-001 4.85137492e-001 2.07310870e-001 6.22735433e-002
      2.86578983e-001 2.66963780e-001 2.04172194e-001 5.32467589e-002
      2.30867580e-001 1.46917492e-001 5.52051067e-001 1.30488411e-001
      2.38239706e-001 3.81340444e-001 3.27700041e-002 5.65467000e-001
      1.07937641e-001 1.15357555e-001 1.12263787e+000 1.05758391e-001
      1.02683075e-001 2.32813403e-001 6.84058890e-002 8.49371925e-002
      9.33129191e-002 2.19504640e-001 1.53305784e-001 1.18047446e-001
      5.84007762e-002 1.48079300e-003 5.84900916e-001 4.65681497e-003
      1.45479158e-001 9.70133319e-002 1.18775278e-001 1.20829992e-001
      4.96726602e-001 3.46990138e-001 1.49473563e-001 1.88573495e-001
      1.08239591e+000 1.07694976e-001 2.04940259e-001 4.40458924e-001
      1.27635825e+000 5.17484903e-001 1.76043808e+000 4.80807349e-002
      2.21498179e+000 7.06578434e-001 1.68736115e-001 7.10068345e-002
      1.60731375e-001 9.03215446e-003 5.41152835e-001 4.68165092e-002
      1.40488243e+000 1.47884071e-001 5.68677373e-002 3.21037099e-002
      1.63583517e-001 4.65167671e-001 1.71138272e-001 2.34850317e-001
      1.29644728e+000 5.90061322e-002 9.67018306e-003 9.31148455e-002
      1.55415580e-001 4.23917100e-002 2.75632590e-001 6.79242462e-002
      5.91564417e-001 5.93655668e-002 4.49667424e-001 3.53026018e-003
      4.16082442e-002 1.74711883e-001 8.09747875e-001 1.47605225e-001
      6.59943640e-001 2.27886453e-001 5.15484631e-001 3.64701413e-002
      2.33835682e-001 6.28042519e-001 3.07507098e-001 3.58629912e-001
      1.68564804e-002 7.89509863e-002 1.54209152e-001 2.88402811e-002</_>
    <_>
      2.02089593e-001 4.00658511e-002 3.17588866e-001 7.30659008e-001
      1.67803776e+000 3.67602944e-001 4.58918512e-001 5.48554242e-001
      1.57499146e-002 1.15649271e+000 4.57559735e-001 1.18332386e+000
      3.78875673e-001 1.45828411e-001 1.93405151e-001 2.71720082e-001
      3.02493662e-001 4.88379419e-001 1.29449815e-002 1.18807793e+000
      9.23206627e-001 3.07291567e-001 9.90795270e-002 6.86670467e-002
      7.84193724e-002 1.75298870e-001 1.55666733e+000 3.83159816e-001
      2.59358913e-001 6.93044066e-001 4.80389968e-002 1.61870265e+000
      3.76490392e-002 1.26754150e-001 7.76861832e-002 3.52356359e-002
      5.57480514e-001 1.20562665e-001 1.26566672e+000 1.67280734e-002
      1.53323159e-001 1.95653796e-001 1.31410524e-001 8.34725425e-002
      6.06847823e-001 8.00551653e-001 1.06326270e+000 9.97001380e-002
      4.78907764e-001 2.21325532e-002 3.49196166e-001 2.41448283e-001
      3.14940251e-002 1.25901988e-002 1.29318878e-001 3.76814991e-001
      1.57775164e-001 8.02013159e-001 4.49923307e-001 7.66147912e-001
      1.20075572e+000 1.57090437e+000 9.35260355e-001 4.70312089e-001
      3.62956673e-001 3.99989903e-001 4.37761955e-002 4.43798006e-001
      9.92752910e-001 2.30627954e-001 1.19751722e-001 4.02045250e-001
      7.75520682e-001 1.28374668e-002 1.72741592e-001 3.91983777e-001
      1.30837664e-001 3.20738479e-002 2.96641350e-001 2.06280559e-001
      1.14272940e+000 2.55564392e-001 4.71361615e-002 5.03212959e-002
      6.71516597e-001 1.13286726e-001 5.56902178e-002 8.90787467e-002
      1.69880077e-001 1.20044194e-001 7.57903814e-001 7.41851330e-001
      5.38539663e-002 5.49690962e-001 1.83507539e-002 6.02182567e-001
      3.63539867e-002 1.09853894e-001 8.30852836e-002 7.44262785e-002
      5.13070822e-002 4.53249395e-001 4.84347582e-001 8.63350555e-002
      2.90601939e-001 2.42256120e-001 4.56088409e-003 2.80110598e-001
      3.03593308e-001 3.52538347e-001 4.59473208e-002 4.57155347e-001
      1.54443048e-002 4.99176681e-001 1.15476310e+000 4.29910511e-001
      1.48767814e-001 1.30164683e-001 2.26061016e-001 2.93251872e-001
      2.47945786e-001 2.76737325e-002 4.51729268e-001 5.55619180e-001
      1.19871593e+000 5.38749285e-002 4.71665710e-003 1.37073421e+000
      1.40187010e-001 8.57848048e-001 6.21099830e-001 1.16481021e-001
      1.53298944e-001 4.72305983e-001 4.40134965e-002 3.03771585e-001
      1.42774591e-002 2.63882339e-001 3.72293144e-001 9.68298092e-002
      3.38087603e-002 1.28517792e-001 4.79913145e-001 2.63467401e-001
      3.86478990e-001 4.81365919e-001 1.04467535e+000 2.40893781e-001
      6.21545911e-001 1.55712485e-001 7.55213797e-001 1.75041184e-001
      3.27393264e-001 7.06866562e-001 1.24305658e-001 1.75789855e-002
      2.97369897e-001 1.85577467e-001 5.38556725e-002 9.28596780e-002
      1.38144627e-001 1.33028090e-001 4.15518671e-001 7.63562471e-002
      4.35020536e-001 5.07482067e-002 1.18692195e+000 6.59334660e-001
      4.63912403e-003 2.15099049e+000 1.62530646e-001 2.00845742e+000
      1.11581422e-001 1.72798946e-001 1.02620196e+000 5.20972252e-001
      9.15927052e-001 2.11221695e-001 3.45287681e-001 3.18765312e-001
      2.57932216e-001 1.13217132e-002 5.79695515e-002 1.08540326e-001
      3.16267371e-001 1.30939353e+000 6.20503187e-001 1.80072650e-001
      5.46223402e-001 4.47619647e-001 2.72025645e-001 1.60315577e-002
      1.47086188e-001 5.88729620e-001 5.82040608e-001 8.17916095e-001
      1.08045891e-001 1.40004992e+000 1.73813093e+000 2.52627462e-001
      5.81178546e-001 1.02460611e+000 7.74712041e-002 1.10509908e+000
      5.66195846e-001 1.00579560e+000 2.16016889e-001 6.83851600e-001
      5.92943311e-001 3.31155926e-001 6.62801921e-001 1.15516655e-001
      1.05327618e+000 1.07332242e+000 2.90558934e-001 1.65120915e-001
      1.47412255e-001 2.68766195e-001 1.11182666e+000 1.30039379e-001
      4.16365981e-001 1.75104535e+000 1.72420830e-001 1.93681443e+000
      1.09518921e+000 4.99793053e-001 3.25856298e-001 1.89268753e-001
      1.55518532e-001 9.06347811e-001 9.50089544e-002 4.31180209e-001
      1.51879579e-001 7.88853526e-001 1.65284729e+000 2.72623628e-001
      5.20269051e-002 3.99107765e-003 4.15002614e-001 5.74774481e-003
      1.39928117e-001 1.14133328e-001 1.38997301e-001 4.48327273e-001
      3.24551672e-001 5.99693835e-001 1.33805767e-001 4.95921940e-001
      6.89443946e-001 4.33093697e-001 8.71196628e-001 2.70501852e-001
      4.83205259e-001 4.67006475e-001 3.17879051e-001 1.51960596e-001
      7.35690892e-001 2.38002205e+000 8.23966920e-001 1.31976888e-001
      7.05658317e-001 1.24295363e-002 6.17733121e-001 1.00675918e-001
      1.37858376e-001 8.39538276e-001 1.04553096e-001 6.80973288e-003
      4.61621702e-001 1.45853961e+000 3.09579283e-001 4.81355876e-001
      5.69070220e-001 1.42251685e-001 4.87649813e-002 7.03655541e-001
      5.05662918e-001 7.27900863e-002 9.06125367e-001 3.66825730e-001
      3.64210129e-001 1.52182385e-001 9.83409584e-001 1.14398981e-002
      9.80114117e-002 6.99108690e-002 9.08096313e-001 5.58530033e-001
      6.84964716e-001 6.78415895e-001 1.00583160e+000 4.02585454e-002
      2.25922346e-001 1.78445089e+000 7.58406699e-001 1.34198099e-001
      2.49923449e-002 1.55212969e-001 2.98471421e-001 1.05606258e-001</_>
    <_>
      2.94128269e-001 4.84801345e-002 3.35653156e-001 4.73094672e-001
      1.44634712e+000 7.13507056e-001 3.66136461e-001 3.33429754e-001
      1.08433664e-002 3.10511023e-001 4.91736740e-001 1.32902575e+000
      3.21214050e-001 1.92164481e-001 2.33230874e-001 3.74920458e-001
      4.21458215e-001 4.01557177e-001 2.04238333e-002 7.95886815e-001
      6.27259970e-001 4.56563860e-001 1.28038630e-001 5.13340458e-002
      1.31617159e-001 1.00377873e-001 3.76331419e-001 2.67423779e-001
      3.12985361e-001 2.77222514e-001 4.58972044e-002 1.41387689e+000
      3.74790542e-002 1.77068949e-001 1.27842396e-001 4.69664112e-002
      1.95027068e-001 2.72891313e-001 6.57645941e-001 2.07802933e-002
      1.96852610e-001 3.17399144e-001 1.15532853e-001 9.06175524e-002
      2.05899909e-001 7.15301692e-001 2.43981406e-001 6.28348291e-002
      4.74812090e-001 2.73904391e-002 4.27683949e-001 1.86072633e-001
      3.82724851e-002 1.72880832e-002 1.18349284e-001 2.91222602e-001
      1.37471810e-001 7.28560805e-001 3.50764900e-001 1.33133471e-001
      2.29819000e-001 9.53919888e-001 2.79274344e-001 1.85749546e-001
      3.98783296e-001 3.75730455e-001 4.35042977e-002 2.15677992e-001
      5.05361617e-001 4.78766821e-002 1.25892937e-001 2.23924771e-001
      5.21031976e-001 1.74337663e-002 9.27496701e-002 4.46455300e-001
      8.59606043e-002 3.95903029e-002 4.65578735e-001 1.83866337e-001
      2.91314542e-001 2.65627086e-001 3.75191681e-002 8.43207315e-002
      8.57229114e-001 1.30006462e-001 2.20231280e-001 6.97318241e-002
      9.34202746e-002 1.78932413e-001 3.27985287e-001 7.20165968e-001
      7.14173391e-002 6.17507398e-001 3.83713990e-002 4.59059477e-001
      3.46076861e-002 1.83487952e-001 1.51273474e-001 5.63346893e-002
      3.64272110e-002 2.59873211e-001 1.23032486e+000 1.53026685e-001
      2.41461128e-001 1.87313840e-001 1.23066856e-002 1.77131027e-001
      1.59077823e-001 3.64367574e-001 6.37198761e-002 7.89354861e-001
      1.01867104e-002 4.87612724e-001 6.74294949e-001 2.87649602e-001
      2.18720511e-001 8.07721615e-001 3.78285944e-001 1.42051980e-001
      2.17029706e-001 3.37037146e-002 6.73912585e-001 2.69596338e-001
      8.30070674e-001 4.04355079e-002 6.40674587e-003 9.34828162e-001
      1.34615347e-001 1.32593656e+000 5.66254735e-001 2.75536418e-001
      1.69441625e-001 1.13246262e+000 5.22150286e-002 2.54525661e-001
      1.61112789e-002 1.19210571e-001 4.71722275e-001 1.31332636e-001
      3.21381204e-002 2.37398133e-001 3.39935929e-001 2.15377823e-001
      3.75403434e-001 3.06778461e-001 9.36212003e-001 1.07275881e-001
      3.63121212e-001 2.02890709e-001 9.14443135e-001 1.19976684e-001
      4.36986804e-001 1.01948535e+000 1.77408919e-001 1.55285355e-002
      2.26769596e-001 4.52572078e-001 1.07643187e-001 5.57573736e-002
      1.33046299e-001 1.01064511e-001 1.23915061e-001 1.41512066e-001
      2.27851138e-001 5.77162802e-002 1.81671846e+000 8.24729562e-001
      3.10683995e-003 1.66291630e+000 1.41397536e-001 9.52858508e-001
      1.30633652e-001 1.73036084e-001 4.90736753e-001 4.59562540e-001
      5.21515906e-001 4.13435638e-001 1.74401236e+000 1.57945260e-001
      3.76744628e-001 1.28457956e-002 7.38438368e-002 9.71020535e-002
      5.58163762e-001 8.03104162e-001 2.06053644e-001 1.43091962e-001
      1.56075609e+000 3.13317895e-001 2.38745347e-001 7.05860090e-003
      3.57150912e-001 7.37255573e-001 1.64021242e+000 9.16884899e-001
      1.31219506e-001 1.36290467e+000 1.16826177e+000 3.22920740e-001
      8.13869059e-001 4.03900236e-001 1.46004915e-001 2.96960980e-001
      4.61341590e-001 4.79131430e-001 4.76191133e-001 3.95164758e-001
      3.99139732e-001 2.24460870e-001 5.90906620e-001 2.02322885e-001
      8.99094105e-001 8.26512814e-001 3.36150259e-001 1.01693630e-001
      2.10173115e-001 3.06322694e-001 6.56418204e-001 1.26578793e-001
      2.60836512e-001 9.95470405e-001 7.16476887e-002 1.28506541e+000
      5.51773190e-001 4.28449929e-001 3.62494171e-001 2.73262084e-001
      1.38829574e-001 3.29259813e-001 8.32625553e-002 2.65936792e-001
      6.82104751e-002 1.35080111e+000 1.05098724e+000 4.06336457e-001
      2.52573695e-002 2.79551162e-003 4.74571735e-001 3.05964239e-003
      1.48168176e-001 8.34199041e-002 1.31216884e-001 2.92225331e-001
      6.96933985e-001 1.41522929e-001 1.14372440e-001 2.79874295e-001
      1.14120972e+000 2.68210500e-001 3.38558286e-001 2.26851702e-001
      4.47987437e-001 1.48209560e+000 3.28485161e-001 1.22061253e-001
      4.33558196e-001 1.67564833e+000 5.13457596e-001 1.10382155e-001
      2.43614450e-001 1.70929953e-002 3.30972940e-001 1.63334310e-001
      2.54612237e-001 1.19329071e+000 1.52534410e-001 1.43787852e-002
      4.51003551e-001 1.94435492e-001 2.95714498e-001 2.84864694e-001
      1.24207604e+000 1.20392285e-001 3.87509689e-002 2.92401493e-001
      6.76023781e-001 7.60693625e-002 1.37278771e+000 3.23878765e-001
      3.76059651e-001 1.01664357e-001 8.51938725e-001 1.65189896e-002
      9.55874547e-002 1.11490928e-001 1.01536715e+000 5.25227904e-001
      5.99222481e-001 2.38393828e-001 1.41851112e-001 3.89573835e-002
      2.80203640e-001 1.25131977e+000 3.56396854e-001 1.96949631e-001
      3.82738449e-002 1.39570296e-001 5.95073104e-002 6.78490102e-002</_>
    <_>
      3.98994178e-001 6.67076036e-002 1.77029431e-001 2.58200973e-001
      1.14977574e+000 5.21244109e-001 8.41921329e-001 1.00065613e+000
      1.01898704e-002 3.55212718e-001 9.67243552e-001 2.55687881e+000
      2.72576839e-001 2.08870351e-001 3.45297724e-001 2.53863186e-001
      2.72752911e-001 3.46469223e-001 2.59457603e-002 1.53413308e+000
      2.32335138e+000 2.89210707e-001 1.33167624e-001 1.19764037e-001
      9.32166502e-002 5.07052541e-001 1.12979186e+000 3.17437381e-001
      1.42079926e+000 7.94017613e-001 7.19260126e-002 3.41341424e+000
      3.40007022e-002 1.84429362e-001 1.85603276e-001 2.05916557e-002
      7.03292131e-001 9.90702733e-002 5.42541027e-001 2.42923070e-002
      1.51120245e-001 3.22986662e-001 4.63674933e-001 1.79547802e-001
      8.91090155e-001 5.93912542e-001 2.33933195e-001 4.41334039e-001
      5.25549054e-001 4.68779989e-002 2.88304448e-001 1.69831768e-001
      5.30732125e-002 1.17274337e-002 2.25760683e-001 6.87475324e-001
      5.04785299e-001 5.72721183e-001 1.83435988e+000 2.03523561e-001
      4.35693532e-001 4.85940784e-001 6.40785456e-001 5.26077569e-001
      3.10679674e-001 2.64545411e-001 7.00492784e-002 3.90120506e-001
      1.37441421e+000 2.10279927e-001 1.71445847e-001 5.94163001e-001
      7.45989501e-001 2.20543109e-002 3.35180819e-001 5.96719921e-001
      1.61283076e-001 3.73277441e-002 3.20222408e-001 5.29150605e-001
      1.49760473e+000 6.77971244e-001 6.04575612e-002 3.53212535e-001
      9.78450716e-001 3.57832611e-001 3.11908890e-002 3.07964206e-001
      1.60057068e-001 2.53494233e-001 1.80705845e+000 1.02434993e+000
      7.58092627e-002 2.89496869e-001 1.68843884e-002 7.68476009e-001
      6.89305887e-002 1.03629611e-001 1.05388448e-001 7.19275922e-002
      4.66292240e-002 2.85228729e-001 1.59125173e+000 1.90918908e-001
      1.10634184e+000 6.40044808e-001 1.47266909e-002 4.25906062e-001
      2.57695258e-001 5.83891392e-001 8.25130269e-002 3.08156967e-001
      1.74956955e-002 3.78844082e-001 1.90219200e+000 4.51259524e-001
      1.08367980e+000 1.76942170e-001 2.63018906e-001 4.38376963e-001
      1.72590867e-001 3.36059704e-002 6.11652255e-001 4.34826076e-001
      1.25938785e+000 4.70682755e-002 3.49046825e-003 2.19083953e+000
      1.17533453e-001 2.33178496e+000 3.82200599e-001 4.37332809e-001
      9.60930288e-002 8.93268704e-001 6.37528226e-002 2.07144523e+000
      1.05703901e-002 1.17513262e-001 6.46847546e-001 2.60864705e-001
      1.60807952e-001 1.13212831e-001 5.33936143e-001 4.74438757e-001
      6.83352590e-001 4.78535682e-001 2.60998893e+000 2.89507300e-001
      3.47433656e-001 2.06331044e-001 4.99143660e-001 2.91107416e-001
      3.48474354e-001 3.32211286e-001 1.80389106e-001 3.49895172e-002
      5.42354703e-001 4.79989320e-001 8.77488330e-002 1.29627779e-001
      1.43112987e-001 1.87434033e-001 4.89505887e-001 1.29362732e-001
      2.98959136e-001 3.76919881e-002 1.35834289e+000 8.41092527e-001
      4.79442254e-003 1.24916792e+000 2.38286391e-001 1.40788162e+000
      2.78719574e-001 6.97733223e-001 5.34178853e-001 6.65344477e-001
      9.06697392e-001 3.96735966e-001 6.77152336e-001 3.65036041e-001
      3.92399073e-001 2.06720140e-002 1.24854229e-001 2.05736369e-001
      5.47217011e-001 1.40759468e+000 4.60106432e-001 2.01973781e-001
      1.78855503e+000 8.49524915e-001 5.91718912e-001 3.66871641e-003
      1.12996414e-001 1.38652074e+000 1.74426043e+000 7.90915430e-001
      2.58304566e-001 2.70027423e+000 1.21040189e+000 1.58331227e+000
      1.40824139e+000 4.67430860e-001 2.47226611e-001 5.00194848e-001
      5.04449785e-001 6.52401745e-001 2.32585415e-001 3.34394515e-001
      5.21286905e-001 2.73055434e-001 2.96622604e-001 2.18660086e-001
      2.12669063e+000 1.79863834e+000 5.97662210e-001 2.38532171e-001
      2.05552146e-001 2.13063538e-001 1.50611448e+000 3.15384239e-001
      7.01526344e-001 1.16465235e+000 2.00125113e-001 1.05011058e+000
      3.16009521e-001 2.87738711e-001 8.08340549e-001 1.70907998e+000
      1.39943391e-001 8.47814739e-001 8.49703774e-002 5.70858181e-001
      2.55773783e-001 1.56503379e+000 1.48779619e+000 4.66143668e-001
      5.23231141e-002 4.09578346e-003 3.82626504e-001 4.76201996e-003
      1.88983351e-001 1.44631833e-001 2.16545582e-001 5.73223412e-001
      4.04726684e-001 6.06140196e-001 2.64841497e-001 9.78006780e-001
      7.27360189e-001 1.96447879e-001 6.88840449e-001 2.60314137e-001
      7.24781275e-001 1.61367583e+000 9.00311291e-001 1.27620593e-001
      5.49994707e-001 2.36292171e+000 1.47955430e+000 1.60050064e-001
      1.90681249e-001 1.18548525e-002 4.65055883e-001 2.02310190e-001
      2.13205367e-001 7.48185813e-001 1.69581905e-001 6.61027199e-003
      5.00871241e-001 4.78828341e-001 1.76568106e-001 5.84497690e-001
      1.30029476e+000 8.37396562e-001 8.93890485e-002 1.17548549e+000
      7.87374616e-001 1.20459646e-001 1.56255627e+000 4.34395254e-001
      3.29159588e-001 1.65212840e-001 1.10645747e+000 4.12832387e-002
      1.63950339e-001 4.27388400e-002 1.70527324e-001 3.97589922e-001
      3.23673844e-001 7.10952282e-001 1.94206819e-001 5.32370731e-002
      4.09961432e-001 3.51915622e+000 2.64370441e-001 1.46700889e-001
      5.47441468e-002 1.64950743e-001 2.98160434e-001 4.59166199e-001</_>
    <_>
      4.38623905e-001 5.29904999e-002 4.14959610e-001 7.25537121e-001
      9.96818304e-001 3.58781248e-001 8.65167916e-001 3.07513773e-001
      1.49013428e-002 5.12793362e-001 5.62000453e-001 8.37170482e-001
      3.49006385e-001 1.79741129e-001 3.83993685e-001 3.70922923e-001
      3.33059102e-001 3.26414734e-001 1.47072291e-002 9.17434752e-001
      1.39472103e+000 4.34107035e-001 1.33697614e-001 4.85210009e-002
      1.07675508e-001 1.28349856e-001 5.30922055e-001 5.13524771e-001
      1.44398376e-001 2.74306267e-001 4.49324213e-002 8.22793722e-001
      3.33385281e-002 1.72409639e-001 1.24107733e-001 3.52453701e-002
      3.79785448e-001 6.44241393e-001 5.90423822e-001 2.43707262e-002
      7.32863367e-001 3.31210732e-001 1.77810863e-001 1.84656084e-001
      4.32552725e-001 5.57674050e-001 1.48527348e+000 6.72878698e-002
      4.53956485e-001 4.11013216e-002 7.07492948e-001 3.57907653e-001
      4.35719267e-002 1.80425532e-002 1.27913341e-001 6.34993374e-001
      5.15191294e-002 6.38784826e-001 1.97811693e-001 6.37347817e-001
      1.58050907e+000 4.61564839e-001 3.42528433e-001 3.55482399e-001
      8.06145728e-001 4.13571388e-001 7.40454122e-002 3.55661958e-001
      9.84056056e-001 3.40940565e-001 1.57725096e-001 3.35792065e-001
      5.76431870e-001 1.60818323e-002 1.01802059e-001 3.57929051e-001
      7.33798519e-002 2.83342618e-002 2.46383578e-001 3.29023063e-001
      4.99531478e-001 2.37219900e-001 4.92325090e-002 1.06767699e-001
      5.57806253e-001 1.79686353e-001 1.72629043e-001 6.35677055e-002
      1.30090550e-001 1.37416258e-001 2.68299669e-001 4.88218158e-001
      4.46691960e-002 5.95912457e-001 4.04528938e-002 5.15542746e-001
      4.53574061e-002 1.32065117e-001 2.00503960e-001 9.70406011e-002
      4.44962829e-002 3.85086924e-001 2.93429136e-001 1.79351613e-001
      1.65115607e+000 3.32637459e-001 7.60826049e-003 2.08841532e-001
      2.98738301e-001 5.66761672e-001 5.31214662e-002 5.22344828e-001
      1.29998857e-002 5.50565243e-001 5.03632784e-001 5.81422031e-001
      9.33429897e-002 2.61555076e-001 2.50944316e-001 1.45407483e-001
      3.18544537e-001 4.56005409e-002 7.40302563e-001 3.48427922e-001
      1.15462935e+000 4.63684760e-002 5.36524365e-003 1.23261702e+000
      1.36280656e-001 8.90242279e-001 7.57403016e-001 5.25076449e-001
      9.13042128e-001 5.74943423e-001 5.90906814e-002 3.73217076e-001
      1.15250805e-002 6.58133745e-001 4.97922957e-001 1.73327506e-001
      1.76438373e-002 6.82306111e-001 4.41936731e-001 3.22390139e-001
      6.59392416e-001 5.12363076e-001 9.09817338e-001 8.96099210e-002
      3.43414396e-001 2.31962070e-001 7.84882188e-001 5.26160061e-001
      4.83676493e-001 3.02403957e-001 1.43932790e-001 1.83466040e-002
      3.78628135e-001 2.49469802e-001 7.17367902e-002 1.82274029e-001
      4.23334748e-001 1.15988299e-001 2.30195403e-001 1.33710220e-001
      3.67482126e-001 6.37482628e-002 1.06098843e+000 9.99672771e-001
      5.43924514e-003 1.20273685e+000 1.45090178e-001 7.36609638e-001
      2.54101366e-001 2.20421061e-001 5.73631823e-001 5.01866877e-001
      7.26709425e-001 3.58957231e-001 2.87365615e-001 1.75031960e-001
      2.23356038e-001 1.48747014e-002 1.00494228e-001 1.58287868e-001
      4.95575875e-001 1.09508038e+000 5.40695786e-001 2.26290017e-001
      4.90823179e-001 9.98450637e-001 3.03979814e-001 7.45275570e-003
