<?xml version="1.0"?>
<opencv_storage>
<my_svm type_id="opencv-ml-svm">
  <svm_type>EPS_SVR</svm_type>
  <kernel><type>RBF</type>
    <gamma>4.1772500000000004e-003</gamma></kernel>
  <C>9.7435899999999993e+000</C>
  <p>1.0000000000000001e-001</p>
  <term_criteria><epsilon>4.9999998882412910e-003</epsilon>
    <iterations>2147483647</iterations></term_criteria>
  <var_all>400</var_all>
  <var_count>400</var_count>
  <sv_total>124</sv_total>
  <support_vectors>
    <_>
      5.92367537e-002 3.39373410e-001 2.49693727e+000 4.42748219e-001
      4.49523181e-002 2.89379060e-001 1.02236047e-001 1.36955827e-001
      1.58780396e-001 1.43004024e+000 2.33471662e-001 5.42589605e-001
      4.85465735e-001 9.46386755e-001 5.54663390e-002 4.89487080e-003
      8.39669824e-001 4.40506965e-001 6.65922701e-001 2.53815919e-001
      7.66997933e-001 5.51662087e-001 7.63224512e-002 7.99734831e-001
      1.84965804e-001 7.44503736e-001 9.36721504e-001 4.22090292e-002
      5.06668806e-001 5.74704111e-001 5.82871214e-002 1.46710873e-001
      1.69656262e-001 3.35422009e-001 6.04467273e-001 8.34191561e-001
      1.22296706e-001 3.97919953e-001 7.48077929e-001 2.41930738e-001
      2.22721510e-002 2.16881439e-001 5.11476457e-001 1.20043969e+000
      1.26913544e-002 1.56486519e-002 6.86207652e-001 2.99045533e-001
      6.44580841e-001 9.15608346e-001 7.70721495e-001 6.30433917e-001
      6.77820623e-001 8.21444571e-001 2.85797894e-001 2.62226909e-001
      6.67025805e-001 1.88526124e-001 1.11355400e+000 9.26911235e-001
      2.44127154e+000 1.02242279e+000 6.86005652e-002 7.58723691e-002
      1.47725910e-001 3.52223307e-001 4.74832840e-002 1.85861588e+000
      6.44509029e-003 1.45530856e+000 4.53084856e-001 2.54087336e-002
      1.14024711e+000 8.33093941e-001 5.82139075e-001 8.79467249e-001
      1.16489291e+000 4.55938309e-001 7.50487506e-001 1.36707699e+000
      1.75645888e-001 2.21918911e-001 6.36259973e-001 5.87174118e-001
      3.28883439e-001 6.66715503e-001 1.86345935e+000 1.96142346e-001
      5.26830787e-003 6.15684986e-001 1.11133325e+000 1.01103413e+000
      1.15542531e-001 1.58414423e+000 1.24411434e-002 1.39301000e-002
      1.77748466e+000 6.86799407e-001 1.71142712e-001 6.72765732e-001
      5.03967822e-001 6.11257076e-001 4.97360408e-001 1.75380564e+000
      3.68686318e-001 2.50660535e-002 5.73765397e-001 8.07848275e-001
      6.17754459e-001 2.16492563e-002 7.10146800e-002 2.72660673e-001
      1.10837318e-001 5.36375046e-001 1.29403755e-001 4.43206340e-001
      1.43452394e+000 6.88789785e-002 2.53012348e-002 1.95787668e-001
      8.21007609e-001 4.40386713e-001 2.83719659e-001 4.16457146e-001
      3.54107285e+000 3.88663262e-001 1.48777819e+000 1.51777256e+000
      1.09438825e+000 1.02495706e+000 1.49292117e-002 3.73320371e-001
      1.28446326e-001 4.36316043e-001 4.37098108e-002 1.59420788e-001
      3.32686007e-002 7.25278318e-001 5.20315588e-001 7.19320774e-001
      7.17984736e-001 1.25369914e-002 5.95598370e-002 7.09087327e-002
      3.05934381e-002 8.17890286e-001 5.55183887e-001 3.85641567e-002
      1.49696097e-002 3.29455584e-001 7.70887613e-001 8.74605000e-001
      5.46713412e-001 3.07860851e-001 8.43188822e-001 1.58692107e-001
      1.24630190e-001 1.93966234e+000 5.73280275e-001 1.68468818e-001
      4.86770719e-002 5.62112704e-002 3.40346247e-001 4.36321884e-001
      1.69022709e-001 1.61246777e-001 1.69131112e+000 8.45885813e-001
      4.93403107e-001 3.49099368e-001 1.77139238e-001 3.68232012e-001
      9.74562168e-001 9.33243036e-001 7.46127605e-001 1.10978223e-001
      2.28445697e+000 7.11736441e-001 7.68187940e-002 1.90581679e-001
      2.91091055e-001 1.56863093e-001 6.67807972e-003 5.06999314e-001
      5.78590274e-001 9.92166102e-001 1.85365025e-002 8.25065494e-001
      4.29266453e-001 1.17852581e+000 6.42040968e-001 3.41086775e-001
      1.00539243e+000 1.08418435e-001 7.03879446e-003 7.98651576e-001
      1.38885692e-001 7.46726573e-001 7.70776629e-001 5.38491048e-002
      7.65723109e-001 9.92327452e-001 3.39673221e-001 6.52138442e-002
      1.60645306e-001 2.34160535e-002 2.09968835e-002 1.67168453e-001
      6.64325953e-002 4.89731543e-002 9.94242072e-001 4.62611794e-001
      1.52896023e+000 6.29626215e-001 3.12508881e-001 4.70621735e-001
      7.93232918e-001 8.30696523e-003 2.48104949e-002 1.14649594e+000
      2.15969586e+000 1.02767503e+000 2.57305894e-002 1.23555243e-001
      4.08327550e-001 4.40886170e-001 1.32657140e-001 1.55702278e-001
      6.15975678e-001 8.96521881e-002 1.63020611e-001 1.18138444e+000
      9.39618766e-001 1.15234005e+000 1.78568825e-001 9.50574875e-003
      1.40436292e-001 5.64010203e-001 1.10236585e+000 4.59429473e-001
      4.44047332e-001 1.82674420e+000 5.88601351e-001 6.89862669e-001
      6.40889704e-001 1.87989926e+000 1.33991838e-001 7.57335126e-002
      1.74949784e-002 2.12015659e-002 6.20971262e-001 6.34727597e-001
      1.58663273e-001 1.84573412e+000 2.59097070e-001 5.74155569e-001
      1.41058797e-002 2.35260582e+000 3.98344129e-001 1.78187072e-001
      1.49171841e+000 2.94353038e-001 4.26622212e-001 1.86774909e+000
      1.37094706e-001 1.39119828e+000 2.89701313e-001 5.41881360e-002
      9.91873264e-001 6.44556284e-002 1.30349481e+000 2.71745741e-001
      8.16853583e-001 7.52775192e-001 1.28414959e-001 3.99662256e-001
      6.69623077e-001 1.45836517e-001 8.09446946e-002 1.36139959e-001
      5.88591397e-003 1.91468906e+000 5.36832511e-001 1.38122231e-001
      1.39510751e-001 7.96103850e-003 3.90088260e-001 4.54987474e-002
      5.31899750e-001 1.48277819e-001 3.98082078e-001 1.53959528e-001
      2.61238456e-001 5.88765703e-002 6.99059619e-003 1.41191512e-001
      1.32450402e-001 1.61263570e-001 5.55102825e-001 1.38995063e+000
      9.09761433e-003 1.63602304e+000 1.38176344e-002 1.26454374e-002
      1.30152464e-001 1.60910890e-001 1.25960398e+000 6.53900951e-002
      4.88733873e-002 1.77224949e-002 1.44647673e-001 5.75262964e-001
      6.10254467e-001 5.69958329e-001 1.07903075e+000 9.67960298e-001
      8.64274800e-001 2.97215223e-001 4.80250418e-001 1.47944584e-001
      6.72145307e-001 1.10336947e+000 2.89739043e-001 2.96203762e-001
      1.22880228e-002 9.29656476e-002 1.03025958e-001 4.01396573e-001
      3.19953233e-001 3.08053225e-001 3.08432817e-001 2.49630594e+000
      2.03375500e-002 1.24217629e-001 3.12293440e-001 5.84440399e-003
      1.17390323e+000 5.31294337e-003 4.60799932e-002 1.24052703e-001
      8.52126658e-001 1.34139693e+000 1.22809790e-001 2.41685528e-002
      6.81364655e-001 4.00682837e-001 2.11970836e-001 7.91934252e-001
      3.62003893e-001 7.93500543e-002 2.09152961e+000 4.67056543e-001
      9.23973501e-001 3.31559610e+000 4.77881670e-001 3.45083475e-001
      5.43218991e-003 3.53040755e-001 1.33565634e-001 4.53252465e-001
      2.99623430e-001 1.06058693e+000 4.47321951e-001 4.33071166e-001
      4.92437959e-001 1.54543829e+000 4.31777865e-001 7.57611217e-003
      5.13555765e-001 1.09133936e-001 3.41856927e-001 1.21543951e-001
      3.70570898e-001 1.97611272e-001 1.37317073e+000 4.87970114e-001
      4.57691699e-001 3.32764417e-001 3.94200712e-001 1.52410179e-001
      2.98810769e-002 1.24807127e-001 3.50227565e-001 2.82755589e+000
      7.18146980e-001 9.32121456e-001 1.32438764e-001 7.43951499e-001
      4.52319346e-002 1.43043804e+000 1.51408577e+000 6.43378317e-001
      1.73566923e-001 8.91230226e-001 1.89738840e-001 6.53836429e-001
      9.75624382e-001 3.17383319e-001 1.04922724e+000 4.22814697e-001</_>
    <_>
      3.68462577e-002 3.33885342e-001 2.44305420e+000 2.84345716e-001
      8.27270970e-002 1.17205691e+000 4.14027870e-002 3.28480124e-001
      1.45493343e-001 6.42423391e-001 4.92267787e-001 3.32956433e-001
      7.86308765e-001 1.31186271e+000 6.22525141e-002 1.49301933e-002
      7.24938273e-001 2.11119846e-001 4.23946172e-001 2.51890332e-001
      5.14964283e-001 8.43960166e-001 5.83638251e-002 7.53265679e-001
      2.34019175e-001 5.11532903e-001 5.81322610e-001 1.23161331e-001
      2.86630481e-001 6.58827424e-001 4.12192419e-002 1.82471946e-001
      7.39688054e-002 1.12145737e-001 1.72653839e-001 5.53534806e-001
      1.35353908e-001 2.20047295e-001 8.58656526e-001 2.17389166e-001
      2.68238168e-002 2.80445546e-001 1.46143571e-001 3.97706836e-001
      1.71470977e-002 6.48540929e-002 2.70469934e-001 4.45522934e-001
      6.71480238e-001 6.71052396e-001 4.31185544e-001 2.54440069e-001
      1.45894408e+000 1.36450827e+000 1.21589035e-001 3.50446939e-001
      8.42113495e-001 3.05292398e-001 9.04752672e-001 7.91401923e-001
      1.99396598e+000 3.67994010e-001 3.99206206e-002 1.77284792e-001
      1.22729331e-001 1.96297720e-001 2.61452906e-002 1.25811958e+000
      4.73795459e-003 9.37375605e-001 3.32524419e-001 3.49878967e-002
      1.06680226e+000 6.63169205e-001 5.13842642e-001 8.18907738e-001
      9.81042385e-001 8.23161483e-001 2.96474099e-001 5.02268910e-001
      5.08089840e-001 3.76001149e-001 1.00976956e+000 6.83019757e-001
      2.71655828e-001 6.14659548e-001 1.34489870e+000 6.88554123e-002
      6.85371133e-003 2.30102077e-001 5.49005270e-001 3.42012078e-001
      1.47925556e-001 9.53447759e-001 1.80321597e-002 4.88531552e-002
      9.09016252e-001 3.18214476e-001 1.63159087e-001 6.69477940e-001
      2.89183199e-001 6.11390889e-001 3.04800808e-001 5.61869800e-001
      2.44315609e-001 1.80013534e-002 1.23758662e+000 1.02169931e+000
      2.95861125e-001 1.55371260e-002 1.86258629e-001 3.10950220e-001
      9.71166268e-002 2.83087134e-001 9.92572382e-002 7.09476888e-001
      1.16971099e+000 4.19715419e-002 3.65762115e-002 1.78103074e-001
      3.65725666e-001 1.09504111e-001 4.33496952e-001 3.47485125e-001
      6.16741538e-001 2.00283575e+000 9.79340911e-001 8.68580759e-001
      4.71923739e-001 8.92565489e-001 1.07608885e-002 5.97024500e-001
      1.53124809e-001 3.53357494e-001 5.83737865e-002 1.01991214e-001
      2.34846957e-002 3.52845341e-001 6.71424627e-001 2.81071365e-001
      3.49753112e-001 1.73793361e-002 5.78473844e-002 1.59992695e-001
      3.46077755e-002 6.71897769e-001 1.69685841e+000 1.70803014e-002
      1.76620129e-002 2.70372838e-001 9.06043768e-001 4.39155549e-001
      5.09401083e-001 2.18456537e-001 5.86987197e-001 7.84495324e-002
      1.01914875e-001 9.49183702e-001 5.64383209e-001 1.04253292e-001
      1.23089790e-001 3.20133455e-002 4.72119004e-001 3.91710430e-001
      1.21518455e-001 1.03503630e-001 4.90149766e-001 4.21290904e-001
      5.64965606e-001 1.85243458e-001 1.72720373e-001 3.71272773e-001
      1.42666864e+000 5.47169268e-001 6.73593521e-001 1.39146268e-001
      7.09229410e-001 5.32301366e-001 1.90308303e-001 2.89996624e-001
      2.72381842e-001 8.60632882e-002 1.36104785e-002 7.85108805e-001
      3.13060939e-001 6.36138976e-001 3.87959480e-002 1.17071331e+000
      2.07224894e+000 1.09396577e+000 2.61672199e-001 4.32958126e-001
      5.93410254e-001 1.96921781e-001 1.12353712e-002 2.55926657e+000
      1.19975187e-001 7.82039285e-001 6.32233858e-001 4.10399698e-002
      6.51618302e-001 2.58036041e+000 3.18422914e-001 5.89527860e-002
      7.75086880e-002 1.58341788e-002 1.82865299e-002 3.87533545e-001
      3.67912464e-002 4.15929407e-002 9.12927568e-001 3.03272218e-001
      8.24057877e-001 4.50023472e-001 1.35027558e-001 4.39800829e-001
      1.11924791e+000 1.14679262e-002 1.79912280e-002 6.47165120e-001
      9.19605017e-001 7.54742563e-001 3.22931819e-002 6.95340931e-002
      2.09400773e+000 3.10806006e-001 8.90858099e-002 1.70727268e-001
      1.76158503e-001 8.67776051e-002 1.08831204e-001 1.37610877e+000
      9.52804983e-001 7.43784428e-001 1.01024278e-001 1.75218005e-002
      1.11419864e-001 8.00705314e-001 1.01936638e+000 7.21669793e-001
      2.38382682e-001 1.98568356e+000 6.35761023e-001 1.43798876e+000
      8.00641119e-001 8.98098767e-001 7.16490448e-002 2.54277349e-001
      1.23387519e-002 1.82794593e-002 5.16122997e-001 4.40732062e-001
      9.08145010e-002 8.03523779e-001 1.25262666e+000 5.66842496e-001
      1.04000578e-002 1.95550644e+000 4.67890799e-001 4.96488512e-001
      1.05589175e+000 2.42547199e-001 3.41730297e-001 3.97844762e-001
      1.12592697e-001 1.04158533e+000 2.58504272e-001 4.81557585e-002
      3.79952788e-001 5.45059964e-002 8.21161151e-001 3.25820476e-001
      5.65529346e-001 5.88104367e-001 1.66084528e-001 6.21607661e-001
      6.91580832e-001 8.28570724e-002 3.25484872e-001 1.10900983e-001
      4.38858010e-003 5.43401182e-001 6.07337892e-001 7.14835376e-002
      5.88061959e-002 1.46197826e-002 3.68921906e-001 7.22972229e-002
      5.11719882e-001 2.79896170e-001 2.87213922e-001 1.28681362e-001
      7.25439489e-001 1.89726561e-001 7.65513722e-003 1.98308781e-001
      1.60498157e-001 1.86921328e-001 5.25419772e-001 6.62656546e-001
      6.59550447e-003 1.14353275e+000 2.10083872e-002 1.67702939e-002
      1.99841961e-001 1.79297999e-001 1.04162133e+000 4.10408713e-002
      3.15902308e-002 1.51763242e-002 6.34544268e-002 4.23692971e-001
      4.39782917e-001 6.23657048e-001 3.47299039e-001 1.20905066e+000
      7.02282906e-001 2.58107811e-001 7.53724098e-001 1.57833740e-001
      8.31899405e-001 7.46724308e-001 3.50742459e-001 3.03605556e-001
      1.64212156e-002 8.86426196e-002 7.65478685e-002 5.16917229e-001
      2.93909878e-001 6.65198863e-001 2.08128601e-001 1.78225291e+000
      1.57812051e-002 3.54951292e-001 2.96062469e-001 4.40088008e-003
      1.40891969e+000 3.85495974e-003 1.94439381e-001 1.04047306e-001
      9.32896137e-001 1.48266006e+000 1.43536106e-001 2.63800845e-002
      5.90094864e-001 1.74132094e-001 3.27340752e-001 5.08269548e-001
      4.02064204e-001 1.97683230e-001 6.16219699e-001 4.11495775e-001
      1.18359339e+000 9.03534293e-001 6.68878555e-001 4.49401677e-001
      4.96286899e-003 2.48538956e-001 1.35718167e-001 7.28732944e-001
      2.39181280e-001 2.86743164e-001 5.08279681e-001 1.88633934e-001
      3.64540607e-001 4.76005465e-001 2.48628691e-001 8.63223430e-003
      8.76745582e-001 7.01687485e-002 3.92913371e-001 5.16182244e-001
      3.28762203e-001 1.27168730e-001 6.50369644e-001 9.04854774e-001
      4.19622689e-001 4.30617750e-001 4.30383027e-001 1.23083457e-001
      3.44424620e-002 8.20511729e-002 5.29235840e-001 1.53618431e+000
      6.55271709e-001 5.08209884e-001 8.70542899e-002 4.32168901e-001
      8.91323686e-002 1.52154672e+000 7.03000903e-001 5.49730599e-001
      1.51805654e-001 8.39456499e-001 1.68531120e-001 1.71803916e+000
      2.46150687e-001 5.68263769e-001 4.04431432e-001 1.36097515e+000</_>
    <_>
      5.23238741e-002 5.23051500e-001 1.22122991e+000 4.51499194e-001
      6.87102601e-002 2.98893213e-001 1.52460575e-001 2.43112057e-001
      1.99931711e-001 7.13084042e-001 1.32631525e-001 2.51170635e-001
      6.33867562e-001 1.28859878e+000 2.15037167e-002 1.12192351e-002
      1.09809744e+000 3.75175536e-001 2.04088449e-001 6.10901535e-001
      5.03700256e-001 8.24731410e-001 1.16303772e-001 2.26706445e-001
      5.46527684e-001 2.05299616e-001 5.94663024e-001 9.90087762e-002
      4.75948572e-001 7.04098642e-001 5.33992983e-002 1.71036124e-001
      1.06548451e-001 3.18707138e-001 5.22315562e-001 1.27289855e+000
      1.13974907e-001 3.48911822e-001 1.11034191e+000 1.95454434e-001
      2.57569402e-002 2.17403501e-001 2.80692428e-001 7.64929354e-001
      1.32689700e-002 3.84481549e-002 3.96806061e-001 4.07243103e-001
      5.50742984e-001 1.22709084e+000 9.65330899e-001 2.97612339e-001
      2.30007195e+000 1.58426559e+000 2.90556729e-001 3.89890015e-001
      3.85278910e-001 3.05900037e-001 6.42112374e-001 8.87701154e-001
      2.14211512e+000 1.14661109e+000 4.22040038e-002 8.73279423e-002
      2.48298451e-001 1.19293042e-001 5.09132184e-002 7.57245779e-001
      4.89004143e-003 7.30143487e-001 3.29034418e-001 6.98513398e-003
      8.94114554e-001 3.30691010e-001 1.87407464e-001 6.38234437e-001
      2.92881906e-001 4.25057083e-001 9.70903933e-001 4.55954671e-001
      3.42089236e-001 8.76810178e-002 3.78961325e-001 8.67225945e-001
      2.38969699e-001 1.04740226e+000 9.09845829e-001 1.04651771e-001
      5.44329174e-003 3.56235802e-001 2.55867332e-001 8.71424615e-001
      1.31522864e-001 6.97729945e-001 1.17711965e-002 3.35814245e-002
      1.09059310e+000 1.09658611e+000 3.68839651e-001 9.22520101e-001
      6.35056317e-001 8.63732517e-001 2.26283565e-001 5.22942543e-001
      5.92249513e-001 1.59813762e-002 6.71577096e-001 1.02622175e+000
      5.58087170e-001 1.99342016e-002 5.01493551e-002 1.17256813e-001
      1.16829768e-001 6.46251500e-001 8.70906189e-002 3.85285050e-001
      4.99600381e-001 6.85980693e-002 2.16175020e-002 1.62915096e-001
      1.46922112e-001 3.68487626e-001 3.00363511e-001 1.37690425e+000
      4.39276606e-001 5.12897551e-001 3.64922762e-001 7.39280641e-001
      3.59581530e-001 9.65387583e-001 1.18355816e-002 3.55128527e-001
      1.83781758e-001 4.69238192e-001 5.14660366e-002 1.44374609e-001
      2.13151947e-002 3.09169561e-001 1.03922498e+000 2.17706040e-001
      2.44495794e-001 1.31444829e-002 5.23710437e-002 3.94037962e-002
      1.89389251e-002 9.72906709e-001 7.60454714e-001 2.14084499e-002
      1.53212883e-002 9.33526695e-001 4.70468462e-001 3.59709263e-001
      1.13039958e+000 4.47222531e-001 2.97800839e-001 1.41180664e-001
      1.77446470e-001 1.19630992e+000 5.19309938e-001 1.18273422e-001
      1.08481489e-001 7.12467358e-002 3.04029375e-001 3.83537829e-001
      1.26403436e-001 1.82807520e-001 6.96375430e-001 3.21691245e-001
      2.36495987e-001 1.48752391e-001 2.00189844e-001 7.73428142e-001
      2.23629498e+000 2.44758040e-001 7.70675361e-001 8.77854079e-002
      1.03459799e+000 3.99326861e-001 8.93928111e-002 2.57125199e-001
      3.50294501e-001 1.03163496e-001 1.35891931e-002 4.81786013e-001
      2.61383235e-001 1.43271542e+000 2.34150626e-002 1.05118155e+000
      6.00661516e-001 1.38968444e+000 2.15402648e-001 1.25254488e+000
      6.49229944e-001 4.92838584e-002 7.92463310e-003 4.70198333e-001
      1.10742547e-001 2.80304760e-001 6.49711072e-001 5.42317890e-002
      2.19539896e-001 4.01817739e-001 4.98425931e-001 4.53178473e-002
      1.11526392e-001 1.48281287e-002 1.66902393e-002 1.87797159e-001
      2.75657494e-002 3.70478816e-002 1.46388322e-001 7.03446567e-001
      1.02983236e+000 3.50052863e-001 8.85853991e-002 3.63419801e-001
      2.90702939e-001 8.46439321e-003 2.27673091e-002 6.53457046e-001
      6.13447487e-001 5.82157671e-001 1.95416696e-002 6.70373216e-002
      5.55880010e-001 2.02637687e-001 1.31951556e-001 1.99554324e-001
      6.65968239e-001 6.79400116e-002 1.71975061e-001 4.86835033e-001
      3.04736942e-001 9.36624169e-001 1.62147388e-001 1.02323666e-002
      1.11567490e-001 4.18400139e-001 1.17115211e+000 7.44026005e-001
      4.42227125e-001 1.59392989e+000 1.34594166e+000 5.35326421e-001
      4.65771735e-001 1.59586692e+000 9.29229558e-002 3.54095958e-002
      1.23696346e-002 1.65812373e-002 4.98776406e-001 1.68741226e-001
      2.27852657e-001 8.98192227e-001 3.63071829e-001 6.54807448e-001
      1.20129911e-002 1.14905286e+000 2.76598573e-001 2.02604517e-001
      1.26590776e+000 4.88635808e-001 8.60929132e-001 1.31268787e+000
      1.81372777e-001 4.38757509e-001 3.88630927e-001 5.57090156e-002
      1.43181831e-001 6.44721687e-002 1.09274805e+000 4.24733341e-001
      3.60931873e-001 1.33975363e+000 1.36715710e-001 1.79976478e-001
      3.94065678e-001 7.60184079e-002 1.18855752e-001 1.23183653e-001
      4.22512181e-003 5.38080752e-001 5.83520353e-001 1.89907730e-001
      7.16646761e-002 7.42666190e-003 4.20616180e-001 4.67273593e-002
      5.31747997e-001 1.64489418e-001 4.61793810e-001 1.33883670e-001
      4.88060445e-001 1.22278407e-001 4.95584728e-003 1.59720346e-001
      1.71440288e-001 1.50100276e-001 2.86644369e-001 4.83137250e-001
      8.66664015e-003 1.25188339e+000 1.49492268e-002 1.29801957e-002
      7.72003531e-002 1.24530405e-001 9.09307897e-001 4.31119204e-002
      4.81013916e-002 1.78216733e-002 6.40247837e-002 4.22800630e-001
      4.87593949e-001 5.78040421e-001 2.45543823e-001 4.78481740e-001
      7.35499263e-001 5.98964334e-001 3.19420427e-001 1.93444684e-001
      1.23739421e+000 8.97477448e-001 3.77151161e-001 3.38867098e-001
      1.21686980e-002 7.04238564e-002 1.01346396e-001 1.45770013e-001
      2.41734028e-001 1.94275916e-001 4.04387057e-001 1.02529275e+000
      1.99062414e-002 1.60938337e-001 4.61969674e-001 4.16037906e-003
      1.31633961e+000 4.88176011e-003 1.28624275e-001 1.95935115e-001
      8.20640445e-001 3.11313450e-001 1.16927080e-001 2.76208129e-002
      9.61348891e-001 1.33012041e-001 3.37282181e-001 7.10516632e-001
      3.79470229e-001 9.17145535e-002 3.00318122e-001 2.14494348e-001
      3.25553596e-001 4.72586870e-001 2.97688723e-001 1.27738035e+000
      5.71095338e-003 2.69770026e-001 1.38708979e-001 4.75288928e-001
      8.00945103e-001 7.21024334e-001 6.80842757e-001 5.71925521e-001
      3.94352466e-001 7.38688707e-001 1.13506544e+000 7.94281904e-003
      1.14518178e+000 1.20908484e-001 1.67201310e-001 1.73107833e-001
      3.06676894e-001 8.27359855e-002 9.52146530e-001 3.31422299e-001
      4.81506050e-001 2.76182264e-001 8.39455307e-001 8.38601440e-002
      1.97662562e-002 8.14057738e-002 4.26247358e-001 1.24162495e+000
      1.10287845e+000 1.45298934e+000 9.08456445e-002 2.94570923e-001
      4.04201001e-002 1.15085566e+000 7.36346424e-001 3.69366854e-001
      1.86644658e-001 9.69695568e-001 3.30371827e-001 2.34882140e+000
      3.66096944e-001 4.98343199e-001 5.58607936e-001 3.63799542e-001</_>
    <_>
      5.96411303e-002 2.93138623e-001 9.08573687e-001 3.09533864e-001
      3.71634774e-002 1.28646672e+000 7.62927756e-002 1.79834798e-001
      1.04701534e-001 1.43798447e+000 2.76217729e-001 3.20531100e-001
      3.50853920e-001 3.70667130e-001 2.70993132e-002 3.00772837e-003
      6.63162887e-001 1.65939212e-001 7.70872831e-001 2.16303542e-001
      7.88033843e-001 4.12809163e-001 1.14361152e-001 3.33372146e-001
      9.15859565e-002 2.58514792e-001 8.40127349e-001 7.72757232e-002
      2.54765719e-001 4.38306153e-001 3.11854798e-002 1.39941856e-001
      1.40518561e-001 2.14309245e-001 4.86941844e-001 4.23596621e-001
      1.21198528e-001 3.16451490e-001 3.04979563e-001 1.70606390e-001
      4.32007201e-002 1.57482058e-001 2.52281040e-001 5.90917945e-001
      1.54535770e-002 2.43456401e-002 4.60539788e-001 2.14433640e-001
      6.31609142e-001 4.29513037e-001 3.40922892e-001 2.98686534e-001
      1.13169515e+000 8.19341242e-001 1.45612061e-001 9.24157202e-001
      6.34865284e-001 1.42774791e-001 6.87311053e-001 1.02046657e+000
      1.44109631e+000 8.71745408e-001 4.99701984e-002 1.07650101e-001
      9.24232602e-002 3.87602746e-001 3.82083170e-002 1.21706033e+000
      4.15812805e-003 3.82841587e-001 2.50678986e-001 2.45439988e-002
      8.29464018e-001 3.70602608e-001 8.15933049e-001 2.11507589e-001
      2.88531154e-001 8.77514958e-001 9.17891443e-001 2.84860998e-001
      8.44195068e-001 2.67450899e-001 1.20886505e+000 3.74376357e-001
      2.69327313e-001 2.61723369e-001 1.26700997e+000 1.30761802e-001
      5.95528120e-003 4.35862958e-001 1.12617886e+000 1.01313686e+000
      1.34061337e-001 1.11591315e+000 1.43086910e-002 1.72287319e-002
      9.40642953e-001 6.77107930e-001 1.83154300e-001 4.02057946e-001
      2.73504972e-001 7.95951366e-001 2.45430708e-001 5.02378225e-001
      2.24677548e-001 1.63561106e-002 3.09073031e-001 3.20199221e-001
      4.37071562e-001 1.33031607e-002 1.33459032e-001 2.56336033e-001
      1.11400731e-001 5.19080639e-001 2.00860679e-001 1.56033659e+000
      3.75386178e-001 3.05856187e-002 4.74474058e-002 9.45011079e-002
      3.95915508e-001 2.99615502e-001 1.86750576e-001 2.82803595e-001
      8.22392404e-001 9.26045179e-001 5.85776448e-001 1.28907120e+000
      4.60313350e-001 1.19857752e+000 1.26134437e-002 5.61836004e-001
      1.43180653e-001 5.21100044e-001 4.25856858e-002 1.20112568e-001
      2.67041940e-002 3.40852559e-001 4.85834956e-001 1.94840774e-001
      4.60253209e-001 1.56857911e-002 4.29832265e-002 8.03563595e-002
      3.37118618e-002 7.27083802e-001 5.90801477e-001 2.70540640e-002
      1.60442218e-002 1.59946263e-001 1.54667366e+000 3.60790819e-001
      2.57569522e-001 1.75738931e-001 5.86182058e-001 1.32680699e-001
      8.69127139e-002 7.37286150e-001 6.87771261e-001 1.12660602e-001
      6.73026815e-002 3.06013301e-002 1.88571557e-001 1.32445052e-001
      1.20925188e-001 1.12255305e-001 9.45771873e-001 2.42399991e-001
      3.82334679e-001 4.21882093e-001 1.11591220e-001 3.10789198e-001
      8.77703905e-001 2.16597453e-001 1.94286633e+000 2.04343066e-001
      1.28868747e+000 4.17521954e-001 1.09231099e-001 2.41499498e-001
      6.98394179e-001 1.02433026e-001 7.59710791e-003 1.88120103e+000
      2.72989750e-001 3.31192434e-001 1.64363831e-002 5.51167786e-001
      7.94316709e-001 3.43475759e-001 2.20325530e-001 3.56360257e-001
      5.07043660e-001 1.39550790e-001 1.36823496e-002 9.24115002e-001
      7.87893310e-002 1.01119351e+000 4.10704881e-001 3.49155515e-002
      4.05186594e-001 1.23740757e+000 3.83589357e-001 8.51330832e-002
      9.56496447e-002 1.66179314e-002 1.78668238e-002 6.76141858e-001
      4.43262421e-002 3.03274263e-002 5.19968390e-001 2.50017345e-001
      1.28164184e+000 2.95699358e-001 2.02876866e-001 3.66936445e-001
      7.64993072e-001 1.49862580e-002 1.59711819e-002 4.00145411e-001
      7.38539100e-001 1.11279476e+000 3.01763434e-002 1.20467104e-001
      8.44626486e-001 6.33778572e-001 1.39783859e-001 1.09182395e-001
      4.37482327e-001 7.95045048e-002 1.42632306e-001 5.37785590e-001
      1.30093491e+000 4.14664298e-001 8.41912478e-002 1.20829809e-002
      1.13737322e-001 2.37818941e-001 9.72127616e-001 1.31327718e-001
      1.46679938e+000 9.35789049e-001 3.95915300e-001 7.25103140e-001
      1.41476154e+000 8.14084828e-001 8.49622786e-002 8.35777000e-002
      1.26218181e-002 1.80080980e-002 2.69407332e-001 4.84222710e-001
      9.12150741e-002 8.99953246e-001 7.26642728e-001 2.62829363e-001
      1.19371684e-002 1.26370490e+000 3.46240491e-001 2.62520313e-001
      7.88481236e-001 1.43003255e-001 2.74512917e-001 9.15543675e-001
      1.34012803e-001 4.27838027e-001 3.97060275e-001 4.07308228e-002
      3.13781083e-001 2.86863185e-002 9.68674064e-001 3.02499086e-001
      1.16379976e+000 2.44811416e-001 1.18748493e-001 3.99407983e-001
      1.04857326e+000 1.20781310e-001 1.29538164e-001 8.91075805e-002
      3.93438572e-003 1.36340284e+000 2.21091837e-001 1.15368411e-001
      8.74117091e-002 6.06249133e-003 4.79442507e-001 4.13928740e-002
      2.11539268e-001 2.52262443e-001 1.94148913e-001 2.29308501e-001
      5.11399984e-001 8.62985551e-002 7.23081455e-003 1.89728633e-001
      8.02804828e-002 1.70729518e-001 4.80044276e-001 7.31582224e-001
      1.19021917e-002 4.90806967e-001 9.75847803e-003 1.56180887e-002
      1.32185832e-001 1.35237306e-001 1.33421075e+000 4.90397289e-002
      3.02071478e-002 1.59306191e-002 8.58258978e-002 3.53555381e-001
      7.75801182e-001 2.53443271e-001 3.08985054e-001 6.00951433e-001
      1.07763720e+000 2.68946379e-001 3.84106785e-001 1.13198832e-001
      7.86607981e-001 1.89308333e+000 1.02367707e-001 2.91010410e-001
      1.65099744e-002 8.34180415e-002 7.04585388e-002 6.86192811e-001
      5.19853830e-001 5.54461241e-001 2.17833504e-001 7.07642555e-001
      2.74636727e-002 2.10678399e-001 1.77286297e-001 3.86082940e-003
      1.11548293e+000 5.02303103e-003 8.19790438e-002 1.24891683e-001
      3.36786747e-001 1.86664832e+000 1.55580461e-001 4.53625843e-002
      4.13939834e-001 1.43175438e-001 2.34926596e-001 6.85506284e-001
      3.46855223e-001 1.12942867e-001 7.07131803e-001 2.66676754e-001
      8.93687367e-001 8.05442274e-001 1.54451942e+000 3.33603919e-001
      5.29848458e-003 2.81629950e-001 1.26073733e-001 9.02897120e-001
      2.15893596e-001 3.95800859e-001 5.06349742e-001 3.51322204e-001
      3.41768533e-001 6.19710863e-001 3.38140607e-001 8.49416014e-003
      6.86426759e-001 1.17538743e-001 3.53081942e-001 3.91590327e-001
      3.45406026e-001 1.31918237e-001 8.13712239e-001 4.36593235e-001
      1.09155238e+000 1.71912029e-001 2.27597848e-001 1.12004094e-001
      3.35619785e-002 1.03402101e-001 5.19742668e-001 8.13553214e-001
      4.26252723e-001 3.75992805e-001 1.11840144e-001 6.54023528e-001
      5.59650585e-002 6.41665220e-001 5.46004176e-001 2.04655981e+000
      1.13489993e-001 5.77754080e-001 1.52174741e-001 1.03046978e+000
      2.73663700e-001 3.94046724e-001 4.93019253e-001 8.44539821e-001</_>
    <_>
      4.01736796e-002 2.22145006e-001 1.55707169e+000 4.34440464e-001
      6.85909614e-002 5.28485060e-001 1.70049906e-001 3.50988328e-001
      1.12713262e-001 6.74182355e-001 3.66830438e-001 4.80088860e-001
      4.29535687e-001 2.68811762e-001 1.45973284e-002 5.02286945e-003
      4.03668463e-001 1.43043369e-001 2.14873528e+000 4.63021338e-001
      9.88429487e-001 4.87066120e-001 1.73900262e-001 3.05160642e-001
      1.16597213e-001 1.58964908e+000 4.57611650e-001 3.59020866e-002
      1.40006915e-001 6.97668672e-001 3.48521769e-002 1.18455969e-001
      1.08513139e-001 1.82167590e-001 5.57551384e-001 4.80169594e-001
      1.29672348e-001 4.58772779e-001 2.83504009e-001 1.11829564e-001
      2.19293498e-002 9.05394629e-002 2.33689040e-001 4.60972428e-001
      2.33012326e-002 7.11135790e-002 4.28846002e-001 1.94952294e-001
      4.86207098e-001 8.45090687e-001 9.23145175e-001 3.39339048e-001
      4.60625648e-001 4.41777200e-001 5.25115788e-001 2.36971304e-001
      3.98421556e-001 9.88048539e-002 4.82774913e-001 5.80316484e-001
      1.29125750e+000 1.07085633e+000 3.80479284e-002 2.07710341e-001
      9.43364203e-002 9.18603614e-002 4.15276587e-002 1.00483918e+000
      4.85062459e-003 1.09489322e+000 2.21923202e-001 1.05536217e-002
      8.06824565e-001 6.15354002e-001 2.01492712e-001 3.92275453e-001
      3.71153414e-001 4.16309685e-001 3.98111135e-001 4.18758780e-001
      8.51440251e-001 8.90483111e-002 9.15001452e-001 9.52748299e-001
      1.54531702e-001 3.54122549e-001 1.08245206e+000 1.10889263e-001
      6.17631990e-003 4.11059141e-001 5.51130176e-001 8.84132147e-001
      6.52181655e-002 8.29345584e-001 1.60019398e-002 1.49399014e-002
      6.92765236e-001 5.07823527e-001 5.61648309e-001 4.02195543e-001
      2.71021008e-001 4.41885591e-001 7.83920228e-001 1.67439663e+000
      2.34834731e-001 1.30478963e-002 1.11665547e+000 4.22284633e-001
      2.97044873e-001 1.07562905e-002 1.63759246e-001 7.94355348e-002
      8.73093009e-002 3.50331545e-001 3.18968557e-002 1.14369094e+000
      9.83314931e-001 4.88505252e-002 2.41577085e-002 1.16758563e-001
      5.14922142e-001 2.01136902e-001 2.64627278e-001 2.95319855e-001
      6.31387413e-001 1.27797198e+000 7.50297546e-001 7.11054802e-001
      9.39341605e-001 1.12935710e+000 1.19580729e-002 1.87133461e-001
      1.26749292e-001 4.65122461e-001 7.09903985e-002 1.52469143e-001
      2.19653845e-002 5.24859309e-001 3.62561941e-001 1.00678816e-001
      3.89168888e-001 2.25386862e-002 4.26122844e-002 1.33346438e-001
      4.49562632e-002 6.75986111e-001 9.39729571e-001 2.81108636e-002
      1.73903164e-002 4.83476311e-001 8.76901329e-001 4.06503677e-001
      3.13944846e-001 2.34642759e-001 5.62308431e-001 1.10686302e-001
      1.04515009e-001 1.05041730e+000 7.26100445e-001 1.19107492e-001
      2.53744721e-002 2.23128274e-002 3.51384968e-001 4.89963114e-001
      4.10516486e-002 1.12959906e-001 5.69442570e-001 4.27587777e-001
      1.59261957e-001 8.73359442e-002 1.33022457e-001 3.35959464e-001
      7.81984687e-001 3.43761384e-001 5.31710923e-001 9.37806964e-002
      5.36705971e-001 3.19673479e-001 2.31967553e-001 2.11657077e-001
      9.01976824e-001 1.60399526e-001 5.60208829e-003 2.52392620e-001
      4.66692895e-001 8.54428053e-001 1.77668072e-002 4.00662988e-001
      1.60004616e+000 2.84593731e-001 1.65851504e-001 2.84576446e-001
      6.31613076e-001 1.56465605e-001 9.47780721e-003 2.07102990e+000
      1.89443439e-001 2.72602350e-001 4.84025806e-001 4.24159132e-002
      3.51307660e-001 1.40106487e+000 5.07977247e-001 1.53276250e-001
      1.15515068e-001 1.09013366e-002 1.87852625e-002 7.15306938e-001
      3.21772136e-002 5.04122712e-002 7.63045847e-001 3.66054833e-001
      6.17030501e-001 2.34484509e-001 2.24347666e-001 7.46210992e-001
      9.95477140e-001 5.37489960e-003 1.49371233e-002 2.77256221e-001
      1.38900530e+000 1.46283960e+000 3.05357445e-002 8.40624943e-002
      1.46604323e+000 2.00206503e-001 1.76713809e-001 1.20387875e-001
      1.39405799e+000 8.40541199e-002 8.29090551e-002 1.46539235e+000
      1.37050819e+000 5.97557604e-001 9.41528901e-002 1.77855138e-002
      1.59655780e-001 6.50242984e-001 9.66390550e-001 5.64602077e-001
      2.47442558e-001 1.37499356e+000 3.47428024e-001 7.08757758e-001
      9.42108810e-001 7.86902726e-001 4.94246595e-002 4.82108183e-002
      1.37549229e-002 1.91777777e-002 5.61850846e-001 1.60449892e-001
      1.14801750e-001 6.03694439e-001 3.88563573e-001 4.68273222e-001
      1.24176024e-002 1.33860886e+000 2.48212442e-001 3.54372889e-001
      4.84458447e-001 1.85146600e-001 6.01437032e-001 1.14456844e+000
      1.01780161e-001 7.18058944e-001 1.77918598e-001 5.08714989e-002
      3.61925662e-001 4.27807570e-002 4.15630549e-001 2.95285642e-001
      2.65699387e-001 2.42812395e-001 1.74232677e-001 5.92634916e-001
      2.41735354e-001 8.37277621e-002 2.57020354e-001 1.01646617e-001
      4.03801864e-003 1.00021386e+000 2.46514797e-001 1.02687784e-001
      1.58096120e-001 1.11516975e-002 7.10474253e-001 4.23585251e-002
      4.32627946e-001 5.36324024e-001 1.26975656e-001 1.48022562e-001
      3.15809995e-001 1.86648026e-001 4.56007896e-003 1.61445990e-001
      1.14808217e-001 1.78843156e-001 7.44291246e-001 4.22729850e-001
      8.80258624e-003 1.55758822e+000 2.15912778e-002 2.40378082e-002
      1.97931841e-001 1.53701082e-001 1.33631659e+000 3.59191075e-002
      3.63716185e-002 1.31296329e-002 1.98377147e-001 2.84168720e-001
      2.35010296e-001 4.43085283e-001 6.48960173e-001 7.73427010e-001
      5.51633894e-001 3.15635830e-001 3.63934696e-001 1.03362478e-001
      3.97610128e-001 9.02754366e-001 3.08907986e-001 1.88999861e-001
      2.40969621e-002 8.52412283e-002 6.89433366e-002 1.97665858e+000
      2.41595924e-001 3.24184656e-001 2.30386719e-001 2.12856126e+000
      2.39724666e-002 4.13861632e-001 2.37141028e-001 3.97177972e-003
      4.29514855e-001 3.47790169e-003 1.92308813e-001 1.19023748e-001
      9.77931499e-001 8.69924068e-001 1.42433017e-001 2.15027332e-002
      6.70845807e-001 4.71828699e-001 4.10951018e-001 8.34124148e-001
      5.38527012e-001 2.39661857e-001 1.10103595e+000 1.73056751e-001
      1.00482845e+000 4.44257528e-001 1.40101755e+000 5.73185027e-001
      3.51374294e-003 3.41979980e-001 7.01700747e-002 4.79895800e-001
      2.25671157e-001 4.46440190e-001 2.29872793e-001 5.80410302e-001
      2.17207849e-001 8.66092682e-001 2.70192415e-001 1.16656385e-002
      7.53730357e-001 1.97661966e-001 7.40325570e-001 2.57721514e-001
      2.79572934e-001 6.84667155e-002 3.73460174e-001 4.75654006e-001
      2.16349512e-001 3.35758954e-001 5.45603156e-001 1.16585776e-001
      4.47412096e-002 5.51896505e-002 2.44006947e-001 9.48654592e-001
      4.29733276e-001 9.55007553e-001 6.37390912e-002 3.75881732e-001
      6.67776391e-002 6.61718607e-001 4.60077584e-001 1.55019119e-001
      1.22011259e-001 4.77526903e-001 1.46469668e-001 4.14985865e-001
      4.54625010e-001 8.39895546e-001 1.09718454e+000 4.89536613e-001</_>
    <_>
      4.56580073e-002 6.72995210e-001 1.72158134e+000 4.64638025e-001
      5.40447012e-002 9.62864339e-001 1.02946810e-001 9.88502279e-002
      1.67497620e-001 8.05881977e-001 1.01017289e-001 4.77226019e-001
      8.10766935e-001 8.30796599e-001 1.14435256e-002 5.42721199e-003
      8.60055804e-001 2.53140092e-001 3.29875439e-001 4.97059315e-001
      1.24408126e+000 7.56753385e-001 1.43764347e-001 2.93118906e+000
      3.53692323e-001 3.13657880e-001 1.33026576e+000 4.68423516e-002
      2.69632399e-001 9.24177349e-001 5.17821833e-002 1.59844026e-001
      1.42793894e-001 2.39378184e-001 2.08841115e-001 5.18729389e-001
      8.38502869e-002 4.53172863e-001 1.08657777e+000 6.09462142e-001
      1.16160866e-002 3.65464091e-001 1.64663360e-001 1.56827486e+000
      1.28176371e-002 1.53048271e-002 3.13887447e-001 3.36088687e-001
      4.47613299e-001 8.19869518e-001 8.48720908e-001 1.96036622e-001
      4.40398693e-001 6.52450442e-001 1.11643098e-001 4.88743365e-001
      6.48260176e-001 1.18364677e-001 1.55641162e+000 5.62904358e-001
      1.87126291e+000 1.01414979e+000 3.20241190e-002 7.02635199e-002
      2.53323644e-001 1.07368551e-001 2.56740432e-002 1.13346064e+000
      3.54928570e-003 4.24601048e-001 3.08752388e-001 7.13175209e-003
      1.74279451e+000 4.28029865e-001 2.64703512e-001 9.94007289e-001
      1.52995694e+000 4.57265347e-001 7.24975348e-001 1.47539663e+000
      9.65299189e-001 1.31843597e-001 6.46311224e-001 4.57043707e-001
      6.41308725e-001 9.81859028e-001 1.39581931e+000 7.40923584e-002
      3.83735704e-003 3.10173959e-001 5.02908111e-001 4.30978000e-001
      9.77393314e-002 1.05556166e+000 1.59683377e-002 1.40635846e-002
      3.48117560e-001 8.60925674e-001 8.74633491e-002 6.26254439e-001
      9.01431561e-001 7.53215730e-001 2.48232931e-001 8.42379272e-001
      3.85575354e-001 1.26046892e-002 4.83705878e-001 6.38836503e-001
      4.78839308e-001 9.52008925e-003 3.87320742e-002 1.39317736e-001
      1.21008776e-001 6.52196944e-001 4.81772497e-002 3.69184881e-001
      4.27502304e-001 6.03954308e-002 2.50036232e-002 2.03654721e-001
      9.13832858e-002 1.50828943e-001 3.05340916e-001 7.48361170e-001
      2.87841707e-001 9.41394627e-001 2.78318048e-001 1.11819792e+000
      1.39283907e+000 1.68513680e+000 1.78269539e-002 7.64471650e-001
      2.49573708e-001 5.20814478e-001 6.44051507e-002 2.02805266e-001
      1.77750122e-002 4.93438452e-001 4.05169398e-001 6.86437845e-001
      3.36401850e-001 1.33055793e-002 6.50605112e-002 7.14952350e-002
      2.00176872e-002 4.65028316e-001 6.88571572e-001 2.99823061e-002
      1.61515027e-002 7.27783978e-001 3.37575376e-001 6.12611890e-001
      7.33665407e-001 3.21372658e-001 4.86891747e-001 8.51984620e-002
      1.40165225e-001 1.46622229e+000 5.47155738e-001 1.80793107e-001
      4.46147025e-002 3.32739726e-002 3.20475072e-001 1.95135891e-001
      6.41320571e-002 1.66404545e-001 5.52876055e-001 5.26355565e-001
      1.82930335e-001 1.07257091e-001 1.62500381e-001 3.51109326e-001
      1.51262128e+000 6.39166951e-001 9.00701463e-001 4.06622775e-002
      1.34568655e+000 4.12867695e-001 6.12895265e-002 3.14243853e-001
      9.64137733e-001 9.90476906e-002 7.27331592e-003 5.34412920e-001
      3.74531955e-001 5.59568524e-001 2.55817119e-002 9.77550745e-001
      7.78615117e-001 7.52268076e-001 8.75979364e-001 6.89671099e-001
      1.51311648e+000 4.46301699e-002 4.58197528e-003 2.22472692e+000
      1.77228510e-001 4.27114218e-001 2.41496786e-001 6.75231293e-002
      2.05087841e-001 1.28739130e+000 4.01348948e-001 3.72867808e-002
      6.42049909e-002 8.92692525e-003 1.52423326e-002 1.78737193e-001
      3.09977941e-002 3.98339629e-002 3.62838596e-001 8.72547030e-001
      1.39881921e+000 3.02363217e-001 1.11946002e-001 4.81224060e-001
      1.63704425e-001 3.15285544e-003 1.46672949e-002 1.71874976e+000
      8.41258407e-001 6.42207921e-001 1.42265931e-002 7.28154033e-002
      8.02508891e-001 4.01574939e-001 2.36664638e-001 1.57910407e-001
      6.82117343e-001 7.44829699e-002 2.02357337e-001 6.01724148e-001
      5.48815012e-001 5.78640759e-001 1.06471896e-001 9.36402846e-003
      1.67293757e-001 1.78374931e-001 1.62499726e+000 4.88966972e-001
      4.73805666e-001 1.32160139e+000 7.93153942e-001 1.07825541e+000
      3.18895996e-001 1.77263403e+000 1.48746237e-001 3.62736098e-002
      1.59606021e-002 1.53830480e-002 7.54963160e-001 3.01757336e-001
      1.18415065e-001 1.11266458e+000 2.69862682e-001 5.84262013e-001
      1.85352564e-002 1.49258626e+000 4.27509308e-001 4.24364656e-001
      1.07537389e+000 3.84160042e-001 6.09666228e-001 7.54203796e-001
      2.03595042e-001 3.87494951e-001 2.45566934e-001 2.87919547e-002
      1.67358577e-001 4.34928648e-002 8.94074082e-001 3.96782786e-001
      8.28319788e-001 1.73084378e+000 2.57607162e-001 2.74696410e-001
      5.38538754e-001 6.09133281e-002 2.62430429e-001 1.64373875e-001
      3.14299017e-003 1.42911613e+000 8.34942698e-001 1.15119457e-001
      8.04843232e-002 8.49858951e-003 4.08381373e-001 3.13963257e-002
      4.38346922e-001 3.98236454e-001 4.38800931e-001 5.84769547e-002
      2.38112628e-001 4.15350161e-002 2.54320237e-003 1.82063878e-001
      1.06647827e-001 1.25553355e-001 4.57790405e-001 9.03192103e-001
      3.39052617e-003 6.27959073e-001 1.43219568e-002 1.24406451e-002
      2.13096797e-001 1.34505838e-001 8.30236971e-001 4.64438237e-002
      5.71110174e-002 1.41619314e-002 5.71507066e-002 3.33542377e-001
      2.47611165e-001 4.58523333e-001 1.50703847e-001 7.00855672e-001
      7.45490730e-001 3.46126556e-001 1.21979594e-001 1.88770711e-001
      9.93261993e-001 1.10349023e+000 2.56008327e-001 5.72628856e-001
      1.31326653e-002 8.05849135e-002 5.63269965e-002 3.03540975e-001
      3.14373374e-001 5.63397348e-001 3.71486425e-001 7.04288483e-001
      1.35262543e-002 1.71335846e-001 2.55530685e-001 3.22365202e-003
      1.01305974e+000 2.81995535e-003 4.56307903e-002 6.86578006e-002
      4.59250689e-001 3.30199838e-001 1.24784663e-001 1.17307110e-002
      7.60425925e-001 9.76730287e-002 4.35636580e-001 1.54112101e+000
      2.58834124e-001 5.88137247e-002 2.77997851e-001 5.05514324e-001
      1.90024316e-001 3.43721271e-001 5.68749011e-001 5.02566874e-001
      3.30210733e-003 1.34876236e-001 8.17420110e-002 5.15947759e-001
      4.29055899e-001 1.05811894e+000 2.69463032e-001 2.96067476e-001
      1.98702052e-001 2.48736367e-001 6.48629665e-001 5.55629423e-003
      1.37012374e+000 2.08620757e-001 2.84299761e-001 3.46074313e-001
      5.55073857e-001 1.80346951e-001 9.95075107e-001 1.73887110e+000
      3.50035757e-001 2.93909162e-001 6.84808910e-001 9.46636721e-002
      1.89961791e-002 1.71803966e-001 2.94024557e-001 8.35313857e-001
      4.42877740e-001 9.94947612e-001 1.96848407e-001 3.60745043e-001
      4.68125716e-002 9.40216720e-001 3.45060110e-001 4.42469865e-001
      1.59460142e-001 9.84374285e-001 3.09525937e-001 6.60459340e-001
      6.66732550e-001 2.79934168e-001 2.41649240e-001 9.11925077e-001</_>
    <_>
      6.20108172e-002 3.39580745e-001 1.51617396e+000 3.16724092e-001
      3.57895233e-002 6.66417003e-001 1.06998183e-001 4.13431317e-001
      1.55212969e-001 7.71920562e-001 1.20562665e-001 4.62858677e-001
      3.67865205e-001 1.63804364e+000 3.01170461e-002 1.41640194e-002
      9.83409584e-001 2.27757752e-001 4.90162373e-001 1.06886983e+000
      4.18717921e-001 7.02095628e-001 4.48355526e-002 3.52042556e-001
      1.55302659e-001 3.81208628e-001 3.87903363e-001 5.35226204e-002
      4.18908536e-001 3.10214758e-001 5.50275408e-002 1.62748128e-001
      2.28479102e-001 2.41925061e-001 4.53359216e-001 2.92628944e-001
      1.68191016e-001 3.93096119e-001 9.67158258e-001 1.73414364e-001
      1.64632630e-002 1.47412255e-001 1.41300976e-001 1.34975538e-001
      1.13891670e-002 6.02587499e-002 3.00313056e-001 3.04371119e-001
      4.27107811e-001 1.37416458e+000 7.45236516e-001 4.40726310e-001
      9.78014410e-001 5.83001792e-001 3.07291567e-001 4.69487756e-001
      4.68362302e-001 1.61757812e-001 9.68518674e-001 1.50299668e+000
      1.58225667e+000 3.30294639e-001 4.30987552e-002 7.80986547e-002
      8.26402232e-002 5.77265210e-002 3.97493169e-002 1.70534742e+000
      4.43516532e-003 1.17988276e+000 2.37361610e-001 1.41410790e-002
      7.22683847e-001 4.17971075e-001 2.02023894e-001 7.20166922e-001
      5.11140704e-001 8.07836056e-001 4.55299109e-001 5.67583501e-001
      1.23976327e-001 1.87202036e-001 7.29090631e-001 9.35627162e-001
      2.11214975e-001 7.90743411e-001 2.02136397e+000 1.03371598e-001
      5.63789066e-003 2.05026656e-001 1.06871223e+000 8.51308465e-001
      1.39163271e-001 7.23559380e-001 1.14817508e-002 3.94657291e-002
      2.01850963e+000 4.78203386e-001 1.68582246e-001 7.84258604e-001
      3.46299917e-001 9.69840646e-001 3.71084899e-001 1.30760789e+000
      7.40213275e-001 1.21660959e-002 3.14488441e-001 2.22173047e+000
      5.20079315e-001 1.08161997e-002 5.23674823e-002 1.78345591e-001
      5.51034957e-002 5.88594735e-001 3.90118621e-002 4.51045364e-001
      1.09599376e+000 4.33408320e-002 8.41382816e-002 1.31732568e-001
      6.08503878e-001 1.44964799e-001 2.48627976e-001 3.56794357e-001
      1.03079665e+000 4.57954139e-001 8.98855984e-001 4.56731379e-001
      4.20901924e-001 8.10752273e-001 1.44822290e-002 3.25933754e-001
      7.54905939e-002 3.78001362e-001 4.87649813e-002 1.38210654e-001
      3.48362774e-002 5.80274463e-001 4.26547736e-001 1.76087230e-001
      2.35837072e-001 1.13754971e-002 2.68868618e-002 5.91444075e-002
      3.41157876e-002 9.88646805e-001 9.15868938e-001 4.72665913e-002
      1.18220327e-002 1.00519145e+000 6.29829943e-001 1.81189597e+000
      1.05327618e+000 4.23727095e-001 1.04749501e+000 1.88839898e-001
      1.26862645e-001 7.44415641e-001 4.39949542e-001 1.18949212e-001
      5.20906895e-002 4.10087295e-002 2.68766195e-001 1.89577594e-001
      1.10262446e-001 1.10586166e-001 9.50421333e-001 1.56193733e+000
      1.99522913e-001 5.20210415e-002 1.46035656e-001 3.54697287e-001
      1.63436055e+000 1.27565336e+000 1.39364338e+000 4.16582115e-002
      5.40531814e-001 4.60800290e-001 8.02855417e-002 2.42083415e-001
      1.29679933e-001 7.83096999e-002 9.26103722e-003 4.59886938e-001
      2.03478053e-001 5.89989722e-001 2.32236478e-002 1.55946374e+000
      5.16990721e-001 1.79235899e+000 2.11579263e-001 5.95146656e-001
      1.16046178e+000 5.17143831e-002 6.21510716e-003 5.32713473e-001
      1.11228615e-001 5.95068812e-001 3.23863804e-001 3.14940251e-002
      1.44251332e-001 8.32253397e-001 2.70690948e-001 9.38279703e-002
      1.13772638e-001 1.20274639e-002 1.44626256e-002 6.11387014e-001
      4.87716496e-002 3.15952823e-002 3.30264032e-001 1.45647988e-001
      1.38187528e+000 7.50224411e-001 2.32312649e-001 3.19213450e-001
      7.72118509e-001 5.38294250e-003 1.78940035e-002 1.03200650e+000
      1.24932218e+000 9.78650928e-001 1.84663162e-002 1.37789562e-001
      4.23842043e-001 1.25712231e-001 1.04709245e-001 1.18485183e-001
      2.67657995e-001 9.77000073e-002 1.25999361e-001 6.12639129e-001
      4.66356725e-001 2.11533499e+000 9.96392965e-002 1.55157391e-002
      1.33149415e-001 2.71720082e-001 7.75194228e-001 4.76654172e-001
      6.16139293e-001 1.68827736e+000 8.15093577e-001 5.88729620e-001
      5.63876987e-001 1.69409680e+000 7.50726461e-002 9.04766992e-002
      9.38239414e-003 1.45327663e-002 1.90658793e-001 1.57999098e-001
      1.14679240e-001 7.89404809e-001 6.36843622e-001 2.77544618e+000
      1.29559338e-002 1.37839735e+000 6.15010321e-001 3.21239829e-001
      6.77236259e-001 2.15924665e-001 7.82062054e-001 8.84157956e-001
      1.19515777e-001 1.40004992e+000 3.11548799e-001 2.76131742e-002
      6.32134318e-001 2.64155548e-002 9.46662605e-001 1.95653796e-001
      2.53107935e-001 1.00159156e+000 8.94768760e-002 5.68423033e-001
      5.81139743e-001 1.14133328e-001 1.46882474e-001 7.43578225e-002
      4.41122334e-003 2.18443274e-001 1.05451453e+000 1.17180184e-001
      1.09397925e-001 6.82204496e-003 4.36028600e-001 5.87518960e-002
      8.57864261e-001 7.33369812e-002 4.81355876e-001 2.88307846e-001
      8.83871555e-001 1.91682875e-001 4.34902031e-003 9.24110562e-002
      7.32425675e-002 2.00291649e-001 2.87960321e-001 5.90022981e-001
      5.39991073e-003 6.42107666e-001 1.78973768e-002 1.15647605e-002
      1.61296591e-001 1.65120915e-001 1.36894572e+000 4.36934568e-002
      2.69147661e-002 1.41251972e-002 1.43127531e-001 1.11569071e+000
      8.34424436e-001 1.02723467e+000 3.42067659e-001 1.37562263e+000
      9.34080720e-001 4.17441189e-001 4.35851127e-001 1.09693535e-001
      1.05100727e+000 1.34837937e+000 1.41385749e-001 2.03966677e-001
      1.20220929e-002 9.73505601e-002 9.70618129e-002 3.51636380e-001
      3.71082366e-001 2.45349392e-001 4.71276313e-001 5.79208255e-001
      1.44468891e-002 8.77766684e-002 4.25799698e-001 4.50496143e-003
      9.25240636e-001 4.28621378e-003 1.74878180e-001 9.57172066e-002
      3.49690944e-001 9.51326847e-001 1.13389879e-001 1.63665321e-002
      6.61524475e-001 1.30164683e-001 1.89265177e-001 2.14036345e+000
      3.11102211e-001 8.09614509e-002 5.02777815e-001 2.04139188e-001
      8.45738292e-001 9.64190125e-001 8.70231688e-001 7.56649435e-001
      4.24348423e-003 3.68585855e-001 1.45489320e-001 7.74754286e-001
      6.92355871e-001 6.91806674e-001 2.98436999e-001 4.40434396e-001
      2.79277176e-001 1.02119792e+000 2.60615677e-001 6.43957080e-003
      2.42872310e+000 6.09846674e-002 5.49357273e-002 2.22081140e-001
      6.51777804e-001 7.44394287e-002 6.54940665e-001 4.60500687e-001
      5.35458446e-001 2.52311051e-001 7.19116628e-001 9.66558754e-002
      3.40172425e-002 7.33761117e-002 4.71217185e-001 1.10683775e+000
      5.16354263e-001 6.56580448e-001 8.60686675e-002 3.83154124e-001
      4.54035737e-002 2.76714349e+000 1.86676145e+000 3.49386871e-001
      1.62530646e-001 1.22704577e+000 1.55928552e-001 8.56446624e-001
      1.00579560e+000 4.02468622e-001 9.96432722e-001 1.11903393e+000</_>
    <_>
      4.42742072e-002 3.28172386e-001 1.16983259e+000 3.53743881e-001
      3.99030522e-002 8.45298350e-001 1.26840264e-001 1.52850047e-001
      1.02188356e-001 1.11633313e+000 5.01577318e-001 3.64585966e-001
      1.95602909e-001 7.29601920e-001 3.31635699e-002 2.15243306e-002
      7.10514665e-001 2.23806128e-001 1.26620877e+000 4.39109862e-001
      6.52784228e-001 3.04912448e-001 1.56435311e-001 5.07188618e-001
      6.90242127e-002 3.73971939e-001 9.37077165e-001 1.64982557e-001
      4.59123790e-001 2.95734227e-001 7.08018169e-002 1.06503427e-001
      1.38362899e-001 2.75606781e-001 2.26891518e-001 3.73564154e-001
      2.25300476e-001 3.97693545e-001 8.00886512e-001 1.62467152e-001
      3.22101861e-002 1.29247785e-001 1.65078506e-001 1.77289203e-001
      1.60076432e-002 2.01770067e-002 2.78403312e-001 3.11499506e-001
      2.51545548e-001 7.41968811e-001 3.50028157e-001 3.23297441e-001
      5.99566400e-001 4.17395800e-001 2.74720341e-001 8.23147297e-001
      4.20944899e-001 2.85664827e-001 8.90950739e-001 6.48833871e-001
      1.48402226e+000 5.05952239e-001 4.18461859e-002 1.20872274e-001
      1.05374053e-001 5.09421945e-001 4.15243804e-002 7.83602834e-001
      6.87917974e-003 3.53763252e-001 2.13212311e-001 1.43217584e-002
      1.07758784e+000 4.42303747e-001 5.42020321e-001 2.59363294e-001
      5.15795827e-001 1.61332560e+000 4.16540861e-001 3.31548870e-001
      1.19971000e-001 1.04594707e-001 1.02315176e+000 7.36037672e-001
      3.30326945e-001 4.45974618e-001 1.96937287e+000 1.43648118e-001
      5.31056570e-003 2.42857441e-001 6.24033630e-001 1.58743656e+000
      9.97346863e-002 9.41888213e-001 1.83386672e-002 6.20039403e-002
      1.39486825e+000 4.69603121e-001 1.01078264e-001 7.37846792e-001
      1.32573575e-001 7.11276650e-001 2.87605524e-001 1.47850358e+000
      2.46885911e-001 1.42102502e-002 3.10223579e-001 6.28859878e-001
      3.13103497e-001 1.25603136e-002 2.02267185e-001 1.10066786e-001
      9.36496034e-002 4.61750686e-001 2.57981062e-001 5.73614240e-001
      3.86128098e-001 6.40806258e-002 2.47029401e-002 1.02536619e-001
      4.28510815e-001 2.12521359e-001 1.61675796e-001 1.84030160e-001
      1.16375089e+000 3.74430358e-001 8.11050296e-001 4.40366566e-001
      9.65767145e-001 9.03564811e-001 9.84722003e-003 4.02750194e-001
      1.04131006e-001 4.98679757e-001 4.13600504e-002 9.17453989e-002
      2.79340036e-002 5.54270744e-001 3.18533987e-001 1.72168896e-001
      3.05415869e-001 1.63959377e-002 4.25966717e-002 1.81623697e-001
      4.43416685e-002 8.87395263e-001 4.33708131e-001 2.49893963e-002
      1.26737300e-002 8.15035343e-001 7.53428280e-001 5.60435832e-001
      4.67495203e-001 3.77989590e-001 2.92549849e-001 1.14495091e-001
      9.70506370e-002 7.46096671e-001 4.73429799e-001 1.60589039e-001
      1.43978268e-001 4.10393514e-002 1.68608472e-001 2.40764633e-001
      1.15246482e-001 1.01921774e-001 8.35020721e-001 4.00320411e-001
      3.71263623e-001 5.51003337e-001 1.27317712e-001 3.37749630e-001
      5.84089339e-001 2.79027641e-001 1.53097081e+000 2.06911296e-001
      6.94499373e-001 4.50016052e-001 1.24421321e-001 1.33144841e-001
      9.20244902e-002 1.18212804e-001 2.07835343e-002 9.07182157e-001
      5.15724301e-001 3.56934249e-001 2.01242510e-002 1.56939960e+000
      2.98419833e-001 5.40758550e-001 1.74399406e-001 1.87667742e-001
      5.87086082e-001 1.99797794e-001 1.36205526e-002 1.54454911e+000
      1.04604743e-001 6.66202188e-001 3.67264748e-001 3.23547684e-002
      8.35206091e-001 2.17057896e+000 2.49281839e-001 1.85185447e-001
      1.53346881e-001 1.33462893e-002 1.48260770e-002 5.25557160e-001
      4.33509573e-002 2.69925650e-002 8.48820448e-001 3.95056129e-001
      1.09827232e+000 6.59474552e-001 2.78063059e-001 5.68359613e-001
      1.53029335e+000 1.68337747e-002 1.66677162e-002 7.18879163e-001
      9.87486005e-001 1.57115889e+000 4.44204547e-002 1.04392797e-001
      3.85637909e-001 9.33634460e-001 1.29772499e-001 1.50405839e-001
      3.02200556e-001 1.32135764e-001 1.13056161e-001 6.16721213e-001
      1.10949266e+000 8.60776186e-001 1.16833843e-001 4.82928520e-003
      1.86012700e-001 2.50450879e-001 4.60493624e-001 3.49291712e-001
      9.47707236e-001 1.59815514e+000 2.57726789e-001 5.19619226e-001
      6.23703063e-001 1.84297323e+000 1.02964863e-001 6.86129704e-002
      1.02725178e-002 1.48325600e-002 4.26984131e-001 8.93268108e-001
      9.14569050e-002 5.49227178e-001 7.31629312e-001 7.46741116e-001
      9.21639893e-003 1.53102863e+000 3.26227784e-001 5.80766022e-001
      7.14732528e-001 1.74852297e-001 9.68047917e-001 5.42623103e-001
      1.58152968e-001 1.12704599e+000 1.83301926e-001 4.72800806e-002
      3.82726997e-001 3.43734659e-002 8.02025199e-001 1.69204950e-001
      9.37894404e-001 3.57015163e-001 1.82052761e-001 6.13326371e-001
      7.41330862e-001 1.42625809e-001 3.57443660e-001 8.60690996e-002
      6.06425479e-003 9.90756035e-001 2.35822544e-001 1.04380600e-001
      1.78390220e-001 1.01845562e-002 3.78938586e-001 5.59639819e-002
      2.89937228e-001 1.51998088e-001 2.91455805e-001 6.83302954e-002
      7.39763856e-001 6.18024357e-002 4.81215445e-003 1.78426191e-001
      8.67278278e-002 1.84927925e-001 6.51116788e-001 8.57754290e-001
      2.07296219e-002 1.21030915e+000 1.27271414e-002 1.54426461e-002
      3.24004054e-001 2.27866337e-001 5.06495297e-001 4.34333310e-002
      2.89934929e-002 1.07999779e-002 1.55631587e-001 5.38265347e-001
      9.04144764e-001 3.02844822e-001 5.67890465e-001 2.97685206e-001
      6.66158259e-001 2.55514383e-001 8.20800841e-001 1.20522454e-001
      8.74976397e-001 1.11635280e+000 1.27543837e-001 1.98963076e-001
      1.52898021e-002 1.27211854e-001 8.62137079e-002 9.75644529e-001
      4.08758342e-001 4.01357740e-001 2.29160041e-001 8.65862489e-001
      5.31124957e-002 2.08500668e-001 2.48868138e-001 6.04053773e-003
      6.22401536e-001 4.26903786e-003 6.91593364e-002 7.13335499e-002
      4.65845913e-001 1.04631221e+000 2.44677261e-001 3.47182378e-002
      5.34034252e-001 2.63178885e-001 3.13158661e-001 5.35777271e-001
      4.14552212e-001 1.19636096e-001 6.11149430e-001 1.97426707e-001
      1.69261885e+000 7.74282992e-001 1.42015338e+000 7.20050573e-001
      3.84774478e-003 8.86134446e-001 1.28679037e-001 2.08276558e+000
      2.63005823e-001 7.12008238e-001 4.86342669e-001 2.73734063e-001
      3.32789719e-001 2.14558601e+000 1.36981741e-001 1.46591254e-002
      5.69720089e-001 1.43780679e-001 1.40803933e-001 4.93595600e-001
      3.28283072e-001 1.64566770e-001 5.85122764e-001 3.43965590e-001
      8.11457813e-001 1.51614711e-001 8.60830605e-001 9.28681269e-002
      4.43142988e-002 1.12097226e-001 3.31909716e-001 8.16919029e-001
      3.70331436e-001 4.37690496e-001 1.49468407e-001 5.17143428e-001
      6.66164681e-002 1.35616171e+000 1.51131177e+000 1.75853574e+000
      1.13939524e-001 1.15479255e+000 1.01016179e-001 6.43451512e-001
      2.72102565e-001 1.00634646e+000 1.94189942e+000 1.63268137e+000</_>
    <_>
      6.37139603e-002 2.32033566e-001 1.67731059e+000 2.46295959e-001
      6.01177588e-002 1.17244494e+000 1.04552276e-001 1.72929019e-001
      1.64170727e-001 9.33421493e-001 5.78127280e-002 1.76469237e-001
      5.04418671e-001 3.73328298e-001 6.32013902e-002 1.86232757e-002
      7.75277376e-001 2.69792497e-001 1.44600165e+000 6.31143212e-001
      3.98388624e-001 4.86508310e-001 1.12031758e-001 5.80829263e-001
      4.96615082e-001 5.87938249e-001 6.40414000e-001 3.15656252e-002
      2.04486623e-001 7.58343995e-001 4.66233082e-002 1.31742269e-001
      1.80428088e-001 2.57200778e-001 4.26695347e-001 3.02768469e-001
      2.42233843e-001 3.02533835e-001 7.27494955e-001 5.82121074e-001
      1.85266994e-002 8.08769584e-001 2.04205975e-001 5.55022776e-001
      1.54697597e-002 2.79084146e-002 3.88941526e-001 1.75282538e-001
      6.25136197e-001 1.38507783e+000 3.71631980e-001 6.77328110e-001
      6.97786331e-001 5.76931417e-001 2.94509441e-001 4.54881817e-001
      5.00874281e-001 1.25209227e-001 4.65934813e-001 7.14278936e-001
      2.34716988e+000 9.33947980e-001 6.52185231e-002 1.01208709e-001
      9.97083262e-002 1.64879367e-001 6.97458833e-002 1.69662356e+000
      6.24150271e-003 5.22796392e-001 1.31839305e-001 1.91311669e-002
      6.42633855e-001 3.70015740e-001 7.13022649e-001 4.68439311e-001
      5.52340627e-001 3.64933342e-001 5.51870286e-001 7.75184453e-001
      5.08264840e-001 3.83274168e-001 4.87211198e-001 6.99426174e-001
      4.80698764e-001 5.15228808e-001 1.07169485e+000 1.73481643e-001
      6.03182428e-003 4.18601334e-001 1.04307008e+000 5.51317334e-001
      1.41905874e-001 8.87639701e-001 1.06649939e-002 4.95510325e-002
      1.28409564e+000 5.43112874e-001 2.50802964e-001 8.26175272e-001
      6.47857904e-001 1.39317214e+000 3.21247309e-001 1.30659437e+000
      2.07860157e-001 1.83795970e-002 1.47205436e+000 4.22084749e-001
      3.25667709e-001 1.09153865e-002 5.11806421e-002 4.65668231e-001
      1.16410449e-001 3.35557163e-001 5.45873716e-002 9.61911142e-001
      4.41223443e-001 4.84080054e-002 1.04964487e-001 1.13503024e-001
      5.30276120e-001 2.38784626e-001 9.63715136e-001 2.91838229e-001
      1.68488741e+000 9.07009840e-001 1.04320383e+000 1.67867279e+000
      7.63772011e-001 7.86313534e-001 1.26435198e-002 2.71902144e-001
      8.57767090e-002 4.13468242e-001 4.18640189e-002 7.53362626e-002
      3.08171995e-002 2.69920498e-001 4.28416640e-001 3.63129169e-001
      4.79099900e-001 1.56602245e-002 5.68756387e-002 1.94219556e-002
      3.70405465e-002 6.04469299e-001 7.18211353e-001 4.24102508e-002
      1.08852815e-002 2.40268379e-001 1.67529058e+000 5.28271317e-001
      6.85017765e-001 3.68770093e-001 6.60013318e-001 1.52154073e-001
      6.94475025e-002 1.06484056e+000 4.02419865e-001 1.69505939e-001
      4.12156954e-002 3.57301012e-002 1.17805219e+000 7.19640315e-001
      1.89453065e-001 1.38611302e-001 6.37219131e-001 5.54192722e-001
      8.83647263e-001 1.77324221e-001 1.07759826e-001 3.06537420e-001
      1.22070765e+000 7.34235644e-001 1.24441266e+000 6.48715049e-002
      6.06084406e-001 3.64071906e-001 1.11514524e-001 5.65689027e-001
      6.29511297e-001 1.33224830e-001 5.65838022e-003 5.33822119e-001
      3.31621200e-001 2.44277045e-001 1.96488053e-002 8.79535377e-001
      1.02855420e+000 4.22947228e-001 4.37590241e-001 4.10929561e-001
      8.15080166e-001 5.64648844e-002 4.27362137e-003 8.73104692e-001
      1.31792411e-001 1.51649451e+000 4.30525571e-001 3.89111377e-002
      2.99621284e-001 1.12478030e+000 2.71997273e-001 1.25087783e-001
      1.88498124e-001 1.08480863e-002 2.32797787e-002 1.11510468e+000
      3.60080265e-002 3.59010100e-002 2.28406712e-001 2.70465642e-001
      1.49853289e+000 2.54501492e-001 5.22781730e-001 3.34552795e-001
      1.26037657e+000 4.51229280e-003 1.86204333e-002 4.09860015e-001
      1.06648326e+000 7.71231472e-001 2.04344802e-002 2.32635468e-001
      1.07249582e+000 6.35368586e-001 1.87296391e-001 9.17152017e-002
      5.03130138e-001 9.53163803e-002 1.12757862e-001 5.43706894e-001
      1.21579194e+000 3.94697636e-001 1.37894541e-001 1.52421501e-002
      1.54296502e-001 9.80672121e-001 6.98927104e-001 1.14431727e+000
      4.56597507e-001 1.65342736e+000 2.87026286e-001 6.18290365e-001
      1.62423551e+000 1.02422905e+000 1.09560683e-001 1.71503201e-001
      9.54856165e-003 2.30330043e-002 3.37665230e-001 4.53303218e-001
      1.18855827e-001 1.04592288e+000 5.67514181e-001 4.01508510e-001
      1.22881066e-002 1.45637369e+000 2.41360053e-001 2.35003173e-001
      1.01147246e+000 1.68101966e-001 1.20184946e+000 1.18739796e+000
      9.08627063e-002 1.58488333e+000 3.04588735e-001 6.44989014e-002
      8.85096669e-001 4.30075116e-002 8.72041345e-001 2.93589622e-001
      4.89537776e-001 2.88835317e-001 1.48787767e-001 7.13429749e-001
      8.88587177e-001 2.15675011e-001 4.99862507e-002 1.79622993e-001
      4.99928650e-003 7.48985529e-001 5.71753740e-001 1.73118725e-001
      1.67437375e-001 7.26754032e-003 2.98408717e-001 6.92747608e-002
      5.82821429e-001 2.84758091e-001 1.98869020e-001 1.14393115e-001
      9.32261705e-001 8.15602466e-002 6.84423372e-003 1.61559731e-001
      3.19729626e-001 2.48790845e-001 3.93879741e-001 6.27263606e-001
      1.08371815e-002 9.23949599e-001 1.79680455e-002 1.57618932e-002
      1.70671284e-001 1.82721287e-001 1.21636713e+000 5.20491190e-002
      3.98804657e-002 1.39316907e-002 1.63531631e-001 2.97193199e-001
      1.15638995e+000 5.32817841e-001 7.59579301e-001 6.90610409e-001
      8.35369527e-001 3.05771768e-001 6.70844793e-001 7.27155954e-002
      5.88377833e-001 5.16635180e-001 5.91215909e-001 1.41158864e-001
      1.69644859e-002 9.30443704e-002 2.33796254e-001 1.44039488e+000
      4.01329249e-001 2.94988781e-001 3.16794872e-001 3.47777009e-001
      2.56762225e-002 2.17549860e-001 3.73412132e-001 4.91096964e-003
      1.02250683e+000 3.24204634e-003 8.15353543e-002 1.02209479e-001
      9.39056635e-001 1.72546971e+000 1.39919847e-001 1.96734741e-002
      1.31775212e+000 2.12985322e-001 1.89756483e-001 8.71688783e-001
      2.45565772e-001 1.12170726e-001 1.82595098e+000 4.40755039e-001
      1.44818985e+000 2.41486287e+000 2.37768435e+000 8.92980456e-001
      3.21633252e-003 5.33621550e-001 1.46768212e-001 5.55611849e-001
      1.43859088e-001 6.56997025e-001 4.56798315e-001 2.14594141e-001
      4.98338521e-001 1.50239217e+000 4.16161418e-001 4.19536466e-003
      8.07605088e-001 1.23285033e-001 2.61121213e-001 2.64260590e-001
      3.73395383e-001 9.23672616e-002 4.76803541e-001 4.31772918e-001
      9.55717921e-001 1.11782169e+000 8.56593013e-001 1.73815370e-001
      3.69947255e-002 1.01726085e-001 3.61065418e-001 2.22244430e+000
      5.45958817e-001 3.21110636e-001 1.08734809e-001 4.79707181e-001
      5.21402657e-002 9.71666455e-001 9.99941051e-001 1.17749047e+000
      9.83178392e-002 5.77316999e-001 4.25477266e-001 7.14731932e-001
      4.96519655e-001 7.95128167e-001 1.33948517e+000 8.42480779e-001</_>
    <_>
      5.11388890e-002 3.64489466e-001 2.49191618e+000 3.76964927e-001
      6.78791106e-002 1.51005602e+000 1.01857811e-001 5.76749325e-001
      1.01125315e-001 9.02967870e-001 6.08448148e-001 4.97457415e-001
      4.70464647e-001 1.02749193e+000 1.92289669e-002 5.69245499e-003
      6.47363603e-001 1.97405159e-001 1.85578716e+000 1.70377031e-001
      1.50237083e+000 4.21550751e-001 1.31118357e-001 4.03026879e-001
      8.28233287e-002 1.38088334e+000 2.13857198e+000 5.89458309e-002
      4.07685161e-001 2.73700953e-001 5.89872263e-002 1.66514486e-001
      1.01941310e-001 3.21263105e-001 2.85904527e-001 9.57785189e-001
      2.19692856e-001 4.21690553e-001 1.19474030e+000 1.98773161e-001
      6.03237525e-002 1.30204201e-001 2.63033390e-001 2.28691980e-001
      1.77630037e-002 7.22625330e-002 1.68076321e-001 2.84282058e-001
      6.82025552e-001 4.27995831e-001 4.07349050e-001 2.43748680e-001
      6.86013818e-001 6.18177414e-001 3.18953246e-001 6.73596919e-001
      8.21469128e-001 1.26772270e-001 1.16687250e+000 7.32373655e-001
      2.23985386e+000 3.27771842e-001 3.61414887e-002 1.16137400e-001
      2.03286141e-001 2.42893666e-001 3.43977474e-002 2.01957083e+000
      4.80183167e-003 8.92438829e-001 2.69158185e-001 1.80413257e-002
      7.02185154e-001 7.23001540e-001 4.66802001e-001 4.94923204e-001
      4.99432176e-001 3.94042075e-001 6.12867594e-001 5.89439332e-001
      4.14656967e-001 1.97558865e-001 4.45717901e-001 5.96632123e-001
      3.17695498e-001 2.23562211e-001 2.36234713e+000 7.47680217e-002
      5.62222255e-003 1.57019138e-001 8.59238982e-001 9.82891381e-001
      1.16603523e-001 1.08687508e+000 1.25424499e-002 2.13332865e-002
      1.40469813e+000 6.37349725e-001 4.31019366e-001 4.26994354e-001
      1.47819147e-001 4.11850333e-001 5.10819793e-001 1.89592469e+000
      1.45497248e-001 1.41172726e-002 3.01609516e-001 1.18903887e+000
      7.69211173e-001 1.23700323e-002 3.24443370e-001 2.10918531e-001
      9.49818045e-002 3.33869070e-001 1.66855514e-001 5.24686098e-001
      9.68443215e-001 5.61613142e-002 2.35499423e-002 1.84672788e-001
      2.00256735e-001 3.05964142e-001 1.57132179e-001 1.76696301e-001
      4.71848518e-001 7.27322340e-001 6.24453187e-001 2.12065792e+000
      7.93159127e-001 1.01355910e+000 1.08153578e-002 7.45554030e-001
      1.31704837e-001 6.05536640e-001 5.71988858e-002 1.82850391e-001
      2.87229102e-002 4.28102911e-001 3.25840145e-001 2.39141077e-001
      2.76720196e-001 1.78105943e-002 5.36165796e-002 2.57356018e-001
      3.64604741e-002 8.33520532e-001 1.10705161e+000 2.63938867e-002
      1.33698657e-002 2.24430740e-001 4.57348377e-001 8.23999643e-001
      1.12390423e+000 2.14570731e-001 6.37508750e-001 1.24889828e-001
      1.02267712e-001 5.16476810e-001 7.05107033e-001 2.17501879e-001
      6.35763630e-002 3.52685452e-002 1.87434196e-001 1.69017494e-001
      1.03651062e-001 1.31778911e-001 3.05636108e-001 6.51728511e-001
      2.56270170e-001 2.40729585e-001 2.14475408e-001 3.79473329e-001
      7.02809632e-001 3.81065220e-001 1.07531238e+000 2.20838606e-001
      1.27273905e+000 4.74892199e-001 1.12677604e-001 1.03170060e-001
      5.04293084e-001 1.62229910e-001 4.97680344e-003 6.53152406e-001
      4.35695916e-001 8.12592089e-001 3.54915038e-002 1.40551436e+000
      5.24751902e-001 8.73327911e-001 2.32592225e-001 1.75699040e-001
      5.60102284e-001 3.17620665e-001 2.92060599e-002 1.41316974e+000
      1.43328130e-001 4.63864982e-001 1.64466649e-001 3.90994363e-002
      6.17543876e-001 1.29150271e+000 3.84909242e-001 9.51888263e-002
      6.81788400e-002 1.37440730e-002 1.52265616e-002 2.25015968e-001
      3.63612510e-002 3.51536833e-002 8.47532749e-001 2.65606016e-001
      6.29785061e-001 4.66339678e-001 7.77076706e-002 5.24737775e-001
      1.42290163e+000 2.50205547e-002 1.86656583e-002 3.20811182e-001
      1.06190145e+000 7.22217619e-001 7.22848400e-002 9.38021764e-002
      6.60573781e-001 5.74886382e-001 9.97191668e-002 2.09972218e-001
      3.59274119e-001 1.13952294e-001 1.78929254e-001 9.96211886e-001
      7.37102866e-001 1.26660383e+000 8.33050609e-002 2.29727682e-002
      2.39786744e-001 1.78883791e-001 1.83745348e+000 1.77754492e-001
      8.74934912e-001 1.86738837e+000 1.87656716e-001 7.27920175e-001
      4.05917078e-001 1.00406373e+000 5.15967607e-002 4.95767109e-002
      1.21098692e-002 1.53639456e-002 3.91286224e-001 4.61054891e-001
      1.43279374e-001 4.71743524e-001 7.60176420e-001 1.12580693e+000
      1.00261038e-002 1.60439551e+000 4.64787185e-001 6.59772933e-001
      1.21265626e+000 2.50357628e-001 2.01518014e-001 6.67441130e-001
      1.96826115e-001 1.55597603e+000 2.13925034e-001 6.22855574e-002
      1.95059150e-001 4.57166769e-002 8.07195067e-001 3.27266276e-001
      6.67415202e-001 1.34356588e-001 2.29335845e-001 2.58383065e-001
      3.35534364e-001 7.05692917e-002 4.81790036e-001 7.73577318e-002
      3.42805730e-003 2.31368542e+000 3.34878892e-001 1.11329913e-001
      1.08007170e-001 2.03000735e-002 4.85758901e-001 7.08628818e-002
      3.81832868e-001 5.22433341e-001 2.16522679e-001 4.00487155e-001
      9.93858635e-001 2.25002170e-001 5.79280406e-003 1.13118760e-001
      6.79512322e-002 2.47455046e-001 7.32115328e-001 9.77060437e-001
      1.53045235e-002 5.47073305e-001 1.68680269e-002 1.81400217e-002
      2.32782915e-001 2.80636042e-001 1.58716750e+000 4.05924842e-002
      3.74545604e-002 1.30468933e-002 7.19381794e-002 6.24890566e-001
      7.35143602e-001 3.66766930e-001 2.88708955e-001 8.87611747e-001
      4.20182496e-001 3.11709493e-001 4.37166810e-001 2.10527986e-001
      1.00608039e+000 1.06107998e+000 9.72846597e-002 3.19471270e-001
      1.90277640e-002 1.05106868e-001 5.73466830e-002 1.99872816e+000
      3.02474082e-001 3.74073207e-001 3.20586264e-001 1.74671412e+000
      3.06833107e-002 1.92490071e-001 3.37411791e-001 3.57757322e-003
      6.38431489e-001 4.74774465e-003 2.21018896e-001 1.37112483e-001
      3.00957203e-001 3.37934285e-001 1.74805298e-001 6.10918328e-002
      3.24834734e-001 2.31182918e-001 2.74773717e-001 7.65366912e-001
      3.84117246e-001 1.16715863e-001 7.08014846e-001 2.33468398e-001
      1.74806440e+000 3.29646021e-001 4.79038000e-001 2.14885876e-001
      5.63545059e-003 4.37592745e-001 1.15827352e-001 4.42686617e-001
      1.99328452e-001 2.70184129e-001 3.78853053e-001 3.00580978e-001
      2.23224565e-001 8.01077366e-001 1.83829069e-001 2.52670906e-002
      1.04625320e+000 1.73662663e-001 4.10808504e-001 5.79910755e-001
      4.93679672e-001 1.34696350e-001 9.63193297e-001 3.64005655e-001
      8.21679533e-001 1.57985970e-001 2.32988700e-001 1.49554566e-001
      3.68963927e-002 7.24284947e-002 4.79580224e-001 3.24652553e+000
      4.36372399e-001 8.27574909e-001 7.99140856e-002 9.39704716e-001
      4.58668210e-002 1.47585368e+000 1.30646718e+000 9.31493759e-001
      2.42733151e-001 3.22112441e-001 1.58971786e-001 9.33084786e-001
      4.44090009e-001 5.04914343e-001 7.04053581e-001 1.29290998e+000</_>
    <_>
      6.13019243e-002 4.99585092e-001 1.78426635e+000 3.62665355e-001
      5.66803142e-002 1.21394980e+000 6.79841414e-002 2.25442767e-001
      1.32479325e-001 5.75576663e-001 2.46149331e-001 3.90293747e-001
      7.35202432e-001 8.11170220e-001 9.58264247e-002 1.10711008e-002
      5.70399344e-001 1.61760494e-001 1.21834493e+000 2.77307034e-001
      9.15953398e-001 6.82127595e-001 1.59610480e-001 1.07887530e+000
      2.04157665e-001 7.32140064e-001 8.66607785e-001 5.45667224e-002
      3.16676736e-001 7.96126902e-001 5.41733205e-002 1.25938132e-001
      1.62573397e-001 2.02774659e-001 2.40672767e-001 5.36775887e-001
      2.34430909e-001 3.17319602e-001 4.65596706e-001 2.73061544e-001
      2.12619510e-002 1.79270834e-001 5.19618273e-001 5.74351728e-001
      2.20663641e-002 3.38824987e-002 4.82313126e-001 2.31078506e-001
      5.97120702e-001 5.91012061e-001 4.53962028e-001 3.76242936e-001
      4.02625293e-001 3.49862546e-001 2.44471043e-001 7.50819564e-001
      1.05992806e+000 2.11055040e-001 1.25968933e+000 6.27313316e-001
      2.24945307e+000 5.00834584e-001 3.83935496e-002 1.46495864e-001
      1.04473233e-001 1.84778363e-001 2.66350284e-002 1.27925396e+000
      4.49429080e-003 4.69533712e-001 4.49392587e-001 2.64985804e-002
      8.01306665e-001 7.76838779e-001 1.07897711e+000 6.26352966e-001
      1.89936370e-001 8.41848910e-001 8.87524366e-001 2.46301651e-001
      1.55645669e-001 1.05623133e-001 5.77948928e-001 6.28102124e-001
      1.38212308e-001 2.01855406e-001 1.67209470e+000 1.63227141e-001
      6.20027166e-003 4.92510915e-001 1.23336720e+000 9.14702117e-001
      9.34178308e-002 1.01061034e+000 1.68080907e-002 3.16591598e-002
      1.40152407e+000 1.05531776e+000 2.43366182e-001 5.25397837e-001
      2.42727071e-001 5.30933559e-001 2.50471771e-001 1.24970734e+000
      1.51308194e-001 1.44473780e-002 1.87774122e-001 9.08415616e-001
      8.66716564e-001 1.28648477e-002 1.00088723e-001 1.00242846e-001
      9.25425738e-002 3.09353381e-001 1.17403880e-001 1.13308609e+000
      5.77232897e-001 5.97521439e-002 5.74808158e-002 1.27101034e-001
      1.05059445e+000 2.49792248e-001 1.31345227e-001 4.75611091e-001
      3.19209719e+000 3.31920624e-001 1.69731796e+000 5.15996277e-001
      7.21653700e-001 9.59190428e-001 1.36331320e-002 5.66597223e-001
      1.16577782e-001 5.35212696e-001 5.42023145e-002 1.09551623e-001
      4.34823781e-002 3.85289997e-001 3.23764294e-001 2.00307891e-001
      4.59861606e-001 2.19169725e-002 5.86914308e-002 7.24401027e-002
      5.66600598e-002 9.40144956e-001 7.77840137e-001 3.40445265e-002
      1.28440894e-002 4.34185714e-001 1.11943245e+000 5.98334551e-001
      7.26131260e-001 2.11569592e-001 4.59884942e-001 6.63156360e-002
      1.38349608e-001 1.11367071e+000 6.35642111e-001 1.61447749e-001
      6.40190095e-002 3.57235111e-002 1.31193995e-001 1.56781673e-001
      1.29283458e-001 8.47959891e-002 1.54710436e+000 5.65996706e-001
      1.70315534e-001 1.86383113e-001 1.21946201e-001 3.78804922e-001
      7.64901638e-001 4.94423509e-001 6.91571951e-001 1.00025371e-001
      1.51803577e+000 4.17302996e-001 1.52043983e-001 8.92315581e-002
      7.06928149e-002 1.03242598e-001 1.45340655e-002 5.11362672e-001
      3.21859688e-001 7.42724895e-001 1.71129629e-002 7.29705513e-001
      2.76815444e-001 9.37364340e-001 2.25248039e-001 4.27385807e-001
      4.66182053e-001 1.10340275e-001 6.79252716e-003 1.71033549e+000
      1.03925250e-001 4.71219033e-001 3.38342339e-001 4.21330035e-002
      5.71570218e-001 1.27218699e+000 3.10344070e-001 8.35149735e-002
      1.67193606e-001 1.35436077e-002 2.45661177e-002 5.33466458e-001
      4.68303263e-002 2.97363661e-002 3.87498379e-001 2.81582177e-001
      1.25225723e+000 6.15717530e-001 4.39451069e-001 3.82669091e-001
      1.16836405e+000 8.45037866e-003 1.56679973e-002 4.63304639e-001
      6.48925424e-001 6.03809655e-001 2.11003441e-002 1.81033060e-001
      3.98508370e-001 6.35198474e-001 1.03896230e-001 1.12717934e-001
      2.39853650e-001 1.45539895e-001 1.60329074e-001 1.02016950e+000
      1.50230050e+000 1.10156369e+000 8.49663019e-002 7.32141454e-003
      1.62905306e-001 2.28217840e-001 7.12271273e-001 2.02213839e-001
      6.65956199e-001 1.76072311e+000 3.73621076e-001 1.35559869e+000
      1.08648002e+000 1.95218635e+000 9.79041085e-002 1.51690260e-001
      1.23968292e-002 2.56422907e-002 4.09673333e-001 3.99697483e-001
      1.75540105e-001 1.35282731e+000 6.54916584e-001 1.15111816e+000
      1.20585999e-002 1.76021326e+000 4.36330169e-001 7.52689898e-001
      6.82004988e-001 2.30504438e-001 4.19743806e-001 1.12164140e+000
      1.42576575e-001 9.75836754e-001 1.64954945e-001 7.50153959e-002
      9.31891561e-001 3.38481963e-002 6.47453368e-001 1.96656480e-001
      1.50175142e+000 2.17600197e-001 1.39149144e-001 4.88231450e-001
      5.10124385e-001 1.50168717e-001 2.03881159e-001 8.82295147e-002
      3.88855557e-003 1.04527318e+000 5.20258129e-001 9.36018452e-002
      1.18774742e-001 5.92740485e-003 4.70788509e-001 7.93222040e-002
      4.53147501e-001 2.73301482e-001 2.43170679e-001 1.60629570e-001
      8.19796145e-001 8.82433951e-002 3.50487558e-003 8.81588235e-002
      9.95785296e-002 2.17571437e-001 4.22505826e-001 9.73197103e-001
      9.02050827e-003 1.05076408e+000 2.16800869e-002 2.27557644e-002
      4.08490241e-001 1.67932197e-001 7.12423146e-001 3.35177667e-002
      3.57648246e-002 1.27816563e-002 1.62781224e-001 8.16376507e-001
      8.00807953e-001 5.05314171e-001 1.01466060e+000 4.85389322e-001
      5.06811261e-001 3.14636379e-001 4.73283440e-001 1.09260917e-001
      5.77651858e-001 4.43070143e-001 9.82357338e-002 4.08531696e-001
      2.44058017e-002 1.37105882e-001 7.54033923e-002 1.08779001e+000
      3.37218910e-001 3.30953658e-001 2.58899242e-001 1.37631989e+000
      2.87149437e-002 2.83101290e-001 2.73352295e-001 3.92668322e-003
      7.95835137e-001 4.20169020e-003 8.91747475e-002 8.82086009e-002
      4.46908206e-001 1.47451770e+000 1.92572907e-001 2.21274924e-002
      4.51878935e-001 5.67721426e-001 2.44673833e-001 4.93782729e-001
      2.13346690e-001 1.45122305e-001 2.37435746e+000 9.57226977e-002
      1.17447782e+000 3.13112545e+000 9.70838606e-001 5.51298440e-001
      5.01945335e-003 7.59503007e-001 1.03778780e-001 9.66977775e-001
      1.48786366e-001 2.58162081e-001 2.89929390e-001 2.70048797e-001
      4.41085309e-001 1.63084590e+000 4.66464132e-001 5.40793454e-003
      7.16321111e-001 1.53388023e-001 8.47251937e-002 8.55482221e-001
      6.13613844e-001 2.28514403e-001 1.04420447e+000 9.27575052e-001
      5.99945009e-001 1.02818109e-001 3.62264782e-001 1.58594951e-001
      5.82897104e-002 1.11180931e-001 3.43262523e-001 1.62791646e+000
      3.83431524e-001 8.29949975e-001 9.49778557e-002 5.91596723e-001
      6.87231347e-002 1.40005553e+000 8.32118809e-001 1.43695545e+000
      1.73454612e-001 5.96648633e-001 2.30967060e-001 3.78846079e-001
      4.11235899e-001 7.79053867e-001 1.22939253e+000 2.01075721e+000</_>
    <_>
      4.25028168e-002 2.33417511e-001 1.43705511e+000 2.79390544e-001
      3.97540890e-002 1.97633967e-001 1.51286840e-001 7.67127275e-002
      1.55480593e-001 5.02017856e-001 1.82125390e-001 2.76149839e-001
      3.77918273e-001 8.61096084e-001 2.95969155e-002 5.94873168e-003
      7.85920858e-001 2.57656515e-001 3.59898448e-001 8.35254729e-001
      5.76468050e-001 3.09833944e-001 7.99560770e-002 4.44175661e-001
      1.34530976e-001 5.95882893e-001 6.92510486e-001 4.20437679e-002
      3.48916888e-001 9.23832580e-002 4.19756286e-002 1.32002354e-001
      1.88101754e-001 6.11655116e-002 6.54931784e-001 5.02684951e-001
      7.65087008e-002 2.26364568e-001 1.07418489e+000 3.50643456e-001
      2.12844256e-002 2.19280913e-001 1.07053071e-001 1.53184116e-001
      9.94336046e-003 1.97927821e-002 2.39546686e-001 2.12371945e-001
      5.90215206e-001 1.01786351e+000 9.16600108e-001 2.91443199e-001
      7.89088726e-001 7.81152904e-001 5.70644677e-001 1.69374809e-001
      3.74463141e-001 8.53720978e-002 7.17354894e-001 4.46313888e-001
      1.44086838e+000 5.27506292e-001 4.00467068e-002 3.15875150e-002
      1.42332509e-001 1.18740723e-001 3.44041921e-002 7.72602081e-001
      4.38615354e-003 4.45025384e-001 6.77920729e-002 1.41126849e-002
      9.99070585e-001 3.53309393e-001 3.96868229e-001 6.18546903e-001
      1.02507234e+000 2.42255121e-001 1.87154830e-001 1.28173447e+000
      1.36955336e-001 1.13024771e-001 1.51850566e-001 1.35167170e+000
      5.83035469e-001 7.44993746e-001 9.82300222e-001 1.12666354e-001
      7.86304474e-003 2.13578731e-001 1.73582479e-001 1.93478599e-001
      1.03366397e-001 1.07311797e+000 1.80037748e-002 1.70898698e-002
      1.04589713e+000 2.47298673e-001 1.70100838e-001 3.42107624e-001
      2.14380026e-001 7.47004986e-001 4.73879009e-001 2.03773081e-001
      4.10813957e-001 2.06411574e-002 8.07743430e-001 1.05643356e+000
      2.43894383e-001 1.76148228e-002 6.21157698e-002 9.95122716e-002
      1.44118547e-001 7.83732355e-001 3.51976454e-002 7.59631395e-001
      5.58811367e-001 4.14346121e-002 1.63522027e-002 1.80827945e-001
      3.64974141e-001 9.56330821e-002 3.32683325e-001 2.20870361e-001
      5.35216928e-001 1.01545043e-001 4.72047359e-001 7.59946346e-001
      1.02310017e-001 8.22029710e-001 6.51083281e-003 1.99521184e-001
      1.03266284e-001 4.05019999e-001 2.54741777e-002 9.53517035e-002
      1.11594303e-002 3.54019642e-001 5.21235943e-001 4.25224304e-001
      2.76249528e-001 1.01049161e-002 3.44990715e-002 5.21876737e-002
      1.08767617e-002 5.06603003e-001 9.93481055e-002 2.85857171e-002
      2.27638688e-002 9.16877329e-001 5.74129999e-001 1.03653538e+000
      9.90088880e-001 2.87411183e-001 3.93077791e-001 8.32143798e-002
      1.26851648e-001 7.45338202e-001 5.88791251e-001 1.13232948e-001
      4.23505269e-002 5.53338677e-002 3.72063190e-001 2.68885642e-001
      1.35213539e-001 1.50207639e-001 3.21197480e-001 9.69231963e-001
      1.15697838e-001 9.78644714e-002 1.14490338e-001 3.60141248e-001
      1.40873837e+000 3.50462675e-001 1.16108191e+000 3.80495600e-002
      1.49801478e-001 4.84163642e-001 3.79640982e-002 1.89522654e-001
      1.22828446e-001 8.24640915e-002 8.18674453e-003 3.79787415e-001
      1.73760206e-001 6.04920506e-001 1.76178981e-002 9.29727376e-001
      1.09298974e-001 6.86044693e-001 4.13532734e-001 2.54601955e-001
      1.21133649e+000 5.84607720e-002 5.79620712e-003 4.95973170e-001
      7.18161538e-002 2.75786787e-001 5.36414266e-001 2.63706408e-002
      2.15317383e-001 6.93046868e-001 3.36402059e-001 1.05449915e-001
      1.38719976e-001 1.14791421e-002 2.30763629e-002 9.33298916e-002
      2.99587138e-002 3.45396213e-002 3.41781378e-001 3.74053627e-001
      7.43239105e-001 3.61619562e-001 2.07304642e-001 2.87086844e-001
      4.54989403e-001 8.69131181e-003 1.61501598e-002 8.70520651e-001
      5.42923450e-001 2.80418187e-001 1.90564469e-002 1.14509866e-001
      9.42784250e-002 2.16184884e-001 1.62711605e-001 1.11172304e-001
      2.89430201e-001 3.04489881e-002 8.86765122e-002 3.73020202e-001
      3.93175811e-001 1.19694233e+000 1.13707937e-001 6.34722551e-003
      1.01966403e-001 5.19504964e-001 7.51728594e-001 5.92177272e-001
      1.81914553e-001 1.65721989e+000 6.00718141e-001 8.68183911e-001
      4.55978811e-001 1.02726781e+000 1.77768782e-001 1.17384404e-001
      7.46566663e-003 2.29032915e-002 5.02383232e-001 1.82067662e-001
      8.67423192e-002 8.02032828e-001 2.11174309e-001 1.48289287e+000
      7.04170577e-003 1.20900059e+000 3.91919374e-001 7.17655793e-002
      3.35200906e-001 1.88096434e-001 1.20325887e+000 9.11189198e-001
      8.42612833e-002 1.15513372e+000 2.04253361e-001 2.93943696e-002
      3.10466379e-001 4.21514772e-002 9.97313797e-001 3.05219620e-001
      7.74308503e-001 5.15399516e-001 1.02097914e-001 2.08507776e-001
      3.57078522e-001 1.25166267e-001 1.42812550e-001 1.75486118e-001
      3.85901867e-003 3.20833027e-001 5.99778652e-001 8.46934915e-002
      1.51261985e-001 5.80576668e-003 4.20841336e-001 3.76412086e-002
      5.06986797e-001 4.73789163e-002 3.43300879e-001 6.67692721e-002
      2.06773102e-001 4.30231132e-002 7.50391372e-003 1.58876926e-001
      1.49482191e-001 1.29337609e-001 4.17949259e-001 1.09116465e-001
      1.17529295e-002 8.82690072e-001 1.16813993e-002 9.78075154e-003
      2.76557691e-002 1.02398232e-001 1.24073648e+000 4.83092740e-002
      2.42626481e-002 1.31123783e-002 1.28639579e-001 4.71776187e-001
      2.83983231e-001 5.61352372e-001 2.94216216e-001 3.99990112e-001
      2.94067144e-001 3.04746419e-001 3.53777349e-001 1.09448932e-001
      3.31856370e-001 7.77173758e-001 2.08862826e-001 1.89010531e-001
      9.90831014e-003 3.30114588e-002 1.76511124e-001 2.35650823e-001
      2.42221370e-001 1.05681278e-001 4.40737098e-001 5.32478154e-001
      2.55631357e-002 3.76789309e-002 3.85154665e-001 3.89839429e-003
      1.10297811e+000 4.32384759e-003 3.70775983e-002 9.43772048e-002
      6.50202036e-001 5.00323772e-001 8.49709436e-002 2.15074979e-002
      9.59663510e-001 2.49927893e-001 2.32723743e-001 1.24272001e+000
      1.62704349e-001 3.92762572e-002 5.88874757e-001 5.89131236e-001
      4.34471250e-001 4.00298417e-001 8.67398903e-002 1.08607697e+000
      4.91345767e-003 2.82651722e-001 1.07487053e-001 2.41241306e-001
      5.82532942e-001 7.55564094e-001 3.03582788e-001 3.77686471e-001
      4.32796776e-001 7.27237165e-001 2.99433678e-001 5.58864279e-003
      8.26432049e-001 1.16006054e-001 5.31814285e-002 6.44322112e-002
      3.87472183e-001 2.01213911e-001 1.47077560e-001 7.36625016e-001
      1.57174662e-001 3.41157556e-001 1.28061235e+000 1.03473432e-001
      1.14510059e-002 1.12801485e-001 4.81273979e-001 1.47744346e+000
      4.13939059e-001 6.57071590e-001 2.30739340e-001 4.83471483e-001
      4.34000641e-002 1.27599382e+000 9.68399584e-001 7.18020856e-001
      1.12139218e-001 1.94242597e+000 1.82006076e-001 9.73505318e-001
      4.93633568e-001 1.49948061e-001 5.48140049e-001 1.68136492e-001</_>
    <_>
      2.28609256e-002 3.51219982e-001 7.91609704e-001 4.29709315e-001
      6.60133362e-002 9.38500047e-001 1.31800830e-001 3.00468594e-001
      8.41088146e-002 7.81087041e-001 8.45047906e-002 2.64197975e-001
      1.25558507e+000 6.76140666e-001 1.44175403e-002 2.83400738e-003
      1.03866327e+000 2.43055865e-001 1.42635703e+000 3.38578165e-001
      1.09861553e+000 4.82122660e-001 1.03728637e-001 8.54408681e-001
      4.76720273e-001 3.98816407e-001 1.76713955e+000 2.30299048e-002
      2.78977931e-001 4.43470150e-001 4.01676074e-002 9.13021341e-002
      1.11637056e-001 2.39827350e-001 8.56534541e-001 2.29644251e+000
      1.55683905e-001 2.42948309e-001 3.76809180e-001 1.86721697e-001
      1.00625083e-002 4.03222919e-001 4.25558329e-001 4.65110749e-001
      2.78907251e-002 7.10996911e-002 6.29704058e-001 2.62304246e-001
      3.40581417e-001 5.34234703e-001 6.95237100e-001 3.07031721e-001
      5.96022367e-001 6.61583066e-001 1.76404119e-001 1.34125924e+000
      5.06898582e-001 9.54382941e-002 5.83367765e-001 4.75501597e-001
      1.26349866e+000 1.10492039e+000 4.39436473e-002 3.51413637e-001
      1.37643769e-001 1.63218364e-001 4.14624065e-002 8.88818622e-001
      5.22335945e-003 3.21361780e-001 2.49048263e-001 6.56504696e-003
      8.16135049e-001 1.29948437e-001 3.49158943e-001 5.07301331e-001
      5.24210870e-001 1.98118436e+000 8.50339234e-001 4.67654854e-001
      2.78447598e-001 1.51182815e-001 1.00816774e+000 2.87957162e-001
      2.57390648e-001 8.77211392e-001 8.43398273e-001 2.74123568e-002
      3.22391698e-003 6.33462727e-001 6.53705716e-001 2.01174855e+000
      1.13247603e-001 8.35138202e-001 1.06587717e-002 7.29218917e-003
      5.31311333e-001 8.66994739e-001 2.91396439e-001 5.62360823e-001
      3.89829338e-001 4.70237166e-001 4.32907522e-001 1.16455173e+000
      6.37149453e-001 1.30518889e-002 1.63054538e+000 1.28471124e+000
      4.33582783e-001 1.50727862e-002 1.62980892e-002 2.27878705e-001
      7.71406591e-002 7.27650285e-001 4.28976193e-002 1.31725058e-001
      2.84420550e-001 4.77825217e-002 2.72572692e-002 7.73781314e-002
      1.84783950e-001 5.31033456e-001 5.75762570e-001 1.03882837e+000
      3.41528594e-001 1.44958198e+000 4.80157763e-001 6.55006468e-001
      9.28594828e-001 7.00202286e-001 1.30736325e-002 1.01597404e+000
      9.35752913e-002 2.14312419e-001 6.76526502e-002 9.95161086e-002
      5.32228537e-002 2.78483301e-001 3.31461072e-001 1.82181299e-001
      6.09026492e-001 2.81872656e-002 4.31130230e-002 2.23698039e-002
      8.36787522e-002 5.95713079e-001 9.29145455e-001 5.05960919e-002
      1.62875317e-002 9.32319164e-001 7.40933940e-002 5.44093192e-001
      6.01358414e-001 2.85675079e-001 1.85942173e-001 8.89817774e-002
      1.08331814e-001 7.18696237e-001 3.36987823e-001 1.10696748e-001
      2.87828092e-002 4.44475934e-002 5.74425042e-001 5.41166723e-001
      8.40998515e-002 1.06252909e-001 2.78391331e-001 6.89733982e-001
      4.04184490e-001 1.50143296e-001 1.46248549e-001 3.46002370e-001
      1.49340022e+000 2.03835294e-001 1.29243529e+000 1.84972771e-002
      3.76330137e-001 4.47304904e-001 3.69362921e-001 2.77821213e-001
      3.92334253e-001 9.41650644e-002 4.38370649e-003 1.38048625e+000
      2.77210951e-001 2.36302137e+000 1.11899721e-002 1.07342243e+000
      1.69199169e+000 8.65039110e-001 1.90702960e-001 7.11386919e-001
      7.88124382e-001 1.61785819e-002 4.28288197e-003 6.91175908e-002
      1.20384045e-001 8.90488744e-001 3.35161805e-001 3.96737754e-002
      5.56184649e-001 7.20892027e-002 3.00638407e-001 3.75539884e-002
      3.32973376e-002 1.42652178e-002 1.15116499e-002 3.42693835e-001
      6.64344877e-002 5.02008460e-002 4.88479257e-001 4.21241611e-001
      1.29612422e+000 2.65374929e-001 7.66054690e-002 2.95439184e-001
      1.47598410e+000 3.44071980e-003 1.62033793e-002 6.12554312e-001
      8.56916785e-001 1.32093096e+000 1.25094969e-002 7.02310503e-002
      1.56801856e+000 3.19541872e-001 1.50856614e-001 1.32991582e-001
      8.06011438e-001 1.70681611e-001 1.75562426e-001 1.62236512e-001
      1.08013161e-001 1.09434986e+000 9.95834991e-002 1.52406069e-002
      1.41851708e-001 5.36724627e-001 9.89895523e-001 1.09880853e+000
      1.53115678e+000 1.31937432e+000 1.03918195e+000 1.84538817e+000
      8.94224271e-002 9.03019607e-001 1.03608288e-001 4.33526225e-002
      1.06242336e-002 1.14336079e-002 3.98852527e-001 4.68430072e-001
      1.48428991e-001 1.16135406e+000 1.37983882e+000 1.24732804e+000
      1.23623917e-002 8.59267890e-001 2.43084088e-001 9.39350367e-001
      6.36149347e-001 2.93650061e-001 3.89142275e-001 1.08401978e+000
      9.59244668e-002 7.89371371e-001 4.11618948e-001 4.92440239e-002
      2.28888705e-001 4.46845107e-002 1.31154180e+000 2.17163548e-001
      7.48530567e-001 6.99417830e-001 1.35958672e-001 3.80176045e-002
      1.20937479e+000 3.57910581e-002 5.82457110e-002 8.91894698e-002
      3.90506000e-003 1.04257381e+000 4.46345657e-001 1.31262422e-001
      5.19761071e-002 5.48063777e-003 3.07793707e-001 4.09786850e-002
      1.97231427e-001 2.94988602e-001 3.11494082e-001 1.57957286e-001
      1.00485909e+000 1.55323699e-001 3.78645863e-003 1.08067676e-001
      1.41925305e-001 1.48245767e-001 7.04250455e-001 6.34178817e-001
      3.51895136e-003 1.70645130e+000 3.29838917e-002 2.86973473e-002
      6.16527140e-001 1.94626316e-001 1.03498721e+000 4.24512960e-002
      4.21646014e-002 1.25606889e-002 3.76900509e-002 3.93660605e-001
      1.51620817e+000 2.03806564e-001 2.05277950e-001 2.44827807e-001
      4.98379409e-001 3.26417744e-001 6.74539506e-001 1.67956173e-001
      6.64201975e-001 1.09045494e+000 5.30574799e-001 3.55834872e-001
      3.13509852e-002 1.57860413e-001 7.83353671e-002 1.03464162e+000
      2.91007400e-001 2.81422794e-001 4.43109781e-001 1.54582119e+000
      1.30408369e-002 7.36295760e-001 5.88768482e-001 4.03525960e-003
      1.21827281e+000 3.22496542e-003 1.80511311e-001 1.33474737e-001
      9.31710899e-001 8.94507393e-002 1.57951057e-001 1.09135192e-002
      7.50504255e-001 1.13359258e-001 2.00143933e-001 6.80321276e-001
      4.62000072e-001 3.65371913e-001 3.70427370e-001 1.98687866e-001
      1.79998899e+000 2.44449049e-001 4.41893101e-001 4.08703744e-001
      3.73640284e-003 9.20396388e-001 9.20060724e-002 2.21408725e+000
      7.11433291e-001 1.11828721e+000 3.12796980e-001 5.17216027e-001
      4.10815716e-001 1.46329343e+000 5.83270848e-001 5.09790285e-003
      1.03590381e+000 1.11474775e-001 2.19522387e-001 1.06984019e+000
      2.75957704e-001 1.39303103e-001 3.69750559e-001 9.70136344e-001
      9.69219625e-001 4.29569274e-001 4.38306630e-001 9.47439522e-002
      8.69187340e-002 1.06278777e-001 2.72274792e-001 8.08842003e-001
      2.90163815e-001 2.18653679e+000 1.27996206e-001 2.79517293e-001
      2.36229543e-002 1.85878158e+000 4.06673193e-001 2.66285807e-001
      1.49531022e-001 1.33283627e+000 4.26479697e-001 5.57840586e-001
      2.45067537e-001 9.14662480e-001 1.34402144e+000 1.51388323e+000</_>
    <_>
      5.88515848e-002 1.89133584e-001 9.18205261e-001 3.99238765e-001
      3.34229395e-002 7.38725722e-001 1.20674729e-001 3.88294607e-001
      1.71034738e-001 4.86927092e-001 1.62642941e-001 3.01494062e-001
      3.44103038e-001 1.23909247e+000 1.54484306e-002 2.91404990e-003
      8.25760067e-001 1.90667570e-001 1.05672562e+000 3.38040531e-001
      1.67157149e+000 6.20165408e-001 7.74756819e-002 7.06072748e-001
      4.87756103e-001 2.81026185e-001 2.36324215e+000 2.80657783e-002
      3.69790792e-001 2.84466922e-001 3.76304798e-002 1.13612369e-001
      1.35236651e-001 2.64777720e-001 8.95743728e-001 1.33055615e+000
      1.65663734e-001 2.27008060e-001 7.18786776e-001 1.71680674e-001
      1.74159259e-002 3.61987501e-001 2.30565935e-001 4.86411721e-001
      2.34368853e-002 5.19466251e-002 5.78834176e-001 3.28082144e-001
      3.58917385e-001 5.69384575e-001 3.27938080e-001 3.99394304e-001
      6.04748726e-001 4.60573375e-001 1.76312312e-001 9.16832209e-001
      5.63496947e-001 8.96021277e-002 5.95007598e-001 6.67248249e-001
      1.44636869e+000 1.09217858e+000 5.31252772e-002 1.73882648e-001
      6.94456771e-002 1.38884798e-001 3.14880610e-002 9.44491982e-001
      4.56081424e-003 2.78014988e-001 1.73298404e-001 9.52689350e-003
      7.03009665e-001 1.57772243e-001 3.84244502e-001 1.04116142e+000
      4.76950526e-001 1.89917731e+000 6.72962785e-001 2.58522242e-001
      4.81230289e-001 1.44988224e-001 1.38628626e+000 3.13628942e-001
      2.71509975e-001 2.71116590e+000 7.92686582e-001 2.87475400e-002
      7.41801644e-003 5.67308784e-001 5.24535239e-001 1.78299558e+000
      1.21878996e-001 8.76550436e-001 1.91743746e-002 7.82502349e-003
      5.58449686e-001 7.75199413e-001 2.42538646e-001 7.13475168e-001
      7.33856559e-001 3.58718604e-001 5.04281223e-001 1.15485394e+000
      6.45577073e-001 1.53906541e-002 1.69106412e+000 1.46386635e+000
      3.34557682e-001 1.51020922e-002 9.65540186e-002 2.56078660e-001
      6.74016848e-002 7.92935193e-001 4.08331528e-002 1.76746592e-001
      3.11409861e-001 3.27429622e-002 1.94649529e-002 7.85294995e-002
      2.06869036e-001 3.94447386e-001 5.30607164e-001 3.70306760e-001
      4.41304088e-001 4.53606457e-001 4.71337020e-001 3.65430236e-001
      9.28162813e-001 6.14689350e-001 1.17335329e-002 1.07828951e+000
      1.06942795e-001 2.35341221e-001 4.18566093e-002 9.27446857e-002
      3.41823250e-002 2.77739137e-001 3.11659485e-001 2.78551131e-001
      5.22234917e-001 2.38481034e-002 4.23820876e-002 1.53606072e-001
      5.03822938e-002 5.97982645e-001 8.93634796e-001 3.29831392e-002
      2.79153027e-002 8.72611523e-001 1.62190646e-001 5.33728898e-001
      5.46132028e-001 2.58198798e-001 2.38689214e-001 1.26382843e-001
      1.93523034e-001 4.81093526e-001 3.81417572e-001 1.00829370e-001
      3.01592704e-002 6.18705042e-002 4.94722039e-001 4.71548945e-001
      1.25722021e-001 8.35616663e-002 3.12811762e-001 6.23952746e-001
      6.56874478e-001 9.83500332e-002 1.13564499e-001 3.37776184e-001
      1.28324926e+000 2.02618301e-001 1.51039183e+000 3.53858173e-002
      4.86236095e-001 4.69807178e-001 1.77061096e-001 2.13312477e-001
      3.71104389e-001 1.02037571e-001 4.09659464e-003 1.70501423e+000
      3.31852198e-001 1.48460627e+000 3.91001701e-002 5.26286423e-001
      5.28364539e-001 1.42276883e+000 2.76712120e-001 5.97293377e-001
      1.95343447e+000 8.16862881e-002 1.03040580e-002 4.59503561e-001
      1.08469479e-001 1.29154515e+000 3.34972113e-001 3.78616713e-002
      4.96874094e-001 7.02031076e-001 2.91449696e-001 5.24426065e-002
      4.47948202e-002 1.56354047e-002 1.18867336e-002 4.22344536e-001
      3.87108810e-002 4.61628698e-002 4.02993947e-001 4.36620712e-001
      1.40840995e+000 2.51947671e-001 9.05947462e-002 2.48136014e-001
      1.52848923e+000 5.23088546e-003 1.98809654e-002 1.13341308e+000
      5.90850770e-001 1.66520083e+000 2.99236476e-002 7.98335820e-002
      5.36678493e-001 3.14584762e-001 2.10825890e-001 1.17188007e-001
      7.76654661e-001 1.16496667e-001 1.31576627e-001 1.81318864e-001
      1.70319796e-001 9.84217465e-001 9.69893411e-002 1.70312766e-002
      1.52469963e-001 6.29557848e-001 8.36749375e-001 1.17248714e+000
      6.67510331e-001 1.43432212e+000 5.03169417e-001 1.07199132e+000
      1.56348884e-001 8.66793275e-001 9.30877849e-002 3.52036841e-002
      9.73495282e-003 1.16505465e-002 4.02182072e-001 2.42786378e-001
      1.44581795e-001 1.06551266e+000 1.06956649e+000 1.53796363e+000
      1.24256629e-002 1.12780011e+000 3.60008925e-001 5.38383663e-001
      1.16957676e+000 3.36825311e-001 3.46560359e-001 1.02086902e+000
      8.14441592e-002 6.00702107e-001 3.73687714e-001 4.25786600e-002
      2.48044848e-001 4.26259898e-002 1.10025132e+000 1.92129105e-001
      1.03698075e+000 1.41977179e+000 1.17287517e-001 7.43131191e-002
      1.56051207e+000 4.02789898e-002 2.99005568e-001 7.59999976e-002
      3.48999002e-003 1.20258665e+000 2.10918859e-001 1.47875562e-001
      5.66102378e-002 1.51602197e-002 3.02998126e-001 4.68956493e-002
      1.01285899e+000 1.83762327e-001 2.85061538e-001 1.70108855e-001
      1.03033090e+000 1.49717838e-001 6.32422371e-003 2.25513697e-001
      1.53259620e-001 1.12925515e-001 7.73576140e-001 6.22812927e-001
      6.38778135e-003 1.62242603e+000 2.30464451e-002 2.33497061e-002
      3.27029824e-001 1.78216755e-001 8.80077124e-001 6.34980649e-002
      4.13024798e-002 1.46774901e-002 3.51997614e-002 4.42047358e-001
      2.07851934e+000 1.04187381e+000 2.52397090e-001 2.63958216e-001
      8.26065123e-001 3.09209883e-001 5.22392750e-001 9.45905074e-002
      1.16022599e+000 9.34965432e-001 5.62842906e-001 2.02451393e-001
      2.42219213e-002 1.13409966e-001 8.53203014e-002 7.77985632e-001
      2.41701230e-001 3.20781320e-001 5.78053594e-001 1.91675508e+000
      1.46892583e-002 2.87710935e-001 7.18398035e-001 3.58105963e-003
      1.22865987e+000 3.54419206e-003 1.52716339e-001 1.25651509e-001
      8.42694819e-001 8.21548477e-002 1.30737409e-001 1.75461043e-002
      3.11717963e+000 1.16384313e-001 1.70822605e-001 1.30779552e+000
      4.54249293e-001 1.75404981e-001 4.06082749e-001 2.14591205e-001
      1.73894548e+000 2.75348753e-001 1.05508244e+000 3.77052724e-001
      4.81641293e-003 7.78519332e-001 1.11933775e-001 2.09595442e+000
      7.43198812e-001 8.64303052e-001 3.34609449e-001 5.75429380e-001
      2.25537002e-001 1.31224525e+000 4.56959426e-001 1.43200802e-002
      1.37347388e+000 8.28538388e-002 1.31542608e-001 4.65912700e-001
      3.90503049e-001 8.45501050e-002 3.70434791e-001 4.59251374e-001
      1.54566348e+000 3.54940921e-001 3.48903298e-001 1.19278319e-001
      5.17768487e-002 1.20160133e-001 2.81283379e-001 6.67478442e-001
      2.19386712e-001 1.48242581e+000 1.32669225e-001 2.41461679e-001
      6.26757741e-002 1.70499432e+000 4.54591006e-001 7.22117007e-001
      8.29035416e-002 8.90934944e-001 4.05571014e-001 5.75474143e-001
